,0,1,2,3,4,5
0,-0.03725490196078429,-0.1705882352941176,-0.11538461538461536,-0.09999999999999998,0.0111111111111111,0.29
1,0.05348837209302326,0.07272727272727275,0.09999999999999998,0.0,-0.1,0.2
2,0.034782608695652195,0.014285714285714346,0.125,0.10000000000000003,0.042857142857142844,0.17
3,0.051219512195121886,0.16666666666666674,0.0,0.10000000000000003,-0.1,0.15
4,0.0019607843137254832,0.020000000000000018,-0.25,0.0,-0.1,0.21
5,0.07777777777777772,0.12142857142857144,-0.16666666666666669,0.033333333333333326,-0.1,0.17
6,0.021568627450980316,-0.13749999999999996,0.08823529411764708,-0.04999999999999999,-0.1,0.22
7,0.020000000000000018,-0.06842105263157894,0.0,0.033333333333333326,0.024999999999999994,0.21
8,-0.07073170731707323,0.05757575757575761,-0.5,0.06363636363636366,-0.1,0.27
9,0.006976744186046435,0.08571428571428574,-0.09999999999999998,-0.09999999999999998,0.1222222222222222,0.21
10,0.03220338983050841,-0.11176470588235288,-0.5,-0.04999999999999999,-0.1,0.23
11,0.021568627450980316,-0.19999999999999996,0.0625,0.0,0.1222222222222222,0.22
12,-0.00638297872340432,-0.06842105263157894,0.15000000000000002,-0.04999999999999999,-0.1,0.21
13,0.04117647058823526,-0.06842105263157894,0.11111111111111116,-0.15714285714285714,-0.1,0.18
14,0.025925925925925908,-0.0888888888888888,0.0,-0.15714285714285714,-0.1,0.21
15,-0.0320754716981132,-0.23333333333333328,-0.11538461538461536,0.0,0.0111111111111111,0.28
16,0.02682926829268295,0.11481481481481481,0.0714285714285714,0.15454545454545454,-0.1,0.17
17,-0.025000000000000022,0.10000000000000009,-0.038461538461538436,-0.18888888888888888,0.15,0.22
18,-0.040000000000000036,-0.0636363636363636,-0.13636363636363635,-0.07777777777777778,-0.1,0.27
19,0.0,0.10000000000000009,0.0625,-0.15714285714285714,0.042857142857142844,0.19
20,0.006976744186046435,0.050000000000000044,0.0,0.0,0.1222222222222222,0.21
21,-0.008108108108108136,0.10000000000000009,0.0714285714285714,0.10000000000000003,0.0111111111111111,0.2
22,-0.04634146341463419,0.008333333333333415,0.11111111111111116,-0.18888888888888888,0.024999999999999994,0.25
23,0.009090909090909038,0.06923076923076932,0.0,-0.175,0.15,0.2
24,-0.008695652173913104,-0.0888888888888888,0.033333333333333326,0.16153846153846158,-0.1,0.24
25,-0.05384615384615388,-0.1705882352941176,0.0,-0.175,-0.1,0.28
26,0.024528301886792447,-0.04999999999999993,-0.25,0.06363636363636366,0.15,0.2
27,-0.03513513513513511,-0.004347826086956497,0.23076923076923073,-0.15714285714285714,0.042857142857142844,0.21
28,0.016666666666666607,0.1823529411764706,-0.375,0.2714285714285714,0.024999999999999994,0.17
29,0.029824561403508754,-0.13749999999999996,-0.038461538461538436,-0.15714285714285714,0.042857142857142844,0.2
30,0.014893617021276562,0.050000000000000044,-0.16666666666666669,0.06363636363636366,-0.1,0.19
31,-0.002564102564102555,0.16842105263157903,-0.35714285714285715,0.033333333333333326,0.042857142857142844,0.17
32,0.031818181818181746,0.10000000000000009,0.038461538461538436,0.033333333333333326,0.1222222222222222,0.17
33,0.046428571428571375,-0.11176470588235288,-0.08333333333333331,-0.04999999999999999,0.042857142857142844,0.19
34,-0.00638297872340432,-0.04999999999999993,0.033333333333333326,0.0,0.024999999999999994,0.23
35,0.01304347826086949,0.03076923076923077,-0.038461538461538436,-0.04999999999999999,0.042857142857142844,0.2
36,-0.036363636363636376,-0.004347826086956497,0.11111111111111116,-0.175,0.042857142857142844,0.23
37,0.08305084745762714,-0.13749999999999996,-0.16666666666666669,0.10000000000000003,-0.1,0.16
38,0.0038461538461538325,-0.033333333333333326,-0.13636363636363635,-0.04999999999999999,0.024999999999999994,0.22
39,0.020000000000000018,-0.033333333333333326,-0.13636363636363635,0.033333333333333326,-0.1,0.23
40,-0.08000000000000007,-0.17368421052631577,0.0,-0.3,0.024999999999999994,0.3
41,-0.04893617021276597,-0.019999999999999907,-0.13636363636363635,-0.07777777777777778,-0.1,0.27
42,-0.03725490196078429,-0.1705882352941176,-0.13636363636363635,0.08461538461538465,0.024999999999999994,0.27
43,-0.10588235294117654,-0.033333333333333326,0.15217391304347827,0.06363636363636366,-0.1,0.28
44,0.05652173913043479,0.0,0.16666666666666663,0.033333333333333326,0.042857142857142844,0.16
45,-0.06666666666666665,0.08125000000000004,-0.25,0.06363636363636366,0.042857142857142844,0.23
46,0.045454545454545414,-0.033333333333333326,-0.25,-0.3,0.15,0.2
47,-0.09354838709677427,-0.06842105263157894,0.25,0.2,0.024999999999999994,0.24
48,0.006976744186046435,-0.13749999999999996,0.15000000000000002,0.15454545454545454,-0.1,0.24
49,0.03749999999999998,0.014285714285714346,0.033333333333333326,0.033333333333333326,0.042857142857142844,0.18
50,0.054545454545454564,0.08260869565217399,0.125,-0.07777777777777778,-0.1,0.18
51,0.011111111111111072,-0.004347826086956497,0.0,-0.07777777777777778,0.0111111111111111,0.23
52,-0.07777777777777783,-0.19999999999999996,-0.07142857142857145,0.12857142857142856,0.1727272727272727,0.3
53,-0.015384615384615441,0.03076923076923077,-0.2,-0.3,-0.1,0.22
54,-0.011111111111111183,0.07777777777777783,-0.09999999999999998,0.10000000000000003,-0.1,0.21
55,0.04339622641509433,0.014285714285714346,-0.35714285714285715,0.2,-0.1,0.18
56,-0.1051282051282052,0.0,-0.033333333333333326,-0.175,0.024999999999999994,0.29
57,-0.05789473684210533,0.0741935483870968,-0.038461538461538436,-0.18888888888888888,-0.1,0.27
58,-0.020000000000000018,-0.047826086956521685,-0.13636363636363635,-0.07777777777777778,-0.1,0.25
59,-0.008695652173913104,0.08571428571428574,-0.09999999999999998,-0.04999999999999999,0.15,0.19
60,-0.1105263157894737,-0.019999999999999907,0.07894736842105265,-0.07777777777777778,-0.1,0.3
61,0.039999999999999925,0.020000000000000018,-0.09999999999999998,-0.04999999999999999,0.042857142857142844,0.18
62,0.021568627450980316,-0.0888888888888888,0.038461538461538436,0.033333333333333326,0.1222222222222222,0.2
63,0.046428571428571375,-0.36666666666666664,0.08823529411764708,0.06363636363636366,0.042857142857142844,0.19
64,0.05918367346938769,0.07777777777777783,-0.16666666666666669,-0.175,-0.1,0.18
65,-0.03953488372093028,0.040740740740740744,0.0,0.0,-0.1,0.23
66,0.021052631578947323,0.08260869565217399,0.1842105263157895,0.10000000000000003,-0.1,0.2
67,-0.01764705882352946,-0.033333333333333326,-0.13636363636363635,-0.3,0.042857142857142844,0.24
68,0.02857142857142858,0.07777777777777783,0.09999999999999998,-0.3,0.15,0.19
69,-0.002564102564102555,0.14375000000000004,0.038461538461538436,0.033333333333333326,-0.1,0.18
70,0.021568627450980316,-0.11176470588235288,0.11111111111111116,-0.15714285714285714,-0.1,0.21
71,0.021874999999999978,-0.28333333333333327,-0.35714285714285715,0.0,-0.1,0.22
72,0.04117647058823526,-0.16153846153846152,0.15000000000000002,0.033333333333333326,-0.1,0.19
73,0.007407407407407418,-0.13749999999999996,-0.038461538461538436,0.0,-0.1,0.23
74,0.04117647058823526,0.06923076923076932,-0.375,-0.04999999999999999,-0.1,0.19
75,0.027272727272727226,-0.19999999999999996,0.0,-0.18888888888888888,0.15,0.22
76,-0.0714285714285714,0.12352941176470589,-0.08333333333333331,-0.09999999999999998,0.1222222222222222,0.24
77,-0.022448979591836782,-0.1705882352941176,0.0,0.0,0.0,0.27
78,0.03023255813953485,0.0,0.23913043478260865,-0.04999999999999999,-0.1,0.17
79,-0.0020408163265306367,-0.11176470588235288,0.15000000000000002,-0.15714285714285714,0.042857142857142844,0.21
80,0.004761904761904745,0.12352941176470589,-0.16666666666666669,-0.04999999999999999,0.042857142857142844,0.18
81,-0.016279069767441867,0.008333333333333415,0.08823529411764708,-0.175,0.15,0.22
82,0.039999999999999925,0.050000000000000044,-0.08333333333333331,-0.15714285714285714,0.042857142857142844,0.18
83,0.052380952380952306,0.17096774193548392,-0.04545454545454547,0.033333333333333326,-0.1,0.15
84,0.01379310344827589,-0.2384615384615384,-0.08333333333333331,-0.07777777777777778,0.024999999999999994,0.23
85,-0.1352941176470589,0.0037037037037037646,0.07894736842105265,0.0,0.0,0.3
86,-0.06666666666666665,0.06000000000000005,0.16666666666666663,0.15454545454545454,0.042857142857142844,0.21
87,0.06226415094339621,-0.06842105263157894,0.038461538461538436,-0.04999999999999999,-0.1,0.18
88,-0.16315789473684217,0.00967741935483879,-0.07142857142857145,-0.07777777777777778,0.024999999999999994,0.31
89,0.0,-0.3363636363636363,-0.11538461538461536,-0.07777777777777778,0.042857142857142844,0.24
90,-0.05909090909090908,-0.08095238095238089,0.02941176470588236,0.0,-0.1,0.28
91,0.014893617021276562,-0.004347826086956497,0.0,-0.04999999999999999,-0.1,0.22
92,0.05555555555555558,0.09166666666666667,0.19999999999999996,-0.13333333333333333,-0.1,0.13
93,-0.03725490196078429,-0.08095238095238089,-0.07142857142857145,-0.04999999999999999,-0.1,0.25
94,0.047368421052631504,-0.13749999999999996,-0.08333333333333331,-0.15714285714285714,0.15,0.19
95,-0.022448979591836782,-0.0888888888888888,-0.038461538461538436,0.06363636363636366,-0.1,0.26
96,0.007407407407407418,-0.13749999999999996,0.0,-0.07777777777777778,0.042857142857142844,0.22
97,0.0019607843137254832,-0.004347826086956497,-0.08333333333333331,-0.15714285714285714,-0.1,0.22
98,-0.022448979591836782,-0.13749999999999996,0.11904761904761907,-0.15714285714285714,-0.1,0.24
99,0.0,0.13333333333333341,0.0,0.15454545454545454,0.042857142857142844,0.17
100,0.015254237288135575,-0.16666666666666663,-0.2,0.0,-0.1,0.22
101,0.02857142857142858,-0.06842105263157894,-0.2777777777777778,-0.04999999999999999,-0.1,0.22
102,0.04117647058823526,0.008333333333333415,-0.08333333333333331,-0.04999999999999999,-0.1,0.18
103,-0.03157894736842104,0.08571428571428574,0.0625,-0.07777777777777778,0.0111111111111111,0.23
104,0.024528301886792447,-0.06842105263157894,-0.2,0.10000000000000003,-0.1,0.22
105,-0.04893617021276597,-0.1210526315789473,0.05555555555555558,-0.07777777777777778,-0.1,0.27
106,-0.02195121951219514,0.1064516129032258,0.0,-0.3,-0.1,0.22
107,-0.05555555555555558,0.014285714285714346,-0.2,0.0,0.042857142857142844,0.25
108,0.02857142857142858,-0.033333333333333326,-0.25,-0.04999999999999999,0.042857142857142844,0.19
109,0.03749999999999998,-0.11176470588235288,0.0625,0.0,-0.1,0.23
110,-0.04285714285714293,-0.23333333333333328,0.08823529411764708,0.0,0.1222222222222222,0.26
111,0.04117647058823526,-0.0888888888888888,0.033333333333333326,-0.04999999999999999,0.15,0.19
112,0.025925925925925908,-0.018181818181818188,-0.25,0.0,-0.1,0.2
113,-0.016279069767441867,0.11250000000000004,-0.16666666666666669,-0.175,0.024999999999999994,0.21
114,0.0787234042553191,-0.033333333333333326,0.1470588235294118,0.033333333333333326,0.2333333333333333,0.15
115,0.06825396825396823,-0.44999999999999996,-0.038461538461538436,0.033333333333333326,-0.1,0.18
116,-0.04634146341463419,0.008333333333333415,0.13157894736842102,-0.04999999999999999,0.15,0.22
117,-0.033333333333333326,-0.047826086956521685,-0.13636363636363635,0.1166666666666667,0.1222222222222222,0.25
118,0.01836734693877551,0.020000000000000018,-0.16666666666666669,0.033333333333333326,-0.1,0.21
119,0.06153846153846154,0.027272727272727337,-0.16666666666666669,0.033333333333333326,-0.1,0.18
120,0.0482758620689655,-0.11176470588235288,-0.2777777777777778,-0.175,-0.1,0.22
121,0.038775510204081653,0.03913043478260869,-0.16666666666666669,-0.07777777777777778,0.30000000000000004,0.18
122,-0.01764705882352946,-0.47777777777777775,0.09999999999999998,0.06363636363636366,-0.1,0.27
123,-0.06279069767441858,0.014285714285714346,-0.08333333333333331,0.0,-0.1,0.26
124,0.0024390243902439046,0.08571428571428574,-0.09999999999999998,0.23846153846153845,0.15,0.18
125,0.0444444444444444,-0.2384615384615384,0.11111111111111116,-0.04999999999999999,0.042857142857142844,0.19
126,0.031818181818181746,0.06923076923076932,0.0714285714285714,0.033333333333333326,0.042857142857142844,0.17
127,-0.03953488372093028,-0.047826086956521685,-0.038461538461538436,0.1166666666666667,0.1222222222222222,0.25
128,-0.01764705882352946,-0.004347826086956497,-0.038461538461538436,-0.15714285714285714,-0.1,0.22
129,-0.07500000000000007,0.041935483870967794,-0.3888888888888889,0.06363636363636366,0.0111111111111111,0.28
130,-0.00638297872340432,0.008333333333333415,0.0625,-0.15714285714285714,-0.1,0.21
131,0.024528301886792447,-0.19999999999999996,0.08823529411764708,-0.04999999999999999,-0.1,0.22
132,0.04230769230769227,-0.004347826086956497,-0.09999999999999998,-0.04999999999999999,-0.1,0.19
133,-0.022448979591836782,-0.019999999999999907,-0.038461538461538436,-0.15714285714285714,-0.1,0.23
134,0.03749999999999998,0.050000000000000044,-0.04545454545454547,-0.07777777777777778,0.024999999999999994,0.19
135,0.007407407407407418,-0.16666666666666663,-0.13636363636363635,0.06363636363636366,0.0111111111111111,0.24
136,-0.025000000000000022,0.050000000000000044,0.2142857142857143,-0.04999999999999999,-0.1,0.2
137,-0.036363636363636376,0.014285714285714346,-0.08333333333333331,-0.3,0.1222222222222222,0.25
138,0.08305084745762714,-0.13749999999999996,-0.09999999999999998,-0.04999999999999999,-0.1,0.17
139,-0.013636363636363669,0.008333333333333415,0.0,0.0,0.024999999999999994,0.23
140,-0.013636363636363669,-0.06842105263157894,0.08823529411764708,0.1166666666666667,-0.1,0.24
141,-0.03725490196078429,-0.1210526315789473,-0.13636363636363635,0.0,0.0111111111111111,0.27
142,0.027272727272727226,-0.19999999999999996,-0.08333333333333331,0.0,0.1222222222222222,0.22
143,-0.08181818181818179,0.06923076923076932,0.15000000000000002,0.1166666666666667,0.0111111111111111,0.24
144,0.06226415094339621,-0.11176470588235288,0.125,-0.15714285714285714,-0.1,0.18
145,-0.0020408163265306367,-0.004347826086956497,0.0,-0.15714285714285714,-0.1,0.22
146,0.011111111111111072,0.06923076923076932,-0.038461538461538436,-0.04999999999999999,0.024999999999999994,0.2
147,0.06491228070175437,-0.24545454545454543,0.033333333333333326,-0.07777777777777778,0.15,0.18
148,0.05918367346938769,0.050000000000000044,-0.04545454545454547,-0.04999999999999999,-0.1,0.18
149,-0.04893617021276597,-0.0636363636363636,-0.13636363636363635,0.1166666666666667,-0.1,0.27
150,-0.04754098360655745,-0.47777777777777775,-0.2272727272727273,-0.027272727272727282,-0.1,0.3
151,-0.022448979591836782,-0.06842105263157894,-0.038461538461538436,-0.09999999999999998,0.0111111111111111,0.26
152,0.0019607843137254832,-0.08095238095238089,-0.08333333333333331,-0.04999999999999999,0.024999999999999994,0.23
153,-0.09999999999999998,0.014285714285714346,0.05555555555555558,0.0,0.1222222222222222,0.27
154,0.005660377358490565,-0.11176470588235288,0.0,-0.04999999999999999,0.15,0.21
155,0.06428571428571428,-0.033333333333333326,-0.16666666666666669,-0.15714285714285714,-0.1,0.18
156,-0.11428571428571432,0.050000000000000044,0.16666666666666663,0.16153846153846158,-0.1,0.27
157,-0.03513513513513511,-0.018181818181818188,0.0625,0.2625,0.1222222222222222,0.23
158,0.02682926829268295,0.11481481481481481,0.09999999999999998,0.10000000000000003,-0.1,0.17
159,0.0,0.09310344827586214,0.0714285714285714,-0.07777777777777778,-0.1,0.21
160,0.011111111111111072,0.008333333333333415,0.033333333333333326,-0.04999999999999999,-0.1,0.22
161,-0.04634146341463419,-0.033333333333333326,-0.038461538461538436,0.16153846153846158,-0.1,0.27
162,0.05652173913043479,0.050000000000000044,0.038461538461538436,0.033333333333333326,-0.1,0.18
163,0.0019607843137254832,-0.033333333333333326,0.0,-0.15714285714285714,-0.1,0.22
164,0.02857142857142858,0.11481481481481481,0.0714285714285714,0.033333333333333326,-0.1,0.18
165,-0.040000000000000036,0.024137931034482807,-0.375,-0.15714285714285714,-0.1,0.24
166,-0.013207547169811318,-0.14444444444444438,-0.2,0.0,0.0111111111111111,0.26
167,-0.05384615384615388,0.040740740740740744,0.0,0.1166666666666667,-0.1,0.25
168,-0.025000000000000022,-0.09999999999999998,-0.038461538461538436,0.1166666666666667,-0.1,0.25
169,-0.016279069767441867,0.008333333333333415,0.08823529411764708,-0.175,-0.1,0.24
170,-0.04285714285714293,0.06666666666666676,-0.35714285714285715,0.23333333333333334,-0.1,0.22
171,-0.04285714285714293,0.008333333333333415,0.19565217391304346,-0.07777777777777778,0.1222222222222222,0.23
172,0.06666666666666665,-0.3363636363636363,-0.038461538461538436,-0.04999999999999999,-0.1,0.2
173,0.02857142857142858,0.07777777777777783,-0.04545454545454547,-0.09999999999999998,0.19999999999999998,0.2
174,0.07826086956521738,0.10769230769230775,0.038461538461538436,-0.04999999999999999,-0.1,0.15
175,-0.1692307692307693,0.03076923076923077,0.15217391304347827,0.2,0.08181818181818182,0.28
176,0.0444444444444444,-0.11176470588235288,-0.038461538461538436,-0.04999999999999999,-0.1,0.21
177,0.005660377358490565,-0.1210526315789473,-0.08333333333333331,-0.04999999999999999,-0.1,0.24
178,0.016666666666666607,0.10000000000000009,-0.25,-0.15714285714285714,-0.1,0.19
179,0.0444444444444444,-0.16666666666666663,0.0,-0.07777777777777778,0.024999999999999994,0.21
180,0.024528301886792447,-0.11176470588235288,-0.038461538461538436,-0.07777777777777778,-0.1,0.23
181,0.057446808510638325,0.027272727272727337,0.0,0.10000000000000003,0.2333333333333333,0.16
182,-0.008695652173913104,-0.28333333333333327,0.08823529411764708,0.31111111111111117,-0.1,0.23
183,0.04117647058823526,-0.05294117647058816,0.0714285714285714,-0.07777777777777778,-0.1,0.21
184,0.07727272727272727,0.21176470588235297,-0.16666666666666669,-0.01428571428571429,-0.1,0.11
185,0.04230769230769227,-0.004347826086956497,-0.16666666666666669,-0.04999999999999999,0.15,0.18
186,0.0,-0.033333333333333326,-0.08333333333333331,-0.07777777777777778,-0.1,0.24
187,0.023076923076923106,-0.04999999999999993,-0.13636363636363635,0.033333333333333326,0.024999999999999994,0.21
188,-0.03157894736842104,0.10000000000000009,0.0,0.033333333333333326,0.2333333333333333,0.2
189,-0.03513513513513511,-0.004347826086956497,0.033333333333333326,0.2882352941176471,0.15,0.22
190,-0.15000000000000002,0.0037037037037037646,0.18000000000000005,-0.07777777777777778,-0.1,0.28
191,0.03749999999999998,0.0,0.11111111111111116,-0.15714285714285714,-0.1,0.19
192,-0.08918918918918917,0.10000000000000009,-0.2777777777777778,0.1166666666666667,-0.1,0.25
193,0.016666666666666607,0.008333333333333415,0.033333333333333326,-0.3,-0.1,0.21
194,0.020000000000000018,-0.19999999999999996,0.0,0.1166666666666667,-0.1,0.25
195,-0.04285714285714293,-0.019999999999999907,-0.038461538461538436,0.1166666666666667,-0.1,0.26
196,0.05833333333333335,0.12142857142857144,-0.375,0.033333333333333326,-0.1,0.17
197,-0.07391304347826089,-0.09130434782608687,-0.2,0.033333333333333326,0.0111111111111111,0.3
198,0.06491228070175437,-0.033333333333333326,-0.35714285714285715,0.10000000000000003,-0.1,0.16
199,-0.13076923076923075,0.00967741935483879,-0.16666666666666669,-0.07777777777777778,0.0111111111111111,0.31
200,0.0607843137254902,0.03913043478260869,0.0,-0.15714285714285714,0.042857142857142844,0.16
201,0.025925925925925908,-0.11176470588235288,0.0,0.033333333333333326,-0.1,0.21
202,-0.04634146341463419,-0.004347826086956497,0.0,0.1166666666666667,-0.1,0.27
203,0.05652173913043479,0.06923076923076932,-0.04545454545454547,-0.07777777777777778,0.024999999999999994,0.18
204,0.025000000000000022,0.1823529411764706,-0.09999999999999998,0.033333333333333326,0.042857142857142844,0.15
205,-0.040000000000000036,-0.14444444444444438,-0.038461538461538436,-0.07777777777777778,0.19999999999999998,0.26
206,0.052380952380952306,-0.033333333333333326,0.2727272727272727,0.10000000000000003,0.15,0.15
207,0.033333333333333326,0.014285714285714346,0.1842105263157895,-0.04999999999999999,-0.1,0.18
208,-0.0304347826086957,-0.1210526315789473,0.033333333333333326,0.06363636363636366,0.0111111111111111,0.26
209,-0.10930232558139541,-0.12857142857142856,-0.11538461538461536,0.2,-0.1,0.31
210,0.031818181818181746,0.06000000000000005,0.125,-0.04999999999999999,-0.1,0.18
211,-0.07391304347826089,0.0037037037037037646,-0.2,-0.175,0.1222222222222222,0.27
212,-0.07073170731707323,-0.04999999999999993,0.15217391304347827,-0.04999999999999999,-0.1,0.26
213,0.014893617021276562,-0.06842105263157894,0.11111111111111116,-0.175,0.15,0.21
214,0.0024390243902439046,0.0,0.08823529411764708,0.06363636363636366,-0.009090909090909094,0.24
215,0.01304347826086949,-0.004347826086956497,0.0,0.033333333333333326,0.15,0.2
216,0.07777777777777772,0.0368421052631579,0.25,-0.04999999999999999,0.15,0.13
217,0.034782608695652195,0.07777777777777783,-0.04545454545454547,0.033333333333333326,-0.1,0.18
218,-0.06363636363636371,-0.23333333333333328,-0.375,0.08461538461538465,0.1222222222222222,0.29
219,-0.02195121951219514,0.050000000000000044,0.11111111111111116,0.033333333333333326,0.024999999999999994,0.21
220,-0.03953488372093028,-0.13749999999999996,0.15217391304347827,-0.04999999999999999,0.19999999999999998,0.24
221,-0.0304347826086957,0.05862068965517242,-0.08333333333333331,-0.3,-0.1,0.23
222,-0.01904761904761909,0.040740740740740744,0.11111111111111116,-0.15714285714285714,-0.1,0.21
223,0.05555555555555558,0.06190476190476191,0.1470588235294118,-0.18888888888888888,0.024999999999999994,0.18
224,0.033333333333333326,0.03913043478260869,-0.04545454545454547,0.2,-0.1,0.2
225,-0.06279069767441858,-0.019999999999999907,-0.13636363636363635,0.06363636363636366,0.0,0.28
226,-0.020000000000000018,-0.06842105263157894,0.08823529411764708,-0.15714285714285714,0.042857142857142844,0.22
227,-0.05625000000000002,0.19189189189189193,-0.04545454545454547,0.10000000000000003,-0.1,0.21
228,0.021568627450980316,-0.033333333333333326,-0.08333333333333331,-0.175,0.024999999999999994,0.22
229,0.09999999999999998,-0.16153846153846152,0.038461538461538436,0.10000000000000003,-0.1,0.16
230,0.06153846153846154,-0.033333333333333326,-0.2777777777777778,0.2,-0.1,0.2
231,0.045454545454545414,-0.16666666666666663,0.0,0.033333333333333326,0.0111111111111111,0.2
232,0.038775510204081653,-0.06842105263157894,0.08823529411764708,-0.175,0.042857142857142844,0.2
233,0.021568627450980316,-0.13749999999999996,0.033333333333333326,-0.07777777777777778,-0.1,0.24
234,0.011111111111111072,0.008333333333333415,-0.038461538461538436,0.033333333333333326,0.0111111111111111,0.22
235,0.005660377358490565,-0.033333333333333326,-0.35714285714285715,-0.07777777777777778,-0.1,0.23
236,0.0019607843137254832,-0.06842105263157894,-0.09999999999999998,0.06363636363636366,0.1222222222222222,0.22
237,0.034782608695652195,0.07777777777777783,0.09999999999999998,-0.15714285714285714,-0.1,0.16
238,0.005660377358490565,-0.1210526315789473,-0.13636363636363635,-0.07777777777777778,0.024999999999999994,0.24
239,0.006976744186046435,0.0,0.125,0.2714285714285714,0.042857142857142844,0.18
240,-0.020000000000000018,-0.04999999999999993,-0.2,0.06363636363636366,0.0111111111111111,0.25
241,-0.0304347826086957,-0.018181818181818188,0.0625,-0.04999999999999999,0.024999999999999994,0.23
242,-0.12222222222222223,0.07777777777777783,0.13157894736842102,0.23333333333333334,0.06666666666666665,0.26
243,-0.09999999999999998,0.041935483870967794,-0.2,0.06363636363636366,-0.1,0.28
244,0.036170212765957444,0.09310344827586214,-0.09999999999999998,-0.04999999999999999,-0.1,0.17
245,-0.012903225806451646,-0.2714285714285714,-0.35714285714285715,0.0,0.042857142857142844,0.24
246,0.038775510204081653,0.06000000000000005,-0.09999999999999998,0.15454545454545454,-0.1,0.16
247,0.011111111111111072,0.0,0.0,0.2714285714285714,0.0111111111111111,0.2
248,0.06296296296296289,-0.033333333333333326,0.038461538461538436,-0.175,-0.1,0.18
249,0.01836734693877551,0.040740740740740744,-0.13636363636363635,-0.13333333333333333,0.042857142857142844,0.19
250,0.007407407407407418,-0.08095238095238089,-0.08333333333333331,-0.15714285714285714,-0.1,0.22
251,0.06551724137931036,-0.19999999999999996,0.033333333333333326,-0.3,-0.1,0.19
252,0.0024390243902439046,0.11818181818181828,-0.09999999999999998,0.15454545454545454,-0.1,0.17
253,-0.07500000000000007,0.008333333333333415,0.18181818181818177,-0.15714285714285714,-0.1,0.24
254,0.06153846153846154,-0.05294117647058816,0.125,0.033333333333333326,-0.1,0.16
255,-0.09999999999999998,0.024137931034482807,-0.08333333333333331,0.2,0.0,0.28
256,-0.0020408163265306367,-0.11176470588235288,0.0,0.1166666666666667,-0.1,0.24
257,-0.016279069767441867,0.06000000000000005,0.0,0.033333333333333326,-0.1,0.23
258,-0.09047619047619049,-0.010344827586206806,-0.2,-0.09999999999999998,-0.1,0.31
259,0.04230769230769227,0.020000000000000018,-0.09999999999999998,-0.3,-0.1,0.19
260,-0.07948717948717954,0.06666666666666676,0.033333333333333326,-0.175,-0.1,0.26
261,-0.04893617021276597,0.014285714285714346,-0.08333333333333331,-0.3,0.042857142857142844,0.24
262,-0.028205128205128216,0.07777777777777783,0.09999999999999998,0.10000000000000003,0.1222222222222222,0.2
263,0.01304347826086949,0.08571428571428574,-0.16666666666666669,-0.07777777777777778,0.024999999999999994,0.2
264,0.031818181818181746,0.050000000000000044,-0.04545454545454547,0.2,0.0111111111111111,0.19
265,0.006976744186046435,0.07777777777777783,-0.2,-0.3,0.19999999999999998,0.24
266,-0.036363636363636376,-0.019999999999999907,-0.13636363636363635,0.1166666666666667,-0.1,0.26
267,0.0,-0.06842105263157894,-0.25,0.2625,-0.1,0.22
268,0.005660377358490565,-0.13749999999999996,0.033333333333333326,-0.175,0.024999999999999994,0.23
269,-0.051515151515151514,0.10000000000000009,0.0,0.23333333333333334,0.1,0.22
270,-0.00638297872340432,-0.018181818181818188,-0.08333333333333331,0.06363636363636366,0.024999999999999994,0.23
271,0.033333333333333326,0.07777777777777783,0.0714285714285714,-0.15714285714285714,0.042857142857142844,0.17
272,-0.13076923076923075,0.00967741935483879,-0.11538461538461536,-0.175,0.1222222222222222,0.3
273,-0.04285714285714293,-0.033333333333333326,0.033333333333333326,0.0,-0.1,0.27
274,-0.037931034482758696,0.21666666666666667,0.1875,0.10000000000000003,0.1222222222222222,0.15
275,0.011111111111111072,-0.05294117647058816,0.125,0.2,0.0,0.21
276,0.04117647058823526,0.020000000000000018,-0.25,-0.3,0.15,0.2
277,-0.07647058823529418,0.08125000000000004,0.0,0.0,0.19999999999999998,0.24
278,-0.13076923076923075,-0.05999999999999994,0.10869565217391308,-0.3,-0.1,0.3
279,0.01304347826086949,0.050000000000000044,0.0625,-0.15714285714285714,0.042857142857142844,0.19
280,-0.004166666666666652,-0.004347826086956497,-0.2,-0.04999999999999999,0.26363636363636367,0.22
281,-0.03953488372093028,0.040740740740740744,0.033333333333333326,-0.04999999999999999,-0.1,0.23
282,-0.0304347826086957,-0.004347826086956497,-0.038461538461538436,-0.07777777777777778,0.0111111111111111,0.25
283,0.05652173913043479,0.06000000000000005,0.0,0.10000000000000003,-0.1,0.17
284,-0.04634146341463419,-0.033333333333333326,0.15000000000000002,-0.07777777777777778,0.0111111111111111,0.25
285,-0.05789473684210533,0.11818181818181828,0.0714285714285714,-0.175,-0.1,0.22
286,0.06296296296296289,-0.04999999999999993,-0.04545454545454547,-0.175,0.042857142857142844,0.18
287,-0.015384615384615441,-0.28333333333333327,0.0,0.0,-0.1,0.28
288,-0.01904761904761909,0.06923076923076932,-0.038461538461538436,0.0,0.0111111111111111,0.23
289,-0.0304347826086957,0.033333333333333326,-0.35714285714285715,0.0,-0.1,0.24
290,-0.03888888888888886,0.06923076923076932,0.18181818181818177,-0.04999999999999999,0.024999999999999994,0.21
291,-0.06071428571428572,-0.14444444444444438,-0.16666666666666669,-0.175,-0.1,0.28
292,0.034782608695652195,-0.033333333333333326,0.08823529411764708,0.0,0.0111111111111111,0.21
293,-0.04285714285714293,0.03076923076923077,0.08823529411764708,-0.175,-0.1,0.24
294,0.036170212765957444,-0.12857142857142856,0.08823529411764708,0.2,-0.1,0.22
295,0.038775510204081653,-0.06842105263157894,-0.038461538461538436,0.10000000000000003,0.0111111111111111,0.21
296,-0.022448979591836782,-0.2384615384615384,0.15000000000000002,-0.18888888888888888,0.0111111111111111,0.26
297,-0.0304347826086957,-0.04999999999999993,0.0,0.06363636363636366,0.1222222222222222,0.24
298,0.06153846153846154,-0.033333333333333326,-0.04545454545454547,0.0,0.1222222222222222,0.18
299,-0.01904761904761909,-0.033333333333333326,0.038461538461538436,0.23333333333333334,-0.1,0.24
300,0.021568627450980316,-0.06842105263157894,-0.038461538461538436,-0.07777777777777778,0.15,0.21
301,-0.013207547169811318,-0.19999999999999996,-0.038461538461538436,0.0,0.024999999999999994,0.25
302,0.034782608695652195,-0.033333333333333326,0.033333333333333326,-0.11818181818181817,0.0,0.24
303,-0.050000000000000044,0.06666666666666676,-0.2,0.06363636363636366,-0.1,0.26
304,0.06153846153846154,0.050000000000000044,-0.09999999999999998,-0.15714285714285714,0.042857142857142844,0.16
305,0.0,-0.033333333333333326,-0.038461538461538436,-0.04999999999999999,-0.1,0.23
306,-0.03953488372093028,0.024137931034482807,-0.038461538461538436,-0.04999999999999999,-0.1,0.24
307,0.0787234042553191,-0.015789473684210464,0.16666666666666663,-0.04999999999999999,0.024999999999999994,0.16
308,0.036170212765957444,0.03913043478260869,0.125,-0.15714285714285714,0.042857142857142844,0.17
309,0.039999999999999925,-0.033333333333333326,-0.09999999999999998,0.1166666666666667,-0.1,0.2
310,0.019354838709677358,-0.39999999999999997,-0.13636363636363635,0.0,0.042857142857142844,0.22
311,0.004761904761904745,0.03913043478260869,0.0,0.16153846153846158,0.024999999999999994,0.21
312,-0.06326530612244896,-0.14444444444444438,-0.033333333333333326,-0.07777777777777778,-0.1,0.3
313,-0.04634146341463419,-0.033333333333333326,0.18181818181818177,-0.04999999999999999,-0.1,0.24
314,0.0636363636363636,0.03913043478260869,-0.25,-0.15714285714285714,-0.1,0.17
315,0.05999999999999994,-0.05294117647058816,0.038461538461538436,0.10000000000000003,0.30000000000000004,0.16
316,0.0,0.0,0.2142857142857143,-0.19999999999999998,0.2333333333333333,0.21
317,-0.008695652173913104,-0.04999999999999993,-0.08333333333333331,0.06363636363636366,-0.1,0.27
318,-0.06666666666666665,0.05862068965517242,-0.038461538461538436,0.16153846153846158,0.0111111111111111,0.25
319,-0.028205128205128216,0.008333333333333415,0.0,0.2625,0.0111111111111111,0.23
320,0.011111111111111072,0.03913043478260869,0.0,0.10000000000000003,-0.1,0.21
321,0.0636363636363636,-0.033333333333333326,-0.375,-0.04999999999999999,0.15,0.18
322,-0.05909090909090908,0.024137931034482807,-0.13636363636363635,-0.04999999999999999,0.15,0.24
323,0.036170212765957444,-0.12857142857142856,0.033333333333333326,0.2,0.06666666666666665,0.22
324,0.039999999999999925,-0.24545454545454543,0.0,0.23333333333333334,0.1,0.21
325,0.036170212765957444,0.08571428571428574,-0.16666666666666669,-0.04999999999999999,0.024999999999999994,0.18
326,0.014893617021276562,-0.004347826086956497,0.0625,-0.15714285714285714,0.042857142857142844,0.2
327,-0.00638297872340432,0.06666666666666676,-0.25,-0.04999999999999999,-0.1,0.21
328,0.08181818181818179,0.014285714285714346,-0.09999999999999998,-0.04999999999999999,-0.1,0.15
329,0.050819672131147464,-0.3363636363636363,0.0625,-0.3,-0.1,0.19
330,-0.020000000000000018,-0.19999999999999996,0.15217391304347827,-0.15714285714285714,-0.1,0.23
331,0.01304347826086949,-0.04999999999999993,0.0,0.0,-0.1,0.25
332,-0.008695652173913104,0.07777777777777783,-0.08333333333333331,-0.04999999999999999,-0.1,0.21
333,-0.04583333333333339,-0.0636363636363636,-0.08333333333333331,-0.18888888888888888,0.0111111111111111,0.28
334,-0.025000000000000022,0.1064516129032258,0.038461538461538436,-0.175,-0.1,0.22
335,-0.09607843137254901,-0.10909090909090902,-0.11538461538461536,-0.175,-0.1,0.3
336,-0.028205128205128216,0.008333333333333415,0.033333333333333326,-0.11818181818181817,0.26363636363636367,0.25
337,0.01836734693877551,-0.11176470588235288,0.033333333333333326,0.06363636363636366,-0.1,0.23
338,0.01304347826086949,0.07777777777777783,-0.038461538461538436,-0.15714285714285714,-0.1,0.2
339,-0.03953488372093028,0.040740740740740744,-0.08333333333333331,0.0,0.15,0.23
340,0.06551724137931036,-0.19999999999999996,0.0,-0.04999999999999999,0.024999999999999994,0.18
341,-0.014285714285714346,0.11481481481481481,0.2272727272727273,-0.04999999999999999,0.024999999999999994,0.18
342,0.01304347826086949,-0.018181818181818188,-0.038461538461538436,0.10000000000000003,0.0111111111111111,0.22
343,0.0019607843137254832,0.040740740740740744,-0.2,-0.3,-0.1,0.21
344,-0.020000000000000018,0.024137931034482807,-0.5,-0.07777777777777778,-0.1,0.23
345,-0.07647058823529418,0.1611111111111112,0.0,0.10000000000000003,0.15,0.19
346,0.033333333333333326,0.027272727272727337,0.1470588235294118,-0.175,-0.1,0.2
347,0.051219512195121886,0.06190476190476191,0.26190476190476186,-0.07777777777777778,0.024999999999999994,0.16
348,0.027272727272727226,-0.13749999999999996,-0.08333333333333331,0.033333333333333326,-0.1,0.22
349,0.0444444444444444,-0.11176470588235288,0.0,-0.04999999999999999,-0.1,0.2
350,0.011111111111111072,-0.04999999999999993,0.11111111111111116,-0.18888888888888888,0.15,0.22
351,0.011111111111111072,0.06923076923076932,0.0,-0.3,0.042857142857142844,0.21
352,-0.06326530612244896,-0.08095238095238089,-0.033333333333333326,-0.04999999999999999,-0.1,0.27
353,0.021568627450980316,-0.11176470588235288,-0.13636363636363635,0.06363636363636366,-0.1,0.25
354,-0.04285714285714293,-0.1705882352941176,0.0,-0.09999999999999998,0.0,0.29
355,0.05833333333333335,0.050000000000000044,-0.04545454545454547,0.033333333333333326,0.024999999999999994,0.17
356,-0.07241379310344831,0.2047619047619048,0.0,0.033333333333333326,0.15,0.17
357,0.06226415094339621,-0.09999999999999998,0.0714285714285714,0.033333333333333326,0.1222222222222222,0.17
358,-0.022448979591836782,-0.1210526315789473,0.11111111111111116,-0.3,0.042857142857142844,0.24
359,0.023076923076923106,-0.0888888888888888,0.0,0.033333333333333326,-0.1,0.21
360,-0.013636363636363669,0.08125000000000004,-0.16666666666666669,-0.15714285714285714,0.15,0.2
361,0.027272727272727226,-0.16666666666666663,0.11111111111111116,-0.3,-0.1,0.2
362,-0.00638297872340432,-0.04999999999999993,0.0,-0.09999999999999998,-0.1,0.26
363,-0.06279069767441858,-0.047826086956521685,-0.2,0.2,0.1,0.27
364,-0.0020408163265306367,-0.19999999999999996,0.0625,0.06363636363636366,0.19999999999999998,0.23
365,0.020000000000000018,-0.0888888888888888,0.033333333333333326,0.2,-0.1,0.19
366,0.015254237288135575,-0.23333333333333328,-0.038461538461538436,-0.15714285714285714,-0.1,0.22
367,-0.05555555555555558,-0.0636363636363636,-0.07142857142857145,0.0,0.1222222222222222,0.27
368,0.052380952380952306,0.10000000000000009,0.16666666666666663,-0.04999999999999999,0.042857142857142844,0.15
369,0.014285714285714235,0.15714285714285714,0.1842105263157895,0.033333333333333326,0.1222222222222222,0.16
370,-0.0320754716981132,-0.1210526315789473,-0.2777777777777778,0.0,-0.1,0.28
371,-0.04893617021276597,-0.033333333333333326,-0.08333333333333331,-0.18888888888888888,0.024999999999999994,0.27
372,0.0444444444444444,-0.06842105263157894,-0.04545454545454547,-0.04999999999999999,0.024999999999999994,0.19
373,0.04117647058823526,0.0,-0.09999999999999998,0.15454545454545454,0.024999999999999994,0.18
374,-0.04893617021276597,-0.033333333333333326,-0.13636363636363635,0.0,0.024999999999999994,0.26
375,-0.15000000000000002,0.05757575757575761,0.0,0.06363636363636366,-0.1,0.3
376,0.045454545454545414,-0.28333333333333327,0.11111111111111116,-0.175,0.042857142857142844,0.2
377,-0.0052631578947368585,0.12142857142857144,0.038461538461538436,0.2,-0.1,0.2
378,0.024528301886792447,-0.04999999999999993,-0.25,0.1166666666666667,-0.1,0.21
379,-0.008695652173913104,-0.06842105263157894,0.0625,0.06363636363636366,-0.1,0.24
380,-0.01904761904761909,0.07777777777777783,-0.13636363636363635,0.0,0.19999999999999998,0.22
381,0.0019607843137254832,-0.04999999999999993,-0.08333333333333331,-0.07777777777777778,-0.1,0.24
382,0.023076923076923106,0.10000000000000009,0.0714285714285714,0.2,-0.1,0.2
383,0.08245614035087712,-0.033333333333333326,-0.09999999999999998,0.033333333333333326,-0.1,0.15
384,0.08181818181818179,-0.05294117647058816,-0.09999999999999998,0.15454545454545454,0.042857142857142844,0.15
385,-0.025000000000000022,-0.018181818181818188,0.0625,0.1166666666666667,0.0,0.25
386,0.036170212765957444,0.014285714285714346,0.033333333333333326,0.033333333333333326,0.024999999999999994,0.19
387,-0.0304347826086957,-0.08095238095238089,0.0,0.0,0.1222222222222222,0.25
388,-0.03513513513513511,0.06923076923076932,0.13157894736842102,-0.3,0.0111111111111111,0.25
389,0.014893617021276562,-0.04999999999999993,0.0625,-0.07777777777777778,0.024999999999999994,0.22
390,-0.09047619047619049,0.041935483870967794,-0.13636363636363635,-0.07777777777777778,-0.1,0.27
391,0.014285714285714235,0.06190476190476191,0.1470588235294118,0.2714285714285714,0.13076923076923078,0.2
392,-0.12222222222222223,0.05757575757575761,-0.11538461538461536,-0.07777777777777778,0.0111111111111111,0.29
393,0.034782608695652195,0.06000000000000005,-0.04545454545454547,0.10000000000000003,-0.1,0.19
394,0.06226415094339621,-0.033333333333333326,0.038461538461538436,-0.04999999999999999,0.024999999999999994,0.17
395,-0.03888888888888886,0.050000000000000044,0.18181818181818177,-0.07777777777777778,0.1222222222222222,0.22
396,0.039999999999999925,0.050000000000000044,-0.16666666666666669,0.10000000000000003,0.042857142857142844,0.17
397,0.012280701754385892,-0.28333333333333327,-0.13636363636363635,0.06363636363636366,-0.1,0.25
398,-0.03513513513513511,0.06000000000000005,0.15000000000000002,-0.18888888888888888,-0.1,0.25
399,-0.011111111111111183,-0.0636363636363636,-0.375,-0.07777777777777778,-0.1,0.25
400,-0.02195121951219514,0.040740740740740744,-0.16666666666666669,0.23333333333333334,-0.1,0.23
401,-0.07857142857142863,-0.19999999999999996,-0.375,-0.027272727272727282,-0.1,0.31
402,-0.040000000000000036,-0.08095238095238089,-0.033333333333333326,-0.15714285714285714,0.042857142857142844,0.25
403,0.0019607843137254832,-0.004347826086956497,0.0,-0.3,-0.1,0.21
404,0.018918918918918948,0.16666666666666674,0.0714285714285714,0.10000000000000003,0.1222222222222222,0.16
405,0.01304347826086949,-0.07499999999999996,0.11111111111111116,0.0,0.30000000000000004,0.2
406,0.046428571428571375,-0.04999999999999993,-0.25,0.033333333333333326,0.042857142857142844,0.18
407,-0.050000000000000044,0.040740740740740744,0.033333333333333326,-0.04999999999999999,0.19999999999999998,0.23
408,-0.020689655172413834,-0.47777777777777775,-0.16666666666666669,0.033333333333333326,0.0111111111111111,0.28
409,-0.09444444444444444,0.07142857142857151,-0.08333333333333331,0.0,0.042857142857142844,0.25
410,-0.03888888888888886,0.1064516129032258,0.0625,0.10000000000000003,0.042857142857142844,0.2
411,-0.1051282051282052,-0.08095238095238089,0.11904761904761907,0.0,-0.1,0.3
412,0.014285714285714235,0.15714285714285714,0.25,0.033333333333333326,0.275,0.13
413,0.036170212765957444,-0.11176470588235288,0.0714285714285714,0.15454545454545454,-0.1,0.23
414,0.039999999999999925,-0.018181818181818188,0.0,-0.15714285714285714,-0.1,0.2
415,-0.025000000000000022,-0.06842105263157894,-0.08333333333333331,0.16153846153846158,0.024999999999999994,0.24
416,0.0024390243902439046,0.027272727272727337,0.15000000000000002,0.033333333333333326,-0.1,0.21
417,0.05652173913043479,0.014285714285714346,-0.09999999999999998,0.23846153846153845,0.0,0.19
418,-0.01904761904761909,0.040740740740740744,0.08823529411764708,-0.15714285714285714,-0.1,0.22
419,-0.022448979591836782,-0.019999999999999907,-0.2,-0.175,0.15,0.24
420,-0.015384615384615441,-0.14444444444444438,-0.08333333333333331,0.06363636363636366,-0.1,0.25
421,-0.015384615384615441,-0.06842105263157894,-0.2777777777777778,0.0,0.19999999999999998,0.24
422,0.016666666666666607,0.020000000000000018,-0.13636363636363635,-0.3,0.024999999999999994,0.23
423,-0.07021276595744685,0.0037037037037037646,-0.07142857142857145,-0.3,-0.1,0.26
424,-0.022448979591836782,-0.09999999999999998,-0.08333333333333331,0.0,0.1222222222222222,0.25
425,0.009090909090909038,0.050000000000000044,0.08823529411764708,-0.04999999999999999,0.042857142857142844,0.19
426,0.021568627450980316,-0.0888888888888888,-0.08333333333333331,0.15454545454545454,-0.1,0.22
427,-0.09047619047619049,-0.007692307692307665,0.02941176470588236,-0.04999999999999999,-0.1,0.27
428,0.021874999999999978,-0.39999999999999997,-0.2777777777777778,0.033333333333333326,-0.1,0.23
429,-0.0346153846153846,-0.004347826086956497,-0.08333333333333331,-0.15714285714285714,-0.1,0.23
430,-0.011111111111111183,-0.004347826086956497,0.0,0.06363636363636366,0.1222222222222222,0.22
431,-0.004166666666666652,-0.19999999999999996,0.0625,0.2,0.024999999999999994,0.23
432,0.05348837209302326,0.03913043478260869,0.19999999999999996,-0.15714285714285714,0.042857142857142844,0.16
433,0.025000000000000022,0.10000000000000009,0.1470588235294118,0.10000000000000003,0.15,0.16
434,0.016666666666666607,0.008333333333333415,-0.16666666666666669,-0.04999999999999999,0.26363636363636367,0.2
435,0.05833333333333335,0.014285714285714346,0.038461538461538436,-0.07777777777777778,0.0111111111111111,0.19
436,-0.04634146341463419,-0.018181818181818188,0.08823529411764708,0.16153846153846158,-0.1,0.24
437,-0.004166666666666652,-0.0888888888888888,0.15000000000000002,-0.04999999999999999,-0.1,0.21
438,0.004761904761904745,0.06923076923076932,0.033333333333333326,0.033333333333333326,0.15,0.19
439,0.024528301886792447,-0.16666666666666663,0.0,0.06363636363636366,0.1222222222222222,0.21
440,0.005660377358490565,-0.14444444444444438,-0.2,0.0,0.0111111111111111,0.25
441,0.0636363636363636,0.027272727272727337,-0.25,-0.3,0.15,0.17
442,-0.04893617021276597,-0.0636363636363636,0.0,-0.175,0.042857142857142844,0.26
443,-0.014754098360655776,-0.2714285714285714,-0.375,-0.07777777777777778,0.024999999999999994,0.26
444,-0.025000000000000022,-0.19999999999999996,0.09999999999999998,-0.07777777777777778,-0.1,0.26
445,-0.028205128205128216,0.08571428571428574,0.033333333333333326,0.15454545454545454,0.042857142857142844,0.2
446,0.039999999999999925,-0.11176470588235288,-0.16666666666666669,0.23333333333333334,0.1222222222222222,0.2
447,-0.04893617021276597,-0.28333333333333327,0.15217391304347827,-0.07777777777777778,-0.1,0.28
448,0.02857142857142858,0.06000000000000005,-0.04545454545454547,0.23846153846153845,-0.1,0.2
449,-0.05909090909090908,0.0037037037037037646,-0.08333333333333331,-0.07777777777777778,0.024999999999999994,0.26
450,0.03548387096774186,-0.16666666666666663,-0.2777777777777778,-0.3,0.042857142857142844,0.21
451,0.03023255813953485,0.06000000000000005,-0.04545454545454547,0.06363636363636366,0.0,0.21
452,-0.01666666666666672,-0.1210526315789473,-0.35714285714285715,-0.15714285714285714,-0.1,0.24
453,-0.008695652173913104,-0.004347826086956497,0.0,-0.07777777777777778,0.024999999999999994,0.23
454,-0.07500000000000007,0.024137931034482807,-0.5,0.1166666666666667,0.19999999999999998,0.28
455,0.019354838709677358,-0.3363636363636363,-0.13636363636363635,-0.04999999999999999,-0.1,0.23
456,0.05833333333333335,-0.07499999999999996,0.038461538461538436,0.23846153846153845,-0.1,0.2
457,-0.033333333333333326,-0.007692307692307665,0.033333333333333326,-0.15714285714285714,0.042857142857142844,0.23
458,-0.09999999999999998,-0.09999999999999998,0.02941176470588236,-0.07777777777777778,-0.1,0.31
459,0.005660377358490565,-0.09999999999999998,-0.13636363636363635,-0.15714285714285714,0.1222222222222222,0.23
460,-0.12857142857142856,0.0037037037037037646,0.0625,0.1166666666666667,-0.1,0.3
461,0.005660377358490565,-0.1210526315789473,0.0,-0.15714285714285714,0.042857142857142844,0.22
462,-0.013636363636363669,-0.06842105263157894,0.033333333333333326,0.06363636363636366,-0.009090909090909094,0.26
463,0.04339622641509433,-0.13749999999999996,-0.08333333333333331,0.10000000000000003,0.0111111111111111,0.21
464,-0.0052631578947368585,0.13870967741935492,0.09999999999999998,-0.3,0.15,0.19
465,0.05348837209302326,0.07272727272727275,0.1470588235294118,-0.3,-0.1,0.21
466,-0.028205128205128216,0.16842105263157903,-0.5,0.1166666666666667,-0.1,0.18
467,0.046428571428571375,-0.19999999999999996,-0.038461538461538436,0.033333333333333326,0.15,0.19
468,-0.09512195121951217,0.014285714285714346,0.033333333333333326,-0.07777777777777778,-0.1,0.27
469,-0.036363636363636376,-0.007692307692307665,0.033333333333333326,-0.04999999999999999,-0.1,0.24
470,0.03749999999999998,-0.0888888888888888,0.09999999999999998,0.15454545454545454,-0.1,0.2
471,0.039999999999999925,0.03913043478260869,-0.09999999999999998,-0.07777777777777778,-0.1,0.2
472,-0.025000000000000022,0.0037037037037037646,-0.08333333333333331,-0.15714285714285714,-0.1,0.23
473,-0.0304347826086957,-0.0636363636363636,0.0,0.06363636363636366,-0.1,0.25
474,0.0,-0.13749999999999996,-0.13636363636363635,0.2,-0.1,0.25
475,0.011111111111111072,0.06923076923076932,0.0,-0.04999999999999999,-0.1,0.2
476,-0.07948717948717954,0.05862068965517242,-0.038461538461538436,0.0,-0.1,0.27
477,0.03749999999999998,0.027272727272727337,0.0,-0.175,0.024999999999999994,0.2
478,-0.011111111111111183,-0.11176470588235288,-0.038461538461538436,0.0,-0.1,0.23
479,0.009090909090909038,0.06923076923076932,-0.038461538461538436,-0.18888888888888888,-0.1,0.23
480,0.03749999999999998,0.06923076923076932,-0.16666666666666669,-0.07777777777777778,0.15,0.18
481,0.036170212765957444,-0.015789473684210464,0.1470588235294118,0.10000000000000003,-0.1,0.18
482,-0.03953488372093028,0.0741935483870968,-0.25,0.06363636363636366,0.042857142857142844,0.22
483,0.014893617021276562,-0.16666666666666663,-0.04545454545454547,0.2882352941176471,0.0,0.23
484,0.038775510204081653,0.027272727272727337,0.033333333333333326,-0.15714285714285714,-0.1,0.19
485,-0.008695652173913104,-0.06842105263157894,0.0,0.1166666666666667,-0.1,0.25
486,0.046428571428571375,-0.13749999999999996,-0.375,0.1166666666666667,0.024999999999999994,0.21
487,0.038775510204081653,-0.13749999999999996,0.08823529411764708,0.033333333333333326,0.2333333333333333,0.19
488,0.03023255813953485,0.12758620689655176,-0.09999999999999998,0.15454545454545454,0.042857142857142844,0.16
489,0.01304347826086949,-0.0888888888888888,0.11111111111111116,0.10000000000000003,0.024999999999999994,0.21
490,0.016666666666666607,0.020000000000000018,-0.16666666666666669,-0.07777777777777778,0.0111111111111111,0.22
491,0.011111111111111072,0.03076923076923077,-0.038461538461538436,-0.04999999999999999,0.15,0.2
492,0.012280701754385892,-0.0888888888888888,-0.2,-0.175,-0.1,0.23
493,-0.02195121951219514,0.020000000000000018,0.0,0.06363636363636366,-0.1,0.25
494,-0.028205128205128216,0.08571428571428574,-0.038461538461538436,0.0,0.1,0.23
495,0.010714285714285676,-0.11176470588235288,-0.2,0.06363636363636366,-0.1,0.22
496,-0.016279069767441867,0.09310344827586214,-0.038461538461538436,-0.3,0.042857142857142844,0.22
497,0.0,0.008333333333333415,-0.25,0.1166666666666667,-0.1,0.21
498,0.047368421052631504,-0.2384615384615384,0.0625,-0.15714285714285714,0.042857142857142844,0.19
499,-0.00638297872340432,0.08787878787878789,-0.25,-0.3,-0.1,0.2
500,0.027272727272727226,-0.04999999999999993,-0.13636363636363635,-0.15714285714285714,0.042857142857142844,0.2
501,0.027272727272727226,-0.033333333333333326,-0.25,-0.04999999999999999,-0.1,0.21
502,-0.08918918918918917,0.1108108108108109,-0.08333333333333331,-0.15714285714285714,0.042857142857142844,0.23
503,-0.07948717948717954,0.033333333333333326,-0.13636363636363635,0.06363636363636366,-0.1,0.28
504,0.04915254237288136,-0.13749999999999996,-0.16666666666666669,-0.175,0.024999999999999994,0.2
505,-0.04285714285714293,-0.004347826086956497,0.0,0.1166666666666667,0.1222222222222222,0.24
506,-0.01764705882352946,0.1823529411764706,0.0714285714285714,0.10000000000000003,0.15,0.16
507,-0.04893617021276597,-0.1705882352941176,0.0,0.06363636363636366,0.1222222222222222,0.27
508,-0.02765957446808509,-0.14444444444444438,0.07894736842105265,-0.3,-0.1,0.28
509,-0.011111111111111183,0.03076923076923077,-0.038461538461538436,0.0,-0.1,0.22
510,0.009090909090909038,0.027272727272727337,0.0625,-0.18888888888888888,-0.1,0.24
511,-0.008695652173913104,-0.033333333333333326,-0.08333333333333331,0.1166666666666667,-0.1,0.25
512,-0.06666666666666665,0.12857142857142867,0.0625,-0.3,-0.1,0.22
513,-0.11212121212121218,0.05862068965517242,0.11111111111111116,0.06363636363636366,0.2333333333333333,0.24
514,0.0024390243902439046,0.027272727272727337,-0.038461538461538436,0.2,0.06666666666666665,0.23
515,0.03749999999999998,0.06000000000000005,-0.09999999999999998,-0.175,0.2333333333333333,0.18
516,0.038775510204081653,-0.018181818181818188,-0.2,0.10000000000000003,0.0111111111111111,0.21
517,0.08181818181818179,-0.16153846153846152,0.0,0.10000000000000003,0.19999999999999998,0.16
518,-0.03157894736842104,0.008333333333333415,0.13157894736842102,0.10000000000000003,0.0111111111111111,0.23
519,0.04230769230769227,-0.04999999999999993,0.033333333333333326,-0.15714285714285714,-0.1,0.19
520,-0.025000000000000022,-0.11176470588235288,0.125,0.2625,0.1727272727272727,0.23
521,0.027272727272727226,-0.13749999999999996,-0.13636363636363635,-0.18888888888888888,0.1222222222222222,0.23
522,-0.0304347826086957,-0.019999999999999907,0.02941176470588236,-0.3,-0.1,0.24
523,-0.008695652173913104,0.008333333333333415,-0.04545454545454547,0.1166666666666667,0.042857142857142844,0.21
524,0.039999999999999925,0.06000000000000005,-0.04545454545454547,-0.15714285714285714,-0.1,0.18
525,-0.025000000000000022,0.06666666666666676,0.13157894736842102,-0.3,-0.1,0.2
526,-0.025000000000000022,-0.11176470588235288,0.18181818181818177,0.06363636363636366,-0.1,0.26
527,0.0,-0.06842105263157894,0.11111111111111116,0.31111111111111117,-0.1,0.2
528,0.031818181818181746,0.12758620689655176,0.038461538461538436,-0.04999999999999999,-0.1,0.16
529,0.04117647058823526,0.06923076923076932,-0.5,0.1166666666666667,-0.1,0.17
530,-0.013207547169811318,-0.2384615384615384,-0.033333333333333326,0.0,-0.1,0.27
531,0.01304347826086949,0.08571428571428574,-0.16666666666666669,0.10000000000000003,0.042857142857142844,0.18
532,0.021568627450980316,-0.04999999999999993,-0.16666666666666669,0.2,-0.1,0.2
533,-0.05384615384615388,0.03076923076923077,0.18181818181818177,-0.15714285714285714,-0.1,0.22
534,0.0444444444444444,-0.0888888888888888,-0.09999999999999998,-0.07777777777777778,-0.1,0.22
535,0.023076923076923106,0.040740740740740744,-0.5,-0.15714285714285714,0.042857142857142844,0.2
536,0.03749999999999998,-0.04999999999999993,-0.09999999999999998,0.2,0.30000000000000004,0.18
537,0.01304347826086949,0.008333333333333415,-0.04545454545454547,0.15454545454545454,-0.1,0.21
538,-0.0836734693877551,-0.1210526315789473,-0.11538461538461536,0.0,-0.1,0.31
539,0.036170212765957444,0.06923076923076932,0.038461538461538436,-0.04999999999999999,-0.1,0.17
540,0.02682926829268295,0.07272727272727275,0.09999999999999998,0.15454545454545454,-0.1,0.21
541,0.01304347826086949,0.020000000000000018,-0.16666666666666669,0.1166666666666667,-0.1,0.22
542,0.046428571428571375,-0.2384615384615384,0.0,-0.07777777777777778,0.024999999999999994,0.21
543,-0.09999999999999998,-0.033333333333333326,0.11904761904761907,-0.175,-0.1,0.28
544,-0.016279069767441867,0.08125000000000004,-0.16666666666666669,-0.04999999999999999,0.15,0.2
545,0.020000000000000018,0.020000000000000018,-0.04545454545454547,-0.15714285714285714,0.042857142857142844,0.19
546,-0.0304347826086957,-0.033333333333333326,-0.08333333333333331,0.0,0.024999999999999994,0.25
547,0.0019607843137254832,-0.0636363636363636,-0.08333333333333331,-0.175,0.042857142857142844,0.23
548,-0.04634146341463419,-0.004347826086956497,0.08823529411764708,0.16153846153846158,-0.1,0.23
549,0.033333333333333326,0.08571428571428574,0.038461538461538436,-0.15714285714285714,0.042857142857142844,0.17
550,0.023076923076923106,-0.16666666666666663,-0.2,0.16153846153846158,-0.1,0.25
551,-0.11212121212121218,0.03076923076923077,0.23076923076923073,-0.04999999999999999,-0.1,0.24
552,-0.016279069767441867,-0.018181818181818188,-0.08333333333333331,0.23333333333333334,-0.1,0.24
553,-0.033333333333333326,-0.047826086956521685,0.0,-0.07777777777777778,0.1222222222222222,0.25
554,0.016666666666666607,-0.0888888888888888,-0.038461538461538436,0.06363636363636366,0.0,0.24
555,0.031818181818181746,0.12758620689655176,-0.04545454545454547,0.033333333333333326,-0.1,0.17
556,0.06296296296296289,-0.29999999999999993,0.1470588235294118,-0.07777777777777778,0.30000000000000004,0.17
557,0.0636363636363636,-0.13749999999999996,-0.25,0.23333333333333334,-0.1,0.18
558,0.01836734693877551,-0.04999999999999993,-0.038461538461538436,0.06363636363636366,-0.1,0.22
559,0.009090909090909038,0.06000000000000005,-0.16666666666666669,0.2,-0.1,0.21
560,0.009090909090909038,-0.09999999999999998,-0.2,-0.04999999999999999,0.042857142857142844,0.22
561,0.023076923076923106,-0.004347826086956497,-0.16666666666666669,-0.15714285714285714,0.2333333333333333,0.19
562,-0.08918918918918917,0.10555555555555562,-0.2,0.0,-0.1,0.25
563,0.021568627450980316,-0.06842105263157894,0.0,-0.04999999999999999,0.024999999999999994,0.21
564,-0.014285714285714346,0.07777777777777783,0.1470588235294118,0.15454545454545454,0.1,0.2
565,0.0811320754716981,0.0,-0.04545454545454547,0.033333333333333326,-0.1,0.16
566,-0.008695652173913104,0.008333333333333415,-0.13636363636363635,0.06363636363636366,0.15,0.22
567,0.034782608695652195,0.09310344827586214,-0.16666666666666669,0.033333333333333326,-0.1,0.18
568,-0.04893617021276597,-0.08095238095238089,0.0,0.1166666666666667,-0.1,0.25
569,0.016666666666666607,-0.004347826086956497,-0.2,0.0,-0.1,0.24
570,0.009090909090909038,0.050000000000000044,-0.04545454545454547,-0.027272727272727282,0.0,0.23
571,-0.05094339622641508,-0.1705882352941176,-0.2777777777777778,0.033333333333333326,-0.1,0.3
572,-0.013636363636363669,0.050000000000000044,-0.08333333333333331,-0.04999999999999999,-0.1,0.23
573,0.036170212765957444,0.0,0.11111111111111116,-0.04999999999999999,-0.1,0.19
574,0.01836734693877551,0.008333333333333415,-0.13636363636363635,-0.04999999999999999,-0.1,0.22
575,-0.004166666666666652,-0.06842105263157894,-0.2,0.16153846153846158,0.1,0.24
576,0.050819672131147464,-0.28333333333333327,-0.038461538461538436,-0.04999999999999999,-0.1,0.19
577,0.027272727272727226,-0.16666666666666663,-0.13636363636363635,0.0,-0.1,0.24
578,0.024528301886792447,-0.2384615384615384,0.08823529411764708,0.0,0.042857142857142844,0.21
579,-0.02765957446808509,0.0037037037037037646,-0.13636363636363635,-0.175,0.042857142857142844,0.24
580,-0.02765957446808509,-0.047826086956521685,0.02941176470588236,-0.3,-0.1,0.25
581,0.03023255813953485,0.12142857142857144,0.125,-0.15714285714285714,-0.1,0.16
582,0.007692307692307665,-0.3363636363636363,-0.2,-0.175,-0.1,0.23
583,0.06774193548387097,-0.36666666666666664,-0.16666666666666669,0.1166666666666667,0.024999999999999994,0.18
584,0.054545454545454564,0.10769230769230775,0.0714285714285714,-0.04999999999999999,0.15,0.15
585,0.0019607843137254832,-0.28333333333333327,0.11111111111111116,0.0,0.0111111111111111,0.24
586,-0.01904761904761909,0.03076923076923077,0.0625,-0.175,0.15,0.22
587,-0.05625000000000002,0.03913043478260869,0.28260869565217395,0.2,0.1,0.2
588,0.004761904761904745,-0.06842105263157894,0.0625,0.2,0.1222222222222222,0.22
589,-0.01904761904761909,0.11250000000000004,-0.16666666666666669,-0.3,0.024999999999999994,0.23
590,-0.02765957446808509,-0.08095238095238089,0.033333333333333326,0.0,-0.1,0.25
591,-0.01904761904761909,0.040740740740740744,0.033333333333333326,-0.175,0.024999999999999994,0.23
592,0.023076923076923106,0.03076923076923077,-0.2,-0.3,-0.1,0.2
593,0.07999999999999996,0.0,-0.04545454545454547,0.10000000000000003,0.1222222222222222,0.16
594,-0.036363636363636376,-0.2384615384615384,0.09999999999999998,0.1166666666666667,-0.1,0.29
595,0.011111111111111072,0.07777777777777783,-0.08333333333333331,0.033333333333333326,0.042857142857142844,0.19
596,-0.08181818181818179,-0.007692307692307665,-0.11538461538461536,-0.18888888888888888,-0.1,0.3
597,0.027272727272727226,-0.13749999999999996,-0.2,0.1166666666666667,-0.1,0.22
598,0.02857142857142858,0.12142857142857144,0.038461538461538436,0.033333333333333326,-0.1,0.18
599,0.014893617021276562,0.08571428571428574,-0.09999999999999998,-0.175,0.042857142857142844,0.19
600,0.09999999999999998,-0.24545454545454543,-0.25,0.23846153846153845,0.15,0.14
601,-0.04285714285714293,0.020000000000000018,0.033333333333333326,0.0,0.024999999999999994,0.24
602,-0.02280701754385972,-0.3153846153846153,-0.11538461538461536,-0.3,-0.1,0.3
603,-0.06666666666666665,0.17179487179487185,-0.16666666666666669,-0.04999999999999999,0.024999999999999994,0.2
604,0.011111111111111072,0.07777777777777783,-0.09999999999999998,0.033333333333333326,-0.1,0.21
605,0.08148148148148149,0.0,-0.09999999999999998,-0.04999999999999999,0.15,0.15
606,0.0607843137254902,-0.09999999999999998,0.1842105263157895,-0.04999999999999999,0.042857142857142844,0.16
607,0.024528301886792447,-0.033333333333333326,0.0,-0.04999999999999999,-0.1,0.19
608,0.021052631578947323,0.18888888888888888,-0.04545454545454547,0.033333333333333326,-0.1,0.15
609,0.009090909090909038,0.050000000000000044,0.0,0.033333333333333326,0.1222222222222222,0.2
610,0.027272727272727226,-0.0888888888888888,-0.25,0.1166666666666667,0.042857142857142844,0.2
611,0.014893617021276562,-0.033333333333333326,-0.08333333333333331,0.16153846153846158,-0.1,0.22
612,-0.01764705882352946,-0.033333333333333326,-0.13636363636363635,-0.15714285714285714,0.042857142857142844,0.23
613,0.021568627450980316,-0.06842105263157894,0.033333333333333326,-0.175,0.042857142857142844,0.21
614,-0.04285714285714293,0.15294117647058825,0.11111111111111116,-0.15714285714285714,-0.1,0.19
615,0.018918918918918948,0.13333333333333341,-0.09999999999999998,0.23846153846153845,0.19999999999999998,0.17
616,-0.004166666666666652,0.008333333333333415,-0.038461538461538436,-0.04999999999999999,0.042857142857142844,0.21
617,0.06296296296296289,-0.06842105263157894,-0.16666666666666669,0.10000000000000003,0.024999999999999994,0.18
618,0.004761904761904745,0.027272727272727337,0.11111111111111116,-0.07777777777777778,0.1222222222222222,0.21
619,0.01836734693877551,-0.19999999999999996,0.20833333333333337,-0.15714285714285714,-0.1,0.2
620,-0.08421052631578951,0.05757575757575761,-0.2,0.0,0.1222222222222222,0.26
621,0.054545454545454564,0.050000000000000044,0.09999999999999998,-0.3,0.2333333333333333,0.18
622,-0.06279069767441858,-0.019999999999999907,-0.25,0.2882352941176471,-0.1,0.25
623,-0.0304347826086957,-0.0636363636363636,-0.13636363636363635,0.15454545454545454,0.19999999999999998,0.24
624,-0.11212121212121218,0.08125000000000004,-0.038461538461538436,0.16153846153846158,0.0111111111111111,0.26
625,0.06296296296296289,-0.033333333333333326,-0.375,0.10000000000000003,-0.1,0.19
626,-0.04285714285714293,-0.007692307692307665,-0.08333333333333331,0.06363636363636366,0.1222222222222222,0.25
627,-0.050000000000000044,-0.004347826086956497,0.033333333333333326,0.1166666666666667,-0.1,0.27
628,-0.03953488372093028,0.0741935483870968,-0.2,-0.175,-0.1,0.25
629,0.0019607843137254832,-0.11176470588235288,0.033333333333333326,-0.07777777777777778,0.024999999999999994,0.23
630,0.033333333333333326,0.13333333333333341,-0.16666666666666669,-0.04999999999999999,0.024999999999999994,0.17
631,-0.08421052631578951,-0.08095238095238089,0.11904761904761907,0.0,0.0,0.29
632,0.03749999999999998,0.027272727272727337,0.0,-0.3,0.024999999999999994,0.21
633,-0.04285714285714293,0.020000000000000018,0.033333333333333326,-0.07777777777777778,0.0111111111111111,0.25
634,0.04339622641509433,0.020000000000000018,-0.25,-0.04999999999999999,-0.1,0.18
635,-0.09047619047619049,0.0,-0.2,0.0,-0.1,0.29
636,0.0019607843137254832,0.040740740740740744,-0.25,-0.15714285714285714,-0.1,0.21
637,0.011111111111111072,0.008333333333333415,-0.2,0.1166666666666667,0.1222222222222222,0.22
638,-0.07647058823529418,-0.033333333333333326,0.21999999999999997,0.06363636363636366,-0.1,0.26
639,0.009090909090909038,-0.0888888888888888,-0.2,0.0,-0.1,0.23
640,0.006976744186046435,0.050000000000000044,-0.09999999999999998,0.23333333333333334,0.024999999999999994,0.2
641,0.038775510204081653,-0.018181818181818188,0.0,-0.04999999999999999,-0.1,0.2
642,0.038775510204081653,0.03913043478260869,-0.04545454545454547,0.033333333333333326,0.15,0.17
643,-0.06326530612244896,-0.09999999999999998,0.0,0.0,-0.1,0.27
644,-0.05384615384615388,0.008333333333333415,0.0625,0.06363636363636366,-0.1,0.27
645,0.006976744186046435,0.03913043478260869,0.033333333333333326,0.15454545454545454,0.15,0.19
646,0.01836734693877551,-0.033333333333333326,0.033333333333333326,-0.3,0.042857142857142844,0.22
647,-0.1682926829268293,-0.22941176470588232,0.050000000000000044,0.033333333333333326,0.1,0.35
648,0.06296296296296289,0.0,-0.09999999999999998,-0.04999999999999999,0.15,0.16
649,0.06153846153846154,-0.033333333333333326,-0.09999999999999998,0.15454545454545454,0.0111111111111111,0.18
650,-0.05094339622641508,-0.09999999999999998,-0.2,-0.175,0.1222222222222222,0.27
651,0.0019607843137254832,0.008333333333333415,-0.2,-0.175,-0.1,0.23
652,-0.05384615384615388,-0.08095238095238089,-0.2,-0.18888888888888888,0.024999999999999994,0.28
653,-0.09999999999999998,0.040740740740740744,0.08823529411764708,-0.11818181818181817,-0.1,0.3
654,0.009090909090909038,0.12758620689655176,-0.04545454545454547,-0.3,-0.1,0.21
655,0.020000000000000018,-0.11176470588235288,-0.038461538461538436,0.06363636363636366,-0.1,0.24
656,-0.036363636363636376,-0.0636363636363636,0.033333333333333326,0.0,0.1222222222222222,0.25
657,-0.08000000000000007,-0.10909090909090902,-0.375,0.033333333333333326,0.024999999999999994,0.3
658,0.0024390243902439046,0.0,0.033333333333333326,0.2,-0.1,0.24
659,0.08181818181818179,-0.24545454545454543,0.125,-0.07777777777777778,0.0111111111111111,0.18
660,0.038775510204081653,-0.033333333333333326,-0.25,0.23333333333333334,0.042857142857142844,0.19
661,-0.013636363636363669,-0.06842105263157894,0.11111111111111116,0.0,0.0111111111111111,0.24
662,0.01304347826086949,0.07777777777777783,0.0,-0.15714285714285714,-0.1,0.19
663,-0.15000000000000002,0.06923076923076932,-0.13636363636363635,-0.175,-0.1,0.28
664,0.033333333333333326,-0.11176470588235288,-0.25,-0.04999999999999999,-0.1,0.2
665,-0.0052631578947368585,0.13333333333333341,0.038461538461538436,0.10000000000000003,-0.1,0.2
666,0.009090909090909038,-0.033333333333333326,-0.5,-0.07777777777777778,-0.1,0.22
667,-0.004166666666666652,-0.004347826086956497,-0.09999999999999998,0.06363636363636366,0.024999999999999994,0.22
668,0.04999999999999993,0.09166666666666667,0.19999999999999996,-0.175,0.15,0.16
669,0.016666666666666607,0.09310344827586214,-0.25,-0.04999999999999999,-0.1,0.19
670,-0.028205128205128216,0.11818181818181828,-0.038461538461538436,-0.175,-0.1,0.22
671,-0.04285714285714293,-0.06842105263157894,0.0,0.2,-0.1,0.28
672,0.016666666666666607,0.03076923076923077,-0.038461538461538436,-0.15714285714285714,-0.1,0.2
673,-0.03157894736842104,0.08571428571428574,0.0625,-0.07777777777777778,0.2333333333333333,0.21
674,0.004761904761904745,-0.033333333333333326,0.11111111111111116,0.0,-0.1,0.24
675,-0.012903225806451646,-0.19999999999999996,-0.2,-0.3,-0.1,0.24
676,0.08181818181818179,-0.05294117647058816,-0.09999999999999998,-0.07777777777777778,0.2333333333333333,0.16
677,-0.0052631578947368585,-0.28333333333333327,-0.08333333333333331,0.0,0.1222222222222222,0.24
678,-0.025000000000000022,0.06923076923076932,0.13157894736842102,-0.04999999999999999,0.042857142857142844,0.2
679,0.03749999999999998,0.03913043478260869,-0.2,0.10000000000000003,-0.1,0.21
680,-0.06666666666666665,-0.04999999999999993,0.15000000000000002,0.23333333333333334,0.1222222222222222,0.24
681,-0.05384615384615388,0.020000000000000018,0.13157894736842102,0.033333333333333326,-0.1,0.24
682,0.0,0.09310344827586214,0.125,-0.04999999999999999,-0.1,0.19
683,-0.07500000000000007,0.05757575757575761,-0.038461538461538436,-0.15714285714285714,-0.1,0.25
684,0.039999999999999925,-0.04999999999999993,-0.04545454545454547,0.15454545454545454,0.024999999999999994,0.19
685,-0.008695652173913104,0.06666666666666676,-0.13636363636363635,-0.15714285714285714,-0.1,0.21
686,-0.0020408163265306367,-0.0888888888888888,0.0625,-0.3,-0.1,0.26
687,-0.03725490196078429,-0.1210526315789473,-0.11538461538461536,-0.18888888888888888,0.024999999999999994,0.28
688,0.01836734693877551,0.050000000000000044,-0.04545454545454547,-0.175,0.024999999999999994,0.2
689,0.020000000000000018,-0.033333333333333326,0.033333333333333326,-0.15714285714285714,0.042857142857142844,0.2
690,-0.03953488372093028,-0.047826086956521685,0.11111111111111116,-0.04999999999999999,0.024999999999999994,0.24
691,0.01304347826086949,0.040740740740740744,-0.09999999999999998,-0.07777777777777778,-0.1,0.22
692,0.023076923076923106,-0.004347826086956497,-0.08333333333333331,-0.15714285714285714,-0.1,0.2
693,0.0024390243902439046,0.03913043478260869,0.0714285714285714,0.15454545454545454,0.08181818181818182,0.21
694,-0.025000000000000022,-0.16666666666666663,0.18181818181818177,-0.175,-0.1,0.24
695,0.03103448275862064,-0.16666666666666663,-0.25,0.06363636363636366,0.024999999999999994,0.21
696,0.0038461538461538325,-0.08095238095238089,-0.038461538461538436,-0.15714285714285714,-0.1,0.23
697,-0.025000000000000022,0.09310344827586214,-0.038461538461538436,0.033333333333333326,-0.1,0.23
698,-0.07073170731707323,-0.08095238095238089,0.11904761904761907,-0.3,-0.1,0.3
699,0.004761904761904745,0.027272727272727337,0.13157894736842102,-0.04999999999999999,0.2333333333333333,0.19
700,-0.008695652173913104,0.08571428571428574,-0.16666666666666669,0.033333333333333326,-0.1,0.21
701,-0.027272727272727337,-0.1705882352941176,-0.2,0.0,0.024999999999999994,0.26
702,-0.03953488372093028,0.050000000000000044,-0.038461538461538436,0.0,-0.1,0.23
703,-0.05789473684210533,-0.12857142857142856,-0.2777777777777778,-0.3,-0.1,0.28
704,-0.011111111111111183,-0.19999999999999996,-0.038461538461538436,-0.07777777777777778,-0.1,0.26
705,-0.04285714285714293,0.06666666666666676,0.0,-0.15714285714285714,-0.1,0.23
706,-0.08421052631578951,0.024137931034482807,-0.08333333333333331,0.0,0.26363636363636367,0.26
707,-0.07500000000000007,0.041935483870967794,0.0,-0.3,-0.1,0.26
708,0.009090909090909038,0.11250000000000004,-0.04545454545454547,-0.15714285714285714,-0.1,0.18
709,0.023076923076923106,-0.19999999999999996,0.08823529411764708,0.033333333333333326,-0.1,0.22
710,0.015254237288135575,-0.23333333333333328,-0.2777777777777778,0.0,-0.1,0.24
711,0.0,0.14375000000000004,0.0,0.033333333333333326,0.042857142857142844,0.17
712,0.038775510204081653,0.027272727272727337,-0.09999999999999998,0.10000000000000003,-0.1,0.2
713,0.031818181818181746,0.09310344827586214,-0.2777777777777778,0.033333333333333326,-0.1,0.21
714,0.024528301886792447,-0.0888888888888888,0.0,-0.04999999999999999,0.042857142857142844,0.2
715,0.03749999999999998,-0.05294117647058816,-0.2,0.2625,0.0111111111111111,0.21
716,0.0019607843137254832,-0.2384615384615384,0.16666666666666663,-0.175,0.042857142857142844,0.22
717,0.006976744186046435,0.11818181818181828,-0.16666666666666669,-0.04999999999999999,-0.1,0.19
718,-0.1105263157894737,0.00967741935483879,-0.2,0.08461538461538465,-0.1,0.3
719,-0.025000000000000022,-0.28333333333333327,0.1923076923076923,-0.15714285714285714,0.042857142857142844,0.23
720,-0.05909090909090908,-0.0636363636363636,-0.2,0.2625,-0.1,0.27
721,0.031818181818181746,0.13333333333333341,0.038461538461538436,-0.3,-0.1,0.17
722,0.020000000000000018,-0.04999999999999993,-0.038461538461538436,-0.07777777777777778,0.024999999999999994,0.22
723,-0.06326530612244896,-0.28333333333333327,0.10869565217391308,-0.175,0.024999999999999994,0.28
724,-0.0020408163265306367,-0.11176470588235288,0.13157894736842102,-0.3,0.042857142857142844,0.23
725,0.01836734693877551,-0.11176470588235288,0.13157894736842102,-0.04999999999999999,0.042857142857142844,0.2
726,0.052380952380952306,0.027272727272727337,0.09999999999999998,0.06363636363636366,0.0,0.2
727,0.007407407407407418,-0.09999999999999998,-0.13636363636363635,-0.175,-0.1,0.24
728,0.004761904761904745,0.06923076923076932,0.0625,0.033333333333333326,0.042857142857142844,0.19
729,-0.011111111111111183,-0.16666666666666663,0.16666666666666663,0.0,0.1222222222222222,0.23
730,0.012280701754385892,-0.19999999999999996,-0.08333333333333331,0.0,0.042857142857142844,0.22
731,-0.036363636363636376,0.024137931034482807,-0.13636363636363635,-0.15714285714285714,0.1222222222222222,0.24
732,0.0024390243902439046,0.050000000000000044,0.09999999999999998,0.15454545454545454,0.1222222222222222,0.19
733,-0.036363636363636376,-0.047826086956521685,-0.2777777777777778,0.2625,0.024999999999999994,0.25
734,-0.016279069767441867,-0.018181818181818188,-0.038461538461538436,0.16153846153846158,0.0111111111111111,0.24
735,0.0038461538461538325,-0.16666666666666663,0.0625,-0.18888888888888888,-0.1,0.25
736,0.0038461538461538325,0.040740740740740744,-0.35714285714285715,-0.3,-0.1,0.22
737,-0.013636363636363669,0.008333333333333415,0.125,-0.04999999999999999,-0.1,0.22
738,0.014893617021276562,-0.0888888888888888,-0.08333333333333331,0.16153846153846158,0.1,0.23
739,-0.045454545454545525,-0.28333333333333327,0.07894736842105265,-0.175,-0.1,0.26
740,-0.01864406779661021,-0.19999999999999996,-0.2,-0.175,0.042857142857142844,0.25
741,-0.04285714285714293,-0.007692307692307665,0.0,-0.07777777777777778,0.1222222222222222,0.25
742,0.005660377358490565,-0.007692307692307665,-0.35714285714285715,-0.15714285714285714,0.042857142857142844,0.21
743,0.05555555555555558,0.12758620689655176,-0.04545454545454547,-0.04999999999999999,-0.1,0.16
744,0.004761904761904745,-0.11176470588235288,0.11111111111111116,0.2,-0.1,0.25
745,0.009090909090909038,0.06923076923076932,-0.04545454545454547,-0.19999999999999998,0.0111111111111111,0.23
746,-0.02195121951219514,-0.0888888888888888,0.08823529411764708,0.2,-0.1,0.27
747,0.004761904761904745,-0.04999999999999993,0.18181818181818177,-0.175,0.15,0.21
748,-0.01904761904761909,0.05862068965517242,0.0,-0.15714285714285714,0.15,0.21
749,0.023076923076923106,-0.004347826086956497,-0.16666666666666669,-0.175,0.15,0.2
750,0.009090909090909038,0.06000000000000005,0.0625,-0.3,0.15,0.2
751,-0.011111111111111183,0.0,0.2272727272727273,0.2,-0.1,0.22
752,0.050819672131147464,-0.0888888888888888,-0.25,-0.15714285714285714,-0.1,0.18
753,-0.033333333333333326,-0.047826086956521685,0.033333333333333326,0.0,0.042857142857142844,0.24
754,-0.04285714285714293,0.03076923076923077,0.0625,-0.3,0.024999999999999994,0.25
755,0.0,0.14848484848484855,-0.375,0.2,-0.1,0.19
756,0.024528301886792447,-0.13749999999999996,0.033333333333333326,-0.04999999999999999,-0.1,0.22
757,-0.0020408163265306367,0.06666666666666676,-0.35714285714285715,-0.3,-0.1,0.22
758,0.09999999999999998,0.10000000000000009,0.09999999999999998,-0.04999999999999999,0.042857142857142844,0.13
759,0.020000000000000018,0.008333333333333415,-0.16666666666666669,-0.07777777777777778,0.024999999999999994,0.21
760,-0.10454545454545461,-0.39999999999999997,0.125,0.08461538461538465,0.0111111111111111,0.31
761,0.03749999999999998,-0.04999999999999993,0.11111111111111116,-0.04999999999999999,-0.1,0.19
762,-0.2333333333333334,0.15365853658536588,0.0,0.23333333333333334,0.0111111111111111,0.25
763,-0.03513513513513511,0.10000000000000009,0.11111111111111116,-0.3,0.042857142857142844,0.22
764,-0.025000000000000022,-0.09999999999999998,0.02941176470588236,-0.175,0.042857142857142844,0.25
765,0.07959183673469383,0.08260869565217399,-0.16666666666666669,0.23846153846153845,-0.1,0.14
766,-0.05217391304347829,-0.019999999999999907,-0.08333333333333331,-0.07777777777777778,0.024999999999999994,0.26
767,0.011111111111111072,0.07777777777777783,-0.09999999999999998,0.10000000000000003,0.024999999999999994,0.19
768,-0.0020408163265306367,-0.04999999999999993,-0.13636363636363635,0.0,0.19999999999999998,0.23
769,-0.10588235294117654,0.024137931034482807,0.13157894736842102,-0.175,0.19999999999999998,0.26
770,-0.04285714285714293,0.16842105263157903,-0.04545454545454547,-0.175,-0.1,0.21
771,-0.004166666666666652,-0.06842105263157894,-0.2,0.2625,0.042857142857142844,0.22
772,-0.05217391304347829,-0.23333333333333328,0.0,0.16153846153846158,-0.1,0.3
773,0.006976744186046435,-0.018181818181818188,0.18181818181818177,-0.15714285714285714,-0.1,0.2
774,-0.020000000000000018,-0.018181818181818188,-0.038461538461538436,-0.04999999999999999,0.042857142857142844,0.22
775,0.057446808510638325,-0.07499999999999996,0.0714285714285714,0.2,-0.1,0.21
776,-0.0020408163265306367,-0.11176470588235288,0.15000000000000002,-0.15714285714285714,0.042857142857142844,0.21
777,-0.07500000000000007,-0.019999999999999907,0.11904761904761907,-0.15714285714285714,-0.1,0.26
778,0.05918367346938769,0.06000000000000005,0.0,-0.15714285714285714,-0.1,0.17
779,0.01836734693877551,-0.11176470588235288,0.0,-0.09999999999999998,0.19999999999999998,0.23
780,0.06226415094339621,-0.11176470588235288,0.0714285714285714,-0.175,0.15,0.18
781,-0.03157894736842104,0.14375000000000004,0.038461538461538436,-0.15714285714285714,0.30000000000000004,0.18
782,0.023076923076923106,-0.13749999999999996,0.0,0.0,0.024999999999999994,0.22
783,0.009090909090909038,0.03076923076923077,0.0,0.033333333333333326,0.042857142857142844,0.2
784,0.033333333333333326,0.09310344827586214,0.0,-0.3,-0.1,0.19
785,0.038775510204081653,0.027272727272727337,-0.16666666666666669,0.15454545454545454,-0.1,0.2
786,-0.04893617021276597,-0.09999999999999998,0.02941176470588236,-0.175,-0.1,0.28
787,-0.025000000000000022,-0.019999999999999907,-0.2,0.10000000000000003,-0.1,0.24
788,-0.15000000000000002,-0.19999999999999996,0.15384615384615385,0.12857142857142856,0.15,0.32
789,0.018918918918918948,0.027272727272727337,0.2272727272727273,0.15454545454545454,-0.1,0.19
790,-0.050000000000000044,0.08787878787878789,0.0,-0.15714285714285714,-0.1,0.22
791,0.033333333333333326,0.10769230769230775,0.16666666666666663,-0.13333333333333333,-0.1,0.14
792,0.02857142857142858,-0.13749999999999996,-0.35714285714285715,0.2,0.042857142857142844,0.2
793,-0.08918918918918917,0.0741935483870968,0.13157894736842102,-0.15714285714285714,-0.1,0.23
794,0.0807692307692307,-0.07499999999999996,0.09999999999999998,0.033333333333333326,-0.1,0.17
795,-0.033333333333333326,0.041935483870967794,-0.08333333333333331,-0.3,-0.1,0.23
796,-0.050000000000000044,-0.2714285714285714,-0.11538461538461536,-0.3,-0.1,0.28
797,0.01304347826086949,0.11250000000000004,-0.375,-0.15714285714285714,-0.1,0.2
798,-0.020000000000000018,-0.08095238095238089,0.033333333333333326,-0.15714285714285714,-0.1,0.24
799,-0.025000000000000022,-0.19999999999999996,0.0,0.06363636363636366,-0.1,0.28
800,-0.04705882352941182,0.14848484848484855,0.033333333333333326,0.10000000000000003,-0.1,0.21
801,0.06153846153846154,-0.16153846153846152,0.125,0.15454545454545454,0.15,0.16
802,-0.11212121212121218,0.08787878787878789,0.08823529411764708,0.0,-0.1,0.25
803,0.024528301886792447,-0.018181818181818188,-0.25,0.0,0.042857142857142844,0.2
804,0.03023255813953485,0.12142857142857144,0.0714285714285714,-0.175,-0.1,0.18
805,0.06226415094339621,-0.015789473684210464,0.0,-0.04999999999999999,0.15,0.16
806,0.0038461538461538325,-0.1210526315789473,0.033333333333333326,-0.15714285714285714,-0.1,0.23
807,-0.07500000000000007,0.040740740740740744,-0.08333333333333331,0.16153846153846158,-0.1,0.26
808,0.04915254237288136,-0.13749999999999996,-0.09999999999999998,-0.04999999999999999,0.042857142857142844,0.18
809,-0.11621621621621625,0.050000000000000044,0.033333333333333326,0.0,-0.1,0.26
810,-0.029629629629629672,-0.2714285714285714,-0.08333333333333331,0.0,0.1,0.27
811,0.04339622641509433,-0.11176470588235288,0.0625,-0.15714285714285714,-0.1,0.2
812,-0.02765957446808509,-0.09999999999999998,0.0,0.0,0.0111111111111111,0.26
813,0.014893617021276562,0.08571428571428574,-0.09999999999999998,-0.3,0.042857142857142844,0.2
814,0.0714285714285714,0.23548387096774193,0.16666666666666663,0.2,0.1222222222222222,0.1
815,0.03023255813953485,0.014285714285714346,0.1842105263157895,-0.07777777777777778,-0.1,0.2
816,-0.01764705882352946,-0.004347826086956497,-0.13636363636363635,-0.04999999999999999,-0.1,0.23
817,-0.04893617021276597,-0.019999999999999907,-0.2,-0.07777777777777778,0.1222222222222222,0.26
818,0.039999999999999925,0.008333333333333415,-0.04545454545454547,0.033333333333333326,-0.1,0.18
819,-0.05254237288135599,-0.3153846153846153,-0.16666666666666669,-0.175,0.024999999999999994,0.29
820,-0.033333333333333326,-0.007692307692307665,-0.08333333333333331,0.06363636363636366,-0.1,0.24
821,-0.05384615384615388,-0.23333333333333328,-0.2,0.08461538461538465,0.1,0.29
822,-0.011111111111111183,-0.018181818181818188,0.0,0.06363636363636366,0.024999999999999994,0.23
823,0.016666666666666607,0.050000000000000044,-0.08333333333333331,-0.15714285714285714,-0.1,0.19
824,0.0,-0.04999999999999993,-0.2,0.0,-0.1,0.26
825,0.036170212765957444,0.050000000000000044,0.0,0.033333333333333326,0.024999999999999994,0.18
826,-0.05217391304347829,0.014285714285714346,-0.08333333333333331,-0.3,0.042857142857142844,0.25
827,0.016666666666666607,-0.004347826086956497,-0.08333333333333331,-0.07777777777777778,-0.1,0.23
828,0.003225806451612856,-0.39999999999999997,-0.2777777777777778,0.06363636363636366,0.024999999999999994,0.24
829,-0.1352941176470589,-0.033333333333333326,0.05555555555555558,0.08461538461538465,-0.1,0.31
830,0.06226415094339621,-0.015789473684210464,-0.09999999999999998,-0.07777777777777778,0.0111111111111111,0.19
831,-0.04634146341463419,0.11818181818181828,-0.375,0.06363636363636366,0.042857142857142844,0.22
832,-0.0020408163265306367,-0.19999999999999996,0.0625,0.06363636363636366,0.0,0.25
833,-0.04814814814814816,-0.575,0.0714285714285714,-0.07777777777777778,0.024999999999999994,0.28
834,0.016666666666666607,-0.06842105263157894,-0.038461538461538436,0.1166666666666667,0.024999999999999994,0.22
835,0.021568627450980316,0.008333333333333415,-0.2777777777777778,-0.04999999999999999,0.024999999999999994,0.21
836,0.0,-0.13749999999999996,-0.3,0.2,0.19999999999999998,0.24
837,-0.03953488372093028,-0.019999999999999907,0.033333333333333326,-0.07777777777777778,-0.1,0.26
838,0.0482758620689655,-0.16666666666666663,-0.16666666666666669,-0.07777777777777778,0.1222222222222222,0.2
839,0.036170212765957444,0.12758620689655176,-0.25,0.033333333333333326,-0.1,0.17
840,0.039999999999999925,0.050000000000000044,-0.16666666666666669,0.10000000000000003,-0.1,0.18
841,-0.09999999999999998,-0.19999999999999996,-0.07142857142857145,-0.07777777777777778,0.1222222222222222,0.31
842,0.0038461538461538325,-0.0888888888888888,0.033333333333333326,-0.04999999999999999,-0.1,0.22
843,0.024528301886792447,-0.033333333333333326,-0.08333333333333331,-0.3,0.042857142857142844,0.21
844,-0.07391304347826089,-0.3153846153846153,0.02941176470588236,0.16666666666666669,0.0111111111111111,0.3
845,-0.022448979591836782,-0.28333333333333327,0.20833333333333337,-0.04999999999999999,0.042857142857142844,0.22
846,-0.06666666666666665,0.06666666666666676,-0.13636363636363635,-0.07777777777777778,-0.1,0.26
847,0.006976744186046435,0.08571428571428574,-0.038461538461538436,-0.04999999999999999,-0.1,0.21
848,0.033333333333333326,0.0,0.0714285714285714,0.15454545454545454,0.0,0.2
849,0.0,-0.28333333333333327,0.0,-0.3,-0.1,0.23
850,0.052380952380952306,0.16666666666666674,-0.04545454545454547,0.033333333333333326,0.024999999999999994,0.15
851,0.0444444444444444,-0.06842105263157894,-0.09999999999999998,0.033333333333333326,0.15,0.18
852,-0.011111111111111183,-0.0888888888888888,0.13157894736842102,0.1166666666666667,-0.1,0.22
853,0.014893617021276562,0.03076923076923077,0.0,-0.15714285714285714,-0.1,0.2
854,-0.04634146341463419,-0.004347826086956497,0.033333333333333326,-0.027272727272727282,0.0,0.27
855,-0.11739130434782608,-0.22941176470588232,-0.09999999999999998,0.033333333333333326,0.1,0.34
856,-0.022448979591836782,-0.08095238095238089,-0.08333333333333331,0.06363636363636366,0.042857142857142844,0.24
857,-0.07500000000000007,-0.047826086956521685,-0.033333333333333326,-0.11818181818181817,0.1727272727272727,0.3
858,0.014893617021276562,0.05862068965517242,-0.25,-0.175,-0.1,0.22
859,-0.05384615384615388,0.06666666666666676,-0.13636363636363635,0.1166666666666667,-0.1,0.25
860,-0.022448979591836782,-0.11176470588235288,0.07894736842105265,-0.175,0.042857142857142844,0.24
861,-0.06666666666666665,-0.018181818181818188,0.19565217391304346,0.0,-0.1,0.26
862,0.014893617021276562,-0.11176470588235288,0.08823529411764708,0.10000000000000003,-0.1,0.23
863,-0.03157894736842104,0.050000000000000044,0.0625,-0.18888888888888888,0.0111111111111111,0.25
864,-0.008695652173913104,0.06666666666666676,-0.2,-0.15714285714285714,0.042857142857142844,0.21
865,0.0019607843137254832,-0.0888888888888888,0.08823529411764708,-0.04999999999999999,-0.1,0.21
866,0.09999999999999998,0.022222222222222254,-0.04545454545454547,0.23846153846153845,-0.1,0.17
867,0.025000000000000022,0.10000000000000009,0.16666666666666663,-0.07777777777777778,-0.1,0.19
868,0.01836734693877551,-0.018181818181818188,-0.16666666666666669,0.06363636363636366,0.1222222222222222,0.21
869,0.06153846153846154,-0.09999999999999998,0.1470588235294118,-0.175,0.024999999999999994,0.18
870,-0.10588235294117654,0.1461538461538462,-0.08333333333333331,-0.04999999999999999,-0.1,0.23
871,-0.004166666666666652,-0.06842105263157894,-0.08333333333333331,0.16153846153846158,0.024999999999999994,0.23
872,-0.09999999999999998,0.00967741935483879,-0.13636363636363635,-0.07777777777777778,0.0111111111111111,0.29
873,0.06226415094339621,-0.015789473684210464,-0.04545454545454547,-0.07777777777777778,0.15,0.17
874,-0.03725490196078429,-0.2714285714285714,0.0,0.06363636363636366,0.024999999999999994,0.27
875,0.051219512195121886,0.11481481481481481,0.16666666666666663,-0.04999999999999999,0.06666666666666665,0.14
876,0.0607843137254902,-0.015789473684210464,-0.09999999999999998,0.2,0.024999999999999994,0.17
877,0.039999999999999925,0.050000000000000044,-0.16666666666666669,-0.18888888888888888,0.024999999999999994,0.2
878,-0.0052631578947368585,-0.1705882352941176,-0.07142857142857145,-0.3,-0.1,0.24
879,-0.028205128205128216,0.040740740740740744,0.08823529411764708,0.10000000000000003,-0.1,0.22
880,-0.015384615384615441,0.03076923076923077,-0.5,0.0,-0.1,0.22
881,0.02682926829268295,0.16206896551724137,0.09999999999999998,-0.04999999999999999,0.042857142857142844,0.15
882,-0.09354838709677427,0.1461538461538462,-0.16666666666666669,0.16153846153846158,-0.1,0.23
883,-0.05555555555555558,-0.019999999999999907,-0.08333333333333331,0.0,-0.1,0.27
884,-0.04634146341463419,0.020000000000000018,-0.13636363636363635,0.2,-0.1,0.26
885,-0.0071428571428571175,-0.14444444444444438,-0.08333333333333331,-0.3,0.042857142857142844,0.24
886,-0.02195121951219514,-0.004347826086956497,0.0,0.2,0.19999999999999998,0.22
887,0.03023255813953485,0.06923076923076932,0.0714285714285714,0.033333333333333326,0.024999999999999994,0.18
888,0.0444444444444444,-0.19999999999999996,0.033333333333333326,0.10000000000000003,0.042857142857142844,0.19
889,0.006976744186046435,0.03913043478260869,0.08823529411764708,0.033333333333333326,0.024999999999999994,0.2
890,-0.02195121951219514,-0.018181818181818188,-0.038461538461538436,0.1166666666666667,0.2333333333333333,0.24
891,-0.15000000000000002,0.00967741935483879,0.0,-0.175,-0.1,0.31
892,-0.06666666666666665,-0.047826086956521685,-0.033333333333333326,0.0,0.1,0.28
893,0.014893617021276562,-0.0888888888888888,0.0,0.06363636363636366,-0.1,0.25
894,0.04117647058823526,-0.04999999999999993,-0.038461538461538436,-0.175,-0.1,0.22
895,0.025000000000000022,0.14848484848484855,0.0,-0.175,0.042857142857142844,0.17
896,-0.03888888888888886,0.03913043478260869,0.15000000000000002,0.06363636363636366,0.0,0.24
897,0.023076923076923106,-0.04999999999999993,-0.2777777777777778,0.06363636363636366,-0.1,0.23
898,-0.011111111111111183,-0.0888888888888888,0.0625,0.06363636363636366,0.0,0.25
899,-0.04285714285714293,0.15294117647058825,0.0,0.033333333333333326,0.024999999999999994,0.2
900,-0.020000000000000018,-0.1705882352941176,0.0,-0.19999999999999998,-0.1,0.29
901,0.038775510204081653,-0.11176470588235288,-0.08333333333333331,0.15454545454545454,0.1727272727272727,0.21
902,-0.0304347826086957,-0.033333333333333326,-0.08333333333333331,0.1166666666666667,0.1222222222222222,0.24
903,0.05918367346938769,0.14848484848484855,-0.5,-0.15714285714285714,-0.1,0.14
904,-0.04634146341463419,-0.018181818181818188,-0.038461538461538436,0.16153846153846158,-0.009090909090909094,0.27
905,-0.03725490196078429,-0.08095238095238089,-0.2,-0.07777777777777778,0.0111111111111111,0.27
906,-0.03725490196078429,-0.0636363636363636,-0.13636363636363635,0.033333333333333326,-0.1,0.25
907,0.06874999999999998,-0.28333333333333327,-0.25,0.033333333333333326,-0.1,0.18
908,0.046428571428571375,-0.06842105263157894,-0.35714285714285715,-0.3,0.31666666666666665,0.19
909,0.033333333333333326,0.03913043478260869,-0.09999999999999998,0.23846153846153845,0.1222222222222222,0.18
910,0.004761904761904745,0.07777777777777783,0.0,-0.04999999999999999,0.2333333333333333,0.19
911,-0.05384615384615388,0.1108108108108109,-0.35714285714285715,0.0,-0.1,0.23
912,-0.06279069767441858,-0.033333333333333326,0.13157894736842102,-0.3,0.042857142857142844,0.25
913,0.005660377358490565,-0.13749999999999996,0.0,0.033333333333333326,-0.1,0.23
914,0.04339622641509433,-0.19999999999999996,0.033333333333333326,0.033333333333333326,0.1222222222222222,0.2
915,0.01304347826086949,-0.11176470588235288,-0.038461538461538436,0.23333333333333334,0.0111111111111111,0.23
916,-0.086046511627907,-0.033333333333333326,-0.11538461538461536,0.06363636363636366,-0.1,0.3
917,0.011111111111111072,-0.004347826086956497,-0.038461538461538436,0.10000000000000003,0.0111111111111111,0.22
918,-0.013636363636363669,-0.16666666666666663,0.033333333333333326,0.2625,0.0,0.25
919,0.04117647058823526,0.06923076923076932,-0.16666666666666669,-0.15714285714285714,-0.1,0.18
920,-0.09999999999999998,-0.010344827586206806,0.02941176470588236,-0.175,-0.1,0.28
921,0.0117647058823529,0.1965517241379311,0.23684210526315785,0.033333333333333326,0.1222222222222222,0.14
922,0.011111111111111072,0.014285714285714346,0.13157894736842102,-0.04999999999999999,-0.1,0.2
923,-0.11875000000000002,0.0037037037037037646,0.05555555555555558,0.16153846153846158,-0.1,0.3
924,0.04117647058823526,-0.0888888888888888,0.033333333333333326,-0.04999999999999999,-0.1,0.21
925,0.03442622950819674,-0.14444444444444438,-0.25,-0.15714285714285714,-0.1,0.2
926,0.08305084745762714,-0.015789473684210464,-0.16666666666666669,-0.3,-0.1,0.16
927,0.039999999999999925,0.050000000000000044,-0.04545454545454547,-0.175,0.042857142857142844,0.18
928,0.009090909090909038,-0.033333333333333326,-0.35714285714285715,-0.15714285714285714,0.042857142857142844,0.21
929,-0.15925925925925932,0.0741935483870968,0.2407407407407407,-0.175,-0.1,0.25
930,0.014893617021276562,0.09310344827586214,-0.13636363636363635,-0.15714285714285714,-0.1,0.19
931,-0.015384615384615441,-0.2384615384615384,0.02941176470588236,-0.18888888888888888,0.0111111111111111,0.27
932,0.02857142857142858,0.12758620689655176,-0.09999999999999998,0.15454545454545454,-0.1,0.18
933,0.009090909090909038,-0.018181818181818188,-0.08333333333333331,0.2,0.024999999999999994,0.22
934,0.014893617021276562,-0.0888888888888888,0.13157894736842102,-0.04999999999999999,0.024999999999999994,0.21
935,0.038775510204081653,0.050000000000000044,-0.16666666666666669,-0.04999999999999999,0.30000000000000004,0.17
936,-0.04634146341463419,-0.019999999999999907,0.11111111111111116,0.0,-0.1,0.24
937,0.01379310344827589,-0.09999999999999998,-0.375,-0.3,0.042857142857142844,0.23
938,-0.11875000000000002,0.014285714285714346,0.07894736842105265,0.06363636363636366,-0.1,0.3
939,0.014893617021276562,-0.018181818181818188,-0.038461538461538436,0.033333333333333326,0.2333333333333333,0.2
940,0.011111111111111072,0.03913043478260869,0.0714285714285714,-0.07777777777777778,0.1222222222222222,0.2
941,-0.025000000000000022,0.05862068965517242,-0.038461538461538436,0.033333333333333326,-0.1,0.24
942,-0.07073170731707323,-0.007692307692307665,0.07894736842105265,-0.3,0.042857142857142844,0.26
943,-0.025000000000000022,-0.047826086956521685,-0.3,0.0,0.1222222222222222,0.26
944,0.025925925925925908,-0.018181818181818188,-0.13636363636363635,-0.3,-0.1,0.21
945,0.007407407407407418,-0.08095238095238089,-0.08333333333333331,-0.3,-0.1,0.23
946,-0.050000000000000044,0.020000000000000018,-0.08333333333333331,0.16153846153846158,0.0,0.26
947,-0.004166666666666652,0.03076923076923077,-0.13636363636363635,-0.175,0.042857142857142844,0.22
948,-0.028205128205128216,0.008333333333333415,0.13157894736842102,0.033333333333333326,0.1222222222222222,0.22
949,0.06296296296296289,-0.0888888888888888,-0.2,0.033333333333333326,0.0111111111111111,0.2
950,0.05161290322580647,-0.44999999999999996,0.08823529411764708,-0.3,-0.1,0.19
951,-0.020000000000000018,-0.04999999999999993,-0.038461538461538436,0.0,-0.1,0.24
952,0.039999999999999925,0.06000000000000005,-0.09999999999999998,-0.04999999999999999,-0.1,0.18
953,0.03220338983050841,-0.2384615384615384,-0.038461538461538436,-0.04999999999999999,0.042857142857142844,0.2
954,-0.03888888888888886,0.12352941176470589,0.033333333333333326,-0.175,0.042857142857142844,0.21
955,-0.07073170731707323,-0.019999999999999907,-0.038461538461538436,0.2,0.042857142857142844,0.25
956,-0.033333333333333326,0.0037037037037037646,-0.13636363636363635,-0.175,0.1222222222222222,0.25
957,0.023076923076923106,-0.16666666666666663,0.0625,0.033333333333333326,0.024999999999999994,0.21
958,-0.01904761904761909,0.03913043478260869,0.0,0.15454545454545454,0.1,0.22
959,0.0024390243902439046,0.06923076923076932,0.0714285714285714,0.15454545454545454,0.024999999999999994,0.19
960,-0.033333333333333326,-0.019999999999999907,0.0,0.06363636363636366,-0.1,0.24
961,-0.00638297872340432,-0.018181818181818188,-0.08333333333333331,0.0,-0.1,0.25
962,0.007407407407407418,-0.2384615384615384,0.0625,-0.07777777777777778,-0.1,0.24
963,-0.0052631578947368585,-0.09999999999999998,-0.2,-0.3,-0.1,0.24
964,-0.00909090909090915,-0.3363636363636363,-0.2,0.23333333333333334,0.1222222222222222,0.24
965,0.023076923076923106,-0.06842105263157894,-0.2,0.0,-0.1,0.24
966,0.0019607843137254832,-0.004347826086956497,-0.2,-0.175,0.024999999999999994,0.23
967,0.011111111111111072,0.07777777777777783,-0.038461538461538436,-0.175,0.042857142857142844,0.2
968,-0.02765957446808509,-0.1210526315789473,0.02941176470588236,-0.07777777777777778,0.024999999999999994,0.26
969,-0.09512195121951217,-0.033333333333333326,-0.033333333333333326,-0.18888888888888888,0.024999999999999994,0.3
970,-0.09444444444444444,0.07777777777777783,-0.08333333333333331,-0.07777777777777778,-0.1,0.26
971,0.01379310344827589,-0.19999999999999996,-0.2,0.1166666666666667,-0.1,0.22
972,-0.008108108108108136,0.10000000000000009,0.0714285714285714,0.10000000000000003,0.1222222222222222,0.19
973,-0.11951219512195121,-0.17368421052631577,0.02631578947368418,0.12857142857142856,-0.1,0.32
974,-0.04285714285714293,-0.033333333333333326,0.11904761904761907,-0.04999999999999999,0.15,0.23
975,0.0024390243902439046,0.06923076923076932,0.1470588235294118,-0.04999999999999999,-0.1,0.2
976,0.048717948717948656,0.11481481481481481,0.09999999999999998,0.10000000000000003,-0.1,0.18
977,-0.07073170731707323,0.040740740740740744,-0.08333333333333331,0.16153846153846158,0.042857142857142844,0.24
978,0.052380952380952306,0.16666666666666674,-0.16666666666666669,0.15454545454545454,0.024999999999999994,0.15
979,-0.025000000000000022,-0.004347826086956497,0.0625,0.23333333333333334,-0.1,0.22
980,0.014893617021276562,0.08571428571428574,-0.16666666666666669,-0.175,-0.1,0.21
981,-0.12222222222222223,0.050000000000000044,-0.2,0.12857142857142856,-0.1,0.29
982,-0.040000000000000036,-0.2714285714285714,0.07894736842105265,-0.07777777777777778,-0.1,0.28
983,-0.00909090909090915,-0.14444444444444438,-0.08333333333333331,-0.175,-0.1,0.25
984,-0.01904761904761909,0.06923076923076932,0.08823529411764708,-0.04999999999999999,0.042857142857142844,0.2
985,-0.01764705882352946,-0.1705882352941176,-0.13636363636363635,0.1166666666666667,-0.1,0.27
986,-0.016279069767441867,0.11818181818181828,-0.25,-0.04999999999999999,0.15,0.19
987,-0.02765957446808509,-0.14444444444444438,-0.08333333333333331,0.2625,0.042857142857142844,0.24
988,0.06296296296296289,-0.19999999999999996,0.0625,-0.07777777777777778,0.1222222222222222,0.19
989,-0.04705882352941182,0.15294117647058825,0.0625,-0.04999999999999999,0.15,0.19
990,0.03650793650793649,-0.14444444444444438,-0.35714285714285715,-0.3,-0.1,0.2
991,0.011111111111111072,0.08571428571428574,-0.09999999999999998,0.033333333333333326,0.15,0.18
992,0.04915254237288136,-0.0888888888888888,-0.25,-0.04999999999999999,-0.1,0.19
993,-0.15806451612903227,0.06666666666666676,0.09999999999999998,0.1166666666666667,0.042857142857142844,0.26
994,-0.05555555555555558,-0.13749999999999996,0.13636363636363635,-0.18888888888888888,-0.1,0.28
995,-0.028205128205128216,0.08571428571428574,-0.038461538461538436,0.06363636363636366,0.0111111111111111,0.23
996,0.09999999999999998,-0.09999999999999998,0.0,-0.04999999999999999,0.024999999999999994,0.15
997,0.005660377358490565,-0.19999999999999996,-0.038461538461538436,0.06363636363636366,0.1222222222222222,0.23
998,-0.04285714285714293,-0.047826086956521685,0.033333333333333326,0.0,0.0,0.27
999,0.020000000000000018,-0.004347826086956497,-0.08333333333333331,0.033333333333333326,-0.1,0.2
