,0,1,2,3,4,5
0,0.03975903614457832,-0.19999999999999996,0.33333333333333337,0.10000000000000003,0.4,0.02
1,0.03902439024390236,0.050000000000000044,0.09999999999999998,0.033333333333333326,-0.1,0.05
2,0.041860465116279055,-0.033333333333333326,0.0,-0.3,-0.1,0.05
3,-0.05853658536585371,-0.7,0.09999999999999998,-0.175,-0.1,0.17
4,-0.06666666666666665,-0.14444444444444438,0.0,-0.04999999999999999,0.2333333333333333,0.15
5,-0.003896103896103953,0.050000000000000044,-0.25,0.06363636363636366,-0.1,0.13
6,0.032432432432432434,0.20000000000000007,-0.16666666666666669,-0.09999999999999998,-0.1,0.08
7,-0.009375000000000022,-0.0636363636363636,0.09999999999999998,0.033333333333333326,0.2333333333333333,0.13
8,-0.03580246913580254,-0.09999999999999998,0.09999999999999998,0.10000000000000003,-0.1,0.12
9,0.0,0.10000000000000009,-0.16666666666666669,-0.3,-0.1,0.09
10,-0.4,-0.018181818181818188,0.15217391304347827,0.3,-0.1,0.26
11,0.048717948717948656,-0.033333333333333326,0.2142857142857143,-0.3,0.15,0.06
12,-0.02195121951219514,-0.033333333333333326,0.09999999999999998,-0.13333333333333333,0.15,0.11
13,-0.02941176470588236,-0.033333333333333326,0.25,-0.04999999999999999,0.15,0.09
14,-0.4,-0.06904761904761902,-0.07142857142857145,-0.3,-0.1,0.33
15,0.004761904761904745,-0.7,0.33333333333333337,0.3,-0.1,0.06
16,-0.025000000000000022,-0.07499999999999996,0.16666666666666663,0.36666666666666664,0.5666666666666667,0.07
17,-0.03698630136986303,0.11250000000000004,0.0,-0.3,0.15,0.11
18,0.013580246913580174,0.050000000000000044,-0.16666666666666669,-0.3,0.06666666666666665,0.08
19,-0.015384615384615441,0.050000000000000044,0.0,0.10000000000000003,-0.1,0.12
20,0.009090909090909038,-0.32499999999999996,-0.25,0.2,0.042857142857142844,0.13
21,-0.2333333333333334,0.03170731707317076,0.0,0.2714285714285714,0.2333333333333333,0.2
22,-0.04285714285714293,-0.19999999999999996,0.16666666666666663,0.033333333333333326,-0.1,0.1
23,-0.009756097560975618,0.050000000000000044,0.30000000000000004,-0.3,-0.1,0.1
24,0.00540540540540535,0.014285714285714346,0.0714285714285714,0.10000000000000003,-0.1,0.12
25,0.036708860759493644,-0.14444444444444438,-0.16666666666666669,0.2,-0.1,0.09
26,0.021052631578947323,0.1461538461538462,-0.16666666666666669,0.2,0.06666666666666665,0.06
27,0.009090909090909038,0.10952380952380958,-0.125,0.2,-0.1,0.08
28,-0.20000000000000007,0.018309859154929664,0.0,-0.01428571428571429,0.06666666666666665,0.26
29,0.011392405063291089,0.10000000000000009,-0.16666666666666669,-0.3,-0.1,0.12
30,0.012499999999999956,0.050000000000000044,-0.3,0.45,-0.1,0.1
31,0.0625,-0.12857142857142856,-0.25,0.10000000000000003,-0.1,0.06
32,-0.03580246913580254,-0.09999999999999998,0.0,-0.13333333333333333,-0.1,0.14
33,0.06428571428571428,0.10000000000000009,-0.07142857142857145,0.36666666666666664,-0.1,-0.0
34,0.014634146341463428,0.10000000000000009,-0.33333333333333337,0.033333333333333326,-0.1,0.09
35,0.009090909090909038,0.0922077922077923,-0.16666666666666669,0.36666666666666664,-0.1,0.16
36,-0.2333333333333334,-0.004878048780487809,-0.3,-0.09999999999999998,-0.1,0.29
37,-0.0060606060606061,0.07777777777777783,0.125,0.2,-0.1,0.1
38,0.04999999999999993,0.050000000000000044,0.16666666666666663,0.2714285714285714,-0.1,0.05
39,-0.02048192771084345,0.10000000000000009,0.30000000000000004,-0.04999999999999999,0.2333333333333333,0.07
40,0.02682926829268295,0.014285714285714346,0.0,-0.3,0.1,0.06
41,0.02682926829268295,-0.44999999999999996,0.125,0.36666666666666664,-0.1,0.06
42,-0.2333333333333334,0.014285714285714346,-0.5,0.10000000000000003,-0.1,0.26
43,-0.2333333333333334,0.06829268292682933,0.16666666666666663,-0.3,-0.1,0.21
44,-0.4,0.050000000000000044,0.0,0.2,0.06666666666666665,0.23
45,-0.0052631578947368585,-0.19999999999999996,0.0,0.16666666666666669,-0.1,0.12
46,0.041860465116279055,-0.7,-0.25,-0.01428571428571429,-0.1,0.06
47,0.032432432432432434,0.027272727272727337,0.0714285714285714,-0.3,-0.1,0.09
48,0.08630136986301362,-0.09999999999999998,-0.09999999999999998,-0.3,0.1,0.11
49,-0.003896103896103953,0.014285714285714346,0.0,-0.3,-0.1,0.14
50,-0.02658227848101269,0.050000000000000044,0.30000000000000004,-0.3,0.4,0.12
51,0.009090909090909038,-0.09999999999999998,0.16666666666666663,0.033333333333333326,0.06666666666666665,0.1
52,0.018604651162790642,-0.7,0.25,-0.09999999999999998,-0.1,0.07
53,0.022222222222222254,-0.19999999999999996,-0.16666666666666669,0.033333333333333326,-0.1,0.04
54,0.014634146341463428,0.18888888888888888,-0.5,-0.13333333333333333,-0.1,0.06
55,-0.06666666666666665,-0.36666666666666664,0.13157894736842102,-0.13333333333333333,-0.1,0.2
56,-0.011111111111111183,-0.09999999999999998,0.25,-0.04999999999999999,-0.1,0.11
57,0.0024390243902439046,0.050000000000000044,-0.16666666666666669,-0.04999999999999999,0.042857142857142844,0.1
58,-0.030952380952380953,-0.19999999999999996,0.0,0.033333333333333326,-0.1,0.11
59,0.0036144578313253017,0.13333333333333341,0.16666666666666663,0.033333333333333326,-0.1,0.06
60,0.015662650602409567,-0.033333333333333326,-0.25,0.033333333333333326,-0.1,0.08
61,-0.0046511627906976605,-0.033333333333333326,-0.16666666666666669,-0.09999999999999998,-0.1,0.09
62,0.014634146341463428,-0.29999999999999993,0.09999999999999998,-0.3,-0.1,0.1
63,0.024050632911392422,0.17500000000000004,0.16666666666666663,-0.3,0.4,0.05
64,0.0,-0.49999999999999994,0.0,0.033333333333333326,-0.1,0.23
65,0.006666666666666599,0.050000000000000044,0.19999999999999996,0.033333333333333326,-0.1,0.08
66,0.012499999999999956,-0.49999999999999994,0.0714285714285714,0.45,0.15,0.08
67,-0.00588235294117645,-0.36666666666666664,0.30000000000000004,-0.3,-0.1,0.09
68,0.036708860759493644,-0.29999999999999993,0.30000000000000004,0.033333333333333326,-0.1,0.08
69,0.03902439024390236,0.050000000000000044,-0.3,0.36666666666666664,-0.1,0.05
70,0.025925925925925908,-0.12857142857142856,-0.09999999999999998,-0.3,-0.1,0.09
71,-0.018421052631579005,0.11818181818181828,-0.16666666666666669,0.12857142857142856,-0.1,0.1
72,0.016666666666666607,-0.7,0.25,-0.13333333333333333,-0.1,0.09
73,0.02857142857142858,0.050000000000000044,-0.25,0.36666666666666664,0.30000000000000004,0.04
74,0.00588235294117645,-0.19999999999999996,0.0,0.36666666666666664,-0.1,0.07
75,-0.02941176470588236,0.050000000000000044,-0.25,0.033333333333333326,0.15,0.1
76,0.05294117647058816,-0.36666666666666664,-0.5,0.2,0.06666666666666665,0.05
77,-0.013207547169811318,0.018750000000000044,0.16666666666666663,0.2,0.15,0.12
78,0.041860465116279055,0.050000000000000044,0.30000000000000004,0.2,-0.1,-0.0
79,-0.01864406779661021,-0.019999999999999907,0.16666666666666663,0.0,0.5666666666666667,0.14
80,-0.2333333333333334,-0.009859154929577452,0.16666666666666663,0.033333333333333326,0.30000000000000004,0.24
81,0.015662650602409567,0.050000000000000044,0.0,-0.09999999999999998,-0.1,0.07
82,0.004761904761904745,0.13333333333333341,-0.09999999999999998,0.033333333333333326,-0.1,0.06
83,-0.0012658227848101333,0.1461538461538462,0.16666666666666663,-0.3,-0.1,0.06
84,0.06296296296296289,-0.36666666666666664,-0.5,-0.09999999999999998,0.06666666666666665,0.09
85,0.03023255813953485,-0.44999999999999996,0.16666666666666663,-0.3,0.2333333333333333,0.06
86,0.015662650602409567,-0.36666666666666664,0.16666666666666663,-0.09999999999999998,-0.1,0.08
87,0.06629213483146068,-0.19999999999999996,-0.16666666666666669,-0.3,-0.1,0.01
88,0.018604651162790642,-0.09999999999999998,0.16666666666666663,-0.04999999999999999,0.4,0.04
89,0.025000000000000022,-0.033333333333333326,-0.5,-0.04999999999999999,0.1857142857142857,0.09
90,0.03975903614457832,0.050000000000000044,0.0,0.2714285714285714,-0.1,0.03
91,-0.04285714285714293,-0.44999999999999996,-0.16666666666666669,-0.04999999999999999,-0.1,0.14
92,-0.03924050632911391,0.050000000000000044,0.30000000000000004,-0.3,0.1,0.11
93,0.021052631578947323,0.050000000000000044,0.125,-0.04999999999999999,0.4,0.06
94,-0.044736842105263186,-0.44999999999999996,0.09999999999999998,-0.09999999999999998,0.1,0.16
95,0.007894736842105288,0.17500000000000004,0.0714285714285714,-0.3,-0.1,0.1
96,0.051807228915662584,-0.033333333333333326,-0.09999999999999998,-0.04999999999999999,-0.1,0.06
97,0.009090909090909038,-0.29999999999999993,-0.33333333333333337,0.033333333333333326,0.2333333333333333,0.13
98,0.050617283950617264,-0.033333333333333326,0.09999999999999998,-0.3,0.042857142857142844,0.07
99,-0.028205128205128216,-0.033333333333333326,0.09999999999999998,0.15454545454545454,0.06666666666666665,0.21
100,0.03975903614457832,-0.19999999999999996,0.09999999999999998,0.10000000000000003,-0.1,0.04
101,-0.011111111111111183,-0.19999999999999996,0.125,0.45,0.2333333333333333,0.07
102,-0.03580246913580254,-0.033333333333333326,0.0,0.2,-0.1,0.12
103,-0.04864864864864871,0.050000000000000044,0.2142857142857143,-0.3,0.2333333333333333,0.12
104,0.046666666666666634,0.10000000000000009,-0.16666666666666669,0.2714285714285714,0.0,0.09
105,-0.06000000000000005,-0.033333333333333326,0.0714285714285714,-0.3,-0.1,0.19
106,0.036170212765957444,0.09310344827586214,0.34615384615384615,0.2,-0.1,0.08
107,0.018604651162790642,0.10000000000000009,-0.5,-0.04999999999999999,-0.1,0.06
108,-0.05116279069767449,-0.19999999999999996,-0.5,0.10000000000000003,-0.1,0.13
109,0.03023255813953485,0.050000000000000044,0.16666666666666663,0.36666666666666664,-0.1,0.03
110,-0.12222222222222223,0.11927710843373496,-0.5,-0.3,-0.1,0.15
111,-0.011111111111111183,0.014285714285714346,-0.09999999999999998,-0.04999999999999999,0.2333333333333333,0.09
112,-0.5666666666666667,0.11707317073170731,0.09999999999999998,-0.3,0.2333333333333333,0.16
113,-0.0071428571428571175,-0.09999999999999998,0.16666666666666663,-0.04999999999999999,-0.1,0.09
114,0.025000000000000022,0.15714285714285714,0.0,0.033333333333333326,0.4,0.05
115,0.009090909090909038,-0.12857142857142856,0.0,-0.13333333333333333,0.15,0.11
116,-0.030952380952380953,0.050000000000000044,-0.09999999999999998,-0.04999999999999999,-0.1,0.11
117,0.0,0.13333333333333341,0.0714285714285714,-0.3,-0.1,0.09
118,-0.020689655172413834,0.13870967741935492,-0.09999999999999998,0.033333333333333326,0.2333333333333333,0.09
119,-0.4,0.0590361445783133,0.16666666666666663,-0.04999999999999999,-0.1,0.22
120,0.023076923076923106,0.050000000000000044,-0.25,-0.01428571428571429,-0.1,0.11
121,-0.34444444444444444,-0.0461538461538461,0.0,-0.3,0.15,0.3
122,-0.03888888888888886,0.10000000000000009,0.16666666666666663,-0.3,-0.1,0.12
123,0.025000000000000022,-0.033333333333333326,-0.09999999999999998,0.4777777777777778,-0.1,0.05
124,-0.5666666666666667,-0.004878048780487809,-0.16666666666666669,-0.3,-0.1,0.31
125,0.027710843373493943,-0.033333333333333326,-0.16666666666666669,-0.09999999999999998,0.2333333333333333,0.06
126,0.041860465116279055,-0.033333333333333326,-0.16666666666666669,-0.09999999999999998,-0.1,0.05
127,-0.2333333333333334,-0.015789473684210464,0.06666666666666665,0.033333333333333326,-0.1,0.31
128,-0.034146341463414664,0.050000000000000044,0.16666666666666663,0.2,0.2333333333333333,0.09
129,-0.00588235294117645,0.10000000000000009,-0.16666666666666669,0.10000000000000003,0.4,0.06
130,-0.02643678160919538,-0.44999999999999996,-0.16666666666666669,0.2,-0.1,0.11
131,-0.04285714285714293,0.005882352941176561,0.09999999999999998,-0.3,0.1,0.14
132,0.027710843373493943,-0.7,0.09999999999999998,-0.15714285714285714,-0.1,0.09
133,-0.009756097560975618,0.050000000000000044,0.0,-0.01428571428571429,-0.1,0.1
134,-0.011111111111111183,0.050000000000000044,-0.125,-0.04999999999999999,0.024999999999999994,0.15
135,0.024050632911392422,-0.09999999999999998,0.0,-0.15714285714285714,-0.1,0.11
136,-0.009756097560975618,-0.09999999999999998,-0.09999999999999998,-0.3,0.06666666666666665,0.11
137,0.027710843373493943,0.050000000000000044,0.0,-0.3,-0.1,0.08
138,-0.009756097560975618,-0.09999999999999998,0.30000000000000004,0.033333333333333326,-0.1,0.09
139,-0.0688311688311688,-0.19999999999999996,0.0714285714285714,0.033333333333333326,0.042857142857142844,0.17
140,-0.05853658536585371,0.050000000000000044,0.25,0.033333333333333326,-0.1,0.13
141,0.02207792207792203,0.13333333333333341,0.38888888888888884,0.2,0.06666666666666665,0.04
142,0.04047619047619044,-0.36666666666666664,-0.5,-0.04999999999999999,-0.1,0.08
143,-0.011111111111111183,-0.0461538461538461,0.0,-0.04999999999999999,-0.1,0.14
144,0.03827160493827153,-0.033333333333333326,0.16666666666666663,0.3,0.1,0.04
145,0.07674418604651156,-0.19999999999999996,-0.16666666666666669,-0.04999999999999999,-0.1,0.02
146,0.039393939393939426,-0.033333333333333326,-0.07142857142857145,0.10000000000000003,-0.1,0.11
147,0.016666666666666607,0.050000000000000044,0.16666666666666663,0.2714285714285714,-0.1,0.06
148,-0.015384615384615441,0.050000000000000044,0.33333333333333337,0.033333333333333326,-0.1,0.11
149,-0.03157894736842104,0.13333333333333341,-0.16666666666666669,0.033333333333333326,-0.1,0.11
150,-0.08823529411764708,-0.19999999999999996,-0.25,0.033333333333333326,-0.1,0.17
151,-0.06216216216216219,0.050000000000000044,0.0,-0.3,-0.1,0.15
152,-0.029870129870129936,-0.033333333333333326,0.0,-0.04999999999999999,0.042857142857142844,0.14
153,0.014634146341463428,-0.033333333333333326,0.125,-0.3,0.1,0.07
154,0.018604651162790642,-0.19999999999999996,0.0,0.45,-0.1,0.04
155,0.03749999999999998,0.13333333333333341,0.09999999999999998,-0.04999999999999999,-0.1,0.06
156,0.01025641025641022,0.10000000000000009,-0.3,-0.3,-0.1,0.14
157,0.036708860759493644,-0.29999999999999993,-0.09999999999999998,0.3,-0.1,0.09
158,-0.046666666666666634,-0.19999999999999996,0.038461538461538436,-0.09999999999999998,0.30000000000000004,0.15
159,-0.11875000000000002,-0.7,-0.020000000000000018,-0.09999999999999998,0.30000000000000004,0.25
160,-0.2571428571428571,0.06056338028169017,-0.5,-0.13333333333333333,0.275,0.23
161,-0.009756097560975618,-0.19999999999999996,0.0714285714285714,0.2,-0.1,0.1
162,0.02134831460674158,-0.36666666666666664,-0.5,0.2,-0.1,0.05
163,0.0,0.04285714285714293,0.0,0.10000000000000003,-0.1,0.14
164,-0.028205128205128216,-0.19999999999999996,0.16666666666666663,-0.09999999999999998,-0.1,0.15
165,0.052380952380952306,-0.09999999999999998,0.25,0.36666666666666664,-0.1,0.02
166,0.03103448275862064,-0.19999999999999996,-0.16666666666666669,0.45,-0.1,0.04
167,-0.01764705882352946,0.04285714285714293,-0.3,0.10000000000000003,0.15,0.15
168,0.0,0.13333333333333341,-0.5,0.033333333333333326,-0.1,0.11
169,0.048717948717948656,-0.44999999999999996,0.2777777777777778,0.3,-0.1,0.05
170,0.02682926829268295,-0.033333333333333326,-0.09999999999999998,-0.04999999999999999,-0.1,0.09
171,-0.025000000000000022,-0.09999999999999998,0.16666666666666663,0.3,-0.1,0.1
172,0.051219512195121886,-0.36666666666666664,-0.09999999999999998,-0.3,0.4,0.06
173,-0.04634146341463419,-0.36666666666666664,0.16666666666666663,0.033333333333333326,-0.1,0.15
174,0.024050632911392422,-0.033333333333333326,-0.2142857142857143,-0.3,-0.1,0.11
175,-0.016883116883116944,-0.0636363636363636,0.0,0.033333333333333326,0.2333333333333333,0.1
176,0.013580246913580174,-0.19999999999999996,0.2142857142857143,-0.01428571428571429,-0.1,0.08
177,0.0012345679012345512,0.07777777777777783,0.0,0.033333333333333326,-0.1,0.07
178,0.015662650602409567,-0.033333333333333326,0.0714285714285714,0.2,-0.1,0.06
179,0.03902439024390236,-0.033333333333333326,-0.09999999999999998,0.36666666666666664,0.15,0.04
180,-0.034146341463414664,-0.19999999999999996,0.0,-0.01428571428571429,0.1,0.13
181,-0.03157894736842104,-0.25555555555555554,-0.16666666666666669,0.2,0.06666666666666665,0.15
182,0.03827160493827153,0.050000000000000044,0.33333333333333337,0.10000000000000003,-0.1,0.04
183,-0.0052631578947368585,0.014285714285714346,0.0,0.10000000000000003,-0.1,0.12
184,-0.03888888888888886,0.10000000000000009,-0.5,0.10000000000000003,-0.1,0.14
185,-0.086046511627907,-0.36666666666666664,-0.5,-0.3,0.042857142857142844,0.18
186,-0.0714285714285714,-0.19999999999999996,-0.2142857142857143,0.033333333333333326,-0.1,0.22
187,0.013580246913580174,-0.033333333333333326,-0.16666666666666669,-0.04999999999999999,-0.1,0.1
188,-0.032530120481927716,0.014285714285714346,-0.16666666666666669,-0.3,-0.1,0.12
189,0.009090909090909038,0.13333333333333341,-0.05555555555555558,0.2,0.4,0.07
190,0.025925925925925908,-0.05483870967741933,-0.09999999999999998,-0.3,0.2333333333333333,0.16
191,0.007894736842105288,0.014285714285714346,0.19999999999999996,-0.3,-0.1,0.09
192,-0.07241379310344831,-0.19999999999999996,0.0,-0.3,-0.1,0.14
193,0.036708860759493644,0.050000000000000044,0.30000000000000004,-0.3,0.024999999999999994,0.08
194,0.0012345679012345512,-0.033333333333333326,0.33333333333333337,-0.09999999999999998,0.1,0.08
195,0.025925925925925908,0.10000000000000009,-0.09999999999999998,0.2,-0.1,0.07
196,0.014634146341463428,-0.033333333333333326,-0.5,-0.3,-0.1,0.11
197,0.018918918918918948,0.1461538461538462,0.0,0.3,0.15,0.05
198,0.04936708860759487,0.13333333333333341,0.0,0.14444444444444443,-0.1,0.05
199,0.029577464788732355,-0.12857142857142856,-0.05555555555555558,0.12857142857142856,0.06666666666666665,0.12
200,0.007894736842105288,-0.29999999999999993,0.16666666666666663,-0.3,-0.1,0.13
201,-0.05476190476190479,0.050000000000000044,-0.5,-0.3,-0.1,0.16
202,0.033333333333333326,-0.033333333333333326,0.16666666666666663,0.2714285714285714,0.2333333333333333,0.06
203,-0.034146341463414664,-0.033333333333333326,0.0,0.033333333333333326,-0.1,0.12
204,-0.018421052631579005,0.027272727272727337,0.125,0.033333333333333326,-0.1,0.09
205,-0.009589041095890427,0.10000000000000009,0.33333333333333337,0.033333333333333326,-0.1,0.1
206,-0.060919540229885105,-0.7,-0.3,-0.04999999999999999,-0.1,0.15
207,0.036708860759493644,0.050000000000000044,-0.5,-0.01428571428571429,-0.1,0.11
208,0.0024390243902439046,-0.19999999999999996,0.2142857142857143,-0.3,-0.1,0.09
209,-0.03749999999999998,-0.44999999999999996,0.0,-0.01428571428571429,-0.1,0.15
210,0.036708860759493644,0.050000000000000044,0.05555555555555558,0.2,-0.1,0.05
211,0.047368421052631504,0.07551020408163267,-0.16666666666666669,0.10000000000000003,0.1,0.12
212,-0.05662650602409636,-0.36666666666666664,0.16666666666666663,-0.09999999999999998,-0.1,0.15
213,0.009090909090909038,0.050000000000000044,0.25,0.2,-0.1,0.03
214,0.01304347826086949,0.022222222222222254,-0.09999999999999998,0.36666666666666664,-0.1,0.1
215,0.011392405063291089,-0.033333333333333326,0.0,-0.15714285714285714,-0.1,0.11
216,-0.4,-0.040909090909090895,0.2222222222222222,-0.01428571428571429,0.0111111111111111,0.3
217,0.0036144578313253017,-0.36666666666666664,0.09999999999999998,-0.3,-0.1,0.11
218,-0.30000000000000004,0.07333333333333336,0.2142857142857143,-0.3,0.0111111111111111,0.23
219,0.02207792207792203,-0.033333333333333326,0.09999999999999998,-0.09999999999999998,0.1857142857142857,0.09
220,-0.0410256410256411,-0.19999999999999996,-0.16666666666666669,-0.3,0.1,0.17
221,0.06470588235294117,-0.12857142857142856,-0.5,-0.3,-0.1,0.04
222,0.051807228915662584,0.18888888888888888,-0.16666666666666669,-0.3,0.2333333333333333,0.01
223,-0.032530120481927716,-0.033333333333333326,-0.09999999999999998,-0.09999999999999998,0.4,0.11
224,0.04047619047619044,-0.36666666666666664,0.16666666666666663,0.2,-0.1,0.04
225,0.017808219178082174,-0.033333333333333326,-0.16666666666666669,0.033333333333333326,0.2333333333333333,0.08
226,-0.013924050632911467,-0.033333333333333326,0.0,-0.13333333333333333,-0.1,0.14
227,0.03902439024390236,-0.44999999999999996,0.0714285714285714,0.033333333333333326,-0.1,0.07
228,0.008045977011494232,-0.44999999999999996,0.0,-0.3,-0.1,0.09
229,0.0036144578313253017,-0.09999999999999998,0.30000000000000004,-0.3,0.2333333333333333,0.06
230,0.06428571428571428,-0.7,-0.5,-0.3,-0.1,0.09
231,0.0,0.16666666666666674,-0.07142857142857145,0.10000000000000003,-0.1,0.09
232,0.00588235294117645,-0.19999999999999996,0.0,-0.3,-0.1,0.09
233,0.06470588235294117,-0.19999999999999996,0.16666666666666663,0.10000000000000003,0.2333333333333333,0.01
234,0.02682926829268295,-0.19999999999999996,0.16666666666666663,-0.3,0.06666666666666665,0.08
235,0.046666666666666634,-0.29999999999999993,-0.25,-0.027272727272727282,-0.1,0.13
236,0.0,0.014285714285714346,0.0,0.033333333333333326,0.15,0.08
237,0.025925925925925908,-0.19999999999999996,0.16666666666666663,-0.15714285714285714,-0.1,0.09
238,-0.027906976744186074,0.13333333333333341,-0.5,0.033333333333333326,-0.1,0.09
239,-0.0343283582089553,0.11250000000000004,0.0714285714285714,0.10000000000000003,-0.1,0.13
240,-0.06455696202531647,0.014285714285714346,-0.3,-0.3,-0.1,0.18
241,-0.02658227848101269,0.050000000000000044,0.125,-0.3,-0.1,0.13
242,-0.0410256410256411,-0.2714285714285714,-0.07142857142857145,-0.3,0.1,0.16
243,-0.032530120481927716,-0.44999999999999996,-0.09999999999999998,-0.3,-0.1,0.15
244,-0.025000000000000022,0.10000000000000009,0.1428571428571429,-0.04999999999999999,0.1,0.12
245,-0.011111111111111183,-0.19999999999999996,0.25,0.033333333333333326,0.06666666666666665,0.1
246,0.024050632911392422,0.15714285714285714,0.16666666666666663,0.033333333333333326,0.15,0.06
247,0.01025641025641022,-0.19999999999999996,0.16666666666666663,-0.3,-0.1,0.14
248,0.03023255813953485,0.10000000000000009,0.25,-0.3,-0.1,0.03
249,-0.008108108108108136,0.13333333333333341,0.0,0.10000000000000003,-0.1,0.09
250,-0.07500000000000007,0.10000000000000009,-0.16666666666666669,0.45,0.1,0.14
251,0.03150684931506842,0.08571428571428574,0.0,0.10000000000000003,-0.1,0.07
252,0.0024390243902439046,-0.033333333333333326,-0.07142857142857145,-0.01428571428571429,-0.1,0.09
253,0.03589743589743588,-0.7,0.2142857142857143,0.2,-0.1,0.09
254,-0.016279069767441867,-0.19999999999999996,0.30000000000000004,0.033333333333333326,-0.1,0.07
255,-0.04814814814814816,-0.12857142857142856,-0.5,0.3,-0.1,0.14
256,0.034782608695652195,-0.10540540540540533,-0.07142857142857145,0.2,-0.1,0.19
257,-0.016279069767441867,0.10000000000000009,-0.5,-0.13333333333333333,-0.1,0.09
258,0.0012345679012345512,0.050000000000000044,0.125,0.2,-0.1,0.07
259,0.02207792207792203,0.10000000000000009,-0.16666666666666669,-0.04999999999999999,0.06666666666666665,0.08
260,0.03421052631578947,-0.033333333333333326,-0.125,-0.09999999999999998,0.15,0.11
261,-0.0012658227848101333,-0.09999999999999998,0.0,-0.04999999999999999,-0.1,0.12
262,0.07647058823529407,-0.033333333333333326,0.0,0.033333333333333326,0.1857142857142857,0.01
263,-0.011111111111111183,0.10000000000000009,-0.5,-0.15714285714285714,-0.1,0.13
264,0.0,-0.19999999999999996,0.16666666666666663,0.2,-0.1,0.09
265,-0.05277777777777781,0.10000000000000009,0.2142857142857143,-0.01428571428571429,-0.1,0.14
266,-0.17272727272727273,0.06056338028169017,-0.25,0.12857142857142856,0.042857142857142844,0.23
267,-0.012500000000000067,-0.033333333333333326,-0.5,-0.3,0.06666666666666665,0.12
268,0.021052631578947323,0.014285714285714346,-0.5,0.2,-0.1,0.12
269,-0.03924050632911391,-0.033333333333333326,-0.33333333333333337,-0.3,-0.1,0.17
270,-0.008433734939759074,-0.033333333333333326,-0.16666666666666669,-0.13333333333333333,0.1,0.11
271,0.0024390243902439046,0.10000000000000009,0.16666666666666663,0.033333333333333326,0.042857142857142844,0.08
272,0.0036144578313253017,0.10000000000000009,-0.16666666666666669,-0.3,-0.1,0.1
273,-0.03580246913580254,-0.2714285714285714,-0.33333333333333337,-0.3,0.4,0.15
274,0.025925925925925908,-0.19999999999999996,-0.5,0.2,-0.1,0.09
275,-0.4,-0.05135135135135127,-0.125,0.12857142857142856,0.1857142857142857,0.32
276,0.015662650602409567,-0.19999999999999996,0.09999999999999998,-0.3,-0.1,0.08
277,0.012499999999999956,-0.19999999999999996,0.375,0.033333333333333326,0.15,0.06
278,0.0,-0.12857142857142856,-0.25,-0.09999999999999998,-0.1,0.12
279,-0.030952380952380953,-0.29999999999999993,0.16666666666666663,-0.3,0.1,0.12
280,-0.0071428571428571175,-0.033333333333333326,-0.16666666666666669,0.033333333333333326,-0.1,0.1
281,-0.0034482758620689724,-0.36666666666666664,-0.5,0.36666666666666664,0.15,0.08
282,0.0692307692307692,0.10000000000000009,0.16666666666666663,0.033333333333333326,0.15,0.03
283,-0.009756097560975618,0.10000000000000009,0.0714285714285714,0.033333333333333326,-0.1,0.08
284,-0.023456790123456805,0.13333333333333341,-0.16666666666666669,-0.15714285714285714,-0.1,0.12
285,0.03103448275862064,-0.19999999999999996,-0.16666666666666669,0.36666666666666664,0.2333333333333333,0.03
286,-0.034146341463414664,-0.12857142857142856,-0.09999999999999998,0.2,-0.1,0.12
287,-0.06666666666666665,0.0,0.0,0.033333333333333326,-0.1,0.15
288,-0.04457831325301209,0.050000000000000044,0.09999999999999998,-0.3,0.1,0.12
289,0.007894736842105288,0.050000000000000044,-0.16666666666666669,0.10000000000000003,0.30000000000000004,0.09
290,-0.003896103896103953,0.13333333333333341,0.16666666666666663,-0.09999999999999998,0.06666666666666665,0.1
291,0.00588235294117645,0.014285714285714346,0.0,0.2,-0.1,0.05
292,-0.025000000000000022,0.06923076923076932,0.09999999999999998,-0.15714285714285714,-0.1,0.13
293,-0.016883116883116944,0.0,-0.16666666666666669,-0.04999999999999999,-0.1,0.13
294,0.004761904761904745,-0.36666666666666664,-0.09999999999999998,-0.3,0.042857142857142844,0.1
295,0.014634146341463428,0.10000000000000009,-0.16666666666666669,-0.04999999999999999,0.2333333333333333,0.07
296,0.036708860759493644,-0.033333333333333326,0.0,-0.3,0.1,0.06
297,-0.02941176470588236,-0.19999999999999996,0.0,0.033333333333333326,-0.1,0.11
298,0.0,0.014285714285714346,-0.16666666666666669,-0.01428571428571429,-0.1,0.1
299,0.01025641025641022,-0.12857142857142856,-0.25,-0.01428571428571429,-0.1,0.12
300,-0.023456790123456805,-0.09999999999999998,-0.3,-0.3,-0.1,0.15
301,0.0036144578313253017,0.050000000000000044,0.0,-0.3,0.024999999999999994,0.09
302,0.016666666666666607,-0.29999999999999993,0.0,-0.3,-0.1,0.16
303,0.02682926829268295,0.13333333333333341,0.25,-0.13333333333333333,-0.1,0.05
304,-0.050000000000000044,-0.12857142857142856,0.16666666666666663,0.36666666666666664,0.15,0.11
305,0.021052631578947323,-0.033333333333333326,0.2142857142857143,0.10000000000000003,-0.1,0.11
306,0.027710843373493943,0.050000000000000044,0.09999999999999998,-0.04999999999999999,0.15,0.05
307,-0.04285714285714293,-0.033333333333333326,0.25,-0.13333333333333333,-0.1,0.12
308,0.024050632911392422,-0.033333333333333326,0.0,-0.3,-0.1,0.11
309,-0.02643678160919538,-0.44999999999999996,0.25,-0.3,-0.1,0.1
310,0.0117647058823529,0.06470588235294117,0.0,0.12857142857142856,-0.1,0.1
311,0.025000000000000022,-0.19999999999999996,-0.07142857142857145,0.033333333333333326,-0.1,0.1
312,-0.4,0.011111111111111183,0.16666666666666663,0.2,-0.1,0.22
313,-0.011111111111111183,-0.033333333333333326,0.13636363636363635,-0.15714285714285714,0.4,0.12
314,-0.4,0.007317073170731714,-0.2142857142857143,0.10000000000000003,-0.1,0.27
315,-0.023456790123456805,0.15714285714285714,0.25,-0.3,-0.1,0.1
316,-0.04285714285714293,0.10000000000000009,-0.5,0.10000000000000003,0.15,0.11
317,0.08684210526315783,0.10000000000000009,0.16666666666666663,-0.3,-0.1,0.05
318,-0.06666666666666665,-0.29999999999999993,0.09999999999999998,-0.04999999999999999,0.024999999999999994,0.18
319,0.02857142857142858,0.15714285714285714,0.25,0.033333333333333326,0.4,0.01
320,0.012499999999999956,0.014285714285714346,0.30000000000000004,0.2,-0.1,0.06
321,0.048717948717948656,-0.19999999999999996,0.125,0.12857142857142856,-0.1,0.07
322,0.004761904761904745,0.03913043478260869,0.16666666666666663,-0.3,-0.1,0.12
323,0.01764705882352935,-0.19999999999999996,-0.5,-0.3,-0.1,0.1
324,-0.02195121951219514,-0.12857142857142856,0.0,0.033333333333333326,-0.1,0.1
325,0.017808219178082174,0.033333333333333326,0.25,-0.09999999999999998,-0.1,0.08
326,0.016666666666666607,0.13333333333333341,0.0,-0.3,-0.1,0.07
327,-0.2333333333333334,0.05581395348837215,-0.25,-0.3,-0.1,0.22
328,0.03749999999999998,0.050000000000000044,0.19999999999999996,0.2,0.15,0.03
329,-0.012500000000000067,0.014285714285714346,0.30000000000000004,0.2,-0.1,0.09
330,0.0,0.050000000000000044,0.16666666666666663,-0.3,0.15,0.1
331,0.012499999999999956,0.050000000000000044,0.09999999999999998,0.2,-0.1,0.07
332,0.025925925925925908,0.13333333333333341,-0.25,0.2,-0.1,0.07
333,0.03975903614457832,-0.19999999999999996,-0.3,0.2,-0.1,0.07
334,-0.0046511627906976605,-0.19999999999999996,-0.5,-0.09999999999999998,-0.1,0.1
335,-0.02195121951219514,-0.033333333333333326,-0.16666666666666669,0.07500000000000001,-0.1,0.11
336,0.018604651162790642,0.10000000000000009,-0.5,-0.3,-0.1,0.07
337,0.0024390243902439046,-0.033333333333333326,0.16666666666666663,0.2,-0.1,0.07
338,0.00540540540540535,0.050000000000000044,0.25,-0.04999999999999999,-0.1,0.07
339,0.03827160493827153,-0.49999999999999994,0.0,-0.3,-0.1,0.1
340,0.03749999999999998,-0.033333333333333326,-0.16666666666666669,-0.09999999999999998,0.06666666666666665,0.08
341,0.007894736842105288,0.027272727272727337,-0.16666666666666669,0.10000000000000003,0.1,0.09
342,-0.2333333333333334,0.08571428571428574,0.0,0.2,0.1,0.17
343,-0.050000000000000044,0.050000000000000044,0.09999999999999998,0.36666666666666664,0.1,0.11
344,0.01764705882352935,-0.19999999999999996,-0.5,-0.3,0.15,0.09
345,0.0036144578313253017,-0.09999999999999998,0.0,0.033333333333333326,0.2333333333333333,0.07
346,-0.0052631578947368585,0.050000000000000044,0.33333333333333337,0.12857142857142856,-0.1,0.11
347,0.015662650602409567,0.014285714285714346,-0.16666666666666669,-0.3,-0.1,0.08
348,-0.050000000000000044,0.10000000000000009,0.0,-0.3,-0.1,0.16
349,-0.051898734177215244,-0.29999999999999993,0.05555555555555558,0.2,-0.1,0.14
350,-0.4,0.04358974358974366,-0.16666666666666669,0.2,0.06666666666666665,0.24
351,0.06470588235294117,0.050000000000000044,0.09999999999999998,0.2,-0.1,-0.0
352,-0.08421052631578951,-0.36666666666666664,-0.05555555555555558,0.12857142857142856,0.1,0.19
353,0.009090909090909038,-0.32499999999999996,0.0,-0.13333333333333333,-0.1,0.14
354,-0.02048192771084345,0.050000000000000044,-0.16666666666666669,-0.3,-0.1,0.1
355,-0.016883116883116944,0.07777777777777783,0.09999999999999998,0.3,0.15,0.08
356,0.04999999999999993,0.13333333333333341,0.30000000000000004,-0.15714285714285714,-0.1,0.04
357,-0.4,0.07108433734939767,-0.5,0.2,-0.1,0.21
358,-0.016883116883116944,-0.07499999999999996,0.3571428571428571,0.10000000000000003,-0.1,0.09
359,0.014634146341463428,-0.033333333333333326,-0.3,0.033333333333333326,-0.1,0.09
360,-0.04634146341463419,-0.36666666666666664,0.16666666666666663,0.033333333333333326,-0.1,0.15
361,-0.018421052631579005,0.014285714285714346,0.30000000000000004,0.033333333333333326,-0.1,0.12
362,-0.013636363636363669,-0.033333333333333326,0.0,0.033333333333333326,0.15,0.07
363,-0.0071428571428571175,-0.19999999999999996,0.0,0.36666666666666664,0.1,0.08
364,-0.04084507042253527,-0.36666666666666664,0.125,-0.01428571428571429,0.2333333333333333,0.15
365,-0.10481927710843375,-0.12857142857142856,-0.3,-0.3,-0.1,0.19
366,-0.03888888888888886,0.050000000000000044,0.0,-0.09999999999999998,-0.1,0.15
367,-0.00588235294117645,0.13333333333333341,0.0,-0.3,0.1,0.07
368,0.016666666666666607,-0.36666666666666664,-0.3,-0.3,-0.1,0.11
369,0.06052631578947365,0.18888888888888888,0.0714285714285714,0.10000000000000003,-0.1,0.03
370,-0.037931034482758696,0.050000000000000044,-0.5,0.45,0.15,0.08
371,-0.15000000000000002,0.11690140845070429,0.1428571428571429,0.12857142857142856,-0.1,0.17
372,0.033333333333333326,-0.12857142857142856,-0.09999999999999998,-0.18888888888888888,0.15,0.12
373,-0.020689655172413834,0.040740740740740744,0.16666666666666663,0.325,0.15,0.11
374,-0.04457831325301209,-0.29999999999999993,0.0,-0.3,-0.1,0.15
375,-0.020000000000000018,0.10000000000000009,-0.5,-0.04999999999999999,0.06666666666666665,0.14
376,-0.20434782608695656,0.0014925373134329067,-0.5,0.033333333333333326,-0.1,0.26
377,0.024050632911392422,-0.36666666666666664,0.0,0.10000000000000003,-0.1,0.11
378,0.02134831460674158,-0.19999999999999996,0.25,0.2,-0.1,0.02
379,0.04594594594594592,-0.07499999999999996,-0.25,-0.3,-0.1,0.09
380,0.02682926829268295,-0.09999999999999998,0.16666666666666663,-0.3,0.15,0.08
381,0.0024390243902439046,-0.09999999999999998,0.16666666666666663,0.033333333333333326,-0.1,0.08
382,0.051807228915662584,0.10000000000000009,0.0,-0.04999999999999999,-0.1,0.04
383,0.0012345679012345512,0.13333333333333341,0.0,0.2,-0.1,0.08
384,0.0024390243902439046,-0.44999999999999996,-0.16666666666666669,0.36666666666666664,-0.1,0.11
385,-0.030952380952380953,-0.19999999999999996,-0.16666666666666669,-0.3,-0.1,0.12
386,-0.028205128205128216,-0.033333333333333326,-0.16666666666666669,-0.09999999999999998,-0.1,0.18
387,0.04047619047619044,-0.033333333333333326,0.0,-0.3,-0.1,0.06
388,0.0036144578313253017,-0.033333333333333326,0.0,0.10000000000000003,0.4,0.06
389,-0.0304347826086957,-0.033333333333333326,-0.09999999999999998,0.07500000000000001,0.30000000000000004,0.19
390,-0.04864864864864871,-0.08461538461538454,-0.16666666666666669,-0.3,-0.1,0.18
391,0.014634146341463428,-0.033333333333333326,-0.09999999999999998,-0.09999999999999998,-0.1,0.08
392,-0.01666666666666672,-0.36666666666666664,0.09999999999999998,0.2,-0.1,0.16
393,-0.04117647058823537,-0.09999999999999998,0.16666666666666663,-0.3,-0.1,0.1
394,0.015662650602409567,-0.29999999999999993,0.0,-0.3,-0.1,0.1
395,-0.05625000000000002,0.10000000000000009,0.0,0.033333333333333326,-0.1,0.13
396,-0.060493827160493896,0.10000000000000009,-0.16666666666666669,0.10000000000000003,0.06666666666666665,0.14
397,-0.01904761904761909,-0.033333333333333326,-0.09999999999999998,-0.04999999999999999,-0.1,0.11
398,0.04047619047619044,0.050000000000000044,0.09999999999999998,0.2,-0.1,0.03
399,0.0,-0.09999999999999998,0.09999999999999998,0.5,0.1,0.07
400,-0.2333333333333334,0.03493975903614466,-0.2142857142857143,-0.3,-0.1,0.25
401,0.02682926829268295,-0.033333333333333326,0.16666666666666663,-0.04999999999999999,0.30000000000000004,0.05
402,-0.025000000000000022,-0.033333333333333326,0.16666666666666663,-0.04999999999999999,0.2333333333333333,0.12
403,-0.02658227848101269,0.050000000000000044,0.0714285714285714,0.033333333333333326,-0.1,0.12
404,0.01764705882352935,0.050000000000000044,0.0,-0.3,-0.1,0.07
405,-0.05476190476190479,-0.36666666666666664,0.0,-0.04999999999999999,0.1,0.14
406,0.02207792207792203,0.13333333333333341,0.2142857142857143,0.36666666666666664,0.042857142857142844,0.06
407,-0.04705882352941182,0.022222222222222254,0.0714285714285714,-0.3,-0.1,0.18
408,0.032432432432432434,-0.7,-0.2777777777777778,0.033333333333333326,0.4,0.14
409,0.027710843373493943,0.050000000000000044,-0.3,-0.04999999999999999,-0.1,0.08
410,0.025000000000000022,-0.09999999999999998,0.16666666666666663,0.033333333333333326,-0.1,0.09
411,0.02063492063492056,0.008333333333333415,-0.09999999999999998,-0.04999999999999999,-0.1,0.12
412,0.048717948717948656,-0.033333333333333326,0.0714285714285714,-0.3,0.042857142857142844,0.09
413,-0.014285714285714346,0.06923076923076932,-0.09999999999999998,-0.04999999999999999,0.4,0.12
414,0.014634146341463428,-0.29999999999999993,-0.5,-0.13333333333333333,-0.1,0.12
415,-0.025000000000000022,0.014285714285714346,0.09999999999999998,-0.3,-0.1,0.12
416,-0.038461538461538436,-0.08461538461538454,-0.04545454545454547,-0.13333333333333333,-0.1,0.2
417,-0.02048192771084345,0.10000000000000009,-0.16666666666666669,-0.04999999999999999,0.1,0.1
418,0.0620253164556962,0.014285714285714346,-0.16666666666666669,-0.13333333333333333,-0.1,0.07
419,-0.05492957746478877,0.06923076923076932,-0.25,-0.13333333333333333,-0.1,0.18
420,0.0036144578313253017,0.13333333333333341,0.0,0.2,0.2333333333333333,0.05
421,0.009090909090909038,0.07777777777777783,0.0,-0.09999999999999998,-0.1,0.1
422,0.012499999999999956,-0.2714285714285714,0.09999999999999998,-0.04999999999999999,-0.1,0.1
423,-0.0012658227848101333,-0.033333333333333326,0.2142857142857143,0.033333333333333326,-0.1,0.07
424,0.02753623188405796,-0.29999999999999993,0.08823529411764708,-0.3,-0.1,0.14
425,0.06341463414634141,-0.19999999999999996,0.16666666666666663,-0.01428571428571429,-0.1,0.05
426,0.018604651162790642,-0.19999999999999996,-0.16666666666666669,-0.09999999999999998,-0.1,0.08
427,0.06052631578947365,-0.033333333333333326,0.0,0.2,-0.1,0.06
428,0.0012345679012345512,-0.19999999999999996,0.0714285714285714,-0.175,-0.1,0.11
429,0.025925925925925908,-0.09999999999999998,-0.25,-0.13333333333333333,-0.1,0.1
430,-0.07241379310344831,-0.12857142857142856,0.09999999999999998,-0.3,-0.1,0.29
431,0.042528735632183845,-0.033333333333333326,0.09999999999999998,-0.3,0.4,0.02
432,0.02682926829268295,0.15714285714285714,-0.09999999999999998,-0.3,-0.1,0.06
433,-0.03924050632911391,-0.19999999999999996,-0.16666666666666669,0.12857142857142856,0.1,0.14
434,-0.02048192771084345,0.050000000000000044,-0.16666666666666669,0.2,-0.1,0.11
435,-0.012500000000000067,0.10000000000000009,-0.16666666666666669,0.3,-0.1,0.07
436,-0.011111111111111183,-0.09999999999999998,0.0,0.2714285714285714,-0.1,0.1
437,0.023076923076923106,-0.19999999999999996,0.0,0.12857142857142856,0.042857142857142844,0.1
438,0.01025641025641022,-0.12857142857142856,0.09999999999999998,-0.3,0.1857142857142857,0.1
439,0.02207792207792203,0.050000000000000044,0.16666666666666663,-0.3,-0.1,0.1
440,0.030555555555555558,0.17500000000000004,0.33333333333333337,0.5571428571428572,-0.1,0.05
441,-0.011111111111111183,-0.7,-0.038461538461538436,0.14444444444444443,0.30000000000000004,0.14
442,0.007894736842105288,0.050000000000000044,0.2142857142857143,-0.04999999999999999,0.1,0.08
443,-0.4,0.007317073170731714,-0.16666666666666669,0.3,-0.1,0.25
444,-0.2333333333333334,0.10232558139534886,-0.16666666666666669,-0.04999999999999999,-0.1,0.17
445,0.025000000000000022,-0.19999999999999996,0.16666666666666663,-0.13333333333333333,-0.1,0.09
446,0.013580246913580174,0.050000000000000044,0.09999999999999998,0.10000000000000003,-0.1,0.08
447,0.009090909090909038,-0.07499999999999996,-0.16666666666666669,-0.13333333333333333,0.2333333333333333,0.11
448,0.023076923076923106,-0.07499999999999996,-0.09999999999999998,0.033333333333333326,0.06666666666666665,0.09
449,0.043820224719101075,-0.19999999999999996,0.16666666666666663,-0.3,-0.1,0.03
450,-0.04457831325301209,-0.09999999999999998,0.16666666666666663,-0.3,-0.1,0.12
451,-0.05789473684210533,-0.19999999999999996,0.0,-0.04999999999999999,-0.1,0.16
452,-0.030952380952380953,-0.09999999999999998,0.25,-0.04999999999999999,-0.1,0.1
453,0.03589743589743588,0.10000000000000009,0.16666666666666663,0.033333333333333326,0.2333333333333333,0.03
454,0.015662650602409567,0.050000000000000044,-0.5,-0.3,-0.1,0.11
455,-0.03953488372093028,-0.19999999999999996,-0.16666666666666669,-0.3,-0.1,0.13
456,-0.015384615384615441,0.014285714285714346,0.25,0.2,-0.1,0.09
457,0.03749999999999998,-0.09999999999999998,0.33333333333333337,-0.04999999999999999,0.1,0.05
458,-0.5666666666666667,-0.0714285714285714,0.16666666666666663,-0.09999999999999998,0.2333333333333333,0.29
459,-0.011111111111111183,-0.19999999999999996,0.09999999999999998,0.2,-0.1,0.09
460,-0.025000000000000022,-0.5571428571428572,0.0,0.36666666666666664,-0.1,0.13
461,0.03975903614457832,-0.19999999999999996,0.0,0.45,-0.1,0.06
462,0.01764705882352935,-0.033333333333333326,-0.33333333333333337,-0.3,0.4,0.06
463,0.055223880597014885,-0.14444444444444438,0.16666666666666663,0.10000000000000003,-0.1,0.1
464,-0.17272727272727273,0.06315789473684219,-0.16666666666666669,0.2,0.2333333333333333,0.19
465,-0.0052631578947368585,-0.07499999999999996,0.25,-0.01428571428571429,0.1,0.11
466,0.018604651162790642,-0.07499999999999996,0.0,0.033333333333333326,-0.1,0.04
467,-0.03888888888888886,-0.06206896551724128,-0.5,-0.3,-0.1,0.22
468,-0.002564102564102555,0.014285714285714346,-0.16666666666666669,0.2,-0.1,0.11
469,0.05945945945945941,0.1461538461538462,-0.5,-0.3,0.2333333333333333,0.06
470,0.03827160493827153,-0.49999999999999994,0.0,0.2714285714285714,0.1,0.07
471,-0.013924050632911467,0.15714285714285714,0.16666666666666663,0.07500000000000001,-0.1,0.09
472,-0.040000000000000036,0.007317073170731714,-0.5,-0.3,-0.1,0.18
473,-0.2333333333333334,-0.004878048780487809,0.0,-0.04999999999999999,0.06666666666666665,0.26
474,0.03749999999999998,-0.033333333333333326,0.16666666666666663,-0.3,-0.1,0.12
475,0.006666666666666599,-0.09999999999999998,-0.25,0.2,0.024999999999999994,0.13
476,-0.034146341463414664,0.10000000000000009,0.25,-0.09999999999999998,-0.1,0.11
477,0.011392405063291089,-0.09999999999999998,0.09999999999999998,-0.15714285714285714,-0.1,0.11
478,0.02941176470588236,0.050000000000000044,0.0,0.2,-0.1,0.05
479,0.013580246913580174,-0.19999999999999996,-0.5,0.14444444444444443,0.15,0.09
480,-0.002272727272727315,-0.19999999999999996,-0.3,-0.3,-0.1,0.09
481,-0.002564102564102555,-0.19999999999999996,-0.16666666666666669,-0.04999999999999999,-0.1,0.15
482,0.03023255813953485,-0.19999999999999996,0.0,-0.3,-0.1,0.06
483,0.06385542168674696,-0.19999999999999996,0.30000000000000004,-0.3,-0.1,0.05
484,-0.2333333333333334,0.07108433734939767,0.0,-0.04999999999999999,0.2333333333333333,0.18
485,-0.01904761904761909,0.050000000000000044,-0.5,-0.3,0.042857142857142844,0.12
486,0.0036144578313253017,0.050000000000000044,0.09999999999999998,0.033333333333333326,0.1,0.07
487,-0.011111111111111183,0.13333333333333341,0.2142857142857143,0.2,0.15,0.06
488,0.015662650602409567,0.10000000000000009,0.16666666666666663,-0.3,-0.1,0.08
489,-0.15000000000000002,0.11578947368421055,0.0,0.2,-0.1,0.15
490,-0.012500000000000067,-0.19999999999999996,0.2142857142857143,-0.3,0.042857142857142844,0.11
491,-0.18571428571428572,0.056097560975609806,0.09999999999999998,0.033333333333333326,-0.1,0.19
492,0.0,-0.19999999999999996,0.2142857142857143,0.45,0.30000000000000004,0.06
493,0.020000000000000018,0.13333333333333341,-0.09999999999999998,0.07500000000000001,0.2333333333333333,0.09
494,-0.009589041095890427,0.014285714285714346,0.16666666666666663,0.14444444444444443,-0.1,0.12
495,0.00540540540540535,0.0,0.16666666666666663,0.033333333333333326,0.15,0.1
496,0.012499999999999956,-0.2714285714285714,0.0,-0.04999999999999999,0.1,0.1
497,0.06385542168674696,0.13333333333333341,-0.09999999999999998,0.2,-0.1,0.01
498,-0.04864864864864871,-0.44999999999999996,0.125,0.07500000000000001,-0.1,0.18
499,-0.30000000000000004,-0.058974358974358876,-0.16666666666666669,0.2,-0.1,0.31
500,-0.023456790123456805,-0.033333333333333326,0.0,0.07500000000000001,-0.1,0.11
501,0.032432432432432434,-0.12857142857142856,0.0,-0.01428571428571429,-0.1,0.11
502,0.01764705882352935,0.050000000000000044,-0.5,-0.13333333333333333,-0.1,0.08
503,-0.029870129870129936,0.050000000000000044,0.30000000000000004,0.033333333333333326,-0.1,0.11
504,0.015492957746478853,0.014285714285714346,0.16666666666666663,0.2,0.06666666666666665,0.09
505,-0.3285714285714286,-0.06956521739130428,0.13414634146341464,0.033333333333333326,-0.1,0.3
506,0.04999999999999993,0.20000000000000007,0.09999999999999998,0.033333333333333326,-0.1,0.01
507,0.006666666666666599,-0.0636363636363636,-0.25,0.12857142857142856,-0.1,0.11
508,0.020000000000000018,0.20000000000000007,0.33333333333333337,0.033333333333333326,-0.1,0.06
509,0.03975903614457832,-0.033333333333333326,-0.09999999999999998,-0.3,-0.1,0.06
510,0.02682926829268295,0.10000000000000009,0.3571428571428571,-0.3,-0.1,0.04
511,0.011392405063291089,-0.033333333333333326,-0.25,-0.3,0.06666666666666665,0.12
512,0.02207792207792203,-0.19999999999999996,-0.16666666666666669,0.2714285714285714,0.15,0.09
513,0.020000000000000018,0.13333333333333341,-0.09999999999999998,-0.3,-0.1,0.09
514,-0.30000000000000004,-0.00952380952380949,0.16666666666666663,0.10000000000000003,-0.1,0.25
515,0.07530864197530862,0.050000000000000044,0.16666666666666663,-0.175,0.15,0.04
516,-0.02658227848101269,-0.033333333333333326,-0.5,-0.3,-0.1,0.15
517,-0.008433734939759074,-0.7,0.0,-0.01428571428571429,-0.1,0.11
518,0.04936708860759487,0.13333333333333341,-0.33333333333333337,-0.3,0.1857142857142857,0.07
519,-0.02048192771084345,0.13333333333333341,-0.5,0.10000000000000003,-0.1,0.1
520,-0.014942528735632177,-0.19999999999999996,0.0,-0.3,-0.1,0.09
521,0.006976744186046435,-0.033333333333333326,0.25,-0.04999999999999999,-0.1,0.06
522,0.002777777777777768,0.06923076923076932,-0.33333333333333337,0.033333333333333326,-0.1,0.13
523,-0.04634146341463419,0.014285714285714346,-0.5,-0.04999999999999999,0.2333333333333333,0.13
524,0.031818181818181746,0.050000000000000044,-0.16666666666666669,-0.3,-0.1,0.04
525,-0.007692307692307665,-0.19999999999999996,-0.07142857142857145,0.033333333333333326,0.1,0.17
526,0.009090909090909038,-0.19999999999999996,0.16666666666666663,0.10000000000000003,-0.1,0.12
527,-0.01764705882352946,0.16666666666666674,-0.25,-0.04999999999999999,-0.1,0.15
528,0.00540540540540535,0.15714285714285714,0.0,0.033333333333333326,0.15,0.07
529,0.01764705882352935,-0.09999999999999998,0.0,-0.04999999999999999,-0.1,0.07
530,-0.016883116883116944,0.050000000000000044,0.0,-0.09999999999999998,-0.1,0.12
531,0.03023255813953485,-0.033333333333333326,-0.5,-0.13333333333333333,-0.1,0.07
532,0.03827160493827153,0.13333333333333341,0.25,-0.13333333333333333,0.2333333333333333,0.04
533,0.04339622641509433,0.08378378378378382,0.0,-0.3,-0.1,0.09
534,0.047368421052631504,-0.05714285714285705,0.18181818181818177,0.36666666666666664,-0.1,0.1
535,0.008045977011494232,0.10000000000000009,0.0,0.033333333333333326,-0.1,0.05
536,-0.1105263157894737,-0.44999999999999996,0.07377049180327866,0.0076923076923077205,-0.1,0.35
537,-0.015384615384615441,-0.033333333333333326,-0.125,-0.09999999999999998,-0.1,0.13
538,0.03421052631578947,0.18888888888888888,0.09999999999999998,-0.09999999999999998,-0.1,0.07
539,0.0024390243902439046,-0.7,0.09999999999999998,0.2,0.024999999999999994,0.11
540,-0.0071428571428571175,0.050000000000000044,0.0714285714285714,-0.04999999999999999,-0.1,0.07
541,-0.013924050632911467,-0.033333333333333326,0.33333333333333337,0.4142857142857143,-0.1,0.06
542,-0.06666666666666665,-0.033333333333333326,0.2272727272727273,0.2,-0.1,0.13
543,-0.0014492753623188692,-0.29999999999999993,0.16666666666666663,-0.01428571428571429,0.4,0.12
544,0.015662650602409567,0.13333333333333341,0.25,-0.09999999999999998,-0.1,0.05
545,0.01025641025641022,-0.033333333333333326,0.125,0.033333333333333326,-0.1,0.09
546,-0.020000000000000018,0.050000000000000044,0.0714285714285714,-0.01428571428571429,-0.1,0.12
547,-0.05384615384615388,0.10000000000000009,-0.16666666666666669,0.2,0.1857142857142857,0.12
548,0.023076923076923106,-0.19999999999999996,0.25,0.10000000000000003,0.1,0.08
549,-0.00588235294117645,-0.19999999999999996,0.0,-0.04999999999999999,-0.1,0.1
550,0.00540540540540535,-0.12857142857142856,0.16666666666666663,0.10000000000000003,0.275,0.1
551,-0.023287671232876783,-0.7,-0.038461538461538436,-0.04999999999999999,-0.1,0.18
552,-0.0304347826086957,-0.19999999999999996,0.11904761904761907,-0.13333333333333333,-0.1,0.15
553,-0.4,0.012500000000000067,0.0,0.033333333333333326,0.06666666666666665,0.26
554,-0.008433734939759074,-0.29999999999999993,0.2142857142857143,0.033333333333333326,-0.1,0.08
555,0.0036144578313253017,-0.36666666666666664,0.0,0.033333333333333326,-0.1,0.09
556,0.02682926829268295,-0.36666666666666664,-0.125,-0.3,0.1,0.09
557,0.012499999999999956,-0.033333333333333326,0.0,0.033333333333333326,-0.1,0.1
558,0.06052631578947365,0.13333333333333341,-0.25,-0.13333333333333333,-0.1,0.1
559,0.01025641025641022,-0.09999999999999998,0.16666666666666663,0.325,-0.1,0.07
560,0.06428571428571428,0.10000000000000009,0.0,-0.3,0.4,0.02
561,-0.009756097560975618,-0.29999999999999993,0.0714285714285714,-0.3,-0.1,0.11
562,-0.032530120481927716,-0.29999999999999993,-0.09999999999999998,0.033333333333333326,0.15,0.12
563,0.004761904761904745,0.050000000000000044,-0.5,0.2,0.15,0.08
564,0.0012345679012345512,-0.033333333333333326,-0.3,-0.3,-0.1,0.12
565,-0.0012658227848101333,0.050000000000000044,-0.5,-0.3,0.15,0.09
566,0.06052631578947365,-0.19999999999999996,0.0714285714285714,0.5,-0.1,0.05
567,-0.025000000000000022,-0.033333333333333326,-0.25,-0.3,0.06666666666666665,0.14
568,-0.05662650602409636,0.014285714285714346,-0.5,-0.3,-0.1,0.15
569,0.01764705882352935,0.050000000000000044,0.0,0.3,-0.1,0.04
570,0.042528735632183845,-0.19999999999999996,0.16666666666666663,-0.3,-0.1,0.05
571,-0.06129032258064515,0.0368421052631579,0.125,-0.3,-0.1,0.19
572,0.015662650602409567,0.10000000000000009,-0.16666666666666669,-0.09999999999999998,0.15,0.07
573,0.02941176470588236,-0.19999999999999996,0.09999999999999998,-0.3,0.1,0.06
574,-0.011111111111111183,-0.033333333333333326,-0.07142857142857145,0.2,-0.1,0.11
575,-0.012500000000000067,0.07777777777777783,0.16666666666666663,-0.09999999999999998,-0.1,0.09
576,0.00540540540540535,0.014285714285714346,0.1428571428571429,0.36666666666666664,0.4,0.06
577,0.019540229885057436,-0.033333333333333326,0.0,0.033333333333333326,0.1,0.05
578,0.02941176470588236,-0.19999999999999996,0.0,-0.3,-0.1,0.08
579,0.016666666666666607,0.10000000000000009,0.30000000000000004,-0.3,-0.1,0.05
580,0.0,0.014285714285714346,0.25,-0.3,0.15,0.09
581,-0.04285714285714293,0.03972602739726028,0.0714285714285714,-0.04999999999999999,-0.1,0.21
582,0.03150684931506842,-0.0636363636363636,0.09999999999999998,0.2,0.15,0.07
583,0.010714285714285676,0.11481481481481481,-0.25,0.033333333333333326,-0.1,0.14
584,-0.003896103896103953,-0.36666666666666664,0.16666666666666663,0.45,-0.1,0.12
585,-0.013924050632911467,-0.09999999999999998,0.25,-0.3,-0.1,0.14
586,0.0012345679012345512,-0.12857142857142856,-0.5,-0.09999999999999998,-0.1,0.12
587,0.00540540540540535,0.014285714285714346,-0.3,0.14444444444444443,-0.1,0.13
588,0.016666666666666607,-0.012499999999999956,0.09999999999999998,0.325,-0.1,0.19
589,-0.028205128205128216,-0.29999999999999993,0.25,-0.175,-0.1,0.16
590,0.07530864197530862,0.15714285714285714,-0.2142857142857143,0.2,0.2333333333333333,0.01
591,0.03023255813953485,-0.033333333333333326,-0.16666666666666669,0.033333333333333326,-0.1,0.06
592,-0.3285714285714286,0.026027397260274032,-0.05555555555555558,-0.01428571428571429,0.15,0.26
593,-0.05384615384615388,-0.19999999999999996,0.0,0.10000000000000003,-0.1,0.18
594,0.032432432432432434,-0.19999999999999996,-0.5,-0.01428571428571429,0.042857142857142844,0.14
595,-0.009756097560975618,0.10000000000000009,0.09999999999999998,-0.3,-0.1,0.1
596,-0.028205128205128216,-0.033333333333333326,0.0,0.033333333333333326,-0.1,0.14
597,-0.07283950617283952,-0.44999999999999996,0.09999999999999998,0.2,0.2333333333333333,0.14
598,-0.0304347826086957,-0.12857142857142856,-0.07142857142857145,0.3,-0.1,0.16
599,0.020000000000000018,-0.033333333333333326,-0.33333333333333337,0.2,-0.1,0.13
600,-0.2333333333333334,0.020930232558139528,0.16666666666666663,0.033333333333333326,0.1,0.22
601,-0.023456790123456805,-0.49999999999999994,0.16666666666666663,-0.01428571428571429,-0.1,0.14
602,0.0,-0.19999999999999996,0.0,0.10000000000000003,-0.1,0.1
603,0.0012345679012345512,-0.09999999999999998,-0.33333333333333337,0.10000000000000003,-0.1,0.11
604,0.0024390243902439046,-0.033333333333333326,-0.25,0.2,-0.1,0.09
605,-0.01764705882352946,-0.09999999999999998,0.16666666666666663,-0.04999999999999999,0.2333333333333333,0.08
606,-0.031147540983606614,0.014285714285714346,-0.5,-0.3,0.1857142857142857,0.15
607,0.018604651162790642,-0.19999999999999996,0.25,0.36666666666666664,-0.1,0.04
608,-0.025000000000000022,-0.09999999999999998,0.16666666666666663,-0.09999999999999998,-0.1,0.12
609,0.03150684931506842,0.050000000000000044,0.30000000000000004,0.10000000000000003,-0.1,0.05
610,-0.4,0.05362318840579716,0.05555555555555558,-0.3,0.15,0.24
611,0.02207792207792203,0.13333333333333341,0.2777777777777778,0.10000000000000003,-0.1,0.05
612,0.020000000000000018,-0.09999999999999998,-0.16666666666666669,-0.01428571428571429,0.1,0.11
613,-0.025000000000000022,-0.19999999999999996,0.0714285714285714,-0.04999999999999999,-0.1,0.13
614,0.047368421052631504,0.21666666666666667,0.33333333333333337,0.033333333333333326,-0.1,0.01
615,0.06052631578947365,-0.033333333333333326,-0.16666666666666669,-0.13333333333333333,0.0111111111111111,0.11
616,-0.011111111111111183,0.10000000000000009,-0.125,-0.04999999999999999,-0.1,0.1
617,0.027710843373493943,-0.12857142857142856,0.25,-0.04999999999999999,-0.1,0.05
618,-0.04444444444444451,0.050000000000000044,0.16666666666666663,0.2,-0.1,0.07
619,0.029824561403508754,0.07777777777777783,0.0,0.2,-0.1,0.11
620,0.0036144578313253017,-0.033333333333333326,0.09999999999999998,0.033333333333333326,-0.1,0.07
621,-0.0046511627906976605,-0.19999999999999996,0.16666666666666663,0.2,-0.1,0.06
622,-0.04117647058823537,-0.033333333333333326,-0.09999999999999998,0.033333333333333326,-0.1,0.12
623,-0.009589041095890427,-0.29999999999999993,0.0,-0.3,0.1,0.16
624,0.006976744186046435,0.050000000000000044,-0.25,-0.04999999999999999,0.4,0.06
625,0.04117647058823526,-0.033333333333333326,0.16666666666666663,-0.3,0.06666666666666665,0.05
626,-0.050684931506849384,0.027272727272727337,-0.07142857142857145,-0.09999999999999998,-0.1,0.16
627,-0.014942528735632177,-0.44999999999999996,0.0,0.2,-0.1,0.1
628,0.0036144578313253017,-0.19999999999999996,0.16666666666666663,0.2,-0.1,0.08
629,-0.0071428571428571175,-0.29999999999999993,0.0,0.2,-0.1,0.09
630,-0.02195121951219514,-0.29999999999999993,-0.5,0.033333333333333326,-0.1,0.15
631,0.0024390243902439046,0.050000000000000044,0.30000000000000004,0.2,-0.1,0.08
632,-0.011111111111111183,0.13333333333333341,-0.09999999999999998,-0.09999999999999998,0.2333333333333333,0.09
633,-0.5,0.0,0.16666666666666663,0.2,-0.1,0.27
634,-0.08965517241379317,0.0,0.2142857142857143,-0.13333333333333333,-0.1,0.2
635,0.0024390243902439046,-0.36666666666666664,0.30000000000000004,0.2,0.06666666666666665,0.08
636,-0.02658227848101269,-0.49999999999999994,-0.16666666666666669,0.2,0.2333333333333333,0.14
637,0.013580246913580174,0.15714285714285714,0.0,0.2,0.15,0.05
638,-0.04084507042253527,-0.033333333333333326,0.2142857142857143,0.2714285714285714,-0.1,0.12
639,0.03589743589743588,0.07777777777777783,0.0,0.36666666666666664,-0.1,0.06
640,-0.025000000000000022,-0.004347826086956497,0.0,0.2714285714285714,0.06666666666666665,0.16
641,0.014634146341463428,0.10000000000000009,0.25,-0.13333333333333333,-0.1,0.07
642,0.03023255813953485,-0.033333333333333326,0.0,-0.3,-0.1,0.07
643,-0.009756097560975618,0.10000000000000009,0.09999999999999998,-0.09999999999999998,-0.1,0.09
644,0.019540229885057436,-0.033333333333333326,-0.5,-0.04999999999999999,-0.1,0.07
645,0.05505617977528088,-0.19999999999999996,0.09999999999999998,-0.3,-0.1,0.01
646,-0.014285714285714346,0.16666666666666674,0.0714285714285714,0.2,-0.1,0.09
647,-0.03580246913580254,-0.36666666666666664,0.2142857142857143,-0.3,0.2333333333333333,0.12
648,0.0607843137254902,-0.033333333333333326,0.16666666666666663,0.033333333333333326,-0.1,0.13
649,0.050617283950617264,-0.033333333333333326,0.16666666666666663,0.2714285714285714,0.2333333333333333,0.02
650,-0.04285714285714293,0.016417910447761197,0.0,-0.3,-0.1,0.22
651,0.0012345679012345512,-0.033333333333333326,-0.2142857142857143,0.45,-0.1,0.1
652,0.0012345679012345512,-0.19999999999999996,0.09999999999999998,0.2,0.2333333333333333,0.08
653,-0.02048192771084345,0.10000000000000009,0.16666666666666663,0.2,-0.1,0.09
654,-0.014942528735632177,-0.033333333333333326,-0.5,0.2,-0.1,0.1
655,-0.05853658536585371,-0.29999999999999993,0.0,0.10000000000000003,0.15,0.14
656,-0.012500000000000067,-0.09999999999999998,0.25,0.033333333333333326,-0.1,0.1
657,-0.03157894736842104,0.005882352941176561,0.25,0.2,-0.1,0.08
658,-0.032530120481927716,-0.09999999999999998,0.0,0.2,-0.1,0.1
659,-0.016279069767441867,-0.033333333333333326,0.0,-0.04999999999999999,-0.1,0.1
660,0.0625,-0.36666666666666664,0.33333333333333337,0.033333333333333326,-0.1,0.05
661,0.051807228915662584,-0.19999999999999996,-0.25,-0.04999999999999999,0.1,0.06
662,0.016666666666666607,0.0,0.25,0.2,0.06666666666666665,0.08
663,0.014634146341463428,-0.19999999999999996,-0.09999999999999998,0.033333333333333326,0.06666666666666665,0.09
664,-0.06000000000000005,0.13333333333333341,0.16666666666666663,-0.175,-0.1,0.14
665,0.03975903614457832,0.050000000000000044,0.0,0.2,0.1,0.04
666,-0.04634146341463419,-0.19999999999999996,-0.2142857142857143,0.033333333333333326,-0.1,0.15
667,0.009090909090909038,-0.19999999999999996,-0.5,-0.09999999999999998,-0.1,0.08
668,0.025925925925925908,-0.19999999999999996,0.25,-0.3,0.275,0.07
669,0.0024390243902439046,-0.19999999999999996,0.09999999999999998,-0.3,-0.1,0.11
670,-0.2333333333333334,0.09012345679012346,-0.16666666666666669,-0.3,0.042857142857142844,0.2
671,-0.003896103896103953,-0.09999999999999998,0.25,-0.09999999999999998,0.1,0.1
672,0.017808219178082174,-0.09999999999999998,0.2142857142857143,-0.175,0.042857142857142844,0.13
673,-0.05584415584415592,-0.19999999999999996,-0.25,-0.13333333333333333,0.042857142857142844,0.19
674,0.00588235294117645,-0.36666666666666664,-0.09999999999999998,-0.3,-0.1,0.1
675,0.0036144578313253017,-0.44999999999999996,-0.09999999999999998,0.033333333333333326,0.30000000000000004,0.09
676,-0.2333333333333334,0.07631578947368423,0.09999999999999998,0.033333333333333326,-0.1,0.2
677,-0.029870129870129936,0.07777777777777783,0.30000000000000004,-0.3,-0.1,0.12
678,0.02941176470588236,0.050000000000000044,0.09999999999999998,0.2,-0.1,0.04
679,-0.016883116883116944,-0.36666666666666664,0.16666666666666663,0.15454545454545454,-0.1,0.12
680,-0.06666666666666665,0.014285714285714346,-0.25,0.3,0.06666666666666665,0.15
681,0.0,0.050000000000000044,0.0,0.3,0.042857142857142844,0.09
682,-0.4,-0.013953488372092981,0.0,-0.04999999999999999,-0.1,0.26
683,0.03023255813953485,0.050000000000000044,0.16666666666666663,-0.09999999999999998,-0.1,0.04
684,-0.003896103896103953,0.050000000000000044,-0.16666666666666669,0.36666666666666664,-0.1,0.14
685,0.015662650602409567,-0.033333333333333326,0.0,-0.3,0.1,0.09
686,-0.02195121951219514,0.050000000000000044,0.0,-0.09999999999999998,-0.1,0.11
687,-0.03749999999999998,-0.07499999999999996,-0.5,-0.04999999999999999,0.2333333333333333,0.14
688,-0.046666666666666634,0.10000000000000009,-0.09999999999999998,-0.15714285714285714,-0.1,0.15
689,-0.0071428571428571175,-0.19999999999999996,-0.5,0.07500000000000001,-0.1,0.1
690,-0.002564102564102555,0.11818181818181828,0.0,0.3,-0.1,0.07
691,0.048717948717948656,0.18888888888888888,0.25,-0.3,-0.1,0.05
692,-0.02195121951219514,-0.033333333333333326,0.09999999999999998,0.033333333333333326,-0.1,0.11
693,0.00588235294117645,0.10000000000000009,-0.16666666666666669,-0.3,0.06666666666666665,0.07
694,0.023076923076923106,0.050000000000000044,-0.5,0.2,-0.1,0.1
695,-0.033333333333333326,-0.19999999999999996,0.16666666666666663,-0.3,0.15,0.13
696,-0.016279069767441867,-0.033333333333333326,0.0,-0.04999999999999999,-0.1,0.09
697,0.023076923076923106,0.15714285714285714,-0.25,-0.13333333333333333,0.1,0.09
698,0.014634146341463428,-0.033333333333333326,0.0714285714285714,-0.04999999999999999,-0.1,0.08
699,-0.02359550561797752,-0.44999999999999996,-0.09999999999999998,-0.3,-0.1,0.09
700,0.03827160493827153,-0.19999999999999996,-0.33333333333333337,0.36666666666666664,-0.1,0.08
701,0.041860465116279055,0.050000000000000044,-0.5,-0.01428571428571429,-0.1,0.04
702,-0.020000000000000018,-0.19999999999999996,0.0,-0.15714285714285714,-0.1,0.17
703,0.02857142857142858,0.10000000000000009,0.0,0.033333333333333326,-0.1,0.05
704,-0.02048192771084345,-0.36666666666666664,-0.25,0.12857142857142856,-0.1,0.12
705,0.04936708860759487,0.15714285714285714,-0.16666666666666669,-0.3,0.3285714285714285,0.05
706,0.052380952380952306,-0.36666666666666664,-0.16666666666666669,-0.13333333333333333,-0.1,0.07
707,0.06385542168674696,0.050000000000000044,0.09999999999999998,-0.09999999999999998,-0.1,0.03
708,0.01025641025641022,-0.19999999999999996,-0.25,-0.04999999999999999,-0.016666666666666677,0.15
709,0.019540229885057436,-0.36666666666666664,-0.16666666666666669,0.033333333333333326,-0.1,0.07
710,0.025925925925925908,-0.033333333333333326,0.0,-0.09999999999999998,-0.1,0.1
711,0.01025641025641022,-0.033333333333333326,0.16666666666666663,0.033333333333333326,0.042857142857142844,0.09
712,-0.018421052631579005,0.08571428571428574,-0.16666666666666669,-0.04999999999999999,0.2333333333333333,0.09
713,-0.028205128205128216,0.10000000000000009,0.2142857142857143,0.10000000000000003,0.1,0.1
714,0.023076923076923106,0.17500000000000004,0.25,0.033333333333333326,-0.1,0.06
715,0.013580246913580174,0.15714285714285714,0.30000000000000004,-0.04999999999999999,-0.1,0.05
716,0.050617283950617264,0.050000000000000044,0.0,-0.13333333333333333,0.1857142857142857,0.06
717,0.0014084507042253502,-0.05294117647058816,0.0,0.2,-0.1,0.11
718,0.02857142857142858,0.050000000000000044,0.16666666666666663,0.2,-0.1,0.04
719,0.00540540540540535,0.050000000000000044,0.2777777777777778,-0.13333333333333333,-0.1,0.09
720,0.03749999999999998,-0.12857142857142856,-0.25,-0.3,0.15,0.09
721,-0.050000000000000044,-0.19999999999999996,0.16666666666666663,-0.04999999999999999,0.1,0.14
722,0.051219512195121886,0.13333333333333341,-0.09999999999999998,-0.3,-0.1,0.05
723,0.0,0.07551020408163267,0.16666666666666663,-0.3,-0.1,0.14
724,0.013580246913580174,0.10000000000000009,0.33333333333333337,0.36666666666666664,-0.1,0.05
725,0.03023255813953485,-0.19999999999999996,-0.25,0.10000000000000003,-0.1,0.06
726,0.016666666666666607,0.040740740740740744,0.0,0.033333333333333326,-0.1,0.14
727,-0.00588235294117645,-0.19999999999999996,0.16666666666666663,-0.3,0.06666666666666665,0.09
728,-0.0071428571428571175,-0.033333333333333326,-0.16666666666666669,-0.15714285714285714,-0.1,0.11
729,-0.03953488372093028,-0.19999999999999996,-0.16666666666666669,-0.04999999999999999,-0.1,0.13
730,-0.016883116883116944,-0.09999999999999998,-0.5,0.3,0.15,0.12
731,0.050617283950617264,0.15714285714285714,0.09999999999999998,0.10000000000000003,-0.1,0.02
732,-0.012500000000000067,-0.19999999999999996,0.0714285714285714,-0.3,-0.1,0.13
733,0.05348837209302326,-0.19999999999999996,-0.3,-0.3,-0.1,0.06
734,0.0036144578313253017,0.10000000000000009,-0.16666666666666669,0.3,-0.1,0.06
735,0.0012345679012345512,-0.033333333333333326,0.16666666666666663,-0.3,-0.1,0.09
736,-0.009756097560975618,0.050000000000000044,0.0,-0.04999999999999999,0.15,0.08
737,0.024050632911392422,-0.09999999999999998,0.16666666666666663,0.5571428571428572,-0.1,0.04
738,0.03506493506493502,0.17500000000000004,0.09999999999999998,-0.3,0.06666666666666665,0.07
739,0.051807228915662584,-0.36666666666666664,-0.5,-0.04999999999999999,0.15,0.07
740,0.0012345679012345512,0.050000000000000044,0.30000000000000004,-0.09999999999999998,0.30000000000000004,0.07
741,0.004761904761904745,-0.033333333333333326,-0.09999999999999998,-0.04999999999999999,-0.1,0.09
742,0.0036144578313253017,-0.44999999999999996,-0.07142857142857145,0.033333333333333326,0.2333333333333333,0.09
743,-0.016279069767441867,-0.19999999999999996,-0.33333333333333337,-0.3,-0.1,0.11
744,-0.02195121951219514,0.10000000000000009,0.09999999999999998,0.033333333333333326,-0.1,0.1
745,-0.9,-0.1499999999999999,0.12121212121212122,-0.3,-0.1,0.38
746,-0.65,-0.7,0.028735632183908066,0.033333333333333326,-0.1,0.42
747,-0.00666666666666671,-0.41428571428571426,0.2272727272727273,0.2,-0.1,0.12
748,-0.03698630136986303,-0.29999999999999993,-0.13636363636363635,-0.3,0.1,0.2
749,0.03150684931506842,0.10000000000000009,0.0,0.033333333333333326,-0.1,0.09
750,-0.4,0.04117647058823537,0.16666666666666663,-0.04999999999999999,-0.1,0.23
751,0.009090909090909038,0.0,-0.09999999999999998,0.2,-0.1,0.09
752,0.01025641025641022,-0.19999999999999996,0.25,-0.13333333333333333,-0.1,0.11
753,-0.025000000000000022,0.050000000000000044,0.0,-0.04999999999999999,-0.1,0.15
754,0.024050632911392422,0.050000000000000044,-0.3,0.033333333333333326,-0.1,0.09
755,-0.4,0.03493975903614466,-0.16666666666666669,0.2,0.1,0.23
756,0.025000000000000022,-0.033333333333333326,-0.16666666666666669,-0.09999999999999998,0.06666666666666665,0.1
757,0.036708860759493644,0.10000000000000009,-0.09999999999999998,-0.13333333333333333,0.1,0.08
758,0.0012345679012345512,0.014285714285714346,-0.3,0.2,-0.1,0.1
759,0.04805194805194801,0.050000000000000044,0.0,-0.04999999999999999,0.042857142857142844,0.09
760,-0.04457831325301209,-0.09999999999999998,0.09999999999999998,0.033333333333333326,0.15,0.11
761,0.007894736842105288,0.10000000000000009,0.0,0.2,-0.1,0.08
762,-0.2333333333333334,0.03809523809523818,-0.25,-0.04999999999999999,-0.1,0.22
763,0.024050632911392422,-0.033333333333333326,0.16666666666666663,-0.3,0.042857142857142844,0.1
764,0.05890410958904102,-0.033333333333333326,0.16666666666666663,-0.3,-0.1,0.08
765,-0.03749999999999998,-0.12857142857142856,-0.5,-0.01428571428571429,0.15,0.14
766,0.04936708860759487,-0.25555555555555554,-0.09999999999999998,-0.04999999999999999,-0.1,0.08
767,0.0444444444444444,-0.07499999999999996,0.09999999999999998,0.2,-0.009090909090909094,0.11
768,0.01025641025641022,0.050000000000000044,-0.33333333333333337,0.2,0.06666666666666665,0.1
769,0.07468354430379742,0.15714285714285714,0.16666666666666663,0.033333333333333326,0.1,0.02
770,-0.05517241379310345,0.014285714285714346,0.0,0.033333333333333326,-0.1,0.16
771,0.027710843373493943,-0.09999999999999998,0.0,-0.04999999999999999,0.15,0.06
772,0.031818181818181746,-0.033333333333333326,0.0714285714285714,0.033333333333333326,0.15,0.15
773,0.03827160493827153,-0.033333333333333326,-0.3,-0.09999999999999998,-0.1,0.08
774,-0.03749999999999998,0.050000000000000044,0.0,0.10000000000000003,0.1,0.12
775,-0.0046511627906976605,0.050000000000000044,0.0,-0.04999999999999999,-0.1,0.07
776,0.03220338983050841,0.18461538461538463,0.125,-0.3,-0.1,0.07
777,-0.050000000000000044,0.050000000000000044,0.125,0.033333333333333326,0.30000000000000004,0.11
778,-0.02941176470588236,0.050000000000000044,0.25,0.45,0.2333333333333333,0.06
779,0.04047619047619044,-0.19999999999999996,-0.16666666666666669,0.2,-0.1,0.06
780,-0.032530120481927716,-0.033333333333333326,0.0,-0.13333333333333333,-0.1,0.14
781,-0.012500000000000067,-0.09999999999999998,0.25,0.2,-0.1,0.09
782,-0.2333333333333334,0.04698795180722892,0.0,-0.3,-0.1,0.23
783,0.009090909090909038,0.17500000000000004,0.0,-0.13333333333333333,0.2333333333333333,0.08
784,0.04047619047619044,-0.033333333333333326,-0.25,-0.04999999999999999,-0.1,0.06
785,0.016666666666666607,0.11818181818181828,0.09999999999999998,0.2,0.024999999999999994,0.09
786,0.0024390243902439046,0.050000000000000044,-0.3,0.033333333333333326,0.06666666666666665,0.1
787,0.02857142857142858,-0.36666666666666664,0.0,0.033333333333333326,-0.1,0.07
788,-0.4714285714285715,-0.013253012048192736,-0.16666666666666669,0.2,0.1,0.27
789,-0.05384615384615388,0.050000000000000044,-0.5,0.12857142857142856,-0.1,0.18
790,-0.07910447761194028,0.033333333333333326,0.19999999999999996,-0.04999999999999999,-0.1,0.16
791,-0.016279069767441867,-0.7,-0.5,-0.04999999999999999,0.2333333333333333,0.11
792,0.031818181818181746,-0.033333333333333326,-0.5,0.36666666666666664,0.2333333333333333,0.03
793,-0.009756097560975618,-0.36666666666666664,-0.5,0.033333333333333326,0.30000000000000004,0.12
794,0.006976744186046435,-0.7,0.16666666666666663,-0.3,-0.1,0.08
795,0.047368421052631504,0.14375000000000004,-0.16666666666666669,0.2,0.15,0.05
796,0.06153846153846154,0.2090909090909091,0.30000000000000004,0.033333333333333326,-0.1,-0.0
797,-0.06666666666666665,-0.033333333333333326,0.16666666666666663,0.10000000000000003,-0.1,0.15
798,-0.028205128205128216,0.050000000000000044,-0.09999999999999998,0.3,-0.1,0.14
799,0.015662650602409567,-0.49999999999999994,-0.5,-0.3,-0.1,0.13
800,0.00588235294117645,-0.033333333333333326,-0.5,-0.3,-0.1,0.09
801,0.03589743589743588,0.10000000000000009,0.0,-0.3,0.2333333333333333,0.08
802,0.01764705882352935,0.050000000000000044,0.09999999999999998,-0.3,0.2333333333333333,0.05
803,0.00588235294117645,0.050000000000000044,-0.16666666666666669,-0.3,-0.1,0.09
804,0.047368421052631504,0.18888888888888888,0.0,0.2,-0.1,0.05
805,0.05833333333333335,0.15714285714285714,-0.3,-0.04999999999999999,0.1,0.06
806,-0.06666666666666665,0.050000000000000044,0.30000000000000004,0.12857142857142856,-0.1,0.12
807,0.01025641025641022,-0.033333333333333326,-0.3,0.033333333333333326,0.30000000000000004,0.1
808,-0.2333333333333334,0.11012658227848104,0.16666666666666663,0.2,-0.1,0.15
809,-0.02941176470588236,-0.7,0.30000000000000004,-0.04999999999999999,0.15,0.1
810,-0.009756097560975618,-0.49999999999999994,0.16666666666666663,-0.3,-0.1,0.14
811,-0.030952380952380953,0.10000000000000009,0.16666666666666663,-0.3,-0.1,0.09
812,0.06296296296296289,0.17500000000000004,-0.25,0.3,-0.1,0.01
813,0.015662650602409567,-0.36666666666666664,0.16666666666666663,0.12857142857142856,-0.1,0.08
814,0.008045977011494232,0.10000000000000009,0.0,-0.3,-0.1,0.06
815,-0.008108108108108136,0.050000000000000044,0.2142857142857143,-0.09999999999999998,-0.1,0.12
816,-0.0071428571428571175,-0.19999999999999996,0.0,-0.3,0.06666666666666665,0.1
817,0.039393939393939426,0.10769230769230775,0.0,-0.3,0.1,0.14
818,0.012499999999999956,-0.12857142857142856,0.3571428571428571,0.36666666666666664,-0.1,0.05
819,-0.028205128205128216,-0.29999999999999993,0.0,0.033333333333333326,0.1,0.14
820,-0.008433734939759074,-0.29999999999999993,0.0714285714285714,-0.3,-0.1,0.1
821,0.03975903614457832,-0.033333333333333326,0.0,-0.09999999999999998,0.1,0.06
822,-0.014942528735632177,0.050000000000000044,-0.5,0.033333333333333326,0.4,0.07
823,0.020454545454545392,0.050000000000000044,-0.5,-0.3,0.15,0.05
824,0.03506493506493502,0.014285714285714346,0.09999999999999998,0.2,-0.1,0.06
825,0.042528735632183845,-0.44999999999999996,0.0,0.2,-0.1,0.04
826,-0.050000000000000044,-0.09999999999999998,-0.3,-0.04999999999999999,0.2333333333333333,0.15
827,-0.011111111111111183,-0.033333333333333326,0.25,0.3,-0.1,0.08
828,0.0012345679012345512,-0.09999999999999998,-0.09999999999999998,-0.13333333333333333,-0.1,0.11
829,0.014285714285714235,-0.033333333333333326,-0.16666666666666669,0.033333333333333326,0.2333333333333333,0.11
830,-0.023287671232876783,0.06923076923076932,0.25,0.033333333333333326,0.2333333333333333,0.08
831,0.03827160493827153,-0.09999999999999998,0.0,0.10000000000000003,0.1,0.06
832,-0.4,0.06470588235294117,-0.16666666666666669,0.033333333333333326,-0.1,0.21
833,0.016666666666666607,-0.033333333333333326,0.0,0.36666666666666664,-0.1,0.05
834,0.0620253164556962,0.050000000000000044,0.2777777777777778,0.033333333333333326,0.1,0.02
835,-0.029870129870129936,-0.19999999999999996,0.0,-0.13333333333333333,-0.1,0.16
836,-0.5666666666666667,0.007317073170731714,0.16666666666666663,0.36666666666666664,0.2333333333333333,0.22
837,0.03975903614457832,-0.19999999999999996,0.0,-0.3,0.30000000000000004,0.05
838,0.04047619047619044,0.050000000000000044,-0.5,-0.3,-0.1,0.08
839,0.014285714285714235,0.11818181818181828,-0.16666666666666669,0.2,-0.1,0.11
840,0.01025641025641022,-0.19999999999999996,0.045454545454545414,0.2,0.2333333333333333,0.08
841,-0.028205128205128216,-0.2714285714285714,0.16666666666666663,-0.07777777777777778,-0.1,0.15
842,-0.050684931506849384,-0.44999999999999996,0.30000000000000004,0.36666666666666664,0.15,0.16
843,0.03827160493827153,0.014285714285714346,-0.25,-0.04999999999999999,-0.1,0.07
844,0.01764705882352935,0.10000000000000009,-0.16666666666666669,0.2,-0.1,0.05
845,0.045205479452054775,-0.033333333333333326,0.0714285714285714,-0.175,-0.1,0.12
846,0.0,0.050000000000000044,0.09999999999999998,0.2,0.042857142857142844,0.09
847,0.007894736842105288,0.014285714285714346,0.0,0.2,-0.1,0.11
848,-0.03924050632911391,-0.19999999999999996,0.0714285714285714,-0.3,0.06666666666666665,0.16
849,0.007692307692307665,0.050000000000000044,0.25,0.033333333333333326,-0.1,0.11
850,0.050617283950617264,-0.19999999999999996,0.0,-0.09999999999999998,-0.1,0.08
851,0.0036144578313253017,-0.09999999999999998,-0.16666666666666669,0.36666666666666664,0.5666666666666667,0.06
852,0.0012345679012345512,-0.09999999999999998,0.16666666666666663,-0.3,-0.1,0.1
853,0.02682926829268295,-0.29999999999999993,-0.16666666666666669,0.033333333333333326,-0.1,0.09
854,-0.0494252873563219,-0.033333333333333326,-0.3,0.2,0.2333333333333333,0.11
855,-0.08987341772151902,0.050000000000000044,0.0,-0.13333333333333333,-0.1,0.17
856,0.03103448275862064,-0.033333333333333326,-0.5,-0.3,-0.1,0.05
857,-0.02941176470588236,-0.033333333333333326,0.0714285714285714,0.2,-0.1,0.09
858,-0.013636363636363669,-0.19999999999999996,-0.16666666666666669,0.10000000000000003,-0.1,0.08
859,-0.02048192771084345,0.050000000000000044,0.16666666666666663,-0.09999999999999998,-0.1,0.09
860,-0.08918918918918917,0.08947368421052637,0.0,-0.3,0.15,0.13
861,0.04047619047619044,-0.19999999999999996,0.0,0.033333333333333326,-0.1,0.05
862,-0.011111111111111183,-0.19999999999999996,0.0714285714285714,-0.3,-0.1,0.13
863,0.0,-0.09999999999999998,-0.5,0.12857142857142856,-0.1,0.12
864,-0.0012658227848101333,-0.09999999999999998,-0.2142857142857143,-0.09999999999999998,0.15,0.12
865,0.06428571428571428,-0.09999999999999998,0.30000000000000004,0.36666666666666664,0.2333333333333333,-0.01
866,0.02207792207792203,0.13333333333333341,0.09999999999999998,-0.04999999999999999,0.15,0.08
867,-0.011111111111111183,0.10000000000000009,-0.09999999999999998,0.2,-0.1,0.1
868,-0.013924050632911467,-0.19999999999999996,0.30000000000000004,0.033333333333333326,-0.1,0.09
869,0.031818181818181746,-0.19999999999999996,0.0,-0.04999999999999999,-0.1,0.04
870,-0.4,0.008860759493670933,-0.16666666666666669,0.36666666666666664,-0.1,0.26
871,-0.051898734177215244,-0.12857142857142856,0.09999999999999998,0.10000000000000003,-0.1,0.14
872,-0.2333333333333334,0.07528089887640455,-0.5,-0.3,-0.1,0.19
873,-0.003896103896103953,0.014285714285714346,0.0,-0.15714285714285714,0.2333333333333333,0.11
874,0.006666666666666599,0.17500000000000004,0.25,-0.3,-0.1,0.12
875,-0.0012658227848101333,0.17500000000000004,-0.5,-0.09999999999999998,-0.1,0.11
876,-0.00666666666666671,-0.033333333333333326,-0.09999999999999998,0.10000000000000003,-0.1,0.13
877,-0.02643678160919538,-0.7,0.0,-0.09999999999999998,-0.1,0.11
878,-0.01904761904761909,0.008333333333333415,0.16666666666666663,0.2,0.1,0.15
879,0.0012345679012345512,-0.07499999999999996,-0.16666666666666669,0.45,-0.1,0.08
880,-0.015384615384615441,-0.033333333333333326,0.0,0.10000000000000003,0.15,0.1
881,0.018918918918918948,0.027272727272727337,0.30000000000000004,-0.01428571428571429,0.2333333333333333,0.07
882,-0.5666666666666667,-0.011475409836065542,0.11538461538461542,-0.3,0.2333333333333333,0.29
883,-0.0011235955056180247,-0.09999999999999998,0.0,0.2,-0.1,0.05
884,0.011392405063291089,0.050000000000000044,-0.2142857142857143,0.3,-0.1,0.1
885,-0.3285714285714286,-0.03749999999999998,-0.16666666666666669,0.2,-0.1,0.3
886,-0.05116279069767449,0.050000000000000044,0.25,-0.04999999999999999,-0.1,0.1
887,0.024050632911392422,0.13333333333333341,-0.2142857142857143,0.10000000000000003,-0.1,0.08
888,0.0620253164556962,-0.09999999999999998,-0.25,0.36666666666666664,0.0111111111111111,0.07
889,-0.025000000000000022,0.050000000000000044,0.2142857142857143,-0.09999999999999998,0.15,0.1
890,0.0012345679012345512,0.10000000000000009,-0.125,-0.3,-0.1,0.1
891,-0.08918918918918917,0.04358974358974366,0.16666666666666663,0.12857142857142856,-0.1,0.2
892,0.014634146341463428,0.050000000000000044,0.125,0.033333333333333326,-0.1,0.06
893,0.036708860759493644,0.050000000000000044,-0.07142857142857145,-0.15714285714285714,0.2333333333333333,0.08
894,-0.011111111111111183,-0.19999999999999996,0.25,0.36666666666666664,0.2333333333333333,0.07
895,0.014634146341463428,-0.12857142857142856,-0.5,-0.04999999999999999,-0.1,0.1
896,-0.011111111111111183,-0.033333333333333326,-0.07142857142857145,0.2,-0.1,0.21
897,-0.025000000000000022,0.050000000000000044,0.0714285714285714,-0.13333333333333333,-0.1,0.12
898,-0.023456790123456805,-0.19999999999999996,0.30000000000000004,-0.04999999999999999,-0.1,0.12
899,0.02207792207792203,0.050000000000000044,0.4,0.3,-0.1,0.04
900,-0.4,0.04683544303797471,0.0,-0.04999999999999999,0.2333333333333333,0.23
901,0.02682926829268295,-0.36666666666666664,0.09999999999999998,0.033333333333333326,0.15,0.07
902,0.03023255813953485,-0.033333333333333326,-0.16666666666666669,0.10000000000000003,-0.1,0.05
903,-0.007692307692307665,0.1636363636363637,-0.5,-0.3,0.1857142857142857,0.11
904,-0.00588235294117645,-0.033333333333333326,-0.16666666666666669,0.2,-0.1,0.07
905,0.007894736842105288,0.050000000000000044,-0.25,0.36666666666666664,-0.1,0.09
906,-0.029870129870129936,-0.09999999999999998,-0.09999999999999998,0.2714285714285714,0.06666666666666665,0.13
907,0.025925925925925908,0.050000000000000044,-0.05555555555555558,-0.3,-0.1,0.08
908,0.012499999999999956,-0.09999999999999998,0.125,-0.04999999999999999,-0.1,0.08
909,-0.02195121951219514,0.050000000000000044,-0.09999999999999998,-0.3,-0.1,0.13
910,0.08550724637681162,0.15714285714285714,-0.25,0.45,-0.1,0.03
911,-0.014285714285714346,0.11250000000000004,0.0,0.2,-0.1,0.1
912,-0.02048192771084345,-0.19999999999999996,-0.16666666666666669,-0.09999999999999998,-0.1,0.13
913,-0.05662650602409636,-0.033333333333333326,0.16666666666666663,-0.13333333333333333,-0.1,0.15
914,-0.026760563380281766,0.014285714285714346,0.16666666666666663,-0.04999999999999999,0.06666666666666665,0.13
915,0.04047619047619044,0.050000000000000044,-0.5,-0.3,-0.1,0.08
916,0.027710843373493943,-0.19999999999999996,0.16666666666666663,-0.3,0.4,0.05
917,-0.4,0.07500000000000007,0.16666666666666663,-0.09999999999999998,-0.1,0.2
918,-0.04457831325301209,-0.09999999999999998,-0.5,0.2,0.06666666666666665,0.13
919,-0.0410256410256411,-0.033333333333333326,-0.25,0.12857142857142856,0.1,0.14
920,0.025000000000000022,0.17500000000000004,0.0,0.033333333333333326,0.30000000000000004,0.04
921,0.016666666666666607,-0.36666666666666664,-0.09999999999999998,0.2,-0.1,0.08
922,0.04117647058823526,-0.033333333333333326,0.09999999999999998,-0.04999999999999999,-0.1,0.04
923,-0.0012658227848101333,-0.19999999999999996,0.125,-0.3,-0.1,0.12
924,0.05348837209302326,-0.19999999999999996,-0.16666666666666669,-0.3,-0.1,0.04
925,-0.05662650602409636,-0.36666666666666664,-0.5,0.12857142857142856,0.2333333333333333,0.15
926,0.061038961038961004,-0.0636363636363636,0.09999999999999998,-0.09999999999999998,-0.1,0.05
927,-0.2333333333333334,0.07500000000000007,-0.16666666666666669,0.2,0.1,0.2
928,-0.009589041095890427,-0.19999999999999996,-0.3181818181818182,0.2714285714285714,-0.1,0.16
929,-0.02195121951219514,0.014285714285714346,0.0,-0.3,0.15,0.1
930,-0.0410256410256411,0.10000000000000009,0.2142857142857143,-0.15714285714285714,-0.1,0.13
931,0.03975903614457832,0.10000000000000009,0.09999999999999998,0.36666666666666664,-0.1,0.03
932,-0.013924050632911467,-0.19999999999999996,0.2777777777777778,0.2,-0.1,0.11
933,0.051219512195121886,0.050000000000000044,0.0,0.12857142857142856,0.2333333333333333,0.03
934,0.046666666666666634,0.13333333333333341,0.19999999999999996,-0.09999999999999998,-0.1,0.06
935,0.03975903614457832,-0.033333333333333326,-0.16666666666666669,0.36666666666666664,0.1,0.04
936,0.03902439024390236,0.13333333333333341,-0.5,-0.15714285714285714,-0.1,0.07
937,-0.04285714285714293,0.10000000000000009,0.16666666666666663,0.10000000000000003,0.2333333333333333,0.09
938,0.0012345679012345512,0.014285714285714346,0.25,0.45,-0.1,0.06
939,-0.003896103896103953,0.07777777777777783,-0.07142857142857145,0.033333333333333326,-0.1,0.1
940,0.024050632911392422,0.0,-0.16666666666666669,0.033333333333333326,-0.1,0.08
941,-0.0012658227848101333,0.10000000000000009,0.30000000000000004,0.033333333333333326,0.5,0.06
942,-0.011111111111111183,-0.19999999999999996,-0.5,-0.04999999999999999,-0.1,0.08
943,-0.02195121951219514,0.00454545454545463,0.125,0.033333333333333326,-0.1,0.17
944,0.006976744186046435,-0.033333333333333326,0.33333333333333337,-0.3,-0.1,0.05
945,0.00588235294117645,-0.19999999999999996,-0.25,-0.3,0.1,0.1
946,-0.018421052631579005,-0.2714285714285714,0.16666666666666663,-0.09999999999999998,-0.1,0.16
947,-0.003896103896103953,0.050000000000000044,0.0,-0.09999999999999998,-0.1,0.12
948,0.046428571428571375,-0.033333333333333326,0.14516129032258063,-0.09999999999999998,-0.1,0.12
949,0.013580246913580174,-0.29999999999999993,-0.16666666666666669,0.2,-0.1,0.1
950,0.045205479452054775,0.0,0.09999999999999998,-0.175,0.15,0.09
951,-0.12222222222222223,0.0368421052631579,-0.16666666666666669,-0.13333333333333333,-0.1,0.24
952,-0.034146341463414664,0.10000000000000009,0.0,-0.04999999999999999,-0.1,0.11
953,-0.008433734939759074,0.050000000000000044,0.16666666666666663,-0.04999999999999999,0.2333333333333333,0.07
954,0.012499999999999956,-0.12857142857142856,0.0,-0.3,-0.1,0.11
955,-0.037931034482758696,-0.44999999999999996,-0.5,0.10000000000000003,-0.1,0.12
956,0.012499999999999956,0.10000000000000009,-0.25,0.2714285714285714,-0.1,0.08
957,-0.01764705882352946,-0.19999999999999996,-0.5,0.10000000000000003,0.15,0.1
958,-0.012500000000000067,0.050000000000000044,0.0,0.033333333333333326,0.1222222222222222,0.11
959,0.03150684931506842,0.10000000000000009,0.0714285714285714,-0.3,-0.1,0.1
960,0.018604651162790642,-0.033333333333333326,0.0,0.033333333333333326,0.5666666666666667,0.04
961,0.06052631578947365,0.050000000000000044,-0.07142857142857145,0.3,-0.1,0.08
962,-0.02658227848101269,0.050000000000000044,-0.33333333333333337,-0.04999999999999999,0.042857142857142844,0.15
963,-0.02195121951219514,-0.033333333333333326,-0.16666666666666669,-0.3,-0.1,0.12
964,-0.030952380952380953,-0.44999999999999996,0.16666666666666663,-0.09999999999999998,-0.1,0.13
965,-0.01666666666666672,-0.0888888888888888,0.045454545454545414,-0.3,-0.1,0.2
966,0.00540540540540535,0.06923076923076932,0.09999999999999998,0.2,-0.1,0.07
967,-0.01594202898550723,0.14210526315789473,0.16666666666666663,0.033333333333333326,-0.1,0.08
968,-0.0071428571428571175,-0.2714285714285714,0.0,-0.3,0.1,0.1
969,-0.0046511627906976605,-0.44999999999999996,0.0,0.033333333333333326,-0.1,0.09
970,-0.2333333333333334,0.02619047619047621,-0.16666666666666669,-0.04999999999999999,0.2333333333333333,0.23
971,0.050617283950617264,-0.19999999999999996,0.0,-0.04999999999999999,-0.1,0.07
972,-0.034146341463414664,0.10000000000000009,-0.25,-0.09999999999999998,0.15,0.12
973,0.06153846153846154,-0.36666666666666664,0.0,0.033333333333333326,-0.1,0.09
974,0.01025641025641022,0.15714285714285714,-0.5,0.2714285714285714,0.1,0.08
975,-0.04084507042253527,0.07777777777777783,0.16666666666666663,-0.09999999999999998,0.2333333333333333,0.11
976,-0.02658227848101269,0.10000000000000009,0.0,0.2,-0.1,0.12
977,0.025000000000000022,-0.19999999999999996,-0.07142857142857145,0.2714285714285714,-0.1,0.07
978,-0.2333333333333334,0.010526315789473717,0.09999999999999998,-0.175,-0.1,0.28
979,-0.013924050632911467,-0.0636363636363636,0.0,0.36666666666666664,-0.1,0.09
980,-0.05294117647058827,-0.033333333333333326,-0.5,0.2,-0.1,0.15
981,-0.34444444444444444,0.0012987012987013546,-0.16666666666666669,-0.3,-0.1,0.3
982,-0.025000000000000022,-0.29999999999999993,0.09999999999999998,-0.15714285714285714,0.2333333333333333,0.13
983,-0.0012658227848101333,-0.14444444444444438,-0.5,-0.09999999999999998,-0.1,0.13
984,-0.4,0.012500000000000067,-0.3,0.033333333333333326,-0.1,0.29
985,-0.008695652173913104,0.04285714285714293,0.25,-0.13333333333333333,-0.1,0.19
986,0.02753623188405796,0.17500000000000004,-0.3,-0.13333333333333333,0.15,0.09
987,-0.0012658227848101333,0.014285714285714346,0.16666666666666663,0.3,0.06666666666666665,0.08
988,-0.0046511627906976605,-0.033333333333333326,0.16666666666666663,0.2,-0.1,0.06
989,0.03589743589743588,0.13333333333333341,-0.07142857142857145,0.033333333333333326,-0.1,0.07
990,-0.275,0.07500000000000007,-0.07142857142857145,0.2,-0.1,0.18
991,0.025000000000000022,0.15714285714285714,-0.5,0.3,0.1,0.06
992,0.04117647058823526,-0.19999999999999996,0.0,-0.09999999999999998,-0.1,0.05
993,-0.9,0.010843373493975905,-0.25,0.2,-0.1,0.27
994,0.009090909090909038,-0.033333333333333326,0.0,-0.09999999999999998,-0.1,0.06
995,0.03902439024390236,0.10000000000000009,-0.09999999999999998,-0.04999999999999999,0.15,0.05
996,0.04999999999999993,-0.033333333333333326,-0.5,0.2,0.0111111111111111,0.08
997,-0.012500000000000067,-0.033333333333333326,-0.16666666666666669,-0.3,-0.1,0.14
998,-0.07073170731707323,-0.09999999999999998,0.0,0.033333333333333326,-0.1,0.15
999,0.0036144578313253017,0.050000000000000044,-0.5,0.10000000000000003,0.15,0.09
