,0,1,2
0,0.004476111035145669,0.11135972703671682,0.00739600376160688
1,-0.004060120980311499,6.419038117133624e-05,0.01427516016626505
2,-0.00032053731336012525,-0.1589873786782341,0.008488006146284534
3,0.025763849451385656,-0.0077595442456304675,-0.01616042836483939
4,-0.023417754337362262,0.03379274058459547,0.03439893406329775
5,0.00814802152783578,-0.006206624568419361,0.002087635929479802
6,0.015917756628252455,0.061497054193585754,-0.005193428050794318
7,-0.02133501314534203,0.011057203590390308,0.03208999216042011
8,0.014021644372360864,0.04568303057026735,-0.0033903578390532857
9,-0.0025708911423732994,0.07117033570136888,0.014037252140276542
10,-0.0006645756579176654,-0.26962987568984187,0.007892849478217796
11,-0.022171551839788695,0.10302559130268218,0.03502728983000197
12,0.013673425661993477,0.01240270568688906,-0.0035978841904938234
13,0.005862317021354535,0.04264776049636132,0.004745296323067851
14,-0.0019399597223694887,-0.024201819616356424,0.011967387432333998
15,0.009497346084344382,-0.2078087076391631,-0.0018939019148752777
16,-0.0073715287310029964,0.07557485893540083,0.019132440598810353
17,0.003212970511205837,-0.09475127818125018,0.00569669679431172
18,0.006864893463150112,0.11978201630951801,0.005134675728612456
19,0.010957214397963044,-0.09298568430065546,-0.0022000423668330766
20,-0.003942998090534999,0.006819521379810012,0.01431483267776366
21,-0.0007171320966536943,0.016288474002841835,0.010956613247344467
22,-0.003262362133494956,-0.12509310574051002,0.012216724841436008
23,-0.0022964158903674425,0.059120218915073464,0.013480291702828617
24,-0.00911213235211017,-0.008428462849399576,0.019398048760354322
25,-0.006347967748016603,-0.14265071127840956,0.014874424511323923
26,-0.0008475884804725053,0.03530897435304792,0.011469603191584974
27,0.0033477115509978894,-0.04919963895205559,0.00599033867250364
28,0.0007606132306328117,0.06845125015192932,0.010522661145721394
29,-0.004274137409333023,-0.06919840931120874,0.013764865177284445
30,-0.014619402300569573,-0.003734109031299282,0.024890811141914854
31,-0.007736019084790047,0.019058563350821234,0.01828849989647588
32,0.015226886792701677,-0.0734605148105047,-0.0063377070284934235
33,0.00430289677379303,0.05295880530812791,0.006709899057969233
34,0.0006446384483809187,-0.042479123763199844,0.00880571501410068
35,0.0010425853626376824,-0.10993219581757452,0.007755451486357379
36,0.0035028870755151598,0.059764658843271756,0.007501820984644474
37,0.006020111564849717,-0.030430875175061822,0.0035823610977946375
38,-0.016710294584497687,0.010496712644308182,0.0273008576225724
39,0.018995327445194166,0.0641348967913572,-0.008215135238698167
40,-0.010861603577779544,0.020967148545420256,0.021442273779795143
41,-0.015549781358313641,0.11470366961668021,0.028121164025163854
42,0.008330419657658572,0.013118803072839191,0.002118545452281069
43,0.017841431599760815,0.01538972009416062,-0.007742152198498297
44,-0.006449523514326816,0.10802811525549283,0.01870913460144657
45,-0.020356940720854144,-0.10295966361348186,0.02956206374255762
46,0.00598516786525205,0.040296372950999526,0.0046325366587929235
47,0.0028481899736430005,-0.022028187824463252,0.006966998291181517
48,-0.0286770077462134,-0.013813281807190991,0.03910743763852442
49,0.009124323655793631,0.0675381847080394,0.0018711712040054408
50,0.0026811491039564483,-0.03113116978919539,0.006927472636120364
51,0.0032055743192855868,-0.015300128449625416,0.006801585744154363
52,-0.005988506564963636,-0.08058904575387887,0.015182115191986305
53,0.0023267266679221077,-0.011919631892197968,0.007701077324000107
54,-0.010700404729428459,-0.015421817192832254,0.020794832978696467
55,-0.01497847254154272,-0.029289810715780573,0.024904681368305502
56,0.012401480781418117,-0.2194334754796763,-0.004936764227555068
57,0.007488954898122069,0.06286298737740115,0.003404381306135656
58,0.005515957345389566,0.025884380557678277,0.004987974186261272
59,0.000682510605300779,-0.022984506240867064,0.009162429311407141
60,-0.004220933363681012,-0.046642445417734435,0.013713309824626959
61,-0.018227683449925314,0.010352464332687772,0.02883463012481643
62,0.008806077487872432,-0.06561558787771049,0.000442111324513462
63,-0.01142131406147795,-0.09947767443248023,0.020653798919302607
64,0.003060883909248746,-0.1376280404352358,0.005460278784532966
65,0.0025119749551034687,-0.01377100745659332,0.007607171500165714
66,0.005084413244495378,-0.005051235043341318,0.004863231897117476
67,0.0017921851318725146,-0.05709284228776762,0.00748530632329348
68,0.01896406257698713,-0.023580498793542626,-0.009306769384591644
69,-0.0012695072147431707,0.027092420168573716,0.011787036234095286
70,0.009546019148255702,-0.04329828851446832,-3.709705645687791e-05
71,0.004802183864180298,0.008127360860694877,0.005528652454292206
72,-0.005652524201666953,-0.048786220569001004,0.015048737148821965
73,-0.006744491156202792,-0.008510350809316725,0.016729631763299765
74,0.008141815932211305,-0.061711941944774584,0.0014317272001220772
75,-0.00939762568462621,0.010562129143536492,0.02000651510292373
76,-0.003618058928885004,-0.011633908024191564,0.013676772740972046
77,0.007574453777507317,0.02664476929630677,0.0027655344388384036
78,-0.019121567148722485,-0.01052501645582532,0.029293618549379424
79,-0.00454625422526056,0.0811653508770932,0.015980613924435602
80,-0.0013581319705893158,-0.0015878825023593612,0.011512795906384236
81,0.0026371811336112216,-0.01768208703363522,0.007352948815200034
82,0.00832323865387452,-0.029666497157038174,0.001414375564303009
83,0.0006095731915269909,-0.10344675876486631,0.008149243621840833
84,0.004600369848194896,-0.04194294288752276,0.0049094837934066165
85,-0.015128558128295166,-0.075214643056222,0.024481995746591566
86,4.8964324055322805e-05,-0.16558548495783632,0.008005212512255458
87,-0.00618666162355308,0.030666682838661252,0.016931664032029586
88,-0.008778126784013907,0.14953052733936822,0.02179656706191308
89,0.003935992983914005,-0.21330006384531697,0.003810156429841845
90,-0.005729462042351363,0.052838716863936486,0.016853543933912987
91,-0.00828541381984893,-0.10200506775474671,0.01719120862887248
92,0.0007752703903376457,0.02466976062249282,0.009794271926508554
93,-0.012315909865088348,0.007942160472474868,0.02272630973876312
94,-0.004257594530747033,-0.07551035655392013,0.01379751565653405
95,0.005775534591053733,-0.153627343803937,0.002401061101044252
96,-0.011541063725691525,-0.08249702303580703,0.02084764586244637
97,-0.006643111858092854,-0.008961574747760936,0.0169406403473311
98,0.002197011346543709,-0.08635207961987745,0.006690079927049192
99,0.009724526888772456,0.021567550774008293,0.000624401004860556
100,0.01231332950183206,-0.021772379444293055,-0.0025929695990125766
101,-0.01319584425778264,-0.08992974374991741,0.02259660681950445
102,-0.004223370788382308,-0.1386346248301354,0.012914804968754289
103,-0.025430225563010223,-0.12418827714261732,0.03447147214186225
104,-0.0016032197757501754,0.009197326077897028,0.01197424820365286
105,-0.009797261069171892,-0.10430823054547933,0.01895272999910703
106,0.0037084485381926324,-0.008399179403928092,0.006226439443884374
107,-0.014599383620353401,-0.06419062175350954,0.024107312040056967
108,0.01415829700140625,-0.20024577289186007,-0.006014090604623015
109,0.009010773932822458,-0.12693444855724612,-0.0005527024737044485
110,0.0013124989589445857,0.05784117338306316,0.009729937047894963
111,9.958861835368538e-05,0.031179900318824894,0.010638672243705514
112,-0.001931651028453829,-0.016953499426755947,0.011923074887380971
113,0.012640693029327466,0.08136137321388714,-0.0013843027821443684
114,-0.0009632785334402483,-0.0008876350862520588,0.011061750535807005
115,-0.011657987994148855,-0.24393183686086556,0.019273636022362733
116,-0.0026916201358282432,0.011835485648546418,0.013032192782621133
117,0.005978700028948181,-0.041720497092773534,0.0035512660009697355
118,-0.019538387865243645,-0.015000139114206834,0.029843992291222095
119,0.0027368444135038583,-0.014197461641384745,0.007136600832144541
120,0.008243625405425004,-0.04241718933745475,0.0012828066896267045
121,0.000744293239548055,-0.03293990528344398,0.009022127593422555
122,0.0012564780355708294,0.007448995765145794,0.00906409834388105
123,0.006481200080054705,0.08167177928923819,0.004818730512981165
124,0.0035526302696091694,-0.004622542116038464,0.006661690695342258
125,-0.023325813726823297,-0.05271374311537014,0.0329606740416948
126,-0.005464535640544499,0.012693442530167909,0.01596869171642302
127,0.0113293260125793,-0.06140865849634247,-0.002165518260436693
128,0.005238200238977919,0.008679276326231,0.004990913593624646
129,0.007833647344867245,0.08271786268396131,0.0036444788409773538
130,-0.006040455002193967,-0.10387698206113183,0.015008002908078015
131,-0.009768908605755855,-0.0341254862801188,0.019626812266033813
132,0.0014121568972442766,-0.0856093453058599,0.007627974236683439
133,0.0035500564122898925,-0.17248931050610156,0.004427208117347072
134,-0.00822774665455861,-0.006000440599237766,0.01873075049679137
135,0.021084576481187556,0.12141942313831366,-0.009174554911569975
136,0.022297100710625406,0.08110618348890208,-0.01126732778008245
137,-0.0014535606485173158,0.06243399023061735,0.012574428101099329
138,-0.009500023154025872,-0.04722991820978201,0.01907161528601828
139,0.015450574439441978,-0.08371762201613553,-0.006582885131899457
140,0.012124814032362208,-0.051773641090830214,-0.0028768793683417245
141,0.01138893741886915,0.010926830044995395,-0.0013796952713915744
142,0.010840494964209135,0.0476069428283572,0.0002307869318377925
143,-0.004167189084201661,0.05636097017702124,0.015241879470818821
144,0.0032469749752137567,-0.05438899361056948,0.0062886000876033
145,-0.007132324913906474,0.06467948935511636,0.01843649301720434
146,-0.008897179395896071,-0.034723112257821376,0.018572376560555496
147,-0.004330123365966387,-0.122060088090573,0.01316366186152827
148,0.01069519103868033,0.032525528910637314,-7.982453943786822e-05
149,-0.014619849577280797,0.023477567649346387,0.025428370014177745
150,0.013748487344025007,-0.0030310967407847222,-0.003877997288005099
151,0.003223499414489517,-0.08117010394823276,0.005776162077296431
152,-0.006661331055581199,0.08916624506236936,0.01850358307532515
153,0.00456711890101591,0.052965276618442414,0.006316485497994108
154,-0.0011795330400168336,0.06891287758321119,0.012744047194252017
155,0.0017428137015609302,0.012646695366518412,0.008626024007142042
156,-0.006048370462359509,-0.08726508108643244,0.015115351148095034
157,0.012807252532088365,0.06750355637154903,-0.0018082512369230245
158,0.008078725683875465,-0.14433821315364875,0.0005331779087799077
159,-0.010904792959573695,-0.028259962735201538,0.020734541185310627
160,0.013884226719976356,-0.03071377358330829,-0.004244842114608218
161,-0.001843835767550317,0.10976933405135214,0.013922666186182505
162,0.01235295464692765,-0.10053885045208316,-0.003649891014521745
163,-0.0046024282316613485,0.03355664130696856,0.015317137818365155
164,-0.004160524296729418,-0.06351661044186618,0.013501770935353125
165,-0.0002454511599041531,0.038728865885971464,0.010987349572735184
166,-0.01426634233707691,-0.09978003799080415,0.023283253250144298
167,0.003143360597305911,0.036350063419392176,0.00773292322693942
168,-0.0015222870223643437,-0.14233410382586975,0.010045084185851011
169,-0.018242193460548006,0.13322443952298324,0.031103074703455785
170,-0.010044836000956847,-0.04422275719881008,0.019873709750997295
171,0.006196531889046231,-0.03328578172088614,0.003298356830488592
172,-0.005456347111968074,0.006365830152641694,0.015659263607137836
173,0.01207648857696575,-0.09217323059390903,-0.003194017705153783
174,-0.009311245383898825,-0.006593391299454854,0.019455801160576085
175,0.013018298497591507,-0.029754876220729143,-0.0035740452574927984
176,0.01340835964463949,-0.008665416689820737,-0.0033323357613844564
177,0.001079033375438021,0.018493762552796222,0.009248291420166425
178,0.006983300974961804,0.01858467799220409,0.0032730701076759943
179,0.00792329737553743,-0.00822956192903268,0.002038452809040791
180,-0.015132488925404974,-0.1666910505204584,0.023407282657662107
181,-0.012630221366835226,-0.030915292557285146,0.02247763771945374
182,0.00028397199927643335,-0.09217656175930855,0.008780674167229881
183,0.0002654888522100052,0.0007378837282161488,0.009824968771294698
184,-0.0019303447565618415,0.11252913162149392,0.014113425303015356
185,-0.003841983046684705,0.10134770491114709,0.015765254470358196
186,-0.0035577632223925404,-0.023509316342241737,0.013488837886981674
187,-0.006315503230042374,0.015054401397864403,0.016797502318691294
188,-0.007549439164079352,-0.07203251538764638,0.016863409921768106
189,-0.005067386398068918,0.05729771463347222,0.016402130281352036
190,0.013899267300328866,-0.10276512800402865,-0.005327632205598274
191,-0.00016754563656484756,0.021471605829512574,0.010643648219457645
192,0.0030486690154145624,-0.035458053557600566,0.006590601318642257
193,-0.0037963489498473724,0.00016642890238338648,0.014113923170521047
194,-0.0011425263859818902,0.0022764018642127404,0.011521070785552728
195,-0.015985665230919266,-0.15604317473620444,0.023154309337378436
196,0.008061977695491551,-0.011579491076270931,0.0018112102111717831
197,-0.0049088582378902235,-0.050700685572836024,0.01446021521625171
198,-0.015157633028813011,0.05152392671969985,0.02642391247535161
199,0.012720971463472175,-0.015442361027978913,-0.0028971334791311164
200,0.0005324783131905875,-0.03804659798267651,0.009161945060134895
201,0.016017082310477493,-0.0008559909132690446,-0.006093119304581523
202,-0.0016285172275302129,-0.021328004356537256,0.01150280748298137
203,-0.015285972381859247,0.003009803056867044,0.025690783632382773
204,-9.745226196100631e-05,-0.10643896993816548,0.009253209178871657
205,-0.0020289324760288663,-0.07585271886174005,0.011210113058200296
206,0.012191526928914787,-0.06228939230402181,-0.0029998322211877166
207,0.02333226884873074,-0.17541429227667898,-0.015506307364126224
208,-0.0019586932740103258,-0.01738452336856805,0.012061039543863627
209,0.009000397583924125,-0.05997513702727114,0.00010321096985499026
210,0.005402658658058224,-0.13656959586380946,0.0031355723270826276
211,-0.0017089770575107188,-0.0439689020476855,0.011415429714834863
212,-0.01124785444230847,0.08001067267828277,0.02285611227208374
213,-0.008684732131047035,-0.021098251868390927,0.01862555441395143
214,0.014514350327952785,-0.07019081495443064,-0.005451420266075911
215,0.0002683881356841944,-0.08373493363223489,0.00872526301954167
216,-0.006084537290251157,0.0756461906753082,0.01762876919840164
217,0.0018190716937533935,-0.07537570801152538,0.007358325303560377
218,-0.007469920339902347,0.021137129351287087,0.01798198313178891
219,0.0056009242338845855,-0.08633155599657621,0.003455642713641464
220,-0.007376084357287205,-0.07464218890915297,0.016849428303303285
221,-0.010691340925730208,0.041481834924467,0.021707880799815393
222,0.011904313252735887,-0.02385692684356039,-0.0021534586829833643
223,0.006784149422712105,-0.024466837860258217,0.002937743644566217
224,-0.021571384675109773,-0.10197509440805458,0.03062568254694361
225,-0.009013979763793256,-0.010919125547766861,0.019102273194051122
226,0.007537000681996586,-0.09068569864221582,0.0014961620777990902
227,-0.013354731302197997,-0.04316174427857633,0.023209141743558575
228,-0.024707287046702664,-0.0899219487957153,0.033920286033211594
229,0.006552281086164902,0.002493458178526309,0.003478489489697131
230,0.020437896680195244,0.046899422600584884,-0.009877988708220074
231,0.014177187308168415,0.09311336207889487,-0.0028084640269780722
232,0.004975698105708082,-0.0014156148058375173,0.0053040455463962645
233,-0.0029032528481534037,0.02343728851771143,0.013371126883967736
234,-0.0036031489341789014,0.037087831105256486,0.014442841805248281
235,0.0027984557710116764,0.10623746502133458,0.009058717852403787
236,0.007077399865426104,-0.11040252396168182,0.0015673190681534835
237,-0.015525384781100993,0.07645473203418318,0.027072347475228343
238,-0.013970372934475783,-0.06815275598937232,0.02328063696979807
239,0.008972521159940738,-0.029465268510722953,0.0008270466120653509
240,-0.008075837538218944,0.05952619585143981,0.01918846528010472
241,0.005818963501341479,-0.02340768265419807,0.003971729452535874
242,0.003771732563305097,0.09879563373781863,0.007972574302634166
243,0.012563971203083835,-0.09034278121157119,-0.0038821139683126605
244,0.0008278706347748521,-0.008583640373980628,0.009258477283198409
245,-0.004472404087122683,0.0810551027697386,0.015994739396501974
246,-0.0143304242946104,-0.10060157329549613,0.02335899998922414
247,0.01646610477706445,-0.024215197732922356,-0.006841977592386684
248,0.017817369098720004,-0.05512822398871409,-0.00859294505001235
249,-0.0038368068253790133,-0.06626972970198991,0.013060706760555513
250,-0.026304079326875063,-0.07926017558946696,0.035870219792217904
251,0.003673829240162796,0.09782649977891567,0.008055158581267279
252,0.009239559727428182,0.03209563966687934,0.0013530352979159942
253,0.01434268291809171,-0.10852623601795325,-0.00580937872866798
254,-0.0065751359802004306,-0.05810814791978003,0.016061503785561218
255,-0.01277409684129105,-0.01703418473124574,0.022859298599090108
256,-0.014461286354834346,-0.12196805352844559,0.023452386509003737
257,0.01658015399209778,-0.16151142988653377,-0.008578673302330026
258,-0.0014351942026360476,0.05001645853080894,0.012648902884299968
259,0.0060230969757471,-0.011048636815318313,0.00405980183317879
260,-0.0011669900166538794,-0.12667125195393736,0.009673847979000857
261,-0.013719937459980791,0.0035772838338771207,0.024291128313645275
262,0.004445487586890007,-0.058849099422384143,0.004792543640062104
263,-0.004681497968556436,-0.015403247095376549,0.014793788601267443
264,0.004063361592981041,0.06981712209377167,0.007400739129798058
265,0.005283364934235646,0.04962778569486259,0.005470106735813533
266,0.0027612136648589303,-0.12841810626558242,0.0056965892222089675
267,-0.0032876066692557604,-0.024227961251085006,0.013289661477226947
268,0.01289983155796759,-0.05466165904801018,-0.0034783108139083197
269,-0.005764024017126057,-0.1077706145685266,0.014613520898231763
270,-0.002145719785304423,0.005556384882306253,0.012582435166351207
271,-0.004648307256169937,-0.22319391498314683,0.012408599819621304
272,0.0071074014518297535,-0.15044001115572447,0.0011119412057645605
273,-0.01745071295126499,-0.008729581770715145,0.027718441309591616
274,-0.000172492733880647,-0.1362818087719782,0.00856913570558354
275,0.007497036227894327,-0.0168340682966871,0.0022555223162627953
276,-0.0035355456524557294,-0.09246335138443756,0.01254614108015503
277,-0.009467600263028397,0.022450364835460035,0.020186678862273037
278,-0.005597998242100943,-0.020571987863794605,0.015485498842837479
279,0.01136376927049354,-0.04771252210939658,-0.0019153799461733797
280,0.007492430358679414,-0.03109136192381029,0.0022559362816335126
281,0.00563589147296395,0.02451991996595093,0.004948659900190251
282,-0.007686133884674651,0.003004131497311713,0.018059500258576555
283,-0.003802261780117555,0.02769666884486388,0.014343535841055383
284,-0.0005802021583426464,0.03467130997668888,0.011269417379236984
285,-0.012566718586766945,-0.01916547827376297,0.0226986937805068
286,0.0015344517600541785,0.0007786581062707576,0.00858081527175218
287,-0.007299281090609511,0.0026474077453438882,0.01763940595617096
288,-0.008077849331650566,-0.05279193343944477,0.017719288620358566
289,-0.00032203644022166245,-0.08127126798847217,0.009501034298684135
290,-0.009414772999905119,0.018716668639492617,0.02003181556301861
291,0.003835364355942117,-0.07529805719776222,0.005199117020295671
292,-0.006789380781686893,-0.010757832575363335,0.01712073404345738
293,-0.0030195248964313137,-0.05962638498029349,0.012370520145840237
294,0.0012134968942010271,-0.021385379751494127,0.00861136198673794
295,-0.0072057869790767,-0.0455044441608804,0.01689516280834905
296,0.019158973588898176,-0.037196810465804864,-0.009478382946346392
297,-0.0025460927841612913,-0.003537511263996318,0.012716218579301858
298,0.012432727884347017,0.003678054719906343,-0.0024611362903238843
299,-0.001472033593995059,0.07807018970353596,0.01286643934263193
300,-0.019088822054356913,0.027581548493221808,0.02987806723532467
301,0.015874275668950055,-0.030813355271639198,-0.006361910890583749
302,-0.001600975606739774,0.0638269487365275,0.012769477951117733
303,0.0026641520197974167,-0.025019089245141346,0.007150756267730503
304,-0.0020773728386974666,0.03530659022991367,0.012763803291812656
305,0.007785783429485882,0.08205004076205036,0.0035813608997346817
306,-0.011066096949655324,0.044425133411605366,0.022312168821515477
307,-0.0042049892549606005,0.08030323897061009,0.01608805392770937
308,0.017643080305431935,-0.0960438620539491,-0.008867357029692904
309,0.015835850563051146,0.0010770431649796963,-0.005901005580268429
310,0.004319803816502432,0.02104320532252313,0.006118970710967369
311,-0.010276662156292415,0.039272279564041,0.021222622872488318
312,0.014935574045965128,0.02969035944513665,-0.004357228367667085
313,-0.0028609779673639535,0.044267198165236055,0.013956337652115326
314,-0.008919131142501313,0.0997474611154342,0.02077653339708595
315,-0.004024965114874157,-0.0323741420142733,0.013852259805202993
316,0.008513780292061623,0.034606211287285915,0.0021965307674461656
317,-0.0020412206998059457,-0.11243753375110654,0.010891967239049699
318,-0.006582370593675391,-0.06554405629050852,0.016140615419091228
319,-0.0014365828806895964,-0.06499236637772238,0.010735253308390565
320,0.009111816007726814,0.06781333350940988,0.0019647759029809094
321,0.004593624921882311,-0.11224543397668452,0.004042121902697545
322,-0.0008327157475219726,0.020250702703201173,0.011320988883451172
323,-0.00861887036073783,-0.13792710335671976,0.01724039315278278
324,-0.02460447307676905,-0.02857283194748078,0.03483503076184461
325,0.010443628559973606,0.0006426512554441599,-0.00045152940480493273
326,0.01245407280868771,0.038548801183356685,-0.0018385947242803014
327,0.013728749671679585,-0.05352546808537656,-0.004255604235136707
328,-0.003146620897170549,-0.08609879095869516,0.01235726518414267
329,-0.002080339353719207,0.09557786100731258,0.01382871990317708
330,-0.007597732089040243,-0.01957362287948905,0.01758126195945406
331,-0.012499651043968218,-0.014315467475616683,0.022837056862460122
332,0.00801568341237724,-0.02185074237483614,0.001786845464686303
333,-0.005222349817982863,-0.12814731986377442,0.013943299398624003
334,0.0027201071174187685,-0.07799831714196909,0.0065133158283055305
335,0.015202899055547281,0.01229482421030026,-0.004993865136188833
336,-5.195798295742904e-05,-0.0472879504126269,0.00951914065199071
337,-0.00406043743999418,-0.047026568521866985,0.013562344733926875
338,0.00305861468162294,-0.03819245755560935,0.006521529296976041
339,-0.01979437269467066,-0.10639924473993134,0.028769427236963203
340,-0.018209519729493584,0.04873219581203714,0.029555646782305486
341,0.005387284324821273,-0.21158096948000288,0.0022842759908902736
342,-0.004781897935676405,0.07910847314937719,0.01614169080505435
343,-0.005944721068707137,-0.1668754140915258,0.014140261662190096
344,0.00867313780415424,-0.012497930922188094,0.0011769953947736213
345,0.0138259682386912,0.12197723514305392,-0.0018353970059648418
346,-0.009532637316943426,-0.03940980710225078,0.019388352674950145
347,0.0056765473514399645,0.03474557312963089,0.004919399568550762
348,-0.002632473697689597,0.0004966586288199792,0.012718952311461544
349,0.004778387231257897,0.04857660705186784,0.0059423546029576755
350,0.0040678238119513654,0.09944013243947691,0.007949618621811169
351,0.00902148070247355,0.006380012874819929,0.0012324052412106539
352,-0.0010770237055209853,-0.0764046892294375,0.010282266353903651
353,-0.007322598834533456,0.003227035590209981,0.01765000154817135
354,0.0032709018200713924,-0.021548295090516978,0.006543217162156543
355,0.011515608129873511,0.05079987216934945,-0.0007809314819933206
356,0.007604113973484594,0.041453289216708766,0.0029775097484942307
357,-0.00231745135474537,0.07409149187543551,0.013627332570499494
358,0.012722837422222355,-0.09745429763997221,-0.003997304390833051
359,-0.0019795330554879254,0.01817753529769306,0.012536077551717971
360,0.006637236474252628,-0.023272293782519382,0.0030601079294463487
361,-0.005606162000328263,-0.10805926199593863,0.014401977260264175
362,-0.007722876924121658,0.04321654611513537,0.018679955001963754
363,0.013267323269248399,0.11169911091413431,-0.0012604337198305075
364,0.008086673034741976,-0.028389966885962348,0.0014626111558465708
365,0.010552368431170356,0.004446456896610829,-0.000582081973939421
366,-0.004611496688422978,-0.07781066292614847,0.013897323181474167
367,0.012059159356969662,-0.035190252657717414,-0.0025917445291155673
368,0.013616731054468811,0.01470343493329096,-0.0034388998135967993
369,-0.001709224034304846,0.03130659889766152,0.01230976485374922
370,0.001780334727192967,-0.12000987345244707,0.006800370145686066
371,-0.010752836653292408,-0.011414218528891518,0.020966328843554583
372,0.0028204443302639604,-0.05250614524464259,0.006509042374594537
373,0.0085135748730365,-0.0006206465140745077,0.0014145424440121133
374,-0.018565688891943988,-0.046504957267723024,0.028543741064246207
375,0.0026859476820770833,-0.012659713398048333,0.0072086890106613285
376,-0.005481571349491454,0.023434338644479413,0.01612807178362764
377,-0.0023128530255628332,0.11995871887229048,0.014589026938882671
378,-0.012371566772860554,-0.15843236905868896,0.020964175443261956
379,0.012643325550467432,-0.002571551102936387,-0.0028027214063873545
380,-0.0028460808945841576,-0.0556029814979116,0.012353499584961356
381,-0.001309730473395776,-0.04500919979589224,0.0107157312926749
382,-0.006347998241459263,0.012783645902916696,0.01673475472794071
383,0.007421490589180513,0.0742718110260121,0.0037537711435490563
384,-0.0063643708218197315,0.07308354531208205,0.01797160833652397
385,0.004695216647345513,-0.0005745766713784461,0.0055112331776927025
386,0.00788240539970908,0.04562946613725083,0.0032116651425900273
387,-0.00034002708565916695,-0.02297761776388385,0.010061086272274042
388,0.010263171987591413,-0.002899462929161767,0.00015402950121861067
389,0.002233577221650851,0.026864215640699074,0.008272085669288208
390,-0.011044012480163956,-0.038092198875200545,0.021005223203030072
391,-0.0023151130818518384,0.006844799016776926,0.012671838936570748
392,0.006421462125340005,0.11697182142750939,0.005690421700362458
393,-0.005706587261692486,0.03237218503064776,0.01642315974451012
394,0.002267562678361923,0.07728995131385263,0.009036841783934142
395,-0.008638853794277312,0.020087495658942744,0.019148256201470395
396,0.007904182563472473,-0.10131898032389303,0.0009295532983942394
397,0.00354501324165013,-0.037683665305720204,0.005926488632928885
398,0.016513751219839445,0.013681006498026282,-0.0063062465019866065
399,-0.007040139612246699,-0.09631694006363656,0.016173930019243197
400,-0.00827592231599028,0.05127229629993779,0.019683623453837753
401,0.002817163909320408,0.049091476884339014,0.008117625147981563
402,-0.002765823431962522,0.03020511475270682,0.013367383135170531
403,-0.003374651886053681,0.021717913363391794,0.013965087680991018
404,0.0011899246995048518,-0.009915310613450024,0.008981069483223109
405,-0.0001611921003775718,0.07112062169837507,0.01165083949057098
406,-0.011259821360380062,-0.07057076841024545,0.02071217636552283
407,0.014500895447294049,-0.16852872484748083,-0.006577751851874746
408,-0.014771078355157452,-0.16536184384844183,0.022968522000372832
409,-0.00419695575901502,-0.020680031327450887,0.014371672347713138
410,-0.003935858063235376,-0.04841436579133179,0.013682023351568387
411,0.0050626994210549725,-0.11484192786052211,0.00355397489815914
412,0.016769953011162908,-0.1065285328840796,-0.007919114511450607
413,0.026834454297485433,0.06283952536665027,-0.016069771946290164
414,-0.0057276498337403,-0.034870561385460686,0.015622622279757525
415,0.008967093956923078,0.0008806591666284946,0.0010422088084456845
416,0.004893171839028376,0.06843506839096947,0.006236509798897168
417,-0.022493370507175148,-0.06456004653605962,0.03197953733768063
418,-0.013039200858672717,-0.06763716589933527,0.022467366264363953
419,0.0056220478051292044,0.1036195967768514,0.006156624009999177
420,0.020195520593360383,0.044073251306946615,-0.009435157307487499
421,-0.0053862923813639,-0.05064451143785709,0.01492831121485251
422,0.002587059284302917,0.01468064320218454,0.007805347378246188
423,-0.01597755839971149,0.025158800605981302,0.026806740327177066
424,-0.012912292640582357,0.007703779305574421,0.023314923879350864
425,-0.0050308711813208395,0.08277086368869013,0.016654862257986496
426,0.005363405801169119,0.024060081914184406,0.00503274599478973
427,0.00046738821976033407,0.09266721594434102,0.011195696707316528
428,0.008981543653347801,0.047515687482325375,0.0017706107954370963
429,0.013481811659943332,0.02825386895425641,-0.0030494108917710036
430,-0.004899927871166998,-0.08070224390617858,0.014112764927727221
431,0.008773854422322591,0.05018404165495993,0.002003006177710449
432,0.008140964011195795,-0.052448404730668696,0.0011087605730450377
433,0.008922853170256984,0.028477932546133067,0.0015988905914113274
434,0.011916896751588135,-0.014052145717842024,-0.0020812756574097877
435,-0.006747714536686322,0.03872916995921216,0.017656269308784795
436,0.002184559089467797,0.012530805384266652,0.008245065864452955
437,-0.006279407222787858,-0.17974748763750548,0.014293677379722976
438,-0.004839908824662897,0.08633333633711082,0.01669588471497136
439,-0.015340887258876501,-0.13953804381529444,0.024017227735010603
440,0.0031752672784284286,-0.059129830813311246,0.006046536330275921
441,0.0027161006118276987,0.036362480020832755,0.007823491213528723
442,0.006143813742307547,0.02443472503516919,0.004261102573766766
443,0.022486274730443512,-0.054267277017466475,-0.013431243968001218
444,0.004246795215072208,0.06906066091178964,0.006981007049952495
445,0.0024248141254952227,-0.11415805234211512,0.006515637438285194
446,0.009812864173238456,-0.07003770799881909,-0.000767195247354175
447,0.00546599490493227,0.053363163710622996,0.005474893609970059
448,0.006283947201453088,-0.301856002494325,0.0006660563659304898
449,0.017038180555009053,-0.041567504316532056,-0.007653605049167163
450,0.008909481089989013,0.017064465986138644,0.0013208952241709994
451,0.009316032551849318,0.007114540031415539,0.0008786577463155481
452,0.008290105554164429,0.10020518944273304,0.003503548521456105
453,-0.008947792135721944,-0.0024353556032728485,0.019162984699500157
454,-0.0031178001252477605,0.088986410384848,0.014742830125709951
455,-0.009740885902432384,0.030655517138359345,0.020449649711581877
456,0.013892670778527627,-0.033344654361208925,-0.004261293856068369
457,-0.002820908939828226,-0.032944065077810336,0.01252216269715318
458,-0.0034925810490262776,-0.13478977104595463,0.01195196339498525
459,0.007677361092300883,-0.11919183891284202,0.0010361207877705966
460,-0.005120333331794846,0.10437133928626574,0.01714798981515851
461,-0.0030128493720702476,-0.09445105635240136,0.011825278656077172
462,-0.007751152727505706,-0.07929793271316571,0.016953055885274806
463,-0.0074097302465134796,-0.24619542432259517,0.014871465756681936
464,-0.012655215531892305,0.07122308112191433,0.024389847566254865
465,-0.008892778534327572,-0.00981789936011973,0.01921183602333895
466,0.015170864186826671,-0.009586983675735072,-0.0054628440013693765
467,0.00010360435363554465,0.06631388496213997,0.011131549378604177
468,-0.004425251825019072,0.04316695039665219,0.01528303897169899
469,0.008267672483393662,-0.03469825560536127,0.0013428244437773173
470,-0.0020363936515809256,-0.10738219376772346,0.01093497691328812
471,-0.004246667268914317,0.01886435891401983,0.014976669179798228
472,-0.0021191502870473444,-0.04310897872736674,0.011694670250440868
473,0.0005704255401168812,0.00788893251254763,0.009677349514856541
474,-0.02782932900825008,-0.07541855704997363,0.03724786373056777
475,-0.001177265450713949,0.09645504714449693,0.012926401922933838
476,-0.004223860480248143,0.05560983626398841,0.015536134473921265
477,-0.010090122317287786,-0.08907230843349923,0.019122244420700735
478,-0.008615990281408026,0.023305047903842024,0.019241382714602878
479,-0.0032784505786705997,0.030559550402428082,0.013906944156301506
480,-4.081922562548801e-05,0.04252740016705403,0.010836209247958141
481,-0.0035343313573328317,0.10651173573636974,0.015622903277428123
482,-0.0001888745529826652,-0.048677338650945534,0.009842271521106886
483,0.004488275932266639,-0.0386507802329909,0.004962343645008877
484,0.0016247543523135732,-0.019165843428489204,0.008582741364190042
485,0.002987425365902574,-0.02519651202143247,0.006836795869501839
486,0.0002481530255744602,0.0835917602065197,0.011376560334077112
487,0.013040480448163194,0.09773545803516892,-0.0014119398205992184
488,-0.00212120109606162,0.08642750786411213,0.013724127503384807
489,0.006573579913501826,-0.02689275093712773,0.003242200574149865
490,0.005187304764695533,-0.11057922454286395,0.0034950032985410872
491,-0.0011382330614569947,-0.07174641075262517,0.010382085540053959
492,0.003329478340148073,-8.761548529045982e-05,0.006839546955125843
493,0.005638547175494946,0.05564783725047828,0.005296227075682873
494,0.017813285416635738,-0.0228913575844078,-0.008242813235517316
495,0.009390522324070671,0.056987951735182896,0.0016481003982982657
496,-0.0081674593359361,-0.17749120152529396,0.016534006113303076
497,0.01318625392417716,0.011791745905118334,-0.002907666509786395
498,-0.004717200893192386,-0.05692877313003242,0.014104797621218676
499,-0.00444009792602984,-0.028632993015623387,0.014399762932732119
500,0.004790750296389312,0.05405594746115083,0.006117031932223472
501,-0.010260569105300932,0.11829801471684642,0.022666712405641193
502,0.009495647501760907,-0.22504674025967125,-0.0020033151465942865
503,2.452941910169315e-05,-0.002452602237527468,0.009974765500865214
504,0.010470546589519847,0.011817651926573358,-0.00024816224892947503
505,-0.017007844744905687,-0.06658099107509619,0.026515460176417947
506,0.012565949184521141,-0.17231846257078742,-0.0046897784493350626
507,-0.0022093947479078224,0.10743157260624259,0.014232452953400025
508,-0.007836767627887209,0.005159591456440515,0.01820994517939107
509,0.0009164125987406457,-0.001369766572844766,0.009330225456359767
510,0.006251727651239936,-0.04158221482974661,0.003116232765184941
511,0.011717790454023769,0.0009523757272874578,-0.0015535587009617303
512,0.008919084894461138,0.040961220410836385,0.0016099670564204643
513,0.0033100532980803177,-0.10512330859552205,0.0053905437769983106
514,0.011523430032991389,-0.04995042303155428,-0.002259111457426297
515,0.010446131565584604,-0.06455626142066562,-0.001016092320610187
516,0.0014974857679657116,0.017583115850000386,0.00885828174827875
517,0.0021655219832705797,0.008192325956521529,0.008158517813688558
518,-0.005201995054782804,-0.1607792038770331,0.013658941048589805
519,0.003315980977177002,0.08079771188573359,0.008134264115201222
520,0.004966842540269578,0.09677028336977811,0.0069524969875088575
521,0.01956245441008231,0.03988740782957356,-0.009201473403943419
522,0.0009547465258059606,-0.03082746171355505,0.008989580768270207
523,0.00021447534240737198,-0.08618949200113124,0.008933426548151874
524,0.0027986869470078,-0.03951821907377179,0.006746090598957926
525,0.004244939737519493,0.08959655784238651,0.007406679793733929
526,0.019755414598815024,-0.015006041316921848,-0.009915803809965292
527,0.01624508390478563,-0.055954860236660464,-0.007147104792936625
528,-0.008452719298453926,-0.15898123628534067,0.016649378612488726
529,-0.011531224059954326,-0.18513195604475646,0.019749152990169022
530,0.0022933134959588486,-0.08930342611663328,0.006758116620113833
531,-0.008835526443121244,0.09166367426123412,0.02066075010227232
532,0.008101060088737011,-0.14712713814565426,8.929238919299678e-05
533,0.009331240772601834,-0.08957356527936289,-0.0005273401236379868
534,-0.005129967406058533,0.023781628125474463,0.015776565347045836
535,0.003996681666904589,-0.18283634059712273,0.003970581391358246
536,0.01698302291184106,-0.2034895301769178,-0.009201919338482367
537,0.017705934204825358,-0.1455539842179957,-0.009614163200067014
538,0.008651262811631977,0.005292022777985683,0.001466257913044319
539,-0.008452474369757157,-0.028166282034602697,0.01827506533462274
540,-5.4089512586119604e-05,-0.11455361956834498,0.008718532886372305
541,-0.008614336530026967,0.044089127358876934,0.019662560971971107
542,0.0007130654809370807,-0.27947135449364985,0.00646463118282918
543,-0.0008100620715539852,-0.0021800673491255695,0.010987873178688642
544,0.006256157145456243,-0.027983863301639322,0.003360163222591473
545,-0.0010143314827606442,0.07813056066016644,0.012503675927258701
546,0.014908067488544896,0.04872765034374815,-0.004232535935929082
547,0.007152396155071683,0.12454789276652556,0.005090947953361683
548,0.00046694989283424526,-0.051613223696899024,0.00902882909290911
549,0.03117131608855428,0.017409345613399574,-0.02125571005838392
550,-0.009856921806005947,-0.12630487475594954,0.018548837942600222
551,0.015335438901774356,-0.07499207563768578,-0.006480526183682378
552,-0.006637475294223982,-0.13238279918014006,0.01533533529623819
553,-0.002720752748869515,-0.07146082486289662,0.011934341917116762
554,-0.013103120868070084,-0.07077435879398325,0.022862367531773634
555,0.007848050775164372,-0.17491554205328597,7.200690164572733e-05
556,-0.0011354058640559161,0.031165905767044477,0.01198601543421446
557,-0.0011904620784540798,0.009342272973655974,0.011518221368854574
558,0.015929031663616255,0.006814131560360592,-0.005848556641571668
559,0.008718005698312492,-0.03709921689574286,0.0008337956970834057
560,0.002744750739099633,-0.08910742317175951,0.00636977273912762
561,0.004118944120994561,-0.07074411117756285,0.004963892152722656
562,0.0038286170255636964,-0.1107353737657365,0.004959648042751906
563,-0.0030649297087151917,-0.02564046176218787,0.012889349711320573
564,0.002054443483864077,0.09338196752269412,0.009551854833433208
565,-0.0008814504700900283,-0.020380056801308055,0.010803873851016214
566,-0.0011968258644855512,-0.06322267003044812,0.010582657462057068
567,0.020909984684224003,-0.010782367196718656,-0.010914168468862227
568,0.0020897404684983023,0.016766734280877826,0.00824763956329807
569,0.006538281634251852,0.028698171914029458,0.0038786327576488477
570,-0.011624386473356951,-0.025890416461866017,0.021601147455134015
571,-0.00350227586596652,-0.011278005755841258,0.01350545774479706
572,0.011387371626712772,0.02249162175122954,-0.0010716713043400887
573,-0.004047142488884492,0.08629132668415718,0.015640563811287395
574,0.0038748834942097243,0.037875864559392625,0.006703294235610701
575,-0.0008510911990621262,-0.047978112249388194,0.010589952173757956
576,0.014504202202672234,-0.09410581168415755,-0.0057402180027018405
577,0.0005769323949322835,-0.023599870360313357,0.009120338456039644
578,-0.014874570675512566,-0.07242958707672653,0.024353005954333092
579,-0.006728890961728573,0.06973272615791348,0.01803736578463413
580,-0.022018313771492326,-0.055454503348736084,0.03183353965971364
581,0.011855231026867141,-0.07380067977389765,-0.002836130000535377
582,0.010127186113676467,0.08948926968532878,0.0012721014215318065
583,-0.006005760425595419,-0.026835572852615397,0.015953609842951483
584,-0.0008695895150496735,-0.042536999815225185,0.01061960290045281
585,0.01896411545582999,0.006265831659465593,-0.009017768750180403
586,0.00517459246995422,0.03922413749399978,0.005495672948994979
587,-0.013538707573046871,-0.08821914243594425,0.022676126487366857
588,-0.015533306964929938,-0.11506200713729392,0.024466284597498087
589,-0.006234106052273702,-0.036250142052845324,0.01582739630388405
590,0.0087332799576747,-0.08366627453509545,0.00044891313696316504
591,-0.0032427594623589684,-0.044467563516130626,0.012930683454921382
592,-7.166366594346663e-05,-0.016708835646907894,0.009991097367978
593,-0.004324228043743883,-0.11967469734824754,0.013000669660937455
594,-0.004359602197594237,-0.010927142937171286,0.014490953012385762
595,0.0012802529439206456,0.09552595482535908,0.010527197131329559
596,0.009147049416787345,0.05020435141767021,0.0015463154465922343
597,0.0033659271761392606,0.008126572146901823,0.006836003537463148
598,-0.01503831442598258,-0.011808116510850175,0.02532144932913943
599,-0.0019282662320405652,-0.0106004507895473,0.011999975486279254
600,-0.004175661760835836,0.04170081315558949,0.014983801657824916
601,0.017596869165884987,0.06278153747232795,-0.006635819672070283
602,-0.0038334167087366033,-0.022751159488157258,0.013744745595823588
603,-0.010316219397171533,-0.21726071487297577,0.018163303296953016
604,-0.00519027206954259,-0.03210423018119063,0.015148945877852748
605,0.0022538661748332522,-0.08664019070785417,0.006697323489783594
606,-0.0044398037879402885,-0.10827343735125677,0.013135008111252136
607,0.01120086704067269,-0.07688576376468897,-0.002203141589350707
608,0.010073370299532147,-0.005565439672349348,-0.00012154126707482647
609,-0.01393301065421082,-0.10413885466208178,0.022963160067531317
610,0.008302790862047438,-0.03253152858067715,0.0013240600240331333
611,-0.00613446011731722,-0.11740663158377224,0.015120161037874095
612,-0.001940715046070185,0.092939141546868,0.013567663161852943
613,-0.008233752854682641,-0.013607266846045296,0.018240148431711532
614,-0.0018435919488353214,0.0832039633032915,0.013669736624149664
615,-0.01363401419797139,0.051180733630125985,0.02477475665357215
616,0.011378596484506343,-0.024994465050582948,-0.0017238813768746695
617,-0.01350121286497774,0.03280396363899685,0.024299149664183096
618,-0.009708351133280835,-0.06125885059013225,0.019084709624047354
619,0.005105847665666019,-0.0012737688179532691,0.0049204687407096576
620,0.0016451581858474285,-0.02307761851642459,0.008062213183144559
621,-0.001069690304680182,-0.13264342076935876,0.009595935665953402
622,0.006576394917390482,0.07028834069345191,0.004636208076164621
623,0.0002067744371707647,0.09262105640118279,0.011450177098658424
624,-0.021381597443774436,-0.05304294444729807,0.031057833959238633
625,0.012889462300330834,-0.08962796529647815,-0.004092707857417372
626,0.011336169200888202,0.0030623978879622538,-0.0012215211517610442
627,-0.009796863911643805,-0.06658112466007532,0.019373553196516697
628,-0.004981094487909177,-0.058169836259554075,0.014385303098026998
629,0.004479730617000133,-0.042040514784206395,0.004975069628440724
630,0.00517641841389227,-0.01628964132414884,0.004783583327104316
631,-0.014527774545635253,-0.055910727734369836,0.024218529407713685
632,-0.0035675330131718086,-0.04146584943326892,0.01319591287709154
633,0.007302946232730756,-0.05306747930689576,0.00205523987378092
634,-0.0022991145633527443,0.026016528586737975,0.012770507285420717
635,-0.0063323885635721,-0.11170387085217087,0.015231349353214501
636,-0.006208585526469412,-0.02459353005194731,0.016057899472453573
637,0.026104582926644415,0.0804975633739724,-0.015098089543693459
638,-0.01082568654911098,-0.11081690087489188,0.019945553006862793
639,-0.021313168110181357,-0.038675879570530924,0.031194795899074052
640,-0.005029956241084377,-0.015890693457988603,0.01529825705914409
641,-0.012229371621993668,0.03619452994697303,0.023202670813867735
642,-0.002071050315923806,-0.007035062429535499,0.012170330558195929
643,-0.007739671982968099,0.041504651656421365,0.018602883783258767
644,-0.019129310360072704,0.03481636336278782,0.030102246786490285
645,-0.0036757895990835454,-0.12359837495225973,0.01223072127695741
646,0.0033912308558690096,0.011728166316601563,0.006884527193001668
647,-0.0020038758192162387,-0.012278483969022203,0.012107313060582419
648,-0.006916690401561176,-0.019612197633142536,0.0170167918940233
649,0.013942254091180883,-0.0320295648220687,-0.004442344442090325
650,-0.0007164482142215656,0.09463341927275615,0.012694092136607105
651,-0.0011088104957333034,0.09347506628964797,0.01298750290592161
652,0.0033005878750740347,-0.15927430701847756,0.004915340821605969
653,0.0023819653845411626,-0.022374984133045894,0.007430989571437567
654,-0.010955760329263264,-0.06091460629518636,0.020580040133666988
655,0.01879417384490223,-0.00046205788479519727,-0.009032156688383839
656,-0.024648602393297137,0.10879841136100976,0.03700143802977709
657,0.02078613640218574,-0.12736300594983263,-0.012489827380079987
658,-0.016894555993665183,0.00583531567833695,0.027442225829713972
659,-0.0006603090997452377,-0.09694606631018876,0.00978348118506492
660,0.0064937227532801955,0.051512826864577144,0.0042893244792820045
661,0.004359048879996497,-0.0015330483562834285,0.005809382274452582
662,-0.019547211980356027,-0.01937090259221308,0.02969363289977664
663,-0.0034811544042053777,0.0992013432027955,0.015241752475038084
664,0.00026898166735644935,-0.025390577946875936,0.009455720185506835
665,0.0008995677563468085,0.07351589617442744,0.01038336117341587
666,0.004759506610426012,-0.08195612589185497,0.00433458569335944
667,-0.0025821114694165592,0.04100561811725201,0.013399082278212519
668,-0.003261957198016918,-0.06354481897653891,0.012674709275896203
669,-0.004265429061508952,-0.05618120099643792,0.013703188761596175
670,-0.01288347947302726,0.007342760731825604,0.02329457006058201
671,0.017124293816958014,0.06672203512512476,-0.0060894384790080944
672,0.009977559965093974,0.15198943519174746,0.0026594208394051747
673,-0.00218170140707985,-0.136672000911998,0.010810769480346608
674,-0.012084100441534296,-0.009930106100203506,0.0221903743564053
675,-0.0062507822359521015,0.09323638555718017,0.0180659107860547
676,-0.011164925804237225,-0.2065370665926463,0.01923124263738282
677,-0.0004124808152790038,-0.07588525124269174,0.00950495058803208
678,-0.006209922202692342,0.12170973434722299,0.01856298960523509
679,-0.010792774789877502,0.07893425754012418,0.02236247247817137
680,-0.015898825573715136,0.09439682714647624,0.02786274903520534
681,-0.006983941466004229,-0.23647115773921445,0.014643557236872948
682,0.011691765956429512,0.08172861147797417,-0.0004267313090940661
683,0.007175188253571552,-0.1223070380022589,0.0016375629140100501
684,0.005200032838327706,-0.011465478262382034,0.004719944974805912
685,-0.006037147335272497,-0.030267205294921884,0.01604994144230186
686,0.004149566404910043,0.09664458362994,0.007668078095564124
687,0.0036426849558677254,0.0017145253004616778,0.006496263869171526
688,-0.0038001291018827654,-0.05431227821307477,0.013379040496417475
689,0.012038212791564362,0.03131816927184072,-0.0017027318558901243
690,-0.0038643554055239893,0.10927668601691798,0.01597304080900158
691,0.008714110243759565,-0.05642372982966376,0.0005541503334445224
692,0.005185577935928665,0.013606695554915893,0.0052358943705488855
693,-0.017173268422987942,-0.04587176038673535,0.02700706037351374
694,0.014761079925962761,-0.02406525006593474,-0.005062205986108529
695,0.0061185863039363575,0.007367214752595164,0.00390631626424547
696,-0.001728860838223878,-0.08452631993592119,0.010820501200147919
697,-0.010331200757943027,-0.0661454059964518,0.019835623667521576
698,-0.004503540570783282,0.02032645549990042,0.015099831658406946
699,0.0020313826399642743,-0.061588753107835625,0.007437435640598597
700,-0.0011714044062823836,-0.056295295921295285,0.010775047729492143
701,-0.008521408948286013,0.06919436243897803,0.02009199681227492
702,0.006920431734331212,0.007585417446474452,0.0032160690557124327
703,0.0002645242646195367,0.08767807896328106,0.011246637559287774
704,0.0018822872567036963,-0.01165796216160564,0.008131747606953468
705,-0.011186194832268681,-0.07249592449089853,0.020616198290533794
706,0.0007551149202820184,5.242574717345683e-05,0.009459219938849493
707,-0.0013610776655635926,-0.012560630630442549,0.011124989127192748
708,0.0023919116920618766,-0.0037666702773946903,0.0075287965145394995
709,-0.004975623317734046,0.0030202179287190933,0.015160109403932438
710,0.013676519300642509,-0.0709661538643338,-0.004673022133901759
711,-0.009032353167469087,-0.04608733153102346,0.018645637280176743
712,-0.00492135665938831,0.05200178110672504,0.01621981664635241
713,0.0048160267396566425,0.006694620890287606,0.005544898502010256
714,0.024206045476518723,0.06685566220869699,-0.013092431163110632
715,-0.002942557213815644,0.021531144061101903,0.013546793675385015
716,-0.015807516985214876,0.05901096788358706,0.027287417893757264
717,-0.025248042875930188,0.09779505309815961,0.037499142256772214
718,0.011537015255999927,-0.004903958347082127,-0.0016729926601810803
719,0.01994592899765779,0.001812461696230061,-0.009790513038549943
720,-0.0007089211834400144,-0.09531788643175626,0.009806438351739234
721,0.002094587323431485,-0.0011050792187681235,0.007868766074103951
722,-0.0022900550009791187,0.07236040570643343,0.013944632377596099
723,0.008209653290227603,0.06278380953478302,0.0030150779724095627
724,0.0006195806282578431,0.05463149033808634,0.010485522819967445
725,-0.013047971388009283,0.020101878599564582,0.023925579883298815
726,-0.009911280284573332,0.03612843736878857,0.020806327060892728
727,0.008264395901211419,-0.07247383434780202,0.0008531943136980772
728,-0.015319817299598415,-0.060960252273856985,0.024813960868150572
729,0.009972770831967903,-0.02559668218272898,-0.00038607762300471224
730,0.0007390411460925783,0.01120519077651716,0.00988384340692719
731,0.001720764719589818,-0.005664607054020276,0.008325465641527625
732,-0.00890894205037518,-0.005314322529574256,0.018936330736055062
733,-0.024866190892749662,0.058388782300901276,0.03653505164332746
734,-0.0043037722003954615,-0.0003465907223065834,0.014522254261946728
735,0.0043042627671807665,-0.043602744580909514,0.005119737759206327
736,-0.012049512644804694,0.04233460874998629,0.022967101670632293
737,-0.003973603895136679,-0.002429981766968181,0.014142114003722055
738,0.00664852506952518,0.04316979467653281,0.004104181475592122
739,0.003955497885395065,0.07648916200655898,0.007329613381806121
740,0.0038716634894140345,-0.05065711923007321,0.005499872938545377
741,-0.0011075622311065292,-0.04887320190953298,0.01069346092547894
742,0.005328496028333296,-0.0831581156332909,0.003851895113588034
743,-0.0029713292742273856,-0.058546576271821416,0.012304993423786981
744,-0.013488648880841114,0.06417297905604691,0.024891784926545188
745,-0.015377317770402854,-0.07587899292285755,0.02456954524290304
746,-0.0016522794747322322,0.0454401408804449,0.012567352144172582
747,-0.0004099841513143243,0.02835642747773659,0.011012739889660771
748,-0.008038962808210703,-0.07413477838771021,0.017266324602156602
749,0.017067426401828456,0.11941114470569836,-0.005018441066435844
750,-0.012884912650655389,0.047074505851568804,0.024193955595148146
751,-0.0022815706232451882,-0.10278707908675333,0.011169052148505033
752,0.02481072899153247,0.050292421752162864,-0.014276422570818431
753,-0.008675151687815075,0.04070012281440416,0.019535207572311628
754,0.005730882794888537,0.07510304257976996,0.005594629402769169
755,-0.0007469162997413292,0.016713820800032697,0.011121510452096117
756,0.0005643458394930523,-0.02048970025978214,0.009439891845612874
757,-0.0032955593796087923,0.047393063183734485,0.014258756989063114
758,-0.011448554452029858,-0.04144732185087646,0.021200531772168688
759,-0.022651096373637047,0.0370808144593201,0.03374585222064652
760,0.004600835724778207,0.03579031985492487,0.0061818061402284
761,-0.005848952629154414,-0.05254931314222999,0.015252198829979352
762,-0.004840949282433948,0.08328773751663443,0.016455720314700193
763,-0.00256787853722773,0.0345915965678939,0.013213210609809904
764,0.003645979414257594,0.01661114220992954,0.006679159134474139
765,-0.01743678481914912,-0.17038332022166436,0.02585979512584163
766,-0.006406206953266991,-0.012021303452754484,0.016720754921856495
767,-0.013974253901578582,0.04535936456669165,0.025034980078025
768,-0.01449176911101091,-0.018802172721072485,0.024880563425378206
769,-0.012211430735214024,0.023736296179827976,0.022977443470785147
770,-0.0011841062656553492,-0.04007978333655687,0.010722559749810352
771,-0.013062700762669466,-0.06211125951732277,0.022506335973249407
772,-0.02197817779773359,0.06431763275478009,0.03356189510226323
773,-0.013709186206133817,0.019695939066833534,0.024207570887492147
774,-0.012803691217861068,0.08031882900956577,0.024765889123174747
775,-0.019199616793696972,-0.2443954270135834,0.02674165321998371
776,0.0035903181806384854,0.004558997995273484,0.006839436411235692
777,0.020985512364366965,-0.12861531492914907,-0.012735581857739271
778,-0.00999787437202515,0.041081781448970456,0.020727070597903366
779,0.007868518731878105,-0.028757716770832498,0.001844416130721038
780,-0.000503479525715167,0.060670354693357464,0.011561898903394468
781,0.007087584504508859,0.013118089651447895,0.003137584038949535
782,0.008941626408606407,0.007775410055786636,0.0011318145400853608
783,0.005293363143353602,0.0194509179719351,0.0049579124497633525
784,-0.006960478761404487,-0.00451261261234176,0.017210052718733822
785,0.008722336257869667,-0.03434165205579265,0.0007812835376193106
786,0.00177807169130495,-0.08053991951515055,0.007247857172395016
787,0.010171492358759249,0.06377570280278222,0.0008544836432733063
788,0.00594185710733619,0.03671020551369086,0.004615855053520863
789,-0.010086516373972176,0.01732628182742446,0.02071972841444076
790,0.0013519485231789918,-0.1314848040605025,0.007064780286184032
791,0.0028862856226383737,-0.20930853019885687,0.004805418388233738
792,0.002484141061956713,-0.07552228652267218,0.0068217624221559164
793,-0.003950941690991527,-0.036572820706530174,0.01364465988907432
794,0.011321144542592476,0.0325846690401872,-0.0008368157290899034
795,-0.0043503353158760305,-0.055744152702549066,0.013724030211449462
796,0.0008427060948763554,0.04191730516378844,0.010171503527469759
797,-0.01289163451599351,-0.01964694624434038,0.022976065219387602
798,0.007801830303993285,-0.03792400825622516,0.001693799286954527
799,0.000563931378648963,0.024293426984932087,0.009961646768452192
800,-0.0035996216839326856,-0.05142220379628054,0.012967387838053946
801,0.0013438589846672677,-0.04163719786983189,0.00826690572165735
802,-0.010863885699476383,0.004928606924419321,0.021177505606587328
803,0.0008016111482349597,-0.06216040928317229,0.008543558390926409
804,0.003148224122983434,-0.12529031513406558,0.005398540010912257
805,-0.0013126746457571281,0.010208992944985229,0.011668415292833379
806,0.005342032441547628,0.07322485263764988,0.005979437669314393
807,-0.00036337835163635646,-0.05131066634862075,0.009784576976384778
808,-0.01808224291018201,-0.1007531296763689,0.027055374566381216
809,-0.003183637382015103,-0.0900655405359202,0.01233899507121605
810,-0.00876141279139564,-0.013585638341159334,0.01880741487983596
811,-0.00011123461046225191,-0.08427563809081323,0.009224199304755711
812,-0.00766131082929733,0.022054156000735903,0.01833676973225556
813,0.002723811998642134,0.05769486977615146,0.008401911556920095
814,0.006981935053457677,-0.010369457175687491,0.0030546819557876006
815,0.01469693175628528,-0.08606328310154016,-0.005685528533417892
816,0.003180402091741641,-0.1983698772538557,0.004747116064863621
817,-0.01150914092964661,0.09838223428440773,0.023485475710575156
818,-0.0082561230736663,0.05641917713249056,0.01935690291840929
819,0.0005859892320296822,0.1274736405341338,0.01176402950987067
820,-0.0002271362669759025,0.027119118938836784,0.010909110899324514
821,-0.0055425459532836285,0.06840833576835881,0.01704587214679923
822,0.010182533269327276,0.021157578849228087,3.80882780527827e-05
823,-0.007461593767839281,-0.04959530429900255,0.01722000055740027
824,0.007605826466337007,-0.042128714945773915,0.0019045811000924005
825,0.009173447616628083,0.15411614289339892,0.003750638275297388
826,0.012283707176322434,-0.15949465889026054,-0.0041551889469166785
827,-0.004132806313194792,0.01675149531356157,0.01457752853773145
828,-0.009741979933468592,-0.08242974026628169,0.018962252874826845
829,-0.015456171933197371,-0.04368342243314316,0.025175553342396417
830,0.004595289069777575,0.005741185197686294,0.005531449238825916
831,-0.005267952419093946,-0.011000308516934176,0.015230879834221377
832,0.004595108948469262,-0.11395674753773943,0.004312037784932181
833,-0.018711668761173583,0.0233274906299189,0.0295653406836047
834,0.005438938253553793,0.1042043462034824,0.0063573587527183915
835,0.008162232033798844,-0.10897044114991838,0.0003541988561364633
836,-0.012064076658359069,-0.07099074845659392,0.021565830078928958
837,-0.006614643185865354,0.10583740326662472,0.01878364892725713
838,-0.0066757449334178265,-0.05397219447193208,0.01614397351043408
839,0.011227215540667634,-0.11112099804109798,-0.0025765753718811537
840,0.003232831202111708,0.062136845800621066,0.00805922602416631
841,0.010819786940851728,0.02086522782746747,-0.0006287321112933569
842,-0.02750101881279743,0.011444408870268763,0.03815137943331847
843,0.00028192279577532453,0.0033743673894096604,0.009705919067892683
844,0.0018605884584326216,0.0031364259738317912,0.008512874121247115
845,0.0008050522220997003,-0.12252458870265986,0.007734563858569527
846,0.00038718610825183575,0.03201883803314176,0.010385285897475841
847,0.007282480122255963,0.06965152410040609,0.003964635447505498
848,0.01235350109241673,0.0850292262788842,-0.001029407809858094
849,-0.01213390062376496,-0.00582761104466295,0.02235336042947747
850,0.00630227319992871,0.05995442837178988,0.00485642292077464
851,-0.00980159072620257,-0.04478131439994465,0.019377727779962516
852,0.003857961888739103,0.08955916231467731,0.007618114859462366
853,-0.010920245921478666,0.06565837455835866,0.022564333858283134
854,-0.013048350720553548,0.012412869267397486,0.023583111636821013
855,-0.014529263134003045,0.05225926338300069,0.025966046033954082
856,0.0002919128304463836,0.024717779820475294,0.010170718095773008
857,0.019814680500872095,0.07283410564386772,-0.008953052531846879
858,0.015434078547652552,0.013108873447697289,-0.005236876884123558
859,-0.012013229879911713,-0.12834472653136048,0.020888403431692494
860,0.012130764800376115,-0.015969140159431183,-0.002413726549115563
861,-0.004633374277816404,-0.1223662692953903,0.013281634808062517
862,0.02030550132200526,-0.276836676355514,-0.013051507505139852
863,-0.007478756516756113,-0.24121777538033412,0.014962894509164652
864,-0.004396119519059383,0.016556647166176885,0.014791444481989857
865,3.890414739915471e-06,0.04355017495575009,0.01072277189854649
866,0.00025224260335310333,-0.22188864777396206,0.0074024508346463335
867,-0.010028196439205384,-0.00044227567020721503,0.020375933510979483
868,0.0020714589998811483,-0.0005660893621656227,0.008132083231868273
869,-0.004000890388312195,0.01701244960479731,0.014394900910461729
870,0.0068258139772077175,0.012560425471149328,0.0034054795648677098
871,0.01490422711402406,0.04211873219246953,-0.004313832027781245
872,0.013726441940744127,0.0268413601664087,-0.003112347158063676
873,0.015997239011577014,0.07337500043550804,-0.004710371927887354
874,0.008135622115437169,-0.08722456596952743,0.0008543167246458324
875,0.022910001976311767,-0.04816410754279016,-0.013715708813054152
876,-0.009147084232570601,-0.04317944647042943,0.018813069989075847
877,0.018907798503309703,0.0008024729897542215,-0.00890836572089811
878,0.005401308776924685,0.04156405752180825,0.00526694800194291
879,-0.0011366647359088988,-0.16450681738125117,0.009229780598182151
880,0.0040078559859628715,0.008308968787567372,0.006203541090324143
881,-0.010748999071301335,-0.01806415207931944,0.0207431075855593
882,-0.0030105953284593756,-0.012408001230723664,0.013096663965324114
883,-0.0019941141658911254,-0.06522439815320685,0.011400059908479306
884,-0.0035314954902586626,-0.155988290439935,0.012013433824604545
885,-0.008304851626429355,-0.030517314502403803,0.018279109667360537
886,0.01695182119908467,0.03622292276438366,-0.006520004103051724
887,-0.0012837041624071954,-0.09028525963125883,0.010354328116627586
888,-0.002020468020336841,-0.10383272041873604,0.010987470581072922
889,-0.0037416921664780167,0.04712593853892966,0.014610695503407078
890,0.0008037525083206543,0.07617253740509022,0.010576364056446073
891,0.02437707544658685,0.02971642556277665,-0.014285998188957092
892,-0.006074641344776088,-0.015328922706466797,0.016056025259465243
893,0.026193786554908005,0.018649785204744806,-0.016195169728309703
894,0.010807666402089744,0.05048420936557918,-0.00017419454454629886
895,0.01387793301237994,-0.06910163797126773,-0.0046668557908384175
896,-0.013360510273270232,0.10253468258186493,0.025613453621191367
897,-0.006660696626159535,0.05285803575932957,0.017672728316522262
898,0.011759079087591218,0.0764097708185193,-0.0004399970725953608
899,-0.0037283907780889525,-0.026948755403946867,0.013669577705980191
900,0.003953572055003685,0.0927375222138952,0.007889450180420317
901,0.0022322610511973373,-0.14432683838255433,0.006173007241441519
902,0.00048744287856772317,0.11557497397094862,0.011714282385803744
903,-0.0010081209544231529,-0.07272298732782023,0.010212730303034732
904,-0.0074924294705825956,-0.20342296187798375,0.01535644448678613
905,-0.014468199007565796,0.006405378960109176,0.02491315500787041
906,-0.013308474505142387,0.08393357979534066,0.02494817913585848
907,0.0023655936753190776,-0.07383909197325289,0.0067960608264933395
908,-0.02259941261971754,-0.0010015674368529792,0.033076419810212795
909,-0.0050905915063245155,-0.02686228923253242,0.015056430932895092
910,-0.0008767613342480773,-0.0002840055397168584,0.011014728391619065
911,0.006925336380287694,0.011941064963832182,0.0032713396108913
912,0.0031438293747581003,0.08434450233775892,0.008205632387944752
913,-0.012391783369232634,0.0344931797964767,0.023175921245888822
914,-0.0027878544563668672,-0.13070791616135907,0.01139035930172522
915,-0.005075855386161066,-0.1536509449190609,0.013572189059042103
916,-0.0072438250356671174,-0.01370279704859978,0.01722106678432192
917,0.003928531291166326,-0.045375182412575654,0.005464562213167665
918,0.00825537762492723,-0.15488268496221425,3.3848157412103316e-05
919,-0.009625283676923724,-0.10849390644712648,0.01854842615619982
920,0.0027975523365220134,0.06952232769320865,0.008424275981739811
921,-0.00878176350482518,-0.06415325768576474,0.018389690354155573
922,-0.00520303340564543,-0.12736700499111075,0.013788896213524821
923,0.008789336527545322,0.09708171414628586,0.0027796476613679262
924,-0.0053682044103658955,-0.18214851741923044,0.013489568166472236
925,-0.0036557562754108153,0.09278223466761393,0.0153994107389688
926,-0.0034253132149749677,0.04190392259343989,0.014382878631992207
927,0.005489713722560907,0.09305960743893893,0.00630578731715068
928,-0.000298690396664969,0.020511104541412695,0.010745036867014824
929,0.0005623000981676007,0.002838622208916508,0.009591262930773154
930,-0.008706185704457692,-0.10860083675320192,0.017644616005084025
931,0.004925057686941292,0.03369974894660843,0.005630389228842068
932,-0.012617300163935363,-0.02142889143675747,0.02259000735288264
933,0.0003630489062738107,-0.2397131651331864,0.007037713234120747
934,-0.006501203466642402,-0.07859603439421337,0.015654720761483623
935,-0.012103616908828663,-0.012910689397154729,0.022219919773092806
936,-7.54981590028736e-05,0.0050618331090211965,0.010319155401754869
937,-0.010764663294278165,0.006807806660875437,0.021185097943246727
938,0.007998793845706453,0.06458806294898478,0.0030421333536220117
939,-0.022234623487298655,0.01587617138791908,0.033089019807730984
940,-0.016132765409540117,-0.10555940004778813,0.025033107592577653
941,-0.0032064934206216256,0.05994965680835773,0.014302327204805624
942,0.009690052276887684,-0.07843095710963033,-0.0006329887323352522
943,0.007611162971359109,0.0024932476548505944,0.002491195334971053
944,0.009877284869240333,-0.014864911634315858,-1.2131574973318493e-05
945,0.005305523290859648,-0.11659395003861572,0.0032144994937541925
946,-0.0033626843783760574,0.10407382580998725,0.015453639864574507
947,0.004444562219216852,0.0333524614746632,0.006202119257609957
948,-0.016143908559175135,-0.02154653296011233,0.026100340259873518
949,-0.013193088066665526,0.033712059440660025,0.024112674011739
950,0.008782904726430063,0.06276572846152029,0.0020999143744336833
951,0.0009105065513428379,0.05693247374402788,0.010055750858997818
952,-0.014052840454288007,0.14510211570945364,0.02734579716390217
953,-0.006146628396193954,0.04948902581016523,0.01725573704103499
954,-0.006088893755387903,0.096013052378501,0.01802583537137125
955,-0.01151835751913155,0.0898127659239859,0.023438556928182332
956,-0.005006379836365427,-0.05117290528947316,0.014400444074158986
957,-0.009124823168451313,0.013355125717802063,0.01972576830317648
958,-0.0017953361514684296,0.06077600391458793,0.012949766979783998
959,-0.0030745477847048397,0.0035692498514070525,0.013287021173637368
960,-0.008789049285378936,0.05592204005737933,0.019932445398204254
961,-0.015690433830161665,0.03976865658033901,0.02675950247894016
962,-0.009254281160332556,0.00863213800018614,0.01961972314838149
963,-0.01136572325277796,0.12951549738876145,0.02422217555381085
964,0.00695006609178872,-0.09469713395717755,0.0021348066289507187
965,0.012687421194008008,-0.06849008569006937,-0.0033304633331745206
966,0.01521630277988062,0.05341048703344442,-0.004410046691414027
967,0.00851955222055012,-0.11438600049303399,0.0003879971832540832
968,0.003361433777425926,-0.026305879398582088,0.006384444785012601
969,0.0069354629503932674,0.0034636060226260756,0.003033279816776667
970,-0.004755462568701518,-0.31885196083684786,0.011675282803980735
971,-0.0030185484641140903,0.04321956592162468,0.01386345753029491
972,0.0008498749853904641,-0.05997411093192123,0.008684132775203761
973,0.0030164144718578534,-0.006536716078921756,0.006919871573882301
974,-0.005846817947744221,-0.07203127284935512,0.015132243008130536
975,0.008343350252533632,0.08673170226630722,0.003335292396684781
976,-0.015463766352450503,0.005564181651715794,0.02604904870155842
977,-0.009714959953704638,-0.09457436468544966,0.019131196369885764
978,-0.0016839719969168332,0.02575916928660149,0.012174734260422702
979,0.017104899796693163,0.046010401420053304,-0.0065052735832188775
980,-0.0029612854497549357,-0.053601529689930205,0.012487361675109969
981,-0.005693080334169154,0.11174140297873258,0.0177821506614815
982,0.010983322176170818,0.08564691211254805,0.0003306263315214892
983,0.00196521928594362,0.04306649265964746,0.009140129898412851
984,0.0008327750865968486,0.05105870707237237,0.010456554020560178
985,0.0016651118142112509,-0.03578891289613301,0.008062806033046035
986,-0.008764229802744605,0.10615372569558024,0.020855806000097253
987,0.002771327146401381,0.011939289366939332,0.007732478462079052
988,0.0027162642604399156,0.030981094324687097,0.007803430029127412
989,-0.004867346159812103,0.03210936582422519,0.01570209109938569
990,-0.012673484265757096,-0.02698408101634381,0.022805403021743588
991,-0.025693688344096133,0.04909018068625026,0.037174523880276866
992,0.007913273446974012,-0.30761375287413484,-0.000981293723244562
993,0.003699248742596195,0.006488604589347857,0.0063941273337148235
994,-0.00928208232081762,0.04569381370149361,0.020496689741055344
995,0.005470663242742813,0.07135842844172668,0.005686021191643158
996,-0.010382640904835316,0.07987777424156306,0.022183140948619076
997,0.005022116483571981,0.07979930866663609,0.006331332485140229
998,-0.0271704418541443,0.08100450177101515,0.039121106073576814
999,-0.024486137097342375,0.0731975219319907,0.036274005887782915
