,0,1,2,3,4,5
0,0.03975903614457832,0.050000000000000044,0.25,-0.09999999999999998,0.15,0.04
1,-0.275,-0.033333333333333326,-0.25,0.033333333333333326,-0.1,0.29
2,-0.04285714285714293,0.050000000000000044,-0.16666666666666669,-0.09999999999999998,-0.1,0.13
3,0.03506493506493502,-0.44999999999999996,0.2272727272727273,-0.3,-0.1,0.09
4,-0.01904761904761909,-0.36666666666666664,0.16666666666666663,0.2,-0.1,0.09
5,-0.10588235294117654,-0.04999999999999993,0.0,-0.04999999999999999,-0.1,0.2
6,0.0012345679012345512,-0.36666666666666664,-0.5,-0.3,0.06666666666666665,0.15
7,0.02941176470588236,-0.033333333333333326,-0.25,0.2,-0.1,0.05
8,-0.018421052631579005,-0.12857142857142856,0.25,-0.09999999999999998,0.15,0.11
9,0.0,0.050000000000000044,-0.5,-0.3,-0.1,0.06
10,0.0,0.17500000000000004,0.25,-0.3,0.15,0.07
11,0.0014084507042253502,0.10000000000000009,-0.09999999999999998,0.5333333333333334,0.2333333333333333,0.06
12,0.018604651162790642,-0.09999999999999998,0.0,-0.3,-0.1,0.07
13,0.024050632911392422,0.07777777777777783,0.0,0.033333333333333326,-0.1,0.06
14,-0.0014492753623188692,-0.12857142857142856,-0.16666666666666669,0.10000000000000003,-0.1,0.16
15,0.00588235294117645,-0.29999999999999993,0.09999999999999998,-0.3,-0.1,0.08
16,-0.0071428571428571175,-0.07499999999999996,0.0,-0.04999999999999999,-0.1,0.08
17,-0.02658227848101269,0.10000000000000009,-0.5,0.033333333333333326,-0.1,0.11
18,-0.18125000000000002,0.13870967741935492,-0.5,-0.3,-0.1,0.15
19,0.01764705882352935,-0.7,0.0,0.2,-0.1,0.07
20,0.0024390243902439046,0.0,-0.16666666666666669,-0.3,0.15,0.07
21,-0.12222222222222223,0.014285714285714346,0.19999999999999996,0.2,-0.1,0.23
22,0.03827160493827153,-0.09999999999999998,0.0,0.033333333333333326,-0.1,0.07
23,-0.04117647058823537,-0.033333333333333326,-0.25,0.033333333333333326,0.4,0.11
24,-0.01904761904761909,0.050000000000000044,-0.25,0.10000000000000003,-0.1,0.1
25,-0.06867469879518073,-0.033333333333333326,-0.25,0.2,-0.1,0.15
26,0.018604651162790642,-0.033333333333333326,0.09999999999999998,-0.3,0.15,0.05
27,-0.04285714285714293,-0.7,0.25,0.033333333333333326,0.1,0.12
28,-0.034146341463414664,-0.09999999999999998,0.16666666666666663,-0.3,-0.1,0.14
29,0.0,0.09069767441860466,-0.3,-0.09999999999999998,0.042857142857142844,0.17
30,0.04047619047619044,-0.19999999999999996,-0.25,-0.3,0.2333333333333333,0.07
31,0.0444444444444444,0.050000000000000044,0.16666666666666663,0.2,-0.1,-0.01
32,0.024242424242424176,-0.04999999999999993,0.0,0.033333333333333326,0.1,0.11
33,-0.03953488372093028,-0.36666666666666664,0.16666666666666663,0.2,-0.1,0.1
34,-0.022448979591836782,-0.021428571428571352,0.16666666666666663,0.36666666666666664,-0.1,0.16
35,-0.05116279069767449,-0.29999999999999993,0.0,0.36666666666666664,-0.1,0.11
36,0.020454545454545392,-0.19999999999999996,-0.5,-0.3,-0.1,0.06
37,0.006666666666666599,-0.09999999999999998,0.0,0.033333333333333326,-0.1,0.13
38,-0.05853658536585371,-0.033333333333333326,0.2777777777777778,0.2,-0.1,0.1
39,0.04047619047619044,-0.19999999999999996,0.09999999999999998,0.033333333333333326,-0.1,0.06
40,0.047368421052631504,0.18888888888888888,-0.09999999999999998,0.45,-0.1,0.05
41,-0.011111111111111183,0.13333333333333341,0.0,0.2,-0.1,0.08
42,-0.0046511627906976605,-0.033333333333333326,-0.25,-0.3,0.2333333333333333,0.08
43,0.051219512195121886,0.014285714285714346,0.16666666666666663,-0.3,0.1,0.04
44,-0.018421052631579005,0.027272727272727337,-0.25,0.2,-0.1,0.12
45,0.0,0.044680851063829796,0.0,0.2,-0.1,0.14
46,0.03589743589743588,0.20000000000000007,0.0,0.033333333333333326,-0.1,0.04
47,-0.016279069767441867,-0.19999999999999996,-0.5,-0.3,-0.1,0.11
48,0.0,-0.29999999999999993,-0.16666666666666669,-0.3,0.042857142857142844,0.14
49,-0.002272727272727315,-0.19999999999999996,0.25,-0.3,-0.1,0.07
50,-0.009589041095890427,0.027272727272727337,-0.25,0.12857142857142856,-0.1,0.13
51,-0.5666666666666667,-0.05714285714285705,0.0,-0.04999999999999999,0.2333333333333333,0.3
52,-0.21578947368421053,0.0014925373134329067,0.0,-0.09999999999999998,0.30000000000000004,0.25
53,-0.0071428571428571175,0.13333333333333341,-0.5,-0.04999999999999999,0.15,0.08
54,-0.002564102564102555,0.07777777777777783,0.0,-0.3,-0.1,0.12
55,0.015662650602409567,-0.49999999999999994,0.16666666666666663,-0.3,-0.1,0.07
56,-0.9,-0.36666666666666664,-0.02808988764044945,0.10000000000000003,-0.1,0.45
57,-0.003896103896103953,0.08571428571428574,-0.5,0.3,-0.1,0.07
58,0.0024390243902439046,-0.09999999999999998,-0.07142857142857145,0.2,-0.1,0.08
59,-0.0052631578947368585,-0.033333333333333326,0.0714285714285714,-0.04999999999999999,0.042857142857142844,0.12
60,0.006666666666666599,0.10000000000000009,-0.09999999999999998,0.5,-0.1,0.08
61,-0.04285714285714293,0.014285714285714346,-0.5,-0.3,-0.1,0.15
62,0.0012345679012345512,-0.09999999999999998,0.25,-0.3,0.2333333333333333,0.09
63,0.012499999999999956,0.13333333333333341,0.25,0.3,0.1,0.05
64,0.00588235294117645,-0.19999999999999996,-0.16666666666666669,0.2,0.2333333333333333,0.07
65,0.0024390243902439046,0.07777777777777783,-0.5,-0.3,-0.1,0.09
66,-0.020000000000000018,0.10000000000000009,0.2777777777777778,0.2,-0.1,0.08
67,-0.02941176470588236,-0.09999999999999998,0.0,-0.3,-0.1,0.11
68,-0.0034482758620689724,0.07777777777777783,0.0714285714285714,0.2,-0.1,0.11
69,0.03103448275862064,-0.19999999999999996,-0.5,0.2,-0.1,0.05
70,-0.012359550561797827,0.050000000000000044,-0.25,-0.3,-0.1,0.07
71,-0.05789473684210533,0.13333333333333341,0.16666666666666663,-0.04999999999999999,-0.1,0.12
72,-0.0046511627906976605,-0.09999999999999998,-0.5,-0.09999999999999998,-0.1,0.09
73,-0.4,-0.020987654320987592,-0.5,0.325,-0.1,0.29
74,0.03827160493827153,-0.19999999999999996,0.0714285714285714,0.36666666666666664,-0.1,0.04
75,-0.030952380952380953,0.050000000000000044,0.16666666666666663,0.12857142857142856,0.4,0.08
76,0.00588235294117645,-0.033333333333333326,0.25,-0.3,-0.1,0.06
77,0.0024390243902439046,-0.033333333333333326,0.0,-0.13333333333333333,-0.1,0.12
78,-0.06867469879518073,0.050000000000000044,0.16666666666666663,0.2,-0.1,0.11
79,-0.013924050632911467,-0.09999999999999998,-0.16666666666666669,-0.01428571428571429,-0.1,0.14
80,0.016666666666666607,-0.29999999999999993,-0.16666666666666669,-0.01428571428571429,-0.1,0.08
81,-0.03924050632911391,-0.12857142857142856,0.25,0.36666666666666664,-0.1,0.13
82,0.05294117647058816,-0.033333333333333326,0.0,-0.3,-0.1,0.05
83,-0.023456790123456805,-0.19999999999999996,-0.07142857142857145,-0.09999999999999998,0.2333333333333333,0.12
84,0.018918918918918948,0.20000000000000007,0.16666666666666663,0.0,0.2333333333333333,0.07
85,-0.01904761904761909,0.050000000000000044,-0.3,-0.04999999999999999,-0.1,0.11
86,-0.033333333333333326,0.10000000000000009,-0.33333333333333337,0.5333333333333334,-0.1,0.15
87,0.02857142857142858,0.10000000000000009,0.09999999999999998,-0.09999999999999998,-0.1,0.09
88,-0.003896103896103953,-0.033333333333333326,-0.09999999999999998,-0.13333333333333333,0.06666666666666665,0.13
89,-0.03513513513513511,-0.033333333333333326,0.23333333333333328,0.2,-0.1,0.12
90,0.04318181818181821,0.050000000000000044,-0.5,0.2,-0.1,0.03
91,-0.07073170731707323,-0.36666666666666664,-0.16666666666666669,-0.3,0.1,0.18
92,0.05774647887323936,0.06470588235294117,0.16666666666666663,0.2,0.1,0.04
93,0.0012345679012345512,-0.09999999999999998,-0.5,0.325,-0.1,0.09
94,0.07619047619047614,0.15714285714285714,0.0,-0.3,-0.1,0.01
95,-0.07045454545454544,-0.19999999999999996,-0.5,0.2,-0.1,0.14
96,0.01025641025641022,0.13333333333333341,0.2142857142857143,-0.04999999999999999,0.1,0.07
97,0.051219512195121886,0.10000000000000009,0.16666666666666663,-0.3,0.15,0.03
98,-0.9,0.01764705882352946,0.16666666666666663,-0.09999999999999998,-0.1,0.24
99,0.0,-0.19999999999999996,-0.5,-0.13333333333333333,-0.1,0.15
100,-0.038461538461538436,0.12608695652173918,0.25,-0.3,0.2333333333333333,0.08
101,0.004761904761904745,0.10000000000000009,-0.16666666666666669,0.2,-0.1,0.07
102,0.048717948717948656,-0.7,0.2777777777777778,0.3,-0.1,0.06
103,-0.03924050632911391,-0.19999999999999996,-0.09999999999999998,0.2,0.06666666666666665,0.14
104,-0.008433734939759074,-0.19999999999999996,0.0,-0.3,0.042857142857142844,0.11
105,0.052380952380952306,-0.09999999999999998,0.25,-0.04999999999999999,-0.1,0.03
106,0.031818181818181746,-0.7,-0.16666666666666669,-0.3,-0.1,0.06
107,-0.04285714285714293,0.050000000000000044,-0.16666666666666669,0.2,-0.1,0.12
108,-0.032530120481927716,-0.41428571428571426,0.16666666666666663,0.2,-0.1,0.12
109,-0.02658227848101269,-0.29999999999999993,0.0,-0.3,0.2333333333333333,0.13
110,0.03975903614457832,-0.19999999999999996,-0.09999999999999998,-0.3,0.06666666666666665,0.07
111,-0.04457831325301209,-0.033333333333333326,0.0,0.36666666666666664,0.2333333333333333,0.1
112,-0.02195121951219514,-0.09999999999999998,0.0,-0.3,-0.1,0.13
113,0.05945945945945941,0.11250000000000004,0.30000000000000004,0.033333333333333326,-0.1,0.01
114,0.006976744186046435,-0.033333333333333326,-0.5,-0.3,-0.1,0.08
115,0.025925925925925908,0.15714285714285714,-0.09999999999999998,-0.04999999999999999,-0.1,0.06
116,-0.4,0.07108433734939767,-0.09999999999999998,0.3,0.1,0.19
117,-0.023456790123456805,0.10000000000000009,-0.5,-0.3,0.1,0.14
118,0.020000000000000018,-0.033333333333333326,-0.5,0.2,-0.1,0.08
119,0.009090909090909038,-0.36666666666666664,0.0,-0.3,-0.1,0.07
120,-0.023287671232876783,0.0,0.13636363636363635,0.2,-0.1,0.11
121,0.025000000000000022,-0.44999999999999996,-0.125,0.5,0.2333333333333333,0.07
122,-0.050000000000000044,0.042424242424242475,0.0,0.10000000000000003,-0.1,0.21
123,-0.008433734939759074,0.050000000000000044,0.25,-0.09999999999999998,-0.1,0.09
124,-0.2333333333333334,0.050000000000000044,-0.16666666666666669,0.033333333333333326,-0.1,0.2
125,-0.009756097560975618,-0.09999999999999998,0.30000000000000004,0.3,-0.1,0.07
126,0.012499999999999956,0.07777777777777783,0.16666666666666663,0.033333333333333326,-0.1,0.07
127,0.016666666666666607,-0.19999999999999996,-0.5,-0.09999999999999998,0.2333333333333333,0.08
128,-0.012500000000000067,-0.033333333333333326,-0.16666666666666669,0.33636363636363636,-0.1,0.09
129,0.0,0.10851063829787233,0.20588235294117652,-0.3,-0.1,0.13
130,0.032432432432432434,-0.033333333333333326,0.0625,-0.3,-0.1,0.08
131,-0.02941176470588236,-0.19999999999999996,0.30000000000000004,-0.3,-0.1,0.11
132,0.04047619047619044,0.050000000000000044,0.16666666666666663,-0.04999999999999999,0.1,0.04
133,-0.02048192771084345,-0.033333333333333326,-0.09999999999999998,-0.3,-0.1,0.13
134,-0.30000000000000004,0.03076923076923077,0.0,0.10000000000000003,0.06666666666666665,0.24
135,0.015662650602409567,-0.19999999999999996,-0.09999999999999998,0.2,-0.1,0.09
136,-0.027906976744186074,0.050000000000000044,0.25,-0.3,-0.1,0.09
137,0.025000000000000022,0.15714285714285714,0.09999999999999998,-0.3,0.06666666666666665,0.06
138,-0.02048192771084345,0.10000000000000009,-0.16666666666666669,0.45,-0.1,0.09
139,-0.4,0.0590361445783133,0.16666666666666663,-0.3,-0.1,0.23
140,0.03975903614457832,-0.19999999999999996,-0.09999999999999998,0.2,0.15,0.05
141,-0.050000000000000044,-0.29999999999999993,0.0,0.033333333333333326,-0.1,0.16
142,0.02682926829268295,-0.7,-0.3,-0.3,0.3285714285714285,0.1
143,-0.008108108108108136,-0.19999999999999996,-0.16666666666666669,0.14444444444444443,-0.1,0.15
144,-0.04864864864864871,0.10000000000000009,0.038461538461538436,-0.04999999999999999,-0.1,0.15
145,0.012499999999999956,0.10000000000000009,0.0,0.10000000000000003,-0.1,0.09
146,0.04117647058823526,-0.19999999999999996,0.25,0.3,-0.1,0.03
147,0.04047619047619044,0.050000000000000044,0.25,-0.09999999999999998,-0.1,0.04
148,0.016666666666666607,0.15714285714285714,-0.5,0.36666666666666664,0.4,0.04
149,0.015662650602409567,-0.36666666666666664,0.16666666666666663,-0.3,-0.1,0.08
150,-0.01904761904761909,0.050000000000000044,0.16666666666666663,-0.09999999999999998,0.15,0.09
151,0.027710843373493943,0.014285714285714346,0.16666666666666663,0.2,-0.1,0.03
152,0.06341463414634141,-0.09999999999999998,0.33333333333333337,-0.3,0.15,0.02
153,0.023076923076923106,0.10000000000000009,0.2142857142857143,-0.04999999999999999,-0.1,0.08
154,0.03023255813953485,-0.19999999999999996,-0.16666666666666669,-0.3,0.2333333333333333,0.06
155,0.04805194805194801,0.050000000000000044,0.16666666666666663,0.2,-0.1,0.03
156,0.019540229885057436,-0.033333333333333326,-0.09999999999999998,0.36666666666666664,0.4,0.03
157,-0.013636363636363669,-0.7,-0.5,0.2,0.1,0.09
158,-0.025000000000000022,0.050000000000000044,0.0,-0.3,0.15,0.11
159,0.054545454545454564,-0.033333333333333326,0.16666666666666663,0.033333333333333326,-0.1,0.01
160,-0.050000000000000044,0.07777777777777783,-0.09999999999999998,-0.04999999999999999,-0.1,0.12
161,0.06341463414634141,-0.7,-0.16666666666666669,0.2,-0.1,0.06
162,0.016666666666666607,-0.19999999999999996,0.125,-0.04999999999999999,-0.1,0.06
163,-0.013924050632911467,-0.033333333333333326,-0.09999999999999998,0.10000000000000003,-0.1,0.1
164,-0.034146341463414664,-0.09999999999999998,0.09999999999999998,0.10000000000000003,-0.1,0.11
165,0.04117647058823526,0.050000000000000044,0.16666666666666663,0.2,0.15,0.02
166,-0.05116279069767449,0.13333333333333341,0.25,0.033333333333333326,-0.1,0.08
167,0.051219512195121886,-0.033333333333333326,0.16666666666666663,0.36666666666666664,0.2333333333333333,0.02
168,0.03827160493827153,-0.19999999999999996,-0.09999999999999998,0.2,0.2333333333333333,0.06
169,-0.011111111111111183,-0.12857142857142856,0.16666666666666663,-0.3,0.042857142857142844,0.11
170,-0.03580246913580254,-0.19999999999999996,0.0,0.033333333333333326,0.06666666666666665,0.13
171,0.02941176470588236,-0.19999999999999996,0.16666666666666663,0.2,-0.1,0.06
172,-0.009756097560975618,-0.19999999999999996,-0.16666666666666669,0.10000000000000003,-0.1,0.12
173,-0.02048192771084345,-0.36666666666666664,0.0,0.10000000000000003,-0.1,0.1
174,0.03103448275862064,-0.05483870967741933,0.0714285714285714,0.36666666666666664,-0.1,0.1
175,0.036708860759493644,-0.19999999999999996,-0.3,0.07500000000000001,0.06666666666666665,0.1
176,-0.015384615384615441,0.050000000000000044,0.30000000000000004,0.10000000000000003,-0.1,0.09
177,-0.060493827160493896,-0.29999999999999993,-0.25,-0.3,0.06666666666666665,0.18
178,-0.01764705882352946,-0.44999999999999996,0.25,-0.04999999999999999,0.2333333333333333,0.09
179,-0.008433734939759074,-0.19999999999999996,-0.16666666666666669,-0.04999999999999999,-0.1,0.12
180,-0.0071428571428571175,-0.09999999999999998,-0.5,-0.3,-0.1,0.12
181,0.01025641025641022,-0.44999999999999996,0.08333333333333337,0.36666666666666664,-0.1,0.09
182,0.015254237288135575,-0.0461538461538461,0.125,-0.04999999999999999,-0.1,0.13
183,-0.0071428571428571175,0.050000000000000044,0.16666666666666663,-0.04999999999999999,-0.1,0.09
184,-0.0410256410256411,-0.033333333333333326,0.16666666666666663,0.2,0.1,0.11
185,0.0014084507042253502,0.1461538461538462,-0.16666666666666669,-0.04999999999999999,-0.1,0.12
186,0.036708860759493644,-0.19999999999999996,0.2272727272727273,-0.3,0.2333333333333333,0.05
187,0.02941176470588236,-0.033333333333333326,0.25,-0.13333333333333333,-0.1,0.05
188,-0.30000000000000004,0.01764705882352946,-0.09999999999999998,0.2,-0.1,0.22
189,0.020000000000000018,-0.09999999999999998,0.16666666666666663,0.2,-0.1,0.11
190,0.01764705882352935,-0.033333333333333326,0.25,0.2,-0.1,0.04
191,0.016666666666666607,0.050000000000000044,-0.25,-0.3,0.4,0.05
192,-0.1105263157894737,0.08000000000000007,-0.25,-0.3,0.15,0.19
193,-0.05384615384615388,-0.19999999999999996,-0.09999999999999998,0.07500000000000001,0.1857142857142857,0.16
194,0.013580246913580174,0.014285714285714346,0.0,0.033333333333333326,0.1,0.07
195,-0.012500000000000067,-0.44999999999999996,-0.16666666666666669,-0.04999999999999999,0.2333333333333333,0.13
196,0.019354838709677358,-0.033333333333333326,0.1923076923076923,-0.3,0.06666666666666665,0.15
197,-0.4,0.0023809523809523725,-0.16666666666666669,-0.3,0.024999999999999994,0.28
198,0.02682926829268295,-0.19999999999999996,-0.33333333333333337,-0.3,-0.1,0.1
199,-0.03157894736842104,-0.033333333333333326,0.25,-0.09999999999999998,-0.1,0.13
200,-0.5666666666666667,-0.013953488372092981,0.16666666666666663,-0.3,0.06666666666666665,0.27
201,-0.5666666666666667,0.014285714285714346,-0.33333333333333337,-0.04999999999999999,-0.1,0.27
202,0.05348837209302326,-0.19999999999999996,0.09999999999999998,-0.3,0.4,0.02
203,0.0024390243902439046,-0.033333333333333326,0.16666666666666663,0.2,-0.1,0.06
204,0.027710843373493943,-0.033333333333333326,0.16666666666666663,-0.3,-0.1,0.05
205,0.052380952380952306,-0.033333333333333326,-0.16666666666666669,-0.3,0.15,0.04
206,-0.013636363636363669,0.04418604651162794,0.09999999999999998,0.2,-0.1,0.14
207,0.07222222222222219,0.050000000000000044,0.08333333333333337,0.2,0.024999999999999994,0.15
208,-0.02941176470588236,0.050000000000000044,0.25,0.10000000000000003,0.4,0.07
209,0.023076923076923106,-0.033333333333333326,-0.07142857142857145,-0.01428571428571429,-0.1,0.11
210,-0.012359550561797827,0.050000000000000044,0.16666666666666663,-0.3,-0.1,0.06
211,0.0,0.15714285714285714,-0.16666666666666669,-0.09999999999999998,0.1,0.09
212,0.06428571428571428,0.050000000000000044,0.16666666666666663,-0.04999999999999999,0.1,0.02
213,0.006666666666666599,0.06923076923076932,-0.25,0.3,-0.1,0.08
214,-0.027906976744186074,-0.09999999999999998,-0.25,-0.3,-0.1,0.11
215,-0.04457831325301209,-0.12857142857142856,-0.3,0.2,-0.1,0.13
216,0.004761904761904745,-0.004347826086956497,0.2142857142857143,-0.3,-0.1,0.12
217,-0.03953488372093028,-0.7,-0.3,0.36666666666666664,-0.1,0.13
218,0.02682926829268295,-0.033333333333333326,0.0,0.5,0.1,0.04
219,0.0036144578313253017,0.050000000000000044,0.0,-0.3,-0.1,0.1
220,0.03749999999999998,0.050000000000000044,0.13636363636363635,-0.3,-0.1,0.05
221,-0.3285714285714286,0.014285714285714346,0.10869565217391308,0.2,-0.1,0.26
222,0.019540229885057436,0.10000000000000009,0.25,-0.3,0.2333333333333333,0.02
223,0.012499999999999956,-0.7,-0.25,-0.01428571428571429,0.042857142857142844,0.13
224,0.0,-0.033333333333333326,-0.16666666666666669,-0.3,0.2333333333333333,0.05
225,0.0036144578313253017,-0.033333333333333326,-0.16666666666666669,-0.13333333333333333,0.1,0.1
226,-0.0071428571428571175,-0.033333333333333326,-0.2142857142857143,-0.04999999999999999,-0.1,0.1
227,0.025925925925925908,-0.033333333333333326,0.16666666666666663,-0.04999999999999999,-0.1,0.06
228,0.002777777777777768,0.13333333333333341,-0.25,0.10000000000000003,-0.1,0.07
229,-0.009756097560975618,0.13333333333333341,0.0,-0.13333333333333333,-0.1,0.09
230,-0.04285714285714293,-0.49999999999999994,0.0,-0.13333333333333333,-0.1,0.15
231,0.014634146341463428,-0.09999999999999998,-0.16666666666666669,-0.15714285714285714,-0.1,0.1
232,0.014634146341463428,-0.033333333333333326,-0.5,0.2,0.15,0.06
233,0.03827160493827153,-0.12857142857142856,-0.09999999999999998,-0.04999999999999999,-0.1,0.07
234,-0.025000000000000022,-0.033333333333333326,-0.33333333333333337,0.2,0.042857142857142844,0.14
235,0.03150684931506842,0.1461538461538462,-0.33333333333333337,-0.09999999999999998,-0.1,0.09
236,0.025925925925925908,-0.09999999999999998,0.09999999999999998,0.36666666666666664,-0.1,0.05
237,0.025000000000000022,-0.12857142857142856,-0.5,-0.3,-0.1,0.08
238,0.050617283950617264,0.014285714285714346,0.0714285714285714,0.2,-0.1,0.03
239,-0.016279069767441867,-0.033333333333333326,-0.16666666666666669,0.033333333333333326,-0.1,0.1
240,0.0012345679012345512,0.15714285714285714,0.25,0.45,-0.1,0.05
241,-0.028205128205128216,0.06923076923076932,0.0,-0.3,-0.1,0.11
242,0.07619047619047614,0.050000000000000044,-0.09999999999999998,0.2,-0.1,0.02
243,0.009090909090909038,-0.29999999999999993,0.25,-0.04999999999999999,0.06666666666666665,0.1
244,0.03506493506493502,0.050000000000000044,0.25,-0.13333333333333333,0.1,0.07
245,0.03902439024390236,0.15714285714285714,-0.5,-0.09999999999999998,-0.1,0.06
246,0.006666666666666599,0.17500000000000004,0.375,-0.3,-0.1,0.08
247,0.03023255813953485,-0.09999999999999998,0.16666666666666663,0.45,-0.1,0.02
248,-0.050000000000000044,0.10000000000000009,0.16666666666666663,0.12857142857142856,-0.1,0.11
249,-0.02941176470588236,-0.033333333333333326,-0.16666666666666669,0.2,-0.1,0.1
250,0.004761904761904745,-0.19999999999999996,0.38888888888888884,0.2,-0.1,0.03
251,-0.0012658227848101333,-0.47777777777777775,-0.09999999999999998,-0.3,-0.1,0.15
252,0.02857142857142858,-0.19999999999999996,-0.023809523809523836,-0.3,0.2333333333333333,0.13
253,0.05774647887323936,0.22307692307692317,0.25,-0.04999999999999999,-0.1,0.03
254,0.02857142857142858,0.04647887323943667,-0.2142857142857143,0.2,-0.1,0.19
255,-0.011111111111111183,-0.7,0.16666666666666663,-0.3,-0.1,0.08
256,-0.0034482758620689724,-0.36666666666666664,-0.5,0.2714285714285714,0.4,0.06
257,-0.008433734939759074,0.07777777777777783,-0.16666666666666669,-0.3,-0.1,0.08
258,-0.037931034482758696,-0.19999999999999996,-0.3,-0.3,0.15,0.12
259,-0.008433734939759074,0.10000000000000009,0.0,-0.3,-0.1,0.09
260,0.02682926829268295,-0.7,0.3571428571428571,0.3,0.15,0.04
261,-0.01594202898550723,-0.033333333333333326,-0.16666666666666669,-0.07777777777777778,-0.1,0.16
262,0.02857142857142858,-0.19999999999999996,-0.5,0.12857142857142856,-0.1,0.08
263,0.0,-0.033333333333333326,0.08333333333333337,-0.04999999999999999,-0.1,0.11
264,0.006976744186046435,0.13333333333333341,0.16666666666666663,-0.3,0.2333333333333333,0.04
265,-0.0012658227848101333,-0.033333333333333326,0.25,0.36666666666666664,0.1,0.07
266,-0.02643678160919538,0.014285714285714346,-0.5,0.2,-0.1,0.08
267,-0.00588235294117645,0.15714285714285714,0.16666666666666663,0.033333333333333326,0.4,0.04
268,0.0024390243902439046,-0.09999999999999998,0.0,0.2,0.30000000000000004,0.07
269,-0.01904761904761909,-0.033333333333333326,-0.25,0.2,0.15,0.09
270,0.024050632911392422,0.0,-0.5,0.3,0.15,0.06
271,0.015662650602409567,-0.29999999999999993,-0.16666666666666669,-0.04999999999999999,-0.1,0.1
272,0.014634146341463428,-0.033333333333333326,0.0,-0.15714285714285714,0.15,0.09
273,0.019540229885057436,0.10000000000000009,-0.16666666666666669,-0.04999999999999999,-0.1,0.04
274,-0.9,0.05862068965517242,-0.5,-0.09999999999999998,-0.1,0.23
275,-0.037931034482758696,-0.033333333333333326,0.0,0.2,0.4,0.08
276,0.04047619047619044,-0.033333333333333326,0.0,-0.09999999999999998,-0.1,0.07
277,-0.06867469879518073,-0.033333333333333326,0.0,-0.3,0.1222222222222222,0.15
278,-0.025000000000000022,-0.19999999999999996,0.2142857142857143,0.2,-0.1,0.11
279,-0.015384615384615441,0.10000000000000009,-0.25,0.45,-0.1,0.09
280,-0.06455696202531647,0.014285714285714346,-0.33333333333333337,-0.3,0.1,0.17
281,-0.9,0.11818181818181828,-0.07142857142857145,0.2,0.15,0.18
282,0.03421052631578947,0.15714285714285714,0.25,-0.09999999999999998,-0.1,0.06
283,-0.2333333333333334,-0.012499999999999956,-0.16666666666666669,0.033333333333333326,-0.1,0.3
284,0.00588235294117645,0.014285714285714346,0.25,-0.3,-0.1,0.05
285,0.03589743589743588,0.2090909090909091,0.0,0.3,-0.1,0.02
286,-0.003896103896103953,0.13333333333333341,0.0,-0.3,0.4,0.08
287,0.02207792207792203,0.07777777777777783,0.25,-0.13333333333333333,-0.1,0.08
288,0.025000000000000022,-0.033333333333333326,0.09999999999999998,-0.13333333333333333,0.2333333333333333,0.07
289,0.01764705882352935,-0.033333333333333326,0.0,-0.3,0.1,0.06
290,0.00588235294117645,-0.19999999999999996,-0.09999999999999998,0.2,-0.1,0.07
291,0.0012345679012345512,0.050000000000000044,0.3571428571428571,-0.3,-0.1,0.08
292,-0.4,-0.00120481927710836,0.125,-0.04999999999999999,-0.1,0.25
293,-0.0012658227848101333,-0.07499999999999996,0.0,-0.04999999999999999,-0.1,0.11
294,-0.0071428571428571175,-0.010344827586206806,0.05555555555555558,-0.3,0.2333333333333333,0.14
295,-0.012500000000000067,0.050000000000000044,0.0,0.4142857142857143,0.1,0.08
296,0.04999999999999993,0.15714285714285714,0.30000000000000004,0.033333333333333326,-0.1,0.03
297,0.014634146341463428,-0.033333333333333326,0.16666666666666663,-0.09999999999999998,-0.1,0.08
298,0.06341463414634141,-0.033333333333333326,0.09999999999999998,-0.3,-0.1,0.04
299,-0.0060606060606061,0.14210526315789473,-0.07142857142857145,-0.01428571428571429,-0.1,0.1
300,-0.04814814814814816,-0.2714285714285714,-0.25,-0.3,-0.1,0.17
301,-0.013636363636363669,-0.19999999999999996,-0.5,-0.3,-0.1,0.1
302,0.027710843373493943,0.050000000000000044,0.0714285714285714,-0.3,-0.1,0.06
303,-0.0071428571428571175,0.10000000000000009,0.0,-0.04999999999999999,-0.1,0.09
304,0.0,0.040000000000000036,0.09999999999999998,-0.15714285714285714,-0.1,0.19
305,0.048717948717948656,-0.41428571428571426,0.0,0.033333333333333326,-0.1,0.11
306,-0.023456790123456805,-0.7,0.30000000000000004,-0.3,-0.1,0.15
307,-0.036363636363636376,0.041935483870967794,0.16666666666666663,-0.04999999999999999,-0.1,0.18
308,-0.02643678160919538,0.050000000000000044,-0.5,0.2,-0.1,0.09
309,0.04047619047619044,-0.033333333333333326,0.0,-0.3,0.06666666666666665,0.05
310,-0.0034482758620689724,-0.033333333333333326,0.0,-0.04999999999999999,-0.1,0.07
311,-0.025000000000000022,-0.19999999999999996,0.0,-0.04999999999999999,-0.1,0.09
312,-0.012500000000000067,-0.12857142857142856,-0.09999999999999998,0.36666666666666664,-0.1,0.11
313,0.03421052631578947,0.10000000000000009,0.0,0.2,-0.1,0.07
314,-0.0046511627906976605,-0.19999999999999996,0.16666666666666663,-0.3,-0.1,0.07
315,0.0,0.050000000000000044,-0.5,-0.04999999999999999,-0.1,0.17
316,-0.023456790123456805,-0.12857142857142856,0.25,-0.3,-0.1,0.12
317,-0.03749999999999998,0.050000000000000044,0.30000000000000004,-0.04999999999999999,0.2333333333333333,0.09
318,-0.023456790123456805,-0.32499999999999996,0.0,0.033333333333333326,-0.1,0.13
319,-0.0071428571428571175,0.10000000000000009,-0.16666666666666669,0.033333333333333326,-0.1,0.08
320,-0.05853658536585371,-0.033333333333333326,0.25,0.033333333333333326,-0.1,0.13
321,0.016666666666666607,0.050000000000000044,-0.25,-0.09999999999999998,-0.1,0.08
322,0.025000000000000022,-0.033333333333333326,0.0,0.07500000000000001,-0.1,0.08
323,0.02941176470588236,-0.49999999999999994,0.0,0.36666666666666664,-0.1,0.06
324,-0.020000000000000018,0.050000000000000044,0.0,-0.3,0.06666666666666665,0.11
325,-0.05853658536585371,-0.09999999999999998,0.0,0.10000000000000003,-0.1,0.13
326,-0.029870129870129936,0.07777777777777783,-0.16666666666666669,-0.13333333333333333,0.1,0.13
327,-0.025000000000000022,-0.07499999999999996,0.0,-0.3,-0.1,0.16
328,-0.07441860465116279,-0.19999999999999996,0.16666666666666663,-0.3,-0.1,0.14
329,-0.4,0.0011494252873563982,-0.16666666666666669,0.033333333333333326,0.1,0.25
330,-0.0343283582089553,0.10000000000000009,-0.35714285714285715,-0.3,-0.1,0.15
331,0.025000000000000022,-0.7,0.2142857142857143,-0.04999999999999999,0.1857142857142857,0.08
332,0.015662650602409567,0.050000000000000044,0.25,-0.3,0.1,0.07
333,0.02857142857142858,0.014285714285714346,-0.16666666666666669,0.033333333333333326,0.2333333333333333,0.04
334,0.06052631578947365,0.15714285714285714,0.09999999999999998,-0.3,0.042857142857142844,0.07
335,0.01764705882352935,-0.36666666666666664,0.2142857142857143,-0.3,-0.1,0.06
336,-0.0071428571428571175,0.050000000000000044,-0.25,0.033333333333333326,-0.1,0.09
337,-0.02280701754385972,-0.7,0.017241379310344862,0.033333333333333326,-0.1,0.22
338,0.05714285714285716,0.027272727272727337,-0.25,-0.3,-0.1,0.06
339,-0.04285714285714293,-0.033333333333333326,-0.16666666666666669,-0.3,-0.1,0.12
340,0.00540540540540535,0.10000000000000009,0.16666666666666663,-0.13333333333333333,-0.1,0.1
341,-0.05853658536585371,-0.09999999999999998,0.33333333333333337,0.2,-0.1,0.11
342,0.024050632911392422,-0.033333333333333326,0.30000000000000004,0.12857142857142856,-0.1,0.08
343,-0.02658227848101269,-0.033333333333333326,-0.25,-0.09999999999999998,0.06666666666666665,0.14
344,0.052380952380952306,-0.033333333333333326,0.25,-0.09999999999999998,-0.1,0.04
345,-0.025000000000000022,-0.19999999999999996,0.0714285714285714,0.2,-0.1,0.13
346,0.051219512195121886,0.050000000000000044,0.0,0.2,-0.1,0.03
347,0.032432432432432434,0.17500000000000004,0.2142857142857143,-0.01428571428571429,-0.1,0.07
348,0.0036144578313253017,-0.5333333333333333,-0.16666666666666669,-0.09999999999999998,-0.1,0.12
349,-0.02195121951219514,0.0,-0.16666666666666669,-0.3,-0.1,0.1
350,-0.008433734939759074,-0.29999999999999993,0.16666666666666663,-0.3,0.15,0.09
351,-0.06279069767441858,-0.36666666666666664,0.0,-0.04999999999999999,0.2333333333333333,0.13
352,0.06470588235294117,-0.033333333333333326,0.25,0.033333333333333326,-0.1,0.02
353,-0.04117647058823537,-0.09999999999999998,0.0,-0.3,0.2333333333333333,0.11
354,0.02682926829268295,0.014285714285714346,-0.16666666666666669,0.2,-0.1,0.07
355,0.016666666666666607,0.0,-0.07142857142857145,-0.09999999999999998,-0.1,0.13
356,0.025373134328358193,0.06470588235294117,0.0714285714285714,-0.01428571428571429,-0.1,0.09
357,-0.02048192771084345,-0.033333333333333326,0.0,0.2,-0.1,0.1
358,0.02682926829268295,-0.09999999999999998,0.0,-0.3,-0.1,0.07
359,0.016666666666666607,-0.7,-0.09999999999999998,-0.3,0.1,0.1
360,0.03902439024390236,-0.36666666666666664,0.25,0.2,0.1,0.05
361,-0.05384615384615388,0.017948717948717996,0.2272727272727273,-0.04999999999999999,0.042857142857142844,0.19
362,-0.05789473684210533,-0.033333333333333326,-0.07142857142857145,-0.3,-0.1,0.17
363,0.04117647058823526,-0.19999999999999996,-0.5,-0.04999999999999999,-0.1,0.07
364,-0.0688311688311688,0.050000000000000044,-0.5,-0.13333333333333333,-0.1,0.16
365,0.004761904761904745,0.050000000000000044,0.0,0.36666666666666664,-0.1,0.07
366,0.02753623188405796,0.18888888888888888,0.16666666666666663,-0.3,0.06666666666666665,0.05
367,0.02682926829268295,-0.033333333333333326,-0.5,-0.09999999999999998,-0.1,0.09
368,-0.02048192771084345,0.014285714285714346,0.16666666666666663,-0.3,-0.1,0.08
369,0.013580246913580174,-0.19999999999999996,0.0714285714285714,-0.04999999999999999,-0.1,0.09
370,0.016666666666666607,-0.49999999999999994,-0.16666666666666669,0.2,-0.1,0.09
371,0.050617283950617264,0.15714285714285714,-0.16666666666666669,-0.04999999999999999,-0.1,0.04
372,-0.05294117647058827,-0.09999999999999998,0.16666666666666663,-0.04999999999999999,-0.1,0.12
373,-0.008433734939759074,-0.19999999999999996,0.09999999999999998,0.36666666666666664,-0.1,0.1
374,0.02857142857142858,0.050000000000000044,-0.5,-0.3,0.1,0.08
375,-0.2333333333333334,0.019101123595505642,0.16666666666666663,0.033333333333333326,0.4,0.2
376,-0.0071428571428571175,-0.36666666666666664,0.16666666666666663,0.12857142857142856,0.2333333333333333,0.08
377,0.023076923076923106,-0.07499999999999996,-0.07142857142857145,0.36666666666666664,-0.1,0.08
378,-0.03157894736842104,0.08571428571428574,0.0714285714285714,-0.3,-0.1,0.09
379,-0.5666666666666667,-0.07499999999999996,0.0625,-0.3,0.06666666666666665,0.34
380,0.0024390243902439046,0.050000000000000044,-0.25,0.033333333333333326,0.3285714285714285,0.08
381,0.072972972972973,0.2090909090909091,0.30000000000000004,-0.3,0.1,0.03
382,-0.015384615384615441,0.13333333333333341,-0.5,-0.09999999999999998,-0.1,0.1
383,-0.04285714285714293,0.1444444444444445,0.16666666666666663,0.36666666666666664,-0.1,0.1
384,-0.015384615384615441,0.014285714285714346,0.0,-0.01428571428571429,-0.1,0.12
385,0.03023255813953485,-0.44999999999999996,0.30000000000000004,0.033333333333333326,-0.1,0.04
386,-0.0046511627906976605,0.15714285714285714,-0.5,-0.3,-0.1,0.07
387,0.006976744186046435,-0.033333333333333326,-0.25,-0.3,-0.1,0.09
388,0.02941176470588236,-0.19999999999999996,-0.16666666666666669,-0.04999999999999999,-0.1,0.07
389,-0.016883116883116944,-0.09999999999999998,0.2142857142857143,-0.3,0.2333333333333333,0.12
390,0.05348837209302326,-0.09999999999999998,-0.16666666666666669,-0.3,0.2333333333333333,0.03
391,-0.03749999999999998,-0.033333333333333326,-0.33333333333333337,0.3,-0.1,0.13
392,0.04318181818181821,0.050000000000000044,-0.09999999999999998,-0.3,-0.1,0.02
393,0.002777777777777768,0.11250000000000004,0.25,0.2,0.15,0.06
394,0.013580246913580174,0.050000000000000044,0.16666666666666663,0.033333333333333326,0.06666666666666665,0.07
395,-0.02048192771084345,0.014285714285714346,0.09999999999999998,0.2,0.2333333333333333,0.07
396,-0.02048192771084345,-0.7,0.30000000000000004,0.2,-0.1,0.11
397,0.0444444444444444,0.10000000000000009,0.0,-0.04999999999999999,0.024999999999999994,0.09
398,-0.15000000000000002,0.08481012658227849,0.0,0.2,0.042857142857142844,0.19
399,0.04318181818181821,-0.7,0.16666666666666663,0.2,0.1,0.03
400,-0.011111111111111183,0.050000000000000044,-0.25,-0.04999999999999999,-0.1,0.1
401,0.04999999999999993,0.17500000000000004,0.30000000000000004,0.033333333333333326,-0.1,0.02
402,0.0036144578313253017,-0.12857142857142856,-0.16666666666666669,-0.04999999999999999,-0.1,0.09
403,0.050617283950617264,-0.2714285714285714,-0.5,-0.3,0.1,0.09
404,0.0012345679012345512,0.10000000000000009,0.0,0.10000000000000003,-0.1,0.08
405,0.027710843373493943,-0.09999999999999998,-0.25,0.033333333333333326,-0.1,0.08
406,0.04047619047619044,0.10000000000000009,-0.16666666666666669,0.033333333333333326,-0.1,0.04
407,0.03902439024390236,-0.19999999999999996,0.125,-0.04999999999999999,-0.1,0.05
408,0.0024390243902439046,0.10000000000000009,0.0,-0.3,0.1857142857142857,0.09
409,-0.012500000000000067,-0.19999999999999996,-0.3,0.36666666666666664,-0.1,0.13
410,-0.05662650602409636,-0.19999999999999996,-0.16666666666666669,-0.3,0.1,0.15
411,0.016666666666666607,-0.19999999999999996,0.16666666666666663,-0.01428571428571429,-0.1,0.07
412,-0.018421052631579005,-0.033333333333333326,0.25,-0.3,0.30000000000000004,0.1
413,0.019540229885057436,0.050000000000000044,-0.5,0.033333333333333326,-0.1,0.06
414,0.0024390243902439046,0.050000000000000044,-0.07142857142857145,-0.3,-0.1,0.1
415,-0.033333333333333326,-0.007692307692307665,-0.25,-0.09999999999999998,-0.1,0.14
416,0.03902439024390236,-0.36666666666666664,0.0,0.033333333333333326,0.2333333333333333,0.06
417,-0.032530120481927716,0.15714285714285714,0.16666666666666663,-0.3,-0.1,0.1
418,0.03902439024390236,0.15714285714285714,-0.16666666666666669,-0.3,0.15,0.05
419,-0.04117647058823537,0.10000000000000009,-0.25,-0.04999999999999999,-0.1,0.11
420,0.03023255813953485,-0.033333333333333326,-0.25,-0.09999999999999998,-0.1,0.06
421,0.046666666666666634,-0.5333333333333333,0.0714285714285714,0.2,-0.1,0.1
422,-0.30000000000000004,-0.033333333333333326,0.09999999999999998,-0.3,-0.1,0.3
423,-0.032530120481927716,-0.19999999999999996,0.09999999999999998,0.033333333333333326,0.1,0.11
424,-0.0012658227848101333,-0.19999999999999996,-0.09999999999999998,-0.09999999999999998,0.1,0.12
425,0.03103448275862064,-0.7,-0.09999999999999998,-0.3,0.2333333333333333,0.06
426,0.0620253164556962,0.13333333333333341,0.25,-0.3,-0.1,0.06
427,0.03827160493827153,-0.29999999999999993,-0.2142857142857143,-0.3,-0.1,0.1
428,0.004761904761904745,-0.19999999999999996,0.0,0.033333333333333326,-0.1,0.09
429,0.03103448275862064,-0.36666666666666664,0.0,-0.3,-0.1,0.06
430,0.04936708860759487,-0.033333333333333326,0.09999999999999998,-0.3,-0.1,0.06
431,-0.0011235955056180247,0.050000000000000044,-0.16666666666666669,-0.3,-0.1,0.06
432,-0.003896103896103953,-0.033333333333333326,-0.07142857142857145,-0.04999999999999999,0.06666666666666665,0.12
433,0.02682926829268295,0.10000000000000009,-0.16666666666666669,0.36666666666666664,-0.1,0.06
434,0.02207792207792203,-0.12857142857142856,0.09999999999999998,0.2,-0.1,0.09
435,-0.08750000000000002,0.050000000000000044,0.0,0.033333333333333326,-0.1,0.13
436,0.011392405063291089,0.050000000000000044,0.2692307692307693,0.033333333333333326,-0.1,0.04
437,-0.008433734939759074,-0.19999999999999996,-0.16666666666666669,-0.3,0.2333333333333333,0.1
438,0.00588235294117645,0.050000000000000044,-0.16666666666666669,0.45,0.4,0.04
439,-0.0012658227848101333,-0.44999999999999996,0.30000000000000004,-0.04999999999999999,-0.1,0.12
440,0.003225806451612856,-0.018181818181818188,-0.125,0.10000000000000003,-0.1,0.14
441,0.06385542168674696,-0.29999999999999993,0.16666666666666663,0.2,-0.1,0.04
442,-0.008433734939759074,-0.7,0.09999999999999998,-0.04999999999999999,-0.1,0.11
443,-0.0034482758620689724,0.050000000000000044,0.25,0.36666666666666664,-0.1,0.04
444,0.03827160493827153,0.050000000000000044,0.09999999999999998,0.2,0.15,0.03
445,0.025925925925925908,-0.09999999999999998,0.25,0.3,-0.1,0.06
446,-0.4,-0.0676470588235294,0.09090909090909094,-0.09999999999999998,-0.1,0.32
447,0.014634146341463428,-0.09999999999999998,0.09999999999999998,-0.09999999999999998,0.2333333333333333,0.07
448,-0.037931034482758696,0.10000000000000009,0.0,-0.3,-0.1,0.1
449,-0.5666666666666667,-0.00120481927710836,-0.16666666666666669,-0.3,0.1,0.28
450,-0.07567567567567568,0.050000000000000044,-0.16666666666666669,0.033333333333333326,-0.1,0.16
451,0.0012345679012345512,0.10000000000000009,0.09999999999999998,-0.3,-0.1,0.1
452,-0.00588235294117645,-0.033333333333333326,0.16666666666666663,0.033333333333333326,0.06666666666666665,0.08
453,-0.9,-0.033333333333333326,-0.33333333333333337,0.16666666666666669,-0.1,0.32
454,-0.06470588235294117,-0.033333333333333326,-0.16666666666666669,-0.04999999999999999,-0.1,0.15
455,0.014634146341463428,0.014285714285714346,0.09999999999999998,-0.3,-0.1,0.07
456,-0.002564102564102555,0.050000000000000044,0.3571428571428571,0.45,0.042857142857142844,0.07
457,-0.025000000000000022,0.014285714285714346,0.0,-0.3,-0.1,0.19
458,-0.04516129032258065,0.050000000000000044,-0.16666666666666669,-0.04999999999999999,-0.1,0.14
459,0.006976744186046435,-0.033333333333333326,0.0,0.36666666666666664,-0.1,0.07
460,0.008045977011494232,-0.36666666666666664,0.0,-0.3,-0.1,0.07
461,0.03023255813953485,-0.033333333333333326,0.09999999999999998,-0.04999999999999999,-0.1,0.04
462,-0.027906976744186074,-0.033333333333333326,-0.09999999999999998,-0.3,0.15,0.1
463,-0.03749999999999998,-0.29999999999999993,-0.33333333333333337,-0.15714285714285714,-0.1,0.17
464,0.0024390243902439046,0.050000000000000044,0.125,0.033333333333333326,-0.1,0.07
465,-0.03580246913580254,-0.7,-0.3,0.2,-0.1,0.17
466,0.048717948717948656,-0.2714285714285714,0.0714285714285714,-0.3,-0.1,0.09
467,0.06341463414634141,-0.09999999999999998,-0.09999999999999998,-0.04999999999999999,-0.1,0.05
468,0.024050632911392422,-0.19999999999999996,0.0,0.12857142857142856,-0.1,0.12
469,0.03023255813953485,-0.19999999999999996,-0.5,-0.3,-0.1,0.08
470,-0.4,0.032558139534883734,-0.16666666666666669,0.2,-0.1,0.22
471,-0.01764705882352946,0.10000000000000009,0.0,0.2,-0.1,0.08
472,0.025925925925925908,-0.44999999999999996,0.3571428571428571,-0.3,0.15,0.07
473,0.018918918918918948,-0.033333333333333326,0.038461538461538436,-0.13333333333333333,-0.1,0.12
474,0.00588235294117645,0.050000000000000044,0.25,0.033333333333333326,0.15,0.05
475,0.03023255813953485,-0.033333333333333326,0.16666666666666663,-0.3,-0.1,0.06
476,-0.028205128205128216,-0.033333333333333326,0.16666666666666663,0.2,-0.1,0.1
477,-0.30000000000000004,-0.01707317073170722,0.0714285714285714,-0.3,-0.1,0.27
478,-0.65,-0.09024390243902436,-0.16666666666666669,0.10000000000000003,-0.1,0.35
479,0.015662650602409567,-0.44999999999999996,-0.25,-0.3,-0.1,0.12
480,-0.00588235294117645,-0.09999999999999998,0.0,0.033333333333333326,-0.1,0.09
481,0.05402298850574705,-0.033333333333333326,0.25,-0.3,0.15,0.01
482,-0.0071428571428571175,-0.19999999999999996,0.0,0.2,-0.1,0.1
483,-0.021621621621621623,-0.012499999999999956,0.0,-0.04999999999999999,-0.1,0.11
484,0.021052631578947323,0.12352941176470589,0.16666666666666663,-0.3,-0.1,0.04
485,-0.009756097560975618,-0.19999999999999996,0.09999999999999998,0.3,0.06666666666666665,0.09
486,-0.2333333333333334,0.12278481012658238,0.0,-0.3,-0.1,0.18
487,0.025925925925925908,-0.033333333333333326,-0.5,0.033333333333333326,-0.1,0.09
488,-0.4,0.03493975903614466,0.125,-0.3,-0.1,0.23
489,0.02857142857142858,-0.19999999999999996,-0.16666666666666669,0.033333333333333326,0.2333333333333333,0.06
490,0.00588235294117645,0.050000000000000044,0.25,0.033333333333333326,-0.1,0.06
491,-0.009756097560975618,0.050000000000000044,0.16666666666666663,-0.13333333333333333,-0.1,0.11
492,-0.05662650602409636,-0.033333333333333326,-0.5,-0.15714285714285714,-0.1,0.15
493,0.06153846153846154,0.15714285714285714,0.16666666666666663,0.2,0.1,0.02
494,0.00588235294117645,0.10000000000000009,-0.16666666666666669,0.033333333333333326,-0.1,0.07
495,-0.00666666666666671,-0.12857142857142856,-0.16666666666666669,0.36666666666666664,-0.1,0.11
496,-0.02658227848101269,-0.09999999999999998,0.0,0.2,-0.1,0.12
497,-0.26363636363636367,0.033333333333333326,0.0,-0.13333333333333333,-0.1,0.24
498,0.027710843373493943,0.15714285714285714,-0.5,0.3,-0.1,0.04
499,-0.02195121951219514,0.050000000000000044,-0.2142857142857143,-0.3,0.1,0.12
500,-0.015384615384615441,0.15714285714285714,0.16666666666666663,-0.09999999999999998,0.15,0.09
501,-0.03157894736842104,0.1461538461538462,-0.25,-0.3,0.1,0.11
502,0.042528735632183845,-0.19999999999999996,-0.5,-0.04999999999999999,-0.1,0.05
503,-0.028205128205128216,0.1461538461538462,0.2857142857142857,-0.3,-0.1,0.12
504,0.0736842105263158,0.21666666666666667,0.0,0.10000000000000003,-0.1,0.02
505,0.015662650602409567,-0.7,0.09999999999999998,0.033333333333333326,-0.1,0.09
506,0.014634146341463428,-0.19999999999999996,0.30000000000000004,0.033333333333333326,0.15,0.06
507,0.047368421052631504,0.18888888888888888,-0.5,-0.09999999999999998,-0.1,0.09
508,0.0036144578313253017,0.050000000000000044,-0.09999999999999998,-0.3,-0.1,0.1
509,-0.9,-0.36666666666666664,0.04216867469879515,-0.13333333333333333,-0.1,0.43
510,0.02682926829268295,-0.19999999999999996,0.30000000000000004,-0.09999999999999998,-0.1,0.08
511,-0.00666666666666671,0.07777777777777783,0.25,0.033333333333333326,-0.1,0.11
512,0.0012345679012345512,-0.12857142857142856,0.2142857142857143,-0.3,-0.1,0.08
513,-0.65,0.03170731707317076,0.0714285714285714,-0.04999999999999999,-0.1,0.24
514,-0.03580246913580254,-0.09999999999999998,-0.25,-0.13333333333333333,0.15,0.14
515,0.02682926829268295,-0.36666666666666664,0.0,0.3,-0.1,0.08
516,0.02857142857142858,-0.033333333333333326,0.16666666666666663,-0.3,0.1,0.05
517,0.027710843373493943,0.13333333333333341,0.25,0.10000000000000003,-0.1,0.03
518,0.016666666666666607,-0.12857142857142856,-0.5,-0.3,-0.1,0.09
519,-0.021212121212121238,0.050000000000000044,-0.09999999999999998,0.033333333333333326,-0.1,0.11
520,0.027710843373493943,0.10000000000000009,0.16666666666666663,-0.15714285714285714,-0.1,0.06
521,0.023076923076923106,-0.09999999999999998,0.0714285714285714,-0.3,-0.1,0.11
522,0.018604651162790642,-0.09999999999999998,-0.16666666666666669,0.36666666666666664,-0.1,0.05
523,0.01764705882352935,0.050000000000000044,-0.25,0.2,-0.1,0.07
524,-0.02048192771084345,-0.19999999999999996,0.0,-0.01428571428571429,-0.1,0.12
525,-0.0194029850746269,-0.033333333333333326,0.0,0.12857142857142856,-0.1,0.13
526,-0.014285714285714346,-0.08095238095238089,-0.5,-0.3,-0.1,0.15
527,-0.025000000000000022,-0.36666666666666664,0.3571428571428571,-0.13333333333333333,0.15,0.11
528,-0.2333333333333334,0.04390243902439028,0.0,0.10000000000000003,-0.1,0.21
529,0.004761904761904745,0.050000000000000044,-0.5,0.033333333333333326,-0.1,0.1
530,0.004761904761904745,0.050000000000000044,0.30000000000000004,0.10000000000000003,-0.1,0.05
531,-0.4,-0.06144578313253013,-0.5,0.033333333333333326,0.06666666666666665,0.32
532,-0.002941176470588225,0.10952380952380958,-0.16666666666666669,0.5,-0.1,0.07
533,0.010112359550561778,0.13333333333333341,0.0,0.2,-0.1,0.02
534,-0.02658227848101269,0.0,0.0,-0.3,-0.1,0.12
535,-0.04457831325301209,-0.19999999999999996,0.25,0.5,-0.1,0.1
536,0.0,0.07777777777777783,-0.16666666666666669,-0.13333333333333333,-0.1,0.09
537,-0.012500000000000067,0.014285714285714346,-0.5,-0.13333333333333333,-0.1,0.13
538,0.03023255813953485,0.10000000000000009,0.0,-0.04999999999999999,-0.1,0.04
539,-0.011111111111111183,0.014285714285714346,0.0,-0.3,0.2333333333333333,0.09
540,0.047368421052631504,-0.19999999999999996,0.16666666666666663,-0.09999999999999998,-0.1,0.08
541,0.011392405063291089,-0.07499999999999996,0.0,0.36666666666666664,-0.1,0.09
542,-0.04285714285714293,0.014285714285714346,-0.5,0.033333333333333326,0.15,0.11
543,-0.03698630136986303,-0.19999999999999996,-0.25,-0.3,0.042857142857142844,0.21
544,-0.01764705882352946,-0.033333333333333326,0.09999999999999998,0.12857142857142856,-0.1,0.2
545,0.009090909090909038,-0.3363636363636363,-0.2142857142857143,-0.3,0.11428571428571427,0.21
546,-0.4,0.07272727272727275,-0.5,-0.3,-0.1,0.21
547,0.025000000000000022,-0.09999999999999998,0.09999999999999998,0.12857142857142856,-0.1,0.07
548,-0.04084507042253527,0.12352941176470589,0.0,0.033333333333333326,-0.1,0.11
549,0.006666666666666599,0.17500000000000004,0.16666666666666663,0.36666666666666664,0.4,0.04
550,-0.00588235294117645,-0.36666666666666664,-0.09999999999999998,-0.3,0.5,0.08
551,-0.008433734939759074,0.10000000000000009,0.16666666666666663,-0.3,-0.1,0.08
552,-0.027906976744186074,-0.19999999999999996,-0.3,-0.09999999999999998,-0.1,0.12
553,0.0024390243902439046,0.13333333333333341,0.16666666666666663,0.033333333333333326,0.2333333333333333,0.06
554,-0.2333333333333334,0.0023809523809523725,-0.25,-0.3,0.15,0.27
555,0.01764705882352935,-0.19999999999999996,-0.16666666666666669,-0.04999999999999999,0.2333333333333333,0.07
556,0.02134831460674158,-0.19999999999999996,-0.5,0.2,0.15,0.04
557,0.0012345679012345512,-0.44999999999999996,0.25,0.45,0.042857142857142844,0.09
558,-0.65,-0.29999999999999993,0.01807228915662651,-0.3,-0.1,0.44
559,0.05652173913043479,0.050000000000000044,0.38888888888888884,0.033333333333333326,-0.1,0.08
560,0.018918918918918948,0.11818181818181828,-0.09999999999999998,0.2,-0.1,0.09
561,0.04202898550724632,-0.05294117647058816,0.0,-0.3,-0.1,0.12
562,0.025000000000000022,0.050000000000000044,0.0,-0.3,-0.1,0.08
563,-0.01904761904761909,0.050000000000000044,0.09999999999999998,-0.3,-0.1,0.1
564,-0.04634146341463419,0.10000000000000009,0.16666666666666663,-0.3,0.1,0.11
565,0.013580246913580174,-0.09999999999999998,0.09999999999999998,0.10000000000000003,-0.1,0.08
566,0.0736842105263158,0.18888888888888888,0.0,-0.3,0.06666666666666665,0.06
567,-0.03924050632911391,0.13333333333333341,-0.5,-0.3,0.042857142857142844,0.16
568,0.052380952380952306,-0.36666666666666664,-0.09999999999999998,0.5,-0.1,0.03
569,0.019540229885057436,-0.19999999999999996,0.09999999999999998,0.2,-0.1,0.04
570,-0.0071428571428571175,-0.7,0.0,-0.3,-0.1,0.12
571,0.06774193548387097,-0.033333333333333326,0.16666666666666663,0.033333333333333326,-0.1,0.09
572,-0.025000000000000022,0.10000000000000009,0.09999999999999998,0.3,0.30000000000000004,0.08
573,0.014634146341463428,0.014285714285714346,-0.25,-0.3,0.15,0.08
574,-0.03924050632911391,-0.19999999999999996,0.2142857142857143,-0.04999999999999999,-0.1,0.14
575,-0.06216216216216219,-0.44999999999999996,0.08333333333333337,0.033333333333333326,0.1857142857142857,0.17
576,0.004761904761904745,0.10000000000000009,0.0,-0.3,0.06666666666666665,0.07
577,-0.0034482758620689724,0.050000000000000044,0.25,-0.3,-0.1,0.06
578,-0.00588235294117645,-0.09999999999999998,-0.16666666666666669,0.3,-0.1,0.07
579,-0.011111111111111183,0.10000000000000009,-0.25,0.45,0.1,0.09
580,-0.025000000000000022,0.10000000000000009,0.25,-0.3,0.15,0.08
581,-0.002272727272727315,0.014285714285714346,-0.5,-0.3,-0.1,0.06
582,0.027710843373493943,-0.033333333333333326,0.0714285714285714,-0.3,0.1,0.06
583,0.004761904761904745,-0.033333333333333326,0.16666666666666663,0.36666666666666664,0.042857142857142844,0.07
584,0.025000000000000022,-0.12857142857142856,-0.5,0.10000000000000003,-0.1,0.1
585,0.013580246913580174,-0.12857142857142856,0.0,-0.04999999999999999,-0.1,0.08
586,-0.10481927710843375,-0.033333333333333326,-0.16666666666666669,-0.13333333333333333,0.30000000000000004,0.18
587,0.023076923076923106,-0.19999999999999996,0.16666666666666663,-0.13333333333333333,0.1,0.1
588,0.02134831460674158,-0.7,0.0,-0.3,-0.1,0.06
589,-0.0012658227848101333,0.10000000000000009,0.16666666666666663,0.325,-0.1,0.08
590,0.041860465116279055,0.014285714285714346,0.0,0.2,-0.1,0.02
591,0.031818181818181746,-0.19999999999999996,-0.16666666666666669,-0.3,-0.1,0.06
592,-0.009756097560975618,-0.033333333333333326,-0.07142857142857145,0.2,0.06666666666666665,0.1
593,0.00588235294117645,-0.033333333333333326,0.0,0.2,0.2333333333333333,0.05
594,0.004761904761904745,0.050000000000000044,-0.25,0.36666666666666664,-0.1,0.06
595,0.006666666666666599,0.10000000000000009,0.16666666666666663,-0.3,-0.1,0.12
596,0.0,0.07777777777777783,0.0,-0.3,0.15,0.08
597,-0.9,-0.11095890410958897,-0.2368421052631579,-0.3,-0.1,0.42
598,0.03258426966292127,-0.36666666666666664,-0.16666666666666669,-0.3,-0.1,0.05
599,-0.0012658227848101333,-0.09999999999999998,0.30000000000000004,0.3,0.06666666666666665,0.08
600,0.03749999999999998,0.10000000000000009,0.16666666666666663,0.10000000000000003,-0.1,0.13
601,0.04936708860759487,0.2090909090909091,0.09999999999999998,0.36666666666666664,-0.1,-0.0
602,0.012499999999999956,0.050000000000000044,0.30000000000000004,0.10000000000000003,-0.1,0.08
603,-0.01764705882352946,0.10000000000000009,-0.5,-0.3,-0.1,0.07
604,0.03902439024390236,-0.033333333333333326,-0.5,0.033333333333333326,0.15,0.06
605,0.015662650602409567,-0.033333333333333326,-0.09999999999999998,0.033333333333333326,-0.1,0.08
606,-0.02658227848101269,0.050000000000000044,0.0,-0.07777777777777778,0.15,0.13
607,-0.04864864864864871,0.1461538461538462,-0.25,0.5333333333333334,0.2333333333333333,0.09
608,0.01025641025641022,0.07777777777777783,-0.16666666666666669,-0.04999999999999999,-0.1,0.1
609,0.06428571428571428,-0.36666666666666664,0.25,0.2714285714285714,-0.1,0.01
610,0.01764705882352935,-0.19999999999999996,0.0,-0.09999999999999998,-0.1,0.08
611,0.020454545454545392,-0.36666666666666664,-0.3,0.2,-0.1,0.06
612,-0.013924050632911467,-0.09999999999999998,-0.2142857142857143,-0.3,-0.1,0.15
613,-0.9,0.014285714285714346,0.0,0.033333333333333326,0.2333333333333333,0.22
614,-0.009756097560975618,0.10000000000000009,0.09999999999999998,0.36666666666666664,0.30000000000000004,0.06
615,-0.002564102564102555,0.13333333333333341,-0.3,0.3,-0.1,0.11
616,0.051807228915662584,-0.7,-0.07142857142857145,-0.3,-0.1,0.08
617,-0.4,-0.042105263157894646,0.05555555555555558,-0.3,-0.1,0.33
618,-0.033333333333333326,-0.09999999999999998,0.0,-0.01428571428571429,0.2333333333333333,0.14
619,0.0036144578313253017,-0.033333333333333326,0.0,-0.175,-0.1,0.1
620,0.036708860759493644,0.13333333333333341,0.0,-0.3,-0.1,0.09
621,-0.030952380952380953,-0.09999999999999998,0.09999999999999998,-0.3,0.2333333333333333,0.1
622,-0.008108108108108136,-0.12857142857142856,0.16666666666666663,0.36666666666666664,0.15,0.09
623,0.024050632911392422,0.1461538461538462,0.0,0.2,-0.1,0.03
624,0.06428571428571428,0.10000000000000009,0.33333333333333337,-0.04999999999999999,-0.1,-0.01
625,0.025000000000000022,0.13333333333333341,0.0,-0.04999999999999999,-0.1,0.07
626,-0.0034482758620689724,0.014285714285714346,-0.07142857142857145,-0.09999999999999998,-0.1,0.14
627,0.051219512195121886,-0.033333333333333326,0.0,0.033333333333333326,-0.1,0.05
628,0.025000000000000022,0.014285714285714346,-0.5,-0.04999999999999999,0.06666666666666665,0.09
629,-0.03483146067415732,-0.19999999999999996,0.0,0.033333333333333326,-0.1,0.1
630,-0.012500000000000067,-0.033333333333333326,0.0,-0.04999999999999999,-0.1,0.13
631,0.014285714285714235,0.050000000000000044,-0.16666666666666669,-0.3,0.0111111111111111,0.12
632,0.015662650602409567,-0.36666666666666664,-0.16666666666666669,-0.09999999999999998,0.5666666666666667,0.08
633,-0.030952380952380953,-0.19999999999999996,-0.07142857142857145,-0.3,-0.1,0.13
634,-0.008433734939759074,0.050000000000000044,0.16666666666666663,-0.3,-0.1,0.11
635,0.009090909090909038,-0.033333333333333326,0.0,-0.3,-0.1,0.06
636,0.050617283950617264,0.18888888888888888,-0.16666666666666669,0.45,0.2333333333333333,-0.0
637,-0.03749999999999998,-0.07499999999999996,-0.16666666666666669,-0.04999999999999999,-0.1,0.14
638,0.0012345679012345512,-0.2714285714285714,0.0,0.033333333333333326,-0.1,0.11
639,0.014634146341463428,-0.44999999999999996,0.33333333333333337,-0.04999999999999999,-0.1,0.08
640,-0.027906976744186074,-0.29999999999999993,0.0,-0.3,-0.1,0.11
641,0.03220338983050841,-0.14444444444444438,-0.25,0.12857142857142856,-0.1,0.16
642,-0.0494252873563219,-0.7,0.0,0.033333333333333326,-0.1,0.14
643,-0.0071428571428571175,0.13333333333333341,0.16666666666666663,-0.09999999999999998,-0.1,0.07
644,0.04366197183098586,0.13333333333333341,-0.5,0.10000000000000003,0.1,0.05
645,-0.050000000000000044,-0.003030303030302939,0.0,-0.3,-0.1,0.23
646,-0.05662650602409636,-0.033333333333333326,0.0,-0.175,0.15,0.15
647,0.0024390243902439046,0.17500000000000004,-0.5,0.36666666666666664,-0.1,0.07
648,-0.023456790123456805,-0.7,-0.07142857142857145,-0.04999999999999999,0.15,0.14
649,-0.044736842105263186,-0.12857142857142856,-0.5,0.2555555555555556,-0.1,0.16
650,-0.023076923076923106,-0.007692307692307665,0.13636363636363635,-0.3,-0.1,0.17
651,-0.051898734177215244,-0.033333333333333326,0.0,0.10000000000000003,0.06666666666666665,0.14
652,0.0024390243902439046,-0.033333333333333326,0.16666666666666663,-0.3,0.06666666666666665,0.09
653,-0.08987341772151902,-0.44999999999999996,-0.16666666666666669,0.3,-0.1,0.2
654,-0.01764705882352946,0.050000000000000044,-0.5,-0.09999999999999998,-0.1,0.11
655,-0.01764705882352946,-0.12857142857142856,0.08333333333333337,-0.3,0.1,0.19
656,0.018604651162790642,-0.09999999999999998,0.0,-0.3,-0.1,0.07
657,-0.04772727272727273,-0.36666666666666664,-0.16666666666666669,0.2,-0.1,0.12
658,0.0012345679012345512,-0.36666666666666664,-0.16666666666666669,0.2,-0.1,0.12
659,-0.4,-0.04939759036144575,0.0,0.033333333333333326,-0.1,0.3
660,-0.025000000000000022,-0.7,-0.5,-0.04999999999999999,-0.1,0.12
661,-0.01904761904761909,-0.033333333333333326,-0.16666666666666669,-0.3,-0.1,0.12
662,-0.02048192771084345,0.050000000000000044,-0.25,0.3,-0.1,0.1
663,-0.0034482758620689724,-0.7,-0.5,0.033333333333333326,-0.1,0.11
664,-0.032530120481927716,-0.36666666666666664,0.2142857142857143,-0.3,-0.1,0.12
665,0.02207792207792203,-0.44999999999999996,0.40909090909090906,-0.3,0.06666666666666665,0.07
666,0.027710843373493943,0.10000000000000009,-0.25,-0.04999999999999999,-0.1,0.07
667,0.015662650602409567,-0.7,0.09999999999999998,-0.3,-0.1,0.11
668,-0.0304347826086957,0.1048780487804879,0.16666666666666663,-0.3,-0.1,0.13
669,-0.03749999999999998,-0.09999999999999998,0.16666666666666663,-0.04999999999999999,0.1,0.12
670,0.024528301886792447,0.014285714285714346,-0.33333333333333337,0.2,0.15,0.13
671,0.03902439024390236,-0.033333333333333326,0.125,-0.3,0.2333333333333333,0.05
672,0.004761904761904745,-0.44999999999999996,0.0,0.033333333333333326,-0.1,0.09
673,-0.086046511627907,-0.36666666666666664,0.0,-0.09999999999999998,-0.1,0.31
674,-0.03953488372093028,-0.033333333333333326,0.0,-0.04999999999999999,-0.1,0.11
675,0.016666666666666607,-0.36666666666666664,-0.16666666666666669,0.2,0.15,0.07
676,-0.011111111111111183,0.1461538461538462,-0.07142857142857145,-0.13333333333333333,-0.1,0.11
677,-0.014942528735632177,-0.033333333333333326,-0.16666666666666669,-0.04999999999999999,-0.1,0.09
678,0.05348837209302326,0.050000000000000044,0.16666666666666663,-0.3,-0.1,0.03
679,0.00588235294117645,-0.033333333333333326,0.25,0.36666666666666664,-0.1,0.06
680,0.004761904761904745,-0.19999999999999996,0.0,0.2,-0.1,0.08
681,0.016666666666666607,-0.09999999999999998,0.16666666666666663,-0.04999999999999999,0.4,0.05
682,0.006976744186046435,0.13333333333333341,-0.5,-0.3,-0.1,0.07
683,0.001098901098901095,-0.033333333333333326,0.0,-0.3,-0.1,0.05
684,-0.0034482758620689724,0.10000000000000009,0.0,-0.3,0.5666666666666667,0.04
685,-0.0410256410256411,-0.12857142857142856,0.09999999999999998,0.10000000000000003,-0.1,0.14
686,0.012499999999999956,0.17500000000000004,0.16666666666666663,0.2,0.15,0.04
687,-0.2333333333333334,-0.00952380952380949,0.16666666666666663,0.36666666666666664,-0.1,0.24
688,-0.009756097560975618,-0.36666666666666664,-0.33333333333333337,0.3,-0.1,0.12
689,0.016666666666666607,-0.7,0.30000000000000004,0.2,-0.1,0.06
690,-0.036363636363636376,-0.19999999999999996,0.30000000000000004,0.033333333333333326,0.4,0.07
691,-0.050000000000000044,0.014285714285714346,0.16666666666666663,0.033333333333333326,0.4,0.11
692,-0.02643678160919538,-0.19999999999999996,0.0,-0.3,-0.1,0.11
693,-0.014942528735632177,-0.7,0.09999999999999998,0.36666666666666664,-0.1,0.08
694,-0.023456790123456805,0.050000000000000044,-0.09999999999999998,-0.3,-0.1,0.14
695,0.009090909090909038,-0.010344827586206806,0.0,0.2555555555555556,-0.1,0.13
696,0.0,-0.19999999999999996,-0.16666666666666669,0.12857142857142856,-0.1,0.11
697,0.0014084507042253502,-0.19999999999999996,0.2692307692307693,0.4142857142857143,0.1,0.08
698,0.051219512195121886,0.13333333333333341,0.0,0.2,-0.1,0.02
699,-0.008433734939759074,-0.36666666666666664,0.0,0.45,-0.1,0.1
700,-0.08032786885245902,0.020000000000000018,-0.09999999999999998,-0.13333333333333333,-0.1,0.19
701,-0.05476190476190479,-0.7,0.16666666666666663,0.2,0.1857142857142857,0.13
702,-0.05094339622641508,0.16486486486486496,0.0,-0.3,-0.1,0.11
703,-0.034146341463414664,-0.07499999999999996,-0.16666666666666669,-0.3,-0.1,0.13
704,0.027710843373493943,0.050000000000000044,0.0,-0.3,-0.1,0.08
705,-0.012500000000000067,-0.19999999999999996,0.16666666666666663,0.12857142857142856,0.1,0.1
706,-0.0071428571428571175,0.050000000000000044,-0.5,-0.13333333333333333,-0.1,0.11
707,-0.0052631578947368585,0.06923076923076932,-0.5,0.2,-0.1,0.1
708,0.014634146341463428,-0.033333333333333326,0.16666666666666663,0.10000000000000003,0.15,0.06
709,0.0,0.13333333333333341,0.0,-0.3,0.1857142857142857,0.09
710,-0.04285714285714293,0.050000000000000044,0.0,-0.3,-0.1,0.12
711,0.025925925925925908,-0.033333333333333326,0.16666666666666663,0.36666666666666664,-0.1,0.05
712,-0.002564102564102555,-0.29999999999999993,0.0,0.2,-0.1,0.13
713,-0.01764705882352946,0.050000000000000044,-0.5,-0.04999999999999999,-0.1,0.1
714,-0.7,0.08571428571428574,-0.16666666666666669,0.3,-0.1,0.19
715,-0.034146341463414664,-0.033333333333333326,0.0,-0.04999999999999999,-0.1,0.12
716,0.016666666666666607,0.13333333333333341,0.0,0.033333333333333326,0.1,0.05
717,0.03902439024390236,-0.033333333333333326,0.0714285714285714,0.36666666666666664,0.1,0.04
718,-0.014942528735632177,-0.44999999999999996,-0.16666666666666669,-0.3,-0.1,0.11
719,0.054545454545454564,0.09166666666666667,-0.16666666666666669,-0.3,0.1,0.06
720,0.03442622950819674,0.10952380952380958,-0.375,0.2,-0.1,0.12
721,0.06428571428571428,-0.09999999999999998,0.16666666666666663,0.2,-0.1,0.01
722,-0.027906976744186074,-0.36666666666666664,0.0,0.2,0.2333333333333333,0.09
723,0.01764705882352935,0.050000000000000044,0.30000000000000004,-0.04999999999999999,-0.1,0.04
724,0.03103448275862064,-0.29999999999999993,0.25,0.033333333333333326,-0.1,0.03
725,-0.05384615384615388,0.014285714285714346,0.1875,-0.3,-0.1,0.19
726,-0.0011235955056180247,-0.19999999999999996,0.0,0.033333333333333326,-0.1,0.06
727,0.01764705882352935,-0.033333333333333326,0.0,0.10000000000000003,-0.1,0.06
728,0.06341463414634141,0.10000000000000009,-0.16666666666666669,0.3,0.1,0.02
729,0.01025641025641022,0.15714285714285714,0.25,0.033333333333333326,-0.1,0.09
730,-0.08823529411764708,-0.29999999999999993,0.0,-0.3,0.4,0.15
731,-0.01764705882352946,-0.19999999999999996,-0.5,-0.04999999999999999,-0.1,0.12
732,-0.04634146341463419,-0.29999999999999993,0.0,0.2,-0.1,0.14
733,-0.03698630136986303,0.1461538461538462,0.30000000000000004,0.5,-0.1,0.08
734,-0.046666666666666634,-0.033333333333333326,-0.5,0.10000000000000003,-0.1,0.16
735,0.021052631578947323,0.11818181818181828,-0.09999999999999998,0.2,-0.1,0.08
736,0.02941176470588236,-0.09999999999999998,0.25,-0.3,0.2333333333333333,0.04
737,-0.08292682926829276,-0.19999999999999996,-0.5,-0.3,0.042857142857142844,0.2
738,0.016666666666666607,-0.19999999999999996,0.16666666666666663,0.033333333333333326,0.024999999999999994,0.08
739,0.06470588235294117,-0.49999999999999994,0.0,0.2,-0.1,0.04
740,0.025000000000000022,-0.19999999999999996,0.19999999999999996,-0.3,0.06666666666666665,0.07
741,0.004109589041095818,-0.033333333333333326,-0.16666666666666669,-0.3,-0.1,0.11
742,0.011392405063291089,-0.36666666666666664,-0.16666666666666669,-0.13333333333333333,-0.1,0.15
743,-0.008433734939759074,-0.19999999999999996,-0.16666666666666669,-0.09999999999999998,0.2333333333333333,0.1
744,-0.01764705882352946,0.10000000000000009,-0.16666666666666669,0.36666666666666664,-0.1,0.08
745,0.02857142857142858,0.050000000000000044,0.0,-0.3,0.2333333333333333,0.04
746,-0.4,-0.02941176470588236,0.0,0.033333333333333326,-0.1,0.28
747,0.0036144578313253017,0.014285714285714346,0.16666666666666663,0.36666666666666664,-0.1,0.06
748,-0.5,0.0590361445783133,0.16666666666666663,-0.3,-0.1,0.21
749,-0.033333333333333326,-0.5571428571428572,0.0,0.033333333333333326,0.1,0.17
750,0.052380952380952306,-0.033333333333333326,0.33333333333333337,0.2,-0.1,0.01
751,0.013580246913580174,0.10000000000000009,0.0,-0.3,-0.1,0.1
752,-0.09999999999999998,0.1133333333333334,0.25,-0.3,-0.1,0.16
753,-0.0046511627906976605,0.050000000000000044,-0.5,-0.3,-0.1,0.1
754,-0.275,-0.024675324675324628,0.0714285714285714,0.3,-0.1,0.26
755,0.016666666666666607,-0.033333333333333326,-0.16666666666666669,-0.04999999999999999,-0.1,0.08
756,0.03975903614457832,-0.19999999999999996,-0.5,-0.04999999999999999,-0.1,0.08
757,0.014634146341463428,-0.09999999999999998,0.16666666666666663,-0.3,-0.1,0.1
758,-0.04516129032258065,0.13333333333333341,0.0,-0.04999999999999999,-0.1,0.1
759,-0.00666666666666671,-0.09999999999999998,-0.3,-0.18888888888888888,-0.1,0.18
760,0.050617283950617264,0.10000000000000009,0.16666666666666663,-0.3,-0.1,0.05
761,0.03023255813953485,-0.19999999999999996,0.0,-0.3,0.042857142857142844,0.07
762,0.04117647058823526,-0.44999999999999996,0.0,-0.09999999999999998,-0.1,0.06
763,-0.06279069767441858,0.050000000000000044,0.0,-0.3,-0.1,0.13
764,0.04999999999999993,0.07777777777777783,-0.5,0.36666666666666664,-0.1,0.05
765,-0.015384615384615441,-0.09999999999999998,0.19999999999999996,-0.3,-0.1,0.11
766,-0.04893617021276597,-0.13902439024390234,-0.5,0.3,-0.1,0.24
767,0.02207792207792203,0.07777777777777783,-0.3,0.2714285714285714,0.4,0.06
768,-0.029870129870129936,0.014285714285714346,0.25,-0.01428571428571429,-0.1,0.13
769,0.06341463414634141,-0.29999999999999993,-0.09999999999999998,-0.3,-0.1,0.07
770,0.018604651162790642,0.050000000000000044,-0.3,0.033333333333333326,-0.1,0.06
771,-0.06455696202531647,-0.033333333333333326,0.0,0.10000000000000003,0.06666666666666665,0.15
772,-0.09178082191780823,-0.1210526315789473,-0.5,0.2,-0.1,0.19
773,-0.00588235294117645,-0.36666666666666664,0.30000000000000004,0.45,-0.1,0.06
774,-0.06666666666666665,-0.19999999999999996,-0.16666666666666669,0.2,-0.1,0.14
775,0.002777777777777768,-0.012499999999999956,0.0,-0.13333333333333333,0.4,0.1
776,0.016666666666666607,-0.04883720930232549,0.05555555555555558,-0.13333333333333333,0.06666666666666665,0.22
777,0.015662650602409567,-0.36666666666666664,-0.25,-0.04999999999999999,0.2333333333333333,0.09
778,0.012499999999999956,0.15714285714285714,0.09999999999999998,-0.04999999999999999,-0.1,0.07
779,-0.060919540229885105,-0.033333333333333326,-0.5,-0.3,-0.1,0.15
780,0.012499999999999956,0.13333333333333341,0.0,-0.3,0.1,0.05
781,-0.2333333333333334,0.05675675675675684,0.2272727272727273,-0.09999999999999998,-0.1,0.21
782,0.03902439024390236,-0.7,0.33333333333333337,-0.04999999999999999,0.1857142857142857,0.05
783,0.025925925925925908,0.15714285714285714,-0.33333333333333337,0.2,-0.1,0.07
784,0.013580246913580174,-0.09999999999999998,0.0,0.2,-0.1,0.08
785,-0.0046511627906976605,-0.36666666666666664,-0.16666666666666669,0.2,-0.1,0.08
786,-0.030952380952380953,-0.19999999999999996,0.0,0.2,-0.1,0.1
787,0.006249999999999978,-0.015789473684210464,0.05555555555555558,0.033333333333333326,-0.1,0.13
788,0.0736842105263158,0.17500000000000004,-0.16666666666666669,0.12857142857142856,-0.1,0.04
789,-0.0071428571428571175,0.050000000000000044,-0.09999999999999998,-0.3,0.1,0.09
790,-0.037931034482758696,-0.7,0.0,-0.04999999999999999,0.4,0.1
791,-0.050000000000000044,-0.033333333333333326,0.30000000000000004,0.10000000000000003,0.042857142857142844,0.13
792,0.014634146341463428,-0.19999999999999996,-0.2142857142857143,0.033333333333333326,-0.1,0.1
793,0.02682926829268295,0.10000000000000009,-0.33333333333333337,-0.04999999999999999,0.2333333333333333,0.07
794,0.006666666666666599,-0.14444444444444438,0.045454545454545414,-0.3,-0.1,0.11
795,-0.04457831325301209,-0.033333333333333326,-0.5,-0.3,-0.1,0.15
796,-0.032352941176470584,0.06923076923076932,-0.5,-0.3,-0.1,0.11
797,0.0024390243902439046,-0.09999999999999998,0.16666666666666663,0.2,-0.1,0.08
798,0.04999999999999993,0.10000000000000009,-0.09999999999999998,-0.09999999999999998,-0.1,0.07
799,-0.02643678160919538,-0.14444444444444438,-0.5,-0.3,-0.1,0.09
800,0.021052631578947323,0.014285714285714346,0.0,-0.15714285714285714,0.06666666666666665,0.11
801,-0.03157894736842104,0.07777777777777783,-0.2777777777777778,0.2,-0.1,0.14
802,-0.0012658227848101333,-0.08461538461538454,-0.5,0.2,-0.1,0.1
803,-0.01904761904761909,-0.19999999999999996,-0.09999999999999998,-0.13333333333333333,-0.1,0.12
804,-0.016883116883116944,-0.09999999999999998,0.31818181818181823,0.033333333333333326,0.65,0.06
805,-0.012500000000000067,0.07777777777777783,0.30000000000000004,-0.04999999999999999,-0.1,0.07
806,-0.034146341463414664,0.13333333333333341,0.0,0.2,-0.1,0.09
807,-0.07283950617283952,-0.29999999999999993,-0.5,-0.09999999999999998,0.3285714285714285,0.17
808,-0.046067415730337125,-0.033333333333333326,0.0,-0.04999999999999999,-0.1,0.1
809,-0.021621621621621623,0.13333333333333341,-0.25,-0.09999999999999998,0.1,0.12
810,0.01025641025641022,0.050000000000000044,0.25,-0.04999999999999999,-0.1,0.09
811,-0.037931034482758696,-0.033333333333333326,-0.16666666666666669,-0.04999999999999999,-0.1,0.11
812,0.052380952380952306,-0.19999999999999996,0.125,-0.3,-0.1,0.04
813,0.016666666666666607,-0.7,0.30000000000000004,0.45,-0.1,0.06
814,0.00588235294117645,-0.36666666666666664,-0.25,-0.04999999999999999,0.15,0.09
815,0.0444444444444444,0.12352941176470589,-0.16666666666666669,0.3,0.15,0.06
816,0.051807228915662584,0.050000000000000044,-0.25,-0.3,-0.1,0.07
817,-0.0046511627906976605,-0.7,0.0,0.10000000000000003,-0.1,0.09
818,-0.01764705882352946,-0.033333333333333326,0.09999999999999998,-0.3,-0.1,0.08
819,0.0625,0.014285714285714346,-0.16666666666666669,0.033333333333333326,-0.1,0.05
820,-0.04285714285714293,0.07777777777777783,-0.16666666666666669,-0.3,-0.1,0.1
821,-0.014754098360655776,0.0,0.2727272727272727,-0.3,-0.1,0.12
822,0.03975903614457832,0.10000000000000009,0.2142857142857143,-0.04999999999999999,-0.1,0.02
823,0.04594594594594592,-0.07499999999999996,-0.09999999999999998,-0.13333333333333333,0.042857142857142844,0.11
824,0.02682926829268295,-0.36666666666666664,0.09999999999999998,-0.09999999999999998,-0.1,0.09
825,0.005660377358490565,0.09411764705882353,-0.16666666666666669,0.10000000000000003,-0.1,0.12
826,-0.012500000000000067,0.17500000000000004,-0.09999999999999998,0.10000000000000003,-0.1,0.08
827,0.061038961038961004,0.10000000000000009,0.09999999999999998,-0.15714285714285714,0.06666666666666665,0.07
828,0.03150684931506842,0.050000000000000044,0.25,0.033333333333333326,0.30000000000000004,0.06
829,-0.30000000000000004,-0.07974683544303796,-0.35714285714285715,-0.3,0.042857142857142844,0.36
830,-0.5,-0.033333333333333326,0.13636363636363635,-0.04999999999999999,-0.1,0.28
831,-0.00588235294117645,-0.19999999999999996,-0.2142857142857143,0.2,0.15,0.09
832,-0.020000000000000018,-0.05714285714285705,-0.3,-0.3,-0.1,0.14
833,-0.04035087719298247,0.12758620689655176,0.30000000000000004,-0.04999999999999999,-0.1,0.12
834,-0.04117647058823537,-0.49999999999999994,0.16666666666666663,-0.3,0.15,0.13
835,-0.03157894736842104,-0.033333333333333326,0.13636363636363635,-0.09999999999999998,-0.1,0.14
836,-0.01764705882352946,-0.19999999999999996,0.0714285714285714,-0.3,-0.1,0.09
837,-0.04035087719298247,0.050000000000000044,0.0,-0.04999999999999999,-0.1,0.15
838,0.027710843373493943,-0.36666666666666664,0.0,0.36666666666666664,0.1,0.06
839,-0.025000000000000022,-0.047826086956521685,-0.07142857142857145,-0.04999999999999999,-0.1,0.15
840,0.06153846153846154,0.050000000000000044,0.16666666666666663,-0.04999999999999999,-0.1,0.06
841,-0.05714285714285716,0.0,0.16666666666666663,0.2,0.1,0.13
842,-0.03888888888888886,0.050000000000000044,0.19999999999999996,-0.09999999999999998,0.0111111111111111,0.16
843,0.0,-0.033333333333333326,-0.16666666666666669,0.10000000000000003,0.06666666666666665,0.1
844,-0.01764705882352946,-0.36666666666666664,0.0,-0.04999999999999999,-0.1,0.11
845,0.023076923076923106,0.06470588235294117,0.19999999999999996,0.10000000000000003,-0.1,0.08
846,0.025925925925925908,0.050000000000000044,0.0,0.2,-0.1,0.06
847,-0.02941176470588236,-0.36666666666666664,-0.07142857142857145,0.36666666666666664,-0.1,0.1
848,0.03749999999999998,0.050000000000000044,0.0,0.10000000000000003,-0.1,0.07
849,0.016666666666666607,0.13333333333333341,0.16666666666666663,-0.3,0.1,0.05
850,-0.002272727272727315,-0.19999999999999996,0.16666666666666663,-0.3,0.15,0.07
851,-0.2333333333333334,-0.007692307692307665,0.16666666666666663,-0.04999999999999999,-0.1,0.25
852,-0.016883116883116944,-0.36666666666666664,0.0,-0.09999999999999998,0.1,0.15
853,-0.02941176470588236,-0.19999999999999996,0.09999999999999998,0.10000000000000003,-0.1,0.1
854,0.025373134328358193,0.20000000000000007,0.3571428571428571,0.2,-0.1,0.02
855,0.020454545454545392,-0.19999999999999996,0.16666666666666663,0.2,-0.1,0.04
856,-0.003896103896103953,-0.0636363636363636,0.16666666666666663,-0.3,0.1,0.11
857,-0.02048192771084345,0.050000000000000044,0.16666666666666663,0.5,-0.1,0.06
858,-0.06455696202531647,0.027272727272727337,0.0,-0.09999999999999998,-0.1,0.14
859,0.020454545454545392,-0.033333333333333326,-0.09999999999999998,0.2,-0.1,0.04
860,-0.013636363636363669,-0.19999999999999996,0.0,0.36666666666666664,-0.1,0.07
861,0.050617283950617264,0.014285714285714346,0.30000000000000004,-0.3,-0.1,0.04
862,0.00588235294117645,0.050000000000000044,0.0,0.2,0.2333333333333333,0.05
863,-0.028205128205128216,0.10000000000000009,-0.33333333333333337,0.3,0.06666666666666665,0.13
864,-0.31666666666666665,-0.005555555555555536,-0.16666666666666669,0.07500000000000001,-0.1,0.29
865,-0.0052631578947368585,0.10000000000000009,0.25,0.3,0.06666666666666665,0.08
866,-0.09718309859154928,-0.09999999999999998,0.16666666666666663,0.033333333333333326,-0.1,0.21
867,0.03749999999999998,-0.19999999999999996,0.0,0.2,-0.1,0.08
868,0.018604651162790642,-0.033333333333333326,0.0,-0.09999999999999998,0.15,0.06
869,-0.02048192771084345,-0.033333333333333326,-0.16666666666666669,0.033333333333333326,-0.1,0.1
870,0.041860465116279055,-0.19999999999999996,0.25,0.2,-0.1,0.02
871,0.0036144578313253017,-0.033333333333333326,0.0,0.2,-0.1,0.08
872,-0.008433734939759074,-0.19999999999999996,0.0,-0.3,-0.1,0.1
873,0.03902439024390236,-0.033333333333333326,0.0,0.033333333333333326,-0.1,0.06
874,0.050617283950617264,0.014285714285714346,0.0,-0.3,-0.1,0.06
875,-0.0071428571428571175,0.050000000000000044,-0.16666666666666669,0.36666666666666664,-0.1,0.09
876,-0.04117647058823537,-0.19999999999999996,-0.09999999999999998,-0.09999999999999998,0.2333333333333333,0.12
877,0.03827160493827153,-0.09999999999999998,0.0,0.2,-0.1,0.07
878,0.013580246913580174,0.050000000000000044,0.30000000000000004,0.2,-0.1,0.07
879,0.04047619047619044,-0.7,-0.3,-0.3,-0.1,0.1
880,0.042528735632183845,-0.36666666666666664,0.0,0.2,0.15,0.03
881,0.02857142857142858,-0.36666666666666664,0.0,-0.04999999999999999,-0.1,0.13
882,-0.07721518987341769,-0.44999999999999996,-0.3,-0.04999999999999999,0.2333333333333333,0.2
883,0.06153846153846154,-0.19999999999999996,-0.3,-0.3,0.042857142857142844,0.1
884,-0.4,0.06470588235294117,0.0,-0.04999999999999999,-0.1,0.2
885,-0.016279069767441867,-0.033333333333333326,-0.5,0.033333333333333326,0.4,0.08
886,-0.0034482758620689724,-0.44999999999999996,0.30000000000000004,-0.3,0.4,0.06
887,0.052380952380952306,-0.29999999999999993,-0.16666666666666669,-0.04999999999999999,-0.1,0.06
888,0.032432432432432434,-0.09999999999999998,0.16666666666666663,-0.3,-0.1,0.08
889,-0.036363636363636376,-0.033333333333333326,0.09999999999999998,0.033333333333333326,-0.1,0.25
890,-0.02359550561797752,-0.7,0.0,-0.3,0.06666666666666665,0.1
891,-0.009756097560975618,0.10000000000000009,0.16666666666666663,-0.3,-0.1,0.09
892,0.036708860759493644,0.050000000000000044,-0.3,0.033333333333333326,-0.1,0.07
893,-0.0071428571428571175,0.050000000000000044,0.0,-0.04999999999999999,-0.1,0.09
894,-0.07441860465116279,-0.7,0.0,0.033333333333333326,-0.1,0.16
895,0.0,0.13333333333333341,0.09999999999999998,-0.04999999999999999,-0.1,0.09
896,0.011392405063291089,-0.0636363636363636,0.0,-0.09999999999999998,-0.1,0.09
897,0.0024390243902439046,0.050000000000000044,-0.5,0.07500000000000001,-0.1,0.1
898,-0.0071428571428571175,-0.29999999999999993,0.09999999999999998,-0.3,0.15,0.09
899,-0.1444444444444445,-0.12222222222222223,-0.25,0.033333333333333326,-0.1,0.28
900,-0.009756097560975618,0.13333333333333341,-0.5,0.033333333333333326,-0.1,0.1
901,0.019540229885057436,-0.19999999999999996,0.25,0.033333333333333326,0.4,0.03
902,-0.20000000000000007,0.08082191780821923,0.25,0.2,-0.1,0.18
903,0.0012345679012345512,-0.29999999999999993,0.16666666666666663,0.10000000000000003,-0.1,0.09
904,0.018604651162790642,0.10000000000000009,0.0,-0.3,-0.1,0.06
905,-0.00588235294117645,0.10000000000000009,0.16666666666666663,-0.04999999999999999,-0.1,0.07
906,-0.04444444444444451,-0.033333333333333326,-0.16666666666666669,0.2,-0.1,0.09
907,-0.008433734939759074,-0.19999999999999996,0.16666666666666663,-0.3,0.2333333333333333,0.1
908,-0.05662650602409636,-0.033333333333333326,0.33333333333333337,-0.04999999999999999,-0.1,0.12
909,-0.07073170731707323,0.10000000000000009,-0.5,0.033333333333333326,-0.1,0.16
910,0.03103448275862064,-0.19999999999999996,0.16666666666666663,-0.3,-0.1,0.06
911,0.010447761194029792,0.13333333333333341,0.30000000000000004,0.2,-0.1,0.08
912,0.0036144578313253017,-0.29999999999999993,0.16666666666666663,-0.3,-0.1,0.09
913,0.020454545454545392,-0.19999999999999996,-0.16666666666666669,-0.3,-0.1,0.07
914,0.016666666666666607,-0.19999999999999996,0.0,-0.04999999999999999,-0.1,0.09
915,0.006249999999999978,0.15714285714285714,0.0,-0.09999999999999998,0.06666666666666665,0.1
916,0.048717948717948656,-0.19999999999999996,0.09999999999999998,0.2,0.042857142857142844,0.07
917,0.03902439024390236,0.17500000000000004,-0.16666666666666669,-0.3,-0.1,0.05
918,0.0024390243902439046,-0.033333333333333326,0.16666666666666663,-0.3,-0.1,0.1
919,-0.07283950617283952,-0.36666666666666664,-0.09999999999999998,0.2,-0.1,0.16
920,0.048717948717948656,-0.19999999999999996,0.3571428571428571,0.10000000000000003,-0.1,0.05
921,0.0036144578313253017,-0.19999999999999996,-0.16666666666666669,-0.3,0.042857142857142844,0.1
922,0.050617283950617264,-0.09999999999999998,0.0,0.033333333333333326,0.15,0.05
923,-0.00588235294117645,-0.033333333333333326,-0.5,-0.3,-0.1,0.12
924,0.0444444444444444,-0.033333333333333326,0.0,0.2,0.2333333333333333,-0.0
925,0.03975903614457832,-0.19999999999999996,-0.09999999999999998,0.10000000000000003,0.1,0.06
926,0.004761904761904745,-0.19999999999999996,-0.16666666666666669,0.2,-0.1,0.1
927,-0.09607843137254901,0.07142857142857151,-0.125,-0.3,-0.1,0.19
928,-0.0071428571428571175,-0.36666666666666664,-0.25,0.033333333333333326,-0.1,0.12
929,0.004761904761904745,0.10000000000000009,0.25,-0.04999999999999999,-0.1,0.06
930,-0.03580246913580254,0.050000000000000044,0.16666666666666663,-0.01428571428571429,0.1,0.12
931,0.018604651162790642,-0.36666666666666664,-0.07142857142857145,-0.3,-0.1,0.07
932,0.00540540540540535,0.050000000000000044,0.3571428571428571,0.033333333333333326,-0.1,0.1
933,0.027710843373493943,0.13333333333333341,0.25,-0.09999999999999998,-0.1,0.04
934,-0.009756097560975618,-0.19999999999999996,0.0,-0.04999999999999999,-0.1,0.12
935,0.025000000000000022,-0.09999999999999998,-0.5,0.033333333333333326,-0.1,0.1
936,-0.046067415730337125,-0.09999999999999998,0.0,0.033333333333333326,-0.1,0.09
937,-0.03157894736842104,0.08571428571428574,-0.5,-0.3,-0.1,0.13
938,-0.2333333333333334,0.0011494252873563982,-0.16666666666666669,-0.3,-0.1,0.24
939,-0.01764705882352946,-0.29999999999999993,0.25,-0.04999999999999999,0.4,0.08
940,0.014634146341463428,-0.09999999999999998,-0.09999999999999998,-0.04999999999999999,-0.1,0.09
941,0.014634146341463428,-0.12857142857142856,-0.5,0.2,0.1,0.08
942,-0.00666666666666671,0.10000000000000009,0.33333333333333337,-0.3,-0.1,0.1
943,-0.003896103896103953,0.027272727272727337,0.0,-0.175,-0.1,0.11
944,-0.015384615384615441,-0.19999999999999996,0.2142857142857143,0.033333333333333326,-0.1,0.13
945,-0.03157894736842104,0.050000000000000044,0.0,0.10000000000000003,-0.1,0.11
946,-0.023456790123456805,-0.19999999999999996,0.16666666666666663,0.3,0.2333333333333333,0.09
947,0.02207792207792203,-0.36666666666666664,-0.16666666666666669,0.12857142857142856,0.15,0.11
948,0.06296296296296289,0.17500000000000004,0.0,0.5,-0.1,-0.01
949,0.011392405063291089,0.18888888888888888,-0.5,0.10000000000000003,-0.1,0.08
950,-0.07073170731707323,-0.29999999999999993,-0.5,0.10000000000000003,0.1,0.17
951,-0.01764705882352946,-0.09999999999999998,0.0,-0.3,0.1,0.1
952,0.052380952380952306,0.10000000000000009,0.0,0.033333333333333326,-0.1,0.04
953,0.01764705882352935,0.050000000000000044,0.09999999999999998,0.033333333333333326,0.2333333333333333,0.04
954,0.00540540540540535,0.13333333333333341,-0.25,-0.09999999999999998,-0.1,0.11
955,-0.0034482758620689724,-0.033333333333333326,-0.09999999999999998,0.2,-0.1,0.07
956,0.052380952380952306,0.050000000000000044,0.16666666666666663,0.4142857142857143,0.4,-0.01
957,-0.20000000000000007,0.02857142857142858,-0.5,-0.01428571428571429,-0.1,0.23
958,-0.014942528735632177,0.10000000000000009,0.0,0.36666666666666664,-0.1,0.06
959,-0.04864864864864871,-0.09999999999999998,0.09999999999999998,0.033333333333333326,-0.1,0.16
960,0.03589743589743588,-0.19999999999999996,0.2142857142857143,-0.13333333333333333,0.1,0.08
961,-0.003896103896103953,0.11818181818181828,-0.25,0.033333333333333326,-0.1,0.1
962,0.07435897435897432,0.15714285714285714,0.09999999999999998,0.10000000000000003,0.1,0.02
963,-0.025000000000000022,0.13333333333333341,0.09999999999999998,0.033333333333333326,-0.1,0.11
964,-0.02658227848101269,0.050000000000000044,-0.16666666666666669,0.36666666666666664,-0.1,0.09
965,-0.025000000000000022,0.014285714285714346,-0.125,-0.3,-0.1,0.12
966,0.015662650602409567,0.13333333333333341,0.09999999999999998,-0.3,-0.1,0.06
967,0.03023255813953485,-0.033333333333333326,0.0,-0.04999999999999999,-0.1,0.05
968,0.03589743589743588,0.050000000000000044,-0.16666666666666669,-0.13333333333333333,-0.1,0.09
969,0.012499999999999956,-0.033333333333333326,0.0,0.36666666666666664,-0.1,0.08
970,0.0012345679012345512,-0.29999999999999993,0.2142857142857143,0.033333333333333326,0.15,0.08
971,0.019540229885057436,0.10000000000000009,-0.16666666666666669,-0.3,-0.1,0.05
972,0.0,-0.19999999999999996,0.16666666666666663,-0.3,-0.1,0.12
973,-0.03483146067415732,-0.36666666666666664,0.0,-0.04999999999999999,-0.1,0.1
974,-0.2333333333333334,-0.01764705882352935,0.0,-0.3,-0.1,0.28
975,-0.0012658227848101333,0.050000000000000044,-0.3,0.033333333333333326,0.06666666666666665,0.12
976,-0.023287671232876783,-0.007692307692307665,0.0,0.2555555555555556,-0.1,0.11
977,0.014634146341463428,-0.36666666666666664,0.16666666666666663,-0.13333333333333333,-0.1,0.1
978,-0.027906976744186074,-0.09999999999999998,-0.25,0.033333333333333326,-0.1,0.1
979,0.016666666666666607,-0.033333333333333326,-0.25,-0.3,-0.1,0.08
980,-0.0046511627906976605,-0.19999999999999996,0.25,-0.3,0.1,0.08
981,0.042528735632183845,0.10000000000000009,0.0,0.2,-0.1,0.01
982,-0.03157894736842104,0.014285714285714346,0.25,0.033333333333333326,-0.1,0.09
983,-0.03698630136986303,0.08571428571428574,0.0,0.2,0.1,0.11
984,0.0012345679012345512,-0.033333333333333326,-0.09999999999999998,0.2,0.042857142857142844,0.1
985,0.06341463414634141,-0.033333333333333326,-0.5,-0.04999999999999999,0.1,0.06
986,0.010447761194029792,0.1636363636363637,-0.16666666666666669,-0.3,-0.1,0.09
987,-0.20000000000000007,0.023684210526315863,0.0,0.3,-0.1,0.23
988,-0.009756097560975618,-0.32499999999999996,-0.5,0.033333333333333326,0.1,0.12
989,0.051807228915662584,-0.033333333333333326,-0.5,-0.01428571428571429,-0.1,0.07
990,0.02857142857142858,-0.19999999999999996,0.16666666666666663,-0.3,-0.1,0.06
991,0.016666666666666607,-0.19999999999999996,-0.16666666666666669,-0.3,0.2333333333333333,0.08
992,0.029577464788732355,-0.033333333333333326,0.30000000000000004,0.2,-0.1,0.07
993,0.016666666666666607,-0.09999999999999998,-0.5,-0.04999999999999999,-0.1,0.08
994,-0.03157894736842104,-0.44999999999999996,0.0,0.15454545454545454,0.1857142857142857,0.15
995,0.01025641025641022,0.050000000000000044,0.25,-0.3,-0.1,0.1
996,0.013580246913580174,0.014285714285714346,0.16666666666666663,-0.04999999999999999,-0.1,0.06
997,-0.020000000000000018,0.13333333333333341,0.09999999999999998,-0.04999999999999999,-0.1,0.1
998,-0.06666666666666665,-0.19999999999999996,0.16666666666666663,0.4142857142857143,-0.1,0.12
999,0.013580246913580174,-0.19999999999999996,0.0,-0.09999999999999998,-0.1,0.1
