,0,1,2
0,-0.7974258817452587,0.02223270918184872,0.4796852423637139
1,0.11549152604644397,-0.5538601896167453,-0.09210449173318011
2,-0.02634953191408229,-0.35330688466594184,0.03461910544160082
3,-0.05028793391281794,0.05365578135195104,0.06692229787169765
4,-0.06681313240978715,-0.24754382409426356,0.07906628486010765
5,-0.04716948250491804,-0.22045458744531177,0.06063518460372586
6,0.00632407437782323,0.09830933671605413,0.0002041614247649477
7,0.007585647548722818,-0.13189339206204348,0.0333410109863662
8,0.07564046459940177,-0.23885867794214655,-0.036544505757407475
9,-0.04710758556647909,0.17624297137979517,0.0526405744275537
10,0.0066249880565711905,-0.14750597709152963,0.002532845455502297
11,0.02846993041935164,-0.23515737129793024,-0.014724638988440574
12,-0.026000572655553666,-0.28344966714836706,0.033575063600481715
13,-0.027458053535605376,-0.8044951874376293,0.0402284248746256
14,0.0005290363133652054,0.26349657562875517,0.005159742743065522
15,0.044513002476535,-0.20091065887323717,-0.03407707121763815
16,0.0722510235913334,-0.7619433011558989,-0.05890908034386098
17,0.06771514951963153,-0.07892195572491129,-0.05995550425669717
18,-0.0018516420228589237,0.28085865603349836,0.004459118446182629
19,0.025169858489056507,-0.31264682173264624,-0.016791691686839614
20,0.05010187414731759,-0.7691269854964398,-0.03427112783159237
21,-0.04448126048393042,-0.00865783219113414,0.04912302620100252
22,-0.03456989567211877,-0.3073201685611613,0.04538839949256544
23,-0.00781475041030355,-0.616004491015703,0.029978545222411526
24,0.00034870478412951655,-0.4274078575641152,0.016350913338138866
25,-0.057429213590258765,-0.6618384747215035,0.06626448767930879
26,-0.05566222829142764,-0.13222890014239463,0.10524696207061084
27,-0.05142910743545748,-0.18000846295676837,0.06148637712379843
28,-0.030276223720301254,0.1860439651994773,0.04672965276295406
29,-0.00900806489563355,0.06821311382558248,0.026764775389342504
30,0.008092476284619954,-0.37636916789884833,-0.004554629707886079
31,-0.028768002871932596,-0.16750325023292278,0.03898776682970845
32,-0.024276862708044078,0.0005940910706451197,0.031878927447585054
33,0.0010601951119166841,0.043747035056777905,0.0035129364886346366
34,0.03512265339817611,-0.0437779827522044,-0.025860243219769926
35,-0.5543768796969302,0.06882402511593422,0.4326543857418201
36,0.08022448127567228,0.11715477207931468,-0.06448011116299608
37,0.037804537526678006,-0.04582552743518309,-0.02496467609751721
38,-0.013072503538192115,0.2104136466268185,0.016943697435881973
39,0.0700389681310003,-0.22247170433799662,-0.04784866930186854
40,-0.03826846248452542,0.23592782515326116,0.040978107032872
41,0.014600569483046888,0.1485746416515783,-0.009476206493406381
42,-0.08113148769225875,0.1282286761115632,0.08461916572661289
43,0.0805180500688194,0.23715969508520673,-0.0763977498090162
44,-0.041410905540732346,0.39545884290107736,0.04519872063422372
45,-0.625734975584501,-0.05596891302122159,0.5569456378971074
46,0.024246928816377133,-0.5695084005691294,-0.006746843546208993
47,0.005475955211598604,0.27768929124721053,-0.003198088571954713
48,-0.08797963158171718,0.043486559312661766,0.11377699821911062
49,0.0363139181130967,-0.2416723800298176,-0.02386613734281002
50,-0.06389733358853877,0.19509582275709847,0.08896204532859246
51,0.008085084800569353,-0.11826569354227279,0.011958140106401515
52,-0.0024504111461242095,-0.1918790073650048,0.01210241149318847
53,0.01623310446342563,-0.08721632026279902,-0.007784812517258501
54,-0.05304957686499889,0.07970019729530342,0.061129081833472244
55,-0.030748233255760704,-0.11891781815962277,0.04604064246326107
56,-0.0027354627631878126,-0.3337594402535114,0.016031846403033
57,0.07993478867577042,0.12236083488256877,-0.0744439012302521
58,-0.05139584042300083,-0.31614158615672094,0.06822024682914264
59,-0.03312176825587143,0.0041560217117077025,0.04330165687658473
60,0.02345704242280644,0.1870023859099248,-0.018073767918600426
61,-0.04507414692793943,-0.012487052349723804,0.05161792760384446
62,0.010498722325592569,-0.29393379640088624,0.000763332936578081
63,0.025615644292166673,0.027602249707832538,-0.016651403189648705
64,0.009399607998634263,-0.0726514602433499,0.0010773112297214312
65,-0.06582954492581805,-0.27662291892446755,0.10279080037374785
66,0.03956783505970596,-0.013581965531396456,-0.03182373785143045
67,-0.6084478475414417,0.06897424952725129,0.43492903660826004
68,-0.004863714500377814,0.06246591825839487,0.009190418172790033
69,-0.01056577094182476,-0.5580490994169699,0.018945637569626
70,-0.06712376305778889,-1.6011173884995442,0.08339571206132292
71,-1.0137341381090117,-0.04529822199573302,0.5509194529890924
72,0.021186027257260598,0.2438143745291984,-0.013419620980874925
73,0.017745543661172203,-0.020844911218417694,-0.0037421918343028436
74,-0.7644541654513805,0.003058245746068944,0.4996168783659056
75,-0.03875466474025857,-0.5727004709140753,0.05736568925138727
76,-0.006353321293582015,-0.4241916365225489,0.026545764228619304
77,0.05464696396370505,-0.13394372516141617,-0.04638387569420365
78,0.03858046516549485,0.021283496963037107,-0.02409615005582623
79,0.05615531743553337,0.36401708006225897,-0.051543999738574715
80,0.025613129267348045,0.4012646378109085,-0.023623553404045084
81,-0.04542645609769347,-0.4323123156398339,0.05429531469311485
82,-0.039615581550222045,-0.2913412896730175,0.05314664429643233
83,-0.5799651569407714,-0.02767805003852869,0.5282009211075511
84,-0.023377483993065495,0.37995412809623585,0.02627753563038641
85,0.0015585942354938709,-0.33564624741278876,0.08048748024603776
86,-0.012973773220191553,0.36915952753811765,0.014152440212608553
87,0.0015501942747961905,-0.04490457984610052,0.007193082111138096
88,-0.046867505359399875,-0.39864286589300746,0.06049591112793758
89,0.08725085049089532,-0.8557382595802696,-0.06993498117004128
90,-0.01784172740702794,0.11578705574143888,0.13654600166692465
91,-0.06460969558209217,0.12930679471244977,0.07562870193148877
92,-0.5963446680427618,0.01638654757200808,0.4849662270153691
93,-0.02894402228371573,0.007876264881047756,0.03264945998639757
94,0.04243124860024783,0.1587052700004069,-0.038593988814249316
95,-0.03713492400141316,0.39870944449303236,0.039187904209590896
96,-0.12488344324277445,-0.30694011062553617,0.13852457659042977
97,0.07177794904636703,0.17403439429144507,-0.062232103732248786
98,-0.5032073374082252,0.06254574998788265,0.4385062994104551
99,0.016328674562651857,0.2684170444396594,-0.013849558261421861
100,0.08734578801569293,-0.08093496291681529,-0.07932641900450267
101,-0.00587741335041303,0.1571218391754139,0.08069157928967945
102,0.05421652365594842,0.023144955499587283,0.3493978681428861
103,-0.003212446467140917,-0.8244036202376119,0.016424358204845703
104,0.013318622523543544,-0.49566127250141717,0.002825055796855736
105,-0.044239880666606,-0.33340857086319653,0.05686657970975148
106,0.05011269591496492,0.41475308483318274,-0.04902981902631086
107,0.045704915696011206,0.4998808498440285,-0.0445134899838597
108,-1.0586327184066975,0.010682465316723677,0.49501068652051056
109,0.007283936431821347,-0.44858068541854845,0.006098168274083832
110,-0.08251707057862401,-0.16797748092806497,0.09071351632351617
111,0.043240268385920544,-0.09520478226878676,-0.03685581787937326
112,0.023691386548682747,-0.08508611642816977,-0.013950946501053068
113,-0.6728968830777318,0.005988055111415536,0.4965163340232325
114,0.032949730180406256,0.03480231743726658,-0.006049769892276799
115,0.026594912344299226,-0.21553187095461585,0.0075429196874507625
116,0.02342358054852145,-0.13756586137157212,0.03870942699196735
117,0.0032799241026666426,-0.15516953709363263,0.14552965412769708
118,0.008121081942495945,-0.10276319169778508,-0.0020122392060931134
119,0.05684638644168438,0.10712290373758449,-0.04785191678760225
120,-0.034419867646998226,-0.20927425563749885,0.11270297665389625
121,-0.009490224430784067,-0.40039471594785475,0.029090123244159598
122,-1.227504714801825,0.0465369397201475,0.4596553935160283
123,-0.08640839123317068,-0.05143624081195142,0.29009058934867665
124,-0.026178277586589638,0.1252290065276771,0.03105857560898994
125,-0.6723518406648651,-0.0031483320305100704,0.5058555881686598
126,-0.037228151144084176,0.03178682111439923,0.04153800142149942
127,-0.8605116545004913,0.04020548077062214,0.4630002563115468
128,-0.04258484319549427,-0.38152736844593627,0.05433003854900051
129,-0.0060254826422629915,-0.27936527513835396,0.02613231724716138
130,-0.004130760916572274,-0.7330289707248212,0.013961946595038285
131,0.09189176635687324,0.19588752549378807,-0.08634770698479019
132,-0.026889379625701038,0.03382994881145274,0.03391787037070662
133,0.01826325719345978,0.33454015721041275,-0.01605857999366333
134,0.012965065559539468,-0.24347771380529382,-0.002374866648431862
135,0.06067693956090103,-0.5323460278165738,-0.04537461801761628
136,-0.05232303646078129,-0.496412448978209,0.06365210941099042
137,0.010597169508935744,0.16632876028827737,-0.0064659485982879236
138,-0.05081764488452212,0.008064400272556393,0.05964000398138046
139,0.08154067755969674,0.16539561632057964,-0.06489487511013203
140,-0.07183963701641449,-0.1336520588166178,0.08082863576521765
141,0.028594356945291555,0.39874333690475217,-0.02625703858456177
142,-0.06575899311383682,-0.10774530951681255,0.1004461173636272
143,0.07008646844749356,-0.35902738506303644,-0.05522064679132518
144,-0.04256680931698609,-0.35592286796482786,0.05558050625535157
145,-0.5663572519160722,-0.02654529319465354,0.5270230366993105
146,-0.006665840175272386,0.1945970789086231,0.024590065030238632
147,-0.04656843318755188,0.2777943217758819,0.05816049135996525
148,-0.029106113864325156,-0.10212124764435121,0.04973465868040603
149,0.010639360479427706,-0.09157575768702614,-0.002208348825097346
150,-0.04957271432124555,-0.27156544841003327,0.05679264166213341
151,0.0027402862781771287,0.30943464114118124,0.0007392153342887013
152,0.03036260664228463,-0.404914373149474,-0.0210098368443671
153,-0.013327992558181068,-0.1410133993915773,0.03843540883151684
154,0.051158915185995246,0.12123782209784395,-0.04599986206893732
155,0.013268146385826629,-0.4350298252452732,-0.0056817626127777885
156,0.01310075055201998,0.1276289720156648,-0.004620371424220139
157,0.022335890461872676,-0.5090408936416304,-0.018210383325458677
158,0.00011978394795764125,-0.3892950200866142,0.010553193700457087
159,0.006908559063429909,-0.19034717648597538,0.004247532705360641
160,0.001251188745170051,-0.3938709106150726,0.01665125324203484
161,0.020640505351311456,0.23169326374382415,-0.01890682190166649
162,0.037709809670269934,-0.5774514856902699,-0.02432787412594348
163,-0.07071232529193539,-0.008293235359431328,0.1608539927658395
164,0.039746000658490654,-0.8773645495218385,-0.01990645295596596
165,-0.02625027106772304,0.05599118177822837,0.03794751038803645
166,0.08093388713382899,0.11423922301740241,-0.07066660452326755
167,0.0001592668740419967,0.21849848604301925,0.004347305619254371
168,-0.0278683389883716,-0.18004140611788821,0.03439006965966678
169,0.006738311641055539,-0.26537266694571615,0.004071242059159204
170,0.07421824456919879,-0.3705490968821319,-0.06288103647178286
171,-0.07961025332501914,-0.5002031904383452,0.09065736857037905
172,0.009797205565871048,-0.8327357526039223,-0.0044270737331919465
173,-0.005794245932250308,-0.6341455692558254,0.019334461812133212
174,0.0831734029251614,0.03035057192514523,-0.0776451746151613
175,0.015941915134341844,-0.1237715816845586,-0.004427072191601724
176,0.017506294334705963,0.4739438398095026,-0.016983544880403427
177,-0.0664480254896469,-0.007574407150363394,0.0761528058861827
178,0.005357866089719332,0.24124076043433407,0.00045271023469911143
179,-0.0550632240131137,-1.1102324005274902,0.0737252541312862
180,-0.02208932327497659,-0.27865132876573134,0.029654943329884078
181,0.038505676931559485,-0.16161442258985131,-0.03150447593634544
182,0.0069119216266213535,-0.06527075846963842,0.007964828055881298
183,-0.08855313904689333,-0.20731160877949384,0.09597824068368448
184,0.030225235294401687,-0.2143185054073824,-0.02575797285019098
185,-0.07401298504135456,-0.04933076128648789,0.08066743390878639
186,0.030149743629625414,-0.4547954089799354,-0.014390621187872512
187,0.02099147703040183,-0.20221027726461188,-0.012313055978861712
188,0.018660444729663883,-0.13902893456490273,-0.008137414660950868
189,0.055818282965464094,-0.19345101969812062,-0.0423314355175196
190,-0.11396411534219986,-0.18042551810655344,0.11736288375878598
191,0.04537020942377734,-0.4948472592871529,-0.030807164861824502
192,-0.018184038186701,0.2884775462918938,0.02050409917295781
193,-0.04673389999485045,0.08872887804166629,0.07589687775192908
194,0.01492200497531404,0.2257547871220268,-0.011451998361074515
195,-0.011205755211925017,0.19077027859640294,0.020146474197675162
196,-0.03422990359451161,0.23332886257534036,0.03701919840047344
197,-0.01611774340081462,-0.0369669827181493,0.028618125144430677
198,0.005214908240457783,-0.13829836892714303,0.00508130419422389
199,-0.05552958962941068,-0.5294089870331405,0.07305941878267777
200,0.003752618522354867,-0.17245836815278442,0.007066757264447347
201,-0.07200052922733324,0.09003654892214552,0.07740793597694165
202,-0.0990790795430635,0.07109402874924553,0.10567561737721735
203,-0.9160156046171879,0.06599928374318609,0.4359287758102555
204,0.040788708440383736,-0.07316651716125533,-0.030965424830757458
205,0.035278460739069484,-0.5433982213851628,-0.01801963382508188
206,-0.012048648345111657,0.1082378686765737,0.01888349103872133
207,0.042804135120149356,0.03356059530809352,-0.011231035651801903
208,-0.01027301432765182,0.19793484051131127,0.013774520069584241
209,0.006343407451575134,-0.13338531237058399,5.387974664643025e-05
210,-0.019897847857561657,-0.20714373307304246,0.03226827379144027
211,-0.012742714409651135,-0.08505280505229224,0.020755055678648205
212,0.07207115729379443,-0.6372161697676251,-0.059978284023180096
213,-0.02470227370415745,-0.3417449464227479,0.03450678577678059
214,-0.04525748085414438,-0.18015483434855595,0.05541583851005498
215,0.08172357635258987,-0.09225019234345005,-0.0763317862030217
216,0.10343916360291083,-0.12807825496026748,-0.08588274555739463
217,0.048265248935775995,-0.36939763221190136,-0.04092394588659454
218,-0.006193107017706367,-0.3397771748277174,0.016196115831426595
219,0.04268723713460765,0.004066951715638867,-0.03730103428041798
220,0.003396769208628747,-0.003773689796460644,0.005732299053462839
221,-0.0010370024699516422,0.26307869820600904,0.00528291985778435
222,0.05481465559024201,-0.4499546531116025,-0.04275742388581989
223,-0.01191553762947628,0.07597807220080843,0.020157665432870543
224,-0.017509258685653117,-0.5571695105306081,0.04454042523362205
225,-0.012619361568917409,0.2853983991340626,0.017870899790639896
226,0.006527281616204306,-0.9624082372698908,0.02285142876151758
227,0.06560015031215616,0.12774826834486996,-0.06122163149248331
228,-0.02908435333510373,-0.07331828859541928,0.03670362842874818
229,0.11723632497714842,-0.051647138507987744,0.13961492500114378
230,-0.06088302292881442,-0.9393518471186271,0.07742464881909211
231,0.004097166905798755,-0.7161960046795305,0.01054635115322526
232,0.04188057477283169,-0.07081777588299404,0.046347987721607295
233,0.007959898846486402,-0.05203217035794222,-0.00012000987762439763
234,-0.02782631986760642,0.03377086573962551,0.033963959269105205
235,-0.006724538887951104,-0.24317141325889452,0.06858607633511042
236,-0.036475496146472164,-0.13873333236239904,0.048520652870790625
237,-0.0401814687604205,-0.04548718478527897,0.2129960236409221
238,0.03327870796219967,-0.2514434021678025,-0.02229259842037959
239,-0.0003047104538567158,-0.127720484418131,0.2086067474099957
240,-0.007829318182645761,-0.6263543701148393,0.021251618805832095
241,-0.048104014011963736,0.05255517331424853,0.053694785389396656
242,0.027368240640827768,0.13624772296471344,-0.01015893786307879
243,0.01107570016072068,-0.44280581414222986,0.0022786410395204937
244,-0.8866428331544477,0.09032186490491467,0.4163556408679164
245,-0.1880133860684685,0.01652263121024533,0.46161303406837956
246,-0.013323155022768263,0.06259992092302047,0.022652847351960874
247,-0.10084662529821375,-0.18462384735101395,0.13237059528906492
248,0.02578163618135476,0.4283608247806078,-0.02461258644454574
249,-0.013803382453438484,0.10377440538812899,0.016097915726389033
250,0.06372040414372138,-0.3020436464755266,-0.055062763637528864
251,-0.5110064137471844,0.06639263553987029,0.43639373023446365
252,0.05202726520325518,0.47245096615385185,-0.05139065481085982
253,-0.04692748927573276,-0.005011447293569615,0.055173000520053736
254,-0.02233139867268985,0.40084933005854617,0.024175061183140088
255,-0.008067590414517545,-0.3994657884604493,0.016981572394976864
256,-0.01900471100811507,-0.15776542566076274,0.026669839583946895
257,0.0010724570749998108,-0.06486269018563279,0.006850634986649084
258,0.04748412063110008,-0.8862344182924127,-0.03601437231971204
259,0.026423442839313083,-0.34519773586788327,0.017157616096046695
260,-0.026433089750773853,0.045085237534852274,0.12669780116593735
261,-0.058910612178161736,-0.03391444122230264,0.07221071939139767
262,-0.011223891430794164,-0.055783143198924634,0.016669483948475432
263,0.06262405688257644,0.21721040892846943,-0.05640661121940252
264,-0.05479345271328062,-0.11683708273463311,0.0604138890134941
265,0.03628204225585541,-0.30114641987465707,-0.03125747148307232
266,-0.08731719746427768,-0.4870009703705489,0.098113402739153
267,0.0027601978876137245,-0.06334817534964693,0.004033102591233501
268,-0.017242295974110977,0.22296776759848524,0.024516414194078264
269,0.061393683203642135,0.05247519284894153,-0.045108291512291544
270,-0.03907319404167853,0.14888390116532346,0.061540283186774444
271,0.11548893512105796,-0.5260267696197982,-0.10407377807364923
272,0.0761893883629099,-0.07295365133742776,-0.051521952854297066
273,-0.04255398287538903,0.04566469493978598,0.04996604667471593
274,0.035742464167491494,-0.014675711045068762,-0.030238282415366028
275,-0.015693296673854995,0.3295287008453288,0.018169744713548083
276,0.040432400732437035,-0.024922158639789027,-0.033648146019970224
277,-0.03001962643002898,-0.037028094832122826,0.03711774498765828
278,0.07908180839894174,0.06583154333072427,-0.07394930574825957
279,-0.06110545854111882,-0.950951691430852,0.06944453593845719
280,0.06687239376149656,0.08206266219094871,-0.06396353537207324
281,0.003221863495388222,-0.7382195782770763,0.0067096680387916195
282,0.09736765374552925,-0.36912463880074187,-0.07610482330951117
283,-0.5977548792630034,0.0598044949905443,0.4427164549975124
284,-0.015634900020551235,-0.09931979609042424,0.0343128166947871
285,0.0626558749755497,-0.055984266113964676,0.12541072791566263
286,0.01598140505899881,-0.4591928207848315,0.0015717310061900208
287,-0.08199755624376848,0.3696156327503981,0.08325561332992015
288,0.0544004664362463,0.2093222505035769,-0.04887921498132346
289,0.04900094989472503,0.06714604124693402,-0.03840014190447368
290,-0.012563344577059099,0.06676916484589535,0.02097669438859998
291,0.054850599272633804,-0.19588889616407756,-0.039835809363899445
292,-0.0045207174059335165,0.37214691787646936,0.006740699970850187
293,0.009640776987651645,-0.1851425058609535,0.0014757555379260338
294,0.03487009610681868,0.09283501925578519,-0.028681605030904167
295,0.04253895169054034,0.2708505919437071,-0.03873531465408473
296,-0.03582895543874032,0.1155021463045175,0.04071032001433468
297,-0.04469571066435729,-0.15069623191124232,0.05923972317428252
298,-0.7027439770046808,-0.019451322401863036,0.5212842489478913
299,0.04573411648460368,0.12117118930553461,0.011157315757391529
300,0.007408216022717573,-0.5679050859924798,0.005495543601464874
301,-0.051923000043665346,0.05159027459713139,0.057473814198694184
302,-1.033922015195127,0.018729138054488836,0.48458676886500895
303,-0.015440595985071526,0.018654235775595662,0.03034956136873018
304,0.014981044098776541,-0.18174643885373187,-0.005226859337441396
305,0.012561272879146657,0.4098645852635887,-0.009891159001142227
306,0.018899917815636158,0.09685935646374122,0.005578434742773652
307,0.04084217483956665,0.365335216153861,-0.036981021748480995
308,0.0549235413947855,-0.44671619447103533,-0.04090058509266396
309,0.03795999902680314,0.14065180613017136,-0.03080845155466386
310,-0.05809369197258041,0.15150901034116704,0.06099766494944288
311,0.03754104735234942,0.403042486364102,-0.036196061742467006
312,-0.01762529459082418,0.060931551951019514,0.02773993027381994
313,0.12019495940805203,0.014978478940715356,-0.10809062979870532
314,0.022709191775813098,-0.7701831806404859,-0.0020229138171522438
315,0.03682882531047271,0.1626015856965286,-0.021859735725915017
316,0.03709148998468281,0.36795033104146935,-0.03573836071313713
317,-0.47743278799192246,0.046501090435297376,0.4536903805921203
318,0.053538372733912265,0.49272188339227085,-0.05280857486181276
319,-0.02944311079667372,-0.8188346934600916,0.042337026623307905
320,0.07045237549284211,0.18118183790932763,-0.06188842366600488
321,0.03755347059237746,0.2793763504401381,-0.03342263666994154
322,-0.036666872508573034,-0.019879252625908783,0.04246542106998106
323,0.0227451775952332,0.328564589954881,-0.021191732894110374
324,-0.07941130974863253,-0.28110961069679774,0.08502489615621789
325,-0.004245618744554758,0.08358399308800768,0.010840344955233831
326,-0.6465708323083208,0.08870506803599798,0.4136476909674452
327,-0.06612755437462314,-0.24316372601692965,0.08102235015075382
328,0.026099998839282046,-0.16411845206493564,0.00012830229507824242
329,0.004713742134656362,-0.16457098969761752,0.0006405357200018215
330,-0.015528101207049838,-0.9177067430149513,0.0323542449087447
331,-0.03042867491698442,0.1748421947892066,0.04870188099520056
332,-0.003752402526079446,0.0029652403038697983,0.010658355526460127
333,0.047928145759120744,-0.08949194296478258,-0.03772942433953835
334,-0.07038293024978981,-0.3175760843208516,0.07785486179050043
335,0.023673047120204904,0.16961694143001915,-0.01730003721778155
336,0.003083575213233436,-0.7456548727686667,0.014398763058513168
337,0.0066955090071911805,-0.15667401248465457,-6.181379227280103e-05
338,0.02850457649122773,-0.11164586605371835,-0.02210307206577818
339,-0.056555014326289066,0.12342226342410301,0.0783165594392624
340,0.0035303782959488217,-0.3309797039500588,0.01983590400693936
341,-0.07661337485890074,-0.04744102597134309,0.08791323848559932
342,-0.016595509568315348,-0.05885961301616127,0.02418720701658515
343,0.04873301694068877,-0.3517305923076202,-0.0343255991927158
344,0.03749486512604716,-0.28562538263029436,-0.024324941161945616
345,-0.0038477693026051085,-0.6766564823282429,0.02261270871101533
346,-0.7707284822766061,-0.05007858697664619,0.5522850859296458
347,0.008839256060032552,0.14751030666569287,-0.0030579928697231935
348,0.03727444483682496,-0.12145758934439443,-0.024099804153200465
349,-0.06094236674862896,-0.20280744032172032,0.06607728733721364
350,-0.005739947729220596,0.1544997703828075,0.015932756185859716
351,-0.029242329538102685,-0.41223044203533893,0.039838186888069456
352,-0.01915390222779323,-0.08465023103529662,0.03159482146155824
353,-0.6777501112859623,0.042542091328803044,0.46010141510257413
354,0.01735723995044758,0.10634979049076121,-0.012425150556931384
355,0.07159839557695702,-0.0006030033266060109,-0.06244317319450011
356,-0.48437336605965453,0.07019794722970485,0.4323123331816057
357,0.02958149219465045,0.133619518460669,-0.016118785087695073
358,0.03567167735275967,-0.03413590098067221,-0.02655475609942482
359,0.011574552853663933,-0.26165423091419315,0.011622310659371691
360,0.03229741964432442,-0.050536868744687824,-0.028800413913990495
361,-0.02612141579818783,0.0794645889115666,0.030065555751090187
362,0.05899849466529905,-0.3776051364342233,-0.04963245835430371
363,0.04532107984521572,-0.3868350915598304,-0.03040658110273489
364,0.03231694220808312,-0.1434929961118006,-0.02015236331832523
365,-1.5746710207532626,0.036630243538625096,0.47226016657570996
366,0.06363347462122593,-0.13552502116958431,-0.03426881779801192
367,-0.017194396609024776,-0.32274775537179956,0.0252499301966526
368,0.023367945327009476,-0.885535489193727,-0.01209671785084356
369,0.017370837072791856,-0.010118856007358068,-0.008931001983509419
370,-0.03360242743566777,0.09054823281144564,0.0388643181922082
371,-0.0022069308088257245,0.08084355881876915,0.008044223954039467
372,0.018563237516545428,0.03816511650935683,-0.014720052548487956
373,0.045969234404567016,-0.5238456745218925,-0.033131455497449454
374,-0.00862196923202152,0.291762830127688,0.012614273244827359
375,-0.12208482211568927,0.06317955042217893,0.20454555651076783
376,-0.03513068777566786,0.34091549390292575,0.03934511759859572
377,0.005438091529765154,0.31549350281310207,-0.003538645642598453
378,-0.04667797939406093,-0.16010762787589683,0.07857632111511634
379,0.034758446067368665,-0.1995863094635471,-0.009790724379317453
380,-0.002809187270780722,-0.09925372726736265,0.00996652175073973
381,0.024476303132793253,0.0029175464675262885,0.048541922800344084
382,0.07185309860299349,-0.0812548865816684,-0.06401580278077745
383,0.02318264965135164,0.06379279287428852,0.008055860609488605
384,0.07253654686974786,-0.06885474027013655,-0.0635570688497894
385,-0.0032349212947717643,0.004982680430264841,0.41043074706644145
386,-0.6279872677752139,-0.0709282419606394,0.5718411863736726
387,0.05790533444172086,-0.18602670600034044,-0.04897814995641602
388,0.009755396078070078,-0.02620067818762195,0.004179461852837903
389,-0.013447175234661657,-0.6527147932855248,0.027118386651271975
390,-1.1256054403162434,0.013578799049072221,0.4928130433445809
391,-0.10849865080201149,0.2504544951936828,0.11244796271413202
392,-0.6912864910690739,-0.020737112474724317,0.5244891988038001
393,0.0068942061409862365,0.1413422647905609,0.0026101443341246975
394,0.032727588017019915,0.10408261906741445,-0.02586926851382623
395,0.09688023969008497,0.2763766699260478,-0.08982916115527632
396,0.020273298623488367,0.21075424452165448,-0.016559069974266323
397,0.007440243195303564,0.11675077436256753,0.0003735461813512302
398,0.050404189883082484,0.17316197202302097,-0.047386252140202034
399,0.010945174798171475,0.3693915890843229,-0.008114103083894519
400,0.017460043869815145,0.2270428826384867,-0.013975037935039267
401,-0.05058766320780683,-0.037648372676975406,0.06032887739719024
402,-0.03775622884872798,0.2067720508609091,0.043887550135696646
403,0.046405970633135674,-0.17173803481429128,0.039771310020555575
404,0.017836741346949125,-0.005834050977537142,-0.01260003342370419
405,0.028874902274681924,0.3594131847258385,-0.02684136166409576
406,-0.017592019099425538,-0.2626616929012747,0.031003273227858813
407,-0.007078980616920472,-0.5651224940336642,0.01131115467058737
408,-0.02625013714328306,-0.3752373479408976,0.036437983672854446
409,-0.007277389264002565,0.025433621789816674,0.019426902976603287
410,0.01408410364428292,-0.09446813178186142,-0.007998581290021433
411,-0.004006616508216765,-0.018181647518091815,0.010176716880335335
412,0.015389032250921364,-1.4990698006849061,0.0007266384125653076
413,-0.02263797306092863,-0.13218456319901611,0.040924370765071216
414,-0.07822341913779995,-0.025377535275050933,0.08627219322827046
415,-0.021871129474342887,0.1764276308343471,0.02609494683002117
416,-0.04064214118519127,-0.6693700933740054,0.049671964802701724
417,0.002450008890768407,0.049013589570122584,0.002084355302438098
418,-0.01655430104426958,-0.2959914712380682,0.027466421426982832
419,0.03537352856055076,-0.21152105938398025,-0.027904582681105468
420,0.011258735925766983,0.2154764884292757,-0.008892477945795008
421,0.0013529137309180594,0.18826356016025836,0.0005256223905058732
422,-0.037128183684483895,-0.2753603633192288,0.07403979266622104
423,-0.013676222285461725,-0.22077079950190182,0.027818113829790492
424,-0.02795796333993472,0.22061328516903522,0.03399225337571943
425,0.0034410144734466908,0.24039927876590428,-0.00028451364495617784
426,0.05412361640995744,0.18899637187761065,-0.040248781117728415
427,0.007174520357803971,-0.07610725264165769,0.0009914244641884124
428,-0.013813808360202184,-0.8689962768292565,0.02465526810795461
429,-0.033661393067982326,-0.24100151068774084,0.042149474479419385
430,-0.061178494583164156,-0.041078363055233214,0.0755754906373262
431,-0.0015727089143723338,-0.0903356892279662,0.009815390638762552
432,0.04777420435658075,-0.7383607812962157,-0.037485124471358405
433,-0.01316859915180324,0.09782049901278178,0.02561694801053659
434,-0.020027416310837265,-0.16903982845753474,0.03300766455377118
435,-0.0027144180543544616,0.41419846207091915,0.00420998621209958
436,0.02801003878740249,0.09223436862210055,-0.0053497039388066695
437,-0.027660900802675803,0.0014635547953957273,0.04272891822353745
438,0.04096752067510745,0.16403346612018277,-0.005535719546944506
439,0.031043558161389484,0.11483468359649762,-0.025216633917480975
440,0.010659447849171722,0.07622578000094549,-0.0011019071565108334
441,-0.024913150510263216,-0.2951370345959986,0.029534493814777647
442,-0.02083026724262238,-0.09095054549458942,0.02767171058164604
443,0.0767922780865451,0.270118434063646,-0.07004545351804131
444,0.005524865155409842,0.08329420372455976,-0.0029914811868246714
445,0.01325374168204796,-0.5205231551909177,-0.0008484189195723956
446,0.042597188251563445,0.2972848854009994,-0.038181566800253225
447,-0.03656626379428918,-0.21506175543778427,0.047422191660585096
448,-0.041185568954113294,-0.708897890585522,0.04819184288390181
449,0.1140464797059404,0.024712680684362387,-0.1057958065196383
450,0.056697350370238375,0.37980400738750586,-0.05457463025444554
451,-0.06557592704148352,0.17248560260342105,0.09962792818764592
452,0.06610757729762451,-0.03544355437025498,-0.05167035013759551
453,0.009621955826476514,0.021405627823493534,-0.007669090514464642
454,0.007935295781948737,-0.05131503411841615,0.003249710816058496
455,0.0015245178474558863,-0.1353299969087311,0.07999286004133603
456,-1.0231404027345135,0.08745393660625045,0.41865200678715714
457,-0.011991932610732947,-0.22040828176180172,0.019076096102243582
458,-0.01921569222831332,-0.033984795685084834,0.029511074297448772
459,-0.028006579881449056,0.037193746237726866,0.03931137140235046
460,0.03935977400363422,-0.25022780305298453,-0.02988472307895472
461,-0.5462391311320298,-0.003156451821598294,0.5038457746905651
462,0.08163936430796759,-0.6177922006664727,-0.06964504865822323
463,-0.03495904694822294,-0.09541220839800396,0.04168448488562035
464,-0.0375566495773616,-0.029705275431162248,0.04936821659785289
465,-0.0024372544391672024,0.18798600624495265,0.007390482268221262
466,0.051614451775312986,-0.0766859334436476,-0.008890025580423639
467,-0.00011186292644660423,-0.6000632403434134,0.019910987719952006
468,0.0007025243350853305,-0.1377047119588598,0.00823517697302998
469,0.002368140444984901,0.10416856735122237,0.0032066535783277458
470,0.06835454089080617,0.0006206004273356935,-0.05927079784339071
471,-0.0006934601482908587,0.19193740953438676,0.006840842754637265
472,-0.08997627687329202,-0.026263599120246006,0.09521172474025548
473,0.05171346168088742,-0.12820634244624118,-0.04627410324787024
474,0.04614093414202558,0.06633365037314853,-0.040383246736799036
475,-0.035776118668902845,-0.08767845652659251,0.04350275139891051
476,0.018453000188344282,-0.08172057623788387,-0.007649875812672121
477,0.0517120498681054,-0.2728996466238294,-0.04676437968915366
478,0.02361463059531199,0.30424994765246305,-0.017911148838797773
479,-0.059848863561008825,-0.46197237771370475,0.08330407492897894
480,-0.16763179210630175,-0.05938883040585646,0.3783970787114622
481,-0.6378694751028764,0.05396616254699216,0.4521725778578036
482,0.012542442598797443,-0.17868923700592104,-0.0028651990843314933
483,0.006948748994173526,0.4388997615259316,-0.005723867219745102
484,0.011920858036511994,-0.5716238090956187,0.003248767303337786
485,0.052050857129664285,-0.5076151512334516,-0.04145419704603319
486,-0.9883057434968803,-0.038246794840212095,0.5436475022240921
487,-0.023037296472463664,-0.1955332614392577,0.03245223998199879
488,-0.08884604686163022,-0.01242740677532389,0.09647051134007666
489,-0.5632682605839426,0.01896684088184153,0.4831712717562689
490,0.03286551856826758,0.07750129779555215,-0.029222604802085925
491,-0.06033571786697256,-0.6579801550125983,0.06911687336413752
492,0.05308052434568711,0.44200731097756174,-0.05041476722485209
493,-0.02421143924037983,-0.7851813944516305,0.026733379150802306
494,-0.022462325368104108,0.37304291146260116,0.025179189210505798
495,-0.010085600481872792,0.2535884012907943,0.024265160375512778
496,-0.01613626817866265,0.19172199060328765,0.019641969073279256
497,-0.03483381362010607,0.14426635229912943,0.03868461162907522
498,-0.017472845578233254,-0.2768515333232107,0.031141661957642897
499,0.11357996373124646,0.3336931089671731,-0.10966154776454937
500,-0.036655665994317466,0.047652981742703604,0.04746364115315498
501,0.08670593846310837,-0.03564754073618526,-0.07425886887912247
502,0.024623764636489298,-0.09714412161726543,-0.017162550001444288
503,0.04503670538030069,-0.15469974947679171,-0.035240395012301404
504,-0.026137798759286013,-0.6528999324594711,0.04416599289848898
505,0.03481980661625128,0.1108013947692813,-0.02040318061345431
506,-0.6100545351326729,-0.05129239375853467,0.5523501123032691
507,-0.0007839064320532829,-0.49201245016930273,0.02060847730679825
508,-0.04384388006333306,-0.256351136263999,0.05809402518734635
509,1.266253668208428e-05,-0.0770544785857381,0.043844440188621776
510,-1.1663868248080445,0.010967740468561527,0.49580580518420453
511,-0.034893821368779276,-0.5304052368890767,0.044848935523982274
512,-0.06768916975769557,-0.19059202816583243,0.08014722692585827
513,0.00650243505853676,-0.16998781755426667,0.0016154479728169235
514,0.008964379239873699,-0.03786102154877291,0.0008784779743218678
515,0.06077607308480881,0.046196239017953444,-0.052542795739739176
516,-0.042144353683233104,-0.0019168601426955978,0.05042025879950347
517,0.008506116757504456,-0.7059079142376812,0.0012091954904569775
518,0.014863546785822246,-0.385235508765053,-0.0022621600081099585
519,-0.7037613760531525,-0.007941882887287699,0.5102917168052781
520,0.020115254432551577,-0.030348999815127287,-0.00910596934759792
521,0.012877223867268084,-0.18737882403628792,-0.007275175484039664
522,0.010269407673355824,-0.196239021959702,0.0010347272007730907
523,-0.593011608112703,0.07156257726232818,0.43041231296217225
524,-0.034958197762808285,0.08613587851911386,0.03950506884742515
525,-0.013251495024166116,0.19961617539294352,0.023013994229984406
526,-0.007928733443064329,-0.11161446732268304,0.02000244812065671
527,-0.023354482596323112,0.08414113836231474,0.234521838520576
528,0.04698800822554183,-0.15204817333296444,-0.039997646409956816
529,0.017469335229680194,-0.513376668764167,-0.009222567197729405
530,0.04161726658135212,0.05316241477379979,-0.03673271806327671
531,-0.03262778350419093,-0.0025574933625636675,0.0429662371210751
532,0.012462868494412804,0.14010776295425098,0.038922136070129565
533,-0.059212423930916525,0.37680694882173305,0.061003881493842414
534,0.11532415628077386,-0.24361534378324962,-0.10673476128013362
535,-0.01891198892307544,-0.3848388045860696,0.04835350065561715
536,-0.008729323241433606,-0.17278379330992688,0.014041759001981631
537,0.03200965520358867,0.06882100959970505,-0.022745882291511067
538,0.04742986360001766,0.15111841433083284,-0.041088880411710764
539,0.060433082345780154,-0.2572837172721259,-0.04571417995265779
540,0.08112743473403361,-0.07530933110080917,-0.07456306707568525
541,-0.02485993932823105,-0.5160705458086081,0.036754466605995614
542,0.10217221015717115,0.016579598003952034,-0.06000954208213943
543,0.019225574287123237,-0.15660205715822434,-0.011115642709779081
544,0.010983059699718689,-0.3645134769645179,0.011779850253551445
545,-0.035285325674011325,-0.2035439835446191,0.04731398151568226
546,-0.05323519526737108,-0.15200290707881842,0.0640130140799771
547,0.07224645202617452,-0.03173246586444456,-0.06379074717570575
548,-0.023619550899929953,0.44154312694202247,0.02459499592035536
549,-0.021204712450508145,-0.24766025247035894,0.03282800109082575
550,-0.09782678388472221,0.150631958802654,0.1008452789724737
551,-0.052334038867356325,-1.1097997352683588,0.06167883304576242
552,-0.0228865273400789,-0.1064734996907496,0.03105674495298831
553,-0.05762261745710007,0.008501364562052527,0.0628291296728703
554,0.020110682818458958,-0.3292865442546423,0.00027485063129552143
555,0.05120384812612899,0.08300095470484614,-0.04183979025770327
556,-0.023196516179792348,-0.10255110154968128,0.03246618954571056
557,0.05375994227358638,-0.20716588843800804,-0.04462883230504713
558,-0.08568807758463814,0.07745141879689088,0.15440762032280622
559,0.044850925614073445,-0.22077871969997842,-0.03260085128904871
560,0.07810730985745651,-0.02882644744683871,-0.06596863471137067
561,0.020674159593500496,0.009589484068168619,-0.003297280625639246
562,-0.05841354603471194,-0.43324292774723094,0.07416047490553729
563,0.027122283223549593,0.4728178019092655,-0.026144802559892467
564,-0.008808308471618509,0.12382357467251814,0.019829351977294324
565,0.04053233828260039,-0.49871328702033996,-0.023904408277753305
566,-0.016312309804314973,0.023887357098146045,0.019071111802900192
567,0.07517610282153031,0.0479085517626866,-0.06990342731094187
568,0.0558050135379724,0.16991743327990572,-0.0017807523018429946
569,0.026396594250604366,0.028142998826577004,-0.023407072678060217
570,-0.10745353177139971,0.0233286578403451,0.32086142617581115
571,-0.135105550162676,0.2658920016729921,0.14302574601582252
572,0.09043471328106767,-1.0489486275840363,-0.07076211319068625
573,0.008898991157445746,-0.2901080222254506,0.002287107029914864
574,-0.028286527678952345,-0.06532147409804084,0.03473094703598133
575,0.07693652546844909,-0.8599601944865349,-0.05969376482898929
576,-0.0795802418919116,-0.08584250745977778,0.3559994388919665
577,-0.08602114628419666,-0.038188502014357306,0.1954456463708956
578,0.0390995958531728,0.27146394652437555,-0.02732362728270573
579,-0.04125598498610461,0.16976199468375652,0.044723769230066296
580,-0.013285170120764245,-0.43679575882973287,0.028061339540107724
581,-0.046354268413322686,0.43458421675931436,0.04677362173952474
582,-0.011457364631524691,-0.8415948697272374,0.02475873968248186
583,-1.1556729489124693,-0.04138988094471868,0.5475327116243961
584,-0.03901067200977282,0.09197402821811917,0.04565294740567072
585,-0.03183736091809075,-0.4890363374609285,0.04523814658969047
586,-0.022291162655278862,-0.043836730991154205,0.02854970947530933
587,-0.08818205106024424,0.23094375035242065,0.09179953503199101
588,0.04882520186789163,0.016613350696768392,-0.04243865965383816
589,-0.06301028522967234,-0.027587031002064777,0.07137266665357549
590,-0.030632781365005468,-0.22660455154148051,0.040376386147476066
591,0.0845382553753038,-0.21158409805000666,-0.07976152125475187
592,0.004471306391062635,-0.46090787582508297,0.009044002159963498
593,0.018197228504497343,0.03887186807614196,-0.014362625621070492
594,0.07408377913900233,-0.42415135227094863,-0.05811201703644292
595,-0.004582517188059576,-0.16537991268905078,0.019120059889081404
596,0.05179370263845673,-1.036298619459176,-0.04544133335006632
597,0.06822811488647029,-0.0936112078438569,-0.05763868572278488
598,0.04131900880684003,0.13028718257727911,-0.020767417495361998
599,-0.004793864233383016,0.051101983610821855,0.018116988798056923
600,0.02260060183083712,0.012414048724184168,-0.018519109405983954
601,0.014496112106797243,0.39707457430010973,-0.013556739804343807
602,0.052042879960123134,0.4537149683235401,-0.05086294502048418
603,0.04989838655493917,-0.011508177455956003,-0.040915881530764864
604,-0.054795523748843444,0.22956611822856687,0.05910829090929531
605,-0.04237488489757879,0.2282462283696839,0.05017376704649178
606,-0.013749321152015437,-0.7747029602311045,0.028880764820964487
607,-0.01629085541259856,0.4059205773444077,0.017379895354000495
608,0.049010627431503195,-0.014249256997835968,-0.04112498904949257
609,-0.005277506936254284,-0.14067810255185598,0.016714717657335086
610,-0.03362492344587775,-0.051427312588173235,0.1340785869394831
611,0.031289592293253676,-0.7876278528975218,-0.02337608762210914
612,0.016461217348944235,0.12044455548586763,-0.002996650845599561
613,-0.037225931485262875,0.10071161460937872,0.05750142890396296
614,-0.017558723903992268,-0.18000877597449466,0.025508124528838265
615,-0.00033855053710696303,-0.5401280081577635,0.014895602943796235
616,0.00028611011047630086,0.10656744425595899,0.22019634276805344
617,0.0075215878066932085,-0.3073971651004498,0.00225743722819243
618,-0.048802609425990906,-0.48620456919142807,0.06005143294317611
619,0.039351487099821725,-0.19538629692268866,-0.029065158123506536
620,-0.007503104607170519,-0.1909353067686893,0.014337426628785692
621,0.03473182857971957,-0.19431591869229592,-0.02889944660154333
622,-0.010444376604383354,0.07971664304174886,0.021100190093583934
623,0.01974943974221932,0.20139152485162815,-0.014655713103969788
624,0.07017172871782429,0.0059078221842117085,-0.053243811521816044
625,-0.09302247836222721,0.31042823922450447,0.09437416831601297
626,0.002002293539079103,-0.4283737284207504,0.005440714636599637
627,-0.018795536817761027,0.09393295775566313,0.03196276800226462
628,-0.9576739702698225,0.02863348461056725,0.4762295899382366
629,0.06389543244291396,0.3412831050529783,-0.05944318589511522
630,-0.010643082236201362,0.14038055464856747,0.018320562224736478
631,0.05116481466842071,-1.0107745108671193,-0.03242154276199426
632,-0.0006610580451955617,-1.1093897158707438,0.016748344623451088
633,-0.07443591882428169,0.2339358601818835,0.07596894459223233
634,-0.1035071149269875,0.3754148257943313,0.10582570144764247
635,0.04322533046683219,0.04881400421163107,-0.0056500696714368815
636,-0.019190361157252478,-0.40075020543284723,0.03682155804276442
637,-0.011453582465007384,-0.2761486435738595,0.025218093564966692
638,0.026693074889151847,-0.21201037002531753,-0.020783447329836235
639,0.03490956636743037,-0.1334343826398573,-0.025552751081328325
640,-0.02165948026183162,-0.04042841071927117,0.03307239673189531
641,-0.016185228407191166,-0.5058798653864056,0.028061564050941797
642,-0.025169173242458043,0.2619190427148308,0.03496311530842274
643,0.052392986116823526,0.02065640591681217,-0.04707562031482348
644,0.00451660511796681,-0.13141216531390343,0.01710497307671676
645,-0.038967680778669855,0.10836773940462796,0.2562090619457583
646,0.06458136783634072,-0.008063078121383072,-0.054273767809101627
647,0.0169115735183889,0.10436884916741562,-0.005360377236561589
648,-0.0689517569562973,-0.5288648989339523,0.08623019351189509
649,0.03240660503846149,0.0241419269831874,-0.026307428901798175
650,0.03277894658691838,-0.37040886908866166,-0.023747068430162586
651,-0.07210479616937948,-0.3258289343057559,0.0781345892744705
652,0.12585805659446736,-0.008574944823503294,0.3677308185087138
653,-0.0188626726534854,-0.5873054515040996,0.023136443768887942
654,0.026182796447182133,-0.45286447591833573,-0.01247613463406492
655,-0.031073974131631377,-0.3541310251319505,0.03765843053963397
656,-0.005418726866848078,-0.4882593896654608,0.019178496146028692
657,-0.0021684091151396023,0.03021015280377992,0.010585595000599027
658,-0.06352447544188311,-0.6490764092450384,0.08306441025033996
659,0.0239569952476133,0.41467458097110776,-0.02024139316221226
660,-0.09233179890895193,0.044569594011032554,0.09741517940807216
661,-1.0513880397317392,-0.013424659136578976,0.5166524394201499
662,-1.1974082274780722,-0.025592119439252436,0.530966648303563
663,-0.0031178821076002228,-0.5456562741210293,0.01354326602773449
664,0.001797182176589418,0.449289514532641,-0.0007470288237104797
665,-0.0728981391026331,-0.005481631421276556,0.08068464196436867
666,-0.01778543201185212,0.047273190446360136,0.025614376807604346
667,-0.07908211845833124,-0.25666402024653445,0.09534408410124809
668,-0.044687199559841795,0.05792904079478656,0.1599284898569996
669,-0.01323761263440304,-0.2640469459204792,0.04026674863270182
670,0.022451931023727667,0.2181888215087594,-0.018800773709548024
671,-0.03355906233728856,-0.20683429581123702,0.07664867727962132
672,-0.6089424539102133,0.0349342424014486,0.46708003134691467
673,0.05272346343544876,-0.16536847783534414,-0.04123399237511603
674,-1.079856737134485,-0.03281206635155487,0.5371884237178183
675,-0.040305676947608005,-0.22597334257280688,0.07184638956636706
676,-0.7451819361670534,0.01565515106083848,0.48643154563698465
677,0.016898447844612363,-0.23022177962990037,-0.009427245569867182
678,-0.003466386612005601,0.1130968896676181,0.00883450074409086
679,0.04272290088013353,0.21873338135244913,-0.012267886044531225
680,0.00013687942810691744,-1.232809887478456,0.013726694707145612
681,0.06401526637585553,0.08145027738635024,-0.004177207741156963
682,-0.08453650741796004,0.3343825332411543,0.08599596468609592
683,-0.05024093997276502,0.02477721567229485,0.06044050423728356
684,-0.030237716383771485,0.02484409966940082,0.03557673459113334
685,-0.01951673019732114,-0.0903596123349018,0.034358645132898234
686,0.019428116804287354,-0.5522874507436709,-0.0022806677235200825
687,-0.03448356154533094,0.0437696413483083,0.04291849748745812
688,0.010945040547628127,0.16411828751431823,-0.008170426523361697
689,0.031220087225783733,-0.43606522551785276,-0.004136098468961904
690,0.03702039938291235,-0.2355808472955448,-0.026203981929413884
691,0.006542314226209323,0.10732943060501943,0.007829349584153534
692,0.04261554950905988,0.41079018639796716,-0.03892443934194944
693,-0.0100881733996534,0.1666105916064572,0.030132849969274615
694,-0.044572504272694546,-0.6328827473469422,0.06851532962032797
695,-0.019445958324834756,0.13801930641430304,0.024926514089008606
696,-0.047818473196030276,0.08223586700025443,0.05373760375288964
697,0.013608679070311158,0.06359159917562962,-0.0019082349930495185
698,-0.0059446629104515925,0.14560976544455884,0.010126009770191445
699,0.010064576260380598,-0.053426675608534646,0.016983003829327346
700,0.052646443720567815,-0.11178827225620774,-0.03802887996907862
701,-0.04430388346902214,-1.5943894709741062,0.05660439699405265
702,0.03461062689473504,-0.4943429246177877,-0.022263184276584753
703,-0.07142891773708782,-0.3884696024385435,0.09103789416992276
704,-0.018980955632868612,0.2737981439634094,0.021882048238520725
705,0.05650939098426666,-0.4537654376915949,-0.028221695781342534
706,0.010235240950349889,0.027078578632593553,-0.0034710476779013107
707,0.07359596358700093,-0.2923188461967465,-0.05974132663046089
708,0.03269760393092214,-0.969159999029169,-0.020682743107241434
709,-0.050682022159355355,-0.32737239510497307,0.06310906812648523
710,-0.026124880567658715,-0.1523307293160196,0.03739658584512927
711,0.0016232062946623937,-0.3740200557212282,0.00713322632549648
712,0.10351841138215656,0.4471588286159529,-0.10132937722342968
713,-0.027794370371490573,-0.6055082078229274,0.03857150874600495
714,-0.0026243132312800954,0.1552344966107171,0.008098572273808145
715,0.057324668748548024,0.3664680921036768,-0.053889250368940336
716,0.011039708669366322,-0.1782794563659817,0.0027466746313407385
717,0.08655499889043328,0.017099369656688235,-0.07402697504729099
718,0.06250680255086549,-0.035424414852547936,-0.05054817820279732
719,-0.004736644767542986,-0.5492220868673912,0.0110035574201421
720,0.014036879482844933,-0.8055301821038421,0.009715327625715418
721,0.028610686453936385,-0.12288542026806848,-0.02339871760016035
722,0.09317121338698908,0.1639927970641577,-0.0845876450605324
723,-0.011557416392386943,0.16201195428204762,0.016127445202944953
724,-0.05563090002566207,-0.05832413842686679,0.060657832409674144
725,0.0764731549009019,-0.2062872933841985,-0.06551450862491061
726,0.09761228417472623,-0.5532718371002434,-0.0838016747194265
727,-1.2056122999643257,0.020349878934523224,0.4811020454232745
728,-0.0350447291162288,-0.23552050964982418,0.04064853536049759
729,0.07128848141313182,-0.004525170984188975,-0.06783359949874784
730,0.015073590091638556,0.3068511022968091,-0.01174203028692125
731,-0.011193263431775069,-0.33683450776695456,0.016147110897786206
732,-0.013931530935618941,0.10550515803100735,0.03372082310935434
733,-0.009145784335613083,0.03468583370593925,0.02283083579436652
734,0.008589469730632349,0.29805773377202727,-0.0056420254272119335
735,0.012466766597449608,0.08684688634508286,-0.005656848513411774
736,-0.007459709437460993,0.016772111897211284,0.014120463938775515
737,0.01202802300764505,0.29738026673220563,-0.009452249932339783
738,0.00945970156375986,-0.8231744141771193,0.00386663959364887
739,-0.013763370122939378,0.15102570415530214,0.017115479380157013
740,-0.7566759926339496,0.010711010578046132,0.4935671814733458
741,0.0005403429358614709,0.31329508669255923,0.002081090651544741
742,-0.5966946100701763,0.07213367568379625,0.43056757688826724
743,-0.14866720447734127,-0.005511095467434168,0.2221770460213004
744,-0.0604083518693137,0.3150644961463366,0.06613660086059384
745,-0.03466585180871451,-0.10676794675281731,0.04725209789748487
746,-0.043928782776588626,-0.39809705504840803,0.06272048476656869
747,-0.001244177484765685,0.2927145336857204,0.005365003261355923
748,-0.08056287642725912,-0.161625889355568,0.09450838873753856
749,0.018178213322872505,-0.1519415939213818,-0.0007550983345219038
750,0.0024542793654800388,-0.49865562290868554,0.007556819657261599
751,0.011350591374145402,0.33433349227928233,-0.008872351986817193
752,-0.019242102146201923,0.03802099945332893,0.026325892520609386
753,-0.029722936577607384,-0.04702406461075165,0.053518788467132025
754,-0.023241956714148082,0.16712024309225715,0.027576885916858373
755,-0.07668725933582687,-0.057639533494144246,0.3566014828959676
756,0.03260144616496574,-0.02146738713334967,-0.018195656499209577
757,-0.08940878032520116,-0.6595706165133975,0.09582975134233038
758,-0.02817654088444488,-0.5160557460633624,0.0459583665776654
759,0.03026417637202994,0.1251327436274452,-0.027023124910073193
760,-0.028974494369927828,-0.2617501993446447,0.03630225141967503
761,-0.8155057921940205,-0.037386338983273704,0.5401675335153812
762,-0.03805547261557907,-0.05008849944452376,0.04010360472289483
763,-0.04326462504755835,0.22387342483675376,0.046524692349178054
764,0.05982559604533577,0.15876295074525515,-0.05340859372053455
765,-0.040072741795443845,-0.14197446667398067,0.044887955594472145
766,0.02585204994210266,-0.037735740594437295,-0.020216172036737135
767,0.12218871409941179,0.09064984253202801,-0.1104948589249293
768,-0.08438257687791606,0.2904436409667688,0.08713640008533298
769,0.02255815673889039,-0.21121691815614546,-0.013752855840150005
770,-0.05108656076813167,0.007854038331349456,0.14811962896624584
771,0.010613190602701161,0.16287254871565138,-0.007135784183830765
772,0.054915389684174754,-0.23050625950840192,-0.03135274020839756
773,0.045220742868192554,0.16720492841231716,-0.03841645820798681
774,-0.07606973362168379,-0.1772663832594134,0.09049845321298926
775,-0.03852760168742053,0.08418899754839615,0.04682783650423255
776,0.026487444937930427,-0.10074450615276026,0.3084544169444983
777,-0.00903147743103272,-0.03318745350830832,0.01846628500042368
778,-0.013609067008441111,0.021079550154514903,0.020123426368159697
779,0.0392652001788818,0.4842160691523514,-0.03838441408245717
780,0.011123473253044747,0.16317205187170913,-0.004164444825417945
781,-0.010907786278841591,0.042619779305923755,0.024301959311298672
782,0.01999200832314929,-0.3233069030415665,-0.014932214854960988
783,-0.013812547936658537,0.20883082129490516,0.017695540767416675
784,0.0411854127765503,-0.7526654925918388,-0.025659201912129673
785,0.07638111704049089,-0.1478463330359288,-0.06624193273942092
786,0.0060209856611133095,0.3020154784650855,-0.00398093058915299
787,0.07552380736364595,-0.16436980169738202,-0.06812487127303575
788,-0.021382742878574446,-0.05866943745995984,0.43401892431707845
789,0.009733610884441024,-0.16387599190898572,0.009127457993774896
790,-0.0795812676285127,-0.44288506216317713,0.09166752075199804
791,-0.06295813455626964,0.1043120125849063,0.09223836160784617
792,0.05788331213018538,-0.591843812279047,-0.04868549513491143
793,0.04837227642295994,0.24922776875477293,-0.020850981717486776
794,0.06515955324079159,0.24360650136942896,-0.0580853860996217
795,-0.04186738057460526,-0.8280065807334693,0.05730105097651165
796,-1.1595250895341878,-0.032495466472416024,0.5350035849646632
797,-0.003967829514594623,0.10854493741420268,0.007842701845306579
798,0.026626092699713277,0.019638631434178988,-0.00938851901668511
799,0.008961222169421301,0.048327522140204304,0.003936521431396614
800,0.1279741365151026,0.09881317098157516,-0.12056588299763325
801,-0.01596404332707768,0.2842478976216828,0.018361500035692528
802,0.013578832154145681,-0.46007207910625686,-0.00384232304154159
803,0.014640027510145925,0.01600799742879333,0.04320128797929101
804,-0.007853693883261958,-0.15797907740676997,0.024756953854873132
805,-0.004019170730807042,-0.5002306920485567,0.015973708986620067
806,-0.01906342877506284,-0.11448797126461852,0.026208523284937543
807,0.050040297166211056,0.17676026574746995,-0.00748637358447445
808,-0.031600609581258654,-0.18967853929568845,0.042129856456689596
809,0.017682567784202963,-0.45543079530827724,-0.006005207427093296
810,-0.008191755046383364,0.26517774625063595,0.010458060033413177
811,-0.054988288078804404,-0.5718760387557288,0.06108961458286592
812,0.024459803690083604,0.07598120339904157,0.02576979954251317
813,-0.019546855624754,-0.222719069329823,0.03079761104403508
814,-0.0673541578029293,-0.11576358061910447,0.07393507087672332
815,-0.02204345118717499,0.29196209379934357,0.032831129577956975
816,-0.05272892125796036,-0.19872800533962093,0.06435690477143033
817,0.04316203323045231,0.0010605538980389406,0.14332087565989787
818,0.01580954296830539,-0.13551435802168132,-0.0027830649485056256
819,0.04969917807565527,0.11947594378811754,-0.044536499264204846
820,-0.018274130127098442,-0.339048284098573,0.03140651659064202
821,0.07820731122961821,-0.844845233550745,-0.06682289087137519
822,0.005012553049411839,-0.06432987798216061,0.0018195561229670148
823,0.012572406105290979,-0.014935988315428528,-0.007297322161083912
824,-0.02843133509024054,-0.9197618045214051,0.03677931790682749
825,-0.003383407462452692,-0.43647633570715055,0.012714336744899697
826,0.040048471791756635,-0.6411788460803154,-0.03059865324878001
827,0.022882449527062754,0.44276502455278344,-0.02128010102757719
828,-0.003435820795133382,-0.07807384461932826,0.03446627408163988
829,-0.017426017234293045,-0.30790746724128937,0.0427214236345169
830,0.003117611881223503,-0.3058666936718185,0.006590199785413006
831,0.05297724806453319,-1.038595433203719,-0.03387837588931416
832,0.032365110997471636,-0.13352930435539723,-0.020379011521120104
833,-0.025933690796661857,-0.7735066809421846,0.03591427471782606
834,0.033796956041904025,0.406904395326387,-0.031259104827593545
835,-0.031073047246784058,-0.3272872284222036,0.045404902507941644
836,0.0563148134395286,0.01186049155312452,-0.04978136157689164
837,0.03693770990286516,0.4338804836797271,-0.03549490873574132
838,0.00023653248524158066,-0.12111437424051608,0.007219678395467554
839,-0.023378263561100177,-0.0843570982289581,0.03459784025445731
840,4.406778783216936e-06,-0.31721629201391893,0.00816780020914382
841,-0.03928958802964255,-0.2546902467137334,0.050735998568588
842,-0.05400285670050131,-0.43701694384211465,0.06636505392048389
843,0.04873817906178157,-8.978806642534476e-05,-0.004831941691525003
844,0.1656929599726582,0.027827936599014946,-0.048325795671907826
845,0.07568486896847881,0.16475627293260664,-0.0666444398556896
846,0.03333997600007388,0.11129261771429166,-0.027431312984072975
847,0.040054701989787445,-0.16643930783571959,-0.034402749911183264
848,-0.05199875789265729,-0.17255929236994905,0.06316884751324847
849,0.01691417846491028,0.09874993588416958,-0.008550893613295557
850,-0.06941354458250992,-0.6971894053651586,0.07843575146877117
851,0.016523907437086205,0.45825384339395214,-0.014659265387705886
852,-0.01822727836135951,-0.2696683495264708,0.037764746211652434
853,0.03051171027703803,0.040358529262023324,-0.023649565742827804
854,0.013578228021195349,-0.830690212901277,-0.005512617375660511
855,-0.00903179312619029,-0.2729366224825322,0.02278208005460442
856,0.009958218633818738,0.15495494873369375,0.017732036418390974
857,0.024246191672542272,-0.5322246064004837,-0.00945560049951996
858,-0.03587221047142197,0.23369762450249454,0.040480813771943645
859,0.07768004037815057,-0.05243348769290873,-0.0713789050974401
860,0.027052556406962358,-0.028486601945296064,-0.01816392987332631
861,0.036639823835093344,0.18189608012989333,-0.025288024036527076
862,0.034335534883221275,-0.11171580564339534,-0.009785583943209759
863,-0.017304827943810164,-0.6697232419403972,0.024219338427789693
864,-0.013338635930795317,0.200139520272564,0.02136124755710125
865,0.01648120738195602,0.0016839602220874994,-0.012362829404677086
866,-0.01894955985062774,0.2293991111024869,0.023982586431565436
867,-0.026574948298098255,0.37514836947567065,0.029523248764885126
868,0.06917598138918946,0.2684451180159282,-0.06135697894148461
869,0.0030392439722883857,0.19002726683552995,0.004473043478993759
870,-0.029766545160938795,0.3463475017247387,0.032492036129453936
871,-0.487589913836338,0.08408408100954234,0.417492746877067
872,0.05740414445917286,-0.1327496608549812,-0.03669953029974818
873,0.05172489526432389,-0.5306027813274219,-0.032242997085672416
874,0.09119735033047838,0.169849099426032,-0.08951195732686051
875,0.0389266006258846,0.09430159766936963,-0.02469860053127604
876,-0.0020482224206375133,0.2928701472619576,0.005739691766350802
877,-0.021625283381853988,-1.3929112837757507,0.03285299938421735
878,0.032611867886154444,0.35389783786914386,-0.030467299525950467
879,0.10070231961663723,0.25213790143987214,-0.09721667543486956
880,0.059902190857137994,0.30030898885690216,-0.055748699625134124
881,-0.0757978363716737,-0.016014574432446027,0.08108043722840295
882,-0.023000012253272306,-0.014652217368316622,0.0259499254839626
883,-0.5836591263458819,-0.00822846446742781,0.5085301871149416
884,0.10378056302298888,0.2110621495669519,-0.10142425254225258
885,0.058107623708912426,0.5438343441333866,-0.057822158117401844
886,0.02384987116193793,-0.18099092880669737,-0.01821114476218895
887,0.003123804515795525,-0.42215521241745446,0.0005773115519375551
888,-0.007618369854906715,0.015645166637489827,0.016199626198043687
889,-0.026029201080531972,0.33297678162386524,0.0336428780144945
890,-0.06775635379426803,-0.8303057232673299,0.08290694622794478
891,-0.013024457796841138,0.12004302145800572,0.035040409041550334
892,-0.08496864391590964,0.1376502791300085,0.1581972482317873
893,0.018961836502594087,0.04345399437243358,-0.014206758081292377
894,-0.03943756041206137,0.1531539312346798,0.06771914318056121
895,0.008722539880674951,-0.652270076721562,-0.006400554647470585
896,-0.023746569053799127,-0.17102980303340426,0.03021940139359515
897,-0.050099099741809816,0.34272791906353695,0.05117082955375645
898,-0.03503611440825927,-0.09894179532425534,0.04969766211207514
899,-0.0002635192973975409,-0.22988828889817936,0.010478266071808549
900,0.07136966118120469,0.4332911145236418,-0.06916040443468364
901,-0.026281916982196285,-0.03729158597992471,0.04059018771413264
902,0.06300240717607819,-0.26040475376013134,-0.054768335566716134
903,0.010857531993664793,0.21561370152393888,0.01866685105330782
904,0.0014879151802946744,-0.3111847034440217,0.011514846717694469
905,-0.024992839216333773,0.3061245416752124,0.027019430645635112
906,-0.07538675195406352,-0.3777216022662499,0.08501477015780984
907,-2.0809036413399693,-0.024254590473954563,0.5273678885756866
908,-1.4813589482838307,-0.05456150860199149,0.5582686983607189
909,0.02606375991646881,-0.3437894927937176,-0.015625520883946593
910,0.017211926855908777,0.2829797039182026,-0.014401140180656398
911,-0.004079011417425948,-0.1512814220331069,0.010551035523582754
912,0.011750605860010532,-0.37064986559012886,-0.0029266011455090393
913,-0.4955443192645699,0.030825349096939236,0.4695438262601219
914,-0.005965124944680156,-0.19028836892126405,0.022388882800118155
915,0.032824904563588,0.09148987476859771,-0.01958485366973821
916,-0.06756933595172798,-0.18559662415214323,0.16398159291099274
917,-0.6705205609670986,0.029322993966747646,0.47307512869245855
918,-0.06868033023096098,0.14317307353429998,0.08942688515986219
919,-0.02226405240980045,0.22083220898092715,0.03254020195417138
920,0.02697007331395107,0.18587651448368392,-0.022876950607987737
921,0.06566585793385604,0.1325002700002772,-0.05960153970278589
922,0.014756562516523575,-0.5834604560840091,-0.0015779582933172379
923,0.006609108283428311,0.34697537783656474,-0.0008622939873413316
924,-0.8495542565794263,-0.04782399461298498,0.5532551393283809
925,0.006756450366009803,0.4954420894584761,-0.0065754205914893196
926,0.006711441835459908,0.0651257593723622,0.0012371004488759354
927,-0.02472719835721815,0.15388247288537593,0.02986944361733663
928,-0.004065737079810505,0.038754166367893195,0.012294978817751826
929,-0.02139313429412759,0.13271929002955163,0.02761911065630136
930,0.029436933430470047,0.07621281229096766,-0.0022434861620998846
931,0.04290909871306803,-0.17826304039068425,-0.02992800020920049
932,-0.0316911490106041,0.3092632332255649,0.03455397013035304
933,0.0349745549995959,-0.18929084250614114,-0.029180431819549994
934,0.001110234822446099,-0.3212846662465817,0.007113714188244103
935,-0.02293100745934351,0.30222721193776925,0.023980058142960843
936,0.043082963225270055,-0.010977157653379088,-0.033109881049454316
937,0.008368232839012668,0.20973582326634144,-0.004784643924140483
938,0.01213296449281942,-0.3623779267273969,0.00011018798426357534
939,-0.0036644772631813094,0.14808010303649655,0.00923656397838647
940,0.011122126446775793,-0.21368770966452294,0.0062733096198953715
941,0.008800537355380333,0.18617058535760367,-0.00428371802741151
942,-0.013335562909421839,-0.46885880575628575,0.019068702366503088
943,-0.02940185404511242,-0.15094164319483944,0.03810341109320859
944,-0.6241796638613166,0.0895303388513119,0.4143164411975155
945,0.002980703417664987,0.09616189269714615,0.005969310418186524
946,0.00986160253346613,-0.08525199089239727,0.0020406693350511203
947,-0.02144671900844275,0.09463750746642074,0.027589371384844866
948,-0.018524902136719423,0.07666159008592077,0.025811545276711968
949,-0.06838564257526225,0.26636575762871906,0.07169061457118267
950,-0.5139122179679728,0.007351475621985237,0.4928186339267344
951,0.05875657238830989,0.25842935608770645,-0.05395133692750028
952,-0.056527143016690484,-0.3610012164161124,0.0693987281910812
953,-0.012921332919849204,-0.3237082780556362,0.024272350151750173
954,0.056496250375792645,0.38950766916768964,-0.054492387401295216
955,0.003847235005013161,-0.42816821731994237,0.0017448577089365926
956,-0.01362091533470089,0.01168746664448228,0.02501351416720047
957,-0.048991692298761325,-0.09865295931046303,0.05778627257094854
958,-0.030603230765014255,-0.10287989982601287,0.036325997455624134
959,-0.5293865097422684,-0.017538944239461063,0.5176574198944891
960,-0.010199527324672109,0.3595061654715801,0.012805413468747133
961,0.049063624905240966,0.33086067413944165,-0.04382675408686168
962,0.018448652347777594,-0.7748016220832679,-0.0029296490546049654
963,-0.062346793373852294,0.0723810582984763,0.07184386923037175
964,0.010379808084601372,-0.4165185832126487,0.00259676939356018
965,-0.013786924938368972,0.06948954131429319,0.022121395613315713
966,0.05018832692436348,-0.47414281930911656,-0.03994501546202855
967,-0.0518326218417251,-0.3100436761636761,0.07306253136273971
968,0.08706855582168549,-0.012234543801942,-0.08227413102469631
969,-0.031696908113219346,0.006423021374016402,0.05017211093372998
970,0.0776800202523944,0.004115073528223601,-0.06850298110480776
971,0.017314508441356624,0.1522728670255279,-0.01001367561304005
972,-0.020718132886419327,-0.22104373380555226,0.03192334250112549
973,0.029399326529049752,-0.4145750324947037,-0.023735480374907185
974,0.035143243047023986,0.09306260670366306,-0.021880823956723135
975,-0.06766466213047084,-0.47914195841893875,0.08589420805624025
976,-0.0628945993446064,0.3996717024643096,0.06409247768672105
977,-0.008210807782796259,0.1297553394406974,0.014727417132773325
978,-0.02801302006996953,-0.6730233481809469,0.041753144007301214
979,0.01744636861002502,-0.09989506579708402,-0.010038271397139625
980,-0.0045165769652905086,0.10659822294111632,0.010738740166788035
981,-0.009499837308170278,0.16101064452473202,0.013453711526175539
982,-0.013017791075769392,0.21008744393866985,0.018555686375480603
983,0.039423138127666624,0.4506046804635281,-0.03569276290577295
984,0.10255349530142865,-0.8461137558289069,-0.08516948828786462
985,-0.03195673051086656,0.3212562149262782,0.034305323383872176
986,0.009585071836010428,-0.09866386616950684,0.006229400552133029
987,0.03404488795262317,0.46248330546365646,-0.033615518457689404
988,-0.025593909658744418,0.25103185484876367,0.031401639781549195
989,0.046523578672255095,-0.2386571848192074,-0.03396068645639184
990,-0.0017554791019031013,0.02888216666598553,0.005510377935760062
991,0.009771299764491426,0.10926764612781403,-0.00015921207721112296
992,0.019599284546707674,-1.1227876312010785,-0.006460189220725397
993,-0.015579169056395892,0.18885378140684372,0.021490510047131012
994,-0.02331389980347487,0.09427300252119286,0.031726987952332135
995,-0.026385562816065522,0.15636535314455013,0.029558053656459377
996,-0.00997319801077623,0.10502860141018489,0.016903165621198923
997,0.03985828181036433,-0.4290150277241229,-0.020480815619674558
998,-0.013986204887057374,-0.4585354061414369,0.027209893704618706
999,-0.004617530798997405,0.07628335798180486,0.010484918356066146
