,0,1,2,3,4,5
0,0.003714510725657094,0.10353143650968288,-0.5162296189747339,-0.04891244943257783,-0.22891711787498029,-0.0011041835096913927
1,-0.0032023861683876387,-0.2952147052930891,-0.08570562834744061,0.1648713905626341,0.3010809106768352,0.0058667780305639095
2,0.013359005180673345,-0.3215352881346048,-0.028148250314344703,0.056872988392438206,-0.18726307262599506,-0.009061233007062401
3,-0.009331288411768113,-0.5258225858376285,-0.40778725977281954,-0.0017325011031341098,-0.014350780355933845,0.012012950851812821
4,-0.014177820383981188,-0.3730034186604037,-0.1502192947745299,-0.18625729522921827,-0.24766080815719757,0.017264317515458608
5,-0.008195357743504217,-0.4015200525921681,-0.0577232586874214,-0.13498903623781003,-0.47391339900270646,0.012299400197346403
6,0.008117620213478727,-0.24277578163454483,-0.591935194303844,-0.10720346388260116,0.3670518258272595,-0.006078040532577143
7,0.00465048986574601,-0.10958168673705693,-0.3277931752962667,-0.11564244772946963,-0.2556549088590969,-0.0014766666926645485
8,-0.003755962793523193,-0.34799582117814304,0.1366370246812827,0.08490764708241955,-0.45444978716128237,0.009133504689332585
9,0.010770435891489072,0.03693593693478525,0.06987248249506517,-0.10011261578208203,-0.10278923526715261,-0.008150156831328241
10,-0.005813984766911751,0.043744491762936155,0.059061632605366676,-0.0398968363492343,0.03304135225716215,0.01157294024165185
11,-0.009000628867102733,-0.03236069395350283,-0.12190612937302536,-0.30640513937539093,0.12506738124678685,0.011644225588170229
12,0.009136698710829005,0.19138070002354646,0.03987226262238941,-0.5985047935940156,0.2042519129867441,-0.005981081748679389
13,-0.002586051676464751,0.045699479864405146,-0.6980478518412552,-0.2197117292222745,-0.09825549782176776,0.006457929551504276
14,-0.004247473999960949,-0.17803783167813758,0.012356248611639753,0.06348173819553338,-0.007337639431157117,0.006480704538005739
15,0.011304735596544768,-0.06951836236869269,-0.25410608450344097,0.16114316735165035,-0.26144282444786887,-0.008077525299894295
16,0.0019934250942994503,0.12221991630250173,0.15455393697178188,-0.10315001210641389,-0.10803661909037726,0.0005272923181730221
17,-0.01141938200334025,-0.1608634633335546,-0.3094882669816791,0.1011133780747166,-0.593759162667192,0.014683243987802052
18,-0.0028623253208993615,-0.19243968098171138,0.06334421873763452,0.044646494341765264,0.3044234978296452,0.004698103397388877
19,0.010550897305767748,-0.5162029493756668,-0.07479615384454597,0.0534061015142297,0.3782429051190773,-0.007603698359299051
20,-0.0016530691615127546,-0.010677166789433867,0.059148177852156425,0.20091858397590479,-0.14741060986184504,0.023606225279917088
21,-0.0010807506831922442,0.1333927377783769,-0.04930104077310371,0.15273381760160787,-0.30654263641873664,0.003670264373563441
22,0.01867876146362324,-0.11109013869551265,0.010396062138126605,-0.18763686613166466,-0.03593214449419119,-0.011820082222716155
23,0.018252799613911463,-0.5912022588381385,-0.189064978724092,0.15451430958927237,-0.5079458854904959,-0.015561230439542124
24,-0.0001046223778903288,-0.11152413461448185,0.09355245157002268,-0.5477396476122082,-0.9173592245978729,0.006846712706769358
25,-0.012818785950982292,0.08591170992140429,0.19593143203666807,-0.08965587174877276,-0.3402186034418377,0.0160888618492967
26,0.002970777085619103,0.037250062696129516,0.11221140520583517,-0.0008924904545879464,0.26907495987357477,0.0014525504644278043
27,-0.6726033247576546,-0.03211372242043031,-0.17815184334617856,-0.18381462897126968,-0.03750979776710131,0.28428000440099105
28,-0.01030886116746077,-0.13673852032994138,0.09757059511248112,-0.1964911591710724,0.34163087760089517,0.013432266580183932
29,-0.017438644197876885,-0.7302730119875596,-0.21432336308436484,0.16899527924556945,-0.39483360047305,0.020117888482012496
30,-0.0233552605960351,-0.07270795409782405,-0.04228588172886244,-0.3059273493643146,0.4344381063693412,0.02620958473371502
31,-0.021985607733649104,-0.00042678775675841774,-0.5653309525280525,-0.1951985992915389,-0.11983413982024765,0.026127794612442995
32,-0.9720833731271736,0.0031319183764443315,-0.37971979391891897,0.00909143143220248,-0.5561454396869943,0.2492781825039907
33,-0.0031577801516943227,-0.24576442537718313,0.19622102457732682,0.36558779918247464,-0.3255107122720058,0.006173793940027281
34,-0.01073631330713054,-0.0701432452607319,-0.36555478646767414,-0.013704545193633733,-0.024166016528143236,0.014304925996453312
35,0.006025946525917147,0.02095567559235112,-0.26822401674314317,0.05958834905334515,-0.10039223866714994,-0.003341466356066485
36,0.007464543159248382,0.034776981526343564,-0.8022022233617769,0.10908371645560994,-0.2882035619707566,-0.004947597854488049
37,0.02093185846629897,-0.004735646522605275,-0.4048745180204898,-0.5683765792677907,-0.45664688574526296,0.030010938111340875
38,0.004036121120561287,-0.2480329896144734,-0.12872801204412243,-0.16661427357962033,0.007583799195929719,-0.0010914915639843458
39,0.0038089893404578135,-0.51409922074554,-0.5377701929803226,-0.37290104352312853,0.2973807074469519,-0.0014389520181712213
40,0.0034720792060844996,0.016109839459591657,-0.32516405225790435,0.2393047513537282,-0.004608616708255159,-0.0007297987597563406
41,0.020160845993054677,-0.5015818004872469,-0.1485374537124437,-0.31026572921573636,0.40810009449835283,-0.016769894838841354
42,-0.5618997651312412,0.015112387431026164,0.07585089691805535,0.14744854998966406,0.26872862818731624,0.23768405202397608
43,-0.011863540949262674,-0.11383488688658883,0.08001508452025108,0.0811921064420465,0.015071438721613761,0.014384511285910775
44,0.0032054704792547906,-0.12812164469628728,-0.11535834780244808,0.043654504677851036,-0.050201166082662035,0.0002455435774854777
45,0.016828706808805327,-0.21306653846859003,0.03799330214426788,0.038310379047705734,-0.07207244834942866,-0.0140547681967666
46,0.003455727640292894,-0.46000428341373817,0.04144704036337765,0.004452062568329307,-0.3279939890181318,0.00043312418074856397
47,0.01917315271467035,0.03047045890162481,-0.18774058552209638,-0.6595557064655575,0.49146617663085546,-0.015287350963417703
48,0.006949664424414026,0.13800316633566723,-0.16302849745651782,-0.30235564742679344,-0.010333440865749555,-0.0034836777979575344
49,0.002534824567960836,-0.33334171591247613,-0.004061257243384742,-0.0431964678505653,-0.7119241094339048,0.0009564129988077184
50,-0.01409986903775129,0.1820177486878375,-0.04927647134172175,-0.36590795363212403,0.32874924936467986,0.016771989930861854
51,-0.014281412218509093,-0.6692344419815345,-0.44158037768904423,-0.253450212644136,-0.05628818345919426,0.01739775705864995
52,-0.6433701652508096,0.012249800908015862,0.10143628845635189,0.07394769457386924,-0.4604268649934725,0.23954279682575488
53,0.00787366054054961,0.07651921091779723,0.12491208255449116,0.27791138339945654,0.11919886388493295,-0.004799027650317657
54,0.011744852989719945,-0.15181858738592957,-0.5073432348919382,-0.19164332980942517,-0.29131442812181785,-0.008619205630449869
55,-0.011070560648423489,0.11095028040496846,-0.6400042413365521,0.2771972600562832,0.039735595048665806,0.014097955301844923
56,-0.02552982218748101,-0.36107473041141774,-0.16225948065674128,0.24811104124693517,0.048333757108250164,0.027972107691242126
57,0.007650771272289081,-0.5107387666384025,-0.25453804779509626,0.4078225600331389,-0.15665104374422142,-0.0052612526522791084
58,0.021166674534804475,-0.08792868923488995,-0.38224989236179274,-0.9138223239842709,-0.11465732048429148,-0.018058172802281114
59,0.0021489764045965476,-0.002135946071183059,0.04400385745594382,0.1455190797998409,-0.05245598907433957,0.058660237477719056
60,0.0018877528821736878,0.06814711535703977,-0.3835063604180213,-0.45479942415488256,0.1186245454437414,0.009902530909132474
61,-0.010638025940212348,0.048328825614123105,0.17033788193064447,-0.00863590298215744,-0.17276795926383492,0.013521227952673688
62,0.01507016888746393,-0.5866795669917998,-0.08829256238919198,-0.8402126378546104,-0.5472145672329549,-0.01220749470125411
63,-0.014507879332619433,-0.01299390805801226,-0.1606819944667996,-0.14535586695856162,-0.23463766264770766,0.021258625365570515
64,-0.0015743239344759852,0.0774369111641543,-0.06855744156048466,-0.033802937862875915,-0.10004730866514114,0.003924310741490081
65,-0.0035691731432361262,0.02352433237287377,0.11103941367775105,0.2373940059205576,-0.1424790274455835,0.006859413880538341
66,-0.02098170390989096,0.02505591121494921,0.0446719943877919,-0.20884808380554465,-0.40582148114012834,0.031685228486195045
67,0.01437993930344117,-0.11360772755571602,-0.41245912750654534,0.09766585175281434,-0.5264395804846781,-0.011144181324148485
68,0.007426802783561115,-0.29167061806021877,-0.3266028385398577,-0.1774535311883044,-0.0466730778537455,-0.004649574291732097
69,-0.012388576448795208,-0.29092183300960295,-0.16617873840804087,0.14542715537659634,0.11928959784237886,0.014917922025982444
70,0.02728366865322518,-0.2174477596922243,0.15015103026729826,0.03543595297572605,0.19763575693056779,-0.02457925870344461
71,-0.00102750983402089,0.10965367110784152,0.0026960447803368037,-0.1408040436558477,0.530633761922213,0.004399151188621363
72,-0.0004514748227907317,-0.0801547576262518,-0.02644859911901659,0.15560169968560278,-0.5476484707218318,0.002843889974170452
73,-0.009984512788316025,-0.25830446038408805,-0.3132828187577997,0.04560561317724243,0.04128271668308403,0.013748758267679477
74,0.0039041344310328796,-0.24578381554401807,-0.3250252729323997,-0.06032738979320612,-0.06752264662761132,-0.0013650807213018198
75,-0.005020844147902492,-0.3502405945944812,-0.08679298788112882,-0.6565851434418783,0.035277115433034856,0.007870466079748803
76,-0.006722675657313215,0.15836277027937595,-0.16789898397034453,0.27936905269109247,-0.34370335709160493,0.00921366006720582
77,-0.0032342527868870485,0.0015668065365558315,-0.2518033874046594,-0.03861818243985066,-0.06841560033250324,0.13309350449049562
78,0.005528439706449451,0.005524565486478283,0.014346531524057515,-0.27874313535844486,-0.03051248520962374,0.005075026112887281
79,-0.028926926266163,-0.04710396814885709,-0.2367824481829453,-0.12059365256632804,0.3296004779241787,0.03218950261013233
80,0.010823144694594333,-0.3067310539213854,0.11719086248161203,-0.022540893410253227,-0.19119167518992508,-0.00823601451079303
81,0.0016255405878025098,-0.08157480902111591,-0.01489905763208571,0.10648652374613632,-0.28894874056008435,0.0021522878153817145
82,0.006348347171063473,-0.0729735895210285,-0.4551869162904479,0.19587565943212804,-0.26129583352467317,-0.002631712910546048
83,-0.0004174432175019227,0.07631751304137524,0.035095143562545394,-0.059570369336521156,-0.3386705748299053,0.0032132683394291233
84,0.0041175447042787194,-0.0007999434611574152,-0.29128017366185166,-0.26917243153230674,0.3583911825631724,-0.001021626210247996
85,-0.006368125224046839,-0.237650157815128,0.1853550986828747,-0.25813900918781796,-0.09878303115056788,0.008962197881029534
86,-0.004117984126727037,-0.34056848671891327,-0.0030821083519289583,-0.3345284400139612,0.0923629190433835,0.008204550125652896
87,-0.004842434401093665,-0.04746585243613266,-0.08994738985432438,0.0355613777807941,-0.6736080537759268,0.007961594696928295
88,-0.0029300672151005847,-0.5235237917984971,-0.30238502557809155,-0.02659645707910735,0.0895127752884024,0.00848821162824861
89,-0.0036312850119205597,-0.2404566741635369,-0.03888282457297254,-0.12393457788246603,0.023537104285505317,0.006043800052528604
90,0.005545725824009251,0.027771203184435045,0.17318982454216714,0.1973305651098083,0.15287131867540943,-0.002991812300338279
91,-0.011588139139703468,-0.4120938968285534,-0.1844903658213145,-0.045388257262069964,-0.23859764126140728,0.014648372414929691
92,-0.012282654403608761,-0.5935808088577716,0.13001291797383996,-0.28084864368841744,-0.8750167436533766,0.016317135052885897
93,-0.0100661830313038,-0.07052093887085986,0.10275923716704216,-0.43221278970671817,0.25691722591857624,0.015227987374439726
94,-0.40330887322821396,-0.015295509586543354,-0.005664601133671454,-0.08983687506160098,-0.005035706903294468,0.2674874215188867
95,0.009786637123022635,0.10512685869022687,0.040960230868779535,0.4158532611396456,0.5518390139510594,-0.00793035965922718
96,-0.003375260198154373,-0.0783332670747795,0.20259563545076487,0.018790129797299715,-0.48020458289300916,0.006620219703635121
97,-0.00040497708628217666,-0.047082854959300424,-0.361423168917555,-0.16162683073044448,0.4025506044874403,0.005083655874177384
98,-0.6973458881704697,-0.006417815399795468,-0.25095251531434204,0.035414824547116475,-0.4883481985385585,0.259006574572076
99,-0.000592246428444132,-0.005755691553173459,-0.009379553740513524,0.15524166513594073,-0.1884720826217599,0.20382089017162816
100,0.007256107600435602,-0.18072972175954471,0.029494540480603404,0.09282409459404922,-0.567532972512157,-0.003875263670777895
101,-0.011922572136184417,-0.05984703752218923,0.18616791523864162,0.2831282492076078,-0.08804850103772704,0.014168752827591015
102,0.009337467918372866,-0.08036434290164207,-0.07313660347520667,0.004801559661032517,0.13291782308044164,-0.004802530060313256
103,-0.0019683056799535414,0.014507303128234783,0.21678526779978202,-0.10451055009136012,-0.030721753434198917,0.005103761091057095
104,-0.008486772812676291,0.045493942937626985,0.19827312163719046,-0.9884031162881071,0.1275165700176243,0.01088713601129657
105,-0.0019105260456665496,0.012423958186767226,-0.3579294164815786,-0.15439918379945827,0.31724432799295277,0.010523954077589224
106,-0.003422727561205874,-0.10823085503469543,-0.37565189698502893,0.28961770137152454,0.2960735250558091,0.005866811677153964
107,0.02133416082290207,-0.3975027245763928,-0.09151286792012286,0.2812377086843748,0.0572064867369238,-0.016212621918033982
108,0.004964940867177914,-0.5385272352280774,-0.020018304898716366,-0.31848520636320604,0.12628726940682444,-0.0016150719956374814
109,0.01907745692466767,0.1448805888620205,0.10988510872162705,0.06934341148915957,0.4419530835392488,-0.01514613376394318
110,-0.007418036760657998,0.05540591957641228,0.12346858861081933,0.0028494417584764564,-0.020220601017506556,0.011775189967420737
111,0.0025683720907234697,0.0009531189618485758,0.12967291792927393,-0.042784294807739265,-0.0207435301498394,0.0015806725711729086
112,0.008673893423258194,-0.6553854572233255,-0.4886721415292476,-0.12186827444239967,0.05523273555317221,-0.00512222724416406
113,-0.017012079749531228,-0.7495316553057267,0.2685843165970365,-0.14205608922186677,-0.12921594969404865,0.020055287575933473
114,0.00842199824736345,0.024602732824338558,-0.020461976100001555,0.17042231071649705,0.05564191762321369,-0.005364444034925691
115,-0.005316622240357782,-0.05572020679262513,-0.01581215514516454,-0.9488266411448146,0.24610427544745572,0.007553279990658666
116,-0.0173321129616566,0.1289276872864965,-0.40792768164884785,0.136743826575784,0.333245414107291,0.019779146281343855
117,0.007879158585332391,-0.027515941269022126,-0.09113247787974421,0.1010022957547182,0.1320478333759864,-0.0034205807584488865
118,-0.02542641179263705,0.08324942812122782,-0.29648603410862157,0.0981858696016048,-0.11278156440978568,0.02764378273281709
119,0.009605270670201227,0.020542667029829098,-0.059482239389750835,-0.33837526982541205,0.09370535523291129,0.019644288373224482
120,0.0009186642957192959,-0.21138802104196774,0.13558985881691765,0.023671766541026373,0.03070769654183436,0.002503152743495775
121,0.015138875440759536,0.011554607851015697,0.1712420606377808,-0.6499435890124756,0.2498737939398476,-0.002365679742482644
122,-0.01425882591518668,-0.42144858707287525,-0.16811550608479947,0.37923374146418154,-0.04243659731838667,0.017167897033157898
123,-0.359624324189301,-0.016801806845335276,-0.1452718508538458,0.04540224922235836,-0.5330696523923302,0.2689026034814773
124,0.00666976353146298,-0.13166931851252262,-0.077576492574702,-0.1359637471528389,-0.24556732209752077,-0.0035216479190810787
125,-0.3912892602727075,-0.0019704158623146117,0.032343271535402396,0.06544069217527737,-0.42190655452029546,0.2657362151209638
126,0.00358442415589999,-0.4962856337667851,-0.06621291988233108,-0.40418902557941216,0.34249428082441324,-0.001457226062866721
127,0.014105282179907475,-0.09426184740356425,0.23746530492998774,-0.36676648839913956,-0.03968767471528603,-0.011213676117668365
128,0.0007747220259650689,-0.2900655870605158,0.10522070342496248,-0.41281113316813345,-0.05838136275220823,0.003022972683586886
129,-0.021946067891443044,-0.3601409961770451,-0.4073698232283906,0.24924335623277516,-0.06663181958132572,0.025965152369021235
130,-0.015246480108657923,0.07263309522143746,-0.12061610874304118,-0.3654923954239334,0.04481567031547434,0.01758170818242197
131,0.00034753391453246074,0.046929081034021713,0.08641566389520339,0.2307714307663402,-0.6273525743285883,0.0024869681429825507
132,0.0012249141890481319,0.07841948055688841,-0.13322691948366155,-0.7434520367115529,0.4029901467017769,0.007807230077378518
133,-0.00539059139032505,-0.06465126306858338,0.1724756800724242,-0.007259275264475784,0.2244754584326888,0.014545261919692893
134,0.005052113450332518,-0.6493065172809681,0.007977703614432397,-0.1994578617671695,-0.5086615659049891,0.027602874230973795
135,-0.5158402568393194,0.009102681533830759,-0.07181345125653693,-0.40638018090614403,-0.2668359780448888,0.24407118750391973
136,-0.003688636035304227,-0.006892175279112789,-0.5333913835640725,-0.5713290873743223,-0.6621879282481774,0.03891801865433354
137,-0.007325795591124673,-0.15698623406815582,-0.7005098062734578,-0.15184578219562184,-0.039347303167731135,0.009992237508569996
138,-0.6605984697828459,-0.013670430974874082,-0.1430017708269805,-0.21032931429078958,0.12140227575536439,0.2658499161042842
139,0.005130775016711997,0.18838864086337703,0.1440884556732841,-0.31568558504613164,0.2331894499838985,-0.0031370140314262245
140,0.0036787206073511936,-0.15744468904644615,0.09070720595017912,-0.1252304799150207,0.1799254266493327,-0.0014502847442532584
141,-0.41211514379159087,0.00911876562060121,-0.33851779538840593,-0.11760658401312957,0.30104333298095365,0.2427504313962717
142,0.002174413703951217,-0.36647465679779256,0.1172456669652906,-0.7978121362511172,-0.06080066946207713,0.0022349497664636148
143,-0.012924413011870639,-0.4291991155355259,-0.0010134118779649426,-0.35223125562560287,0.2028228556465908,0.015388444369315949
144,0.015387796616455063,0.06360065193506259,-0.49637223810239806,-0.7440589406872622,-0.290069456754067,-0.01104763582162177
145,0.018050682269644902,-0.10114908289468161,0.1858759952056267,0.11380565168834755,-0.08585133812069715,-0.00947628892398061
146,0.015722999582691743,-0.13919216175907245,0.19918266140223095,-0.24622494539328924,-0.2444540237200912,-0.013000689193106518
147,0.0003978231098802354,-0.17556169540651034,-0.8369017098999351,0.0786078403732482,-0.3260880568354659,0.002756395194208744
148,0.015517034883820724,-0.2634326680366768,0.12783836545233518,-0.6030656656069429,-0.3361414899159819,-0.012299528831315184
149,0.004004389005533016,-0.3108693894217987,0.19669804197674878,0.33872845610619595,-0.25210003228205546,-0.001955654010858234
150,0.009797931910341617,-0.5257843883255231,-0.22335707734024762,-0.17630728851299726,-0.34200309406675655,-0.007385295945023609
151,-0.013091206147280432,-0.12432283819601586,-0.022563210173885517,0.1220662840105905,0.07832931054391568,0.015261126096674706
152,-0.004408399963799603,-0.13301835239304727,0.17037984918195426,-0.20714073839067745,0.2523670437279214,0.006498069129110263
153,0.0008616711425306622,0.013273332171561902,0.24462018226696813,0.22930287048999765,-0.49378403789732134,0.0018857939741508745
154,0.0035089060200783617,-0.03647269579213819,-0.004662663373111997,-0.002764494152820429,0.07683725419663184,0.07773053880726584
155,-0.007477307288218937,0.13387913952379704,-0.04504093219368943,-0.21620356661767554,-0.4983633905286167,0.010133268385606424
156,0.0005464903986625025,0.07768635577414262,-0.2789883582467747,0.00356301444985474,0.019423631544551734,0.0029560469289221145
157,-0.008626572109786346,-0.04583558269809607,0.05122030901624852,-0.3807184207748278,0.12684992949627227,0.01708496943243681
158,-1.0660543678277183,0.013609473081628187,0.22230733797212343,-0.6554971691999728,0.2980261898368668,0.2393441944923592
159,0.0037201529004844414,-0.3494811480573961,0.27411792252204326,-0.026302853914331903,-0.6087983955204272,-0.0010678860282494498
160,-0.013265924539498264,0.011113163229341305,-0.12269379254449547,0.29273783110267504,-0.06320308046525921,0.017373568124949817
161,-0.013345130377501513,-0.18888122202446878,-0.04888911442060745,0.21500479174089948,-0.22488758053193925,0.01563708534136895
162,0.006038681897536646,-0.6715091451450915,-0.33778678584996735,-0.19363580636959846,-0.07101637015309786,-0.003068827585693907
163,0.012610862275769685,-0.48088009784778885,0.047935944624799,-0.17187800004609582,0.3024238905268225,-0.009125414609931432
164,0.002038016251810326,0.10726194127888622,-0.7766471676495185,-0.07953386906882781,0.20194934270761739,-0.000287281026972596
165,-0.5185489952144406,-0.009085407950764846,-0.1996582569859453,0.1877041838331196,-0.3661782008345496,0.26243784853120505
166,-5.687631613038313e-05,0.040271640620994975,0.22400208767848873,0.07507481537803673,0.32020475849789576,0.009328413948395427
167,-0.0008758071842474013,-0.2249283986146009,-0.6556641066649156,-0.2661461144358084,-0.15111575953013273,0.00428738091817595
168,0.0058284515397664105,0.056423879675012834,-0.1752938582613312,0.07909153549088771,0.04388445943035174,-0.0029787648193690982
169,0.0027282366356697896,0.007403825054731694,-0.12389289223997357,0.012654267538581399,0.2510056070479102,0.04702181595411657
170,-0.003055229646153901,-0.008947182036986301,0.10105471247355358,0.23767818592781265,-0.10241066496871967,0.09946461734153145
171,0.0012563039363555628,-0.2851371117197618,0.09326485719556887,-0.07921514490000486,-0.9768487949660808,0.0008326641691997793
172,-0.003628818423476843,-0.17254340275721924,-0.1261656690140765,-0.012722125575671983,0.4436159737678681,0.0056432818939623755
173,0.0055167618147211606,0.096005214001049,0.1647460702002097,-0.5889384218786302,-0.12415514406860398,-0.0035052738053276697
174,0.005662651051001832,-0.2438695855775207,-0.1890644807492428,0.14716926903175953,-0.712186767620846,-0.002114129149853761
175,-0.005604669851316912,-0.09069987775842836,-0.1086120181458875,-0.2682775927009118,0.016017444727685348,0.008396757481242821
176,0.004357213540968186,-0.11219196141285492,0.04036333621985966,0.2194639995873443,0.16985452630753495,0.00038707993478674326
177,0.019208871049723353,-0.12333660761923271,-0.6133662163794794,-0.1952393324605756,-0.08450895341605563,-0.01628024650247353
178,-0.002550871566088353,-0.13853560737378612,-0.07508340051961288,0.1320451742705805,-0.10746189976619694,0.005150258673491407
179,-0.0012669301528670518,-0.21091156555774626,-0.2451157581592306,0.1788589013726769,0.1448774539614911,0.004691145416920699
180,0.0030271840209306067,-0.2957609587589868,0.05077363422773096,-0.051653157578500586,0.4255496112422179,-0.00016673403710847196
181,0.006774249746059224,-0.4136699863538504,-0.24339462180990162,-0.7619658044462627,0.23532907604887865,-0.004295497624858945
182,-4.877495692534595e-05,-0.10601330309255974,-0.06454324174412174,0.04414629737664516,0.32512044264445306,0.00268119438129379
183,0.006068031538721375,0.08233875470378393,0.13429562320806854,-0.43199092248559673,-0.09996614808623316,-0.0030240061149639586
184,-0.005695573989518032,-0.024906641503679383,0.09597942962692263,-0.05789653451168736,0.30912077678252514,0.012691537418516054
185,0.006023891248416069,0.02568268768777915,0.24187594899534903,-0.5311225880477504,0.3675886405090304,0.02481255909990614
186,-0.002924203669263492,-0.3209824033943207,0.18255794021051364,-0.07487918275569877,0.1796424711760819,0.005821032629731781
187,0.009926473019550741,-0.22141051254382338,-0.21451109321786682,0.07105895933374767,0.22184363135724106,-0.007250349259633003
188,0.0006791487695649856,-0.030818794621802148,0.2922652141375237,0.18040900210844968,0.21568537089651185,0.0016988777610285979
189,-0.004830375964788192,-0.19882044045669722,-0.07297076192558072,-0.009665050342880233,-0.09219297425042175,0.010276775354614801
190,0.012300820493591269,-0.18185575380841934,0.1521924299832571,0.026793627204444503,0.16428794736911867,-0.005579071599678354
191,0.0013503153421541292,0.17737090498285701,-0.03362868759042642,0.021717053852999435,0.1608481031846229,0.00039384844692231125
192,-0.0025306517898034953,-0.0049555988798667405,-0.08651418134888095,0.2303793974350825,0.08187998932853147,0.01076782745539349
193,-0.00363530024025549,0.01895701177259057,0.1286476020923254,0.30558110649943215,-0.6477560534347172,0.006725063207770654
194,0.0014815971746580114,-0.03362241192655091,0.0930061018185877,0.23044626281810143,0.2619908425371077,0.00018560190951120604
195,-0.00011718315031006288,-0.0450051558684289,0.016998651145880617,0.30091961965299774,0.010062772948860543,0.005137108780874951
196,-0.007475162018122261,-0.628867763212077,0.2917836788226129,-0.30911531287420585,-0.012169228882948246,0.009348058080041846
197,0.011148235444033538,-0.008628721669291073,0.29380097247504433,-0.11470553808078776,0.03847184829675432,-0.009204744223379021
198,0.0031376480046005906,0.01877343679426491,-0.03783808492011548,-0.4037123701479774,-0.027611784635245246,0.0008910260334710983
199,-0.004324718866921318,-0.18375545121769543,-0.3401785428526013,0.1438250770089653,0.34960887165421173,0.0075412541043444435
200,-0.018065374854909777,-0.045483276246105264,-0.009769431900882253,0.06161186822730397,0.19161670070780645,0.02453545515941205
201,0.012581036967518777,-0.04066362958915459,-0.517444938243389,0.013902040306686347,0.30269387458229224,0.002688785399866174
202,0.00016344900281928254,0.045940161096911125,0.1542634111326161,0.1847281312301975,-0.0662423234543342,0.0021447867034978117
203,0.005125230987561569,-0.06091342175153891,-0.11553456018863961,0.4179013198480013,-0.5018759455912056,-0.0027671786667446212
204,-0.008322289661823468,-0.053318325178797754,0.09232462531152685,-0.3580946490225622,0.16989545610979512,0.010308162081328374
205,0.004108408920464157,-0.019067770454912147,-0.030260666044781004,-0.23330357741489316,0.29082305623616767,-0.0013853879178956049
206,-0.006025457205318552,-0.4410994674160412,-0.13469218958044316,0.13531041749782002,-0.04033577257887169,0.009035160763172461
207,-0.002929183259141488,-0.08731884113088406,0.2128776364819115,0.14650168171320488,-0.25587163069765895,0.0056374300338276956
208,0.008587483903010229,-0.06621641465744177,-0.1995158154909939,0.25576247592425405,-0.20204908352112538,-0.005925911551873105
209,-0.0024103789576672696,-0.753969502397436,0.23250247368229826,0.04912233273747563,-0.38954392068502475,0.006395191127151702
210,0.014335874863151465,-0.0023578723887347497,0.11133182210506998,-0.05218844888239532,0.11055085771688139,-0.01110855560722739
211,-0.010925258111418423,-0.06043529378565238,-0.08313074524819603,0.07341042087461874,-0.18416679969330274,0.01768511099134921
212,-0.00393831816613377,-0.135206227639172,-0.4835519461448216,0.13023154011839733,0.3515291749111741,0.006549650053439109
213,0.0027152772927183655,-0.170513169957221,0.09613022357131484,-0.045835424145837855,0.06955166452648931,0.000873064161984803
214,-0.006567992659403887,0.027433724192110986,-0.352796320377575,-0.2495174520828346,0.23658487194186417,0.010637421854396416
215,-0.01743436849571922,-0.019789523595335035,-0.38943047674971,-0.8446515060628941,-0.086463509463057,0.020282760452576258
216,-0.0005253426274169914,-0.48723658574168394,-0.047920949950011504,-0.04796516564261183,0.10040195648970657,0.002829918642738812
217,-0.0035331372979439113,-0.2623790907619871,-0.47288895142134085,-0.21465540956471693,-0.4580875345786676,0.00963406512863712
218,0.0013864103823935103,-0.013787347451806431,-0.16514978850896928,0.04168986797031937,-0.20453042026201412,0.0008170793230514392
219,0.001203540461239827,-0.11467249395175327,-0.07057708108656374,0.13670282071368833,-0.4391559354788732,0.0018957073883733755
220,-0.016735787792448886,0.04868800169477272,-0.1054491457447464,-0.32096646020378894,0.08734832437251161,0.019838757835590696
221,0.01989526147375198,-0.061840266450271186,-0.2019922018073808,-0.23829335883010416,-0.7304191502522752,-0.017654709185201317
222,-0.014372665291678466,-0.2538139296921358,-0.16006750589304575,0.23226130799266842,-0.09166410791298349,0.017474227503774274
223,0.008658145498684267,0.0096060363790611,0.011383804166955724,0.03179090143210994,0.05477481770816428,0.002560787491866904
224,-0.01096440946173094,-0.30093222883875487,-0.04038041473798526,-0.20686558369951227,0.14631301068287728,0.0149752805421811
225,0.007408229640436748,0.04719939804130202,-0.08889251154746863,-0.006715354734073253,0.19859454779530367,-0.005180737734533613
226,-0.6280469921177969,-0.007520226928937834,-0.7019780745098934,0.2711790829675985,-0.23729452848834096,0.2603532201282271
227,0.005906851323155049,-0.1563437185281491,-0.012745304419575942,-0.11910692048279709,0.4656392689478629,-0.0025159706702395854
228,-0.008573112105167091,-0.3148882326893669,0.07022654586115573,0.14061213516776883,-0.028328109922768296,0.011785387992110737
229,0.014899780364987958,-0.17586823665715834,-0.3448325609993085,0.11656671976286642,-0.3909002292593302,-0.011656776552021984
230,-0.009801917715812847,0.023331521118330478,-0.17316830891146334,-0.0050314761671540476,0.254758561753874,0.028268824994358146
231,0.006881064274331328,0.04875999122140684,-0.0804222273167649,-0.5627774744473653,0.18928891473600828,-0.0022999416507598655
232,-0.0018736314606038196,0.017672424837659073,-0.3500878475787654,0.1040452436559921,-0.14852294061392565,0.018558405503349057
233,-0.005495841355303566,-0.01712414012599539,0.2832989249629768,0.12576829137165013,0.025828520357680518,0.015366156380274333
234,-0.000737325131639377,-0.059654334914841955,-0.024761268807105052,0.1131602951452847,0.1063705340991119,0.005638298424602544
235,0.016299127684296977,-0.07802149082484433,-0.10500682049682397,0.2905609748797484,0.4460849478451455,-0.014569646573171667
236,-0.00017068907553574597,-0.4506629217912132,-0.20718887306054123,0.4654047678345822,0.09976110057592091,0.002547442093708378
237,-0.0038130777505601676,0.03967474222239176,-0.4531874494563515,-0.10330107557130785,0.1764562164231226,0.006680993044041861
238,-0.02439805301404041,0.14161761186799215,0.14124968884600553,-0.5673521894847834,0.3741365862444458,0.02694887458913199
239,-0.007221574122647678,-0.27162511023423996,-0.0033099651992154477,-0.23455271830951407,-0.2857735310956841,0.010089528948027691
240,0.008338162420863382,-0.23748258581613813,-0.07658591724577973,0.19884323052312192,0.27336988775253246,-0.005988119036286843
241,0.018046058089741912,0.0408601419763559,-0.11021076683021352,0.10814965222992962,0.4799616115063772,-0.015820068457243177
242,-0.01453565015272551,0.04211281548254586,0.13841722437012716,0.21006502454446818,-0.05596155894919011,0.016354889219292637
243,-0.003393727806289215,-0.2294037426202492,0.01124042300982242,0.31323672143594516,0.44965616317220847,0.005322679542496917
244,0.0028922524196439703,0.03264790538209694,0.03070902187152369,-0.3461972862077485,0.004443580048515139,-0.00031751347865483697
245,0.0057567269122424936,-0.14086388562172236,-0.16267072351919354,0.10508263455852374,-0.23254018905706794,-0.0027398581613773784
246,-0.0006488273155770274,-0.12062726400068624,-0.15629187543314177,-0.03508837520879304,0.05520513385945519,0.0038192913605556897
247,0.011605641246969833,0.05179666196417165,0.08246592258889551,0.003986623383299304,0.15062060159227797,-0.009346329790606978
248,0.02531047754048199,0.015014757205010998,-0.24826556418227874,-0.1377004329194105,-0.4806962755558405,-0.02192333694844947
249,0.0013267182643501574,-0.1068826321321914,-0.04446459972508088,0.4059134949711639,-0.09278783640388319,0.000643653834493125
250,0.005264656549430313,0.026178807850239738,0.0910181663499926,0.16947672751401133,-0.5078108943737342,0.00531102614523661
251,0.001655810221545595,-0.021069996808517732,-0.014761055471902096,0.0366430347204878,0.27586104921624643,0.00140065904158364
252,-0.5020738544858996,-0.017487922785701215,-0.05272587942135626,-0.033004558316353294,0.03751436912615075,0.2693118828848226
253,0.010141779111173754,-0.014051310538911066,-0.07885598735194277,-0.250930615560504,-0.2117709091757943,-0.007447598216290316
254,0.00572373608637422,-0.32880132530760464,0.2631288813203101,0.32372884208535535,-0.2752583164684674,-0.002996308869736822
255,0.0089815867997447,-0.09295999923351661,0.13539318902782793,0.14696576145969864,-0.3662307320846029,-0.0069175727180261675
256,-0.005536062460709479,-0.41159067380934294,-0.2066824156651133,-0.5155418774355816,0.2627432122657454,0.008750469247257206
257,0.0025978956428138744,-0.2641161793938555,0.13957742627300762,-0.06352225232727421,-0.21860255136476042,0.0013781305642882216
258,0.018381170809623093,-0.40052701061670826,-0.06344353181501805,-0.4181399326150808,-0.016052449037262717,-0.015730692249052117
259,0.013165569140147326,-0.24874193646233433,-0.018397335659291247,0.051032346656531724,-0.6362886914266646,-0.008313548088442075
260,0.0029676419724415926,-0.3424215273803412,-0.529908886079047,0.134918507014545,-0.07165703655897493,0.0021618737065717143
261,-0.012423695157662062,-0.013453377294387447,0.06829677614016638,-0.06153015023842756,-0.03536702171238992,0.03207277469912224
262,-0.002367426820058749,-0.19930212231080024,0.37009303194693033,0.09482743541369587,0.10553508146275425,0.004378312004127111
263,-0.020140798399585824,-0.2874929086462523,-0.13490841598940123,-0.7179735694559333,-0.0863850978283216,0.023755482167904664
264,0.01933590305613997,-1.0487273658929908,-0.25952814625115733,-0.06941345378569919,0.04334292275763091,-0.016598196851223292
265,0.006624758924374197,-0.11165603414000169,0.15200255160027254,-0.49896437572118746,-0.016725008142212283,-0.0033989971576631433
266,0.009996912472600927,-0.09801053801779325,-0.10703198755583515,-0.5194040323829435,-0.03855324454827916,-0.007360223038590448
267,-0.00544783639062052,-0.6474604234705608,0.27962267269358954,-0.2805767673371386,-0.3372628977748548,0.008578102165561723
268,-0.006930952416448366,-0.4404694338817062,0.05340058955959037,0.2226869430250339,-0.0019860631316136745,0.011494493514752502
269,0.01000342805250476,-0.31406338378533344,-0.00573714981284823,0.33311128237594145,0.2715699193591914,-0.007407895175387239
270,0.010171121835903518,-0.06490482301489109,0.10796402433113006,-0.15178101598184018,-0.04380684064411716,-0.007395189351012778
271,0.00278875471612805,-0.12076631213873357,-0.10762038203889329,0.1666776812015064,-0.10388201943659195,0.0005646925435241428
272,0.0008888574078751432,0.11954229217784917,0.008516041779029426,-0.5856737233637249,-0.054182867434701604,0.001854721474534017
273,-0.0012432221665819032,0.1335106749435,-0.04140074296511137,-0.2138140831728811,0.28549737567689115,0.0037072214033278214
274,0.002619538441146485,-0.004743386193784116,0.016632140739589074,-0.0452045522721366,0.07926267844482626,0.004539187475155268
275,-0.007640683821979355,0.073839224162211,0.05760647167869892,-0.35861520183749895,-0.11956639617929135,0.010678758054077662
276,0.0040661542254347705,-0.3477569285039805,0.022265749546497182,0.10348306129322493,-0.13283525101047833,0.0002728307106770444
277,-0.010485685552182544,0.008120964753550619,-0.9348494768765501,0.024683647998168745,0.11805428437860727,0.04240771515803881
278,0.012383825907369861,0.06638731177480661,0.04784910641850937,0.17130507091659086,-0.014503225972700928,-0.004043117220337081
279,-0.012155496482442407,0.06939373688930461,0.16058238531258384,-0.4457612631690496,0.3603624204024547,0.014702502135474606
280,-0.003995725662152894,-0.5427769631321873,-0.44407258444612635,-0.36085224178869024,0.004128669690748765,0.007142807327945411
281,0.019581237456956835,0.06458690356296004,0.0030931362274241314,0.4951472930001626,-0.03423880383171832,-0.01694794029499717
282,0.013078912783054175,-0.41186572366337154,-0.41082091719752606,0.2817494357565896,-0.9045815411215029,-0.008905287672606392
283,-0.014977912679895788,-0.2650521554975141,0.06316880259982782,-0.5052015156115879,-0.17834378969231607,0.017847686597010033
284,-0.003986230514972822,0.010864232493488557,0.2020348060684216,0.12997186981347686,-0.22765469023807777,0.0076499360002761025
285,0.01649977764547672,-0.1987264090898233,-0.5691783728461638,-0.19920003796160832,-0.036326144923367415,-0.01357526625645296
286,0.000868987444008873,-0.21569542150589038,-0.22187379276566466,-0.48406194427195204,-0.05338810816961306,0.002803814634194714
287,0.003922535541239114,-0.00950355540021619,0.04506222389031067,0.1912831256875186,0.2953617657696618,0.013986304343217125
288,-0.018872840195507057,0.005534410647430432,-0.19485174283896012,-0.1922525832008861,0.11291671628129696,0.13982453190410596
289,-0.029565321689879687,-0.5097440464627384,-0.004939805727649682,-0.09523529096080274,-0.1624836042230613,0.033166293372331526
290,-0.015831431628576587,0.09516626512868476,-0.40593573301005226,-0.09018776046115606,0.10473195371249205,0.01961674929568562
291,0.009598759620509156,-0.8759629854820903,-0.2129186308824928,-0.03369009789964683,-0.0014513450477774137,-0.006136971748178985
292,0.02350069894397766,0.10850148520469882,0.031062697460168986,0.08215777811940489,0.0315368943913617,-0.021447338671090076
293,-0.00025629019413120346,0.0613634420167799,-0.10947073298672921,0.07959666304745372,-0.25659931648640655,0.00392146209302573
294,-0.013481059812875507,0.09891257390233388,-0.06377556190628814,-0.15742952417361683,-0.4208285179010176,0.021680412848308152
295,-0.004462255964523987,0.018662785193510945,-0.07871302431901978,0.06463386973414648,-0.17961665420484568,0.007224968771796193
296,-0.7111762033637816,0.005446132157613914,-0.05387897787804963,-0.43425764268451333,-0.426073874760319,0.24709095164975525
297,-0.0022859076962041813,-0.13400221993593153,0.19566990677316043,0.12716510173799533,-0.120800324047351,0.004357189654281501
298,-0.021813083757949325,-0.04557368919082605,0.035910528746808223,-0.7318996526474855,-0.04307228785732259,0.03415776982805437
299,-0.010832839369616099,-0.05688601660053716,0.30366814844027445,-0.14389145726061023,0.13210193920408786,0.013057983704276011
300,-0.02421936879336961,-0.3943606507125015,0.06842825345969683,0.1690827649649691,-0.26568722092958974,0.03012387235867409
301,-0.0053887068958367035,-0.20326265073055216,-0.2744777976024646,0.178230100131069,-0.4413178230091,0.008520510965669928
302,-0.4392674592642567,0.003960918184659934,0.10864814425610658,-0.029090832703496494,-0.5446269869086975,0.24929524117275131
303,-0.0009247879029867789,-0.455606624571814,-0.36734072116684835,0.1169801588744927,0.1513752680794832,0.003566144574496684
304,-0.02223502755162543,-0.42597171822053503,0.1511057634612306,0.14363557066051558,0.13534524240667123,0.025509595822572555
305,0.010357649001026648,0.15828915217068407,-0.6391405593758412,-0.5450968129134417,0.37308530257802563,-0.00788949766728656
306,0.018707892016377903,-0.20751851515563435,-0.026941552993228535,-0.08660482439245726,-0.2672975838810067,-0.01524467065198005
307,0.008390091118155585,-0.054969939900035625,0.0887341051107563,-0.14007102804881794,0.01680025452304551,-0.005159482084046795
308,-0.01220186037597315,-0.12256304693714648,-0.11070947416134219,-0.18125137893606746,0.3448277264426879,0.015258245327004443
309,-0.00014092994553971394,0.10942185689762551,0.3185476659090327,0.2582038205586815,0.17065754584216647,0.0018745517420518808
310,-0.9015228291858431,-0.005701996084302552,-0.41383792531572394,-0.025286498714126138,0.018858003967186066,0.25768995212325374
311,0.01191432149084215,-0.06304324111633375,-0.3207872600867946,0.33743630213523745,0.13230250439862573,-0.009461625639334125
312,-0.00011164800840812728,0.06637575769917725,-0.08148615243824042,0.16696748315693344,-0.26282445049203534,0.0026362462136119576
313,-0.015724428890380837,0.016002891251002516,-0.2773981358053181,0.2691889005603343,0.09439144094982271,0.01838181174858764
314,0.0021852245696754036,-0.08988834076672236,-0.3253103393384955,-0.20016607963850985,0.14048319118471464,0.001128758324739465
315,-0.001325976423700248,-0.401900545588433,-0.33654826924464154,-0.27086647834967836,0.08632893329789404,0.004651908084145907
316,0.005161280103962218,-0.010495404607483882,-0.009539334426706625,-0.07893842367299403,-0.7416770844898979,-0.0017480877621474065
317,-0.0002452282310011489,0.10427387556017975,0.011663149298382192,0.16225327408331602,-0.26227817692813604,0.0034709465854557493
318,0.018604220877425526,-0.27249106268317674,0.07429906584511614,-0.34968314306641124,0.07100788206643632,-0.015584680500503236
319,0.0051990339440231015,0.160615280504531,0.14529486770553746,0.3428429763394085,-0.3549556230580723,-0.002885055916163037
320,-0.010732014441799054,-0.3054007868833917,0.0919458603733162,0.03298139607919903,0.13663218452820447,0.013063195495340369
321,-0.003652343811563985,-0.10513198849676353,0.022704546086989907,-0.29201281926879097,-0.059117815625754966,0.006718651217773549
322,-0.7043922826698447,-0.00018481537381531687,-0.20267989313600382,0.04221782194766177,-0.017280185437956647,0.2536300169525205
323,0.007497204832180193,-0.5441806037173486,0.143586261616511,0.21845417115972077,-0.20522015238769653,-0.004530049188501653
324,-0.009609198024666976,0.05679219605708641,0.09875408187780954,0.10640654124232618,-0.8385106147520588,0.013151077721666479
325,-0.0007525703311167531,0.018299551222924038,-0.09412023568338035,0.3886673081833407,0.07317293092193167,0.0027566997771720707
326,0.023574229070209007,0.1480720917387086,-0.019812735920572977,-0.24990653446640265,0.37337720385131845,-0.02110674684397982
327,-0.002931538414050361,-0.2572462246396663,-0.5426235196165132,-0.12205358315999931,0.13815201474052796,0.007251697656037504
328,0.0022768301114493017,0.03746452700186165,0.08564304274791346,0.19497004760429637,-0.1653680086129078,0.0007254541336453258
329,0.004880981864636924,-0.11821005559881725,-0.18322144582846284,0.06887258992878531,0.22513795198424058,-0.002452378792737727
330,0.0057665612799273624,-0.2313979364689116,-0.1064934000782532,0.11114301625367057,0.15612643175539204,-0.00317576141573245
331,0.006062191515777915,-0.11440693298300686,0.1203767923707546,0.40674556639736903,-0.14332849612812676,0.0012122272937083835
332,0.002111125213620335,-0.2529858815111971,-0.20853607505414196,-0.28742009974661203,-0.3450506895079723,0.002099026640432021
333,-0.028072132634896385,0.021412661893234985,0.022794981235189526,-0.0744420489610943,0.34857026501533217,0.03459922536808517
334,-0.0021068230494447615,-0.36549020884511546,-0.24974571490839098,-0.2829509871730166,0.10482895568478884,0.00474442735632474
335,-0.002689317916500067,-0.4652761732981062,0.04635519122893805,-0.9358530718450698,0.2574228471440818,0.0057447525091056375
336,0.009117424430042043,-0.2093208219795748,-0.05337608626622675,-0.15326091348040596,-0.1078300190885878,-0.005094011488813522
337,0.0017158203288625273,-0.04562281500113119,0.33388760635466275,-0.5491432640037547,-0.27538198832157157,0.0017316319254019618
338,0.0009256696706370082,-0.02746520311685996,-0.2924623056297521,-0.11895550451123299,0.1528973054875325,0.0021031433513335287
339,0.002463349617566113,-0.2898890950581618,0.10140628564730558,-0.3379729081098102,-0.4507245544207185,0.00014667299964803534
340,0.01281949426170459,-0.21156456548270186,0.15796039334140488,-0.17946208445190096,0.011723103086154152,-0.009668021803796
341,-0.01674117308193146,-0.002981407627126176,-0.0682157730404842,-0.2835417626465416,-0.9010584446866889,0.019243386670881046
342,-0.3486977968781292,-0.0019447201435491834,-0.03359038980205753,-0.06226602440311829,-0.21025440914318894,0.2546310322141045
343,-0.002653371562194806,-0.31629415661944776,-0.12221470097642029,-0.18947681196972702,-0.035805741821674036,0.005718385660114109
344,-0.011814914330759985,-0.06853926742139826,0.10648875323769924,0.27130660820543706,-0.8079206586232942,0.015729689533250893
345,0.000782266151755362,-0.5850556865299619,0.07470737430727237,-0.2039461065651092,0.2500377159039051,0.0019248233467851605
346,-0.005799829102210774,0.15769041997276856,-0.459071497090968,-0.47072739868642133,-0.24637916801890497,0.00936987369512699
347,-0.001077529743486294,-0.34011016982707637,-0.2859514892553844,0.11149650665912064,0.19977728039652437,0.0036588005663463264
348,-0.001236797704740833,-0.018876970560616768,-0.14787729910445435,-0.6239995847577927,-0.18945112891897456,0.004955081095954665
349,0.008994876995373602,0.15650902830567703,0.18629914650688328,-0.08275502704183868,-0.09786259382299506,-0.006396644543404727
350,-0.0004668117312678355,0.026370159461389875,-0.017246502781177675,0.3383833904059058,0.07427181872843103,0.0024707054516627976
351,0.0002509525337428542,0.07872281092484967,-0.18321087167485756,-0.07411701322459668,-0.1643998618244772,0.004201021347332244
352,-0.007031301821343483,-0.08149117929017025,-0.6385403129135797,-0.6447202904689886,0.2754898889921994,0.009947249578163064
353,-0.01296830182364661,0.058007777376791525,0.020185244010915593,0.191306907003313,0.12654639154301822,0.014932139393297439
354,0.014811271779071822,-0.6818178566646198,-0.009861078386061817,-0.02115231478636348,-0.23518089355595276,-0.010262399203116546
355,0.0038969190560005362,-0.26900017424606365,-0.5444690332778159,0.38293684090090196,-0.3505569993358279,-0.0015984575458185646
356,-0.009548466735086025,-0.40927496523807544,0.10590536326648681,-0.3105926773768533,0.19141551019985703,0.011857635488344022
357,-0.004294082908607333,-0.2890901218369331,0.15517233426361865,0.12945084117476058,0.22964635274525913,0.006589789830155678
358,0.006365703860840455,-0.08614803018437389,0.003765550419865815,0.3492389213941156,-0.2151920417980346,-0.003245342802101368
359,0.00018426775062874157,-0.4284457485927655,0.1807859151383301,0.17795913949123499,-0.264623607356667,0.002784473554154283
360,0.003738786091352475,-0.22576283148782705,-0.49218199272410273,-0.28072049509315583,-0.31636225557050673,-0.001470304058410511
361,0.003674398970366699,0.005359622840686029,-0.08218233977610412,0.08983247687307955,-0.23312044810880247,-0.001236054116847299
362,0.007691927665892884,-0.19577791260547384,-0.16973863216260132,0.41342419588714574,0.4862831140836845,-0.005476926810083932
363,-0.0001529181604952301,0.02228241147949328,-0.17790447893100952,0.20165011372408925,0.3940603299679707,0.0016959152678959072
364,0.017512681031509603,0.19814694279086198,-0.14847174434258065,-0.34450939440459316,0.43433463511513726,-0.014724510214471229
365,-0.015200810242287588,-0.033609638793750674,-0.01584775392920862,0.10414637504713653,-0.22311121592372396,0.018793922574066164
366,-0.0017701506097157482,-0.9077243505648116,-0.07069537729045272,0.4229347658389586,0.41867726340129297,0.00470114479420481
367,0.015376996196114323,-0.13257158781755052,-0.06526326236352481,0.11241746318087548,-0.21053553365900854,-0.01238697170192936
368,-0.006311210632850339,0.05700420186842847,-0.17499699905317467,-0.18840943128193247,0.33184537939757375,0.009908111706243835
369,-7.969743161739817e-05,-0.625553942708823,-0.32275906697760637,0.26969807514119926,0.30436075654029504,0.002347133249837134
370,-0.012493704182455434,-0.3144921178498349,-0.193726560810423,0.05176276064517088,0.245603230713973,0.019910526543002197
371,-0.006608660343556116,-0.026840417002536143,-0.3591619535165811,0.2719110608857128,0.30511303638186127,0.008724054959408568
372,-0.00975914471951178,-0.21285910672561614,-0.02488455508099119,0.12901797883070498,-0.21275772556379913,0.016971193502858115
373,-0.015563026444134986,-0.04940556584694922,0.09714637912183643,-0.03425580402216383,-0.24293439523262497,0.01823718099576181
374,0.014098490332731695,-0.017715148431285965,0.31250792984389264,-0.5806046432553151,-0.4102233482643579,-0.01177405036301916
375,-0.006705167545364543,-0.27987871213906645,0.025557461030209283,0.18576511912028482,-0.1041645787770536,0.009829562459008049
376,-7.267677477151846e-05,-0.5776300662134451,-0.034512103468915145,-0.1738896265818434,-0.10334015226633694,0.002961448439726519
377,-0.007796583001241086,-0.333738975235428,-0.07469344569646996,-0.006039000636400338,-0.28989831771482966,0.0105277121642157
378,0.001741891471471524,0.07114291823753716,0.16413078866373187,-0.42766704710469206,-0.3284078689496801,0.003985044478829696
379,-0.002604982766439168,0.00793589244237991,0.0994648645939934,-0.31680266908549826,-0.02789614565838283,0.012787969056231304
380,-0.016755827650648647,-0.07931959286801238,-0.36597513422886446,0.2785217018163554,-0.2832324264303319,0.019201194033709
381,-0.005946742081672007,-0.19401645374397936,-0.4884149773018092,-0.2489823213219705,-0.552262523295328,0.008710845333522411
382,0.003786529692623608,-0.11065808188940962,0.19843069303097582,-0.059058875333778016,0.22144820740893278,-0.0018860368673067568
383,-0.0032821780125834588,-0.20201460035575414,0.23039663933251742,-0.16669389364777806,0.006481620000709509,0.006620883151305498
384,0.0057920007606784285,-0.26421264376611064,0.10748215352329793,0.22496540773450513,-0.34788397478069544,-0.0028211171041466515
385,-0.013649362505494533,-0.041476545351033955,-0.08543495528558681,0.01817223050356087,-0.23390986580027573,0.02135276651286022
386,-0.0022992193941365757,-0.14574489700658244,-0.004565634821368236,0.20165545847277933,-0.19023127285964084,0.006800537902469477
387,0.011625773581521726,-0.24572773616543597,0.16863483633483345,-0.20355819550626716,0.013168859413983214,-0.008137436518622417
388,-0.005101274838363978,0.08775133480545438,0.25507936912353646,-0.16610696454173865,0.08455964151232953,0.007286828196646639
389,0.004204273901068367,-0.27477379784369316,-0.07300381580538456,0.2155040429228794,-0.052243363832097905,-0.0010022677350869345
390,0.018591872612888416,-0.1405283594071427,-0.13477738555844254,-0.1278381204779692,-0.48318555432522214,-0.01599284353215844
391,-0.012487277770672378,0.15474059734990353,-0.3095031851750191,0.2137359547378752,-0.14194777249459337,0.015295412978682362
392,-7.303759968491086e-06,0.08288338492533409,-0.13553911643701166,0.3633379658152679,-0.08632152152720243,0.0042309769293398854
393,0.0002466547043358247,0.13811443485138808,-0.09158646344305638,-0.2803183707787075,0.49110077125227647,0.0016693280812785816
394,-0.024345661781907113,0.009668181047353785,-0.3785924753982036,0.18680049546307376,0.17643834797962155,0.03205960477974004
395,-0.005289501458441426,-0.14706628031685443,0.21167614533998824,-0.250550020247147,-0.2839571121125821,0.009999865444057286
396,-0.002712671934658961,-0.5064482077736554,0.019264925467038507,0.14694099639816727,-0.2939396948591943,0.006217196641333248
397,0.019361348220921393,0.032283981046843935,0.08479702581848969,-0.09067967007027206,-0.44387166119754634,0.0045122050370653595
398,-0.015066432774745508,0.015415608609466558,-0.07371534141797426,-0.029524766287553794,-0.5083211602519859,0.017609423978091218
399,-0.009178678112109151,-0.18499106264441345,-0.4391681414906661,0.12664059592736487,-0.3729981516419371,0.01167540729736047
400,0.011578997028711235,-1.2872472497324,-0.5106848678978587,0.1037713645866768,-0.2415032662908349,-0.008746349111892779
401,-0.009552415284709292,-0.21375244129845328,0.11423408732221307,-0.1522142130626397,-0.027199786738596243,0.012352137685837261
402,-0.016092251456849893,0.09449898634481058,-0.014654913834236005,-0.032304246613813925,-0.4166102326659268,0.018488522079246103
403,-0.001440711140129114,-0.1678185713964021,-0.44081854678598864,0.002349258820425748,-0.48528064585846076,0.004237874768272013
404,0.005966999683560736,0.16496910709436918,0.1949154650682201,0.3553487697825748,-0.22457390157840668,-0.003732137013232568
405,0.00015019517350078893,-0.6361182786789767,-0.13996475954402254,0.2541988297862092,0.24585497925688465,0.003711780042200189
406,0.0010501861246736688,-0.22814443937377193,-0.3174408710701706,-0.3925074794973644,0.11823982613767353,0.005875036799365625
407,-0.011261493714648907,-0.34696299877169057,-0.011173153414653414,-0.456338460655452,-0.044852496667040526,0.019631732744709918
408,0.011295528478394656,-0.07108626676901486,0.0987889279671803,-0.355424356490548,0.2710457322395313,-0.008366355926828873
409,-0.0043704961663382225,0.00466069911525413,-0.2856382678008067,0.09141822964230689,-0.47555594027144643,0.006563747465413689
410,-0.42092189386805856,-0.0038745183226630564,-0.26120947493152097,-0.7344527216386093,-0.6811047565424306,0.2574231264340856
411,-0.0074354613114573365,0.06020216688401503,-0.4587223894176847,-0.24352642353997783,0.3680459959594621,0.010018888494128624
412,0.0011732864709113056,-0.24772505859982308,-0.10020914123521474,-0.29154445800308876,-0.0393557824403879,0.001375941581042207
413,0.009857661843581944,0.11425625197014289,0.14756160936987683,-0.498486604807052,-0.1607957915651595,-0.007863475906519488
414,-0.008512656224739512,0.1248043662157079,0.2780040841740482,0.24784847894444195,-0.8739345555334503,0.011364443937984834
415,-0.8477678016612886,-0.003112336090322687,0.05010961314017437,0.04971875396581138,-0.026206611551208403,0.2952533237828964
416,-0.0017503442871124042,0.04074121645722628,0.18336028111180147,-0.05489642833627589,-0.1134272940167769,0.004356619644831153
417,0.00170811126813053,0.04359074317874889,-0.20964348032729369,0.24949107420532024,0.29997852644327894,0.00027624893584288657
418,0.009001682749796514,0.16289505066875798,0.28739857020175097,-0.19800887232654565,-0.09128840612129446,-0.0066180013146307825
419,-0.9621314079932655,-0.006640537817995451,-0.2098022528922976,0.0011761338043211889,-0.11431602310842792,0.25883209940287144
420,-0.002725835521639852,0.1110812247245323,-0.15500535564252643,-0.10410578414751598,-0.1695545548290519,0.005249304912883963
421,0.004624592300201735,-0.5699939042952007,-0.06647288224511716,0.1788021671878821,-0.09550449258896301,-0.001760450060911171
422,0.015385752585698631,0.11657356288370102,0.044493326658835985,-0.668331800736154,-0.18660901309733913,-0.012672078456850613
423,0.004702315567562287,-0.4554770013379628,-0.0611356573882999,-0.04171561252768613,0.011631641718203023,-0.002603667667572154
424,-0.007143641846866999,-0.3508342910324893,-0.31981840415216334,0.39459604396722237,0.07738145044029449,0.009411880163489513
425,-0.00041801307156663636,-0.11936774000901051,0.27590122213215973,0.28432840441521046,0.16592746644240441,0.003817714324516237
426,0.017555121911896787,0.1444144050979993,-0.3234953132287216,-0.2505671182962455,0.02162138394297447,-0.014992189109082574
427,0.011379553159521771,-0.3080207655441427,0.13059986355324682,-0.14178753550320133,0.3009425557610498,-0.009382413021164757
428,-0.011019938662467199,-0.8142012018635345,-0.17635088986342518,-0.048981001296227566,0.04751857741679549,0.014124056283664687
429,0.002438515012883391,-0.0689325730813789,0.09934363538544211,0.044885744550148654,-0.21792344191246343,-0.00010248917730532412
430,0.013889304725342111,-0.35729201079777645,-0.07529643002577163,-0.000994177551540909,-0.19416156295663406,-0.004014637544721882
431,-0.011741532185855275,-0.1214383137325944,-0.6676573472031816,0.14943731533745652,0.19064362493314368,0.017598432493150903
432,0.008746820588872106,-0.006910502271712526,-0.8159549480750834,-0.09793584482656348,-1.3288944157327232,-0.006635789837269294
433,0.00042481068188626736,-0.13344683740463703,-0.35173432265296845,0.20125705040093345,0.1440083720941921,0.0018893647776971193
434,-0.0019944924023214128,-0.3197217135744008,-0.048143043184693646,-0.443096088294292,-0.10269189682342009,0.005847284562624191
435,0.015265523064196485,-0.06363586522039377,-0.06855395283373583,0.12622716264621492,-0.22199492572717838,-0.011948545865726192
436,0.013406791839642551,-0.055907479587118614,-0.2061091244889589,-0.052445412050611484,-0.5846686017231464,-0.009598147839847661
437,-0.012624289726478777,0.01100983965075042,-0.053182581037022836,-0.5358360357975138,-0.2222170197597028,0.041304705777859274
438,0.003339805064268786,0.17070363196297011,-0.026008458420455682,-0.058964799022779735,-0.0006982438261319834,-0.0008936496916729083
439,-0.0017550184373276156,-0.176308318368806,-0.12234599322125905,0.12120677651237077,-0.04760300495858724,0.004482914065596742
440,0.02646155360348801,-0.40823439874357775,0.10106541361604426,-0.06626822964969692,0.4629009327775695,-0.023779445218910587
441,0.007242487269675912,-0.4654990109097936,-0.5092773730839036,-0.6233811934659406,0.2454826966658613,-0.003783120200176745
442,-0.0027549706440375132,0.1102711143041667,0.18181398201454657,-0.09257034405129116,-0.7872942172526942,0.0059884941972766685
443,0.001414500019860876,0.07277242967885988,0.07902043321168928,0.0032571624993789072,0.27741518388776876,0.0006615644774425164
444,-0.012697191106732508,-0.015538180421138081,-0.26291944979751614,0.07117647343940364,0.1579709159840597,0.016173235459265196
445,-0.0012616960221560891,-0.04701525180436339,-0.29136673926831547,-0.10681595788811543,-0.49669505514035983,0.004786770961986986
446,0.006138915582641902,-0.18680860732464932,0.041821199116418795,-0.11739264547975431,-0.22967640655278562,-0.0023368703266316514
447,0.0023782225156370185,0.03360523417010919,-0.0438446047469393,0.029519025084416783,-0.24333738899633026,0.0017830799753162864
448,0.006814662732741672,-0.11055659453153377,-0.2605306723282147,-0.10705056466170193,-0.8012845918758281,-0.0035392038551610313
449,-0.0010642427917919584,0.013022135396666634,0.18450086984910075,-0.14548786017751683,-0.22217483849994976,0.004688753157474093
450,0.014800292856967712,-0.0880438620083881,-0.04577274412960225,0.19520168093229873,-0.3491868088987481,-0.011408255369152175
451,-0.002366666236573556,-0.2567203010089732,0.1943653971651833,0.06158477273307117,-0.21763948402191607,0.004917157493340528
452,-0.006280096716017258,0.0385418483029506,-0.30428668522708446,-0.3172633838657,-0.07592435509665413,0.008569538077690595
453,0.010789836017682797,-0.02381227803195729,0.19424603261613027,-0.15679954588569128,0.5305574585187656,-0.008544417502578654
454,-0.0023569276778384607,0.1598685494000981,-0.20037476539724736,-0.1117401107243875,-0.7246246009377503,0.005378847425814456
455,0.010017690421737502,-0.10025723419455246,-0.19944007282821707,-0.48821536226010315,0.3383087913655741,-0.005797512883168929
456,0.0040984970436031,0.06871566641613092,0.08961201386890338,-0.5047478198672628,0.052259699541718885,-0.0012375498436771523
457,0.003539216504333753,0.05194188853254511,0.028870654783711647,-0.13693942232302778,0.2720883864993934,-0.0008216442396902494
458,-0.6222282853846122,0.01100845603125955,-0.22141936809205293,-0.2933044201686421,0.20252457172697497,0.24090425824908507
459,-0.009015522438043932,0.035040991321230175,-0.1422139338138042,-0.12212689244837399,-0.19741960714878434,0.012155545673267806
460,-0.4627768397948089,0.003346981837249685,0.07125452059418014,0.11979887065162254,-0.056892597720256066,0.2487284125506163
461,0.005265750675738312,0.014349116908157766,0.005115938386281105,-0.648109177026094,-0.09968849384016876,-0.002033989710771675
462,0.0074710107918991575,-0.003908311487603955,0.026225828931443762,0.1923982421544298,0.351546525827405,-0.0007254375232258099
463,-0.001183395077726801,-1.6086140379336644,-0.1392470067656832,0.3172477794409444,-0.07869475421797989,0.004004389129584161
464,0.020439199936447272,-1.1888768495728286,0.11042110935420013,-0.3645217532666908,-0.44292449938179684,-0.016896135870231227
465,-0.5316707777152272,-0.005672297248406011,-0.5155716122370574,-0.024595684273785834,0.30339778061207856,0.25739805743043964
466,-0.024521508675559023,0.0035855519543491754,0.14515422391164712,-0.0105990192735948,-0.3176928576299126,0.07499442366120275
467,0.0056167737751324776,-0.07785934132815708,0.11691469210608285,0.2898614817246046,-0.20504876778608389,-0.0031252453415696437
468,-0.009723951831828392,0.13991260625749236,-0.11076432906907135,-0.3151052843938228,0.06008136008540582,0.01318234021456883
469,-0.006697891930132038,-0.029013120073310472,-0.5060898430900835,0.013227075975628388,-0.05797029810022891,0.017575977477450034
470,-0.5492887291665225,0.006453573971827442,-0.10139286244471168,-0.03253865467999317,-0.1753955234677687,0.24574553978259647
471,-0.0068878540325214566,-0.02184122709310754,0.011647542672780564,-0.41486589223474835,-0.5771158113811181,0.01097035155595713
472,-0.003118299123147983,-0.25062241726571055,0.14556020402438175,0.21555811455909524,0.1576596324616213,0.006480750214194631
473,0.005159305661664559,-0.14835064340708148,-0.45519034545265313,0.19120749590082564,0.07352524972492619,-0.0022840071285972954
474,-0.005673002774674862,0.08367387287351569,-0.5245426324404144,-0.03798189647956357,0.1270793690716744,0.010695419829632737
475,-0.5585343071647721,0.0007693070519302347,-0.12439740482213812,-0.12369999175627505,0.009134692682304602,0.25297328342936426
476,0.012632567105331782,-0.7786986276612418,0.051351439530612386,0.16991336293750037,-0.43263608014080646,-0.009745947515718036
477,0.009145926681366712,0.07256472781427703,-0.3103078374450217,-0.012446566202743203,-0.07460284567821523,-0.006106442008015256
478,0.008639497219058212,0.10180319794305104,0.056031289092533854,-0.03557935404296769,0.023856156730480693,-0.005767266150113756
479,0.01899510120402148,-0.31764907513229856,0.2579366545731131,-0.26937484670004996,-0.1513319706663023,-0.016197449377437077
480,0.0036892943190052208,0.06881801776956287,0.17242003822532825,0.08311567711538687,-0.06445254352758423,-0.0010860590380298164
481,-0.012253090244062737,-0.20176334641605798,-0.25062965592581016,0.2185097474711014,0.02009938050940796,0.015282690342536626
482,-0.020951301572830427,-0.29381738902572035,0.07907611270515091,-0.5249049773075571,-0.6180919934351414,0.024303818671060434
483,0.013651997333883559,-0.13076636656093987,-0.4358476460955507,-0.08573933768575487,0.30627221613482003,-0.01123507025151157
484,0.00028397914788524936,-0.19170954087713832,-0.3934924419797388,-0.42947558025754873,0.015275758482156898,0.002957300871192092
485,-0.3584962872570765,0.012448835850854545,0.1655605452637523,0.18070262654069447,-0.4269119944331262,0.23967641789191566
486,-0.010615131221859309,-0.10891638319806018,0.11298421866128239,-0.09717862657670889,0.022773397859333855,0.014454570608639552
487,-0.021561996259800265,-0.09506041176948943,-0.2236396666575704,0.051472898685166635,-0.27958912636083744,0.024452627587187817
488,0.01985833495913858,-0.08002632173038882,0.002101552346037705,-0.3565444866778521,-0.4102986132273218,-0.017312122239753806
489,-0.0001597508000004133,-0.02943688220924845,0.08494656549493496,-0.739263702936054,-0.1515927901014779,0.0033828306873921973
490,0.0070428867807417195,-0.011034891634748578,0.00625655604641806,-0.14267975674633263,-0.35068922005268205,-0.004366849129985894
491,0.020529551269661273,-0.1346905251970265,-0.2726514441999047,0.09900185096195507,0.032697859008691876,-0.011714459417846592
492,-0.0037388759913448144,-0.046157640272898925,-0.14890636006145347,-0.1491162943013207,-0.25983507544367607,0.011112618788003783
493,-0.006934917819667152,0.0253194074706955,-0.35541567420973474,0.2406172848665673,0.0014930442780395348,0.024203029095905913
494,-0.4505837533383943,0.0020134705182363044,0.06322645616287015,0.03408067694517636,-0.3691705789366202,0.2510390556265347
495,-1.174108394904365,-0.01595727067272157,-0.2236899152242665,-0.4371029636570696,0.005965410630648704,0.2686874839236505
496,-0.003583805374658522,0.007406797274421173,-0.602669952268957,-0.35031922802390825,0.23117977256915845,0.0058009447185717366
497,0.009954046652938864,0.021451467917265266,-0.23835546928719759,-0.6081023183572706,-0.3280971017496316,0.008177289471654149
498,0.0009446286363066214,0.03300961924065926,0.06968106986892342,0.11336588026862954,-0.4390543618699464,0.004571353831979468
499,0.013083286930437144,-0.03789851679386891,-0.3601404784552866,-0.1250170789823009,0.4679238788281659,-0.009538235050595176
500,0.00403327823570887,-0.26437250324755845,-0.25701392595257355,-0.044459599047241005,0.37049466355093674,-0.0007836261285203363
501,-0.008226768145996877,-0.3865553077859516,0.08071890927488756,0.11493929578057954,-0.5985031465289867,0.010729429502336279
502,-0.0028065614683545625,0.003468100140958441,0.1753380571370513,0.2749849550764205,-0.03607885769137531,0.004830482490562645
503,-0.0009716468074197904,-0.1730440376554847,-0.5726347524229406,-0.08969833352856571,0.007331202739284615,0.0034995886155626066
504,-0.013542506256401077,-0.09925091973586064,0.2349358658663947,-0.24119678272073175,0.3149042415018304,0.015642460572831442
505,-4.213461563118415e-05,0.11513842119485762,0.02780223521651759,-0.25292732461458833,0.07131993258527364,0.0030003440289616263
506,0.01447811766479612,-0.10655203303853733,0.20825849877468905,0.13819809387569848,0.014953726024747038,-0.008416175949750323
507,0.0022169197933767926,-0.04477670165806669,-0.03962779378162734,-0.44065017885338176,0.1460194211090668,0.0016279625971235873
508,-0.021555491720501307,0.18343675154865446,-0.20221101727692714,0.14397911517887763,0.44173817913087166,0.023698744894342417
509,-0.0007003007769896819,0.08214543585720024,-0.40338663636595656,0.3272725732184567,0.24682824090008976,0.004005469741542947
510,0.0005448356152022438,-0.8328976472820369,0.17043962947106484,0.002899711816409356,-0.2361041069669818,0.0038022758611410607
511,0.004064810669042629,-0.02616572064854017,0.11914233537994967,0.15892730664715782,0.29478235438615874,0.13324929199670624
512,-0.014578061160271272,0.1615259464900497,-0.07706011160122911,-0.32045215458285015,0.19039512581786056,0.016992831390765604
513,0.004442478548735362,-0.22395093408735267,-0.5119112603145184,-0.5037602485938241,0.012393083581271114,-0.0004125224754354349
514,-0.008598059446877304,-0.46436299019697996,0.00367569185101313,-0.10446231348088436,0.11043486632560667,0.01285540526321547
515,-0.006667910522328513,0.017072684125598925,0.23775330336398182,-0.3431378321344321,-0.12473025568462476,0.009462105407714807
516,0.012678938489729896,0.06307430360837762,0.17358798985718382,0.18628541945976929,0.1874545883205686,0.008431856804942253
517,-0.008944155610829507,-0.46269140104078504,0.19002527563098626,-0.09412411744070803,-0.33197638141312,0.012642776967578902
518,0.010473635604596243,-0.10411048732400496,0.04793212795424129,-0.2661370336577463,-0.25232660353751557,-0.0008892387870480889
519,-0.010031468649687514,-0.09881569819498404,-0.20936368693942198,0.08497357950817469,0.0215384008535755,0.012631088320733397
520,0.016153347348861757,-0.10414003471826616,0.06097740892584369,0.037863345670291815,0.14317387135666537,-0.009898868415115612
521,-0.01074812911553702,-0.15511172718398136,-0.10038139123591566,-0.16452336389685332,0.11468720858895354,0.013264094904179546
522,0.014066690747803534,-0.12231052258772557,-0.048825812372549626,-0.06098073816762811,-0.13670927684654957,-0.01068133369900006
523,-0.0024999116047231817,-0.17285086080927825,-0.601844501044174,-0.21395192364668392,0.07398572256882507,0.008353023833947919
524,-0.0011925212236995053,0.14185822010195182,0.09086262721030702,0.072228377497709,0.0001355283309693589,0.0039023825153142754
525,-0.02891338134715815,-0.34183690737074207,0.01708471526567812,-0.5522034028548141,-0.15678391359954183,0.2674939613041986
526,-0.0025507669599024174,-0.0977179428354511,0.10854782644183036,-0.28212156383431497,-0.1673436348302248,0.005267040937956336
527,0.002682535569817235,-0.17252485940238083,0.14490880071511925,-0.14585670901682796,-0.10376250837116432,0.0004124017599460785
528,-0.0010626442740053754,0.004603208891530208,-0.1946378756260913,-0.31058035524428296,0.1654672022281216,0.017159229653607146
529,-0.005593204937165308,0.025357326627005183,-0.329436050291919,-0.3522873132842398,-0.4604058376132265,0.009041238711946425
530,0.011596556393799196,-0.15387858427633683,-0.33254427023494915,0.19508339059982926,0.14531041340738937,-0.00904209377348252
531,0.0030046171503075314,-0.003768313892444586,0.0456939572461027,-0.14268488777776633,-0.41535648213272924,-0.00045087894528987815
532,0.005679945174650758,-0.06714868319798928,0.18893405961134058,-0.08400732383085302,-0.15911968082271719,0.0002965063633277168
533,-0.02104790783250232,-0.13184307661680328,0.21142151782853347,-0.002233914228877143,-0.6148141373367624,0.02397138891684008
534,0.0038577099667733705,-0.3301547844245063,-0.44739851565332167,-0.2752961578446626,-0.04985422873928588,0.0003903790550562917
535,-0.00369724927036974,-0.05463780279366692,0.21293460455892654,-0.19780222042741222,-0.10217743713355473,0.006849778811511897
536,-0.0053308125764799374,-0.09214892053498758,-0.2542529942961973,-0.06804093941750727,0.24979811766211907,0.010377179503238767
537,-0.016922228412524665,-0.8384806553056571,0.17290868843852958,-0.2707308330959239,-0.164437540288783,0.020420480788727217
538,0.009515328018168123,-0.2951237856707827,-0.33216334660591657,-0.18054095090385563,0.019154137931183313,-0.006536832805570702
539,-0.0034900079055000255,0.03764009013183223,-0.12207852107513129,-0.07812889744489276,0.18216136401729893,0.006364922761566959
540,-0.01524227321672822,-0.2054136910398746,0.018602449155489476,-0.16113836520656602,0.14181408631872244,0.01988967083435109
541,0.001411412751237684,-0.0017284369126974175,0.25132390405120253,0.15950259779499254,0.18563451911745,0.0012398512157924416
542,-0.004777630656895515,0.06283195064436498,0.119747345999899,-0.5727012696098228,-0.040188012874909584,0.009035972084206515
543,5.091482486729859e-05,-0.7738173929094537,0.14040020431150457,0.3479327040955851,-0.1911455484600175,0.0019725908227384934
544,-0.021525417093454013,-0.04454672159358164,-0.6587817269851384,0.08741635780592599,0.20251173302965692,0.02438821115109422
545,0.012367209654106315,-0.14015468285684274,0.029424232574445264,0.03463039334689322,0.511294198511426,-0.01000695267154788
546,-0.893739554877969,-0.003153346700488835,0.174512757592461,-0.1233817706002403,-0.3904555806792353,0.2562785196890964
547,-0.009256867982600281,0.030403882074142907,-0.17039765655659816,0.19009967248114779,-0.04200134186863552,0.010964214975486357
548,0.0023952016911796825,-0.43739204681883476,0.1566937920539372,-0.09424976460724788,-0.6448971910342298,0.0009052557224029442
549,-0.018331035119005246,-0.08365667096553164,0.23111242384458108,-0.33058666703395273,-0.2083286748349427,0.020781589273526878
550,0.0021304447324674847,0.006587040784125309,0.05365475028590816,0.2153821273107871,-0.25369720069087415,0.00025739462493584145
551,0.0012276841872549404,0.015213742876286185,0.03301855570212964,-0.9056768936760259,-0.47555803514876915,0.00204281466206794
552,-0.0018920870104457421,0.15587300438932894,-0.4166097423547441,0.22340915500318048,0.0534179337529373,0.004084012080787215
553,0.011008995252833609,-0.18523975166401063,0.0412812891468578,-0.1939938207804097,0.08481333592665352,-0.006999002071257746
554,0.00224525415960386,-0.04430377210272851,0.02860757652782664,-0.9612772203462163,0.08669684322788546,0.014352093152670387
555,-0.009025545799278167,-0.005605703434989118,0.09595973541545999,0.07587434442807134,-0.5024409425697222,0.01228026561941424
556,0.014598761367596635,0.036027348928027836,-0.35587597737988214,0.003390185578935334,-0.9941560948200026,-0.012104202018986506
557,0.004876492430561985,-0.04287740127459505,-0.1033366319495338,0.2690043582427364,0.09259971954269092,-0.002501069894906141
558,0.01690534740005667,0.0028368896382097164,-0.17257234656525217,0.1329264619863182,0.2544777064465056,-0.014490602584158114
559,0.006706214852784997,-1.058548469299274,0.1188545798782471,0.21930911347828186,-0.21241048511646324,-0.0034466127502182646
560,0.006878186410929965,-0.2449725346729691,0.2223193391135555,-0.10004000026640408,0.27725884088651676,-0.004077010381132641
561,-0.0002465158226810926,-0.5231022762500699,-0.4418652962361785,-0.3760884179157408,0.18586384369359377,0.004110902926905146
562,-0.005775223431926935,-0.08426965568210576,-0.04199441755340377,-0.372489853017548,-0.8999011905267231,0.009413862737237105
563,0.002256102295468798,-0.015933233531696733,0.15936197424702747,-0.07124496338707431,0.27487353278839,0.0019236616871708976
564,0.004103896846702204,-0.0022324680580702028,0.2943154432505155,-0.11131721999376976,0.278396390676965,0.0002749540608228926
565,0.003690406714486949,-0.10282049756985012,0.21868453529774357,-0.06077659504150412,-0.1369899872673072,-0.0012966122841493416
566,0.00034274442640169767,-0.5089462208541067,0.1255249083539578,-0.06967172681145478,0.2510731141216007,0.003285444071287566
567,-0.0037354222627155043,0.004799151437828275,-0.2584266907098849,0.2121357713459483,-0.10599307306425035,0.006193654784162027
568,-0.01644080172740492,-0.021023859747875018,-0.5056094600359183,0.012599646014326837,0.025891863102258328,0.026945528997422297
569,0.013773702804974697,-0.005049873491039358,0.09053883194147538,0.2811091839952421,-0.26804352476234516,0.010047325074991386
570,0.0066941274074057144,-0.25712603995531025,0.24718814566174796,-0.15020140082451616,-0.5630477246980607,-0.0034659349770789047
571,-0.002295497955042358,-0.5501465112911688,-0.4224254583182905,-0.1854286468922879,0.1657302977552823,0.005443944454386474
572,-0.0031743123408792817,-0.49296003971397223,-0.103868229572949,-0.17892593172405533,-0.06668171146758303,0.006478057248190453
573,0.008423329886208197,0.10210474188651364,-0.7339415325356164,-0.21673157231146933,-0.030945947506464205,-0.004664379232664396
574,-0.016820277493624802,0.018004842992882852,0.09299630215975552,0.05275168858543505,0.40725195430227434,0.03184987043357396
575,-0.01868979729478526,0.13657833710507306,-0.05330541293234309,-0.09019555101102616,-0.5248244129895588,0.02120815056325173
576,-0.0016628042391523268,0.0701483024399947,0.24346797804149278,0.2927690748760582,-0.027334388628738937,0.003151840184417961
577,-0.00983946829066007,0.07626014094523237,-0.6987656457477536,0.2996512856016895,-0.1935622444538741,0.016524605038915615
578,-0.006422997234198924,-0.17959781577815526,0.2482226126171201,-0.2692653814011978,0.09798022502811227,0.008545665217133501
579,-0.015030950020438194,-0.03040922339183516,-0.5093893189078917,0.1614510304340102,-0.4684891787403197,0.019841818116015566
580,-0.005040067258121561,0.05077803862051811,0.040964479634389206,-0.29994702653878985,-0.08735821357361762,0.007462417445075334
581,0.0024924429276937943,0.0823800835426961,-0.2990629836550358,0.07089321149060351,-0.3526417476177381,0.0013073248763485026
582,-0.008591285879364974,0.0444753764374477,-0.033089041424743226,0.22883051660739728,0.5135500893852379,0.014660489902944756
583,0.0036285593220997114,-0.3213204043851449,0.2145235618342577,-0.3767505190876912,0.13491918335515063,-0.0003452246379896678
584,-0.007444208163662314,0.08761880882455164,-0.10045589029983526,0.12370147683931404,-0.7624513088099464,0.01096580165733303
585,-0.007766429176207068,0.034894041563293676,-0.2789929576883161,-0.1451261453486365,0.03783109504601595,0.010134675921177404
586,-0.007761822106375216,-0.16598932900322172,0.11075455666497536,-0.11555870269914587,-0.5619854728558923,0.011824459403702713
587,-0.008233683523151236,-0.05034618074662778,-0.17404719004356856,-0.034490316351755035,0.3365379278718036,0.010515719313522095
588,-0.6489284066392833,-0.022463444506442887,-0.034892095611265384,0.014438962358006235,-0.027478350124141848,0.2890290505502966
589,0.00043348336613591165,0.06878425571717794,0.31617582559312785,-0.35714384976960684,-0.14364451141695245,0.0020191421673658623
590,0.01814427083996395,-0.057713596931962985,-0.0007797113815257717,-0.22196574648902612,-0.4130716559960563,-0.014951830711964249
591,0.008557873090371926,-0.3468934313353753,-0.03833691627544494,0.13849035050819813,0.2632843911890018,-0.004095455688072616
592,0.005557314394207369,0.04664526700358329,0.029796142018178817,0.4252166052508366,0.09193026961363082,0.0071131829414647655
593,-0.0010630077823452488,-0.3212062249212767,-0.9424842561438298,-0.23974502752095997,0.29505672445647846,0.00537900941079497
594,-0.01819243506684476,-0.08247926545568474,0.05087801699243888,-0.08491415889020215,-0.8819064877168525,0.025769348867401096
595,-0.002813227864519652,-0.3758162733335112,0.24327451431465852,-0.7923420782976506,0.12254131411217978,0.005452259299734033
596,0.010934650955936931,0.004472388571522434,-0.19580774016323083,0.013525567263492189,0.1906227049818492,0.016083236944702914
597,0.01450418455215452,-0.06701745806616555,-0.6405046073609639,-0.3621975378254234,-0.0401456735821252,-0.011869271918881168
598,-0.024423267586839215,-0.05583851863977851,-0.35964932393850896,-0.03030059358721604,-0.09266805695719954,0.031450291917998946
599,-0.007639210740006175,0.06335177052916885,-0.45391237714274124,-0.05750621275319878,0.2314167850598995,0.010462295974197696
600,-0.0334854508073581,-0.2003242717661604,-0.6790290610278645,-0.48326877731959056,-0.23247322639023774,0.03692794565260756
601,0.013353332107722826,0.022261143230887792,-0.33244569567354665,-0.36885324292089233,-0.31758637442018045,0.0097109021680144
602,-0.010953774344177991,-0.4271802287575978,0.20084147911568606,-0.5343153263159878,-0.1088046897705282,0.01391759622458976
603,-0.00899417539732128,-0.014330733865212553,0.1703642379121163,-0.004715070369876895,-0.01166357492342282,0.027467045053471886
604,0.001391657458274631,0.026399647266634685,0.10635580899452457,-0.08726712490545208,-0.20116662244651984,0.006096150571129511
605,-0.006992456203409936,-0.27292815761306194,0.14811350047554972,0.11670054999084484,0.36949698961586996,0.008794003671425708
606,-0.008618636205044328,-0.014460216599692544,0.0799812860943584,-0.3179998892558387,-0.21989827499423203,0.09343359533254261
607,0.01742903333394641,-0.11763567428566568,-0.23390937926334032,0.05664934848647035,0.2797103406847916,-0.015300772875467192
608,0.005788924843867838,-0.185898030366058,0.08529743561873415,-0.1541245401479028,-0.2982119323953183,-0.0030375465825298307
609,0.004016958944717652,0.007809776025488935,0.1961290743630525,-0.14241056909413488,-0.35734025214130904,0.015077139795112089
610,0.004415299838808728,0.008812075122311414,0.1459747915021149,-0.19810424908534616,-0.21209282943667773,-0.0017152065610292993
611,0.0017132936903982987,-0.03635722355182924,0.09402630806710766,-0.12092651768739932,-0.044758022401012454,0.0008388738312349233
612,-0.0006236205814982299,0.07690960861435403,-0.4675107511885427,-0.013541911984348731,0.3041782837358509,0.0026698945516578534
613,0.0020193393008081095,0.09783043884705167,0.2987570424503382,-0.15941461622710448,-0.30435008180660267,0.0010411631366225266
614,0.01078960927152428,-0.4414073166880967,-0.5543727148262528,0.17560722572751586,0.07129728562817567,-0.008004552178065569
615,0.016422074998730274,-0.062196565471884235,0.009799892018059086,-0.19525168454996622,0.09023718964177757,-0.013772677766234847
616,-0.008218807508594161,0.06076696307212237,0.29332957873756893,0.21943302048332036,0.06976731072174885,0.01052374114595441
617,-0.005715493314461306,-0.08683504761976146,-0.24262755336137604,0.17027174241891418,-0.6824305068318521,0.01110495551896347
618,0.0019956580323241546,-0.6517264496709425,-0.368447214188128,0.12105815968934097,-0.0027465338074405543,0.0013940196337671295
619,-0.007919662950153561,-0.14351803107161332,-0.21919185797654428,-0.8481307345801508,-0.019852485654416385,0.011086944243429025
620,-0.014852014659696211,-0.026706252184104717,-0.013105711053266744,0.09594739168414701,0.19618393539981405,0.0795677146151911
621,-0.0017655017820134011,0.042007943102787326,0.09644818654631393,0.21323399614527405,0.3571198489277705,0.00911890745618075
622,0.01056990337515118,-0.9773025734838766,-0.3313482108648814,-0.4363357515083013,0.07562429446445246,-0.007095512710428193
623,-0.007334914810033677,-0.24921793960105842,0.11245213300067647,0.32240416581220455,0.08502946542840706,0.010619451202094024
624,0.005491766807982357,0.12787917106191016,-0.0050858193924208095,-0.30123248734999525,0.3917703518700516,-0.002686483536508058
625,0.013567732638891217,0.07386419508492925,0.020022183616532963,0.35654994038761867,-0.1279392126409029,-0.010838745537789327
626,-0.0025848120905618277,-0.4554590923277827,-0.4067586628758946,0.11056537739506139,-0.451220539549142,0.006022655516139093
627,0.0010113691453466078,-0.01003186625414132,-0.0028059451172629535,0.04908981447103311,-0.044366720815426,0.0011726018062377989
628,-0.008346148836478884,-0.8276757787334807,-0.15286022252926662,0.09076192690232643,-0.8712938620986019,0.013282693514668972
629,-0.0027803823342256173,0.0011312140495967071,0.08693377310816508,0.05101523314529888,-0.007809606362679328,0.005415189571698829
630,0.0028692902734595016,-0.06723123303459766,0.08453494793182803,0.40060788205470366,0.013542012896005873,0.003458018757754871
631,0.001225072235218283,-0.4654817440477465,-0.029178354686443808,0.22025800816647045,-0.4643311247179603,0.0023359363981229763
632,0.009849258394902138,0.08925734680716901,0.043608468005873924,-0.10290180321390618,-0.4245012320377647,-0.006375466879483065
633,0.02019389035503716,-0.539480452492685,-0.2707805124138939,-0.28729126866105953,-0.17806031854160304,-0.017166463739399115
634,-0.002402223143597393,-0.35701034075663013,-0.2712841152061086,-0.0017348772985539274,-0.09991190222679147,0.005556405912864284
635,-0.009997893256198154,-0.3860481455267979,-0.07147575216270391,-0.6320322567228422,0.03292108684211331,0.014031950815030905
636,0.007709719106121948,-0.36996712892497857,0.22643003593341715,0.5484909620887358,-0.7491189691746258,-0.004881167937150167
637,0.0021923687624461063,-0.6484384234774382,-0.00799912201568953,-0.2825038584440238,0.0022802724721582845,0.00041793971349579807
638,0.002136791825003259,-0.008703409192186373,-0.4226168781607065,-0.10530063749973068,0.13724734799928362,0.0005513787768051771
639,-0.009697660893179694,-0.017047828813746557,-0.1373331759229216,-0.09967501030542919,-0.34325345365121024,0.01267300412627028
640,0.014552930124982266,0.0899851866354967,-0.21572779221478638,-0.508434879939353,-0.018977273917654996,-0.012176936334710262
641,-0.007935083256092046,0.033794318232271414,-0.28131250076718606,-0.16508410920550426,0.33148183027026257,0.015059719330603185
642,-0.012571963053188973,0.08136199709175129,0.019914447944165192,-0.2979169891836616,0.08289695235427597,0.015481360121500075
643,0.006315927652811748,-0.04232977936454452,0.22481588923842444,-0.11303951538184143,-0.19219983869837437,0.0032157357793958
644,0.005084768865422751,-0.08946578465550958,0.22561138671596004,0.08049001903908876,0.26665130224978406,-0.0012533317271250781
645,-0.011599068713425198,0.15372856146870484,0.18968095238747962,-0.26541427827801817,-0.30623926798391554,0.014362183439477302
646,0.0011886753475112144,0.17304447247101784,-0.1979858387656459,0.0788393486993389,-0.031392961721503576,0.0015207530189480167
647,0.0015888697337353985,-0.1701481872403139,-0.05901111275324156,-0.3526814821967126,-0.036503081602901805,0.0016679155874173375
648,-0.0031410464916156178,-0.2755709205362496,6.215547931864851e-05,-0.27775556689734104,-0.14925141459780528,0.04556439103140019
649,-0.002958107162155943,-0.2763489662381494,0.028068182232618533,0.005555069208317942,0.3725685169641064,0.005602803170693915
650,-0.009812095294646772,-0.11611404084472099,-0.015477790630610222,-0.23139860544500945,-0.35822863614888056,0.013225199961274484
651,-0.031198584359656834,-0.4085588801797139,-0.042705555988880484,0.10576559444514516,-0.03206486654463647,0.03497276823761731
652,-0.004087791009520392,-0.2246322618450478,0.049463484885411746,0.020712628456335924,0.20050433107472176,0.007877662540944765
653,-0.004123229428283248,-0.09082008845412637,0.20391909797057872,-0.25734365901197875,0.043386312637963054,0.00679461199914731
654,0.010002394459530883,0.051017959900803045,-0.24864105663886849,0.21448170359084873,-0.18662641823724557,-0.006133878697408909
655,-0.008408656518571034,-0.22959588628186567,0.293905606316167,0.02081324910789184,-0.21112997823866453,0.011366031983945504
656,0.008734379825334315,-0.4322143939490022,-0.331801454087725,0.13196301661315613,-0.2570442535991285,-0.0058023914015819175
657,-0.006066558429520974,-0.24514919819892322,-0.3060711606352514,-0.3001122070834447,0.171041608997883,0.008650615548263704
658,-1.2558544155382272,0.0010229628124985846,-0.1437161899267259,-0.30056684291116026,0.1211607439915196,0.2600545964381566
659,-0.011802415104522401,-0.2179629613146855,-0.17372447439026284,0.18230730475288504,-0.6599628423644375,0.014571175633835264
660,5.0896067625982866e-05,-0.13971128834356272,-0.23887148581613793,0.16032366123474617,-0.031427725471007584,0.0026469323392317163
661,-0.02576474246578231,0.03530320288209465,-0.11261680723867118,-0.05417109944724213,0.07092286792907271,0.02865567957358526
662,-0.01297745653575677,-0.0043866024817127425,0.3350464367968189,0.3879532207734605,-0.12598221807927348,0.015428448255472904
663,-0.003738714152314082,-0.5403262304063321,0.17679062498801223,-0.16950248251775624,0.16495771391360692,0.006809250100193276
664,-0.02478471648419689,-0.02784798419811141,-0.09096222449763153,-0.24656464607852327,0.47036658167001877,0.02679522027631938
665,0.018321604809294234,-0.5702198541069878,-0.2644059535191112,-0.09059211089689062,-0.3909707592119762,-0.015084664272473673
666,-0.000818445796681555,0.0380995072519148,-0.08823189677017113,-0.2748812710389784,-0.5455248325610993,0.0037655033294498935
667,-0.0028004440736228986,-0.042814834866246265,-0.19120025942980606,-0.307114128156607,0.1789006833623954,0.005688064403183489
668,-0.00977584750719529,-0.1784896240608388,0.10621482694565643,0.14314040163699582,0.20842997075939323,0.012074267597675862
669,0.0182654966381548,0.019554481875378116,-0.16563880008827808,0.17275134583206386,0.1300234288912343,-0.01589171702571439
670,-0.014363003359067816,-0.03521385928788545,-0.3453240906076075,-0.12515242957522812,0.09182084796963202,0.017420564150391327
671,0.012061332471441144,-0.45341183530582985,0.13149547228858538,0.10474804575433744,-0.42345511850279816,-0.008487120425359535
672,-1.0039768268188607,-0.006400789881669033,0.06762147460724821,0.004955790940183613,-0.195115955059656,0.25895196779445967
673,-0.0038694516212227636,-0.2433314709912635,0.19019249830251816,-0.6232085726616005,-0.06540585869977072,0.007274882574532239
674,0.014563541582319539,0.004684678546242882,-0.2107138870333623,-0.2371854338414363,-0.2414506069225007,0.11260936883484192
675,0.0022672065728450708,0.015748690209782534,-0.22410508863894024,0.30322750302093293,0.29043454964317317,-0.0002940225051508605
676,-0.008081455581647079,0.12547524683384348,-0.3856072069497679,0.012125130252216787,0.14387340250706793,0.010981438357432854
677,-0.014995607991989846,0.10372951949639087,0.22566991184384178,0.29676890114322796,0.3033395533219687,0.016885493936919373
678,0.00563069238344549,-0.5908367256019623,-0.9190396785469244,-0.08835816951424696,0.1619171558623126,-0.0023689194249080173
679,0.01105635420666462,-0.6537431224508717,-0.49124836779545283,-0.4816304298247034,-0.2953012852934016,-0.007736895004570942
680,0.013539690309152475,-0.46546077357735016,-0.06863833258251945,-0.0915830660609972,-0.18884636190971735,-0.010248287017834081
681,-0.5504978373986185,-0.0005025481759853845,-0.08573182846098015,0.282748655937771,0.098216404355566,0.25259416367869314
682,0.008859385852846069,-0.053319601385237725,-0.32156262391741774,-0.5216990817615571,0.01903718231776491,-0.005027333809959418
683,-0.008788119784120307,0.021960324807141718,0.04595723548871433,-0.1435035071087583,0.41226301428973466,0.10250978539558128
684,0.015987374751802008,0.0746138911664771,0.26456574408675315,-1.010587771838449,-0.1507899590756598,-0.00907123248288317
685,0.004550712293237336,-0.2470709673262047,0.3148667441442097,0.3744099499050557,-0.9782983999489822,-0.00234849238683164
686,-0.020034633332441043,0.03749673240325624,0.08518457517923717,-0.39333064931976613,0.05653321959962099,0.023212955169201452
687,-0.010697700995499382,0.04966200192666215,0.037204270620356916,0.023248463294324784,-0.08375665200487573,0.02152695081803995
688,-0.01933014481325146,-0.25639601829544006,-0.3221317514129626,-0.2044738037529259,-0.2683072474126434,0.022537486128185083
689,-0.0005596794885213141,0.005146054193038374,-0.7402431367942304,-0.126622417956805,-0.6428023697769534,0.004630334745418077
690,0.006788174938751279,-0.053176357609722724,-0.526764483255694,-0.21422793674025012,-0.0066315482782076385,-0.004396922332193936
691,0.011579858254121556,-0.09594316957806592,-0.4641444798293556,-0.22854544174768612,0.31405629452805817,-0.00841567758990859
692,-0.44691712270239126,-0.009255458095898672,0.06277704498184067,-0.036122089747133324,-0.8480854373916037,0.2616629277697605
693,0.008965369662270906,-0.2660744613829846,-0.6244313681140308,-0.014386127250423875,-0.09324959966629068,-0.005995729123951424
694,0.009705051091225325,0.02523377066604826,0.3861831156373283,0.04214131063953075,0.09222819057972959,-0.007185582405000241
695,-0.001205163205574955,-0.1434594162006314,-0.02826753687794742,-0.1351383976050618,-0.1797514073390964,0.00429377546831256
696,-0.01219740991459406,-0.042474933559978445,0.07591025329596313,0.16865212617793868,0.21409477833169133,0.015098205707403395
697,-0.009260612301814186,-0.22190301374395194,-0.15553363757712474,0.14273780056218677,0.19498563893221155,0.012105065447746529
698,-0.009207306716263353,-0.23950533441656086,-0.0027950176104671876,-0.5447863361315689,-0.000887436427336824,0.012294800106434741
699,0.013862195328548932,0.1440738858058075,0.2064970873423414,-0.3238298080900447,0.024041593347605472,-0.0115330274296055
700,-0.0007147627360570841,-0.4092209998201599,-0.20247417470678475,0.06064064479078024,0.2503778652067826,0.003742908753390657
701,-0.0019632582152644407,-0.028259163200151538,0.03896433646614417,0.2237377987562038,0.11874062561560261,0.007221725637613963
702,-0.001863714917974213,0.02947370949195416,-0.036004554759906826,-1.014437976101679,-0.15623158637820095,0.005823340588227802
703,-0.008423577349635725,0.0447794825761888,-0.1536475067941369,-0.691825598391032,0.4288781998282213,0.011292603040147878
704,-0.008339738084507942,-0.23781828633750746,0.05290387867784807,0.11854213376347295,0.18076771691850096,0.01101142087866756
705,0.007766166618263126,-0.19329079593238963,-0.3454986076872218,0.2283571944056384,0.26323908284465536,-0.005328686319900953
706,0.0037033096080572037,0.004556260087436592,0.08236497190219161,0.013157012748468089,-0.46935973805719533,-0.0012574663767492894
707,0.005315679514412475,0.11494495537350702,0.14198858528244218,0.102414857521746,-0.605702724559567,-0.002921468580347937
708,0.0008295957571080592,-0.36504207127848326,-0.09067748137816706,0.29707619203474456,-0.0891078345791309,0.002383569920764421
709,-0.008438026591280012,-0.15224813551598337,0.2579584146879492,0.2973596130937478,-0.015910237947636324,0.012177079217073151
710,-0.6320967347829562,0.010873891156716775,0.009984229991595317,-0.1579573519194352,0.007619110960151776,0.24424281025172012
711,-0.0012263180456586475,0.04124914383921441,-0.06394549089556839,-0.02831170258871918,-0.11792446785023447,0.009200963868268082
712,0.0128356071987481,-0.1608864706004972,0.07284635150531127,-0.9085948198587913,0.45454299989003377,-0.010447535575460097
713,-0.7299889782455384,0.0029394360837449174,-0.28469285307255376,0.1286873752802622,0.21071732822010902,0.24961970395834915
714,0.0116391494347583,-0.046763730905595824,0.35365963612419826,-0.21060931500138028,-0.19861868095898944,-0.008814076769908752
715,0.000602707483943421,-0.1930012989032791,-0.5934495776356495,-0.452226492113625,-0.2766339327128518,0.0032618166505513726
716,0.003816562827780867,-0.15316503957142746,0.14283493063706731,-0.003965756309186996,0.1238629445963505,-0.0012314349256281275
717,0.00893650595659623,0.03971558587720492,-0.4634754642732494,-0.3837410446962785,-0.4505048853545588,-0.005791441016352837
718,-0.013743305888555657,0.01906507946956426,0.10761999140550305,0.29998635985200195,0.21327442133026014,0.01555373038159596
719,0.00024127510729998747,-0.04845112681320063,0.008549682904679945,0.06470763724311474,-0.22615825847871945,0.002089277511736691
720,-0.004522078245596917,-0.013115189579981035,-0.18188842137376277,-0.17890607553717813,-0.09090618358627964,0.00865078308061311
721,0.015472157253583863,-0.5743303767954775,-0.05878827547193288,0.005488242953042288,-0.5274694210486182,-0.00786755034328162
722,0.00766659713021367,-0.20775339964631523,-0.334411922912516,0.005297805282719281,-0.4598684122954076,-0.0034933828188170083
723,0.006250086614875139,-0.4754188321848551,-0.09737783268042716,-0.06379026736658283,0.11429808636337074,-0.003167187574109084
724,-0.010569933428016265,-0.08511067815310802,-0.7931679932722397,0.051292504325234856,0.31073855213768853,0.01284233978778957
725,2.068394633569781e-05,-0.74994949324936,0.05701862374615929,-0.06777174570856742,-0.32574249845125575,0.00393375614653396
726,0.004770085580926731,0.0026735296246731544,-0.1357366381487255,0.2755106503426593,0.18011402028626505,-0.002886814275766119
727,-0.007578576364150491,0.03719986688890364,0.05193279902010073,-0.107783846563268,-0.1325973665636349,0.010293321362807183
728,-0.014463573240762972,-0.010445792149657795,0.21577713573422486,0.11297745417951044,0.16300233607451464,0.017073724209907232
729,-0.0032530473413923122,0.08783180589007678,-0.24014979098881478,0.15664093223161923,-0.0055935545905793915,0.005761294914478822
730,-0.0074952971864225,0.1156450973111588,0.19011669933688657,-0.22004620841772254,0.10036256672665667,0.010003177076630163
731,-0.019970593290843164,0.1084893517013541,-0.5298775083839615,0.20276266801733334,-0.5223549427168908,0.023190350354586737
732,-0.004495223417501082,-0.02351566828254581,-0.06331205369381238,0.07529932877757223,-0.3031514251421019,0.007615833800558539
733,-0.0039298721556736416,-0.108172478088287,-0.032066107688561774,0.2232434430195589,-0.036486005566650936,0.009492445967830644
734,-0.00460931237767781,-0.1404059417755793,-0.08665919417001394,-0.37028670273854836,0.012732143271605878,0.007592727568913324
735,-0.005023666630970536,0.07878223138426788,-0.03233850891284629,0.13837021025783236,0.1679579234416203,0.007435460842167777
736,0.0012039204329283848,-0.2612124193638225,-0.7377157860227592,-0.0056032856215842974,-0.1307619458414151,0.0016859056103805414
737,0.002537636646074759,0.050550426860454745,0.12026340287407378,0.2945726904796504,-0.08206600013394313,0.0010175961308523257
738,0.008751247563548281,-0.024224889580123476,0.013558307975191086,-0.15477528217403766,0.055919337078836784,-0.005012671588707599
739,-0.004631684149576931,-0.054671270189045496,-0.1252150054481307,0.1388231053140997,0.19405632822733404,0.0072703785845194945
740,-0.00712793729624861,0.01106999230650152,-0.0452729593974559,0.01568493472275312,0.18339021682110435,0.009894592438531618
741,0.011603150489407188,-0.011541296159816805,-0.4503743869687235,0.07611899168579883,0.07648164073969199,0.00874295731972179
742,0.003472491448574644,-0.11202308808458616,-0.7242279742682378,0.31292941657769224,0.31567102830923377,-0.000494563231565553
743,-0.0033307646576351546,-0.009502892144052644,0.10316146839839546,-0.07505982393241467,0.2929419341306406,0.21730923224210974
744,0.028269837330724412,0.10230625889584255,-0.07924900412797609,0.21949630694101696,0.23585388156843146,-0.025387807533062006
745,-0.0004949722215857877,0.14785291523796762,-0.07065667396745617,0.3751263438981063,-0.24174298827632704,0.002706044077914339
746,-0.0006750397672984354,-0.07950084001361934,-0.24691786638632157,-0.02155911232426888,-0.5600628828087784,0.0029683797357607546
747,-0.0032410425977513757,-0.10931455047476635,0.008446114978333474,-0.011842236359324632,-0.5643185650976991,0.006551268309628176
748,0.011610700416717856,-0.27668010470364723,0.31866822384671556,0.23665556873663163,0.4396900454969953,-0.00962394097572378
749,0.0170650623148334,0.04557910833685186,-0.1155757869890417,-0.0735364603333728,0.23687837614212642,-0.01005632754080707
750,-0.013962062302502853,-0.007165721036774042,-0.00987663607485434,-0.048848897878348785,-0.058778620109738194,0.018124929852335846
751,-0.012735130607101075,0.141975135497162,0.04562190305522229,-0.17954086887472848,-0.18679541452115356,0.01523292843788986
752,-0.001253199932735538,0.04569301323077091,0.06047140510409843,0.20999895893957,-0.2008371992795845,0.009304671533985674
753,0.011686526442678424,0.14845485749198895,-0.508523265162815,0.07073642991232815,-0.09769881529050567,-0.009832407019614037
754,-0.006400017872180586,-0.06917645203196732,-0.008450673547151788,-0.2228917292899168,-0.019274435433161208,0.008877548707881214
755,-0.007206622607928037,-0.018948465808752757,0.19544668813367827,0.12152521851176162,0.04902227792304675,0.013254552484618761
756,0.0164609864878158,-0.6422382398829865,-0.2510480027276315,0.1838044972291386,-0.11201871624811768,-0.013421387246434824
757,0.006447246681554164,-0.05511520732502362,-0.011273040449008287,-0.19167012896541283,0.4115511006575556,-0.004386555282084555
758,0.008322388894319577,-0.786809914219435,0.3025134752251585,-0.3254827464627634,0.00933246088027223,-0.00597056559174107
759,-0.7373612790898836,-0.013838191629727548,-0.5092839896430511,-0.12038411066007781,0.15090404292957404,0.26695390366751254
760,0.005320323707840524,-0.27619598152033187,0.08761230420427824,0.023446163681203336,-0.3609700279808034,-0.0019923710690378355
761,-0.006857300876094707,0.18065630968164081,0.1658854790392651,0.11606739215736106,0.12056238771783079,0.008881165527147824
762,-0.0007740847417159191,0.09785204064347541,0.3944980546263481,-0.19906565543914392,-0.09996913947273628,0.0038150947399062714
763,0.01818745975429814,0.19917448689362427,0.17758588258808983,-0.2628207079815611,-0.40278178465196335,-0.014242505948064171
764,-0.019694809958596404,-0.03625050042100342,-0.37207900252627885,-0.05049851836588426,-0.19367162181951691,0.022382893008798966
765,0.0057356487985500415,-0.3959268203698073,0.18852339406614627,-0.3306493336627638,-0.35837670823895923,-0.003092078287418917
766,-0.002215180107718484,0.055485531935213994,-0.03703710753564876,0.11532521383051653,-0.7974414882163011,0.007585116952241151
767,0.012031051680013505,-0.4363276432437134,0.11126864617325039,-0.05701581532133315,0.2909825798247009,-0.008815313552477892
768,0.005775430736693066,-0.04393811207795195,0.053380334265348495,0.19584792254160643,-0.17329793522634812,-0.0032594672814098887
769,0.009899453084233345,-0.05548782918999451,-0.12361585052516777,0.21257458288819808,-0.259627374534219,-0.004956492835539029
770,-0.00303148254488661,-0.44385183348607526,-0.9495414119804249,0.26755356285969845,-0.13114724234686548,0.005998862989903682
771,0.01132590554739732,0.11477018669198691,0.004335404577066382,-0.5624015322897806,-0.509560848679307,-0.0061009254677126595
772,0.0026278685082392617,-0.04489182058127694,0.15116339138739232,-0.2622810110791038,-0.10330793383034467,0.012535216494715314
773,0.020786670330669166,-0.04395087721397539,-0.18311942786953256,0.1580263386524129,0.18688661029939413,-0.01838857288015752
774,-0.004021064795013185,0.012046524656522228,0.20569841443325088,-0.3906899126436876,0.29060356420806566,0.006936597681630337
775,0.007947583832618843,-0.4497711399656655,0.25813543700042474,-0.13944011816808613,-0.10138851120556336,-0.005255051726477723
776,0.005203217662720361,-0.1469318381070822,-0.06778932421049999,-0.011478005993706186,-0.1994643125285821,-0.001463730212682276
777,-0.005153320085233837,-0.5083858385952709,0.16487903914600144,-0.12907587820627142,0.497743187249702,0.008390607556617578
778,0.0022350470616689933,-0.38709964127606994,-0.5352810156617938,-0.41288364683657836,0.23915976558473157,0.0011724195568638606
