,0,1,2,3,4,5
0,-0.0034482758620689724,-0.7,-0.5,-0.3,-0.1,0.016
1,0.020335429769392066,0.16666666666666674,0.0,0.2,0.4,-0.012
2,0.004858299595141724,-0.033333333333333326,-0.5,-0.3,-0.1,0.002
3,-0.01991869918699185,-0.19999999999999996,-0.5,0.36666666666666664,-0.1,0.028
4,-0.007660455486542483,0.014285714285714346,0.30000000000000004,-0.3,0.2333333333333333,0.018
5,-0.005154639175257714,-0.7,0.09999999999999998,0.12857142857142856,-0.1,0.02
6,0.0046653144016226555,-0.19999999999999996,-0.5,-0.3,-0.1,0.006
7,-0.014285714285714346,-0.44999999999999996,-0.5,0.033333333333333326,-0.1,0.028
8,-0.010655737704918011,-0.12857142857142856,-0.5,0.2,-0.1,0.022
9,0.0016393442622950616,-0.19999999999999996,0.0,0.2,-0.1,0.012
10,0.012423625254582515,0.050000000000000044,-0.5,-0.3,-0.1,-0.002
11,0.008536585365853666,-0.033333333333333326,0.0,-0.3,-0.1,-0.0
12,0.02479674796747966,-0.19999999999999996,-0.5,-0.3,-0.1,-0.012
13,0.014979757085020196,-0.7,-0.5,-0.3,-0.1,-0.004
14,0.0012875536480686511,0.050000000000000044,0.25,-0.3,-0.1,0.018
15,-0.0024590163934425924,-0.19999999999999996,0.09999999999999998,-0.3,-0.1,0.014
16,0.0026915113871635032,0.07777777777777783,0.0,0.45,-0.1,0.006
17,-0.013871635610766098,-0.36666666666666664,-0.16666666666666669,0.3,-0.1,0.028
18,-0.01991869918699185,-0.19999999999999996,-0.5,-0.3,-0.1,0.03
19,0.009465020576131633,0.014285714285714346,-0.5,-0.04999999999999999,-0.1,0.004
20,0.0,-0.19999999999999996,0.0,0.36666666666666664,-0.1,0.008
21,0.0049586776859503745,0.014285714285714346,-0.25,0.2,-0.1,0.01
22,0.010931174089068851,-0.19999999999999996,-0.5,-0.3,-0.1,-0.002
23,-0.01764705882352946,-0.7,0.0,0.033333333333333326,-0.1,0.026
24,-0.004294478527607337,-0.19999999999999996,0.25,-0.3,-0.1,0.014
25,0.002892561983471098,-0.033333333333333326,-0.25,0.033333333333333326,-0.1,0.014
26,-0.01967545638945234,-0.033333333333333326,-0.5,-0.3,-0.1,0.028
27,-0.011561866125760711,-0.19999999999999996,-0.5,0.033333333333333326,-0.1,0.02
28,0.006122448979591799,-0.7,-0.5,-0.3,-0.1,0.012
29,-0.00629067245119308,-0.19999999999999996,-0.5,0.033333333333333326,-0.1,0.054
30,0.0036885245901638886,-0.033333333333333326,0.09999999999999998,-0.3,-0.1,0.008
31,-0.01594202898550723,0.07777777777777783,-0.16666666666666669,0.2,-0.1,0.026
32,0.02989690721649485,0.07777777777777783,-0.16666666666666669,-0.3,-0.1,-0.018
33,0.013580246913580174,0.014285714285714346,0.0,-0.3,-0.1,-0.002
34,0.016496945010183284,-0.7,0.16666666666666663,0.2,-0.1,-0.006
35,0.007597535934291577,0.10000000000000009,-0.16666666666666669,-0.3,0.2333333333333333,0.004
36,0.018200408997954942,-0.19999999999999996,0.0,0.45,-0.1,-0.008
37,-0.010655737704918011,0.014285714285714346,0.0,-0.3,-0.1,0.02
38,0.0024896265560165887,-0.19999999999999996,0.25,-0.3,-0.1,0.012
39,0.005154639175257714,0.050000000000000044,0.0,0.033333333333333326,-0.1,0.006
40,0.005349794238683092,0.050000000000000044,-0.5,0.033333333333333326,-0.1,0.006
41,0.017184265010351973,0.050000000000000044,0.16666666666666663,0.033333333333333326,0.2333333333333333,-0.006
42,0.01632653061224487,-0.7,0.09999999999999998,0.36666666666666664,-0.1,-0.008
43,0.006976744186046435,0.16666666666666674,-0.09999999999999998,0.3,-0.1,0.006
44,-0.5666666666666667,-0.02505175983436847,0.08333333333333337,-0.3,-0.1,0.232
45,-0.006837606837606813,-0.047826086956521685,0.0,0.033333333333333326,-0.1,0.028
46,0.006832298136645987,-0.033333333333333326,0.25,0.2,-0.1,0.006
47,0.011392405063291089,-0.015789473684210464,-0.5,-0.3,-0.1,0.01
48,0.017721518987341756,0.13333333333333341,-0.16666666666666669,-0.3,0.2333333333333333,-0.004
49,0.0038854805725970776,-0.033333333333333326,0.0,0.033333333333333326,0.2333333333333333,0.006
50,-0.026050420168067245,-0.36666666666666664,-0.09999999999999998,-0.04999999999999999,-0.1,0.052
51,-0.01991869918699185,-0.36666666666666664,-0.5,-0.3,-0.1,0.032
52,-0.01740041928721181,-0.033333333333333326,0.0,-0.3,-0.1,0.034
53,-0.027572016460905346,-0.19999999999999996,0.0,0.2,0.4,0.038
54,0.010204081632653073,-0.36666666666666664,-0.16666666666666669,-0.3,-0.1,0.004
55,-0.2571428571428571,-0.01837606837606831,0.16666666666666663,-0.3,-0.1,0.224
56,-0.015138592750533086,0.10952380952380958,0.16666666666666663,-0.3,0.1,0.03
57,0.02515592515592513,-0.12857142857142856,0.0,-0.04999999999999999,-0.1,-0.004
58,0.009278350515463885,0.014285714285714346,-0.16666666666666669,-0.3,0.15,0.004
59,-0.5666666666666667,-0.0039014373716631523,0.0,0.033333333333333326,-0.1,0.212
60,0.013580246913580174,-0.033333333333333326,-0.5,0.033333333333333326,0.4,-0.0
61,-0.007505070993914842,-0.7,0.16666666666666663,0.2,-0.1,0.014
62,-0.007438016528925617,-0.033333333333333326,0.25,-0.04999999999999999,-0.1,0.018
63,0.0,-0.36666666666666664,-0.5,0.36666666666666664,-0.1,0.012
64,0.021161825726141004,0.014285714285714346,0.125,-0.3,-0.1,-0.008
65,0.015811088295687892,0.050000000000000044,-0.5,0.45,-0.1,-0.004
66,-0.4,0.023140495867768673,0.125,-0.3,-0.1,0.186
67,0.0020408163265306367,-0.033333333333333326,0.16666666666666663,0.2,-0.1,0.006
68,0.00040650406504061376,-0.19999999999999996,-0.5,0.2,-0.1,0.008
69,0.015463917525773141,-0.19999999999999996,-0.5,0.325,0.4,-0.002
70,0.004761904761904745,0.13333333333333341,0.0,-0.3,-0.1,0.004
71,0.009278350515463885,-0.07499999999999996,-0.5,-0.3,-0.1,0.008
72,0.0059304703476482645,-0.19999999999999996,-0.25,-0.3,0.15,0.008
73,-0.9,0.042914979757085026,-0.5,-0.3,-0.1,0.166
74,0.012244897959183598,-0.7,0.0,0.2,-0.1,-0.002
75,-0.008163265306122436,-0.7,-0.25,-0.3,-0.1,0.024
76,-0.025260960334029248,0.07777777777777783,0.2142857142857143,0.2,-0.1,0.036
77,-0.009409190371991283,0.16486486486486496,0.0,-0.3,-0.1,0.02
78,-0.037931034482758696,-0.7,-0.16666666666666669,-0.3,-0.1,0.048
79,-0.009504132231405005,-0.19999999999999996,0.0714285714285714,0.2,0.2333333333333333,0.022
80,0.015433403805496848,0.07777777777777783,-0.16666666666666669,0.033333333333333326,-0.1,0.002
81,-0.029629629629629672,0.07777777777777783,0.0,-0.3,-0.1,0.038
82,-0.026789366053169728,-0.033333333333333326,-0.5,-0.3,0.2333333333333333,0.036
83,-0.013636363636363669,0.050000000000000044,0.0,-0.3,-0.1,0.026
84,0.008077994428969282,0.040740740740740744,-0.5,-0.3,-0.1,0.048
85,0.015966386554621792,0.014285714285714346,0.2692307692307693,0.033333333333333326,-0.1,-0.004
86,-0.004294478527607337,-0.36666666666666664,-0.16666666666666669,0.033333333333333326,-0.1,0.018
87,-0.027982646420824264,0.10000000000000009,0.30000000000000004,0.2,-0.1,0.038
88,0.02622950819672132,-0.033333333333333326,-0.5,-0.3,0.4,-0.014
89,0.0010309278350515427,-0.033333333333333326,0.09999999999999998,-0.3,0.5666666666666667,0.008
90,0.004081632653061162,-0.033333333333333326,-0.5,0.36666666666666664,-0.1,0.006
91,-0.014989733059548316,0.050000000000000044,-0.16666666666666669,-0.3,-0.1,0.024
92,0.019254658385093104,-0.7,0.19999999999999996,0.033333333333333326,-0.1,-0.004
93,0.027983539094650234,0.050000000000000044,-0.25,0.033333333333333326,-0.1,-0.012
94,-0.009207708779443324,0.03913043478260869,0.125,-0.3,-0.1,0.024
95,0.0057377049180327155,-0.36666666666666664,-0.09999999999999998,0.2,-0.1,0.008
96,0.0057377049180327155,0.10000000000000009,-0.16666666666666669,-0.3,-0.1,0.006
97,0.020570264765784052,-0.033333333333333326,-0.5,-0.04999999999999999,-0.1,-0.01
98,-0.0024590163934425924,-0.09999999999999998,-0.5,-0.3,-0.1,0.018
99,0.010204081632653073,-0.19999999999999996,-0.5,0.2,-0.1,0.002
100,-0.010874200426439273,0.13333333333333341,0.16666666666666663,0.2714285714285714,-0.1,0.024
101,-0.0047120418848167755,-0.0063973063973064015,0.0714285714285714,-0.04999999999999999,-0.1,0.136
102,-0.004938271604938316,-0.09999999999999998,-0.16666666666666669,0.033333333333333326,0.2333333333333333,0.018
103,0.02244897959183667,0.050000000000000044,-0.16666666666666669,-0.3,-0.1,-0.012
104,-0.013821138211382089,-0.7,-0.16666666666666669,-0.3,-0.1,0.026
105,0.006976744186046435,-0.03599999999999992,0.16666666666666663,-0.3,-0.1,0.074
106,0.0049586776859503745,0.07777777777777783,0.16666666666666663,0.2,-0.1,0.004
107,-0.008829568788501052,-0.7,0.0,0.3,-0.1,0.02
108,0.006504065040650375,-0.36666666666666664,-0.5,0.2,-0.1,0.004
109,-0.0051502145922747156,0.11481481481481481,-0.16666666666666669,-0.3,0.4,0.018
110,-0.008280254777070062,0.07272727272727275,-0.16666666666666669,-0.3,-0.1,0.024
111,0.0018404907975460016,-0.19999999999999996,-0.16666666666666669,-0.3,-0.1,0.012
112,0.005154639175257714,-0.19999999999999996,0.09999999999999998,0.2,0.15,0.008
113,-0.00612244897959191,-0.7,0.16666666666666663,-0.3,0.15,0.018
114,-0.01561866125760647,-0.19999999999999996,-0.5,-0.3,-0.1,0.026
115,-0.0002044989775051853,-0.033333333333333326,0.09999999999999998,-0.3,0.4,0.008
116,-0.021900826446280997,0.014285714285714346,0.0,-0.3,-0.1,0.036
117,-0.012936344969199154,-0.033333333333333326,0.25,0.2,-0.1,0.02
118,-0.008829568788501052,-0.7,0.09999999999999998,0.3,-0.1,0.02
119,0.004276985743380868,-0.19999999999999996,-0.25,-0.3,-0.1,0.008
120,-0.007456140350877161,0.10555555555555562,0.16666666666666663,-0.3,-0.1,0.024
121,0.025101214574898778,-0.7,-0.5,-0.3,-0.1,-0.014
122,-0.30000000000000004,0.04693877551020409,-0.5,-0.3,-0.1,0.162
123,-0.014754098360655776,-0.033333333333333326,0.0,-0.3,-0.1,0.026
124,-0.016564417177914126,-0.19999999999999996,-0.16666666666666669,0.2,-0.1,0.028
125,-0.9,0.012550607287449389,-0.16666666666666669,-0.3,-0.1,0.194
126,-0.006029106029106002,0.07777777777777783,0.25,-0.3,-0.1,0.02
127,0.014634146341463428,-0.7,-0.5,-0.3,-0.1,-0.0
128,-0.009756097560975618,-0.19999999999999996,-0.5,0.2,-0.1,0.018
129,0.0016393442622950616,-0.09999999999999998,0.0,-0.3,-0.1,0.012
130,0.009650924024640628,-0.033333333333333326,0.0,-0.04999999999999999,-0.1,0.004
131,-0.01178861788617891,-0.09999999999999998,-0.5,-0.3,-0.1,0.02
132,-0.004166666666666652,0.13333333333333341,-0.5,0.033333333333333326,-0.1,0.018
133,-0.4,0.016356107660455477,0.0,-0.3,0.30000000000000004,0.194
134,-0.011111111111111183,-0.033333333333333326,0.30000000000000004,0.2,-0.1,0.018
135,0.005544147843942526,0.13333333333333341,0.0,0.36666666666666664,0.4,-0.0
136,-0.008163265306122436,-0.19999999999999996,-0.16666666666666669,-0.3,0.2333333333333333,0.02
137,-0.00041841004184106634,0.13333333333333341,-0.5,0.2,0.2333333333333333,0.016
138,0.02622950819672132,-0.19999999999999996,0.25,-0.3,-0.1,-0.018
139,-0.010429447852760787,-0.19999999999999996,-0.5,0.2,0.4,0.02
140,0.021325051759834346,0.13333333333333341,0.0,0.2,-0.1,-0.014
141,0.007597535934291577,-0.7,0.0,0.2714285714285714,-0.1,0.006
142,0.0024896265560165887,0.07777777777777783,-0.16666666666666669,0.10000000000000003,-0.1,0.01
143,0.011704312114989679,-0.19999999999999996,-0.5,0.2714285714285714,-0.1,0.002
144,0.0059304703476482645,-0.19999999999999996,-0.5,0.3,-0.1,0.006
145,-0.04232209737827719,0.018061674008810646,0.0,-0.3,-0.1,0.112
146,0.0019607843137254832,-0.03687943262411342,0.0,-0.3,-0.1,0.15
147,-0.0024590163934425924,-0.19999999999999996,0.25,-0.3,-0.1,0.016
148,-0.031416837782340834,0.050000000000000044,0.0,0.2,-0.1,0.038
149,0.0034907597535933643,-0.033333333333333326,0.16666666666666663,-0.3,-0.1,0.008
150,0.014405010438413357,0.1461538461538462,0.0,-0.3,-0.1,-0.002
151,-0.9,0.013991769547325172,0.0,-0.3,-0.1,0.198
152,-0.005691056910569148,-0.7,-0.5,-0.3,-0.1,0.02
153,0.014937759336099532,-0.033333333333333326,0.2142857142857143,0.2,-0.1,-0.004
154,0.03306288032454363,-0.7,-0.5,0.2,-0.1,-0.022
155,0.0180327868852459,0.014285714285714346,0.0,-0.3,-0.1,-0.008
156,0.012955465587044523,-0.7,-0.5,-0.3,0.4,-0.004
157,0.006054279749478031,0.0,0.25,-0.3,-0.1,0.006
158,-0.006471816283924903,0.13333333333333341,0.30000000000000004,-0.3,-0.1,0.016
159,0.010569105691056846,0.050000000000000044,-0.5,0.2,-0.1,-0.004
160,-0.9,-0.015573770491803196,0.05555555555555558,-0.3,-0.1,0.222
161,-0.018257261410788428,0.050000000000000044,-0.5,-0.3,0.4,0.034
162,0.010284463894967177,-0.033333333333333326,0.0714285714285714,0.033333333333333326,-0.1,0.022
163,0.01134751773049647,0.0368421052631579,0.0,-0.3,0.1,0.074
164,-0.01764705882352946,0.08571428571428574,0.09999999999999998,0.2,-0.1,0.028
165,0.022290388548057205,0.050000000000000044,0.16666666666666663,0.033333333333333326,-0.1,-0.014
166,-0.018126272912423635,-0.19999999999999996,-0.16666666666666669,0.033333333333333326,-0.1,0.028
167,-0.014754098360655776,-0.017934782608695632,-0.25,0.033333333333333326,0.2333333333333333,0.176
168,-0.01270491803278695,-0.19999999999999996,0.16666666666666663,-0.3,-0.1,0.022
169,-0.018609406952965313,-0.19999999999999996,0.0714285714285714,-0.3,-0.1,0.028
170,-0.05212981744421907,-0.19999999999999996,-0.5,-0.3,0.4,0.06
171,0.003292181069958877,0.014285714285714346,0.0,-0.3,0.4,0.006
172,-0.2333333333333334,0.022792607802874842,-0.5,0.033333333333333326,-0.1,0.186
173,-0.014052953156822867,-0.19999999999999996,-0.16666666666666669,0.2,0.4,0.022
174,0.022131147540983553,-0.36666666666666664,0.0,-0.3,-0.1,-0.006
175,0.013402061855670055,0.014285714285714346,0.25,0.2,-0.1,-0.004
176,-0.01885245901639343,0.10000000000000009,0.16666666666666663,-0.3,-0.1,0.028
177,0.02099792099792097,0.10000000000000009,0.09999999999999998,0.4142857142857143,-0.1,-0.01
178,-0.014989733059548316,-0.033333333333333326,-0.2142857142857143,0.2,-0.1,0.028
179,-0.009053497942386857,-0.19999999999999996,0.2142857142857143,0.36666666666666664,-0.1,0.018
180,0.008350305498981636,-0.19999999999999996,-0.16666666666666669,-0.3,-0.1,0.004
181,0.01375770020533884,-0.09999999999999998,-0.16666666666666669,0.033333333333333326,-0.1,-0.0
182,0.0077568134171907,-0.033333333333333326,0.0,-0.3,-0.1,0.01
183,0.017355371900826477,0.050000000000000044,0.0,-0.3,0.4,-0.004
184,0.010569105691056846,-0.033333333333333326,-0.5,-0.3,-0.1,-0.0
185,0.01097308488612836,-0.19999999999999996,-0.25,0.2,0.2333333333333333,0.006
186,-0.0058091286307053736,-0.19999999999999996,0.19999999999999996,-0.3,-0.1,0.02
187,0.003225806451612856,-0.04567901234567895,0.08333333333333337,0.033333333333333326,-0.1,0.05
188,0.020879120879120805,-0.7,0.017241379310344862,-0.0692307692307692,-0.1,0.026
189,0.0038854805725970776,-0.19999999999999996,-0.5,-0.3,-0.1,0.01
190,0.0035639412997903186,0.050000000000000044,-0.16666666666666669,0.4142857142857143,-0.1,0.008
191,0.009278350515463885,0.07777777777777783,0.16666666666666663,-0.3,-0.1,-0.0
192,0.016666666666666607,-0.19999999999999996,0.16666666666666663,0.2,-0.1,-0.01
193,0.009650924024640628,-0.36666666666666664,0.2142857142857143,-0.3,-0.1,0.002
194,0.0038854805725970776,-0.36666666666666664,-0.5,-0.04999999999999999,0.2333333333333333,0.01
195,0.0020408163265306367,-0.19999999999999996,0.0,-0.04999999999999999,-0.1,0.01
196,0.016155419222903866,-0.033333333333333326,0.16666666666666663,0.033333333333333326,-0.1,-0.006
197,-0.3285714285714286,0.0016460905349794386,0.0,-0.3,-0.1,0.206
198,-0.001321585903083733,-0.1499999999999999,-0.5,-0.3,-0.1,0.04
199,0.003292181069958877,-0.09999999999999998,0.0,0.033333333333333326,-0.1,0.01
200,0.0020408163265306367,0.050000000000000044,0.16666666666666663,-0.3,0.4,0.004
201,0.01632653061224487,0.050000000000000044,0.0,0.2,-0.1,-0.008
202,0.013402061855670055,-0.12857142857142856,-0.09999999999999998,0.2,-0.1,-0.0
203,-0.01967545638945234,-0.7,0.0,-0.3,-0.1,0.03
204,-0.003658536585365857,-0.19999999999999996,-0.16666666666666669,0.2,-0.1,0.012
205,0.004365904365904338,0.13333333333333341,-0.16666666666666669,-0.3,-0.1,0.008
206,0.030327868852458972,-0.033333333333333326,-0.16666666666666669,-0.3,-0.1,-0.018
207,-0.02240663900414941,0.10000000000000009,0.0,-0.3,0.4,0.032
208,0.01375770020533884,-0.14444444444444438,0.0,-0.3,-0.1,-0.002
209,-0.006557377049180357,-0.033333333333333326,0.0,0.2,0.4,0.014
210,-0.0002044989775051853,-0.033333333333333326,-0.5,-0.3,-0.1,0.016
211,0.0006085192697768971,-0.7,-0.5,-0.3,-0.1,0.012
212,0.009278350515463885,-0.09999999999999998,0.0,-0.13333333333333333,-0.1,0.008
213,0.012244897959183598,-0.033333333333333326,-0.5,0.36666666666666664,-0.1,-0.002
214,0.02024539877300613,-0.36666666666666664,0.09999999999999998,-0.3,-0.1,-0.008
215,-0.00512820512820511,-0.7,0.0,-0.3,-0.1,0.096
216,-0.008163265306122436,-0.033333333333333326,-0.5,-0.3,-0.1,0.018
217,-0.03319672131147544,-0.033333333333333326,0.0,-0.3,-0.1,0.044
218,0.02259414225941425,-0.033333333333333326,0.09999999999999998,0.2,-0.1,-0.004
219,0.00797546012269934,-0.19999999999999996,-0.5,-0.3,0.1,0.008
220,0.00983606557377048,-0.033333333333333326,-0.5,0.033333333333333326,-0.1,0.002
221,0.014634146341463428,-0.19999999999999996,-0.5,-0.3,-0.1,-0.002
222,-0.01016949152542379,-0.033333333333333326,0.2142857142857143,-0.3,-0.1,0.032
223,0.018410041841004143,0.17500000000000004,-0.5,0.36666666666666664,0.4,-0.012
224,0.013223140495867702,0.10000000000000009,0.16666666666666663,-0.3,0.15,-0.002
225,-0.001321585903083733,0.1048780487804879,-0.5,-0.3,-0.1,0.018
226,0.008536585365853666,-0.19999999999999996,0.0,-0.3,-0.1,0.002
227,0.0,0.15294117647058825,-0.5,-0.3,-0.1,0.014
228,0.0016393442622950616,0.10000000000000009,-0.5,-0.3,0.2333333333333333,0.01
229,0.0020408163265306367,-0.033333333333333326,0.0,0.033333333333333326,-0.1,0.008
230,0.00794979079497904,0.06923076923076932,0.25,0.033333333333333326,0.4,0.002
231,0.0016393442622950616,-0.09999999999999998,0.0,-0.04999999999999999,-0.1,0.01
232,0.030327868852458972,0.050000000000000044,0.0,-0.3,-0.1,-0.022
233,-0.013131313131313105,-0.19999999999999996,-0.5,-0.3,-0.1,0.02
234,-0.0002044989775051853,-0.09999999999999998,-0.5,-0.3,-0.1,0.014
235,-0.009278350515463885,0.07777777777777783,-0.5,-0.3,-0.1,0.022
236,-0.023689727463312438,0.014285714285714346,0.125,0.10000000000000003,-0.1,0.04
237,-0.0020408163265306367,0.050000000000000044,-0.16666666666666669,0.2,-0.1,0.01
238,0.015983606557377072,-0.033333333333333326,0.25,-0.3,-0.1,-0.008
239,-0.0018329938900203402,-0.19999999999999996,-0.5,0.36666666666666664,-0.1,0.012
240,0.009287257019438444,-0.07499999999999996,0.125,-0.3,0.2333333333333333,0.016
241,0.020408163265306145,-0.19999999999999996,-0.16666666666666669,-0.3,-0.1,-0.008
242,0.0016736401673640433,-0.09999999999999998,0.13636363636363635,0.033333333333333326,0.2333333333333333,0.014
243,0.0038854805725970776,-0.7,0.16666666666666663,-0.3,-0.1,0.012
244,-0.5666666666666667,-0.014814814814814725,0.0,0.033333333333333326,-0.1,0.224
245,-0.005691056910569148,-0.033333333333333326,-0.5,-0.3,-0.1,0.016
246,0.02099792099792097,0.11818181818181828,0.25,0.2,-0.1,-0.012
247,0.010204081632653073,-0.033333333333333326,-0.5,-0.3,0.15,0.002
248,0.006832298136645987,0.11818181818181828,-0.5,0.033333333333333326,0.4,0.002
249,-0.02320328542094463,-0.033333333333333326,-0.16666666666666669,-0.3,0.4,0.034
250,-0.011336032388663986,-0.7,-0.5,-0.3,-0.1,0.022
251,-0.009375000000000022,-0.19999999999999996,0.045454545454545414,-0.3,-0.1,0.052
252,0.010602910602910631,0.11818181818181828,-0.5,0.2,0.15,0.002
253,0.02244897959183667,-0.7,-0.006072874493927127,0.033333333333333326,0.2333333333333333,0.2
254,-0.006557377049180357,-0.44999999999999996,0.0,-0.3,0.2333333333333333,0.02
255,0.0059304703476482645,0.014285714285714346,-0.5,-0.3,-0.1,0.004
256,-0.02114989733059547,0.014285714285714346,0.0,-0.3,-0.1,0.03
257,-0.029098360655737676,-0.7,-0.16666666666666669,0.36666666666666664,-0.1,0.04
258,0.011522633744855959,-0.36666666666666664,0.16666666666666663,-0.3,0.2333333333333333,0.002
259,0.0018404907975460016,-0.19999999999999996,0.25,-0.3,-0.1,0.01
260,0.00797546012269934,0.050000000000000044,-0.5,0.2,-0.1,0.004
261,-0.00386965376782078,0.050000000000000044,-0.5,-0.3,0.4,0.012
262,-0.008606557377049184,-0.7,0.2777777777777778,-0.3,-0.1,0.016
263,0.012601626016260137,0.050000000000000044,0.0,-0.3,-0.1,-0.006
264,0.008141962421711835,0.1461538461538462,0.0,0.36666666666666664,-0.1,0.002
265,0.0203084832904884,-0.033333333333333326,0.13636363636363635,-0.04999999999999999,0.2333333333333333,0.042
266,-0.010429447852760787,-0.033333333333333326,-0.16666666666666669,-0.3,-0.1,0.024
267,0.023395445134575588,0.15714285714285714,0.30000000000000004,0.033333333333333326,0.4,-0.016
268,-0.010294117647058898,0.03563218390804601,0.0,-0.3,-0.1,0.044
269,-0.009958506224066466,0.11818181818181828,-0.16666666666666669,-0.3,-0.1,0.022
270,0.011885245901639307,-0.19999999999999996,0.0,-0.3,-0.1,0.002
271,0.012244897959183598,-0.19999999999999996,0.0,-0.04999999999999999,-0.1,-0.0
272,-0.004602510460251064,-0.19999999999999996,0.3125,0.36666666666666664,-0.1,0.012
273,0.017184265010351973,-0.19999999999999996,-0.3,0.4777777777777778,-0.1,-0.004
274,-0.026272912423625283,0.050000000000000044,0.0,-0.3,-0.1,0.034
275,0.003292181069958877,-0.09999999999999998,0.0,-0.3,-0.1,0.012
276,0.016155419222903866,-0.033333333333333326,-0.16666666666666669,-0.3,0.5666666666666667,-0.006
277,0.0034907597535933643,-0.033333333333333326,0.16666666666666663,-0.3,-0.1,0.008
278,0.020000000000000018,-0.12857142857142856,0.0757575757575758,-0.3,-0.1,0.018
279,-0.004294478527607337,-0.033333333333333326,-0.5,-0.3,-0.1,0.016
280,0.0026915113871635032,0.11818181818181828,-0.16666666666666669,-0.3,-0.1,0.008
281,0.007407407407407418,-0.09999999999999998,-0.09999999999999998,-0.3,-0.1,0.008
282,0.01411042944785279,-0.7,0.33333333333333337,-0.3,-0.1,-0.004
283,-0.006557377049180357,-0.36666666666666664,0.0,0.033333333333333326,-0.1,0.02
284,-0.0012145748987854033,-0.19999999999999996,0.0,-0.3,-0.1,0.008
285,-0.016803278688524603,0.050000000000000044,-0.09999999999999998,0.2,-0.1,0.026
286,0.02073170731707319,-0.7,-0.16666666666666669,-0.3,-0.1,-0.008
287,-0.009053497942386857,0.07777777777777783,-0.5,-0.3,-0.1,0.02
288,-0.006776180698152001,0.014285714285714346,0.0,0.2,-0.1,0.016
289,-0.009278350515463885,-0.25555555555555554,0.16666666666666663,-0.3,-0.1,0.024
290,-0.4,-0.007692307692307665,-0.5,-0.3,-0.1,0.214
291,0.0186991869918699,-0.7,0.25,-0.3,-0.1,-0.01
292,-0.03836477987421383,0.11250000000000004,-0.16666666666666669,0.2,-0.1,0.048
293,0.012017167381974225,0.06000000000000005,-0.5,0.2,0.1,0.008
294,0.012601626016260137,-0.7,-0.16666666666666669,0.36666666666666664,-0.1,-0.004
295,0.029606625258799202,-0.033333333333333326,-0.25,0.36666666666666664,-0.1,-0.016
296,0.021810699588477367,0.014285714285714346,-0.16666666666666669,-0.3,-0.1,-0.008
297,-0.01418685121107266,-0.036683417085427106,0.0,0.033333333333333326,-0.1,0.114
298,-0.018609406952965313,-0.19999999999999996,-0.5,-0.3,-0.1,0.034
299,-0.011111111111111183,-0.033333333333333326,0.09999999999999998,-0.3,-0.1,0.022
300,-0.031958762886597936,-0.033333333333333326,0.0,-0.04999999999999999,-0.1,0.044
301,0.005149051490514922,-0.022314049586776852,0.0,-0.04999999999999999,-0.1,0.062
302,-0.0018711018711018435,-0.36666666666666664,0.0,0.45,0.06666666666666665,0.018
303,0.0057377049180327155,-0.36666666666666664,0.25,-0.3,0.15,0.006
304,0.024335378323108392,-0.19999999999999996,0.16666666666666663,-0.3,-0.1,-0.012
305,0.007407407407407418,-0.19999999999999996,0.25,-0.3,-0.1,0.004
306,-0.02065439672801639,-0.09999999999999998,0.0,-0.3,-0.1,0.03
307,-0.01594202898550723,0.11818181818181828,-0.16666666666666669,-0.3,-0.1,0.026
308,0.00020790020790018016,-0.033333333333333326,0.2142857142857143,-0.3,-0.1,0.016
309,0.02697768762677477,-0.19999999999999996,0.16666666666666663,-0.3,-0.1,-0.02
310,-0.004294478527607337,-0.7,-0.5,0.4142857142857143,-0.1,0.014
311,0.021052631578947323,-0.19999999999999996,-0.5,-0.3,-0.1,-0.012
312,0.008536585365853666,-0.7,-0.5,0.033333333333333326,-0.1,0.004
313,-0.019433198380566785,-0.7,0.0,-0.3,-0.1,0.028
314,0.014807302231237274,-0.7,-0.5,-0.3,-0.1,-0.002
315,0.010204081632653073,-0.7,-0.25,-0.3,-0.1,0.006
316,-0.009756097560975618,-0.19999999999999996,-0.5,0.2,-0.1,0.018
317,0.0057377049180327155,-0.7,0.25,0.033333333333333326,0.15,0.006
318,0.00797546012269934,-0.033333333333333326,0.0,-0.3,-0.1,0.006
319,-0.006995884773662531,0.014285714285714346,0.0,0.2,-0.1,0.016
320,-0.020507399577167074,0.033333333333333326,0.16666666666666663,-0.3,0.15,0.036
321,0.004471544715447084,-0.7,0.0,-0.3,0.4,0.004
322,0.012244897959183598,-0.09999999999999998,0.0,0.2,-0.1,-0.004
323,-0.2333333333333334,0.005636743215031381,-0.16666666666666669,0.2,-0.1,0.204
324,0.02024539877300613,-0.19999999999999996,-0.09999999999999998,-0.3,-0.1,-0.006
325,-0.01898734177215189,0.008333333333333415,0.0,-0.3,-0.1,0.062
326,0.01836734693877551,-0.033333333333333326,-0.16666666666666669,0.033333333333333326,-0.1,-0.008
327,0.021810699588477367,-0.29999999999999993,0.16666666666666663,-0.3,-0.1,-0.008
328,-0.0018329938900203402,-0.7,0.0,-0.3,0.4,0.014
329,0.01632653061224487,-0.19999999999999996,0.16666666666666663,0.2,0.2333333333333333,-0.008
330,0.0046653144016226555,-0.7,-0.5,-0.3,-0.1,0.008
331,0.005544147843942526,0.15714285714285714,-0.5,-0.3,-0.1,0.006
332,-0.9,-0.017204301075268824,-0.018644067796610153,0.10000000000000003,0.2333333333333333,0.35
333,-0.016424116424116453,0.0,0.0,0.36666666666666664,-0.1,0.028
334,-0.004803493449781704,-0.014285714285714235,0.0,0.033333333333333326,-0.1,0.028
335,-0.009704641350210985,0.13333333333333341,0.2777777777777778,0.2,-0.1,0.02
336,-0.01764705882352946,-0.36666666666666664,-0.5,-0.3,-0.1,0.028
337,-0.0020408163265306367,-0.09999999999999998,0.0,-0.3,-0.1,0.012
338,0.009278350515463885,-0.29999999999999993,-0.16666666666666669,0.10000000000000003,-0.1,0.008
339,-0.026789366053169728,0.050000000000000044,0.09999999999999998,-0.3,-0.1,0.034
340,0.0038854805725970776,-0.44999999999999996,0.25,-0.3,-0.1,0.008
341,-0.011627906976744207,0.06923076923076932,0.0,-0.3,-0.1,0.034
342,0.013934426229508134,-0.033333333333333326,0.09999999999999998,-0.3,0.2333333333333333,-0.004
343,0.006504065040650375,-0.7,0.0,0.033333333333333326,-0.1,0.004
344,0.030379746835442978,0.00454545454545463,-0.16666666666666669,0.2,-0.1,0.06
345,0.00663900414937757,-0.19999999999999996,-0.125,0.033333333333333326,0.2333333333333333,0.012
346,0.0057377049180327155,0.050000000000000044,-0.5,0.2,-0.1,0.006
347,0.04020618556701028,0.15714285714285714,-0.3,-0.3,-0.1,-0.026
348,0.0020408163265306367,-0.09999999999999998,0.0,-0.3,-0.1,0.008
349,-0.006471816283924903,0.11818181818181828,-0.16666666666666669,-0.3,0.1,0.022
350,-0.004166666666666652,0.06923076923076932,-0.16666666666666669,-0.3,-0.1,0.018
351,-0.02033195020746892,0.07777777777777783,-0.5,0.4142857142857143,-0.1,0.028
352,-0.0024590163934425924,-0.36666666666666664,-0.09999999999999998,-0.3,-0.1,0.018
353,-0.013207547169811318,0.11818181818181828,0.25,-0.3,0.2333333333333333,0.022
354,-0.006339468302658524,-0.19999999999999996,-0.5,0.2,-0.1,0.02
355,-0.011570247933884281,-0.19999999999999996,0.2777777777777778,-0.3,-0.1,0.024
356,-0.012016293279022427,-0.19999999999999996,-0.5,-0.3,-0.1,0.026
357,-0.009756097560975618,-0.19999999999999996,-0.5,-0.3,-0.1,0.022
358,0.011963882618510113,0.029166666666666674,-0.16666666666666669,0.033333333333333326,0.2333333333333333,0.016
359,0.004858299595141724,-0.7,0.0,-0.3,-0.1,0.004
360,-0.02474437627811865,-0.36666666666666664,0.0,-0.3,-0.1,0.038
361,0.0006211180124223725,-0.09999999999999998,0.09999999999999998,0.2,-0.1,0.014
362,0.020502092050209142,-0.09999999999999998,-0.16666666666666669,-0.3,-0.1,-0.0
363,-0.02989690721649485,0.10000000000000009,0.0,-0.3,-0.1,0.038
364,-0.00660980810234546,0.06923076923076932,0.0,-0.3,-0.1,0.02
365,0.025373134328358193,-0.09999999999999998,0.0,0.2,-0.1,-0.0
366,-0.005590062111801242,0.10000000000000009,-0.5,-0.04999999999999999,-0.1,0.018
367,0.0020408163265306367,-0.033333333333333326,0.16666666666666663,-0.3,-0.1,0.008
368,0.0020408163265306367,0.050000000000000044,0.0,-0.3,-0.1,0.008
369,0.012955465587044523,-0.7,-0.5,-0.3,-0.1,-0.002
370,-0.021681415929203585,-0.011111111111111072,-0.5,-0.3,-0.1,0.044
371,-0.001293103448275934,-0.010344827586206806,0.0,0.2,-0.1,0.02
372,0.0006211180124223725,-0.7,0.19999999999999996,-0.3,-0.1,0.016
373,0.006313645621181196,-0.19999999999999996,0.0,-0.3,-0.1,0.004
374,-0.015702479338842945,0.050000000000000044,-0.5,0.033333333333333326,-0.1,0.03
375,0.003765690376569042,0.16666666666666674,-0.5,0.033333333333333326,0.2333333333333333,0.006
376,-0.02577319587628868,-0.033333333333333326,0.0,0.2,-0.1,0.038
377,-0.005590062111801242,0.10000000000000009,0.16666666666666663,0.2,-0.1,0.014
378,-0.018090452261306567,0.05757575757575761,-0.5,0.033333333333333326,-0.1,0.076
379,0.005154639175257714,0.07777777777777783,0.0,-0.3,-0.1,0.006
380,-0.0033057851239669533,0.014285714285714346,-0.16666666666666669,0.033333333333333326,-0.1,0.018
381,0.0017467248908297206,0.1823529411764706,0.25,0.2,-0.1,0.006
382,0.011704312114989679,-0.19999999999999996,-0.09999999999999998,-0.3,-0.1,0.002
383,0.0059304703476482645,-0.19999999999999996,0.09999999999999998,-0.3,-0.1,0.006
384,0.016853932584269593,-0.08297872340425527,-0.5,-0.3,0.2333333333333333,0.024
385,0.006122448979591799,-0.19999999999999996,-0.09999999999999998,0.2,-0.1,0.004
386,0.01097308488612836,-0.033333333333333326,0.2272727272727273,-0.3,-0.1,-0.0
387,0.004255319148936176,0.10000000000000009,0.0,0.10000000000000003,-0.1,0.01
388,-0.012941176470588234,-0.7,0.04929577464788737,0.2,-0.1,0.066
389,0.0012345679012345512,-0.7,0.125,-0.3,-0.1,0.014
390,0.0057377049180327155,-0.19999999999999996,0.0,0.2,-0.1,0.008
391,0.008163265306122436,-0.7,-0.16666666666666669,0.033333333333333326,-0.1,0.006
392,0.02577319587628868,-0.19999999999999996,-0.5,0.45,-0.1,-0.012
393,0.00040650406504061376,-0.7,-0.16666666666666669,-0.3,-0.1,0.012
394,0.0020408163265306367,-0.7,0.16666666666666663,0.45,0.4,0.004
395,0.005349794238683092,-0.09999999999999998,0.0,-0.3,-0.1,0.01
396,0.0014675052410900724,-0.19999999999999996,0.25,-0.3,-0.1,0.012
397,-0.004602510460251064,0.050000000000000044,0.2777777777777778,-0.3,-0.1,0.018
398,-0.01270491803278695,-0.7,0.16666666666666663,0.033333333333333326,-0.1,0.024
399,-0.026789366053169728,-0.033333333333333326,0.0,0.2,-0.1,0.036
400,0.018580375782880965,0.014285714285714346,-0.5,-0.3,-0.1,-0.0
401,0.002892561983471098,-0.033333333333333326,0.16666666666666663,0.36666666666666664,-0.1,0.006
402,-0.011111111111111183,-0.07499999999999996,0.2142857142857143,0.033333333333333326,-0.1,0.028
403,0.027983539094650234,-0.19999999999999996,-0.33333333333333337,0.033333333333333326,-0.1,-0.008
404,-0.4,-0.027902240325865524,-0.5,-0.3,-0.1,0.236
405,-0.009442060085836923,0.13333333333333341,0.25,0.10000000000000003,-0.1,0.024
406,0.03304535637149031,-0.012499999999999956,-0.5,-0.3,-0.1,-0.008
407,0.012244897959183598,0.10000000000000009,0.0,0.2,-0.1,-0.006
408,0.0007444168734490608,0.06666666666666676,-0.5,0.033333333333333326,-0.1,0.034
409,0.0018404907975460016,-0.36666666666666664,-0.16666666666666669,-0.04999999999999999,-0.1,0.012
410,0.005154639175257714,0.07777777777777783,0.16666666666666663,-0.3,-0.1,0.004
411,-0.017043121149897367,0.050000000000000044,0.0,0.033333333333333326,-0.1,0.028
412,-0.9,-0.44999999999999996,-0.03673469387755102,-0.3,-0.1,0.444
413,-0.003658536585365857,-0.19999999999999996,0.16666666666666663,-0.3,0.4,0.01
414,-0.019565217391304346,-0.012499999999999956,0.16666666666666663,-0.3,-0.1,0.042
415,-0.008829568788501052,-0.19999999999999996,-0.5,0.36666666666666664,0.2333333333333333,0.02
416,-0.007505070993914842,-0.033333333333333326,-0.5,-0.3,-0.1,0.016
417,-0.0023622047244095112,0.06991150442477878,0.0,-0.3,-0.1,0.038
418,-0.016803278688524603,-0.033333333333333326,0.0,-0.3,-0.1,0.028
419,-0.0059063136456212195,-0.36666666666666664,0.0,0.2,-0.1,0.016
420,-0.0075949367088608,0.14210526315789473,-0.5,0.2,-0.1,0.018
421,-0.008606557377049184,-0.033333333333333326,0.16666666666666663,0.2,-0.1,0.016
422,-0.018257261410788428,0.07777777777777783,0.16666666666666663,0.2,0.15,0.028
423,0.010041841004184038,0.13333333333333341,-0.25,0.45,0.4,-0.0
424,0.012244897959183598,-0.19999999999999996,-0.5,0.2,-0.1,-0.0
425,-0.002296450939457184,0.10000000000000009,0.0,0.2,-0.1,0.018
426,0.017894736842105186,-0.1705882352941176,0.16666666666666663,0.033333333333333326,-0.1,0.004
427,-0.0020408163265306367,-0.7,0.16666666666666663,-0.3,-0.1,0.016
428,-0.004938271604938316,-0.033333333333333326,-0.5,0.033333333333333326,-0.1,0.016
429,0.010569105691056846,-0.19999999999999996,-0.5,0.2,0.4,-0.002
430,0.02244897959183667,-0.36666666666666664,0.0,0.36666666666666664,-0.1,-0.012
431,0.03749999999999998,-0.013559322033898313,0.0714285714285714,0.033333333333333326,-0.1,0.212
432,0.007407407407407418,-0.7,-0.16666666666666669,0.4142857142857143,0.4,0.004
433,-0.010204081632653073,-0.19999999999999996,0.0,-0.3,-0.1,0.022
434,0.006693711967545646,-0.7,0.25,-0.3,-0.1,-0.0
435,-0.009533468559837721,-0.7,-0.16666666666666669,-0.3,-0.1,0.02
436,0.0026915113871635032,0.050000000000000044,0.0,-0.3,-0.1,0.012
437,0.00797546012269934,-0.19999999999999996,0.0,0.033333333333333326,-0.1,0.004
438,0.0034907597535933643,-0.07499999999999996,0.0,-0.3,-0.1,0.008
439,0.0057377049180327155,-0.033333333333333326,-0.5,-0.04999999999999999,-0.1,0.01
440,0.015983606557377072,-0.19999999999999996,0.0,0.033333333333333326,-0.1,-0.002
441,-0.020408163265306145,-0.19999999999999996,0.0,-0.3,0.4,0.03
442,0.02024539877300613,0.050000000000000044,0.0,-0.3,-0.1,-0.008
443,0.028131416837782308,0.10000000000000009,-0.25,-0.3,-0.1,-0.014
444,0.0038854805725970776,-0.033333333333333326,0.25,-0.3,-0.1,0.006
445,-0.008829568788501052,-0.44999999999999996,-0.5,0.033333333333333326,0.2333333333333333,0.026
446,-0.0072874493927125306,-0.7,-0.5,0.2,-0.1,0.016
447,-0.003950103950103978,0.1461538461538462,0.0,-0.3,-0.1,0.014
448,-0.008606557377049184,-0.44999999999999996,0.25,0.033333333333333326,-0.1,0.02
449,-0.0384928716904277,-0.36666666666666664,0.0,-0.3,-0.1,0.05
450,-0.011344537815126121,0.014285714285714346,0.2272727272727273,0.033333333333333326,0.2333333333333333,0.024
451,0.007407407407407418,0.07777777777777783,-0.16666666666666669,-0.3,-0.1,0.002
452,0.0,-0.033333333333333326,-0.5,-0.3,-0.1,0.01
453,-0.5666666666666667,0.006860706860706944,0.13636363636363635,0.033333333333333326,-0.1,0.202
454,-0.0026694045174537884,-0.19999999999999996,0.0,0.36666666666666664,-0.1,0.012
455,0.00871369294605806,0.15714285714285714,0.09999999999999998,-0.3,-0.1,0.006
456,0.0046653144016226555,-0.033333333333333326,-0.5,-0.3,-0.1,0.004
457,0.003292181069958877,-0.19999999999999996,-0.25,-0.09999999999999998,-0.1,0.014
458,0.016666666666666607,0.007317073170731714,-0.5,0.2,0.15,0.03
459,-0.015151515151515138,-0.7,-0.5,-0.3,-0.1,0.024
460,0.0036885245901638886,-0.36666666666666664,0.0,-0.3,-0.1,0.01
461,0.012423625254582515,-0.033333333333333326,-0.5,0.2,-0.1,-0.004
462,-0.004294478527607337,-0.36666666666666664,0.0,0.033333333333333326,-0.1,0.018
463,-0.007894736842105288,-0.007017543859649034,-0.16666666666666669,-0.3,-0.1,0.062
464,0.03265306122448974,-0.19999999999999996,0.25,-0.3,0.4,-0.024
465,0.0079229122055674,-0.09999999999999998,-0.5,0.45,-0.1,0.016
466,0.0020408163265306367,0.014285714285714346,-0.5,-0.3,-0.1,0.006
467,0.005544147843942526,-0.36666666666666664,0.09999999999999998,0.2,-0.1,0.008
468,0.010569105691056846,-0.7,0.0,-0.3,-0.1,0.002
469,-0.03552361396303905,-0.36666666666666664,0.0,0.033333333333333326,-0.1,0.05
470,-0.0032388663967611864,-0.36666666666666664,-0.5,-0.3,-0.1,0.012
471,-0.02448979591836742,-0.19999999999999996,0.0,-0.3,0.1,0.036
472,0.008616187989556101,0.027272727272727337,-0.5,0.36666666666666664,-0.1,0.04
473,0.0008097165991902688,-0.36666666666666664,-0.5,-0.3,-0.1,0.008
474,-0.0028806584362139898,-0.7,0.2777777777777778,-0.3,-0.1,0.014
475,-0.019096509240246418,-0.36666666666666664,0.25,0.3,-0.1,0.028
476,0.01304347826086949,0.13333333333333341,-0.5,0.033333333333333326,-0.1,-0.004
477,0.005982905982905962,0.10769230769230775,-0.16666666666666669,0.2,-0.1,0.006
478,0.012065439672801603,-0.19999999999999996,0.33333333333333337,-0.3,0.4,-0.006
479,-0.4,0.007983193277311007,-0.5,0.17058823529411765,-0.1,0.206
480,0.01239316239316235,-0.24545454545454543,0.0,-0.3,0.4,0.018
481,0.005154639175257714,-0.12857142857142856,-0.16666666666666669,0.36666666666666664,-0.1,0.008
482,-0.01178861788617891,-0.19999999999999996,0.0,-0.3,-0.1,0.022
483,-0.017525773195876337,0.10000000000000009,0.0,-0.3,-0.1,0.026
484,-0.002941176470588225,0.08571428571428574,0.09999999999999998,-0.3,-0.1,0.018
485,0.0008264462809917106,-0.19999999999999996,-0.25,0.36666666666666664,0.2333333333333333,0.014
486,-0.4,0.00993914807302232,-0.5,0.033333333333333326,-0.1,0.196
487,0.020081967213114726,-0.033333333333333326,0.0,-0.3,-0.1,-0.006
488,0.0057377049180327155,-0.19999999999999996,-0.09999999999999998,0.2,-0.1,0.006
489,0.028425357873210655,0.13333333333333341,-0.5,-0.3,-0.1,-0.018
490,0.010204081632653073,-0.7,-0.16666666666666669,-0.3,-0.1,0.006
491,-0.008829568788501052,0.050000000000000044,0.0,-0.3,-0.1,0.018
492,-0.03953488372093028,-0.001339285714285654,-0.16666666666666669,0.033333333333333326,0.2333333333333333,0.194
493,0.00020366598777998846,0.050000000000000044,-0.5,-0.3,0.4,0.008
494,-0.01178861788617891,-0.7,0.0,0.2,-0.1,0.022
495,-0.005154639175257714,-0.19999999999999996,0.0,-0.3,0.2333333333333333,0.02
496,0.014634146341463428,-0.7,-0.5,-0.04999999999999999,0.4,-0.004
497,-0.008108108108108136,0.014285714285714346,-0.3,-0.3,0.2333333333333333,0.028
498,-0.02655601659751039,0.050000000000000044,0.09999999999999998,-0.3,-0.1,0.04
499,0.0009216589861751334,-0.7,0.06666666666666665,0.2,-0.1,0.046
500,-0.009504132231405005,-0.033333333333333326,0.25,-0.04999999999999999,-0.1,0.02
501,-0.4,-0.005010893246187309,0.045454545454545414,-0.3,-0.1,0.222
502,0.00983606557377048,0.13333333333333341,0.16666666666666663,0.2,-0.1,-0.004
503,0.008163265306122436,-0.7,0.0,0.5,-0.1,-0.0
504,-0.9,0.014867617107943043,-0.5,-0.3,0.15,0.196
505,-0.30000000000000004,0.02301425661914469,-0.5,-0.3,-0.1,0.184
506,0.007407407407407418,-0.19999999999999996,0.09999999999999998,-0.3,-0.1,0.008
507,-0.026881720430107503,0.11818181818181828,0.0714285714285714,0.2,0.4,0.038
508,-0.0014198782961460932,-0.19999999999999996,0.0,-0.3,-0.1,0.01
509,-0.01991869918699185,-0.033333333333333326,0.16666666666666663,-0.3,-0.1,0.026
510,-0.016788321167883202,-0.19999999999999996,0.06944444444444442,0.2,-0.1,0.076
511,-0.02989690721649485,-0.32499999999999996,-0.5,-0.3,-0.1,0.05
512,0.010204081632653073,-0.09999999999999998,-0.5,-0.3,0.2333333333333333,-0.0
513,-0.0028806584362139898,-0.36666666666666664,-0.25,0.3,-0.1,0.018
514,-0.0014198782961460932,-0.19999999999999996,0.0,-0.3,-0.1,0.01
515,0.00952380952380949,-0.061111111111111116,-0.16666666666666669,-0.3,-0.1,0.042
516,-0.3285714285714286,-0.024380165289256128,-0.16666666666666669,0.10000000000000003,-0.1,0.232
517,-0.0045296167247387276,-0.28333333333333327,-0.02105263157894738,0.14444444444444443,-0.1,0.186
518,0.009650924024640628,-0.09999999999999998,0.0,0.033333333333333326,0.2333333333333333,0.002
519,0.022131147540983553,-0.19999999999999996,-0.5,0.033333333333333326,-0.1,-0.006
520,-0.30000000000000004,0.00502092050209213,0.0,-0.3,0.2333333333333333,0.208
521,-0.4,0.04897119341563794,-0.16666666666666669,0.10000000000000003,-0.1,0.162
522,0.02893401015228425,-0.033333333333333326,-0.5,0.2,-0.1,0.03
523,0.016835699797160264,-0.7,-0.16666666666666669,-0.3,-0.1,-0.006
524,-0.022448979591836782,-0.033333333333333326,0.0,-0.3,-0.1,0.03
525,0.035400516795865644,-0.042592592592592515,-0.5,-0.3,-0.1,0.034
526,-0.007382550335570448,-0.040909090909090895,0.16666666666666663,-0.3,-0.1,0.036
527,0.003225806451612856,0.03809523809523818,-0.5,0.033333333333333326,-0.1,0.122
528,-0.009504132231405005,-0.19999999999999996,0.16666666666666663,0.36666666666666664,-0.1,0.022
529,0.012244897959183598,-0.19999999999999996,0.0,0.2,-0.1,-0.002
530,0.01632653061224487,-0.7,0.09999999999999998,-0.3,-0.1,-0.004
531,-0.015702479338842945,0.014285714285714346,0.16666666666666663,0.033333333333333326,0.2333333333333333,0.026
532,-0.024236252545824843,0.050000000000000044,0.16666666666666663,-0.3,-0.1,0.03
533,-0.003658536585365857,-0.033333333333333326,0.0,-0.3,-0.1,0.012
534,0.015322580645161232,-0.7,-0.5,-0.3,-0.1,-0.008
535,-0.008163265306122436,-0.033333333333333326,0.16666666666666663,0.2,-0.1,0.016
536,0.0024390243902439046,-0.7,0.0,0.033333333333333326,-0.1,0.008
537,-0.0004098360655737654,-0.19999999999999996,0.16666666666666663,-0.3,-0.1,0.012
538,0.003092783505154628,0.014285714285714346,-0.5,-0.04999999999999999,-0.1,0.012
539,0.0016393442622950616,-0.49999999999999994,0.16666666666666663,-0.3,-0.1,0.014
540,-0.01178861788617891,-0.36666666666666664,-0.5,-0.3,0.4,0.022
541,-0.009504132231405005,0.050000000000000044,0.09999999999999998,-0.3,-0.1,0.02
542,0.027835051546391765,0.050000000000000044,0.0,-0.3,-0.1,-0.016
543,0.008685968819599044,0.050000000000000044,0.16666666666666663,-0.3,0.15,0.014
544,-0.0026694045174537884,0.07777777777777783,0.0,-0.3,-0.1,0.01
545,-0.02320328542094463,0.014285714285714346,-0.5,-0.3,-0.1,0.036
546,-0.013168724279835398,-0.7,0.16666666666666663,-0.3,-0.1,0.03
547,-0.004938271604938316,-0.033333333333333326,0.0,0.45,0.4,0.012
548,0.004365904365904338,0.1461538461538462,-0.5,-0.3,-0.1,0.008
549,-0.00794297352342166,-0.7,0.0,0.033333333333333326,-0.1,0.018
550,0.007597535934291577,-0.19999999999999996,0.0,-0.3,0.15,0.008
551,-0.00612244897959191,-0.7,0.30000000000000004,-0.3,-0.1,0.016
552,0.020408163265306145,-0.033333333333333326,0.0,0.36666666666666664,-0.1,-0.012
553,0.010386965376782076,-0.033333333333333326,-0.5,-0.3,0.4,-0.0
554,0.01041666666666663,0.08571428571428574,-0.5,-0.3,-0.1,0.004
555,-0.016033755274261652,0.15714285714285714,-0.5,-0.3,-0.1,0.026
556,-0.006339468302658524,0.10000000000000009,0.0,0.2,-0.1,0.014
557,-0.011340206185567081,-0.09999999999999998,0.0,-0.3,-0.1,0.024
558,0.01983122362869194,-0.1499999999999999,0.0,0.2,0.4,-0.0
559,-0.02320328542094463,-0.7,-0.5,0.3,-0.1,0.04
560,-0.0083844580777096,-0.033333333333333326,-0.25,-0.3,-0.1,0.022
561,-0.01983471074380172,0.050000000000000044,-0.16666666666666669,0.2,-0.1,0.03
562,0.0004149377593360981,-0.7,-0.16666666666666669,-0.3,-0.1,0.024
563,-0.0052631578947368585,-0.7,-0.5,-0.3,-0.1,0.016
564,-0.001626016260162677,-0.7,0.0,0.2,-0.1,0.01
565,-0.0024590163934425924,-0.19999999999999996,-0.5,-0.3,-0.1,0.018
566,0.019421487603305754,0.027272727272727337,0.0,0.2,-0.1,-0.01
567,0.010020449897750527,-0.36666666666666664,0.0,0.2,-0.1,0.002
568,-0.08461538461538465,-0.7,0.009302325581395321,-0.3,-0.1,0.356
569,0.008350305498981636,-0.7,0.0,0.45,-0.1,-0.0
570,-0.009053497942386857,0.014285714285714346,-0.5,0.033333333333333326,-0.1,0.022
571,0.00663900414937757,0.050000000000000044,0.2272727272727273,0.2,-0.1,0.002
572,0.009465020576131633,0.014285714285714346,0.16666666666666663,-0.3,0.2333333333333333,-0.0
573,-0.007505070993914842,-0.7,-0.5,0.033333333333333326,-0.1,0.018
574,-0.010429447852760787,-0.7,-0.16666666666666669,0.2,-0.1,0.024
575,-0.018609406952965313,-0.09999999999999998,0.0,0.2,-0.1,0.028
576,0.0038854805725970776,0.014285714285714346,-0.5,-0.3,-0.1,0.006
577,-0.05476190476190479,-0.36666666666666664,-0.006249999999999978,-0.04999999999999999,-0.1,0.294
578,-0.007505070993914842,-0.7,-0.5,-0.3,-0.1,0.02
579,0.004276985743380868,-0.7,-0.5,0.45,-0.1,0.006
580,0.0038854805725970776,0.014285714285714346,0.0,-0.3,-0.1,0.004
581,-0.009979633401221988,-0.19999999999999996,0.0,-0.3,-0.1,0.02
582,-0.004166666666666652,0.10000000000000009,0.0,0.033333333333333326,-0.1,0.016
583,0.0008264462809917106,0.050000000000000044,0.16666666666666663,0.2,0.4,0.008
584,-0.0014492753623188692,-0.09999999999999998,-0.09999999999999998,0.2,0.2333333333333333,0.016
585,-0.00794297352342166,-0.19999999999999996,-0.16666666666666669,-0.3,-0.1,0.018
586,0.029606625258799202,0.10000000000000009,0.16666666666666663,-0.3,-0.1,-0.018
587,0.017355371900826477,-0.07499999999999996,-0.5,-0.13333333333333333,-0.1,-0.0
588,-0.0196581196581197,0.027272727272727337,0.0,0.2,-0.1,0.038
589,0.0016393442622950616,-0.19999999999999996,0.16666666666666663,0.2,0.2333333333333333,0.008
590,-0.003519668737060111,-0.19999999999999996,0.09999999999999998,0.033333333333333326,0.4,0.016
591,0.017695473251028826,0.050000000000000044,-0.16666666666666669,-0.3,-0.1,-0.006
592,-0.01585365853658538,-0.36666666666666664,-0.5,-0.3,-0.1,0.028
593,0.024335378323108392,-0.19999999999999996,0.0,0.2,-0.1,-0.012
594,-0.9,-0.02857142857142858,-0.16666666666666669,0.033333333333333326,-0.1,0.238
595,-0.01885245901639343,-0.033333333333333326,-0.5,0.033333333333333326,-0.1,0.03
596,0.014460285132382844,0.050000000000000044,-0.5,-0.3,-0.1,-0.004
597,0.0006342494714587366,0.10000000000000009,0.0,0.2,-0.1,0.01
598,0.0077868852459016535,-0.19999999999999996,-0.16666666666666669,-0.3,0.1,0.008
599,0.0012345679012345512,-0.7,0.30000000000000004,-0.3,-0.1,0.008
600,-0.006249999999999978,0.06923076923076932,-0.16666666666666669,-0.3,-0.1,0.02
601,0.0038854805725970776,-0.033333333333333326,-0.16666666666666669,-0.3,-0.1,0.01
602,-0.02765957446808509,-0.033333333333333326,-0.16666666666666669,-0.3,-0.1,0.064
603,0.021113689095127564,-0.050877192982456076,-0.07142857142857145,-0.04999999999999999,-0.1,0.024
604,0.009535452322738336,-0.36666666666666664,0.030120481927710885,-0.3,-0.1,0.066
605,0.0024390243902439046,-0.033333333333333326,-0.5,0.2,-0.1,0.006
606,-0.275,0.0064989517819706855,0.125,-0.3,0.30000000000000004,0.202
607,-0.00588235294117645,0.05757575757575761,0.0,0.033333333333333326,-0.1,0.034
608,0.011157024793388426,0.07777777777777783,-0.25,0.2,-0.1,-0.0
609,0.02066805845511477,0.10000000000000009,0.25,0.36666666666666664,-0.1,-0.008
610,-0.006557377049180357,-0.7,-0.09999999999999998,0.033333333333333326,-0.1,0.022
611,0.010569105691056846,-0.7,-0.16666666666666669,0.2,0.4,-0.002
612,0.0010101010101010166,-0.7,-0.5,-0.3,-0.1,0.008
613,0.0057377049180327155,-0.19999999999999996,0.09999999999999998,0.2,-0.1,0.004
614,-0.03552361396303905,-0.09999999999999998,0.09999999999999998,-0.3,-0.1,0.046
615,0.022290388548057205,0.014285714285714346,-0.5,0.2,-0.1,-0.014
616,0.006249999999999978,0.014285714285714346,0.2777777777777778,0.033333333333333326,-0.1,0.004
617,0.02768595041322308,0.014285714285714346,-0.5,0.2,-0.1,-0.012
618,0.006313645621181196,-0.7,0.16666666666666663,0.2,0.4,0.002
619,-0.01728395061728394,-0.36666666666666664,-0.16666666666666669,-0.3,-0.1,0.038
620,0.011704312114989679,-0.033333333333333326,0.16666666666666663,0.033333333333333326,-0.1,-0.0
621,0.014460285132382844,-0.36666666666666664,-0.5,0.2,-0.1,-0.004
622,0.0,-0.010880829015543991,0.16666666666666663,-0.04999999999999999,-0.1,0.18
623,0.0024896265560165887,0.11818181818181828,0.0,0.36666666666666664,-0.1,0.006
624,0.0059080962800874826,0.005882352941176561,0.0,0.2,-0.1,0.016
625,0.012317327766179553,-0.7,0.0714285714285714,0.3,-0.1,0.004
626,0.032773109243697474,0.14210526315789473,0.16666666666666663,-0.3,-0.1,-0.024
627,0.022920892494929013,-0.033333333333333326,-0.5,-0.3,-0.1,-0.014
628,-0.006995884773662531,-0.19999999999999996,0.16666666666666663,0.2,-0.1,0.022
629,-0.01991869918699185,-0.7,-0.5,-0.04999999999999999,-0.1,0.032
630,0.007597535934291577,-0.7,0.09999999999999998,-0.3,-0.1,0.01
631,-0.013402061855670167,-0.36666666666666664,0.2142857142857143,0.2,0.2333333333333333,0.024
632,0.0010309278350515427,-0.36666666666666664,-0.09999999999999998,0.2,-0.1,0.014
633,0.006693711967545646,-0.19999999999999996,0.0,-0.3,-0.1,0.002
634,-0.023620309050772614,-0.004347826086956497,0.11904761904761907,-0.3,-0.1,0.048
635,0.014979757085020196,-0.7,0.0,-0.3,-0.1,-0.006
636,-0.0006423982869379063,-0.19999999999999996,0.0,0.2,-0.1,0.028
637,0.003669724770642202,-0.3363636363636363,-0.04545454545454547,0.07500000000000001,-0.1,0.062
638,-0.004081632653061273,-0.36666666666666664,0.09999999999999998,-0.3,-0.1,0.014
639,0.0010695187165775666,-0.36666666666666664,-0.038461538461538436,0.05294117647058827,-0.1,0.116
640,0.0010309278350515427,0.07777777777777783,-0.5,-0.3,0.2333333333333333,0.01
641,0.0014373716632443134,-0.19999999999999996,-0.5,0.36666666666666664,0.4,0.01
642,0.004761904761904745,-0.033333333333333326,0.0,0.10000000000000003,-0.1,0.01
643,0.0026915113871635032,0.06923076923076932,-0.5,-0.3,-0.1,0.008
644,-0.0018329938900203402,-0.7,-0.5,0.2,-0.1,0.016
645,0.006313645621181196,0.050000000000000044,-0.5,-0.3,-0.1,0.004
646,-0.01864406779661021,-0.19999999999999996,0.0,-0.3,-0.1,0.042
647,0.01304347826086949,-0.033333333333333326,0.02083333333333337,0.14444444444444443,-0.1,0.04
648,0.004858299595141724,-0.7,-0.5,-0.3,0.4,0.004
649,-0.013333333333333308,0.15294117647058825,0.31818181818181823,-0.3,-0.1,0.026
650,0.0,-0.05714285714285705,0.16666666666666663,-0.3,-0.1,0.014
651,-0.010204081632653073,-0.19999999999999996,0.0,-0.3,-0.1,0.022
652,0.0049586776859503745,0.10000000000000009,0.25,0.3,-0.1,0.004
653,0.008045977011494232,0.045762711864406835,-0.5,-0.3,0.2333333333333333,0.02
654,-0.014754098360655776,-0.7,0.0,-0.3,0.2333333333333333,0.028
655,-0.018143459915611837,0.14210526315789473,0.16666666666666663,-0.3,-0.1,0.028
656,0.004347826086956497,0.12758620689655176,0.25,0.36666666666666664,-0.1,0.006
657,-0.00386965376782078,-0.19999999999999996,0.09999999999999998,-0.3,-0.1,0.012
658,-0.015702479338842945,-0.033333333333333326,0.0,-0.3,0.15,0.03
659,-0.015226337448559724,0.014285714285714346,-0.5,-0.3,0.4,0.028
660,-0.0029810298102981303,0.008661417322834652,-0.5,-0.3,-0.1,0.058
661,-0.02033195020746892,-0.19999999999999996,0.2142857142857143,-0.04999999999999999,0.2333333333333333,0.034
662,-0.015702479338842945,-0.19999999999999996,0.0714285714285714,0.2,-0.1,0.028
663,-0.0018329938900203402,0.050000000000000044,0.0,0.2,-0.1,0.008
664,-0.015226337448559724,0.13333333333333341,-0.16666666666666669,-0.3,0.2333333333333333,0.026
665,0.022131147540983553,-0.033333333333333326,0.16666666666666663,-0.3,-0.1,-0.012
666,-0.027572016460905346,0.07777777777777783,-0.5,-0.3,-0.1,0.038
667,0.012244897959183598,-0.19999999999999996,0.16666666666666663,0.2,-0.1,-0.002
668,0.022290388548057205,0.10000000000000009,-0.5,0.2,-0.1,-0.012
669,0.015983606557377072,-0.29999999999999993,0.0,-0.3,-0.1,-0.002
670,-0.0261682242990654,-0.033333333333333326,0.0,-0.3,-0.1,0.064
671,-0.005476673427991963,-0.19999999999999996,-0.5,0.2,-0.1,0.014
672,0.0016393442622950616,0.014285714285714346,-0.5,0.2,-0.1,0.008
673,0.0071729957805907185,-0.033333333333333326,0.25,0.2,-0.1,0.004
674,0.017012448132780023,0.050000000000000044,0.25,-0.13333333333333333,-0.1,0.002
675,-0.011111111111111183,0.014285714285714346,0.0,0.2,-0.1,0.026
676,0.012065439672801603,-0.033333333333333326,0.16666666666666663,0.45,-0.1,-0.006
677,0.0016393442622950616,-0.7,0.0,0.10000000000000003,-0.1,0.014
678,0.01528925619834709,0.050000000000000044,0.25,-0.3,0.4,-0.006
679,0.00797546012269934,-0.19999999999999996,-0.16666666666666669,-0.3,-0.1,0.006
680,-0.9,-0.027902240325865524,-0.16666666666666669,-0.3,-0.1,0.238
681,0.0024390243902439046,-0.033333333333333326,0.0,-0.3,-0.1,0.006
682,-0.0016597510373443924,-0.09999999999999998,0.0,-0.3,-0.1,0.018
683,-0.015124153498871307,-0.19999999999999996,-0.5,-0.020930232558139528,0.024999999999999994,0.086
684,-0.00472279260780295,-0.033333333333333326,0.0714285714285714,-0.3,-0.1,0.016
685,-0.011111111111111183,-0.19999999999999996,0.16666666666666663,0.2,0.4,0.02
686,-0.006339468302658524,-0.19999999999999996,-0.5,0.36666666666666664,-0.1,0.018
687,0.0026369168356997763,-0.7,-0.5,-0.3,-0.1,0.01
688,-0.012288135593220395,0.08947368421052637,0.0,-0.3,-0.1,0.028
689,-0.019341563786008265,-0.44999999999999996,0.16666666666666663,-0.3,-0.1,0.034
690,0.0036885245901638886,-0.19999999999999996,0.16666666666666663,0.36666666666666664,0.15,0.006
691,-0.004081632653061273,-0.033333333333333326,0.16666666666666663,-0.3,0.2333333333333333,0.012
692,0.0287169042769857,-0.7,0.25,0.2,-0.1,-0.02
693,-0.0006160164271047375,0.10000000000000009,0.16666666666666663,-0.04999999999999999,-0.1,0.01
694,-0.0022494887525562612,-0.09999999999999998,0.16666666666666663,0.2,-0.1,0.01
695,0.0016393442622950616,-0.033333333333333326,-0.3,-0.3,0.2333333333333333,0.012
696,0.0018404907975460016,-0.09999999999999998,-0.5,-0.3,-0.1,0.012
697,0.009650924024640628,-0.033333333333333326,0.0,0.033333333333333326,-0.1,0.002
698,0.01411042944785279,-0.7,0.25,-0.04999999999999999,0.4,-0.004
699,0.006054279749478031,0.11818181818181828,0.16666666666666663,0.3,-0.1,0.004
700,0.006504065040650375,0.10000000000000009,-0.5,-0.3,-0.1,-0.0
701,0.0071729957805907185,0.11250000000000004,-0.16666666666666669,0.2,-0.1,0.008
702,-0.015384615384615441,-0.7,-0.5,-0.3,-0.1,0.026
703,0.007597535934291577,-0.09999999999999998,0.0,-0.3,-0.1,0.006
704,-0.012903225806451646,-0.05714285714285705,-0.5,-0.13333333333333333,-0.1,0.056
705,-0.006995884773662531,0.07777777777777783,-0.16666666666666669,-0.3,-0.1,0.016
706,-0.00612244897959191,-0.09999999999999998,0.0,-0.3,0.4,0.014
707,0.012244897959183598,-0.7,0.0,0.2,-0.1,-0.0
708,0.0008264462809917106,0.10000000000000009,0.2142857142857143,-0.3,-0.1,0.01
709,-0.005603448275862122,-0.19999999999999996,0.048387096774193505,-0.3,-0.1,0.034
710,-0.015720524017467263,-0.007692307692307665,0.19999999999999996,0.2,-0.1,0.036
711,0.004382470119521864,0.008333333333333415,-0.16666666666666669,0.2,-0.1,0.1
712,0.013223140495867702,-0.033333333333333326,0.0,-0.3,0.30000000000000004,0.004
713,0.007597535934291577,-0.19999999999999996,0.05555555555555558,-0.3,-0.1,0.004
714,0.024024640657084206,-0.033333333333333326,0.0,0.3,0.2333333333333333,-0.014
715,0.01836734693877551,-0.19999999999999996,0.0,-0.3,0.4,-0.008
716,0.012681912681912655,0.11818181818181828,0.16666666666666663,-0.3,0.2333333333333333,-0.002
717,0.018864097363083143,-0.033333333333333326,0.0,-0.3,-0.1,-0.012
718,0.011578947368421022,-0.07499999999999996,0.25,-0.3,-0.1,0.008
719,-0.006557377049180357,-0.19999999999999996,0.0,0.45,-0.1,0.016
720,-0.012033195020746956,-0.09999999999999998,0.2777777777777778,-0.3,-0.1,0.024
721,0.015789473684210464,0.15714285714285714,0.2142857142857143,0.2,-0.1,-0.006
722,0.022920892494929013,-0.7,-0.16666666666666669,0.2,-0.1,-0.014
723,0.046428571428571375,0.029977116704805518,-0.5,-0.3,-0.1,0.156
724,-0.9,-0.0015873015873015817,-0.0641025641025641,-0.3,-0.1,0.27
725,-0.012526539278131632,0.10000000000000009,-0.5,0.3,-0.1,0.026
726,0.021971252566735044,0.050000000000000044,0.16666666666666663,0.2,-0.1,-0.014
727,-0.01728395061728394,-0.7,0.0,0.3,0.15,0.03
728,-0.30000000000000004,0.021881390593047056,0.0,-0.3,-0.1,0.184
729,0.009650924024640628,-0.09999999999999998,0.0,-0.04999999999999999,-0.1,0.004
730,0.0010309278350515427,-0.19999999999999996,0.0,0.36666666666666664,-0.1,0.012
731,0.008722109533468525,-0.19999999999999996,-0.16666666666666669,-0.3,-0.1,-0.0
732,0.0077868852459016535,-0.19999999999999996,0.2142857142857143,0.2,-0.1,-0.0
733,0.0018789144050104234,0.1461538461538462,0.0,0.45,-0.1,0.006
734,-0.015501519756838888,-0.012883435582822012,-0.5,0.033333333333333326,-0.1,0.092
735,-0.005691056910569148,-0.7,0.16666666666666663,0.2,-0.1,0.014
736,0.02099792099792097,0.10000000000000009,-0.5,0.3,-0.1,-0.008
737,-0.017408906882591113,-0.7,-0.5,-0.3,-0.1,0.028
738,0.0008097165991902688,-0.19999999999999996,-0.5,-0.3,-0.1,0.008
739,-0.009979633401221988,-0.19999999999999996,0.0,0.2,-0.1,0.018
740,-0.03513513513513511,-0.029519450800915337,0.050000000000000044,-0.3,0.15,0.226
741,0.015811088295687892,-0.033333333333333326,-0.16666666666666669,0.2,-0.1,-0.002
742,0.03660531697341507,-0.19999999999999996,-0.3,0.033333333333333326,-0.1,-0.022
743,-0.0034482758620689724,-0.006451612903225712,-0.5,-0.3,-0.1,0.034
744,0.022290388548057205,-0.19999999999999996,-0.5,0.2,-0.1,-0.008
745,-0.004294478527607337,-0.033333333333333326,0.16666666666666663,0.2,-0.1,0.012
746,0.0077568134171907,0.13333333333333341,0.2142857142857143,-0.3,-0.1,0.004
747,0.006313645621181196,-0.19999999999999996,0.0,0.2,0.2333333333333333,0.002
748,0.004471544715447084,-0.7,0.0,0.2,-0.1,0.004
749,-0.001239669421487677,-0.19999999999999996,0.25,-0.3,0.1,0.014
750,-0.011111111111111183,0.10000000000000009,-0.5,0.2,-0.1,0.018
751,0.00020366598777998846,-0.7,-0.5,0.2,-0.1,0.012
752,0.007597535934291577,0.014285714285714346,0.0,-0.3,-0.1,0.004
753,0.018533604887983723,-0.09999999999999998,-0.5,-0.3,-0.1,-0.008
754,0.016666666666666607,0.040492170022371377,-0.013513513513513487,-0.3,-0.1,0.18
755,-0.003519668737060111,0.07777777777777783,0.30000000000000004,0.2,-0.1,0.01
756,0.009090909090909038,-0.04597156398104263,0.0714285714285714,-0.3,-0.1,0.22
757,-0.00472279260780295,-0.36666666666666664,0.0,0.2,0.15,0.018
758,-0.0014492753623188692,-0.033333333333333326,0.25,0.2,-0.1,0.012
759,-0.02473572938689217,0.08571428571428574,0.16666666666666663,0.36666666666666664,-0.1,0.034
760,-0.0004098360655737654,-0.033333333333333326,-0.5,-0.3,-0.1,0.014
761,-0.01855670103092788,-0.026923076923076827,0.0,-0.09999999999999998,-0.1,0.072
762,-0.015555555555555545,0.08571428571428574,0.0,-0.3,-0.1,0.034
763,-0.014754098360655776,-0.7,0.2142857142857143,-0.3,-0.1,0.026
764,-0.01788617886178867,-0.7,0.25,-0.3,-0.1,0.026
765,0.005154639175257714,0.07777777777777783,-0.5,0.36666666666666664,-0.1,0.004
766,0.008523908523908497,-0.033333333333333326,0.0,0.5,0.2333333333333333,0.002
767,0.0016393442622950616,-0.033333333333333326,-0.5,0.12857142857142856,-0.1,0.01
768,-0.0052631578947368585,-0.19999999999999996,0.0,-0.3,-0.1,0.012
769,-0.004384133611691099,-0.11666666666666659,0.16666666666666663,-0.3,0.30000000000000004,0.02
770,0.00020366598777998846,-0.19999999999999996,0.0,-0.3,0.2333333333333333,0.01
771,0.006313645621181196,-0.19999999999999996,0.0,-0.3,0.4,0.004
772,0.003092783505154628,-0.033333333333333326,0.25,0.033333333333333326,-0.1,0.008
773,0.03442622950819674,-0.033333333333333326,-0.16666666666666669,0.2,-0.1,-0.024
774,-0.9,-0.019105691056910512,0.0,-0.3,-0.1,0.226
775,0.0057377049180327155,0.050000000000000044,0.16666666666666663,-0.3,-0.1,0.002
776,-0.037860082304526754,0.0,-0.5,-0.3,-0.1,0.048
777,-0.010204081632653073,0.050000000000000044,0.0,0.2,-0.1,0.018
778,0.016155419222903866,-0.12857142857142856,-0.5,-0.3,-0.1,-0.004
779,-0.016424116424116453,0.13333333333333341,-0.5,0.2,-0.1,0.028
780,0.002240325865580428,-0.19999999999999996,-0.5,0.36666666666666664,-0.1,0.008
781,0.011885245901639307,-0.033333333333333326,0.0,-0.3,-0.1,-0.002
782,0.017864476386036943,-0.19999999999999996,0.2777777777777778,-0.3,-0.1,-0.01
783,-0.011111111111111183,0.13333333333333341,0.0,0.3,-0.1,0.022
784,-0.0004098360655737654,-0.36666666666666664,0.09999999999999998,-0.3,-0.1,0.014
785,-0.00386965376782078,-0.19999999999999996,-0.5,0.2,-0.1,0.016
786,0.020892494929006022,-0.7,-0.16666666666666669,0.2,-0.1,-0.012
787,-0.006557377049180357,0.050000000000000044,-0.25,0.2,-0.1,0.018
788,0.008333333333333304,0.033333333333333326,0.0,-0.3,-0.1,0.004
789,-0.009979633401221988,-0.19999999999999996,-0.16666666666666669,-0.3,0.2333333333333333,0.02
790,-0.0083844580777096,-0.033333333333333326,-0.16666666666666669,0.2,-0.1,0.02
791,-0.02715517241379317,-0.36666666666666664,0.18181818181818177,0.033333333333333326,0.4,0.048
792,-0.01359026369168359,-0.7,-0.5,-0.3,-0.1,0.026
793,-0.0008583690987125081,0.13333333333333341,0.16666666666666663,-0.3,-0.1,0.014
794,-0.01016949152542379,0.10952380952380958,-0.5,-0.3,-0.1,0.026
795,-0.028364389233954457,-0.19999999999999996,0.25,0.2,-0.1,0.04
796,-0.0034482758620689724,0.008333333333333415,0.16666666666666663,0.2,-0.1,0.022
797,0.00663900414937757,0.11818181818181828,-0.16666666666666669,0.2,-0.1,0.004
798,0.010386965376782076,-0.36666666666666664,-0.5,-0.3,-0.1,0.004
799,-0.005691056910569148,-0.19999999999999996,-0.5,-0.3,-0.1,0.018
800,-0.00386965376782078,-0.19999999999999996,-0.5,0.2,0.4,0.012
801,0.00663900414937757,-0.7,0.25,0.033333333333333326,-0.1,0.01
802,0.011885245901639307,-0.033333333333333326,0.16666666666666663,-0.3,-0.1,-0.002
803,0.0010309278350515427,-0.19999999999999996,0.0,0.36666666666666664,-0.1,0.012
804,-0.0052631578947368585,-0.05294117647058816,0.16666666666666663,-0.3,0.4,0.02
805,0.0034907597535933643,-0.09999999999999998,0.0,-0.3,-0.1,0.01
806,-0.014754098360655776,-0.19999999999999996,0.0,-0.3,-0.1,0.03
807,-0.003658536585365857,-0.19999999999999996,0.0,-0.3,-0.1,0.012
808,0.007407407407407418,0.014285714285714346,-0.5,-0.3,-0.1,0.008
809,-0.0002044989775051853,-0.09999999999999998,0.0,-0.3,-0.1,0.012
810,-0.002083333333333326,-0.05714285714285705,0.0,-0.3,-0.1,0.016
811,-0.012474437627811863,-0.19999999999999996,-0.16666666666666669,0.033333333333333326,-0.1,0.026
812,0.002240325865580428,-0.36666666666666664,0.0,-0.3,-0.1,0.01
813,0.0004149377593360981,-0.07499999999999996,0.0,0.36666666666666664,-0.1,0.014
814,-0.00794297352342166,-0.7,0.16666666666666663,0.033333333333333326,0.4,0.016
815,0.0014675052410900724,-0.19999999999999996,0.0,0.12857142857142856,-0.1,0.02
816,-0.013402061855670167,0.050000000000000044,0.16666666666666663,-0.3,-0.1,0.024
817,-0.010655737704918011,-0.7,0.0,0.033333333333333326,-0.1,0.026
818,0.002240325865580428,-0.7,0.25,0.033333333333333326,-0.1,0.006
819,-0.01632653061224487,0.10000000000000009,0.0,-0.3,-0.1,0.024
820,-0.007981220657277022,-0.02608695652173909,0.0,-0.04999999999999999,-0.1,0.142
821,0.004471544715447084,-0.19999999999999996,-0.5,0.2,-0.1,0.004
822,-0.0034482758620689724,-0.19999999999999996,0.0,0.2,-0.1,0.01
823,0.012601626016260137,0.050000000000000044,-0.5,-0.3,0.4,-0.006
824,0.025925925925925908,-0.0024193548387095865,-0.16666666666666669,0.2,-0.1,0.1
825,-0.002783725910064261,0.08571428571428574,-0.5,-0.3,-0.1,0.018
826,0.024489795918367308,-0.09999999999999998,0.0,-0.3,-0.1,-0.014
827,-0.03934426229508203,-0.033333333333333326,-0.16666666666666669,0.033333333333333326,0.2333333333333333,0.05
828,0.0036885245901638886,-0.09999999999999998,-0.5,-0.04999999999999999,-0.1,0.01
829,-0.008829568788501052,0.050000000000000044,0.0,-0.3,-0.1,0.018
830,-0.5666666666666667,0.013498622589531717,0.020325203252032575,-0.01428571428571429,0.15,0.246
831,0.002240325865580428,-0.033333333333333326,-0.5,-0.3,0.4,0.006
832,-0.0033057851239669533,0.050000000000000044,0.0,-0.3,-0.1,0.018
833,-0.001626016260162677,-0.7,0.09999999999999998,-0.3,-0.1,0.01
834,0.008163265306122436,-0.033333333333333326,-0.5,-0.3,0.4,-0.0
835,-0.01224489795918371,-0.033333333333333326,-0.16666666666666669,-0.3,-0.1,0.024
836,0.023236514522821605,0.10000000000000009,0.16666666666666663,0.2,-0.1,-0.014
837,-0.006557377049180357,-0.033333333333333326,-0.5,0.033333333333333326,-0.1,0.018
838,0.0057377049180327155,-0.36666666666666664,-0.16666666666666669,0.2,-0.1,0.008
839,0.012601626016260137,-0.7,-0.5,0.2,-0.1,-0.002
840,0.006354515050167153,-0.0010204081632652073,0.0,-0.3,-0.1,0.082
841,-0.0006160164271047375,0.014285714285714346,-0.16666666666666669,0.2,-0.1,0.01
842,-0.0020408163265306367,-0.19999999999999996,-0.25,-0.3,-0.1,0.016
843,-0.0028806584362139898,-0.19999999999999996,-0.16666666666666669,0.36666666666666664,-0.1,0.018
844,0.011547911547911571,0.08313253012048194,-0.5,-0.3,-0.1,0.028
845,0.006249999999999978,0.07777777777777783,-0.09999999999999998,0.033333333333333326,0.2333333333333333,0.008
846,-0.004255319148936176,-0.019999999999999907,-0.5,-0.3,-0.1,0.024
847,0.005376344086021501,-0.033333333333333326,-0.5,-0.3,0.15,0.02
848,-0.018609406952965313,-0.19999999999999996,0.0,-0.3,-0.1,0.03
849,0.012778904665314395,-0.19999999999999996,0.0,-0.3,-0.1,-0.004
850,0.0024390243902439046,-0.7,-0.5,-0.3,0.4,0.01
851,0.014583333333333282,0.10000000000000009,-0.25,-0.3,-0.1,0.004
852,0.00797546012269934,-0.033333333333333326,0.0,-0.3,-0.1,0.006
853,-0.4,0.00600414078674949,0.0,0.033333333333333326,-0.1,0.204
854,0.004471544715447084,-0.19999999999999996,-0.5,-0.3,-0.1,0.008
855,-0.012474437627811863,-0.36666666666666664,-0.5,0.3,-0.1,0.024
856,-0.0026694045174537884,-0.19999999999999996,0.2142857142857143,-0.3,-0.1,0.012
857,0.016835699797160264,-0.7,0.16666666666666663,-0.3,-0.1,-0.008
858,0.004081632653061162,-0.19999999999999996,0.16666666666666663,-0.3,-0.1,0.006
859,-0.018126272912423635,-0.36666666666666664,-0.5,-0.3,-0.1,0.032
860,0.006313645621181196,-0.7,0.16666666666666663,-0.3,-0.1,0.006
861,-0.0024590163934425924,-0.12857142857142856,0.0,-0.3,-0.1,0.014
862,0.010020449897750527,-0.7,-0.09999999999999998,-0.3,-0.1,0.006
863,-0.0008230452674897748,0.13333333333333341,-0.16666666666666669,-0.3,-0.1,0.014
864,-0.018503118503118476,0.10000000000000009,0.25,0.033333333333333326,-0.1,0.028
865,-0.014052953156822867,-0.033333333333333326,0.0,0.2,-0.1,0.022
866,-0.006339468302658524,-0.19999999999999996,-0.5,0.2,-0.1,0.02
867,0.0057377049180327155,0.014285714285714346,0.0,-0.3,-0.1,0.004
868,-0.02195121951219514,-0.09024390243902436,-0.5,0.033333333333333326,-0.1,0.056
869,0.010204081632653073,-0.19999999999999996,0.0,0.2,-0.1,-0.0
870,-0.015138592750533086,0.15000000000000002,-0.16666666666666669,0.2714285714285714,-0.1,0.026
871,0.004081632653061162,-0.7,0.0,0.033333333333333326,-0.1,0.008
872,0.017012448132780023,-0.19999999999999996,0.0,0.033333333333333326,0.2333333333333333,-0.0
873,0.03167701863354033,-0.026283987915407758,-0.16666666666666669,-0.3,-0.1,0.152
874,0.020892494929006022,-0.19999999999999996,0.0,-0.3,-0.1,-0.012
875,-0.023430962343096273,0.08571428571428574,0.0,0.2,-0.1,0.034
876,-0.023966942148760384,0.01146245059288542,0.0,0.2,-0.1,0.112
877,-0.003950103950103978,0.07777777777777783,-0.25,-0.04999999999999999,-0.1,0.02
878,-0.028048780487804903,-0.7,-0.5,0.033333333333333326,-0.1,0.04
879,-0.02474437627811865,-0.7,-0.16666666666666669,0.033333333333333326,0.4,0.036
880,-0.5666666666666667,0.03983739837398381,-0.5,0.033333333333333326,-0.1,0.168
881,0.0057377049180327155,-0.7,0.0,-0.04999999999999999,0.2333333333333333,0.008
882,-0.0002044989775051853,-0.7,0.09999999999999998,0.033333333333333326,-0.1,0.012
883,-0.4,-0.0018867924528301883,0.1470588235294118,-0.3,-0.1,0.208
884,0.008350305498981636,-0.7,0.16666666666666663,-0.3,-0.1,0.004
885,-0.0052631578947368585,0.05937500000000007,-0.16666666666666669,0.2,-0.1,0.102
886,-0.00450819672131153,-0.09999999999999998,-0.16666666666666669,0.2,0.4,0.014
887,-0.010204081632653073,0.050000000000000044,-0.16666666666666669,0.2,-0.1,0.018
888,0.01632653061224487,-0.7,0.0,0.3,-0.1,-0.006
889,-0.013402061855670167,0.014285714285714346,-0.16666666666666669,0.2,-0.1,0.026
890,0.019587628865979312,-0.2714285714285714,-0.16666666666666669,-0.3,-0.1,-0.0
891,-0.02195121951219514,0.10000000000000009,-0.5,-0.3,-0.1,0.028
892,0.027983539094650234,-0.19999999999999996,0.25,0.033333333333333326,0.2333333333333333,-0.016
893,0.0036885245901638886,-0.7,0.0,0.4142857142857143,-0.1,0.006
894,-0.0008230452674897748,-0.033333333333333326,0.0,-0.3,0.15,0.014
895,0.0057377049180327155,-0.033333333333333326,-0.5,0.033333333333333326,-0.1,0.01
896,-0.9,0.0006109979633401874,-0.5,-0.3,-0.1,0.212
897,-0.014754098360655776,-0.36666666666666664,0.0,0.033333333333333326,-0.1,0.028
898,0.01719745222929936,0.14210526315789473,0.0,-0.3,-0.1,-0.002
899,-0.010882956878850103,-0.033333333333333326,0.16666666666666663,0.2,-0.1,0.02
900,-0.00794297352342166,-0.09999999999999998,-0.5,-0.3,-0.1,0.018
901,0.008722109533468525,-0.033333333333333326,-0.5,-0.3,-0.1,-0.0
902,0.008212560386473444,-0.00864197530864197,-0.5,-0.3,-0.1,0.036
903,-0.0008230452674897748,-0.19999999999999996,0.125,0.033333333333333326,-0.1,0.012
904,0.020892494929006022,0.050000000000000044,-0.5,-0.3,-0.1,-0.014
905,0.004761904761904745,-0.09999999999999998,0.09999999999999998,0.033333333333333326,0.4,0.008
906,-0.9,0.01663244353182758,-0.5,0.07500000000000001,-0.1,0.196
907,0.0008438818565400519,0.050000000000000044,0.09999999999999998,-0.3,0.2333333333333333,0.014
908,-0.006339468302658524,0.014285714285714346,-0.5,-0.3,-0.1,0.016
909,-0.024236252545824843,-0.7,-0.5,0.2,-0.1,0.036
910,0.004276985743380868,-0.19999999999999996,-0.5,0.033333333333333326,-0.1,0.006
911,-0.0008230452674897748,0.014285714285714346,0.16666666666666663,0.033333333333333326,-0.1,0.01
912,-0.0004098360655737654,-0.7,0.09999999999999998,-0.3,-0.1,0.016
913,0.0026915113871635032,0.014285714285714346,0.16666666666666663,-0.3,-0.1,0.01
914,-0.011561866125760711,-0.19999999999999996,0.16666666666666663,-0.3,-0.1,0.018
915,0.010020449897750527,0.050000000000000044,-0.16666666666666669,-0.3,-0.1,0.002
916,0.01649269311064716,0.10000000000000009,0.0,0.36666666666666664,-0.1,-0.006
917,-0.0020408163265306367,-0.36666666666666664,0.0,0.36666666666666664,-0.1,0.012
918,-0.014107883817427447,0.014285714285714346,0.2777777777777778,-0.3,-0.1,0.022
919,0.009090909090909038,0.14210526315789473,-0.5,-0.04999999999999999,-0.1,0.006
920,-0.0083844580777096,-0.19999999999999996,-0.16666666666666669,0.2,-0.1,0.02
921,-0.9,-0.02786885245901638,0.0,-0.3,-0.1,0.236
922,-0.4,0.00020964360587005793,0.125,0.2,0.2333333333333333,0.208
923,-0.003950103950103978,0.050000000000000044,0.16666666666666663,-0.3,-0.1,0.018
924,-0.0024590163934425924,-0.36666666666666664,-0.16666666666666669,0.3,-0.1,0.014
925,-0.30000000000000004,0.027459016393442615,-0.5,-0.3,0.2333333333333333,0.182
926,-0.009756097560975618,-0.7,0.0,-0.3,-0.1,0.02
927,0.0010309278350515427,-0.09999999999999998,-0.25,-0.3,0.4,0.014
928,0.0008097165991902688,-0.7,-0.5,0.2,-0.1,0.008
929,-0.0018329938900203402,-0.033333333333333326,0.0,0.2,-0.1,0.01
930,0.024949290060851892,-0.19999999999999996,0.0,0.2,-0.1,-0.018
931,0.010569105691056846,-0.7,0.0,-0.04999999999999999,-0.1,-0.0
932,-0.0004098360655737654,-0.19999999999999996,-0.5,0.10000000000000003,-0.1,0.014
933,0.004761904761904745,0.033490566037735925,0.05555555555555558,0.033333333333333326,-0.1,0.152
934,0.006693711967545646,-0.033333333333333326,-0.5,-0.3,-0.1,0.002
935,0.01218130311614729,-0.06434108527131777,0.08333333333333337,0.033333333333333326,-0.1,0.076
936,0.01494845360824737,0.008737864077669966,-0.16666666666666669,0.033333333333333326,-0.1,0.04
937,0.00797546012269934,0.050000000000000044,-0.16666666666666669,-0.3,-0.1,0.004
938,-0.01864406779661021,0.10000000000000009,0.2777777777777778,-0.3,-0.1,0.03
939,-0.01904761904761909,-0.007377049180327777,-0.5,-0.3,-0.1,0.118
940,0.014634146341463428,-0.033333333333333326,-0.5,-0.3,0.4,-0.006
941,-0.009504132231405005,-0.033333333333333326,-0.16666666666666669,-0.3,-0.1,0.024
942,0.011885245901639307,-0.36666666666666664,0.25,0.033333333333333326,-0.1,-0.0
943,0.03421052631578947,-0.051851851851851816,-0.16666666666666669,0.2,-0.1,0.042
944,-0.0083844580777096,-0.09999999999999998,-0.5,0.2,-0.1,0.018
945,0.01836734693877551,0.050000000000000044,-0.5,0.033333333333333326,0.4,-0.01
946,-0.013013698630137016,-0.013725490196078383,-0.5,-0.3,-0.1,0.102
947,0.017695473251028826,0.050000000000000044,0.0,-0.3,-0.1,-0.006
948,0.03047034764826173,-0.033333333333333326,-0.5,0.2,-0.1,-0.02
949,-0.022317596566523656,0.12352941176470589,0.16666666666666663,0.325,-0.1,0.036
950,-0.006776180698152001,-0.19999999999999996,0.16666666666666663,0.36666666666666664,-0.1,0.016
951,0.01134020618556697,-0.033333333333333326,0.16666666666666663,0.033333333333333326,0.2333333333333333,-0.0
952,-0.02145748987854257,-0.7,0.16666666666666663,-0.3,-0.1,0.028
953,-0.009014675052410936,0.08571428571428574,0.0,0.2,-0.1,0.022
954,0.01737288135593218,0.2090909090909091,-0.5,-0.3,-0.1,-0.006
955,-0.4,0.014285714285714346,-0.5,-0.3,-0.1,0.196
956,-0.006776180698152001,-0.19999999999999996,0.25,-0.3,-0.1,0.022
957,0.00983606557377048,-0.7,-0.16666666666666669,0.033333333333333326,-0.1,0.006
958,0.018200408997954942,-0.033333333333333326,-0.25,-0.3,-0.1,-0.004
959,-0.019246861924686165,0.10000000000000009,0.2142857142857143,0.033333333333333326,-0.1,0.03
960,-0.023983739837398432,-0.19999999999999996,-0.5,-0.3,-0.1,0.036
961,0.004166666666666652,0.07777777777777783,-0.16666666666666669,0.3,0.2333333333333333,0.008
962,-0.011570247933884281,-0.033333333333333326,0.25,-0.3,0.4,0.022
963,0.0038854805725970776,-0.033333333333333326,-0.09999999999999998,-0.3,-0.1,0.008
964,0.012778904665314395,-0.033333333333333326,-0.5,-0.3,-0.1,-0.004
965,0.0034907597535933643,-0.033333333333333326,-0.5,0.2,-0.1,0.014
966,-0.008829568788501052,0.050000000000000044,-0.5,0.2,-0.1,0.018
967,-0.0028806584362139898,-0.033333333333333326,0.0,-0.3,0.4,0.012
968,0.008350305498981636,-0.7,-0.5,-0.3,0.4,0.006
969,-0.003519668737060111,0.10000000000000009,0.0,-0.3,0.15,0.014
970,0.005154639175257714,0.18888888888888888,0.0,-0.3,-0.1,0.002
971,-0.009504132231405005,-0.12857142857142856,-0.16666666666666669,-0.3,-0.1,0.028
972,-0.4,0.005521472392638116,-0.5,0.2,-0.1,0.202
973,-0.0008230452674897748,-0.12857142857142856,0.0,0.2,0.2333333333333333,0.012
974,-0.2333333333333334,0.031404958677686,0.09999999999999998,-0.3,-0.1,0.178
975,0.012065439672801603,0.050000000000000044,0.0,-0.3,-0.1,-0.0
976,-0.010759493670886133,0.024137931034482807,-0.5,0.10000000000000003,-0.1,0.082
977,0.00871369294605806,0.11818181818181828,0.16666666666666663,-0.3,-0.1,0.002
978,0.01134020618556697,0.050000000000000044,-0.5,-0.3,-0.1,0.004
979,0.008866995073891548,-0.0636363636363636,-0.16666666666666669,-0.3,-0.1,0.048
980,-0.00794297352342166,-0.19999999999999996,-0.5,-0.3,-0.1,0.022
981,0.00663900414937757,0.21666666666666667,0.0,0.2,-0.1,-0.0
982,-0.9,-0.36666666666666664,-0.020408163265306145,-0.3,-0.1,0.428
983,0.008141962421711835,0.050000000000000044,0.0,0.033333333333333326,-0.1,0.01
984,0.007597535934291577,0.050000000000000044,0.0,0.033333333333333326,0.4,0.002
985,0.004858299595141724,-0.19999999999999996,-0.5,0.2,-0.1,0.002
986,-0.02033195020746892,0.11818181818181828,-0.5,-0.3,-0.1,0.034
987,0.0027484143763213398,-0.11176470588235288,-0.16666666666666669,-0.3,0.2333333333333333,0.022
988,0.0059304703476482645,-0.7,-0.16666666666666669,0.10000000000000003,-0.1,0.008
989,0.010020449897750527,-0.19999999999999996,0.16666666666666663,-0.04999999999999999,-0.1,0.002
990,-0.00472279260780295,0.014285714285714346,-0.5,-0.3,-0.1,0.018
991,-0.002974828375286065,0.10000000000000009,0.0,0.2,0.15,0.022
992,-0.016564417177914126,-0.36666666666666664,-0.16666666666666669,-0.3,0.2333333333333333,0.03
993,0.0034907597535933643,-0.033333333333333326,-0.5,0.2,-0.1,0.01
994,0.004471544715447084,-0.19999999999999996,0.0,0.033333333333333326,-0.1,0.004
995,-0.002941176470588225,-0.07499999999999996,-0.16666666666666669,0.033333333333333326,-0.1,0.022
996,-0.009302325581395321,0.10000000000000009,-0.5,-0.3,-0.1,0.03
997,0.0287169042769857,-0.033333333333333326,0.0,-0.3,-0.1,-0.02
998,-0.012266112266112295,0.11818181818181828,-0.09999999999999998,-0.3,-0.1,0.024
999,0.025619834710743805,0.07777777777777783,0.0,-0.3,-0.1,-0.012
