,0,1,2,3,4,5
0,0.0283819628647215,-0.04999999999999993,0.014285714285714235,-0.00588235294117645,-0.1,0.076
1,-0.025000000000000022,-0.029268292682926744,-0.0625,0.18648648648648652,-0.023076923076923078,0.136
2,-0.004519774011299438,-0.00864197530864197,-0.02941176470588236,-0.09999999999999998,-0.037500000000000006,0.114
3,-0.028440366972477094,-0.021428571428571352,0.05102040816326525,0.06,0.033333333333333326,0.14
4,0.001129943502824804,-0.024324324324324298,-0.08620689655172414,0.11379310344827587,0.042857142857142844,0.11
5,0.01737891737891739,0.031182795698924792,-0.16666666666666669,0.04782608695652174,-0.016666666666666677,0.088
6,-0.0012658227848101333,-0.17619047619047612,-0.10714285714285715,-0.0368421052631579,0.0875,0.108
7,0.0006410256410256387,0.0672413793103449,-0.02941176470588236,0.07500000000000001,-0.02857142857142858,0.108
8,0.013838120104438634,-0.15454545454545454,0.06521739130434778,-0.15714285714285714,-0.023076923076923078,0.094
9,-0.007361963190184118,0.03469387755102049,0.08823529411764708,-0.22307692307692306,-0.1,0.112
10,-0.015702479338842945,-0.042105263157894646,-0.10714285714285715,-0.07777777777777778,0.033333333333333326,0.124
11,0.009090909090909038,-0.007692307692307665,0.03658536585365857,0.1074074074074074,-0.023076923076923078,0.104
12,-0.01174785100286535,-0.020987654320987592,-0.02941176470588236,-0.01428571428571429,0.033333333333333326,0.122
13,0.005149051490514922,-0.015789473684210464,-0.15217391304347827,-0.0368421052631579,-0.023076923076923078,0.1
14,-0.022340425531914954,-0.16666666666666663,-0.05882352941176472,0.07037037037037036,0.1222222222222222,0.134
15,-0.043356643356643354,0.06258992805755403,0.05102040816326525,-0.22307692307692306,-0.023076923076923078,0.14
16,0.01022443890274316,-0.3818181818181818,0.0625,-0.11249999999999999,-0.023076923076923078,0.094
17,0.020454545454545392,-0.009859154929577452,-0.04838709677419356,0.1074074074074074,0.16315789473684209,0.094
18,0.0022988505747125743,-0.02876712328767117,0.05555555555555558,-0.04999999999999999,0.042857142857142844,0.11
19,0.018604651162790642,0.032558139534883734,0.07777777777777772,-0.15714285714285714,-0.1,0.086
20,0.026767676767676774,-0.19999999999999996,0.0,0.0,-0.016666666666666677,0.08
21,-0.014613180515759328,-0.033333333333333326,0.033333333333333326,-0.22307692307692306,0.1222222222222222,0.124
22,-0.0059190031152648315,0.04528301886792452,-0.01428571428571429,0.06,-0.023076923076923078,0.114
23,0.013294797687861237,0.0037037037037037646,0.025000000000000022,0.0,-0.023076923076923078,0.098
24,-0.010091743119266083,0.015789473684210575,-0.01428571428571429,0.11379310344827587,0.042857142857142844,0.12
25,0.018918918918918948,0.007317073170731714,-0.2,-0.11249999999999999,-0.016666666666666677,0.084
26,0.02063492063492056,-0.05483870967741933,-0.35714285714285715,0.1074074074074074,0.16315789473684209,0.088
27,0.003010033444815985,0.06146788990825691,0.12962962962962965,0.06,-0.023076923076923078,0.106
28,-0.0005291005291006012,-0.15652173913043477,0.012820512820512775,-0.01428571428571429,0.024999999999999994,0.114
29,0.004320987654320985,0.039583333333333415,-0.03125,0.08461538461538465,0.21818181818181817,0.108
30,0.010526315789473717,-0.13902439024390234,0.11111111111111116,-0.15714285714285714,-0.1,0.092
31,0.011602209944751363,0.012643678160919603,-0.125,-0.11249999999999999,-0.1,0.092
32,0.009090909090909038,-0.053846153846153766,-0.14,0.04782608695652174,-0.023076923076923078,0.1
33,-0.019289340101522834,-0.16666666666666663,-0.08064516129032256,-0.16666666666666666,0.033333333333333326,0.124
34,0.004109589041095818,-0.06507936507936507,0.025000000000000022,-0.12352941176470586,0.033333333333333326,0.108
35,-0.023839009287925705,0.03214285714285714,-0.04285714285714287,-0.11249999999999999,-0.02857142857142858,0.13
36,-0.0003039513677811634,0.07310924369747906,-0.18181818181818182,-0.06470588235294117,-0.023076923076923078,0.1
37,0.014040114613180443,0.014285714285714346,0.013513513513513487,-0.0368421052631579,-0.1,0.094
38,0.0028213166144200885,0.06923076923076932,-0.04838709677419356,-0.06470588235294117,0.0875,0.102
39,-0.010062893081761004,0.047663551401869175,0.08823529411764708,-0.22307692307692306,-0.1,0.112
40,0.0024390243902439046,-0.024324324324324298,-0.04838709677419356,-0.16666666666666666,-0.1,0.102
41,0.00659340659340657,-0.012499999999999956,-0.14,0.0,-0.1,0.1
42,0.01717791411042946,0.041935483870967794,0.038461538461538436,0.10000000000000003,0.13529411764705881,0.094
43,0.01644204851752018,-0.043283582089552186,-0.11538461538461536,0.018181818181818188,0.042857142857142844,0.094
44,-0.006109324758842516,0.054545454545454564,0.025000000000000022,0.018181818181818188,0.13529411764705881,0.114
45,-0.0008403361344537785,-0.09999999999999998,0.1071428571428571,-0.01428571428571429,-0.1,0.112
46,-0.004100946372239789,0.03469387755102049,0.012820512820512775,0.18571428571428572,-0.1,0.114
47,0.005325443786982187,0.027272727272727337,0.025000000000000022,0.0,0.042857142857142844,0.102
48,-0.02637362637362639,-0.14230769230769225,0.0,0.0793103448275862,0.033333333333333326,0.14
49,0.030167597765363152,0.016049382716049387,-0.03125,-0.0368421052631579,-0.1,0.078
50,0.006779661016949157,0.0023809523809523725,-0.03125,-0.11249999999999999,0.042857142857142844,0.1
51,-0.021580547112462045,0.0021276595744681437,0.04166666666666663,-0.11249999999999999,-0.023076923076923078,0.13
52,0.004899135446685854,-0.003797468354430289,-0.01428571428571429,0.06,0.042857142857142844,0.106
53,-0.012676056338028152,-0.047222222222222165,0.0,0.033333333333333326,-0.1,0.122
54,-0.028526645768025105,-0.021428571428571352,0.08181818181818179,0.06,0.07647058823529412,0.142
55,0.01711229946524062,-0.09215686274509804,0.013513513513513487,0.08461538461538465,-0.016666666666666677,0.092
56,-0.008974358974358942,0.03786407766990296,0.09615384615384615,-0.0368421052631579,-0.02857142857142858,0.118
57,0.014754098360655665,0.09130434782608698,0.050000000000000044,0.033333333333333326,0.16315789473684209,0.092
58,-0.006557377049180357,-0.09285714285714286,0.04166666666666663,-0.0368421052631579,-0.1,0.116
59,-0.00638297872340432,-0.043283582089552186,0.16176470588235292,0.04782608695652174,-0.023076923076923078,0.116
60,-0.0016949152542372614,-0.016455696202531622,0.0,-0.11249999999999999,-0.023076923076923078,0.11
61,-0.009042553191489389,-0.1074074074074074,0.03488372093023251,-0.22857142857142856,-0.1,0.118
62,-0.020000000000000018,-0.11379310344827587,-0.32352941176470584,-0.22307692307692306,-0.1,0.12
63,0.015531335149863712,-0.060655737704917945,0.04761904761904767,-0.0368421052631579,-0.1,0.094
64,0.01711229946524062,-0.07288135593220335,0.013513513513513487,-0.06470588235294117,-0.023076923076923078,0.092
65,0.023512747875354068,-0.009859154929577452,0.02631578947368418,0.04782608695652174,0.1,0.088
66,-0.009144542772861364,0.025490196078431393,-0.08620689655172414,-0.22857142857142856,0.0875,0.116
67,-0.0021021021021021546,0.019101123595505642,0.012820512820512775,0.04782608695652174,0.0875,0.112
68,-0.0014492753623188692,0.005882352941176561,-0.04545454545454547,0.04782608695652174,0.042857142857142844,0.11
69,0.005292479108635062,-0.07288135593220335,0.08823529411764708,0.0,-0.1,0.104
70,-0.01051212938005397,-0.096551724137931,0.012195121951219523,-0.12352941176470586,-0.023076923076923078,0.12
71,-0.006707317073170738,0.030000000000000027,-0.04838709677419356,0.1074074074074074,0.042857142857142844,0.114
72,-0.023893805309734506,-0.021428571428571352,0.022727272727272707,-0.07777777777777778,-0.03333333333333334,0.136
73,-0.023376623376623384,0.0540983606557377,-0.02941176470588236,0.004347826086956552,-0.023076923076923078,0.128
74,-0.011428571428571455,-0.05211267605633796,0.05319148936170215,-0.07777777777777778,-0.02857142857142858,0.124
75,-0.009333333333333305,-0.029113924050632844,-0.2894736842105263,-0.11249999999999999,-0.1,0.112
76,-0.005113636363636376,-0.0636363636363636,0.03488372093023251,0.046153846153846156,-0.023076923076923078,0.12
77,-0.03201320132013208,0.04590163934426239,0.023809523809523836,-0.04999999999999999,-0.023076923076923078,0.136
78,0.009348441926345541,-0.003797468354430289,0.0,-0.0368421052631579,-0.023076923076923078,0.1
79,0.02063492063492056,-0.10816326530612241,0.06818181818181823,-0.22307692307692306,0.0875,0.088
80,0.015492957746478853,-0.04920634920634914,0.10377358490566035,-0.06470588235294117,-0.016666666666666677,0.094
81,-0.04241486068111455,-0.009278350515463885,0.011627906976744207,0.004347826086956552,-0.02857142857142858,0.152
82,0.021282798833819228,-0.014285714285714235,0.05813953488372092,0.18484848484848487,-0.1,0.092
83,0.008309455587392489,0.0037037037037037646,0.013513513513513487,0.0,-0.023076923076923078,0.1
84,-0.0035598705501618255,0.07310924369747906,-0.11538461538461536,0.16875,0.042857142857142844,0.108
85,0.014728682170542573,-0.11666666666666659,-0.2,0.12857142857142856,0.13529411764705881,0.092
86,-0.03505747126436787,-0.06619718309859146,0.05102040816326525,-0.08947368421052632,-0.023076923076923078,0.144
87,0.02091836734693875,-0.10384615384615381,-0.03125,-0.22307692307692306,-0.1,0.084
88,-0.023966942148760384,-0.09344262295081962,0.0,-0.07777777777777778,0.1222222222222222,0.134
89,0.0023746701846965035,-0.09999999999999998,0.012820512820512775,-0.3,0.0875,0.104
90,0.013486005089058506,-0.10384615384615381,-0.06666666666666665,-0.3,0.042857142857142844,0.09
91,0.003426791277258534,0.07500000000000007,-0.11538461538461536,0.0,-0.023076923076923078,0.1
92,0.019220055710306383,0.0037037037037037646,-0.2647058823529412,0.1074074074074074,0.0875,0.09
93,0.010326086956521707,-0.07288135593220335,-0.03125,0.13333333333333336,-0.1,0.1
94,0.005817174515235446,-0.07931034482758614,0.03658536585365857,0.08461538461538465,0.042857142857142844,0.106
95,0.01690544412607453,0.005128205128205221,0.07777777777777772,-0.15714285714285714,0.042857142857142844,0.09
96,0.0038461538461538325,-0.02876712328767117,-0.14,0.06,-0.023076923076923078,0.106
97,-0.011111111111111183,-0.012499999999999956,0.08490566037735847,-0.01428571428571429,-0.1,0.124
98,0.010810810810810811,-0.12,0.05555555555555558,0.018181818181818188,-0.023076923076923078,0.102
99,-0.01388888888888895,-0.042857142857142816,-0.12962962962962965,0.09285714285714286,0.033333333333333326,0.124
100,-0.0005586592178771221,-0.038028169014084456,-0.08620689655172414,0.15161290322580645,-0.1,0.11
101,-0.012280701754386003,0.10821917808219184,0.0,0.0,-0.023076923076923078,0.108
102,-0.017302052785923783,-0.01764705882352935,0.0,0.018181818181818188,-0.1,0.128
103,0.012087912087912045,-0.048484848484848464,0.025000000000000022,-0.0368421052631579,-0.1,0.098
104,-0.0016949152542372614,0.017391304347826098,-0.2777777777777778,0.04782608695652174,-0.023076923076923078,0.106
105,0.012650602409638556,0.007317073170731714,0.09999999999999998,0.07500000000000001,-0.016666666666666677,0.098
106,0.023076923076923106,-0.09999999999999998,-0.11538461538461536,0.018181818181818188,-0.016666666666666677,0.084
107,-0.010119047619047694,0.012765957446808529,-0.02941176470588236,-0.01428571428571429,0.033333333333333326,0.12
108,-0.007734806629834279,-0.05820895522388059,0.012195121951219523,-0.16666666666666666,0.033333333333333326,0.118
109,0.002506963788300842,-0.07096774193548383,0.05555555555555558,-0.07777777777777778,0.0875,0.11
110,0.02876712328767117,0.02941176470588236,-0.125,-0.16666666666666666,-0.1,0.076
111,-0.01016949152542379,-0.00952380952380949,-0.2142857142857143,0.09285714285714286,-0.023076923076923078,0.118
112,-0.03245033112582785,0.04166666666666674,0.022727272727272707,-0.01428571428571429,-0.023076923076923078,0.138
113,-0.0074918566775245,0.06068376068376069,0.025000000000000022,-0.01428571428571429,0.033333333333333326,0.116
114,-0.016071428571428625,-0.010344827586206806,0.0,0.033333333333333326,0.033333333333333326,0.128
115,0.005913978494623606,-0.06507936507936507,-0.14,0.1074074074074074,-0.023076923076923078,0.104
116,0.008309455587392489,0.015909090909090984,-0.09259259259259262,0.018181818181818188,0.042857142857142844,0.1
117,0.0005235602094240122,-0.11509433962264148,0.012195121951219523,-0.3,-0.023076923076923078,0.106
118,-0.016216216216216273,-0.13137254901960782,0.022727272727272707,0.033333333333333326,-0.1,0.126
119,0.008333333333333304,0.005882352941176561,-0.09259259259259262,-0.15714285714285714,0.042857142857142844,0.096
120,0.0031249999999999334,0.03404255319148941,0.05813953488372092,0.13333333333333336,-0.023076923076923078,0.108
121,0.010994764397905699,-0.07931034482758614,-0.09259259259259262,-0.0368421052631579,0.042857142857142844,0.096
122,0.008831908831908764,-0.019999999999999907,0.013513513513513487,0.07500000000000001,-0.023076923076923078,0.102
123,-0.018541033434650522,0.031481481481481555,-0.12962962962962965,0.06,-0.1,0.124
124,-0.012121212121212088,-0.012499999999999956,0.0714285714285714,0.033333333333333326,0.07647058823529412,0.126
125,0.010447761194029792,0.06146788990825691,-0.051724137931034475,-0.11249999999999999,-0.1,0.092
126,-0.012094395280236037,0.0,-0.013513513513513487,-0.11249999999999999,0.1222222222222222,0.122
127,0.00060240963855418,0.026315789473684292,0.04761904761904767,0.0,-0.1,0.106
128,-0.006741573033707926,0.0,-0.11538461538461536,-0.16666666666666666,-0.023076923076923078,0.112
129,0.0011976047904191933,0.04038461538461546,-0.09259259259259262,0.033333333333333326,-0.1,0.106
130,-0.043617021276595724,-0.11269841269841263,-0.2272727272727273,0.020000000000000018,-0.02857142857142858,0.152
131,0.0028213166144200885,0.05471698113207557,0.04761904761904767,-0.06470588235294117,0.0875,0.104
132,-0.03314447592067993,-0.09062499999999996,0.05769230769230771,-0.12352941176470586,-0.02857142857142858,0.144
133,0.010979228486646897,0.050000000000000044,0.013513513513513487,-0.21666666666666667,0.042857142857142844,0.092
134,-0.03422818791946314,0.052000000000000046,0.0,0.033333333333333326,-0.023076923076923078,0.138
135,-0.0052631578947368585,-0.02894736842105261,-0.013513513513513487,-0.16666666666666666,-0.1,0.112
136,0.009340659340659307,-0.11666666666666659,0.07999999999999996,0.06,-0.023076923076923078,0.104
137,0.005714285714285672,-0.019999999999999907,-0.01428571428571429,0.08461538461538465,0.042857142857142844,0.106
138,-0.007734806629834279,-0.033333333333333326,-0.013513513513513487,-0.16666666666666666,-0.1,0.114
139,0.017431192660550487,0.017948717948717996,0.07999999999999996,0.07500000000000001,0.1857142857142857,0.1
140,-0.007871720116618075,0.02164948453608251,-0.0625,-0.16666666666666666,-0.023076923076923078,0.114
141,0.018840579710144856,0.032558139534883734,0.0,0.033333333333333326,-0.016666666666666677,0.088
142,0.009090909090909038,0.07966101694915262,-0.017241379310344807,-0.06470588235294117,0.13529411764705881,0.092
143,-0.005555555555555536,-0.033333333333333326,-0.02941176470588236,-0.175,0.033333333333333326,0.116
144,-0.0029810298102981303,-0.042857142857142816,-0.04545454545454547,-0.11249999999999999,-0.1,0.11
145,0.010714285714285676,0.033333333333333326,-0.03125,0.08461538461538465,0.0875,0.1
146,0.006752411575562722,0.07966101694915262,0.038461538461538436,-0.0368421052631579,-0.023076923076923078,0.098
147,0.011528150134048287,-0.060655737704917945,-0.06666666666666665,0.018181818181818188,0.042857142857142844,0.098
148,0.025531914893616947,0.010843373493975905,-0.4166666666666667,-0.11249999999999999,-0.023076923076923078,0.076
149,0.012790697674418539,-0.0026315789473684292,0.06521739130434778,0.04782608695652174,-0.1,0.098
150,0.015966386554621792,0.0012987012987013546,-0.015151515151515138,0.033333333333333326,-0.016666666666666677,0.09
151,0.02777777777777779,-0.028358208955223785,0.050000000000000044,0.06363636363636366,-0.1,0.082
152,-0.03087248322147651,0.04358974358974366,-0.02777777777777779,0.1411764705882353,0.033333333333333326,0.14
153,0.012121212121212088,0.04747474747474756,0.013513513513513487,0.033333333333333326,-0.023076923076923078,0.096
154,0.020765027322404372,0.033333333333333326,-0.2,-0.21666666666666667,-0.016666666666666677,0.078
155,-0.009929078014184411,0.11528662420382174,-0.01428571428571429,-0.22307692307692306,-0.023076923076923078,0.104
156,0.009348441926345541,-0.04920634920634914,0.08333333333333337,0.0,0.0875,0.102
157,-0.052103559870550153,0.02268907563025213,0.0,-0.12352941176470586,-0.1,0.156
158,0.0,-0.18780487804878043,0.0,-0.07777777777777778,-0.023076923076923078,0.108
159,0.005044510385756706,0.022222222222222254,0.012820512820512775,0.04782608695652174,-0.1,0.104
160,0.018840579710144856,-0.013432835820895495,0.15000000000000002,-0.06470588235294117,-0.1,0.088
161,0.0066265060240963125,0.06363636363636371,-0.125,0.018181818181818188,-0.016666666666666677,0.096
162,-0.006628242074927959,-0.00588235294117645,-0.01428571428571429,-0.07777777777777778,0.033333333333333326,0.116
163,-0.009467455621301801,0.0,-0.10714285714285715,0.09285714285714286,0.0875,0.122
164,0.007514450867052047,0.0023809523809523725,0.05813953488372092,-0.11249999999999999,-0.1,0.1
165,-0.013960113960113985,-0.037837837837837784,-0.013513513513513487,0.06,-0.023076923076923078,0.124
166,-0.009243697478991564,-0.02894736842105261,0.0,-0.3,0.1222222222222222,0.116
167,-0.01764705882352946,-0.029113924050632844,0.03488372093023251,-0.01428571428571429,0.07647058823529412,0.13
168,0.0011976047904191933,-0.043283582089552186,0.140625,0.018181818181818188,-0.023076923076923078,0.112
169,0.01569767441860459,0.059259259259259345,-0.35714285714285715,0.0,0.042857142857142844,0.086
170,-0.008882521489971373,-0.011688311688311637,0.023809523809523836,-0.0368421052631579,-0.023076923076923078,0.116
171,0.010828025477707004,0.0886178861788618,-0.03125,-0.06470588235294117,0.042857142857142844,0.092
172,0.028753180661577615,-0.23124999999999996,0.0,0.07500000000000001,0.13529411764705881,0.08
173,-0.009589041095890427,-0.05294117647058816,-0.08064516129032256,0.018181818181818188,-0.02857142857142858,0.12
174,-0.02684365781710918,-0.042105263157894646,0.07692307692307687,-0.01428571428571429,-0.1,0.136
175,-0.021874999999999978,0.03873873873873879,0.012195121951219523,-0.12352941176470586,-0.1,0.126
176,-0.0011904761904761862,0.012643678160919603,0.04761904761904767,-0.08947368421052632,0.0875,0.112
177,-0.013207547169811318,0.030000000000000027,0.05319148936170215,0.018181818181818188,-0.023076923076923078,0.122
178,0.002578796561604535,0.029166666666666674,-0.11538461538461536,-0.07777777777777778,-0.1,0.102
179,0.00303030303030305,0.031182795698924792,0.050000000000000044,0.07500000000000001,-0.023076923076923078,0.104
180,-0.0019283746556474357,-0.06507936507936507,0.023809523809523836,-0.01428571428571429,-0.1,0.112
181,-0.0034482758620689724,0.0,0.16666666666666663,-0.0368421052631579,-0.023076923076923078,0.112
182,-0.0017441860465116088,0.02164948453608251,-0.15217391304347827,0.04782608695652174,-0.023076923076923078,0.108
183,-0.021739130434782594,-0.013953488372092981,-0.05882352941176472,-0.16666666666666666,0.15,0.132
184,0.006832298136645987,0.05247524752475252,0.06521739130434778,-0.15714285714285714,0.13529411764705881,0.1
185,0.015601023017902782,-0.18648648648648647,0.08333333333333337,-0.22307692307692306,-0.1,0.088
186,-0.0034482758620689724,-0.05211267605633796,-0.2368421052631579,-0.07777777777777778,0.033333333333333326,0.11
187,0.019540229885057436,-0.028358208955223785,0.12264150943396224,-0.11249999999999999,0.0875,0.092
188,-0.030158730158730163,-0.0010752688172042113,0.07692307692307687,-0.12352941176470586,0.20434782608695654,0.142
189,-0.0002949852507374562,-0.00864197530864197,0.05555555555555558,0.018181818181818188,-0.023076923076923078,0.112
190,0.004891304347826031,-0.053846153846153766,0.025000000000000022,-0.15714285714285714,-0.023076923076923078,0.102
191,0.01436464088397793,-0.043749999999999956,0.03658536585365857,0.0,-0.023076923076923078,0.096
192,-0.008695652173913104,0.02448979591836742,0.0625,-0.07777777777777778,0.042857142857142844,0.118
193,0.010863509749303613,0.019101123595505642,-0.125,-0.15714285714285714,0.042857142857142844,0.092
194,-0.005431309904153414,0.0795275590551181,-0.06666666666666665,-0.06470588235294117,-0.023076923076923078,0.106
195,-0.002339181286549752,0.0326732673267327,-0.10714285714285715,-0.11249999999999999,-0.023076923076923078,0.108
196,0.03430656934306564,-0.16153846153846152,-0.09999999999999998,-0.15714285714285714,-0.1,0.066
197,-0.008333333333333304,-0.02499999999999991,-0.02941176470588236,-0.3,0.033333333333333326,0.114
198,0.013580246913580174,0.05247524752475252,0.04761904761904767,-0.16666666666666666,0.17777777777777778,0.096
199,-0.0006097560975609762,0.017391304347826098,0.07446808510638303,0.0,-0.023076923076923078,0.11
200,0.036555891238670646,0.0830188679245284,-0.0357142857142857,-0.0222222222222222,0.13529411764705881,0.07
201,-0.04062500000000002,0.03600000000000003,-0.20833333333333331,-0.07777777777777778,-0.023076923076923078,0.142
202,-0.025000000000000022,-0.0010752688172042113,-0.08620689655172414,0.06,0.07647058823529412,0.134
203,-0.007954545454545436,-0.020987654320987592,-0.0625,0.018181818181818188,-0.023076923076923078,0.118
204,0.005913978494623606,-0.033333333333333326,-0.08620689655172414,-0.15714285714285714,-0.023076923076923078,0.1
205,-0.023123123123123146,-0.05211267605633796,0.033333333333333326,0.15714285714285714,0.0875,0.138
206,0.006432748538011679,-0.003797468354430289,0.07446808510638303,-0.0368421052631579,-0.023076923076923078,0.104
207,0.0036144578313253017,0.0037037037037037646,0.11111111111111116,0.0,-0.023076923076923078,0.106
208,0.008284023668639007,0.01764705882352946,0.04761904761904767,-0.11249999999999999,0.16315789473684209,0.102
209,0.005982905982905962,-0.024324324324324298,0.025000000000000022,0.018181818181818188,-0.023076923076923078,0.106
210,0.004494382022471877,0.0023809523809523725,-0.04545454545454547,-0.15714285714285714,-0.023076923076923078,0.102
211,0.017404129793510248,0.016049382716049387,0.050000000000000044,0.07500000000000001,0.0875,0.094
212,-0.00136986301369868,-0.012499999999999956,-0.2777777777777778,-0.01428571428571429,0.0875,0.108
213,-0.014942528735632177,-0.047222222222222165,0.05319148936170215,-0.175,0.07647058823529412,0.128
214,0.023684210526315752,-0.08181818181818179,-0.04838709677419356,0.04782608695652174,-0.1,0.086
215,0.0019607843137254832,-0.048484848484848464,0.06521739130434778,-0.0368421052631579,-0.1,0.108
216,-0.03157894736842104,-0.02941176470588236,-0.12068965517241381,0.11935483870967745,-0.023076923076923078,0.142
217,-0.007246376811594235,-0.059374999999999956,0.1071428571428571,0.033333333333333326,-0.1,0.118
218,0.009365558912386662,0.05490196078431375,-0.015151515151515138,-0.07777777777777778,0.0875,0.098
219,-0.0019283746556474357,-0.059374999999999956,0.045454545454545414,-0.11249999999999999,-0.023076923076923078,0.11
220,0.02469879518072282,0.04157303370786525,0.13636363636363635,-0.15714285714285714,-0.1,0.08
221,-0.001983002832861236,-0.08596491228070169,0.0714285714285714,0.06,0.0875,0.116
222,0.007407407407407418,-0.042857142857142816,-0.2647058823529412,0.018181818181818188,-0.023076923076923078,0.098
223,-0.01405835543766576,-0.03766233766233762,-0.32352941176470584,-0.22307692307692306,0.0875,0.116
224,-0.00439560439560438,-0.042857142857142816,-0.2142857142857143,0.17058823529411765,-0.1,0.112
225,-0.006321839080459801,-0.038028169014084456,0.09999999999999998,-0.16666666666666666,-0.1,0.114
226,-0.02352941176470591,-0.0010752688172042113,-0.0625,-0.04999999999999999,0.033333333333333326,0.132
227,0.02682926829268295,-0.014285714285714235,0.014285714285714235,-0.09999999999999998,-0.1,0.078
228,0.031232091690544417,0.06470588235294117,-0.16666666666666669,-0.15714285714285714,0.042857142857142844,0.072
229,-0.018694362017804167,0.023809523809523836,-0.08064516129032256,-0.11249999999999999,-0.1,0.122
230,0.0043715846994535346,-0.10384615384615381,0.06521739130434778,0.06,-0.1,0.106
231,0.01193181818181821,-0.07288135593220335,0.09999999999999998,0.0,0.16315789473684209,0.102
232,-0.010256410256410331,-0.17619047619047612,-0.09999999999999998,0.06,-0.023076923076923078,0.118
233,-0.007255520504731883,0.030000000000000027,0.09615384615384615,0.0,-0.1,0.114
234,-0.01890243902439026,-0.0023255813953487747,0.1071428571428571,-0.16666666666666666,-0.03333333333333334,0.128
235,-0.026506024096385583,-0.033333333333333326,0.06862745098039214,0.06,-0.1,0.136
236,0.0013333333333332975,-0.14444444444444438,0.025000000000000022,0.11379310344827587,-0.1,0.108
237,0.03150684931506842,0.010526315789473717,-0.07692307692307693,-0.0222222222222222,0.1,0.074
238,0.0024390243902439046,-0.07704918032786878,-0.04838709677419356,0.08461538461538465,-0.1,0.11
239,-0.014369501466275691,-0.037837837837837784,0.033333333333333326,0.06,0.033333333333333326,0.128
240,-0.00179640718562879,0.011111111111111183,0.012820512820512775,0.08461538461538465,-0.1,0.112
241,0.002506963788300842,-0.033333333333333326,0.0,0.018181818181818188,-0.1,0.106
242,-0.023028391167192463,0.050000000000000044,-0.10714285714285715,0.033333333333333326,0.033333333333333326,0.128
243,-0.012426035502958621,-0.037837837837837784,0.1071428571428571,-0.04999999999999999,-0.1,0.124
244,-0.0149732620320856,-0.13137254901960782,0.012195121951219523,-0.01428571428571429,-0.023076923076923078,0.124
245,0.01091954022988506,0.019101123595505642,-0.015151515151515138,-0.0368421052631579,-0.1,0.096
246,-0.00802469135802475,0.02043010752688179,0.0714285714285714,-0.01428571428571429,-0.023076923076923078,0.118
247,0.009340659340659307,-0.014285714285714235,0.0,-0.0368421052631579,-0.1,0.096
248,0.011174785100286466,0.010843373493975905,0.025000000000000022,-0.11249999999999999,-0.1,0.098
249,-0.0035353535353535026,-0.13749999999999996,-0.2368421052631579,-0.01428571428571429,0.0875,0.108
250,0.005228758169934622,0.08151260504201685,0.012820512820512775,-0.0368421052631579,0.13529411764705881,0.102
251,-0.016207951070336457,0.03394495412844045,-0.02941176470588236,-0.16666666666666666,0.033333333333333326,0.122
252,0.022360248447204967,0.0745098039215687,0.10416666666666663,-0.0222222222222222,-0.1,0.08
253,-0.00638297872340432,-0.059374999999999956,-0.0625,-0.16666666666666666,-0.023076923076923078,0.112
254,0.018421052631578894,-0.015068493150684925,-0.2,-0.11249999999999999,-0.1,0.084
255,-0.026074498567335236,-0.0461538461538461,0.0,-0.12352941176470586,-0.02857142857142858,0.138
256,-0.015015974440894642,0.03076923076923077,0.06818181818181823,0.06,0.042857142857142844,0.122
257,0.01644204851752018,-0.038461538461538436,-0.04838709677419356,-0.22307692307692306,0.19999999999999998,0.092
258,-0.01716621253405992,-0.096551724137931,0.012195121951219523,-0.04999999999999999,-0.02857142857142858,0.128
259,0.003726708074534124,0.022222222222222254,0.10377358490566035,0.018181818181818188,-0.023076923076923078,0.108
260,0.023076923076923106,0.0525773195876289,-0.15217391304347827,-0.0222222222222222,-0.1,0.08
261,0.011111111111111072,-0.019444444444444375,-0.03125,0.04782608695652174,-0.023076923076923078,0.098
262,0.01379310344827589,-0.033333333333333326,0.09999999999999998,0.0,0.0875,0.098
263,0.011475409836065542,0.09527559055118118,0.038461538461538436,-0.0222222222222222,-0.1,0.09
264,-0.003151862464183419,0.0011494252873563982,-0.04545454545454547,-0.22307692307692306,0.1222222222222222,0.112
265,0.011314984709480114,0.024137931034482807,0.14406779661016944,-0.21666666666666667,0.033333333333333326,0.096
266,0.0009287925696593868,0.015909090909090984,0.06521739130434778,0.13333333333333336,-0.023076923076923078,0.112
267,0.005063291139240533,0.07391304347826089,-0.07142857142857145,0.04782608695652174,0.06666666666666665,0.104
268,0.0196675900277008,-0.028358208955223785,0.0,0.07500000000000001,-0.016666666666666677,0.09
269,-0.011420612813370479,-0.042465753424657526,-0.04285714285714287,-0.07777777777777778,0.033333333333333326,0.122
270,-0.021212121212121238,0.03076923076923077,-0.12962962962962965,0.09285714285714286,-0.1,0.126
271,-0.014649681528662417,0.040740740740740744,0.0714285714285714,-0.07777777777777778,-0.1,0.12
272,-0.004519774011299438,-0.024675324675324628,-0.02941176470588236,0.018181818181818188,-0.023076923076923078,0.114
273,0.014040114613180443,0.020930232558139528,-0.033333333333333326,0.07500000000000001,-0.1,0.092
274,0.008554572271386451,0.01764705882352946,0.0,0.07500000000000001,0.0875,0.102
275,0.0015957446808509967,-0.037837837837837784,-0.2619047619047619,-0.11249999999999999,-0.023076923076923078,0.106
276,-0.0038251366120218844,-0.02051282051282044,-0.18181818181818182,-0.01428571428571429,-0.023076923076923078,0.11
277,-0.0020942408376963817,-0.1074074074074074,-0.06666666666666665,-0.07777777777777778,0.0875,0.11
278,-0.003658536585365857,0.04038461538461546,-0.2,0.17058823529411765,0.042857142857142844,0.11
279,0.012087912087912045,-0.010810810810810811,-0.03125,-0.0368421052631579,-0.1,0.094
280,0.026345609065155817,0.02289156626506028,0.02631578947368418,-0.09999999999999998,-0.1,0.08
281,-0.0028571428571428914,-0.004878048780487809,0.05813953488372092,-0.15714285714285714,-0.1,0.106
282,0.00303030303030305,0.03469387755102049,0.05555555555555558,-0.15714285714285714,-0.023076923076923078,0.104
283,0.014201183431952646,-0.0235294117647058,0.12264150943396224,0.1074074074074074,0.042857142857142844,0.098
284,-0.008033240997229907,-0.07704918032786878,0.012820512820512775,0.09285714285714286,-0.1,0.118
285,-0.02684365781710918,-0.05616438356164377,0.04166666666666663,0.06,0.033333333333333326,0.14
286,0.0002849002849002469,-0.02876712328767117,0.03488372093023251,0.0,-0.023076923076923078,0.11
287,-0.016959064327485396,-0.020987654320987592,0.033333333333333326,-0.01428571428571429,-0.1,0.126
288,0.0011627906976744429,0.009302325581395432,-0.01428571428571429,-0.0368421052631579,0.0875,0.108
289,-0.008882521489971373,-0.02499999999999991,-0.013513513513513487,-0.01428571428571429,-0.023076923076923078,0.12
290,0.010447761194029792,0.042268041237113474,0.013513513513513487,-0.06470588235294117,-0.02857142857142858,0.098
291,-0.00691823899371069,0.05229357798165146,-0.02941176470588236,0.08461538461538465,-0.023076923076923078,0.114
292,0.0016853932584269815,-0.042857142857142816,-0.02941176470588236,0.08461538461538465,0.042857142857142844,0.11
293,-0.0014492753623188692,0.0,0.045454545454545414,-0.07777777777777778,-0.023076923076923078,0.11
294,0.003225806451612856,0.04257425742574261,-0.09259259259259262,-0.06470588235294117,-0.02857142857142858,0.102
295,-0.002803738317757043,0.047663551401869175,0.03658536585365857,0.0,-0.1,0.108
296,-0.0021671826625386803,0.03469387755102049,0.07446808510638303,-0.0368421052631579,-0.023076923076923078,0.11
297,-0.009550561797752821,0.017391304347826098,-0.11538461538461536,-0.16666666666666666,-0.1,0.11
298,0.018604651162790642,0.019512195121951237,0.0714285714285714,-0.0222222222222222,0.042857142857142844,0.088
299,0.04610778443113772,0.07777777777777783,0.042857142857142816,0.04999999999999999,-0.016666666666666677,0.06
300,-0.010795454545454608,-0.047222222222222165,0.012195121951219523,0.033333333333333326,-0.1,0.122
301,-0.018784530386740328,-0.046666666666666634,-0.16666666666666669,-0.07777777777777778,0.1857142857142857,0.128
302,0.007692307692307665,0.0368421052631579,0.06818181818181823,0.0,0.0875,0.102
303,0.010447761194029792,0.031182795698924792,-0.015151515151515138,0.12857142857142856,-0.1,0.098
304,-0.023123123123123146,0.0021276595744681437,0.012195121951219523,-0.01428571428571429,-0.1,0.13
305,0.0002849002849002469,0.00786516853932584,-0.18181818181818182,0.018181818181818188,0.0875,0.108
306,0.008077994428969282,-0.033333333333333326,0.0,-0.12352941176470586,0.16315789473684209,0.104
307,0.025207756232687006,-0.13181818181818172,0.15625,0.0,-0.1,0.086
308,-0.014551083591331282,0.012871287128712883,-0.08620689655172414,0.11379310344827587,0.1222222222222222,0.128
309,0.012466843501326208,-0.060655737704917945,-0.03125,-0.06470588235294117,-0.023076923076923078,0.094
310,0.016149068322981353,0.06851851851851853,0.0,-0.0222222222222222,0.17777777777777778,0.09
311,0.02837465564738295,-0.014285714285714235,-0.125,0.14827586206896554,0.042857142857142844,0.082
312,-0.033333333333333326,0.004081632653061273,-0.02777777777777779,0.004347826086956552,-0.023076923076923078,0.14
313,-0.0005586592178771221,-0.038028169014084456,-0.01428571428571429,0.06,-0.1,0.11
314,-0.0007957559681698312,-0.09999999999999998,-0.08620689655172414,0.033333333333333326,0.033333333333333326,0.112
315,-0.007344632768361614,-0.042857142857142816,0.0,0.06,-0.023076923076923078,0.118
316,-0.029909365558912437,0.018750000000000044,-0.12962962962962965,0.1375,-0.02857142857142858,0.136
317,0.001129943502824804,-0.048484848484848464,0.03488372093023251,0.04782608695652174,0.042857142857142844,0.11
318,-0.01405835543766576,-0.08333333333333326,-0.12962962962962965,-0.04999999999999999,0.0875,0.122
319,-0.00031347962382444194,0.050000000000000044,0.012820512820512775,0.033333333333333326,0.042857142857142844,0.11
320,-0.013756613756613745,-0.1489795918367347,-0.10714285714285715,0.09285714285714286,0.07647058823529412,0.126
321,0.0034852546916890326,-0.048484848484848464,-0.02941176470588236,-0.3,0.0875,0.102
322,-0.022448979591836782,0.0021276595744681437,-0.12068965517241381,-0.01428571428571429,-0.023076923076923078,0.13
323,0.004891304347826031,-0.019999999999999907,-0.18181818181818182,0.018181818181818188,-0.023076923076923078,0.102
324,0.006329113924050556,-0.12,-0.18181818181818182,0.018181818181818188,-0.1,0.098
325,0.0040697674418604946,-0.024324324324324298,0.08823529411764708,0.0,-0.1,0.106
326,-0.010429447852760787,0.014285714285714346,0.045454545454545414,0.04782608695652174,0.0875,0.12
327,0.033503836317135494,-0.0703703703703703,-0.11538461538461536,-0.0222222222222222,-0.1,0.072
328,-0.007361963190184118,0.03529411764705892,0.012820512820512775,0.018181818181818188,-0.1,0.114
329,0.01975308641975304,0.03913043478260869,0.0957446808510638,0.06363636363636366,0.1,0.09
330,0.011392405063291089,-0.19999999999999996,0.03658536585365857,-0.16666666666666666,-0.023076923076923078,0.094
331,0.005537459283387558,0.08151260504201685,0.04761904761904767,0.0,-0.016666666666666677,0.098
332,-0.025000000000000022,0.0021276595744681437,-0.040540540540540515,-0.16666666666666666,0.1222222222222222,0.134
333,-0.014369501466275691,0.006521739130434856,-0.08064516129032256,-0.01428571428571429,0.033333333333333326,0.124
334,-0.0028571428571428914,-0.0023255813953487747,0.025000000000000022,-0.3,-0.023076923076923078,0.108
335,0.0030470914127423976,-0.06666666666666665,0.012820512820512775,0.1074074074074074,-0.023076923076923078,0.108
336,0.003409090909090917,0.03786407766990296,-0.2647058823529412,-0.06470588235294117,-0.1,0.096
337,0.0022346368715083775,-0.033333333333333326,-0.01428571428571429,0.018181818181818188,-0.023076923076923078,0.108
338,-0.009467455621301801,0.022772277227722793,-0.06666666666666665,-0.07777777777777778,-0.023076923076923078,0.116
339,-0.0071428571428571175,0.05675675675675684,0.04761904761904767,0.018181818181818188,0.07647058823529412,0.116
340,0.018128654970760216,0.06190476190476191,-0.18181818181818182,-0.06470588235294117,0.042857142857142844,0.086
341,-0.015384615384615441,0.10794701986754973,-0.09259259259259262,0.06,-0.1,0.11
342,-0.0005434782608695343,-0.08596491228070169,0.012195121951219523,0.018181818181818188,-0.1,0.112
343,0.015068493150684925,-0.04920634920634914,0.04761904761904767,-0.06470588235294117,-0.023076923076923078,0.094
344,-0.013333333333333308,0.02043010752688179,0.1461538461538462,0.018181818181818188,0.19999999999999998,0.124
345,0.02650918635170596,-0.12222222222222223,0.07446808510638303,-0.11249999999999999,-0.1,0.082
346,-0.01051212938005397,-0.10350877192982455,-0.0625,0.11379310344827587,-0.1,0.12
347,0.015068493150684925,-0.02857142857142858,0.025000000000000022,-0.15714285714285714,-0.1,0.092
348,-0.0012269938650306678,0.04528301886792452,-0.02941176470588236,0.04782608695652174,-0.1,0.108
349,0.018205804749340304,-0.019444444444444375,-0.35714285714285715,-0.0368421052631579,0.0875,0.086
350,-0.0013333333333334085,-0.08333333333333326,-0.02941176470588236,-0.16666666666666666,0.0875,0.11
351,-0.01452513966480451,-0.029113924050632844,-0.0625,-0.11249999999999999,0.033333333333333326,0.122
352,0.039790575916230364,-0.005555555555555536,-0.35714285714285715,0.06363636363636366,-0.1,0.062
353,0.002578796561604535,-0.019999999999999907,0.07446808510638303,-0.11249999999999999,-0.023076923076923078,0.106
354,0.00962099125364424,0.0,0.03658536585365857,0.04782608695652174,-0.023076923076923078,0.102
355,0.009365558912386662,0.050000000000000044,-0.015151515151515138,0.07500000000000001,-0.016666666666666677,0.096
356,0.0020771513353115,0.015909090909090984,0.0,0.06,0.042857142857142844,0.108
357,-0.012500000000000067,0.018750000000000044,0.07999999999999996,-0.01428571428571429,-0.023076923076923078,0.122
358,-0.03450292397660826,-0.06619718309859146,0.06603773584905659,-0.01428571428571429,-0.023076923076923078,0.144
359,-0.006741573033707926,-0.05820895522388059,0.023809523809523836,-0.0368421052631579,0.0875,0.118
360,-0.010119047619047694,0.04528301886792452,-0.16666666666666669,-0.16666666666666666,0.16315789473684209,0.114
361,-0.0002865329512894421,-0.019999999999999907,0.0625,-0.16666666666666666,-0.023076923076923078,0.11
362,-0.00588235294117645,0.0011494252873563982,-0.04545454545454547,0.08461538461538465,0.042857142857142844,0.116
363,0.021126760563380254,0.016049382716049387,0.050000000000000044,-0.21666666666666667,-0.016666666666666677,0.082
364,-0.0016949152542372614,0.00454545454545463,-0.08620689655172414,-0.07777777777777778,-0.1,0.108
365,-0.03483146067415732,-0.05064935064935061,-0.12962962962962965,0.033333333333333326,0.024999999999999994,0.144
366,-0.00928961748633883,-0.0692307692307692,-0.04285714285714287,-0.01428571428571429,-0.023076923076923078,0.12
367,-0.025000000000000022,0.020000000000000018,-0.04545454545454547,-0.07777777777777778,-0.023076923076923078,0.128
368,0.011111111111111072,0.0663551401869159,0.09183673469387754,-0.06470588235294117,-0.016666666666666677,0.094
369,-0.030742049469964727,0.08231292517006805,-0.06666666666666665,0.033333333333333326,0.0875,0.13
370,0.013580246913580174,0.041935483870967794,0.10784313725490191,0.0,-0.016666666666666677,0.094
371,-0.01403508771929829,0.003296703296703396,-0.02941176470588236,-0.07777777777777778,0.033333333333333326,0.122
372,-0.002272727272727315,-0.059374999999999956,0.10377358490566035,-0.07777777777777778,-0.023076923076923078,0.112
373,-0.023123123123123146,-0.021428571428571352,0.08490566037735847,-0.07777777777777778,-0.1,0.132
374,-0.003343465045592686,0.02043010752688179,0.0,0.0,0.15,0.116
375,0.02774566473988438,0.03863636363636369,-0.051724137931034475,-0.16666666666666666,0.21818181818181817,0.084
376,0.01569767441860459,0.0368421052631579,-0.03125,-0.06470588235294117,-0.016666666666666677,0.09
377,-0.010447761194029903,0.04336283185840717,-0.2368421052631579,-0.07777777777777778,0.033333333333333326,0.114
378,-0.006849315068493178,-0.047826086956521685,-0.013513513513513487,-0.11249999999999999,-0.023076923076923078,0.114
379,-0.011702127659574457,-0.053846153846153766,-0.08620689655172414,-0.16666666666666666,0.033333333333333326,0.116
380,-0.012500000000000067,0.052212389380530966,-0.02941176470588236,-0.07777777777777778,0.033333333333333326,0.118
381,0.0036144578313253017,0.031958762886597936,0.012820512820512775,-0.01428571428571429,-0.1,0.106
382,0.0014084507042253502,-0.004878048780487809,-0.08620689655172414,0.0,0.042857142857142844,0.106
383,-0.0024258760107817023,-0.05820895522388059,-0.06666666666666665,-0.01428571428571429,-0.1,0.11
384,0.009859154929577452,0.007317073170731714,-0.01428571428571429,-0.06470588235294117,-0.1,0.096
385,-0.0010638297872340718,-0.059374999999999956,-0.02777777777777779,-0.3,-0.023076923076923078,0.106
386,-0.010749185667752514,0.047747747747747815,0.07446808510638303,0.018181818181818188,-0.023076923076923078,0.118
387,-0.015819209039548032,-0.047222222222222165,0.023809523809523836,-0.01428571428571429,-0.1,0.124
388,0.01354466858789627,0.0,0.02631578947368418,0.04782608695652174,-0.016666666666666677,0.096
389,0.01066282420749276,0.012643678160919603,0.0,-0.15714285714285714,0.0875,0.098
390,-0.013712374581939857,0.014285714285714346,0.16176470588235292,0.13333333333333336,-0.1,0.124
391,0.007514450867052047,0.031182795698924792,-0.06666666666666665,0.0,-0.1,0.098
392,0.0014925373134327957,-0.010810810810810811,0.140625,-0.11249999999999999,-0.1,0.106
393,0.0026548672566371057,0.019101123595505642,0.025000000000000022,-0.0368421052631579,-0.023076923076923078,0.106
394,0.02857142857142858,-0.0703703703703703,0.03488372093023251,-0.15714285714285714,-0.1,0.08
395,0.01836734693877551,-0.028358208955223785,0.05813953488372092,0.15454545454545454,0.042857142857142844,0.098
396,-0.00439560439560438,-0.05294117647058816,0.012820512820512775,-0.11249999999999999,-0.023076923076923078,0.112
397,-0.034751773049645385,0.058064516129032295,0.0892857142857143,0.06,-0.023076923076923078,0.138
398,-0.01420612813370481,-0.042465753424657526,-0.02777777777777779,-0.11249999999999999,0.0875,0.122
399,0.0143730886850153,0.014285714285714346,0.13793103448275867,-0.06470588235294117,0.042857142857142844,0.096
400,-0.015755627009646278,0.014285714285714346,0.09999999999999998,0.018181818181818188,0.1857142857142857,0.128
401,0.0040000000000000036,-0.07096774193548383,-0.01428571428571429,-0.15714285714285714,0.042857142857142844,0.102
402,0.003903903903903827,0.012643678160919603,0.06521739130434778,0.0,0.042857142857142844,0.106
403,-0.0038251366120218844,-0.05820895522388059,-0.04545454545454547,0.004347826086956552,-0.1,0.114
404,-0.005740181268882205,0.04528301886792452,-0.09259259259259262,-0.01428571428571429,0.033333333333333326,0.112
405,0.0011976047904191933,0.054545454545454564,-0.18181818181818182,0.04782608695652174,-0.1,0.102
406,-0.017302052785923783,0.0021276595744681437,-0.0625,-0.04999999999999999,-0.023076923076923078,0.126
407,0.0035087719298245723,-0.00120481927710836,0.07446808510638303,-0.12352941176470586,-0.1,0.106
408,0.03523316062176163,-0.08775510204081627,0.014285714285714235,-0.09999999999999998,0.1,0.07
409,-0.02181303116147315,-0.05616438356164377,0.04166666666666663,-0.3,0.033333333333333326,0.13
410,-0.02256267409470758,-0.10677966101694913,0.012195121951219523,0.033333333333333326,0.07647058823529412,0.136
411,0.01598915989159888,-0.02857142857142858,-0.03125,-0.11249999999999999,-0.023076923076923078,0.092
412,0.015094339622641506,0.057281553398058294,0.06818181818181823,0.0,0.1,0.094
413,-0.009826589595375745,0.006521739130434856,-0.10714285714285715,0.004347826086956552,-0.1,0.118
414,-0.01176470588235301,-0.02051282051282044,0.05319148936170215,0.018181818181818188,-0.023076923076923078,0.122
415,0.012820512820512775,-0.17499999999999993,0.025000000000000022,-0.0368421052631579,-0.1,0.094
416,0.023512747875354068,-0.04999999999999993,0.12962962962962965,-0.06470588235294117,0.0875,0.088
417,0.0015873015873015817,0.040000000000000036,0.09183673469387754,0.018181818181818188,0.042857142857142844,0.108
418,0.006906906906906873,0.050000000000000044,-0.015151515151515138,-0.15714285714285714,0.0875,0.098
419,0.0,-0.00120481927710836,0.05555555555555558,-0.06470588235294117,0.033333333333333326,0.11
420,0.0024390243902439046,0.014285714285714346,0.13157894736842102,-0.15714285714285714,0.13529411764705881,0.104
421,0.03393393393393396,0.020000000000000018,0.10416666666666663,0.12307692307692308,0.17777777777777778,0.08
422,-0.012903225806451646,0.03786407766990296,0.09999999999999998,-0.11249999999999999,0.0875,0.12
423,-0.01728395061728394,0.020000000000000018,-0.02777777777777779,0.018181818181818188,0.1222222222222222,0.128
424,0.005027932960893877,-0.043283582089552186,0.03658536585365857,-0.07777777777777778,0.024999999999999994,0.108
425,-0.009859154929577452,-0.05294117647058816,-0.02777777777777779,0.033333333333333326,0.07647058823529412,0.124
426,0.02857142857142858,-0.03870967741935483,0.02631578947368418,-0.3,-0.1,0.076
427,0.009365558912386662,0.050000000000000044,-0.11538461538461536,0.11379310344827587,0.042857142857142844,0.1
428,-0.0011560693641619046,0.026315789473684292,-0.15217391304347827,0.06,-0.1,0.106
429,-0.018181818181818188,0.015789473684210575,0.0,0.018181818181818188,0.033333333333333326,0.126
430,0.010404624277456587,0.022222222222222254,-0.09259259259259262,0.07500000000000001,-0.023076923076923078,0.098
431,0.0046242774566473965,-0.024324324324324298,0.09615384615384615,-0.15714285714285714,0.042857142857142844,0.104
432,0.015662650602409567,0.047368421052631615,0.050000000000000044,-0.06470588235294117,0.0875,0.092
433,0.0019607843137254832,-0.024324324324324298,0.025000000000000022,-0.11249999999999999,-0.023076923076923078,0.106
434,-0.015264797507788197,0.04561403508771933,-0.14,0.08461538461538465,-0.02857142857142858,0.122
435,0.007563025210084007,-0.019999999999999907,0.014285714285714235,0.018181818181818188,-0.1,0.1
436,-0.009375000000000022,0.04285714285714293,0.025000000000000022,0.018181818181818188,-0.023076923076923078,0.116
437,0.012790697674418539,0.033333333333333326,-0.07142857142857145,0.07500000000000001,0.042857142857142844,0.094
438,0.013649025069637832,-0.015068493150684925,-0.03125,0.04782608695652174,-0.023076923076923078,0.096
439,-0.022448979591836782,0.06612903225806455,0.07999999999999996,-0.07777777777777778,0.042857142857142844,0.124
440,0.02857142857142858,0.03563218390804601,0.0957446808510638,-0.06470588235294117,-0.023076923076923078,0.082
441,0.004899135446685854,-0.02876712328767117,0.012820512820512775,0.13333333333333336,-0.1,0.108
442,-0.010144927536231862,-0.0692307692307692,0.09999999999999998,0.018181818181818188,-0.023076923076923078,0.122
443,-0.003896103896103953,0.0672413793103449,0.05813953488372092,-0.06470588235294117,0.0875,0.108
444,-0.024600638977635758,0.03394495412844045,0.023809523809523836,-0.07777777777777778,0.06666666666666665,0.134
445,-0.0059190031152648315,0.0652173913043479,-0.04838709677419356,0.018181818181818188,-0.1,0.108
446,-0.024620060790273568,-0.020987654320987592,0.09259259259259256,0.06,-0.1,0.132
447,-0.0036414565826330403,-0.024675324675324628,0.025000000000000022,-0.3,0.1,0.108
448,0.026430517711171664,0.016049382716049387,-0.2,0.033333333333333326,-0.1,0.078
449,-0.037809187279151946,0.057812500000000044,0.05319148936170215,0.11379310344827587,-0.023076923076923078,0.14
450,-0.017845117845117886,0.05423728813559325,0.08823529411764708,0.04782608695652174,-0.1,0.122
451,0.01501416430594904,-0.003797468354430289,-0.015151515151515138,0.07500000000000001,-0.1,0.094
452,-0.03595166163141994,0.02072072072072073,-0.08064516129032256,-0.22307692307692306,-0.02857142857142858,0.138
453,-0.01572700296735907,0.036363636363636376,-0.2142857142857143,-0.16666666666666666,0.07647058823529412,0.12
454,-0.001983002832861236,0.0011494252873563982,-0.2368421052631579,0.09130434782608698,0.1222222222222222,0.108
455,-0.01174785100286535,-0.02894736842105261,0.012195121951219523,-0.07777777777777778,0.0875,0.122
456,0.019540229885057436,0.008860759493670933,0.08695652173913049,-0.11249999999999999,-0.1,0.088
457,0.0020771513353115,0.031958762886597936,-0.01428571428571429,-0.04999999999999999,-0.1,0.106
458,0.02650918635170596,-0.0235294117647058,-0.15217391304347827,-0.06470588235294117,-0.1,0.078
459,-0.014285714285714346,0.0021276595744681437,-0.2142857142857143,-0.0368421052631579,0.0875,0.12
460,0.012280701754385892,-0.003797468354430289,0.10784313725490191,-0.15714285714285714,0.042857142857142844,0.096
461,0.013173652694610793,0.01764705882352946,0.0,0.12857142857142856,0.16315789473684209,0.1
462,-0.036518771331058075,0.08289473684210535,-0.08620689655172414,-0.22307692307692306,-0.023076923076923078,0.128
463,0.009859154929577452,-0.019999999999999907,0.025000000000000022,-0.0368421052631579,-0.1,0.1
464,-0.002777777777777768,0.011111111111111183,-0.11538461538461536,-0.22307692307692306,-0.1,0.104
465,-0.009756097560975618,0.03831775700934581,-0.08620689655172414,-0.01428571428571429,0.033333333333333326,0.118
466,0.009340659340659307,-0.00864197530864197,-0.14,-0.15714285714285714,0.0875,0.098
467,-0.014613180515759328,-0.033333333333333326,-0.01428571428571429,0.018181818181818188,0.16315789473684209,0.124
468,-0.003343465045592686,0.014285714285714346,0.025000000000000022,0.11379310344827587,-0.1,0.114
469,-0.01904761904761909,0.014285714285714346,-0.0625,0.018181818181818188,-0.1,0.126
470,-0.02544802867383511,0.07519379844961249,0.11403508771929827,-0.0368421052631579,0.0875,0.126
471,0.021282798833819228,0.019512195121951237,0.02631578947368418,0.04782608695652174,0.042857142857142844,0.09
472,0.02920353982300883,0.021518987341772156,0.08695652173913049,0.06363636363636366,0.042857142857142844,0.082
473,-0.009625668449197877,-0.10350877192982455,0.012195121951219523,-0.16666666666666666,-0.023076923076923078,0.118
474,0.0033942558746735685,-0.07096774193548383,-0.08620689655172414,-0.16666666666666666,-0.1,0.102
475,-0.030563798219584548,0.0010309278350515427,-0.08064516129032256,-0.04999999999999999,0.033333333333333326,0.138
476,-0.00439560439560438,-0.059374999999999956,0.03488372093023251,-0.11249999999999999,-0.023076923076923078,0.112
477,0.016417910447761197,0.027272727272727337,0.06521739130434778,-0.11249999999999999,0.033333333333333326,0.096
478,-0.0005747126436781436,0.005882352941176561,-0.04838709677419356,0.004347826086956552,-0.023076923076923078,0.11
479,-0.01176470588235301,0.0011494252873563982,0.023809523809523836,-0.11249999999999999,0.033333333333333326,0.12
480,-0.00826210826210827,0.006521739130434856,-0.2142857142857143,0.004347826086956552,-0.023076923076923078,0.116
481,0.010543130990415261,0.09527559055118118,-0.03125,-0.06470588235294117,-0.1,0.09
482,-0.008910891089108919,0.08461538461538465,0.04761904761904767,-0.15714285714285714,-0.1,0.106
483,0.044289693593314694,0.008333333333333415,0.052631578947368474,0.033333333333333326,-0.1,0.064
484,0.009365558912386662,-0.015068493150684925,0.13157894736842102,0.08461538461538465,-0.023076923076923078,0.104
485,0.0040000000000000036,-0.10384615384615381,0.025000000000000022,0.0,-0.023076923076923078,0.104
486,0.03817204301075272,-0.003030303030302939,0.02777777777777779,-0.09999999999999998,-0.1,0.066
487,0.0034852546916890326,-0.19999999999999996,0.10869565217391308,0.06,0.1222222222222222,0.106
488,0.006515580736543902,-0.02876712328767117,0.025000000000000022,0.0,0.042857142857142844,0.104
489,-0.012121212121212088,0.04561403508771933,-0.14,-0.11249999999999999,0.033333333333333326,0.116
490,0.002777777777777768,-0.09285714285714286,0.06521739130434778,0.018181818181818188,0.0875,0.11
491,0.007120743034055743,0.027272727272727337,0.05813953488372092,0.18571428571428572,-0.1,0.104
492,0.009348441926345541,0.03737373737373739,-0.2368421052631579,-0.11249999999999999,-0.023076923076923078,0.094
493,0.021052631578947323,-0.043749999999999956,-0.04838709677419356,-0.15714285714285714,-0.1,0.084
494,-0.04715719063545154,0.03387096774193554,-0.026315789473684237,0.033333333333333326,-0.03333333333333334,0.154
495,-0.00638297872340432,0.03529411764705892,-0.04838709677419356,0.06,-0.023076923076923078,0.114
496,-0.01016949152542379,-0.05211267605633796,-0.02777777777777779,0.033333333333333326,0.033333333333333326,0.124
497,-0.002564102564102555,-0.033333333333333326,0.045454545454545414,-0.0368421052631579,0.042857142857142844,0.112
498,-0.04417177914110426,0.004761904761904856,-0.05882352941176472,-0.04999999999999999,0.033333333333333326,0.15
499,-0.029032258064516148,0.012871287128712883,0.06000000000000005,0.06,-0.02857142857142858,0.14
500,-0.023809523809523836,0.008333333333333415,0.09259259259259256,-0.0368421052631579,0.0875,0.132
501,-0.007692307692307665,0.050000000000000044,-0.06666666666666665,0.08461538461538465,-0.1,0.112
502,0.0026548672566371057,0.023404255319149025,0.0,-0.06470588235294117,0.042857142857142844,0.104
503,0.008805031446540879,0.05490196078431375,0.05813953488372092,0.04782608695652174,-0.02857142857142858,0.102
504,0.010614525139664766,0.005882352941176561,-0.09259259259259262,-0.06470588235294117,-0.023076923076923078,0.096
505,-0.007648725212464624,-0.038028169014084456,0.05319148936170215,-0.11249999999999999,-0.023076923076923078,0.116
506,0.0037433155080213165,-0.059374999999999956,-0.14,0.04782608695652174,0.042857142857142844,0.104
507,0.00519877675840974,0.039583333333333415,-0.015151515151515138,0.15161290322580645,-0.023076923076923078,0.104
508,0.018539325842696575,0.005128205128205221,0.0,-0.0368421052631579,-0.023076923076923078,0.09
509,0.0036827195467421525,0.023404255319149025,-0.15217391304347827,-0.06470588235294117,-0.023076923076923078,0.1
510,-0.015501519756838888,-0.00588235294117645,0.10344827586206895,-0.11249999999999999,-0.1,0.124
511,-0.0028571428571428914,-0.024675324675324628,0.06521739130434778,-0.15714285714285714,-0.023076923076923078,0.11
512,0.017808219178082174,-0.043749999999999956,0.013513513513513487,0.018181818181818188,-0.016666666666666677,0.092
513,0.003225806451612856,-0.08333333333333326,-0.04545454545454547,-0.0368421052631579,0.0875,0.108
514,0.02134831460674158,0.0012987012987013546,0.0,-0.0368421052631579,0.042857142857142844,0.088
515,0.0,-0.042857142857142816,-0.0625,-0.027272727272727282,0.0875,0.114
516,0.006249999999999978,0.015909090909090984,-0.03125,-0.11249999999999999,-0.1,0.1
517,0.005775075987841882,0.05238095238095242,0.04761904761904767,-0.22307692307692306,-0.1,0.098
518,0.029319371727748678,-0.028358208955223785,-0.11538461538461536,-0.15714285714285714,-0.1,0.076
519,0.005511811023621971,-0.07931034482758614,-0.11538461538461536,-0.01428571428571429,0.042857142857142844,0.102
520,0.006976744186046435,0.009302325581395432,-0.09259259259259262,0.1074074074074074,0.0875,0.104
521,0.009090909090909038,0.025274725274725296,-0.03125,0.0,0.0875,0.1
522,-0.030057803468208077,0.0,-0.16666666666666669,-0.16666666666666666,0.033333333333333326,0.134
523,0.0312977099236641,-0.06206896551724128,-0.15217391304347827,-0.15714285714285714,-0.016666666666666677,0.072
524,-0.0009174311926605228,0.0023809523809523725,0.1071428571428571,0.0,-0.023076923076923078,0.112
525,0.003726708074534124,0.05471698113207557,0.05813953488372092,-0.11249999999999999,-0.023076923076923078,0.102
526,0.006344410876132911,0.07049180327868854,-0.18181818181818182,-0.15714285714285714,-0.1,0.094
527,0.007928388746803017,-0.12857142857142856,-0.04545454545454547,-0.11249999999999999,-0.1,0.098
528,-0.01782477341389732,0.003296703296703396,0.05319148936170215,-0.04999999999999999,-0.1,0.126
529,0.010364145658263269,-0.07288135593220335,0.03658536585365857,0.1074074074074074,0.0875,0.104
530,0.011174785100286466,-0.015789473684210464,0.03658536585365857,-0.06470588235294117,0.07647058823529412,0.102
531,-0.009792284866468881,0.0011494252873563982,0.045454545454545414,-0.0368421052631579,-0.023076923076923078,0.118
532,-0.009550561797752821,-0.059374999999999956,0.045454545454545414,0.06,-0.1,0.118
533,-0.014613180515759328,-0.05294117647058816,0.05319148936170215,0.06,-0.1,0.124
534,-0.003343465045592686,0.0368421052631579,0.025000000000000022,0.018181818181818188,0.042857142857142844,0.11
535,0.004392764857881093,-0.12,-0.06666666666666665,0.018181818181818188,-0.1,0.102
536,-0.008882521489971373,-0.00588235294117645,-0.013513513513513487,-0.11249999999999999,-0.023076923076923078,0.116
537,-0.024183006535947738,0.03873873873873879,0.06862745098039214,-0.0368421052631579,-0.023076923076923078,0.13
538,0.019220055710306383,-0.010810810810810811,0.045454545454545414,-0.21666666666666667,-0.1,0.088
539,0.018767507002801054,-0.08461538461538454,0.125,0.033333333333333326,-0.1,0.094
540,0.003409090909090917,0.03469387755102049,-0.15217391304347827,-0.15714285714285714,-0.023076923076923078,0.098
541,-0.004683195592286471,-0.004878048780487809,-0.11538461538461536,-0.07777777777777778,-0.1,0.108
542,-0.007255520504731883,0.06271186440677967,-0.15217391304347827,0.06,0.13529411764705881,0.112
543,0.009348441926345541,0.0037037037037037646,-0.07142857142857145,0.04782608695652174,0.033333333333333326,0.1
544,-0.026404494382022525,-0.014606741573033655,-0.2777777777777778,0.033333333333333326,-0.023076923076923078,0.13
545,0.021052631578947323,0.03913043478260869,-0.03125,0.0,0.042857142857142844,0.088
546,-0.01647727272727273,0.0052631578947368585,-0.12962962962962965,-0.22307692307692306,-0.023076923076923078,0.12
547,0.0022988505747125743,0.00786516853932584,-0.01428571428571429,-0.06470588235294117,-0.1,0.104
548,0.028977272727272685,0.016049382716049387,0.02777777777777779,0.033333333333333326,-0.1,0.078
549,-0.02209302325581397,-0.03749999999999998,0.0,0.06,-0.1,0.132
550,-0.010787172011661794,0.015789473684210575,-0.02941176470588236,-0.16666666666666666,-0.023076923076923078,0.116
551,0.009604519774011222,-0.02857142857142858,0.05813953488372092,-0.0368421052631579,0.042857142857142844,0.1
552,-0.00031347962382444194,0.050000000000000044,0.013513513513513487,0.07500000000000001,0.0875,0.108
553,-0.02292358803986716,0.03873873873873879,0.05319148936170215,0.020000000000000018,0.024999999999999994,0.136
554,0.01304347826086949,0.042268041237113474,-0.015151515151515138,-0.22307692307692306,-0.016666666666666677,0.09
555,-0.005405405405405461,-0.09999999999999998,-0.01282051282051283,-0.07777777777777778,0.1222222222222222,0.118
556,0.00649350649350644,-0.11176470588235288,-0.04545454545454547,-0.07777777777777778,-0.023076923076923078,0.102
557,-0.0005154639175257714,-0.13137254901960782,-0.14,-0.01428571428571429,0.033333333333333326,0.11
558,-0.010787172011661794,-0.00952380952380949,-0.02777777777777779,-0.0368421052631579,0.1222222222222222,0.122
559,-0.009375000000000022,0.02043010752688179,0.12068965517241381,-0.07777777777777778,-0.1,0.116
560,-0.0008403361344537785,0.029166666666666674,-0.32352941176470584,-0.0368421052631579,-0.1,0.102
561,-0.01314984709480127,0.040740740740740744,-0.06666666666666665,0.018181818181818188,-0.023076923076923078,0.118
562,0.02571428571428569,0.002702702702702786,0.09999999999999998,-0.0222222222222222,-0.023076923076923078,0.082
563,-0.0034482758620689724,0.10000000000000009,0.038461538461538436,-0.0368421052631579,-0.016666666666666677,0.102
564,0.002140672782874553,0.015909090909090984,0.07446808510638303,0.1074074074074074,-0.1,0.108
565,0.003726708074534124,0.04257425742574261,0.09183673469387754,-0.06470588235294117,-0.1,0.102
566,-0.019496855345911945,0.01717171717171717,0.0714285714285714,-0.0368421052631579,0.033333333333333326,0.128
567,-0.02426035502958579,-0.02499999999999991,0.06862745098039214,-0.04999999999999999,-0.1,0.132
568,0.0029649595687331054,-0.14444444444444438,-0.013513513513513487,0.13333333333333336,0.07647058823529412,0.112
569,0.01733333333333331,-0.043749999999999956,-0.09259259259259262,0.0,0.042857142857142844,0.09
570,-0.029746835443038022,0.008333333333333415,0.05319148936170215,-0.01428571428571429,0.15,0.14
571,0.0,0.06106194690265487,-0.125,0.16875,-0.1,0.104
572,0.004024767801857565,0.042268041237113474,0.06521739130434778,0.04782608695652174,-0.1,0.104
573,0.011314984709480114,0.06785714285714295,-0.09999999999999998,0.07500000000000001,-0.016666666666666677,0.092
574,0.001734104046242746,-0.00120481927710836,0.0,0.0,-0.023076923076923078,0.108
575,-0.0005917159763313418,-0.00864197530864197,0.06521739130434778,0.018181818181818188,-0.023076923076923078,0.112
576,0.010326086956521707,-0.007692307692307665,-0.11538461538461536,-0.06470588235294117,-0.1,0.094
577,-0.02264150943396226,0.011340206185567081,0.11016949152542377,-0.22307692307692306,-0.023076923076923078,0.128
578,-0.012391930835734866,0.017391304347826098,-0.08620689655172414,-0.0368421052631579,-0.023076923076923078,0.116
579,-0.035220125786163514,0.03983739837398381,-0.15384615384615385,-0.12352941176470586,0.024999999999999994,0.14
580,0.0022988505747125743,0.02043010752688179,-0.08620689655172414,-0.0368421052631579,-0.1,0.104
581,0.01689750692520775,-0.003797468354430289,-0.11538461538461536,0.04782608695652174,-0.1,0.092
582,-0.015273775216138374,-0.014606741573033655,-0.04285714285714287,-0.11249999999999999,-0.1,0.126
583,0.032011331444759206,0.010526315789473717,0.050000000000000044,-0.06470588235294117,0.042857142857142844,0.078
584,-0.020370370370370372,-0.00952380952380949,0.023809523809523836,0.09285714285714286,0.21818181818181817,0.134
585,0.018918918918918948,-0.19999999999999996,-0.06666666666666665,-0.15714285714285714,-0.023076923076923078,0.084
586,0.0033232628398791597,0.04757281553398063,-0.06666666666666665,0.018181818181818188,0.042857142857142844,0.104
587,0.008284023668639007,0.042268041237113474,-0.015151515151515138,0.0,-0.016666666666666677,0.096
588,-0.018589743589743635,0.023404255319149025,0.1071428571428571,0.06,-0.023076923076923078,0.126
589,0.0033232628398791597,0.03737373737373739,0.0,0.04782608695652174,-0.1,0.104
590,-0.029129129129129128,0.0010309278350515427,-0.02777777777777779,0.004347826086956552,-0.1,0.136
591,-0.0071428571428571175,0.03831775700934581,-0.2142857142857143,0.018181818181818188,-0.02857142857142858,0.114
592,-0.005413105413105468,-0.07096774193548383,0.03488372093023251,0.11379310344827587,0.033333333333333326,0.12
593,0.030167597765363152,0.014285714285714346,-0.033333333333333326,0.0,0.1,0.078
594,0.0029649595687331054,-0.024324324324324298,-0.2368421052631579,0.06,-0.1,0.102
595,-0.00439560439560438,-0.09285714285714286,0.07692307692307687,-0.11249999999999999,-0.1,0.114
596,0.03103448275862064,0.017948717948717996,0.060975609756097615,0.033333333333333326,-0.016666666666666677,0.078
597,-0.013372093023255816,-0.00588235294117645,0.023809523809523836,-0.12352941176470586,-0.1,0.122
598,-0.01764705882352946,0.01717171717171717,-0.0625,-0.22857142857142856,0.033333333333333326,0.124
599,0.006158357771260947,0.022222222222222254,-0.03125,0.04782608695652174,-0.02857142857142858,0.104
600,0.01304347826086949,0.0368421052631579,-0.01428571428571429,-0.15714285714285714,-0.1,0.092
601,-0.043250688705234186,-0.0636363636363636,-0.14285714285714285,-0.12352941176470586,-0.03333333333333334,0.152
602,0.014600550964187331,-0.015068493150684925,-0.04838709677419356,0.0,-0.023076923076923078,0.094
603,0.03368700265251989,-0.028124999999999956,-0.09999999999999998,0.04782608695652174,-0.1,0.074
604,0.0030470914127423976,-0.033333333333333326,0.03488372093023251,-0.3,-0.023076923076923078,0.104
605,0.005044510385756706,0.02826086956521745,0.025000000000000022,0.0,-0.1,0.102
606,0.004891304347826031,-0.053846153846153766,0.025000000000000022,-0.22307692307692306,0.042857142857142844,0.102
607,0.01354466858789627,0.010843373493975905,0.0,0.0,0.042857142857142844,0.096
608,-0.02232415902140672,0.012765957446808529,-0.013513513513513487,0.033333333333333326,0.1222222222222222,0.132
609,0.00031152647975074554,0.02826086956521745,0.11111111111111116,-0.0368421052631579,-0.02857142857142858,0.11
610,-0.02639405204460965,0.09591836734693882,0.0625,0.04782608695652174,-0.023076923076923078,0.124
611,0.001129943502824804,-0.053846153846153766,0.03658536585365857,0.08461538461538465,0.042857142857142844,0.11
612,0.02134831460674158,-0.014285714285714235,-0.015151515151515138,0.1074074074074074,0.042857142857142844,0.09
613,0.01764705882352935,0.044897959183673564,0.0,-0.11249999999999999,-0.016666666666666677,0.088
614,0.01975308641975304,0.055102040816326525,0.06818181818181823,0.0,0.042857142857142844,0.09
615,-0.01746031746031751,0.05833333333333335,-0.0625,-0.0368421052631579,-0.02857142857142858,0.122
616,-0.01799410029498527,0.03913043478260869,-0.2368421052631579,-0.11249999999999999,-0.1,0.116
617,-0.011445783132530196,0.031481481481481555,-0.02941176470588236,-0.16666666666666666,-0.1,0.116
618,0.016666666666666607,0.02826086956521745,0.014285714285714235,0.04782608695652174,0.042857142857142844,0.094
619,0.023076923076923106,0.03626373626373636,-0.07142857142857145,0.16666666666666669,-0.023076923076923078,0.088
620,0.009859154929577452,-0.023943661971830954,-0.01428571428571429,0.12857142857142856,-0.1,0.1
621,-0.019883040935672502,0.008333333333333415,-0.02777777777777779,-0.16666666666666666,-0.1,0.124
622,0.013690476190476142,0.05490196078431375,0.0,-0.06470588235294117,-0.1,0.09
623,0.0019607843137254832,0.06146788990825691,0.07446808510638303,0.08461538461538465,-0.016666666666666677,0.106
624,0.0033149171270717703,-0.007692307692307665,-0.04838709677419356,-0.11249999999999999,-0.023076923076923078,0.102
625,-0.0008902077151335952,0.019101123595505642,0.08333333333333337,-0.22307692307692306,-0.023076923076923078,0.106
626,0.024528301886792447,-0.05483870967741933,0.0,-0.06470588235294117,0.042857142857142844,0.086
627,-0.012211221122112259,0.08195488721804511,-0.09375,-0.0222222222222222,0.042857142857142844,0.114
628,-0.0028571428571428914,-0.004878048780487809,0.0,-0.01428571428571429,-0.1,0.11
629,0.020547945205479423,-0.04426229508196722,0.05813953488372092,-0.0368421052631579,-0.1,0.09
630,-0.0052631578947368585,-0.14444444444444438,0.03488372093023251,-0.01428571428571429,-0.1,0.112
631,0.005714285714285672,0.005882352941176561,0.013513513513513487,-0.06470588235294117,-0.1,0.1
632,-0.002564102564102555,-0.00120481927710836,-0.15217391304347827,0.06,0.1222222222222222,0.112
633,0.008045977011494232,0.031182795698924792,-0.04838709677419356,-0.06470588235294117,-0.1,0.096
634,0.005775075987841882,0.025274725274725296,0.07446808510638303,-0.0368421052631579,0.042857142857142844,0.104
635,-0.0016949152542372614,0.00786516853932584,-0.3125,0.11379310344827587,-0.1,0.108
636,-0.014285714285714346,-0.01764705882352935,-0.0625,0.018181818181818188,-0.1,0.122
637,-0.006017191977077396,0.019101123595505642,-0.02941176470588236,-0.16666666666666666,-0.023076923076923078,0.11
638,-0.021293800539083585,-0.042105263157894646,-0.2142857142857143,-0.04999999999999999,-0.1,0.126
639,0.026470588235294135,0.03563218390804601,0.02631578947368418,0.033333333333333326,0.042857142857142844,0.084
640,-0.018181818181818188,0.006521739130434856,0.0714285714285714,-0.11249999999999999,-0.023076923076923078,0.124
641,0.0008264462809917106,-0.047826086956521685,-0.01428571428571429,0.018181818181818188,-0.1,0.108
642,0.0005235602094240122,-0.1074074074074074,-0.10714285714285715,-0.01428571428571429,0.033333333333333326,0.11
643,0.001098901098901095,-0.08596491228070169,0.0714285714285714,-0.11249999999999999,-0.02857142857142858,0.11
644,0.006344410876132911,0.059259259259259345,-0.04838709677419356,-0.0368421052631579,-0.1,0.098
645,-0.01403508771929829,0.025490196078431393,-0.14,-0.07777777777777778,-0.023076923076923078,0.118
646,0.017293233082706694,-0.18648648648648647,-0.02941176470588236,-0.11249999999999999,0.042857142857142844,0.088
647,0.007356948228882776,-0.033333333333333326,-0.04545454545454547,-0.06470588235294117,-0.1,0.1
648,0.0013333333333332975,-0.1074074074074074,0.0714285714285714,-0.3,-0.1,0.104
649,0.008077994428969282,-0.02857142857142858,0.025000000000000022,0.0,-0.1,0.1
650,-0.051234567901234596,0.010526315789473717,-0.12068965517241381,-0.08947368421052632,-0.02857142857142858,0.156
651,-0.00439560439560438,-0.07096774193548383,0.023809523809523836,-0.11249999999999999,0.024999999999999994,0.116
652,0.020454545454545392,-0.018840579710144856,0.08695652173913049,0.033333333333333326,-0.016666666666666677,0.088
653,0.020588235294117574,0.033333333333333326,0.02631578947368418,0.033333333333333326,-0.1,0.088
654,0.0010695187165775666,-0.05294117647058816,-0.0625,-0.16666666666666666,-0.1,0.106
655,-0.015151515151515138,0.015789473684210575,0.06521739130434778,-0.07777777777777778,-0.1,0.12
656,-0.025827814569536423,0.0478991596638656,0.04347826086956519,0.018181818181818188,-0.1,0.13
657,0.012280701754385892,0.024137931034482807,0.050000000000000044,0.0,-0.1,0.094
658,0.017355371900826477,-0.015068493150684925,-0.04838709677419356,0.018181818181818188,-0.1,0.092
659,0.02287234042553188,-0.14444444444444438,0.038461538461538436,0.12857142857142856,-0.016666666666666677,0.088
660,-0.011111111111111183,-0.11818181818181817,-0.04545454545454547,-0.01428571428571429,-0.023076923076923078,0.12
661,-0.002564102564102555,0.05675675675675684,0.07446808510638303,-0.0368421052631579,-0.1,0.108
662,0.01758241758241752,0.0037037037037037646,-0.15217391304347827,-0.0368421052631579,-0.023076923076923078,0.09
663,0.018256130790190728,-0.0026315789473684292,-0.04838709677419356,-0.15714285714285714,-0.016666666666666677,0.086
664,-0.021874999999999978,0.05206611570247943,-0.11538461538461536,-0.07777777777777778,0.033333333333333326,0.124
665,0.000990099009900991,0.07391304347826089,0.07446808510638303,0.04782608695652174,-0.016666666666666677,0.104
666,-0.030813953488372126,0.0010309278350515427,-0.16666666666666669,-0.07777777777777778,0.07647058823529412,0.136
667,0.014600550964187331,-0.06666666666666665,0.05813953488372092,0.0,0.042857142857142844,0.096
668,0.015300546448087426,-0.038461538461538436,-0.04838709677419356,0.1074074074074074,-0.1,0.094
669,-0.019122257053291514,0.05206611570247943,-0.10714285714285715,-0.0368421052631579,-0.023076923076923078,0.122
670,0.011174785100286466,0.009302325581395432,-0.015151515151515138,-0.11249999999999999,0.0875,0.098
671,0.006005221932114835,-0.07931034482758614,-0.11538461538461536,0.018181818181818188,-0.1,0.1
672,0.004891304347826031,-0.00120481927710836,-0.2368421052631579,-0.0368421052631579,-0.1,0.098
673,0.005292479108635062,-0.02876712328767117,0.012820512820512775,-0.06470588235294117,-0.1,0.104
674,0.021511627906976694,0.005128205128205221,0.07777777777777772,-0.0222222222222222,0.033333333333333326,0.09
675,0.019254658385093104,0.005128205128205221,0.15000000000000002,0.10000000000000003,0.1,0.094
676,0.01594202898550723,0.042268041237113474,-0.03125,-0.21666666666666667,0.042857142857142844,0.088
677,-0.006267029972752081,-0.016455696202531622,-0.16666666666666669,-0.0368421052631579,-0.1,0.11
678,-0.0020408163265306367,-0.011688311688311637,0.0625,-0.0368421052631579,-0.023076923076923078,0.112
679,0.005555555555555536,-0.011688311688311637,0.0,-0.11249999999999999,-0.1,0.1
680,-0.015015974440894642,0.0431192660550459,0.09090909090909094,-0.01428571428571429,-0.023076923076923078,0.118
681,0.03502824858757059,0.017948717948717996,-0.033333333333333326,0.12307692307692308,-0.016666666666666677,0.074
682,0.004899135446685854,0.0037037037037037646,0.025000000000000022,-0.0368421052631579,-0.023076923076923078,0.104
683,-0.006936416184971095,-0.1074074074074074,0.11403508771929827,0.13333333333333336,-0.023076923076923078,0.12
684,-0.012068965517241348,0.006521739130434856,-0.0625,-0.16666666666666666,-0.023076923076923078,0.118
685,0.03700787401574801,-0.0703703703703703,0.014285714285714235,0.0,-0.1,0.07
686,0.020588235294117574,0.050000000000000044,-0.07142857142857145,0.07500000000000001,-0.016666666666666677,0.086
687,0.007821229050279266,-0.06666666666666665,0.08823529411764708,0.0,-0.1,0.102
688,-0.027388535031847128,0.023809523809523836,0.012195121951219523,0.07037037037037036,-0.023076923076923078,0.136
689,0.012466843501326208,-0.08181818181818179,0.025000000000000022,-0.12352941176470586,-0.1,0.096
690,-0.011111111111111183,-0.019444444444444375,0.0714285714285714,0.08461538461538465,-0.1,0.118
691,-0.02721893491124261,-0.029268292682926744,0.022727272727272707,-0.01428571428571429,0.033333333333333326,0.138
692,0.017159763313609466,0.030337078651685445,0.04761904761904767,-0.0368421052631579,-0.016666666666666677,0.092
693,-0.005571847507331418,-0.02876712328767117,0.05555555555555558,0.06,0.0875,0.118
694,-0.0012987012987013546,-0.19999999999999996,0.023809523809523836,-0.0368421052631579,0.0875,0.11
695,0.014529914529914478,-0.006666666666666599,0.04761904761904767,0.033333333333333326,-0.1,0.094
696,-0.013432835820895495,0.018750000000000044,-0.08620689655172414,0.06,0.033333333333333326,0.122
697,-0.02320916905444126,-0.025301204819277112,-0.12962962962962965,0.10000000000000003,-0.1,0.132
698,0.014062499999999978,-0.038235294117647034,-0.18181818181818182,-0.22307692307692306,-0.023076923076923078,0.09
699,-0.002702702702702675,-0.05820895522388059,-0.10714285714285715,0.033333333333333326,-0.1,0.112
700,-0.0077844311377245345,-0.02051282051282044,0.025000000000000022,0.13333333333333336,0.1222222222222222,0.122
701,-0.006194690265486802,-0.02051282051282044,0.0714285714285714,-0.01428571428571429,-0.023076923076923078,0.118
702,-0.02714776632302407,0.05833333333333335,0.09259259259259256,0.018181818181818188,-0.1,0.132
703,0.006976744186046435,-0.028358208955223785,0.09615384615384615,0.04782608695652174,0.042857142857142844,0.104
704,0.004899135446685854,0.012643678160919603,-0.03125,0.0,0.042857142857142844,0.102
705,-0.0035502958579881616,0.03786407766990296,-0.15217391304347827,0.06,-0.1,0.108
706,0.011428571428571455,-0.007692307692307665,0.013513513513513487,0.018181818181818188,-0.023076923076923078,0.1
707,0.008571428571428563,-0.024324324324324298,0.05555555555555558,0.0,-0.1,0.102
708,0.013157894736842035,-0.05483870967741933,-0.2,0.06,-0.023076923076923078,0.094
709,-0.009677419354838679,0.06068376068376069,0.06521739130434778,-0.11249999999999999,-0.1,0.112
710,-0.003343465045592686,0.05229357798165146,-0.09259259259259262,0.04782608695652174,-0.016666666666666677,0.106
711,0.0028213166144200885,0.04257425742574261,0.013513513513513487,0.1074074074074074,0.0875,0.108
712,-0.008401084010840165,-0.042465753424657526,0.0,-0.3,-0.1,0.11
713,-0.005421686746987953,0.0326732673267327,0.0,-0.11249999999999999,0.033333333333333326,0.112
714,-0.0022099447513812542,-0.033333333333333326,-0.013513513513513487,-0.22307692307692306,0.0875,0.11
715,-0.0034482758620689724,-0.016455696202531622,0.045454545454545414,-0.07777777777777778,-0.1,0.112
716,0.00962099125364424,-0.015789473684210464,0.025000000000000022,0.07500000000000001,0.13529411764705881,0.104
717,-0.008823529411764675,0.009302325581395432,0.045454545454545414,-0.0368421052631579,-0.1,0.114
718,0.0056047197640117785,0.029166666666666674,-0.04838709677419356,0.0,0.042857142857142844,0.102
719,-0.03313609467455625,-0.015217391304347738,-0.013513513513513487,-0.04999999999999999,-0.023076923076923078,0.14
720,0.00962099125364424,0.05238095238095242,-0.09259259259259262,-0.15714285714285714,-0.1,0.092
721,-0.025000000000000022,0.02115384615384619,0.012195121951219523,-0.11249999999999999,-0.1,0.128
722,0.004899135446685854,0.031182795698924792,-0.11538461538461536,0.04782608695652174,-0.1,0.1
723,-0.00179640718562879,0.04038461538461546,-0.01428571428571429,-0.15714285714285714,-0.023076923076923078,0.106
724,0.005555555555555536,-0.12,0.05319148936170215,0.1375,-0.1,0.11
725,-0.0021021021021021546,0.047663551401869175,-0.11538461538461536,0.0,0.042857142857142844,0.106
726,-0.00666666666666671,-0.042465753424657526,-0.18181818181818182,-0.16666666666666666,0.033333333333333326,0.112
727,0.009090909090909038,-0.14444444444444438,-0.06666666666666665,0.08461538461538465,0.042857142857142844,0.1
728,-0.014882506527415185,-0.12592592592592589,-0.08064516129032256,-0.07777777777777778,-0.02857142857142858,0.124
729,0.024675324675324628,-0.14186046511627903,-0.015151515151515138,0.08461538461538465,-0.023076923076923078,0.086
730,-0.01377245508982039,0.022772277227722793,-0.013513513513513487,-0.16666666666666666,-0.023076923076923078,0.12
731,-0.008108108108108136,0.018750000000000044,-0.06666666666666665,0.08461538461538465,0.033333333333333326,0.118
732,0.002578796561604535,0.04257425742574261,-0.15217391304347827,-0.11249999999999999,-0.1,0.098
733,0.0019073569482288555,-0.033333333333333326,-0.14,-0.07777777777777778,0.1222222222222222,0.108
734,-0.0030640668523677084,-0.02051282051282044,-0.08620689655172414,-0.0368421052631579,0.033333333333333326,0.112
735,0.008823529411764675,0.019101123595505642,-0.01428571428571429,0.04782608695652174,-0.023076923076923078,0.102
736,0.007894736842105288,-0.07288135593220335,-0.09259259259259262,0.018181818181818188,-0.1,0.1
737,-0.007692307692307665,0.052212389380530966,-0.15217391304347827,0.04782608695652174,0.0875,0.112
738,-0.0056511056511057145,-0.18780487804878043,-0.10714285714285715,-0.3,-0.023076923076923078,0.106
739,-0.02631578947368418,0.03584905660377358,0.15714285714285714,0.033333333333333326,0.033333333333333326,0.134
740,-0.02256267409470758,-0.025301204819277112,-0.10714285714285715,-0.12352941176470586,-0.023076923076923078,0.128
741,-0.023563218390804663,-0.007692307692307665,-0.16666666666666669,0.033333333333333326,-0.023076923076923078,0.13
742,-0.007042253521126751,-0.003370786516853852,-0.10714285714285715,-0.16666666666666666,-0.023076923076923078,0.114
743,-0.03803680981595092,0.0,-0.011627906976744207,-0.07777777777777778,-0.023076923076923078,0.146
744,-0.004986876640419968,-0.11509433962264148,-0.2142857142857143,0.1375,-0.023076923076923078,0.114
745,-0.009550561797752821,-0.07704918032786878,0.0625,0.018181818181818188,-0.023076923076923078,0.12
746,0.01253644314868807,0.03404255319148941,-0.033333333333333326,0.033333333333333326,-0.016666666666666677,0.092
747,-0.0035502958579881616,0.0023809523809523725,-0.01428571428571429,0.15161290322580645,-0.1,0.114
748,-0.017263843648208543,0.047747747747747815,-0.013513513513513487,0.1375,-0.023076923076923078,0.126
749,0.00649350649350644,-0.12857142857142856,-0.08620689655172414,0.018181818181818188,0.033333333333333326,0.104
750,0.021787709497206653,0.024137931034482807,-0.09259259259259262,-0.15714285714285714,0.042857142857142844,0.084
751,-0.03003095975232195,0.012871287128712883,0.0,0.06,-0.1,0.136
752,0.019597989949748706,-0.14186046511627903,-0.11538461538461536,-0.0368421052631579,0.042857142857142844,0.086
753,0.006779661016949157,-0.007692307692307665,-0.04838709677419356,0.0,0.13529411764705881,0.102
754,0.0015957446808509967,-0.08596491228070169,-0.08620689655172414,0.06,-0.023076923076923078,0.108
755,-0.01764705882352946,-0.07313432835820888,-0.10714285714285715,-0.07777777777777778,-0.023076923076923078,0.124
756,-0.000977198697068471,0.08151260504201685,0.013513513513513487,0.08461538461538465,-0.1,0.104
757,0.0,-0.004878048780487809,-0.02941176470588236,0.018181818181818188,-0.1,0.11
758,0.011845730027548185,0.012643678160919603,-0.125,-0.22307692307692306,-0.023076923076923078,0.092
759,0.0038461538461538325,-0.14444444444444438,0.1071428571428571,-0.01428571428571429,0.042857142857142844,0.108
760,-0.017816091954023006,-0.01707317073170722,0.022727272727272707,-0.22307692307692306,-0.023076923076923078,0.124
761,-0.009467455621301801,-0.01707317073170722,0.012820512820512775,0.06,0.0875,0.122
762,-0.009826589595375745,-0.047826086956521685,-0.013513513513513487,0.17222222222222222,-0.1,0.124
763,0.001734104046242746,-0.012499999999999956,0.07446808510638303,-0.11249999999999999,-0.1,0.106
764,0.0021739130434782483,-0.05483870967741933,-0.02941176470588236,0.06,-0.1,0.106
765,0.018256130790190728,-0.02857142857142858,-0.01428571428571429,-0.11249999999999999,-0.1,0.092
766,0.022043010752688108,-0.038461538461538436,-0.03125,0.0,-0.1,0.086
767,-0.006017191977077396,-0.012499999999999956,-0.02941176470588236,0.06,-0.1,0.116
768,-0.005421686746987953,0.02164948453608251,0.012820512820512775,-0.07777777777777778,-0.02857142857142858,0.116
769,-0.0005586592178771221,-0.05294117647058816,0.06521739130434778,-0.15714285714285714,0.042857142857142844,0.108
770,-0.02933753943217665,0.015686274509803977,-0.04285714285714287,0.10000000000000003,0.024999999999999994,0.142
771,0.025000000000000022,0.06470588235294117,0.07777777777777772,0.033333333333333326,-0.016666666666666677,0.084
772,0.015966386554621792,-0.023943661971830954,0.06818181818181823,-0.11249999999999999,-0.016666666666666677,0.092
773,0.002506963788300842,-0.02051282051282044,-0.09999999999999998,0.0,-0.023076923076923078,0.108
774,0.001734104046242746,-0.004878048780487809,0.025000000000000022,-0.0368421052631579,-0.023076923076923078,0.108
775,-0.0014492753623188692,-0.019999999999999907,0.09183673469387754,-0.07777777777777778,-0.023076923076923078,0.11
776,-0.036518771331058075,0.0540983606557377,-0.02777777777777779,0.17222222222222222,-0.023076923076923078,0.14
777,0.0033232628398791597,-0.003797468354430289,0.10377358490566035,0.018181818181818188,0.033333333333333326,0.11
778,0.0002770083102492382,0.00454545454545463,-0.15217391304347827,-0.15714285714285714,0.042857142857142844,0.102
779,0.004509283819628673,-0.05294117647058816,-0.2777777777777778,0.04782608695652174,0.042857142857142844,0.102
780,0.0002557544757032515,-0.13749999999999996,-0.11538461538461536,-0.01428571428571429,-0.02857142857142858,0.108
781,0.03193717277486907,-0.09999999999999998,0.02631578947368418,-0.09999999999999998,0.1,0.076
782,0.009814323607427067,-0.048484848484848464,-0.04545454545454547,-0.3,-0.023076923076923078,0.096
783,0.023728813559321993,0.024137931034482807,-0.033333333333333326,-0.0222222222222222,-0.1,0.082
784,0.032773109243697474,0.00666666666666671,0.02777777777777779,-0.09999999999999998,0.13529411764705881,0.076
785,-0.014197530864197505,-0.00952380952380949,0.09999999999999998,0.08461538461538465,-0.1,0.124
786,-0.010215053763440896,-0.0636363636363636,-0.16666666666666669,0.06,-0.023076923076923078,0.118
787,0.007185628742514938,0.05247524752475252,0.0,-0.07777777777777778,-0.1,0.098
788,0.002912621359223322,0.07685950413223142,-0.02941176470588236,0.033333333333333326,-0.016666666666666677,0.104
789,0.018128654970760216,0.03913043478260869,-0.09259259259259262,0.04782608695652174,0.0875,0.092
790,0.014893617021276562,-0.08181818181818179,0.012820512820512775,-0.06470588235294117,-0.023076923076923078,0.094
791,0.013157894736842035,-0.07288135593220335,-0.09259259259259262,-0.04999999999999999,0.042857142857142844,0.096
792,0.007185628742514938,0.057281553398058294,-0.015151515151515138,-0.0368421052631579,-0.1,0.096
793,0.001734104046242746,0.025274725274725296,0.013513513513513487,-0.15714285714285714,-0.1,0.102
794,0.020821114369501403,0.027272727272727337,0.013513513513513487,0.018181818181818188,-0.016666666666666677,0.09
795,0.026430517711171664,0.012500000000000067,-0.16666666666666669,0.033333333333333326,-0.1,0.078
796,0.007042253521126751,0.0037037037037037646,-0.04838709677419356,0.0,-0.023076923076923078,0.1
797,-0.004575163398692794,0.07500000000000007,0.025000000000000022,0.04782608695652174,-0.1,0.108
798,-0.005405405405405461,-0.05714285714285705,-0.16666666666666669,-0.06190476190476191,0.033333333333333326,0.118
799,-0.005849582172701928,-0.047222222222222165,-0.013513513513513487,-0.0368421052631579,-0.023076923076923078,0.116
800,0.0036144578313253017,0.022222222222222254,0.012820512820512775,0.12857142857142856,-0.1,0.106
801,0.01594202898550723,0.0012987012987013546,0.08333333333333337,-0.06470588235294117,-0.023076923076923078,0.094
802,0.023753665689149495,0.07083333333333341,0.02631578947368418,-0.09999999999999998,-0.1,0.076
803,-0.005571847507331418,0.00786516853932584,0.045454545454545414,-0.22307692307692306,-0.023076923076923078,0.112
804,-0.016847826086956563,-0.033333333333333326,-0.16666666666666669,-0.12352941176470586,-0.023076923076923078,0.122
805,0.013946587537091992,0.039583333333333415,-0.03125,-0.0368421052631579,0.0875,0.096
806,-0.007894736842105288,-0.07499999999999996,-0.14,-0.13333333333333333,-0.1,0.118
807,0.005714285714285672,0.012643678160919603,-0.09259259259259262,0.04782608695652174,-0.023076923076923078,0.102
808,0.009604519774011222,0.0037037037037037646,0.05813953488372092,-0.3,-0.1,0.094
809,0.016883116883116833,-0.019444444444444375,-0.2647058823529412,-0.15714285714285714,-0.1,0.084
810,-0.0196581196581197,-0.006818181818181723,-0.18181818181818182,0.033333333333333326,0.033333333333333326,0.126
811,0.01545189504373179,0.05247524752475252,-0.07142857142857145,-0.06470588235294117,-0.1,0.088
812,0.016184971098265888,0.050000000000000044,-0.125,0.04782608695652174,-0.1,0.088
813,-0.018421052631579005,0.04561403508771933,0.11403508771929827,-0.3,-0.02857142857142858,0.122
814,-0.037931034482758696,-0.04177215189873418,0.09322033898305082,0.10000000000000003,-0.023076923076923078,0.15
815,-0.044200626959247646,0.027272727272727337,-0.12068965517241381,-0.12352941176470586,-0.02857142857142858,0.148
816,-0.013636363636363669,-0.020987654320987592,-0.05882352941176472,-0.08947368421052632,-0.02857142857142858,0.126
817,-0.005413105413105468,-0.00952380952380949,-0.18181818181818182,0.13333333333333336,-0.023076923076923078,0.114
818,-0.00903426791277262,0.04528301886792452,0.012820512820512775,-0.01428571428571429,-0.023076923076923078,0.116
819,-0.00397553516819571,0.023404255319149025,0.0714285714285714,-0.22307692307692306,0.13529411764705881,0.112
820,-0.010465116279069764,-0.003370786516853852,0.0,-0.07777777777777778,-0.1,0.118
821,0.018429003021148027,0.06851851851851853,-0.051724137931034475,0.033333333333333326,-0.1,0.086
822,-0.01764705882352946,-0.10677966101694913,0.012195121951219523,-0.16666666666666666,-0.1,0.124
823,-0.01890243902439026,0.006521739130434856,0.0,0.11379310344827587,-0.023076923076923078,0.128
824,0.006249999999999978,0.031182795698924792,-0.11538461538461536,-0.11249999999999999,-0.023076923076923078,0.098
825,0.010810810810810811,-0.043283582089552186,-0.08620689655172414,0.0,0.042857142857142844,0.098
826,0.00785907859078594,-0.06666666666666665,0.025000000000000022,-0.07777777777777778,-0.023076923076923078,0.102
827,-0.020879120879120916,-0.029268292682926744,-0.15384615384615385,-0.16666666666666666,-0.023076923076923078,0.126
828,0.014826498422712886,0.07477477477477479,0.08139534883720934,-0.06470588235294117,-0.016666666666666677,0.088
829,0.003225806451612856,-0.02857142857142858,0.1271186440677966,-0.0368421052631579,-0.1,0.106
830,-0.028930817610062887,0.03451327433628326,-0.013513513513513487,-0.01428571428571429,-0.1,0.132
831,0.009677419354838679,0.06851851851851853,0.04761904761904767,0.14827586206896554,-0.1,0.098
832,0.014634146341463428,0.08688524590163937,-0.07142857142857145,-0.3,-0.1,0.084
833,-0.012149532710280408,0.03584905660377358,-0.10714285714285715,0.1375,-0.023076923076923078,0.122
834,-0.005113636363636376,-0.00588235294117645,-0.08620689655172414,-0.01428571428571429,-0.023076923076923078,0.114
835,0.0003215434083601032,0.039583333333333415,0.09183673469387754,0.16875,-0.1,0.11
836,-0.0012658227848101333,0.05892857142857144,-0.01428571428571429,0.08461538461538465,-0.1,0.108
837,-0.0015625000000000222,-0.07704918032786878,-0.11538461538461536,-0.11249999999999999,-0.023076923076923078,0.106
838,-0.02643678160919538,-0.008510638297872242,-0.19565217391304346,0.004347826086956552,-0.1,0.134
839,0.002702702702702675,-0.059374999999999956,0.025000000000000022,-0.15714285714285714,-0.1,0.104
840,-0.02349397590361446,0.011340206185567081,-0.08620689655172414,0.07037037037037036,0.033333333333333326,0.132
841,-0.0037463976945245614,0.00786516853932584,-0.04838709677419356,-0.08947368421052632,0.042857142857142844,0.112
842,0.014556962025316422,0.050000000000000044,0.050000000000000044,0.18484848484848487,0.1,0.096
843,0.0027355623100303594,0.04757281553398063,0.03658536585365857,-0.15714285714285714,-0.023076923076923078,0.102
844,0.016184971098265888,0.02826086956521745,-0.03125,-0.11249999999999999,0.042857142857142844,0.092
845,-0.013702623906705513,0.0,-0.02941176470588236,-0.12352941176470586,0.0875,0.122
846,0.014285714285714235,-0.033333333333333326,0.06818181818181823,0.08461538461538465,0.042857142857142844,0.098
847,-0.0021671826625386803,0.047663551401869175,-0.18181818181818182,0.16875,0.0875,0.11
848,0.01644204851752018,-0.043749999999999956,0.013513513513513487,-0.15714285714285714,0.042857142857142844,0.09
849,-0.01987381703470037,0.040740740740740744,0.03488372093023251,-0.01428571428571429,-0.1,0.124
850,-0.013846153846153841,0.03786407766990296,-0.3125,0.23488372093023252,-0.023076923076923078,0.118
851,-0.009422492401215843,0.03584905660377358,-0.013513513513513487,-0.11249999999999999,-0.1,0.116
852,-0.02195121951219514,-0.010344827586206806,0.05319148936170215,0.06,-0.023076923076923078,0.132
853,-0.032564841498559094,-0.07878787878787874,0.05102040816326525,0.046153846153846156,-0.1,0.144
854,-0.011111111111111183,0.018750000000000044,0.0,0.11379310344827587,-0.023076923076923078,0.122
855,-0.010778443113772518,0.0011494252873563982,0.023809523809523836,-0.008333333333333304,-0.023076923076923078,0.124
856,-0.004938271604938316,0.040000000000000036,0.0,0.1074074074074074,-0.1,0.112
857,0.004605263157894668,0.08151260504201685,0.10784313725490191,-0.21666666666666667,0.042857142857142844,0.096
858,0.0002770083102492382,-0.024675324675324628,-0.11538461538461536,0.04782608695652174,-0.023076923076923078,0.108
859,0.0011976047904191933,0.03737373737373739,-0.01428571428571429,-0.08947368421052632,-0.023076923076923078,0.108
860,0.014893617021276562,0.07192982456140351,-0.16666666666666669,0.07500000000000001,-0.016666666666666677,0.088
861,-0.017816091954023006,-0.033333333333333326,0.012195121951219523,0.018181818181818188,-0.1,0.126
862,0.006976744186046435,-0.10384615384615381,-0.09259259259259262,-0.01428571428571429,-0.023076923076923078,0.1
863,-0.013268608414239491,0.07862595419847329,-0.2777777777777778,0.11379310344827587,-0.023076923076923078,0.114
864,0.001129943502824804,-0.038235294117647034,-0.02941176470588236,0.08461538461538465,0.1222222222222222,0.112
865,0.0011627906976744429,-0.038235294117647034,0.12068965517241381,-0.0368421052631579,-0.1,0.108
866,0.018994413407821154,-0.015068493150684925,0.06818181818181823,-0.22307692307692306,-0.016666666666666677,0.088
867,-0.0008645533141210526,0.011111111111111183,-0.02941176470588236,-0.16666666666666666,-0.02857142857142858,0.11
868,-0.0010362694300518616,-0.13137254901960782,-0.0625,-0.16666666666666666,0.024999999999999994,0.112
869,-0.01176470588235301,-0.042465753424657526,0.1166666666666667,-0.11249999999999999,-0.1,0.12
870,0.0008498583569405138,-0.07288135593220335,0.09615384615384615,-0.07777777777777778,0.1222222222222222,0.112
871,-0.03850415512465377,-0.13636363636363635,0.045454545454545414,-0.23333333333333334,-0.02857142857142858,0.152
872,-0.003151862464183419,-0.042857142857142816,0.05555555555555558,0.004347826086956552,-0.023076923076923078,0.116
873,0.006077348066298338,-0.048484848484848464,0.025000000000000022,-0.0368421052631579,-0.023076923076923078,0.104
874,-0.020743034055727527,0.03831775700934581,-0.18181818181818182,0.17058823529411765,-0.02857142857142858,0.126
875,-0.004956268221574356,-0.012499999999999956,0.012820512820512775,-0.01428571428571429,0.07647058823529412,0.118
876,0.011314984709480114,0.039583333333333415,0.013513513513513487,0.07500000000000001,0.0875,0.1
877,-0.015264797507788197,0.022772277227722793,0.04347826086956519,-0.07777777777777778,-0.02857142857142858,0.126
878,0.022666666666666613,-0.043749999999999956,-0.2,0.14827586206896554,-0.016666666666666677,0.084
879,0.020329670329670257,0.0037037037037037646,-0.2,0.04782608695652174,-0.016666666666666677,0.086
880,-0.009144542772861364,0.003296703296703396,-0.02941176470588236,0.033333333333333326,-0.1,0.12
881,0.024119241192411933,-0.033333333333333326,0.025000000000000022,-0.21666666666666667,-0.023076923076923078,0.084
882,0.019308357348703176,0.0012987012987013546,0.038461538461538436,0.10000000000000003,-0.016666666666666677,0.09
883,0.005660377358490565,-0.07288135593220335,0.0,-0.01428571428571429,-0.023076923076923078,0.104
884,-0.021019108280254772,0.05423728813559325,-0.013513513513513487,-0.11249999999999999,0.033333333333333326,0.124
885,0.01304347826086949,-0.033333333333333326,-0.03125,-0.06470588235294117,0.042857142857142844,0.094
886,-0.025373134328358193,-0.018181818181818188,0.0,-0.01428571428571429,0.024999999999999994,0.138
887,-0.046788990825688104,-0.0009708737864076999,-0.05555555555555558,-0.04999999999999999,-0.02857142857142858,0.154
888,0.001369863013698569,-0.048484848484848464,-0.04545454545454547,0.04782608695652174,-0.023076923076923078,0.108
889,0.029824561403508754,0.06923076923076932,-0.033333333333333326,-0.3,0.042857142857142844,0.072
890,0.006077348066298338,-0.024324324324324298,-0.14,0.018181818181818188,0.13529411764705881,0.104
891,-0.007954545454545436,-0.00952380952380949,-0.11538461538461536,0.033333333333333326,-0.02857142857142858,0.118
892,-0.0008403361344537785,-0.02051282051282044,-0.01428571428571429,-0.0368421052631579,-0.1,0.108
893,-0.022866894197952292,0.0862068965517242,-0.18181818181818182,0.0793103448275862,-0.1,0.122
894,-0.02359550561797752,-0.08709677419354833,0.04166666666666663,0.004347826086956552,-0.1,0.134
895,-0.03091922005571035,-0.05999999999999994,-0.12068965517241381,0.033333333333333326,-0.023076923076923078,0.14
896,0.008554572271386451,0.03404255319148941,0.025000000000000022,-0.11249999999999999,-0.1,0.098
897,-0.004166666666666652,-0.043283582089552186,0.1515151515151515,-0.07777777777777778,-0.023076923076923078,0.114
898,-0.003542234332425065,-0.08596491228070169,0.0625,-0.12352941176470586,-0.1,0.112
899,-0.0008403361344537785,-0.06507936507936507,0.06521739130434778,0.018181818181818188,-0.1,0.112
900,0.016426512968299667,-0.006666666666666599,0.05813953488372092,0.04782608695652174,-0.016666666666666677,0.094
901,0.008587257617728494,0.026315789473684292,-0.35714285714285715,-0.0368421052631579,-0.1,0.092
902,0.0002849002849002469,-0.07096774193548383,0.07999999999999996,0.08461538461538465,-0.1,0.112
903,0.010290237467018404,-0.13478260869565217,0.0,0.018181818181818188,0.033333333333333326,0.102
904,-0.020743034055727527,0.06033057851239676,-0.2368421052631579,0.018181818181818188,0.033333333333333326,0.12
905,0.001098901098901095,-0.00120481927710836,-0.10714285714285715,-0.15714285714285714,-0.1,0.102
906,0.0196675900277008,-0.0235294117647058,0.04761904761904767,-0.06470588235294117,-0.016666666666666677,0.088
907,-0.0038575667655786905,0.027272727272727337,-0.08620689655172414,-0.01428571428571429,0.042857142857142844,0.112
908,-0.023745819397993362,0.06612903225806455,-0.0625,0.08461538461538465,0.16315789473684209,0.128
909,-0.032911392405063356,0.04137931034482767,-0.026315789473684237,-0.16666666666666666,0.033333333333333326,0.136
910,-0.010481586402266263,-0.08983050847457619,0.09259259259259256,-0.0368421052631579,0.033333333333333326,0.122
911,0.003903903903903827,0.025274725274725296,0.06521739130434778,-0.06470588235294117,-0.023076923076923078,0.104
912,0.010828025477707004,0.033333333333333326,0.16153846153846152,-0.15714285714285714,0.13529411764705881,0.098
913,-0.00026385224274405594,-0.18717948717948718,0.03488372093023251,0.08461538461538465,-0.023076923076923078,0.11
914,0.015789473684210464,-0.05483870967741933,-0.06666666666666665,-0.06470588235294117,-0.1,0.09
915,0.00395480225988698,0.023404255319149025,-0.18181818181818182,-0.06470588235294117,-0.023076923076923078,0.1
916,0.030029154518950385,0.03563218390804601,0.08139534883720934,-0.09999999999999998,-0.016666666666666677,0.076
917,-0.013259668508287303,-0.038028169014084456,-0.013513513513513487,-0.0368421052631579,-0.1,0.118
918,-0.015789473684210575,-0.07878787878787874,-0.2142857142857143,-0.04999999999999999,-0.023076923076923078,0.122
919,-0.016417910447761197,-0.003370786516853852,-0.013513513513513487,0.033333333333333326,0.033333333333333326,0.128
920,-0.006707317073170738,0.023404255319149025,0.05555555555555558,0.018181818181818188,-0.1,0.114
921,0.024324324324324298,0.005128205128205221,-0.35714285714285715,0.1074074074074074,-0.1,0.08
922,-0.0021021021021021546,-0.011688311688311637,0.045454545454545414,0.11379310344827587,0.07647058823529412,0.118
923,0.00303030303030305,0.0,0.1271186440677966,0.0,-0.1,0.106
924,0.008831908831908764,0.007317073170731714,0.012820512820512775,-0.15714285714285714,0.042857142857142844,0.098
925,0.008587257617728494,-0.024324324324324298,0.0,-0.06470588235294117,-0.1,0.1
926,-0.02232415902140672,0.028971962616822444,-0.01282051282051283,-0.11249999999999999,-0.1,0.126
927,0.010810810810810811,-0.07931034482758614,0.025000000000000022,-0.0368421052631579,-0.023076923076923078,0.1
928,-0.006017191977077396,-0.033333333333333326,-0.01428571428571429,0.15454545454545454,-0.1,0.116
929,-0.03165266106442577,-0.061111111111111116,-0.05882352941176472,0.033333333333333326,-0.023076923076923078,0.14
930,-0.0028571428571428914,-0.016455696202531622,0.06521739130434778,-0.15714285714285714,-0.1,0.108
931,0.001129943502824804,-0.0235294117647058,-0.02941176470588236,0.15161290322580645,-0.023076923076923078,0.108
932,0.012650602409638556,0.05490196078431375,-0.015151515151515138,0.033333333333333326,-0.016666666666666677,0.092
933,0.029919137466307255,-0.043749999999999956,-0.09259259259259262,0.0,0.1222222222222222,0.084
934,0.011392405063291089,-0.14444444444444438,-0.04838709677419356,-0.11249999999999999,-0.023076923076923078,0.094
935,0.012280701754385892,0.020930232558139528,0.025000000000000022,0.0,-0.016666666666666677,0.096
936,-0.0052631578947368585,-0.003797468354430289,-0.11538461538461536,0.2,-0.03333333333333334,0.118
937,-0.0016483516483516425,-0.00864197530864197,-0.11538461538461536,-0.11249999999999999,-0.023076923076923078,0.106
938,0.01436464088397793,0.0037037037037037646,-0.09259259259259262,-0.06470588235294117,-0.023076923076923078,0.092
939,0.012280701754385892,0.042268041237113474,-0.09259259259259262,0.0,0.042857142857142844,0.094
940,0.013407821229050265,0.007317073170731714,-0.11538461538461536,0.04782608695652174,-0.1,0.094
941,0.02286501377410466,-0.014285714285714235,-0.015151515151515138,0.033333333333333326,-0.023076923076923078,0.086
942,0.0037433155080213165,-0.08596491228070169,0.03488372093023251,-0.22307692307692306,-0.023076923076923078,0.104
943,-0.008761329305135956,-0.007692307692307665,0.09999999999999998,0.04782608695652174,-0.023076923076923078,0.118
944,-0.029909365558912437,-0.03734939759036138,-0.026315789473684237,0.11935483870967745,0.07647058823529412,0.146
945,0.009883720930232487,-0.015068493150684925,-0.01428571428571429,0.16875,0.0875,0.104
946,-0.023684210526315863,-0.14230769230769225,-0.09999999999999998,-0.01428571428571429,0.07647058823529412,0.134
947,0.0,-0.033333333333333326,-0.01428571428571429,-0.0368421052631579,0.042857142857142844,0.108
948,-0.01764705882352946,-0.07499999999999996,0.1166666666666667,-0.07777777777777778,0.06666666666666665,0.132
949,0.019881305637982183,0.06415094339622651,-0.09999999999999998,-0.06470588235294117,0.1,0.084
950,0.017127071823204387,-0.038461538461538436,0.03658536585365857,-0.01428571428571429,-0.1,0.094
951,-0.008571428571428563,-0.00588235294117645,-0.10714285714285715,0.08461538461538465,-0.1,0.116
952,-0.011111111111111183,-0.08709677419354833,-0.04545454545454547,-0.16666666666666666,-0.1,0.118
953,-0.01728395061728394,0.030000000000000027,-0.013513513513513487,0.09285714285714286,-0.1,0.124
954,-0.017142857142857126,-0.013953488372092981,-0.16666666666666669,0.07037037037037036,-0.023076923076923078,0.126
955,-0.028125000000000067,0.023809523809523836,0.033333333333333326,-0.22307692307692306,0.07647058823529412,0.134
956,-0.0201201201201201,0.0,-0.013513513513513487,0.033333333333333326,0.0875,0.13
957,-0.016207951070336457,0.05206611570247943,-0.11538461538461536,-0.22307692307692306,-0.023076923076923078,0.116
958,-0.01744966442953022,0.06068376068376069,0.045454545454545414,0.06,0.0875,0.124
959,-0.0046511627906976605,-0.012499999999999956,0.045454545454545414,-0.07777777777777778,0.042857142857142844,0.114
960,0.009090909090909038,0.044897959183673564,-0.0625,0.12857142857142856,-0.016666666666666677,0.1
961,-0.0009174311926605228,-0.003797468354430289,0.07777777777777772,0.18571428571428572,0.042857142857142844,0.112
