,0,1,2
0,-0.10054831114283747,-0.3403181145911476,0.24110457379801645
1,-0.21109280297829647,-0.2488696440486553,0.37242585529940414
2,0.22648636246854426,0.10903618780521662,-0.053600313562812404
3,0.07369088304530891,-0.14360011328979239,0.10563186603846632
4,-0.24546525979394296,0.19636161246642903,0.27338836110896436
5,0.11913535106344986,-0.1661932654777113,0.0614902307410172
6,-0.018980376661686837,-0.2699641317188556,0.19170664032483573
7,-0.14071802096029784,-0.41748819059490433,0.3116074582799112
8,-0.0071732610781831685,-2.6369275708926394,0.03847080417632767
9,-0.200325815701473,-0.39696684951137373,0.3744860741539482
10,0.21842293720892902,-0.23052634334341537,-0.028633081098460026
11,-0.05123892450615242,-0.3149511987786354,0.2345298703315484
12,0.004741246389205811,-1.4539716916000973,0.014845882990687186
13,0.04009806484736056,-0.08952860799698609,0.1299011368206129
14,-0.1918733153610751,-0.07560453853885707,0.33001655570507665
15,0.10998323624312056,-0.14570518387082437,0.07138198458422622
16,-0.09968843704142916,0.24519103061062453,0.169492676598005
17,-0.011632360853458756,0.25743069166939936,0.10862587879385842
18,-0.07144379163074233,-0.2290483270781824,0.24899701620155112
19,0.12610157994026094,-0.5128364617864828,0.05612850673601812
20,-0.09501862756650858,0.12253099581317484,0.19670076314982254
21,0.12463745568682905,-0.08305991518720074,0.045209913322938035
22,-0.10733942115674111,-0.2675256859177555,0.26578412469938456
23,0.021578001673435487,-0.15157784595556706,0.14671096023381522
24,0.24202082632779343,0.043314879220284985,-0.06734433955091632
25,0.13639758860801665,-0.44015577884940565,0.03585095018517095
26,-0.14743176042046313,-2.0050619331207287,0.17100806214746583
27,0.21041805907820144,0.05761680617434495,-0.04721774585223727
28,0.012688556699624431,-1.8415052944576504,0.010853381811948282
29,-0.06842310379536054,-1.8091274086780487,0.09083014684418743
30,-0.08616883304195011,-0.49717835777413383,0.2683707379883869
31,-0.056312879775924474,0.0014841830441122417,0.2155059371607112
32,0.22505828436943576,-0.08248322183501222,-0.03932373794241272
33,-0.2620004980959262,-0.15139539170908917,0.39050081298826994
34,0.09643520743836098,0.2556388340358823,0.026251486986531347
35,-0.053710706009570286,-0.009467890839421955,0.19499543330682428
36,-0.010246587296767307,0.12255238116124711,0.05431071108180561
37,-0.09883088055234046,0.20934046150899777,0.18131720346596494
38,0.027991737835687758,-0.27067820857676295,0.1477156503750514
39,-0.043672978752397285,0.24615647702677912,0.07309685494331263
40,0.03919526173479704,-0.41480516162704884,0.15160482293757213
41,-0.0335384177817698,-0.5986163103915481,0.22525243845152987
42,0.10020094549432845,-0.051418016345346707,0.06921998458398704
43,0.04753480009286304,-2.1260438705588625,-0.020799013386345707
44,-0.022648908681033864,0.13780498626678162,0.14488550649982032
45,0.0842789424969781,0.15449694021551164,0.048953478210276416
46,-0.14337234022383927,0.33214628624143105,0.15536821325585692
47,0.1640295379899126,-0.22836364358495115,0.023373030140808736
48,-0.21300507294623605,-0.08689937811697374,0.3363901936525795
49,-0.006110080534304396,0.260581826150419,0.1017663987935677
50,-0.1005755847150025,0.18751335070186714,0.19381645313157989
51,-0.05751665169083875,-0.9272479101567312,0.13970052719879233
52,-0.04698786275237554,0.011353795713399562,0.1883185320433276
53,0.19840787542036376,0.027446736236222624,-0.023957979232487076
54,0.04723087213241217,0.07080407475100514,0.10046143505582407
55,0.06882222275730032,-0.3411015441111674,0.1222617682850779
56,0.06191736800080294,-0.04887575616247264,0.07245711931511764
57,0.03660059902048207,-0.20248143110681555,0.1407790882100693
58,0.09729207900510017,-0.20143124422967523,0.07842705210655054
59,0.01558771315326668,-0.37725170877125136,0.16298017123163702
60,-0.20810977014119492,-0.2471239048176091,0.3752041518908833
61,-0.004749036384772309,0.015341838950829412,0.14872177378409177
62,-0.03191248567860505,-0.11628080943694313,0.19553561633093977
63,0.016502226950499743,0.040153557937065765,0.13116586044366485
64,-0.12543397177406745,0.2819616098604477,0.16895804840584533
65,0.021553972764629004,0.353544180991614,0.04564994394457699
66,-0.02283369783845446,-0.09588192148640473,0.1832872004598805
67,0.062332805041364736,0.04309465330373741,0.08305387744517091
68,-0.05107126046842492,-0.26134206217745404,0.20733083684441125
69,-0.005409355926945358,-0.49846740904429643,0.18415980548806857
70,-0.1829770984945509,0.17740458903285372,0.24580533910721883
71,-0.07277914658124796,0.23754968545626987,0.15433774880511522
72,-0.12018156720627726,-0.2403871654141692,0.2876370787224081
73,-0.16925066903863328,-0.0719276099902465,0.30213405955266565
74,-0.024360686532462594,0.05539675081661011,0.1672431578337779
75,-0.07736354227073172,-0.20009788351970959,0.24550181440795568
76,0.048972409871643086,-0.38790200130624036,0.12903372825215484
77,-0.16979918338047062,-0.0487872772998747,0.30244501625226206
78,0.019671158209562112,0.15661151044650845,0.10376912202987612
79,-0.16050979157037093,-0.0317890849673359,0.29045754425930864
80,-0.13281325166239866,0.06743699365851319,0.2437206608936613
81,-0.37912569073293834,0.18524241400305186,0.34565427627022344
82,0.0764665534175053,-0.0028174136320791576,0.08573295735637827
83,-0.08062094678964349,-0.24580313558703032,0.25356831587696405
84,-0.04112399065459316,0.2653939276850291,0.12045164413534806
85,-0.16413825018309947,0.012354729425187339,0.25472021589277916
86,0.13363110685792257,-0.008420881108985367,0.03972292989314255
87,0.019782548477622397,-0.4072505785105296,0.16562407692000802
88,0.07340780044807094,0.13347388325915244,0.06737105305238301
89,0.07042496178505653,0.21891516045140114,0.052603468681722915
90,0.19958875630128814,-0.2637284377833631,-0.016558489425204357
91,-0.061023850522592404,-0.669711725868188,0.2384139105778877
92,0.0597773197512208,0.009191991493420648,0.09989242544354127
93,-0.011294880308278743,-0.31393781618741756,0.18787632620168934
94,-0.1527033258192566,0.0561886587484981,0.2662354518378322
95,0.0818655981396903,-0.11629641646446409,0.09965652565738992
96,0.00019509623465263637,-0.3352736867753714,0.1752533481974524
97,-0.043146548936777385,-0.006535054080569425,0.19606475563422876
98,-0.12605292003661173,0.2980843000434932,0.1609497987997635
99,0.1864628857058983,-0.1634275714145934,0.0005130148606099283
100,0.12218589675755531,-0.2654139681701365,0.04645807757870614
101,-0.015330726198991118,0.0857179669054291,0.15496368361244406
102,0.01089920197245653,-0.07520807785432854,0.15321083637904323
103,0.30713361519015914,0.19225606239863113,-0.1472654514643618
104,0.10107408161714582,0.06931982525288438,0.05313465272849001
105,0.015661012740536773,-1.8600873026913567,0.008096470413782128
106,-0.12601897521116767,0.008479171265220686,0.2539446239444317
107,-0.15329694064098476,0.24085385001946336,0.20092908484378313
108,-0.019554877475258525,-1.783699616383172,0.04219632486433767
109,-0.07222676738891798,0.005543503358579005,0.21156257804224396
110,0.05662424656228904,-0.032942256371183365,0.10845437425908329
111,0.050473366007132814,-0.35050102334160027,0.12972151186261385
112,-0.06230896778340922,-1.584989082826896,0.08253576893384405
113,0.032574349482874965,-0.1115979908464253,0.1413521824060362
114,0.13313393117243932,-0.2787837254565678,0.06748795328594227
115,0.153390587974358,0.07658628920699873,0.008114615680502481
116,-0.08931599844372784,0.1502519898953778,0.16484128182538726
117,-0.09852464723006771,-0.07911705768410598,0.24270237036627917
118,0.027715625067271432,-0.6995572536549945,0.08273893401773265
119,0.07442709835657335,0.006922912262372072,0.09014911561074498
120,-0.005277021269423865,0.0639746123043562,0.14311649852581426
121,0.18294964231095512,-0.09277725801116221,-0.004532455236868032
122,-0.2632132019436433,0.1603716962834072,0.3258735853974619
123,0.05615418894671853,0.11206212399215532,0.08151435118919607
124,-0.25509868922798973,-0.5766849269564001,0.4276317991509559
125,0.15144222833701604,-0.049391683834886624,0.02376624970595955
126,-0.1755194502425046,0.33138388785295625,0.17192971443286495
127,-0.07929385582660409,0.030327476704273826,0.2120226027661056
128,0.051732882010189885,-0.009924500278669979,0.10553118503069087
129,0.036957473260109674,0.2774267566329499,0.06685481339075423
130,-0.09133614414849955,0.021859705853213396,0.22284955514791718
131,0.03364269872513703,0.2286034084430607,0.0792218386792311
132,0.052394587630328004,-1.598499627009533,-0.03088564548392938
133,0.07669022484759447,0.07196832729285207,0.07977356339437564
134,0.05542215302153486,0.061271126154019084,0.09776466530739497
135,-0.21044058311248648,0.1306938854843872,0.3057599019543622
136,0.18486854113245266,-0.01741642882226968,-0.00929729864377208
137,0.06813212002049895,-0.3302968744445145,0.20139657831900507
138,0.10203040935115237,0.054906846093438544,0.0621066596261619
139,0.17485797106727974,0.14519414589401947,-0.021255461767034235
140,-0.29969875430538073,-0.2013965509996523,0.4322590272144904
141,0.0944782019013981,0.18678235765685947,0.03598446825685414
142,-0.07966753142681648,-0.0693068760967212,0.23145572827448702
143,0.018875952796203244,0.13799221495262615,0.11062451807061308
144,-0.17046588071304458,-0.1937301044353391,0.32221250559251
145,-0.0849427888180525,-0.030489911778667056,0.22751786816544922
146,-0.10549088349788072,-0.17300605903361455,0.26439513264788617
147,0.138262212726054,-0.013909881818073566,0.031302531855419036
148,-0.12708982146367032,0.19183839287130589,0.20495068929963053
149,0.09119245235910012,0.35202876271225725,0.004473023499637066
150,-0.16627488501298526,0.18863232019677623,0.2388212824081046
151,-0.09619213865711806,-0.11360281911188791,0.2565894495980967
152,0.2627141831172526,-2.3950598653929784,-0.23113644263215036
153,-0.11203522094638307,-0.04109901672303956,0.25362627355267975
154,-0.2528674897512534,-0.04692829065800691,0.36461059409581975
155,0.1853251837438532,0.1433367847673589,-0.03356843203043468
156,0.2255481590983024,0.1712382509157322,-0.06479828572535695
157,-0.026046954267477274,-0.16283821851406777,0.1979805956140568
158,0.08634189821500993,-0.298485414635799,0.09062356435515184
159,-0.052025686875448396,-0.045714699901479694,0.1951955006529974
160,-0.006925638902764875,-1.5843065599713324,0.027699448113450556
161,-0.03341874153245061,-0.3075968720945339,0.2114797115617297
162,0.07108523016820523,0.275386108990191,0.03536645345587985
163,0.1712885139628031,-0.3302231772324107,-0.0010315264596168561
164,0.07416400378194798,0.12404173293194742,0.06987512289005224
165,0.12276600825817297,-0.1793159804418572,0.05369202925583366
166,-0.2579008315557898,-0.11353711990782323,0.3930426211295625
167,0.05942598484657813,0.12454448496142012,0.09278254011322716
168,-0.10718407329722246,-0.16114667375833164,0.2567539754217219
169,-0.19130575235159863,0.15774240671656625,0.32112433555297687
170,-0.059130058203389235,-0.34275421874007084,0.2315273735214592
171,-0.14565321291450306,-0.28224547439613934,0.3111672008997286
172,-0.02492466720964459,-1.9789760485587449,0.049465181023135615
173,0.005617603605698518,-0.14241734197649375,0.16935183170149343
174,-0.04100527012144439,0.11167383123796581,0.1625675846456508
175,0.02608424112406249,0.06982410263513017,0.11991900319239576
176,-0.2521491476212254,0.12244362852436808,0.3098364705942524
177,-0.22733929123359753,-0.10790979778403431,0.34912185332973733
178,0.04109504707813505,0.09718195090801118,0.08763975081120094
179,0.18426490373988935,-0.41750116990061237,-0.0961236178486493
180,0.08276928284143681,-1.4511306275341607,-0.062430283737680836
181,0.052850943220971836,-0.3226530640628189,0.12224985823578635
182,-0.17892572670371898,-0.0758823536399158,0.30595184732330194
183,-0.04994752339559638,0.14177937796273365,0.16709130087943094
184,-0.09057898816845456,-0.12556776589846758,0.24572573371015835
185,0.06473238113173596,-0.14353308239702606,0.10525133011516687
186,0.20547967234058628,0.019577614588106695,-0.020286116747416684
187,-0.2201495349576933,-1.765479569603793,0.24060283530415433
188,0.07997660935220274,-1.7063321200555355,-0.05711352205812531
189,-0.0715273324122262,-0.05524935057507885,0.22148115804271057
190,0.03513677504533841,0.01253392939417075,0.11641805019350017
191,-0.08811760182532957,-0.15423809259232657,0.24097013433241884
192,-0.18084988929677137,-0.0060454798884325145,0.2979203019097693
193,0.24376652762903173,-0.12011900004564752,-0.08826713264758937
194,0.21531650543592162,-0.008039147614178455,-0.04894470523439864
195,0.14225603917952356,-0.020270560528639903,0.023375610747517327
196,-0.1215622760136742,-0.032805232984286004,0.25727245181397607
197,0.05005462797091864,0.17633549788079683,0.07700987625972289
198,-0.07465904951275093,0.11971911666814405,0.20302021971677506
199,0.1854913329557546,-0.04780862743244818,-0.016832342066468015
200,0.11239085573098673,0.12490234494734909,0.033855697504104686
201,0.04248813651390404,-0.09835168873703948,0.13053861630385072
202,-0.1394498178909016,0.14728921513217152,0.22262159501190312
203,-0.04760032936264502,-0.2515221109209801,0.21654155693664534
204,-0.24722771439458624,-0.10039067249807349,0.37436637931184163
205,-0.19724743708272707,0.34775694413767766,0.17204498359930043
206,-0.002584403683863701,-0.19752580816463094,0.19021858289367088
207,0.0017112393069986798,0.03317077682889891,0.14353630406121226
208,-0.231012440021942,0.1144149873222714,0.2959329205373723
209,-0.10441614537731525,-0.19529640597658404,0.2580450131331251
210,0.08798609379540134,-0.0781402816767276,0.07854550007263086
211,0.17515948421430538,-0.7260306961906089,0.006995239238333398
212,-0.06472012918358394,-0.1994699489786645,0.22975508233030495
213,-0.12034622281124507,-0.15670653434436266,0.270527110040518
214,-0.23422154384249538,-0.14833769380603584,0.3667387118308284
215,-0.24295910522526643,-0.10555110629051379,0.37349222560875545
216,-0.2408957193083745,-0.3095498946983829,0.411491971925377
217,0.01717654317887951,-0.01367906347259401,0.14208013881656256
218,0.11710610575602765,-0.0984725225597815,0.05463276503976644
219,0.08154298698915574,0.0473878379572894,0.07336200623008551
220,0.27774178853592235,-0.07885791112493395,-0.09785585160714262
221,0.10549766092667268,-0.1336381930572612,0.07189494402947133
222,0.08116776412954319,-1.528122695028812,-0.060074859537959636
223,-0.08697095260222676,-0.00023063195624800636,0.2233466467890537
224,0.12003674616363225,-0.08119552324786772,0.05527132118924271
225,-0.2710411193187331,0.04629728088184515,0.3495856072324844
226,-0.0024373870053455704,-0.3175138662269802,0.18175421243410525
227,0.04045510183656753,0.03173724387320298,0.10707307697280825
228,0.04540635931886272,-1.7343056061597928,-0.022609239664076172
229,0.14921963782317405,-0.19451627013571005,0.019527543768602697
230,0.019221830215184088,0.19342099794542977,0.10132447772462498
231,0.0387108887849843,0.28033913404547584,0.062054095563424026
232,0.09254511388716335,0.06531726441895258,0.0603509624586178
233,-0.13104323266978546,0.3023811903934521,0.16233375383006377
234,-0.17083068000262036,-0.41026587920982677,0.34829512781234995
235,0.14811987514086278,-0.10463955034637579,0.032542386976074485
236,-0.1990194293335411,-0.006447326102843376,0.315842030105876
237,0.036892020746171594,0.04640870666257202,0.11025297347890842
238,0.05566832959564283,-0.10294306901150352,0.11557063404221524
239,-0.06718165860279801,-0.17293207570688635,0.23073427122090182
240,-0.1962896975749111,0.0821259741893483,0.28049174230449253
241,0.008626977767443034,-0.15555794695411662,0.15741925341294688
242,0.12880186269806915,-0.005416672668185241,0.03609495649715711
243,-0.05907027126980824,-0.2405418126862816,0.23625287203809137
244,0.03776095513070121,0.26335633935937974,0.0665127988624009
245,0.17408149231607362,0.258234650508794,-0.04516897135581701
246,-0.11259827945765422,-0.09709331294449647,0.26279173983857534
247,-0.021871592378734706,-0.17497164506564133,0.19167760607733045
248,0.11638461074587703,-0.1500828320367788,0.06756757552196035
249,-0.1838031043620031,-0.08262875757077526,0.32339208298507344
250,-0.1592753460231734,-0.2103323699154176,0.31357131271300176
251,0.06406935604844977,0.2838055071811242,0.04523354500980716
252,-0.3735285777242119,0.07720846114696511,0.39717479906604697
253,0.06943816775580491,0.21415941777861625,0.05490939473621111
254,0.05884443058714406,-0.3038778071802961,0.1137000169663439
255,0.08827804052171273,-0.19043533452133393,0.10640030323904881
256,0.07309897052307779,-0.01857161944218,0.08665208876754192
257,-0.1383385613251984,-0.20641536961433776,0.30308083572904876
258,0.11103743949849432,0.11183972961474764,0.028737919268954783
259,-0.15672717416688986,0.006401038679144766,0.2780010175423175
260,0.005568765101745532,0.0552576385647936,0.14303390665544854
261,-0.05527681730809231,-0.003462476935795711,0.18973251519640327
262,-0.1726868221732386,-0.06406898731347116,0.30184293666951534
263,0.12698738833402357,-0.26573443966488985,0.051556977265759085
264,0.11835725320186796,-0.27994162954864843,0.06130252334823538
265,-0.08213185909250564,-1.5535974717822476,0.1018465152194031
266,0.14419377234006547,-0.20859962924534486,0.026364907977016686
267,0.07619906512320584,-0.10467963485006543,0.09402060987011197
268,0.03728771367255024,0.23253270719676988,0.07242408865873073
269,-0.00989534740139797,-0.06829529162396941,0.16624733178371798
270,-0.08372711728238413,0.049057889397846055,0.20858021501110585
271,0.007864511063651047,0.02997071870397716,0.2597560126577663
272,-0.06279786517428165,-0.1580065317532332,0.21755211848480913
273,0.15659474122798,0.08273737657300961,0.004085320875411753
274,0.1250953380689941,0.034702648261785485,0.0402146150770244
275,0.07583643480676727,-0.08190008543021299,0.10175242565721732
276,0.134671435251128,-1.9859037254928698,-0.10846568364368793
277,0.1491617800638112,0.19308144548025663,0.0013447303487618002
278,-0.13152892375108594,0.08701374865908296,0.23848270823522172
279,0.02543860415373511,-0.22185866545474386,0.19875057672880858
280,0.05104221544769949,-0.5011741775183217,0.12783457135652412
281,-0.0876875552580142,-0.007935760711048734,0.22636946305751565
282,-0.07157542293327912,0.13009699049501244,0.19090645756196253
283,0.0678730410490862,-2.259654401875342,-0.039597766619841934
284,-0.26504765231383187,-0.0039736184201851765,0.36061803875637316
285,0.19377541071244986,-0.1551278975420603,-0.0070166828964576666
286,0.03803911928297676,0.0708409956731143,0.1067922990360806
287,-0.061834292005287894,0.057294487750287004,0.25226990212750056
288,-0.07122208510975014,-0.40733249995757675,0.20499975148540245
289,-0.11235635048976111,0.07694628015969995,0.14653306111832037
290,-0.11067017526793,0.2770441572844836,0.16119872561934387
291,0.14130393537602526,-0.23589599218460128,0.042908049411706346
292,-0.0806019088452099,0.24085849634604295,0.15558853866488362
293,0.13945280250056036,-0.004716720489638837,0.021589578246989448
294,0.15453481435321303,0.09090526742467353,0.014554049725348931
295,0.06640703324612085,-0.336210966577323,0.1141165667185679
296,0.07858770531634596,0.02190263950627147,0.07728411311047495
297,-0.03947234149982848,0.02819044710292995,0.17782024914694575
298,-0.0662087276141109,-1.6831956699307675,0.0873785970372775
299,-0.24231433720464257,0.07963206422770797,0.3188773845887319
300,0.12688446420991717,0.12014745800989879,0.030204007712088553
301,-0.16032969798899133,-0.05615192271946573,0.2988674766446573
302,-0.07063227676845785,0.07745906210747788,0.19380030816188026
303,0.0030504189784748004,-1.8755928749410955,0.020736013960720782
304,-0.2634409412992532,0.19808903102856512,0.2815218543051786
305,-0.11917358411250079,0.044761010818286984,0.2468784380388014
306,0.11904627834363035,-0.3044513697470159,0.06565325127449881
307,-0.3617076732925081,0.16310437561555535,0.34880540786031505
308,-0.037602322893173334,-0.07948251753452756,0.19474757933916606
309,-0.18179673780195071,0.016130779180496102,0.2935635565184454
310,0.19140179429499993,-0.34418043313126734,-0.015352815632534487
311,-0.02259018289548098,-0.08222423736545637,0.17369137760237435
312,0.07296291729091631,0.052151082261113646,0.07807251486772643
313,0.003911006993023269,0.09501510949283032,0.13920255713204427
314,0.0254107264005623,-0.3407245432277576,0.13915497482881847
315,-0.1881537731759103,-0.3921821495611249,0.35712058350836173
316,0.04956584561231492,0.07546570183082513,0.09266419752213195
317,0.009354254382618832,0.0636428151306565,0.13327340617800915
318,0.17162255153364803,0.15862832456312825,-0.017724283442492064
319,0.02510329612838791,-0.5968760063182621,0.15441339226307618
320,0.22952457542229632,-1.5450862687572002,-0.2067784669805013
321,0.17077506838202106,0.20905099210834954,0.04161800670386782
322,0.14749365090491917,-0.01234059632220752,0.030661595846405022
323,-0.0930305590780659,0.2342016147663919,0.16386536780183816
324,0.0977364903438045,-0.008678174640977976,0.0659954692020868
325,-0.3129384962487757,-0.049059516968663286,0.4073869045367307
326,0.018998417917480692,0.18104486045655632,0.0992853271938428
327,0.1464306302016427,-0.03805037936427902,0.031534432285496905
328,0.025770179823314088,0.2868642999709705,0.06979217211762333
329,0.08986918351859785,-0.2672659159341328,0.09870053836100283
330,0.07402167181754904,-0.3266543029516871,0.11512028288399051
331,-0.06271428062685724,0.0389321062952237,0.2061215813349081
332,-0.07537380971474983,-0.24909843270637444,0.24380496546265604
333,-0.0075179402964827835,-0.11616527925281939,0.17185272181469372
334,0.03110195456308995,-0.4144535586926415,0.10127581729271241
335,-0.09381550191581622,-0.0018322843847864423,0.2366213757799558
336,-0.05791434213194635,0.05483539465078291,0.19732443689016377
337,0.040418949617722966,-0.050705784903538276,0.12509597604823014
338,-0.013272759861985728,0.21642503801306368,0.110581552626968
339,0.011316923761349074,0.09650038476694589,0.117276203326916
340,0.05683029199016931,0.1568721300736411,0.07515590144228511
341,-0.06965860003639901,-0.16291937829768338,0.22983901016694575
342,-0.05373718978077591,0.2262390346032933,0.14394693778330747
343,-0.007422310323346282,-1.9536787498223471,0.03188487471833625
344,0.056421070836779164,-0.04903595996211085,0.10705232747892125
345,0.1481211131431992,0.10685305420549418,0.003433943359358125
346,0.02350871738723126,0.056102632246216255,0.12606122985789356
347,-0.054838476130716796,-0.13679246646293214,0.21196605352041487
348,0.02592879995526931,0.17946480792005493,0.0953335972570558
349,-0.014432690086997435,-0.0917559303651711,0.20494935937879474
350,0.13439306207313217,-0.11119855169642784,0.03709300909386656
351,0.07340771239190813,0.007210414145259025,0.08512753111715356
352,-0.09228587850907488,0.02941298074440779,0.2360403119927514
353,-0.08680923301856391,-0.3487754793117004,0.26206146966598526
354,-0.09936274365711928,-0.08624775865786677,0.25029709830735103
355,-0.03249639273576144,0.0717563387711786,0.16705046402340187
356,-0.1427034391800106,0.08372062236965783,0.24392653640663325
357,-0.22076804758146007,0.05376002068551189,0.3132115395920016
358,0.14695163452334414,-2.0890343970143777,-0.11959177420796692
359,-0.012801312927273267,-0.028794578542681026,0.16759929261189555
360,0.06503584690687281,0.15671305289734294,0.07379390305636732
361,0.015067970058992852,-0.11828440913243843,0.1496036485307792
362,-0.305530477790244,0.013218081217383437,0.38165608300704046
363,0.0038944974770640517,0.18052305787947387,0.1222203639659962
364,0.012378921722942193,0.16895518606667626,0.10781938575675085
365,-0.029341950358107716,0.21710031556919573,0.1231583119650054
366,0.24774087695415625,-0.1633398553686644,-0.06552473048959201
367,-0.03931525830876459,0.006357079202598981,0.18015683368024185
368,0.025065234763472333,-0.23376500757887098,0.1570540233986901
369,-0.07024467919126631,0.13708763712319627,0.1785317221549151
370,0.14113188831386925,0.1311664228911058,0.011857751312959693
371,-0.08253924476128072,0.046945525986934245,0.21221957499940544
372,-0.21585256393724683,-0.03326071190201185,0.3269454157249146
373,0.06323498088889878,-0.18928257019170763,0.11736923137044669
374,-0.11116329596051,0.1952138814115547,0.1905486532379635
375,0.07374783908275129,-0.11344016649104638,0.0980491623106981
376,-0.027618762271236164,0.31429999660021024,0.09559369595651418
377,0.026744232311673555,0.08465720224634166,0.10588187670792606
378,-0.15327741016159235,0.06842211996999514,0.2590315887115891
379,-0.012376990767975382,0.05796554576999202,0.14986737907582579
380,0.06091907113409878,-0.16984925138631118,0.11446532627079961
381,0.11149838930216438,0.13110368566091124,0.05663975697227414
382,-0.07966896841045334,-0.2632631965073353,0.2505675254346738
383,0.1822400329711258,-1.8695642203300924,-0.1567219904381136
384,-0.2899209718745719,0.009481040992252776,0.37417212647050546
385,0.02033054131871803,-0.035651213015509,0.14090416743820783
386,-0.06769880521584593,-0.13216592740636846,0.23139427065109744
387,-0.05125066105949683,-3.540119985554375,0.09113935430444556
388,-0.028999480469104166,-0.07320095392111553,0.19225992250470766
389,0.13443780705061337,0.06877885840061448,0.023946698571386378
390,-0.10481521667658789,-0.16438325410661947,0.267089947531297
391,-0.15781037611299842,-0.3654445055676879,0.33471890847667085
392,-0.16286902372895562,0.24650685922960458,0.2054623587384323
393,0.1288241133904371,-0.20787579391233407,0.046882867143144866
394,-0.05162565911475103,0.12339591249201431,0.1686178933363155
395,-0.13418552182284416,0.19730699253050354,0.201588516081505
396,-0.08580596346926317,-0.08204996474683873,0.23964160386531164
397,-0.07943032351907597,-0.2359557041327816,0.2501269224786394
398,0.03640578531551819,-0.04927710751861619,0.12172859574969806
399,-0.06272704513699223,0.06526531235804078,0.18920964358868106
400,-0.07075866304685374,-0.19079322153968875,0.2319676482549909
401,-0.05321220112659353,-1.8517064662248448,0.07619714377757603
402,0.22314179348467444,-0.0018761990437047293,-0.05638765520314735
403,0.03773374808202212,-0.14254499097788786,0.13233593668295526
404,-0.027861463940116793,0.12654236995823942,0.15227608373670848
405,0.008261292866750702,-0.005075479496369051,0.14573973884218516
406,0.14186192254249397,0.32791313311305814,-0.022561382559308354
407,0.10694776361757974,-0.11771429166899555,0.06697112965119828
408,-0.016472083359978185,-1.9878366103613723,0.041185728629992154
409,-0.12357496451641625,-0.16341495611523393,0.28012856208007336
410,-0.04656179400184024,-0.14006401451105244,0.2068073935393275
411,0.07199333773857375,-0.006796433599561669,0.09006779823610415
412,-0.027758360443914998,0.28507741399046604,0.10823897743713118
413,-0.18230119350194984,-0.03931468905407548,0.31796632181175766
414,0.06434471799568531,0.12800090463092417,0.07528530228103833
415,0.08956515740899418,-0.201141564318158,0.08439032137097925
416,0.0795195082533402,-0.09634327101791429,0.08944618656447346
417,-0.09420699145845868,-0.17443337754350047,0.25667037956227035
418,-0.038229213240912,-1.7148957844530943,0.05999587895303378
419,0.11751228685714254,0.030316619768364972,0.058646413269490834
420,-0.15545294236815554,-0.179250300710469,0.3073541762874264
421,0.05416971114766844,-0.002274253607098764,0.10163459898366639
422,0.1787323756848973,0.11574813796978589,-0.02109678912466606
423,-0.05034331818241644,-0.031530212786618605,0.2909367654845175
424,-0.17195759008637224,0.07158739493556199,0.27197504592781796
425,0.0021387142878512844,-1.6222319217867975,0.019104992072895188
426,-0.16880859542752535,-0.06771899381006291,0.30044902689376274
427,-0.037238228590929956,0.13261180306441867,0.15279071751155798
428,-0.021146757652209525,-0.1502540879068679,0.18471466351842067
429,-0.15391953785435886,-1.8139170173131656,0.17551951264894683
430,-0.1021654013215515,0.15759442575307325,0.1958590687624479
431,-0.11585618615816573,0.09256932655447969,0.2208230015816133
432,0.18182202489545363,-0.22192168301518922,0.007964153765781247
433,-0.041771336187052865,0.06375550553601228,0.1798369415839801
434,0.08526726767644321,0.00025529643466892793,0.07268596455883582
435,-0.0683544772192024,-0.011593699293703408,0.21462342050378766
436,0.012463146514818613,0.3387300511258792,0.05876742259464663
437,-0.18779297625105695,0.0601582256544948,0.2860920075078917
438,0.08804572288363732,-0.15504526327334578,0.07543429407089888
439,0.10268617859854334,0.16505163949806645,0.03735687391360926
440,0.18846605522202253,0.04244482880895328,-0.007580111826363094
441,0.06257427887268707,0.08823633205628478,0.08447048464039753
442,0.05596321959442685,-0.4919920422548469,0.12218917491994957
443,-0.2151146103366931,0.09517382558467691,0.2928963516089314
444,0.06566916128042677,0.21579079841971183,0.060287049349430646
445,-0.12607591351244807,-0.08603959295052088,0.27326429093263127
446,0.17017012053379243,-0.03275601660104038,0.019619936492612452
447,0.03724828541481706,-0.030178635794878617,0.11595698331180074
448,0.11565713735122762,0.11167801008950373,0.03553660082728953
449,0.017978003532409748,0.1955630941680554,0.10453966202604491
450,0.08538620210919667,-0.10972272318384402,0.08143993996113295
451,0.12042208907505336,0.0041778989886824824,0.04596384224826664
452,0.031116538028405305,-0.05644291974272342,0.13340011014751071
453,0.08363549435046802,-0.08025401159984652,0.09561467225611693
454,0.07921538662847527,0.24346431324523365,0.04501251052332407
455,-0.18215683309256037,-0.14741623856028657,0.32638724878755554
456,0.11817381711773156,-0.2521568662809006,0.055892319561994835
457,0.1971292295898015,0.2159466399529173,-0.04796262680236737
458,-0.08214208609931606,-0.8050406440222889,0.16774498515392408
459,-0.1870903240300663,-0.8350616454311863,0.2559686033141335
460,0.00291174274972561,-1.4152425005477587,0.016269799683249316
461,0.048199043935191144,-0.1091210254860886,0.12270417411434167
462,-0.012993515809752165,0.07669787462082478,0.14839535696766176
463,0.11670306463095792,-0.17865602293392419,0.058275934633316095
464,-0.16047548181318028,-0.20583492426733208,0.3186297201248843
465,0.09878473342656902,0.10851562199266185,0.04829600000360315
466,-0.03880325865095691,0.05117732883030213,0.17820985890732885
467,-0.05452528946397284,-0.19826803122706094,0.21546097490474495
468,0.15956014291147902,0.20889432209992576,-0.010840422043666394
469,0.12402030734193681,0.3118056983175249,-0.014745194183392698
470,-0.029245327011956923,-0.20332238186087215,0.19776459072418576
471,-0.09600494328421005,0.2909460250298629,0.1480074978597365
472,-0.17899267435867583,-0.02429103139540767,0.30330008289189936
473,-0.3260773466533431,-0.12373416162809414,0.448116640792991
474,0.018052279894797074,-1.8606587188740291,0.0057348300928912015
475,-0.04764046730255822,0.09653710659514647,0.17217831643836148
476,0.17713683495081378,0.17628952806708742,-0.02187416981685857
477,0.08144904684430987,0.0257417922356864,0.07970605699219092
478,0.05459829726397314,-0.05506103594008538,0.1100097227011227
479,-0.11868410656297723,-0.04964952495424113,0.2652123488160069
480,-0.057391803557096166,0.1732761875339759,0.16243128703157808
481,0.06375129084941378,-0.3688201337339168,0.12276299406725229
482,0.0953033891859485,-1.3920115580294734,-0.07543023971379427
483,0.11055092556455248,0.1812390878377017,-0.03327479477371924
484,0.0019139016088014493,0.23734794455688768,0.09597550250040669
485,-0.060539004373181604,-0.11054958031024853,0.22004207139493104
486,0.0808469121048645,-0.04545584458704027,0.0819918046350307
487,0.17767012950511085,0.13134773722789483,-0.030163083590262544
488,-0.059732195328280224,-0.02700543933596289,0.21393236585081554
489,-0.20389833851215722,0.1199226391210424,0.27260815723520937
490,-0.09628508918773393,-0.09256623376015521,0.24516943255946033
491,0.09000346968875972,-0.0002297023416441002,0.06345715503914519
492,0.07912695353054411,0.1708043839831641,0.05153626872461757
493,-0.12017586608545472,0.04206106465405213,0.23839294032662736
494,-0.16061895334225829,-0.23715716129802766,0.3220496515698737
495,-0.05308212090622677,0.01987015720563845,0.23244216409924334
496,-0.1746798288972744,-0.0947677816887662,0.31330885331846675
497,-0.04633606073608443,-0.2275547520022395,0.22345292046528484
498,-2.9193927475016332,-0.03926800259343893,0.5630692500425208
499,0.03793512790988052,0.05352453080867248,0.11223215719149394
500,0.05711442147108836,-0.3448404829437386,0.13229610845602535
501,0.09786679836085632,0.21996256620369303,0.02684159825100764
502,-0.17139829028356657,0.16328630035383973,0.2424839163094819
503,0.0571728269876437,0.036463446369451535,0.09903998719781398
504,-0.001168788208961935,-0.043223105314159516,0.15836454016946916
505,0.13534740874382623,-0.14803391593373327,0.03699648268523674
506,0.059692338196965844,0.41042806632829243,0.005983941425250521
507,0.02863412712071045,-0.12054635758660098,0.13366099405611734
508,-0.10097244403074102,-0.7574967092223412,0.2860163264613971
509,0.06106855206583117,-0.13717970530554957,0.1204759948507278
510,-0.21665816315432018,0.1986348888271885,0.25731749820319605
511,-0.14745663451376023,0.05695972941028238,0.2568225798618644
512,-0.016621887817931724,0.10212382942057352,0.15006088678445495
513,-0.060577242545162835,0.15572687300384058,0.17405559632556147
514,0.03149742922684373,0.2641770580373528,0.06741110811326792
515,0.17313214187966186,-0.09044454634217758,0.0024904964113612493
516,0.21347511604433533,-0.3197236959650651,-0.03783131800273736
517,0.10314009428234705,0.12645951927705124,0.058931301219453475
518,-0.12325969171914586,0.1451267641525854,0.21358897392917073
519,0.05350117313709357,0.03418657050503382,0.10229320765252439
520,-0.10242622217058783,-0.32625487233050765,0.2689068117073694
521,0.10209673221491888,-2.55214440373806,-0.07055432085538925
522,0.2440875465047263,0.038229836138501505,-0.07468169601683229
523,-0.07299097514267994,-0.260710470428286,0.23804365401122538
524,-0.024347187649908064,-0.017578568379802373,0.17231660186887637
525,0.02215370358431601,0.2757684900300501,0.07393652970184775
526,-0.06817533723375757,-0.07599658930951553,0.22559992537724255
527,-0.28072295574724015,-0.143104533014276,0.4111803235633731
528,0.04086873322031348,0.3509657745913146,0.04078953899015602
529,0.186481580852085,-0.2766803440492954,-0.003480815120822598
530,0.006136081941654492,0.2011214105108563,0.11281963991635678
531,-0.1878357883677486,-0.3128672677904423,0.35034397301764897
532,-0.3778447455237496,-0.17146870254354923,0.4864856096210754
533,-2.4933792798894423,0.15166871685196437,0.3697817631154497
534,-0.061846792539390516,0.11016159228558797,0.1799237740023983
535,-0.08719992044106151,0.04065592652694294,0.22861469859321987
536,-0.04567757636020131,0.28924398774511706,0.11996287251280804
537,0.08153556343750967,0.04193495250371915,0.08034461984262747
538,0.08160905015005016,0.2230254066305567,0.04748106151696746
539,-0.06104717348244504,0.1801665182741552,0.16456169677980498
540,-0.024784940100823327,0.11239785045235795,0.16265547969061445
541,-0.011099285182849083,-0.02633971761952314,0.1605190105894846
542,0.2787544567512177,0.0653423617655221,-0.10753555395465085
543,0.01401761003801738,-0.3549624175069471,0.15977839547097544
544,0.15971510531295707,0.019417031876696966,0.006762393780470575
545,0.1215197164677797,-1.409514020776398,-0.10120937909533793
546,-2.6085975736214917,0.09137661493068772,0.4306231269548341
547,-0.1547240336625817,-0.535138349624722,0.2515696084184171
548,0.09003943987501772,-0.11341030138593566,0.08582299544022064
549,-0.030081134788541686,0.020620624741910287,0.17385657173879707
550,0.01904311576749551,0.24663139250418065,0.08447333907256407
551,-0.22191142059867164,0.0834815964066492,0.30559242328638364
552,0.06462635362215519,-2.394326949734238,-0.03503682058859127
553,0.14827854083789926,0.08138349426820213,0.016121022667312843
554,0.11293062523916397,-0.28587301714575547,0.057842066813970805
555,-0.11027444379803397,-0.34814388583659595,0.2726057210465176
556,0.12544581193755788,0.2801515140522193,0.0023130782800173224
557,0.023218507701201707,0.0978348445284295,0.11715810114581317
558,0.035041890231697126,-0.42724284031771437,0.21515213971114988
559,0.01319846359557153,-0.07504368519445093,0.1515093380656347
560,0.1887581312692448,-0.1474524376560004,0.003570299583561649
561,-0.07466127507798526,0.19035595181904508,0.17335403978123254
562,0.09236673706272769,-1.7332611808451608,-0.06911045788364888
563,-0.07294190067488815,-0.01554497324837889,0.2145748838984052
564,0.22573257370181565,-0.18074737933171708,-0.03537178356477369
565,-0.14646330250007988,0.3599424380322803,0.14345260444987049
566,-0.05157388684532649,0.04734203365345069,0.18794247387574217
567,0.10556874394505122,-1.3258961502200473,-0.08625409500340027
568,0.011497678096784592,-0.1004441519801888,0.14760719772322844
569,0.06803601601391507,-0.42242915342246107,0.2885314449831803
570,-0.06955383795552472,0.14612609231026508,0.18043866515186666
571,-0.036862076291706014,-0.3503266370945336,0.20768963406029983
572,-0.044368543644197955,-0.02923042912803131,0.18982710928934793
573,-0.023317279874320862,0.20841680263962992,0.12525832851901952
574,0.10610187536335491,0.14916507986788785,0.03554853124023978
575,0.09644760053902224,-0.06242348525082664,0.06827017090843995
576,0.08460583912179209,-1.3896302104673424,-0.06486347862590079
577,-0.037534143522393926,0.014756821263662068,0.1852781251429954
578,0.03114287674108973,-0.0041860386034516806,0.15086895447605428
579,-0.10209167106663342,0.124076070813114,0.2061479291523294
580,-0.17982498448441986,0.053984143277454044,0.2836394246572891
581,0.15344253049219958,0.11716152346639441,0.002078961545283846
582,0.09978600720236708,-1.770665734562883,-0.07608148978471461
583,0.01542557172600989,-0.003452165533383511,0.24401329690368684
584,0.05610570860394404,-0.0752767111714776,0.11436754473541981
585,0.04490980661484811,-0.18014600807940545,0.12910358891177282
586,0.0322813761427303,0.2659648629570517,0.0689188988678275
587,-0.25939297599663025,0.013491852146056083,0.35251019645812887
588,-0.0007838248009184312,0.04086690826609418,0.16120606822746397
589,-0.16985955414174203,-0.06587184113845446,0.3045037317206243
590,0.0180094850196304,0.007979773752089137,0.13499942836063197
591,-0.16825301466200504,-2.124009042830989,0.1928105749436949
592,0.011874220675084812,-0.2941573245520424,0.1493320883703406
593,0.11396065909623676,-0.13822391813763696,0.059041793667554146
594,-0.007413948545278659,-1.5743267879685494,0.028083076939511356
595,-0.18299558600458765,0.02242026692280097,0.29493756189218007
596,0.11589016222871096,-0.35217809128217265,0.05836212340324821
597,-0.15158652566555897,0.14559452768073988,0.23677048326011346
598,0.017265479239817694,0.01953376519881389,0.13205403497248341
599,-0.16080506320847665,0.1639798904738634,0.23439538266189375
600,-3.174282867331077,0.06676944003469032,0.4606410830389674
601,-0.08903685747711476,-0.1282556248006383,0.3047243644065242
602,0.09942354242080675,0.31453764683215824,0.011681956858766256
603,0.07522702212822208,-0.7153016747603154,0.11835228240505856
604,0.21860372317262988,-0.20179421434656908,-0.043728115043982003
605,0.10002507706322206,0.1888860883846628,0.03565078920070249
606,0.05068145757052189,-0.13584398321900792,0.12094990262686053
607,-0.009166648654579945,-0.3185044287040731,0.1872209602654685
608,0.17918670375899493,-0.12704576733978995,0.014309089304713467
609,-0.08889330515090921,-0.13478406374725316,0.24720162514384897
610,-0.1087245364815902,-0.1561604511492513,0.2674809517352119
611,0.11800584081057441,-0.16712658780924594,0.08612859063057897
612,-0.13939838088989998,-0.16530964073304455,0.28665353364598045
613,0.23044781371099377,-1.990372483758791,-0.2032396107362959
614,-0.038124661299251184,0.1997659769171377,0.1403473123948595
615,-0.0016311360064305003,-0.31224703505955553,0.17996663379811806
616,0.08006847446372167,-0.18202136114152528,0.10283308608153746
617,0.21253007237029742,-0.21136995407416487,-0.03698906734584966
618,0.004864675981708588,-0.2044859288787368,0.16537946918479832
619,0.15097060370696203,-0.07665347718318893,0.016382934897772684
620,0.037192115631760725,0.2616463919740192,0.07027071659475852
621,-0.00013093229569471898,0.13466950861920723,0.13525476915718102
622,-0.22478697861576802,0.16922944415552255,0.27459925991326145
623,0.06168352899576535,-0.09697159964719348,0.12932645831069267
624,-0.03586947599272583,-0.24899570329329768,0.19988850827185745
625,-0.03269788378524485,-0.02745690060856415,0.18112558883224067
626,0.21027900359313034,-0.10524134969395676,-0.00639891527135859
627,-0.038753303864284216,-0.12891762959436115,0.198097671811405
628,-0.028434120698833554,-0.03365961523510391,0.1800017690597147
629,0.10987486511106281,-0.07536213172421602,0.06828675406610969
630,0.05980272517306928,-0.029223287814069854,0.11101481859320103
631,-0.137054932290394,0.26365896961603397,0.18173367643250146
632,0.06702092285537353,-0.08531927167444919,0.10911092966767853
633,-0.05126213616823272,0.22332616281411932,0.13917269956511547
634,0.3036283615987969,0.17044448357502184,-0.1390005533126154
635,0.1623470116254091,0.033139903363456846,0.0012468365226985156
636,0.07265420332941153,-0.47827426601956075,0.10600363645991379
637,0.13178109676485605,-0.022725865756792085,0.025300574240339414
638,0.06596821026303346,-0.051440330211699026,0.09455801026039694
639,-0.17038696319512647,-0.3902847473389736,0.3359634535482114
640,0.05201995940847892,-0.659069120042004,0.1296434025090936
641,-0.04203394462025878,0.1085810424862178,0.11889864745683397
642,-0.19808548534136805,-0.4250009805464113,0.36527604923852797
643,-0.11643203748639341,0.18149508531479508,0.1992819171379061
644,0.20076437312622453,-0.036480766227026507,-0.023825539681444213
645,0.06817407511886242,0.1269239342806212,0.07302596994937488
646,0.09406547606750904,-0.3349666238188471,0.08245062291089866
647,0.05240682204320146,0.13580039271569055,0.08090723534160191
648,-0.5475300608837752,0.21388171225782548,0.38806887926739875
649,0.14674986591042383,-0.13317433713330457,0.032632700789633734
650,0.061893892550404006,-0.27235129442487344,0.11329759671440427
651,-0.03915175755940781,0.032134805585765536,0.18920146045859723
652,0.12061635137017324,-2.0054437553074287,-0.09435575030339734
653,-0.13598107535116943,0.025415237361140708,0.2578784027747378
654,-0.022326791621345987,-1.5630707718807038,0.04273423142393952
655,0.3135171926247242,0.08034646888146735,-0.1375562189263425
656,-0.11748544994574872,-0.021426648314891217,0.2588648693749485
657,0.03168430624091312,0.26751630565421414,0.07134121398789944
658,0.020252676863206087,-0.040736054476568695,0.1480439425387263
659,0.045718815065777685,0.17483741392749763,0.0840896753326203
660,-0.0022631572018081414,0.14092896362136786,0.134282072497233
661,0.04373928681901407,0.06499599332251882,0.10467113416489951
662,0.06271963123707036,0.1395488696703454,0.0811584276956161
663,-0.10476886164998633,-0.06758648390748961,0.24824232454981243
664,0.015414588926751627,-0.4380193429975811,0.15620351881962818
665,-0.07341076776749234,-0.05599116960282047,0.21818488831809077
666,-0.11899933097175575,-0.0195102139977803,0.25517303120060403
667,-0.014595614236010968,0.16043171256316613,0.1380852300523236
668,-0.05844086169003215,0.1023341044523165,0.17716962354021007
669,-0.11542777227830003,-0.02406243393542229,0.26253625047486406
670,-0.014431488952586613,0.21761659184716886,0.12161225663268439
671,0.032921760250134824,0.12457579643014349,0.10183240781046238
672,-0.07504219716324678,-0.09343103679772252,0.22537496065724483
673,-0.32413069228104074,-0.2614894323500101,0.46845907650380064
674,0.20093058072532188,-0.06986849236067622,-0.031354784646402296
675,-0.13701826907269687,0.052485878418041865,0.2581116515513088
676,-0.08772051319268204,-0.2431689849650645,0.25813711585350146
677,0.022435864889011947,-0.1234286375374063,0.12611297066906416
678,-0.18759210617779176,0.04180238045996887,0.29042220125544277
679,0.08995341083024222,0.2485454052017133,0.02953939113974286
680,-0.35902645038674175,-0.12818958071379205,0.46400007121429143
681,-0.1188560961790015,0.02848856319922788,0.23875891199040353
682,0.184550343244541,-0.1235611446591503,0.0013152989733079324
683,0.09122353766663305,0.06834384219749623,0.0604115740194166
684,0.10561466521082608,-0.06852330609746216,0.06291982761624595
685,-0.13096007871270088,-0.13574253326168384,0.277346990531906
686,-0.15465493833180977,-0.36078938696620577,0.32412720600406486
687,-0.25818295227252586,0.3400241898025731,0.20613316697272338
688,-0.0609067989152593,0.1266057809520591,0.1796520185656783
689,-0.23968567088833614,-0.26821498268407795,0.39295917130910124
690,-0.011049296522136154,0.25561231953561336,0.09738449858076877
691,0.31190954225143375,0.23030870054884844,-0.1490613065747098
692,0.016570468269963223,-0.0012554470263421158,0.14395556547189145
693,0.11282945509541875,-0.35739675086090045,0.061811261976718726
694,-0.001532106430915059,-0.09455824228365667,0.16164916311115532
695,-0.060509157861621476,-0.20029178990571395,0.23325046851352652
696,-0.2595754797654296,0.32321162118190916,0.21487044525386664
697,-0.19432483696818026,0.09657392389274744,0.28005634501519994
698,0.02893233275901963,-0.12921158995723958,0.1356036479200452
699,-0.22019232360779706,-0.1392193001897607,0.35847122587984503
700,-0.07635338979543627,-0.3957918489355592,0.25662985080626327
701,0.06153521421252428,0.08049352370917118,0.08758770984351529
702,-0.22268303071103046,-0.07359288563067068,0.3525196770312974
703,-0.020374997621828594,-0.09422036242599269,0.1867901534150363
704,-0.06991520275199203,-0.1934445979826354,0.2382681394642657
705,-0.22772283322875397,0.006477934699672283,0.3340425260573835
706,-0.058642940214388206,0.25023661840513556,0.13700232118038344
707,0.056940049270488124,0.1998090229298326,0.0751984304755544
708,0.13023367445475453,0.1380094768555753,0.022355826800990998
709,-0.1463059710548258,-0.2854353728385284,0.31887090953642555
710,0.19067420363612375,0.12525924784065168,-0.03235801601339162
711,0.08157180908730721,-0.13697167452305964,0.08369319214307723
712,0.06504356120818544,0.14852535780810006,0.03908598964183597
713,0.057490526871682546,-0.38442013176543943,0.13089160485574183
714,0.010015847728995109,-0.09230865460722298,0.14658852287842167
715,-2.4777877653798237,-0.04890037466258618,0.5681892485697585
716,-0.02635108008793363,0.08312250213859029,0.1591300621309155
717,-0.14710023799135596,-0.06243692837921444,0.27585461201159206
718,-0.014060621400759032,-0.021606747031391593,0.1612489978336424
719,0.045111306872333445,-0.6623658521930672,-0.020961763691025367
720,-0.08993327197216827,-0.052131217704551314,0.2332146351492071
721,-0.13849200115490112,-0.36844298243329865,0.3136802366617165
722,-0.06215795308104077,-0.015806665955877597,0.20278905407224015
723,0.09534139853281087,0.04574059599716496,0.031066786050387662
724,0.05057591086073998,0.2133654279116005,0.07419196783044157
725,-0.26435936940303606,-0.12150125360374292,0.39293044771529057
726,0.03953866720695243,-0.06397369950594273,0.12340967180552936
727,-0.018072606096724342,-0.07904774909151568,0.17514564613526587
728,-0.095265363621439,-1.9615087742575577,0.11892779772780017
729,0.16897592804996941,0.19577544915937461,-0.01755177480497906
730,-0.03485324222748987,0.24731149783022188,0.06317182601998737
731,-0.021337082985771083,-2.8704224497691047,0.05482793665360447
732,0.06350887601566613,0.1098434414143532,0.09073737174878019
733,-0.04400382110796819,0.029254922736150046,0.1762936105162916
734,0.11476695029646233,-1.2258535896369924,-0.05954833409845861
735,-0.07966791001491036,-0.39337109080335125,0.25868260978836743
736,-0.01027940926398263,0.026963707830374162,0.1583616117937885
737,-0.09130733866693375,-0.1200976060377032,0.24465651620445683
738,-0.03375355970347105,-0.462112068885995,0.2101416764481506
739,0.09135724765868036,0.02784166296188295,0.0776974277503588
740,-0.03428427381386856,-0.007599647490872163,0.1810120396537397
741,0.14623723254995658,0.2688362954322753,-0.002824876445237692
742,0.16655733921534543,0.1557749652769005,-0.013322627033811898
743,0.02174536370489233,0.11442455424094833,0.10859729532356979
744,0.05195875344942835,-0.0356714080550416,0.11257769177182325
745,0.09204594298704105,-0.09726433480792901,0.08028162646170145
746,-0.043741308053074524,-0.1006202706046056,0.19966741756750322
747,-0.24174915727496094,-0.27573637251831334,0.39660544969553313
748,-0.052361599960773386,-0.11954023487846116,0.21117161773772594
749,0.13660168683833684,-0.06184742971540658,0.04499508346563644
750,0.09225952665302617,-0.0692683189004949,0.07312243473535403
751,-0.19393753058303675,0.03366650901219703,0.2892761167247049
752,-0.14085717991910662,0.16211307716186596,0.22360967194509812
753,-0.046248753407399756,-0.5961213732400212,0.22472709877894545
754,0.03067951811070757,-1.4883437158362187,-0.010489285771238316
755,0.029417263731456922,-0.09462626137643021,0.13283405279659363
756,0.06627162526783903,-0.23182315446116264,0.22104249543460155
757,0.007652998333354644,-0.014269562772203037,0.14370454438725702
758,-0.16842870504336305,-0.03922846556989423,0.3019166188329143
759,-0.13437396324034145,-0.23716225408565555,0.2971268017685762
760,-0.0005351420383016281,-0.0016705475245203383,0.1508757636841672
761,0.014592814695084,0.10306165103399467,0.1335584042229081
762,0.11309146943551918,0.029030464547357693,0.05044561193316611
763,-0.014553775596629848,0.09737502273634624,0.14649798416341808
764,-0.11129669185930025,0.2477217015978218,0.1719187826727378
765,0.20926075368755415,-0.37823537846380373,-0.013511449900309742
766,0.01866042676162616,-2.205169452183437,0.008577872027824469
767,-0.02737199013923486,0.08227773041289943,0.16399458794598787
768,0.023490795761379912,0.08582843682224928,0.1121845355097507
769,0.10511897150171046,-0.4582273612327728,0.08628336839049652
770,-3.272255970431832,-0.07839346221798743,0.6053320873001259
771,0.13901256496239323,0.14335011354971716,0.024556044003789735
772,-0.07998171764989548,-0.0214801595542784,0.22126121905929808
773,-0.21643158364330806,0.08410560436189929,0.3002059646811209
774,-0.30394465217916855,0.2788825660855191,0.25838968213359037
775,0.02293035338577365,-0.22017291705920405,0.14798339881657127
776,0.036006983913219104,0.10830881462781206,0.10085643025811124
777,0.010914992804644807,0.11368420387263478,0.12414347543223869
778,0.09247211656196819,-0.2014135916427941,0.0821827392430795
779,0.3308339429459213,0.14772595116290776,-0.160056945000168
780,-0.13414376819561669,0.276577814541313,0.1734262717913677
781,0.11437709425751907,-0.251192531939629,0.07604822350585351
782,-0.058092742146800824,0.22956233607098886,0.14940105851315125
783,0.07265236504028794,0.24871584861663998,0.043964780872225336
784,0.08539083197011843,0.3078303208353699,-0.04653236041125368
785,-0.21607202226594935,0.23466445685369008,0.23971851228852245
786,0.11038137091295286,0.08194071919614132,0.04815082460209055
787,-0.11662672773584026,-0.013621795930992942,0.2476351002402407
788,-0.20989272969293626,0.1306301046941284,0.27687313925036905
789,0.16300440348208967,-0.13784775065468757,0.0211915919693692
790,0.13141442160746886,0.080868833307427,0.022738343116542978
791,0.02805706258191565,-0.003715642698441879,0.12615702194938805
792,0.1859789319226528,-0.34229421311794883,-0.0008897658153445321
793,-0.15463818424894582,0.08861366337305643,0.2599049267239249
794,0.0007408417605767603,0.11003628066113558,0.13209870901323328
795,0.02553621486327784,0.10894909752801119,0.11610340503071286
796,-0.03481039552363441,-0.031712753344236067,0.17891207929160885
797,0.0149237166832219,0.0683100083735042,0.12799266997588774
798,0.04560531057750672,0.017436030026048543,0.10756378078241624
799,-0.21698630740340752,-0.20615602328453314,0.3637372221677452
800,-0.19492693354360235,0.23358262041647382,0.22924234764276577
801,0.10532254752386461,-0.030256469397238417,0.06628378704483325
802,0.05658349297812992,-0.4926192374303301,0.13227299849539292
803,0.12768318407549994,0.20924318215389948,-0.06910158380647573
804,-0.04268924762747861,0.30209346995724495,0.10943267906604745
805,-0.06971727779846248,-0.1861948259210498,0.23616621579156102
806,0.06996240711024204,-1.7016411194624508,-0.0472463718445151
807,0.1804654995221615,-0.08440615059926038,0.003103696506979787
808,0.025339336335046703,-0.06320801923167801,0.13945392322363617
809,0.11452664550193825,-0.140955924618754,0.05923434562582088
810,-0.028076683789132417,-0.30652469399994986,0.19933524603551234
811,-0.04528368892233581,-0.13595685046201184,0.20476544253804832
812,0.10101723233112758,0.07782521136048148,0.050708453750359865
813,0.04244537692200301,-0.2682837765496917,0.14402232837648682
814,0.06370234112245043,-0.1434249698968304,0.10600821352217693
815,0.10081354818745436,0.02627673410894893,0.06580212789531217
816,-0.007614793865804992,-1.7495229381388417,0.0300338753085353
817,-0.16850384366676108,0.09820512693640437,0.2594873451315266
818,-0.008020798795294826,-0.10894930582118162,0.17027149569228428
819,-0.04903942178655274,0.23050576724667182,0.13942589428293076
820,-0.08623596485667695,-1.7222139512018027,0.1075957447201283
821,0.001796902958864921,0.14209666962620104,0.12050117637424079
822,0.06851824774929782,0.07889810576593337,0.08326399626554519
823,0.11116942656654527,-0.2456817497794005,0.0687693204661032
824,-0.09859399553851578,-1.6582065731465299,0.11919012131459596
825,0.06476513654337523,-0.08645713700683882,0.09804043184417821
826,0.09658152150674049,0.09076332564692668,0.055163937251203665
827,0.1062721255472443,-0.09828994988241174,0.05577715180157668
828,0.07888014531517284,-0.2555864015235151,0.10470249498933853
829,-0.2735414655476439,-0.08899215903126856,0.38710371520174874
830,-0.1320168822652844,-0.08789139370809229,0.2733379808125548
831,0.13147241679794597,0.1482081178653999,0.028004801849794207
832,0.024525634808366892,0.0602925211304044,0.12402896156858105
833,-2.5636742835601436,0.024884626238077634,0.4960009628599046
834,0.018924451282186894,-0.019278602254535537,0.13177240370809543
835,0.06835401367642824,0.05068216229238076,0.08177082322494555
836,-0.030162192615886485,-0.5292979014502761,0.2199979772944205
837,-0.02218853945071486,0.2541443880859342,0.11612870988532223
838,0.01911428698070483,-1.755518050105128,0.00363203639015353
839,-0.05706802500518604,-0.19036856945147235,0.22805917200568332
840,-0.003656328355620131,0.24725249532468618,0.1032927988834976
841,0.18310871338436385,-0.24981534406954564,-0.005853142468121178
842,-0.04276966555536743,-0.1258678505276984,0.21186813919734349
843,-0.07337349917256386,-0.006875415022166043,0.22509916971992452
844,-0.0783969374640966,0.14475498280789545,0.18359920776073962
845,-0.16310566548606897,-0.054122078183154565,0.299961409930049
846,0.1308676035692673,0.05469673155684163,0.036221949314336116
847,-0.029957471689309734,-3.4084276265332467,0.06874217323774914
848,0.004605607964885738,-0.08002416117851824,0.1532444297038333
849,0.07289724092650918,-0.29028667491861404,-0.0211062059758018
850,-0.29937824807301805,0.17856059312914274,0.31018821588395923
851,0.0551177484523071,-0.15900652730667691,0.11627207772984903
852,-0.31065276391947283,0.26529579052393637,0.26964054452003183
853,-0.15697590870196532,0.1307140514803904,0.246146125425376
854,0.0192499500654868,-0.1612404445417045,0.15087264858631103
855,0.039984760234508476,0.04034929334900217,0.11490223449999845
856,0.05732881618249697,-0.40896755172836063,0.12626749372056595
857,0.004528308360723932,-0.2991356046293381,0.17227775249708968
858,0.009908246184527902,-0.10047387253649342,0.160998747057358
859,-0.050837227580376676,-0.3214100068157488,0.1895403278427436
860,-0.04942888903461651,-0.34472737089040245,0.2800654487727944
861,-0.09389347199726272,0.04168882845171873,0.21779548984460903
862,0.0062366684362982205,-0.02618485865713538,0.14284135914986323
863,0.18625330956023722,0.2465873168442858,-0.04116353196397327
864,0.058484759317668944,-0.3566438479355005,0.1153896760604333
865,0.13582717310679038,-0.0683133699489546,0.04020796265714594
866,-0.1542797169654465,-0.007743581018161694,0.2497149602596795
867,-0.08768322300104758,-0.14874034875637504,0.24477921821253928
868,-0.02965892056956554,-0.17210473790396874,0.20954374942319845
869,-0.14361659343994349,-0.09348395783896901,0.29207282369162185
870,0.2566208189617294,0.10720229664928072,-0.10725455882986608
871,0.11249140201630392,-0.17009165305232926,0.059676870098795264
872,-0.0860948153404213,0.041599828332225086,0.21267863649172142
873,-0.07127031927689664,-0.1405437814532967,0.2306668886862886
874,0.08166850509386903,0.1526868900945948,0.06418524400588424
875,-0.04541090937337666,-0.08504432459614913,0.2073009339402084
876,-0.020807731285676367,0.24866757648903381,0.10610186740903359
877,-0.3235295674998214,0.047840799198211825,0.3839854951517458
878,-0.25676818897507503,0.20048738907788333,0.27685806729018453
879,-0.21584649736611994,0.08921771414149793,0.29382081276307276
880,-0.11718552809742189,-1.5691931004565822,0.13670560382101357
881,0.17861219278188178,0.05590333191034158,-0.010480800346566071
882,-0.021512361710473105,-0.22824724495631,0.19112873368947392
883,0.18687503901427527,-0.2288879792871515,-0.01288006553700427
884,0.03303153484854415,-0.24848357913949276,0.13890179022882393
885,0.13118267157860042,0.40396189923997294,-0.03802215491976312
886,0.06319451036136958,-0.03850969459950415,0.10528266702767496
887,0.019200779404158874,0.1169628592225852,0.03711252942126137
888,0.00226274665298698,0.19375828678975238,0.11188390349640968
889,0.009581282334858221,0.15538582539103307,0.11438712759548053
890,-0.16345598013972895,0.11024224348055056,0.2539766906916171
891,0.12275583379270238,-0.06648982295506967,0.0426631238267629
892,-0.11514792196257873,0.16099100584979753,0.20916957228138075
893,-0.022150689032559456,0.06308534936079979,0.15902279636275096
894,0.14657926001263655,0.19187525344163137,-0.005621017975625051
895,-0.015535888847967305,0.18856369788146388,0.1250190417580778
896,0.1124522211364325,0.004129914892899267,0.03962835542445078
897,-0.09597487651608172,0.2058034746094245,0.17922796904336905
898,-0.10246733649513773,-0.02026517874842443,0.2403406244387223
899,-0.048591585277654614,-0.16206531272880087,0.21422949168946417
900,0.0588903317983811,-0.3407511157200458,0.1210379577053044
901,-0.07475532586064115,-0.04167261364532676,0.22883803082958734
902,-0.1547285154532655,-0.1111997206191338,0.2962345890546847
903,-0.19785075099718674,-2.5677930840156797,0.22655017432737168
904,-0.059210785807457866,-0.09356985462689843,0.20883132507690122
905,0.16165094496097443,0.042897716146300446,-0.0007751054691591719
906,-0.1186797167786724,-0.07413811017911959,0.2644264026668155
907,-2.6003267999640647,0.14210414819938522,0.3803201612822493
908,-0.19207251352994126,-0.09438383715315785,0.3288583635618349
909,0.03280031312922227,-0.26380395070475204,0.11058845436089314
910,0.12907590771542576,-0.14253872314296773,0.040679311073420765
911,-0.06686481928526977,-0.00452793818357855,0.21567027971069477
912,0.14432183047549252,0.06134365508485162,0.013082276879980554
913,0.10204821596061753,-0.32761258628607093,0.14896020064598844
914,-0.08712576376547743,0.043112731022146855,0.20914706048556142
915,-0.11891761900563824,-0.30999807749189967,0.31933095196665406
916,0.19852157097844825,-0.14298990824156954,-0.04704950471884502
917,0.03480972488483647,-0.3647570370918578,0.03715561607329903
918,0.3283620351600143,-0.27479712410803125,-0.15185656967712702
919,-0.24728321688308474,-0.18775262048901775,0.38823342603698335
920,-0.0453318483783528,-1.6697430093460013,0.06657595998802933
921,-0.18331803264221425,-1.7305402243112777,0.20379025455890498
922,-0.014013251415158634,-1.9673541593852408,0.03854666049485942
923,-0.03341929724650028,0.010937215080825569,0.17466877842502926
924,-0.052729010177067215,0.2012967782421664,0.15603817904098904
925,0.029748535263903753,-0.01110345923829642,0.13791558303177837
926,0.07499428938687047,0.23358418423540395,0.05474155057068685
927,-0.02547542102922873,-0.13305689007595672,0.18344660298137797
928,0.025602932396195266,-0.17318442917268456,0.14909390799602462
929,-0.1267264005817088,-0.04732644797407731,0.26973041669511416
930,0.02493774066884291,-0.17882095547594612,0.1439643464059064
931,0.015547795071100934,-0.03625291644796769,0.14447441126942906
932,-0.13032760541010846,-0.04571168487531174,0.2632505108389735
933,-0.013987453643174774,0.19088123391161327,0.12318603924790324
934,-0.054832963394271794,0.13512333655243003,0.1726495694145251
935,0.047922045956584114,-0.1525823119838055,0.12019899994910943
936,-0.14184867341529306,-2.2419504915587076,0.16784969159672727
937,-0.006001369307677584,0.10049535244732632,0.14766254947587612
938,-0.033987377316199385,0.11963036028980323,0.15522116915409853
939,0.040880426259687574,0.31163651665080316,0.0531095766799551
940,-0.14371309125328635,-2.039259676644906,0.1676685571072025
941,0.05657930799406108,0.35095497281635657,0.027726669428797663
942,0.09417734595847893,0.12615023163676664,0.05559133062446904
943,0.1435897623717799,-0.09393555664017672,0.033416314191089785
944,-0.10490513793208012,-0.47605422419907734,0.2704234643228095
945,-0.2113386941472325,0.006980136468439202,0.32682797359480703
946,-0.05528251029337927,0.12614155511167124,0.17634136543946
947,0.16367277677127157,-2.267398258805638,-0.1343620664155024
948,0.1043821104831324,-0.29110103234452855,0.06575968665412318
949,-0.14369928993864656,-0.10326951280416874,0.2861660590269585
950,0.2689960691563693,0.19808544776508763,-0.017795395744205394
951,-0.1235341925751795,-0.5158750436872958,0.30200236279760273
952,-0.0010643218738899396,0.030536088928808325,0.14626819452505344
953,-0.10346379953006557,-0.29925092449126456,0.2774105807703653
954,0.012738064497765711,-1.9965877729379957,0.012355193876591954
955,0.02359780680525536,-0.1427293133648091,0.14298397323726078
956,0.11522503790523375,-0.2220205117296859,0.06059652751809935
957,-0.06849552953285742,0.12495683425190485,0.14206696222451456
958,-0.10163273596664313,0.22908102941210806,0.17273295450756762
959,0.16896258834275146,0.05240140476911759,-0.0024910687778702824
960,-0.05442384172342818,-1.7339954557072603,0.07621955786326652
961,0.01968745380240855,-0.10891752386820636,0.1500358901686576
962,0.062479570777632,0.07525221250333325,0.08368863670465757
963,0.08788422762461412,-0.004206497940892839,0.07198026827807283
964,0.0676292230087554,0.12757341356815288,0.07318863601223739
965,0.03268437239493416,-0.19682560046854042,0.1423980210922997
966,0.07147445912457018,0.29294879841543686,0.03436529194490049
967,0.004278529051085167,0.13436069056233013,0.12149353603509155
968,0.11327587027915498,-1.3845008656992497,-0.09329810291937093
969,-0.10153676263374656,-0.1395683865318721,0.25218561732522177
970,-0.012231643376933388,0.002064963928284813,0.15794266118536796
971,0.10262269101024724,-0.00394349848945591,0.06721584204966974
972,-0.02096985935511675,0.28034443815462806,0.10044414035121889
973,-0.004636533004519827,-0.21241886841320673,0.1886599402107784
974,-0.048182621175202445,0.21335704494338348,0.14595135806658222
975,0.02455907762513676,-1.7387396496941654,-0.0019260903519436568
976,-0.07642442898524715,-1.7471185966621599,0.09813137066201634
977,-0.029347768988498113,-0.16116748787574664,0.21257548746580013
978,-0.08311597918013103,-0.036829671761145044,0.21923008695443513
979,0.14211463581318906,-0.1385768420507989,0.04525131887416805
980,-0.08557855151067995,-0.3466339006540716,0.26062128181366007
981,0.17872068549170805,-0.2649533561834331,0.010014122843320195
982,0.1923185351620953,-0.04949407205360451,-0.006865383358170334
983,-0.011095481069375301,0.03238337125013602,0.1617474598039365
984,0.02221858656701481,-0.17381789766350775,0.15875089933292116
985,-0.06141314005216436,0.04309156354011334,0.1998364937948672
986,-0.07963685641491258,-0.5355547120845414,0.26126124899214204
987,0.19278377515595113,-0.029794707752227756,-0.026590724087069903
988,-0.01759696759113838,0.0048512158797284766,0.16563803071516972
989,-0.25334922959505723,0.07554395661117452,0.32521409138843993
990,0.10846168050248162,-0.20434261625500227,0.06222722181658995
991,-0.16863277859536585,0.018029597063991654,0.28770107584481
992,-0.017125025875946442,0.05675687934772222,0.15348281620437249
993,-0.017113912947446352,0.04181767117686053,0.1582558060276682
994,0.1997694751843233,0.2856425726833537,-0.05482505930898398
995,0.20516045465506827,0.29209792937143264,-0.060588570805795855
996,0.05005630271099437,0.09479788054983296,0.09107380815896576
997,0.18540373413213973,0.24214053137345815,-0.039126877221774804
998,0.04358992233543324,-0.21043369695237935,0.1298355101007637
999,-0.35851732355482446,0.26255315541402147,0.29071785533227074
