,0,1,2,3,4,5
0,0.017123772928649306,-0.11208806481835831,0.0518209615030899,-0.3252421246445495,-0.038352322953060874,0.018424109152110214
1,0.010003996000418125,-0.06547515158444261,0.010268288401786507,-0.07441375926069282,-0.06411389629221242,0.027735112622907763
2,0.004715663510606927,0.011048764338972172,0.016320034928195337,-0.23856433156832962,-0.04338212441759623,0.03385656468411944
3,0.003095968744581956,-0.09883589074946963,0.0070590610401669585,-0.15088812762567178,-0.03909870389725076,0.033512205814597476
4,0.0003526202399588563,-0.005589260151968811,0.059310009616874826,-0.13124168264550656,-0.0785513298949968,0.03969988557840261
5,-0.021921060120705715,0.0002483710601426381,0.059071200473992835,0.0024818227861744813,0.11387695757020388,0.06581748834546942
6,-0.01586909704466566,0.03807244826242351,0.0355959507492738,-0.058076727782856385,-0.21387425743345953,0.05756175165880559
7,0.006686044613418929,-0.07739819563978356,-0.02918782968823047,0.04564378500737837,-0.081584310722117,0.03137980155983041
8,0.0031396932406375644,-0.008334705590878677,-0.26046602986950407,0.037813268028353275,0.1513682482384236,0.03696376693273323
9,-0.0028935227042833356,-0.014832240171504862,0.004833409793913002,-0.11553214141275181,0.024319850857296432,0.042559851811760745
10,-0.011173452526721084,-0.008404336453612715,-0.015480841883338814,0.02663375545753105,0.06205690995129948,0.05311556586063616
11,-0.0004555135749757522,0.03138309705643483,-0.0671175910634817,0.003571894743994719,-0.0691903953326205,0.04089366249594768
12,0.003361418571767194,-0.049842386301214736,-0.04034146050115722,0.021800400364972883,0.05491259689531591,0.035852094787529314
13,-0.0015187617068271875,-0.08752458541567798,0.09184289735932605,0.053049298862177185,0.03204201244490512,0.042439054387080975
14,-0.0013861728242549054,-0.01832794404805249,0.0886398060275635,-0.31904648093451704,-0.09538913116706499,0.040753376751076396
15,0.005297696379382932,0.0481168877942314,-0.00225153247170945,0.028565975359624962,-0.1104785087045537,0.036180117629092276
16,-0.010684787027422704,0.005200526534394845,0.1015950025659429,-0.04790302652535855,0.07066326322547001,0.0536976512767993
17,0.018313151985755782,-0.04080663636252668,0.021112844138235,0.01688136757262565,0.025835454836227956,0.020885102706153156
18,-0.0023737684011017057,-0.0299829334415761,-0.0031005807927825813,-0.15083343228805726,-0.020176477011850713,0.04080435765994443
19,0.007522652060190094,-0.0288005575603687,0.011125850476226495,0.012659809096584818,-0.08627169808678453,0.03304734661211605
20,-0.015607210087236423,-0.015525146594532413,0.008436804730777903,-0.006827047219515214,0.04469913134951875,0.056977613873354496
21,0.004245615677539671,0.007762264313021405,0.019176238051435424,-0.0501191597351382,-0.15864632379183674,0.035596422565385
22,-0.009387776416103888,0.005950956946473518,0.03531039983180417,-0.18533194543406636,0.03996738270304917,0.050329666829990495
23,-0.02982628124919373,-0.031816926987881966,-0.03431720540186167,-0.03083502179040165,-0.13822030270426533,0.06942307867494873
24,-0.005529511493550965,0.045105588176738265,0.04877381881202025,-0.053337968979885464,0.029101592784377905,0.04869108285540915
25,0.007828839678417854,-0.05577631858327159,-0.09636513017965476,0.09671309624664798,-0.09984140615854714,0.030286748486781836
26,-0.009319836263774084,-0.13624913764581548,0.0017853889274167534,-0.004252590165469139,-0.2561022915997893,0.046195616249163324
27,-0.016651247569424488,0.02456034881743263,-0.12159547870434406,-0.13858872756427917,-0.023107684696582448,0.05656098699134345
28,0.001456183348525597,-0.036190992520964915,0.03868645731563625,0.11482721199882684,-0.29192405723188974,0.03830171283553991
29,-0.0010076047657797682,-0.05759682002311062,0.09407534539083162,-0.06901027793233205,0.04588181159354571,0.04139674089891305
30,-0.007156085623881814,-0.012789624256556942,-0.027298230175936744,0.14207625228777532,0.07733897362507541,0.050174861575269826
31,0.014217614043052329,-0.020875386640873073,-0.09008131554250803,0.06140769254034356,-0.07734904259313022,0.02440038954803058
32,-9.260923397147458e-06,-0.04552937464151019,-0.12131047908102943,0.052475215087622706,0.015877137793036344,0.03875784660357895
33,-0.008398027594851643,-0.09954325883033277,0.039465808169683814,-0.07323280162738299,-0.0469213659242643,0.04705754047570317
34,-0.0003868108290067118,0.013813810465677534,-0.056736760120355945,0.06366177514767984,-0.018744481363391907,0.041398862420398294
35,-0.010072558524022557,-0.03140644549825755,-0.007939672316455149,0.004024147503920383,-0.02166262600740035,0.050663542052707816
36,0.025524967932770926,-0.028700135822884554,-0.048270893536184634,-0.10432544957136652,-0.017337331921319477,0.011969544351023978
37,0.032886152698779814,-0.04041990513525329,-0.02586336853760507,-0.01589455273098639,0.05398650302296437,0.004590651807755239
38,-0.006535792519421935,0.046555153466503074,-0.08207242097398565,0.0022326382396034017,-0.05634755583492748,0.04820146249066729
39,0.003163714171384724,0.03183713991217929,-0.10691131328583181,0.05954831012959072,-0.07587165044818947,0.037806228672896756
40,0.0033288545548808557,0.04493840068705679,0.03580855688005402,-0.05349368591690701,0.08544282068564507,0.03876651285103635
41,0.007252151522399997,-0.055016189182384934,0.00294302371110966,-0.10510908168859029,-0.15114794770971535,0.030306151799183136
42,-0.004981962583661015,0.021718689525395574,0.0882212114756612,0.10541274641849474,-0.0027393742236682395,0.04908052071170987
43,-0.00310177558902347,0.024849715077802426,0.08825889680616306,-0.0023186452456947504,-0.08790449079362,0.04661022875036942
44,-0.0024504993096586825,0.04379582912622659,-0.047703892368179956,-0.04193709296418391,0.014875978521795397,0.043586833039623164
45,0.006160866699503442,-0.03619447884910232,-0.10286703394427676,0.052110363496100764,-0.0920995933296199,0.032268696277669734
46,0.021349357857866957,0.014374097517964923,-0.0638244124030376,-0.031014509281184488,0.02295236998295297,0.017737090487277965
47,0.0004000876495748873,-0.025761198019896625,-0.01847289563591198,-0.009076079876700727,-0.10882033818775974,0.03921968096381533
48,0.004709856379903066,0.0438940099240811,-0.16880795916828834,-0.07482234337264149,-0.07271357523485025,0.03339959461100625
49,-0.00036054973338695007,0.039384318709317134,-0.048128748214818995,0.03293691440052926,-0.085467998651338,0.041372902874372446
50,-0.002406585085385493,-0.007398024040022988,-0.03647567953377512,0.028653432667685497,-0.3173991509717455,0.04123898969898419
51,0.009232334727194536,0.016186914400977304,-0.006338601817131306,0.04208747764690851,0.10094568871937065,0.03257680924411416
52,0.014240489479899754,-0.012425153625030272,-0.06906405590451664,-0.09700350153991327,-0.2097455510340081,0.022804271355313904
53,0.01028227665359216,-0.05736076435231019,0.023995880414485193,-0.016473603799391834,0.008129221387078833,0.028529103690410375
54,-0.005923917941129453,0.005328045160521655,0.017439214739332853,-0.002420056603432974,-0.008135398330960164,0.047089155081279206
55,0.009849031812462217,0.03538687969949328,-0.0273597608632396,0.02497608051246536,-0.06408386270766625,0.03104122317059646
56,0.0034995461830631402,-0.14613079991970113,-0.02062963138638174,0.03909190656504513,0.12246078770156499,0.03444426813056816
57,0.00838070653491707,-0.019824820523794973,0.014651481085573237,-0.14559707399738697,-0.008368011211944554,0.03006837264953665
58,-0.0004257505705844711,0.01021522464946989,-0.1274851351477846,-0.012245452576017224,0.10362271327659517,0.04098321689522763
59,0.0012422032456786969,-0.05870447234899212,0.02831025259659803,-0.09475228179605893,0.0014893997474264564,0.037357355949863814
60,0.0052047964513626255,0.022728239153119723,-0.023818606220100125,-0.08402170088231586,-0.09617966641756606,0.034801372876609456
61,-0.0025939249172235446,0.015958454462870586,-0.041435312146235526,0.004051250154309127,-0.10125476283912976,0.042683375054705354
62,-0.0026945218546691185,0.01591879436963828,-0.007297372804937974,-0.006209430672921179,-0.18324469198388008,0.04297163519973183
63,0.021005415492567847,-0.06598467253278939,0.038206340119673055,0.05991987923858527,0.13314304326083626,0.019261987160048375
64,-0.012946877708201354,0.012113318527498973,-0.09985081407511043,-0.08842867812421662,-0.0945705285942656,0.05257043597107586
65,-0.0053009502953988985,0.038704662485723795,-0.060621474070804426,-0.024560916055995974,0.12611343923207896,0.048272578899785
66,-0.004221624139743474,0.0289391650039178,0.0047553284007684216,0.052486587377432725,0.06898142215536462,0.04809177794287589
67,-0.0033445708109828276,0.056773330142830924,-0.02703618804188329,0.0001184113323399183,0.0931994339886662,0.047214204337878256
68,-0.009866040374505558,-0.044030878569290555,0.03752466704431545,-0.008332605320946374,-0.05679758085119227,0.050015442759568395
69,0.008308674935654015,-0.012732726533661753,0.04023810894848101,-0.07699066269753801,-0.3628599673677218,0.030639381205715653
70,-0.003405707056196361,0.0043692070726268906,0.07553228531163059,0.04204333000202659,0.09130700382621942,0.047550712300117266
71,-0.014723507890108345,-0.028751862957612118,0.07144316223541303,-0.07812922171552372,0.04311182530631219,0.056076143372161644
72,0.0024481119830737086,-0.0633385278128954,-0.04053038413507415,0.07163966412026967,0.05169044947794449,0.03702835330064645
73,-0.002429850831756508,-0.08030311847375737,0.10850996895457732,-0.21292605475395537,-0.0272288342423454,0.04176863997706114
74,-0.00705838035469275,-0.0061394084697650175,0.034574957460196454,-0.10703578816578768,-0.07811829984157775,0.04687681321843993
75,-0.00833607274344017,0.009452651261454004,-0.039621287100361835,-0.03602729054836412,-0.13622446775465652,0.04819927609322167
76,-0.0033133087022267915,0.014301813266849539,-0.027034903672665977,-0.10751544158291337,0.01596713718180054,0.043488581176548906
77,-0.014304046260091408,-0.007576530615196697,-0.06428197519133505,-0.0033906137474385423,-0.09091163724133117,0.0541487077489146
78,-0.0026925639671739887,-0.041619499434400686,0.11174637453329228,0.038394064059034894,-0.13020779524322323,0.04387217883456051
79,-0.00855221892943181,-0.036466046069564495,-0.03291284286965318,-0.028216838734852756,-0.04562784143899343,0.047798735294583276
80,0.004163684261480727,0.0072851048979933886,0.013758252757394507,0.0923994618355296,-0.11126206607016847,0.0370320659716368
81,-0.005497255828280978,-0.028647596785830398,-0.028736118188871063,-0.09193428613384674,0.0571382845649554,0.0450185312210875
82,-0.002074055981135192,-0.05371227524212163,-0.09613283759897434,0.04511123303889114,0.05688303689647439,0.04163258002619404
83,0.014222148026327153,-0.0362089518248816,-0.06970881285134073,-0.08270245393081777,0.01724183373744781,0.02348800659146309
84,-0.013937782200995619,0.025645927146847214,0.05541469826266687,0.03736755875623826,-0.02999686322315076,0.057542859860677524
85,-0.004256038538816398,-0.050807047611556855,-0.06939224830768492,-0.025100396047808504,-0.012787070822164737,0.04345072318599669
86,-0.004046730423681311,0.016776810021772226,-0.07848553600206487,0.02319651962354896,-0.32092545334391154,0.04358904250972209
87,-0.01794192549884921,-0.06404016303650084,-0.06829256041782716,0.019915892243373312,0.1853207345038001,0.059762842523250585
88,0.004358380727939037,0.0007926015317689661,0.05432196018178692,-0.006420408473528594,-0.023241096481665474,0.036631491932042994
89,0.0011758160513555271,-0.029173551856585545,-0.20312910429316822,0.042616471017469015,-0.24360294327746995,0.03585799463037456
90,-0.004092257404341937,-0.041723743481698605,0.04866271883000417,-0.07088968436617826,-0.13811457433728125,0.044498855136323616
91,-0.0011154767801703214,-0.07140430652731833,0.036126011954752624,-0.08663870319290767,-0.0422124547102338,0.03969533341842744
92,0.009114056061904963,-0.0051932305960236125,-0.07767086272406093,0.08373650704807123,-0.09599485213215692,0.03059013318073503
93,-0.008047638674239188,-0.04264594096240937,0.023798697667614888,0.13441715524510656,0.07971211046045246,0.05061810757122512
94,-0.001288480907124967,-0.04436605396415105,0.055732175311526744,-0.28605849376131554,-0.19001250909375708,0.03839680829066656
95,-0.0015277256798468253,-0.030753034527095324,0.06441650704280166,0.04242469878554611,0.028591718485963036,0.043710749437319285
96,0.0032462412103115845,0.03529155280532836,-0.01654082695928022,-0.04854344903077412,-0.07834623390061893,0.03811663573042915
97,-0.02463568917623804,0.01415441458738187,0.010752522220910499,-0.147776969597917,-0.019751297053742012,0.06622311426626638
98,0.007905592453672838,-0.02217352966358055,-0.16880880808442067,0.06835350844480392,0.04690155124233658,0.030927068714914095
99,-0.020010491358516735,0.004693887436712618,0.01439460966520667,-0.047949556644371005,-0.09721298418324917,0.061459016402452105
100,0.0046411076425232345,0.024143807407510653,0.05439530517658864,-0.09281414632364554,-0.0051976473394261535,0.036846565591723265
101,0.01160331960418981,-0.010221433728315299,0.006502540857950656,0.004190410013436341,-0.014162579130833242,0.028214164178109603
102,-0.0035099768445473467,-0.04733449949221713,0.05431474946291326,-0.23295204276926607,0.1299439500354494,0.043378891891324926
103,-0.00012743156645111942,-0.06405827204122982,0.06842294932992721,-0.04930286459989219,0.0017460151460894635,0.03994182042548873
104,0.015137486576730419,0.03223859748573865,0.015019990138440908,-0.38857151341313934,-0.0790310688702412,0.022909996936752577
105,0.005604910969491561,0.018124683148213028,-0.04779318595075427,-0.12361407019498377,-0.22108048859829707,0.03290923705947607
106,0.035989012060921866,0.01329823500016114,0.08611490617938367,-0.06322771837521418,-0.03384881859600419,0.0043540411926825985
107,0.0014566404494145146,-0.05712222464101624,0.024956303634016463,-0.06757063274315861,0.09445065082171428,0.03872804011165681
108,0.007795186121053677,-0.03168302668613443,-0.05601023013889206,0.08417748592797519,-0.013028938348018215,0.03157223439700647
109,0.006995830406963943,0.02396461325505439,0.01308603340799619,-0.21287220378231644,-0.07878815339035553,0.03189569070278248
110,-0.018907467759783025,-0.01417365163488915,0.03941134217266118,-0.18051531612508429,0.06574531445355142,0.06015111688578745
111,-0.006559103262465782,0.053560864932532204,0.0051246975538934425,0.039667007517799835,-0.04367393254949939,0.04933117073192134
112,0.016603999442362127,-0.06399794252591329,-0.1693627141312684,-0.10310474183884555,-0.030078184613345132,0.018738130555253883
113,-0.005375792213735631,-0.021655852046541635,-0.015116534797134928,0.04265424720612265,-0.4179181799242633,0.044078041013872644
114,-0.008442323354376668,0.009685862862251482,-0.043939660473451825,0.11117096587487169,0.0112405720148821,0.05105989904237376
115,0.005503927663070618,0.05921493738536232,-0.01441170319014129,-0.0909574953271089,-0.03764872306695041,0.03533004920818894
116,0.003048984865376303,0.01010276368171903,0.09099415958399981,-0.04378231385438586,-0.006412111097148593,0.038970783208972355
117,0.0030560708684028715,0.009661858996265704,-0.10814384813256389,0.0057606844150607794,-0.09526471937705797,0.03660154158878922
118,0.0038772271159270844,-0.08396546338387412,0.009933621471269638,-0.2640402717496913,-0.022398388540055048,0.03246575118938181
119,-0.0034011476407099783,-0.033114998769282034,0.05356600482834306,0.013750868468357602,-0.06046890840985819,0.04482503135374318
120,-0.00328805560399692,-0.020089131334394827,0.12204866764117261,-0.13957444297547492,-0.0005264259718087971,0.04436762606267184
121,0.009719136266775896,-0.020816920653624726,-0.17291584576983055,0.08344530566463737,-0.3414699228605052,0.027370825147895267
122,0.004452485580814125,0.04723046683653498,-0.09469457424063177,-0.14185584426634018,0.11678390798740523,0.03594902140232316
123,-0.009764243761884117,-0.004236278348537792,-0.009820478350967055,-0.061908564858448756,0.056359068619163954,0.050390999982467294
124,-0.012528025491940542,0.013330902049910054,0.09230376328917789,0.15364853470577977,-0.017500739199529908,0.057786709458152834
125,-0.01506057110154746,-0.03326632661922457,-0.0852640927941336,0.06034344416878584,0.00815077662853092,0.05595643934031159
126,0.0002964565906709016,-0.04651670352625792,0.10386399234931976,-0.14516382076391066,0.05132724704102115,0.03973028324571187
127,0.0017297536941978109,0.008485452043080821,-0.006359558227018336,-0.01228897260515166,-0.0614637391499252,0.03880999771964089
128,-0.009045997169131903,0.032437405867284164,-0.08462191557619275,0.10941144263735036,-0.09530919214817893,0.05060656202091377
129,-0.011553555892416911,0.055996699633483416,0.1429342852608082,0.011935220737634533,0.056343341076702524,0.0574342922969241
130,-0.003677415701964226,-0.004959398977313012,-0.04090690654080059,-0.24306530762224027,0.10419080809738485,0.04305258593721792
131,0.01039820685410664,-0.10626119900221986,-0.06301523399662046,0.08352173877144514,0.18374409927115126,0.02901702055508631
132,0.012477702172656091,-0.0554567814643625,-0.025561603783461062,-0.011354426001085993,0.06814345622165002,0.0263422310651149
133,-0.010090650272675084,-0.019200450672848812,-0.07287250147669422,-0.09124944481098851,-0.14149457229903045,0.04851019093755967
134,0.008470505922381077,-0.0031988230617571167,-0.00510331607708403,-0.10100093435426993,0.058001085099634864,0.031159612806486076
135,-0.008688298771962977,0.03414608778552364,0.008905160023095493,-0.08263520063361657,-0.0021517455159819066,0.050942698482061316
136,-0.00486409974535984,0.040728261366268614,-0.021671004568221963,0.03895263306835384,0.053928041845673846,0.047717806399879194
137,0.012386942846496218,0.03370735127769331,0.06917506667091944,0.05064508593167971,-0.20755288380627446,0.029349276434631248
138,-0.013300444088336083,0.018030594635678687,-0.137431320113387,-0.12684221682915017,-0.03139704779940744,0.05235058387622375
139,0.0020733726859449852,-0.012896918056592765,0.03444710243140214,0.03301333286034003,0.03941460154443294,0.03994748803077819
140,0.010569060393049945,0.031952021526648,-0.005966037277353009,-0.03470003446555575,-0.12746359622811826,0.02962388079219472
141,-0.015252124039888626,0.01205801063544265,0.04039241361051826,0.01948358036868486,0.1528019897499837,0.060066385014709525
142,-0.0134873496889385,-0.009473137601037629,0.08869615853493062,0.05647866519035527,0.01331818543613883,0.0579946075719994
143,-0.006131381857266582,0.023245350950449772,-0.0667787970450231,0.07750066512286524,0.18108018701608647,0.04988065183449089
144,-0.014619738748660516,0.023119107606707434,0.03759503181207835,0.023341066488413498,0.09821388201623421,0.05857787761483487
145,-0.013243612327714094,-0.08322435736813116,0.027866955615670763,-0.13915790740408468,0.079723902169123,0.052556320514890106
146,0.0005934684032586901,-0.02189585416937123,-0.23838735617224566,-0.07761406439616642,-0.3374510873510278,0.03482162300831824
147,-0.0018418712254385516,0.02204988563943855,0.03861223392660129,-0.010021691668682942,0.0685539693386023,0.04438160799768703
148,-0.014582423837472991,-0.03238554849155406,0.11182188624610623,-0.10729030761024455,-0.04871632204726109,0.05572313906220916
149,0.026483434100398995,-0.06702062568546407,-0.03751532978136263,-0.05651677721177795,0.09421281762019579,0.011122190630109254
150,0.003606978615499079,-0.013005050451728284,0.09525170740226552,-0.08867918054202523,0.09050602321356332,0.03810637721246148
151,0.0021629391959845368,-0.0055852892977720225,-0.01474289753557484,0.046503385326587654,-0.07664287864766506,0.03858274405086268
152,0.003464850662631136,0.004072936878925182,0.024478909778003266,0.1849839526178464,0.15448936043544004,0.041265472971708
153,0.010936099454088355,-0.04001373928955376,0.01568180041155398,0.017125597461955966,0.03883422956614019,0.028973066708498117
154,-0.019568050282996796,-0.03643615252983201,0.028774450095263804,-0.0068411188808229495,-0.030704244034807787,0.060928056806560014
155,0.008815414572301172,0.015016981559035192,0.041530636217392614,-0.12053232105379169,0.0021525460679372443,0.03131870649080065
156,0.0030036784529097194,-0.005291662931617425,-0.047201838266749896,-0.2010696443949388,-0.04111384493371434,0.035574511284766595
157,0.013892262169979741,-0.018634184666988962,0.08788556335345576,-0.02552992499763901,-0.23970528272776115,0.025707485237119545
158,-0.010524473910755394,0.024874404674231076,-0.019591030086803574,-0.019303117866135477,-0.026709326352040208,0.05198985385069845
159,-0.003339766651354048,-0.07381113036739595,-0.08244271144517917,0.11154213525573592,0.06318638743672034,0.043706825786539415
160,-0.01819257426071197,0.0433320957915011,-0.032922980545174674,-0.004899177332640281,-0.05955416968399202,0.06073435746587311
161,-0.010736298333724026,-0.03313816753796295,0.05801294409870339,0.13974109452005234,0.16940990654735494,0.05599708365235911
162,-0.006049857524661806,0.03833957235344465,0.06108917292082239,0.03954039717036312,-0.042390428476381636,0.049118252047714125
163,0.008408481111576549,-0.05587104741172144,-0.10874975443654772,-0.05489792860327808,0.06572919701527724,0.028925810249207644
164,-0.005127653489573114,-0.05482505878603805,-0.04079506128431942,-0.01090991956635623,0.01029334221441619,0.04410694552565128
165,-0.007668319201763696,-0.036971329838851874,-0.01600014680623657,0.03825923813558918,0.15396246851725853,0.04975115233199012
166,-0.01170829189415612,-0.056342179392807945,-0.06036810033131573,-0.052047319126837965,0.02686877130690951,0.05052630636188496
167,0.00015998685278373337,-0.152459795010642,0.06748535288067381,-0.1006867343729701,0.042478330804195,0.037642688905804245
168,0.0038081765312376614,0.008652382719193441,-0.03802279468101394,0.014614427084423398,0.03466304235546064,0.03708070862899786
169,-0.007545990737977459,-0.004025664714744193,-0.10508080563871519,0.02554901545028354,-0.33132159860490196,0.0463517851204635
170,0.01335065367499011,-0.026010769389146482,-0.25346654849944217,-0.09827967936490956,0.06087519664590063,0.023123356694898213
171,0.02431733181266771,0.07412535129719444,-0.11139808524827383,-0.02788154369194845,0.1975547701393534,0.0176302898676091
172,-0.0016186584124006087,-0.04064383712321917,-0.038677965128837644,-0.06530658261927447,0.03890870609443642,0.04116372065359883
173,0.029072177896142914,0.022305611367725353,-0.03047001218433515,-0.015623685475361249,-0.02657273596244933,0.010599976959915875
174,-0.010891796458009084,-0.06269093100819145,-0.1962941454349718,-0.06295027632350492,0.05534346514276023,0.04825993746328222
175,-0.01504544339216718,-0.062123303498411664,-0.08178347125574598,0.02737834542276507,0.08843987706125156,0.055314030386254306
176,-0.0034998972667783512,0.020605607656404734,0.03713383915013346,-0.1713813536692502,-0.05171807864669309,0.04364947748549693
177,0.008682849008924132,0.02507233820397503,-0.04651851786769645,-0.03441414495011208,-0.1431058849705717,0.03016014870480267
178,-0.013487032387873854,0.056050328799779,-0.2373947710237736,0.07136169814439192,-0.007749758143088176,0.054258580759686086
179,0.0067566079123779765,0.03496186305724813,-0.09275342464075725,-0.09338082231284167,-0.13752637697504952,0.031882445637541425
180,0.018439060726331835,0.028649153582871567,0.03588413642626309,-0.1706534087251514,-0.004242063968891097,0.020987595621521724
181,0.007907428687584872,0.02482289780337077,-0.02036668577351214,-0.14041833415592955,-0.4150288842532828,0.02953835456563247
182,-0.01155247377632529,-0.02395188840884599,-0.019699613003942407,-0.01664921962731386,-0.17248081976795102,0.05099955462502876
183,0.002810564610473021,-0.10068008799577788,0.023130551123661802,-0.007295357191367757,0.16899721223335962,0.03778010098815885
184,0.002773337030463008,0.012458749775187683,-0.05128602684227018,-0.11862637967101097,-0.1137019038512716,0.03550169335064857
185,-0.01303047225032572,-0.06046089311231462,0.021862189674615395,0.03345171004550962,-0.08494338462353265,0.05292065653850932
186,0.004749917175058904,-0.013624322595411575,-0.03430754194252067,0.03238710780778081,-0.20626699968083595,0.034088661879859865
187,0.004563136452630845,-0.012203652316918667,0.011092674464972863,-0.03796993622361233,-0.04157744119123577,0.03527397211981879
188,-0.00876909133959003,0.025653188079214795,-0.021653633991288,0.0458857831628246,-0.0764851015149304,0.05049092810637867
189,0.007013220138988752,0.017458014444317382,-0.10884961783055991,-0.23290576203515484,0.03503988058238511,0.031104446592575913
190,0.017761221148326012,-0.011716466311126883,-0.025277823585000858,-0.0514646766384359,0.07997597511626708,0.021879949794621642
191,-0.004945656388854247,0.0025674272420106448,-0.019710416362953675,0.07881706891434004,0.0416023164272763,0.04693276420784277
192,0.005035388047728073,-0.034869692401052754,0.07361410590077522,-0.10101322465108264,0.0845557246376819,0.035371673313435534
193,0.005249008540603617,0.05260826276143915,0.014221190605096301,-0.03215232334288015,0.12775560483143505,0.037957603469257264
194,0.012666212957688439,3.793845842015031e-05,0.020808209478588968,0.05388542153227083,0.123193543663072,0.029430564741308445
195,0.011033854751904881,-0.015715934362788397,0.004490825437267754,0.005349483527678722,-0.03927834147438411,0.028111985917650236
196,-0.015281532129663322,-0.018301356165481453,0.07110397376517208,0.062387808340327644,0.009937180869800388,0.05792997151569016
197,-0.013319562579978017,-0.06190205446353214,-0.08145308199148665,-0.3859947400683874,0.026959962421718442,0.04910267419036445
198,-0.013098040258112453,0.009106155609312161,0.01191010640702539,-0.026727030749629843,0.13538196194994967,0.05642631777478582
199,-0.0020150748137240937,-0.0439116338650235,-0.005510950867727349,-0.08352769267923149,-0.14032401743827405,0.0396974238585115
200,-0.002610424348661655,-0.024865386387338928,-0.1063077640628563,-0.18962412347593047,0.12741478624583458,0.041269368563647005
201,0.010223666787661845,-0.08581529176878377,0.029405519721206308,0.01323425367099812,-0.16808285656766367,0.027672930415587507
202,0.00770982999200287,0.0026196196040815245,0.10240901605808927,-0.0013489216063507503,0.08135951118968782,0.035279368175058695
203,-0.0067629523386739665,0.05030086252143118,0.07908630359460744,-0.10648375940140498,-0.0430397190707536,0.04938303573515186
204,-0.0009456857726750645,0.014509958350256036,0.036421609973082525,0.017567243965043222,-0.07059661389246302,0.042505534211803385
205,0.020918148245440804,-0.1247080393487564,-0.04007173530153091,-0.05907392220070601,-0.18144560561878448,0.01348067927573702
206,-0.0018340438208833687,0.029471483165532053,0.03075694099227322,-0.27110899478204975,-0.07399533730347341,0.041403825891095036
207,-0.008570680494079497,0.03300074816981624,0.04685367940130114,0.06353386244922798,-0.09356162966258516,0.0519394614930743
208,-0.02168420133389748,0.03352945768047455,0.03427171892421199,0.011227127211773658,-0.05612029455840223,0.06495361190181266
209,-0.01813853494702289,-0.0699626486651751,0.01971704415343334,-0.021167916472988935,0.027606012797005086,0.05846313665337548
210,0.012845879229357982,-0.008736798136865342,-0.06693025287559135,-0.055633022167073165,0.1089763276616334,0.026279848623303223
211,-0.013334047174943908,-0.0533895490720403,0.045041758711135915,0.07496649010302925,0.018277807235260013,0.05590226796221359
212,0.017900465764823847,0.024218176477156073,0.0493804808880669,-0.015417378527117331,0.035040299643415096,0.023345987111531578
213,-0.0013302327665143387,0.0017327933064128498,-0.13835290485775753,-0.1363022902237155,-0.0873268122241743,0.0390707112970731
214,0.0057227340938628135,0.04524502884504922,0.010434309770882888,-0.03851841624298319,-0.20273532323236387,0.034540229437448396
215,0.008482044057062543,-0.028414723913539164,0.11295627193056457,-0.14264023548238713,-0.045558956659574656,0.031161781730453003
216,-0.007483596159326589,-0.036367049653068584,-0.08042893170932036,0.1304788892572465,-0.24783017185016817,0.04653706378464194
217,0.0057841000832863365,-0.0587137860773993,0.014008207406759232,0.024352046191387478,0.01858402321786584,0.034209304014051305
218,-0.002088328493940028,0.027355784618903423,-0.005932511117717698,-0.07049204129755665,-0.05252597170396939,0.042897539195407265
219,-0.007746686199403441,0.03737310554651241,-0.017225388201417724,-0.12121369592694003,0.04748654147256992,0.048987267340275684
220,0.006160526669926281,-0.06959127153623734,-0.06221255358226885,0.06419224941248819,0.04130678340442939,0.03317862378281079
221,-0.012161891767523358,0.0021273463426975114,-0.1959906308500019,-0.031887271012391916,0.02883677626940956,0.05165091067952344
222,0.011267247994394936,-0.0026147902252050548,0.0027717582631586746,0.06589400693603581,-0.1191270979065786,0.028645952401742034
223,0.021178243224970084,0.048047877108892356,-0.08485822694558093,0.04114777591960267,0.08610279837296397,0.019994547232360493
224,0.008270704252246963,-0.022341171495025125,-0.04590298677228716,-0.008100072346439113,-0.14591618954494096,0.029884648502558047
225,0.016456199444837116,-0.08186787387450944,0.015440928243408814,0.05667654191782734,-0.03009271921361731,0.02193345597324569
226,0.007801880365484459,0.005752277529599059,-0.012607348489442616,-0.238822806084223,-0.026214430442066367,0.030302454033837422
227,-0.021995517717156132,-0.002645261986658154,0.04951995248861041,-0.029449603262283297,-0.14216041829382076,0.06327048956011785
228,0.001305435801967736,-0.023660591004400877,-0.13675698747275494,-0.21855919942516647,0.0974020562871375,0.036536413812745014
229,0.017420375501178365,-0.0045429351501212745,-0.05356435089100331,-0.048597720241631726,-0.051695040552235894,0.02039606789860609
230,0.0011419817583826486,-0.011247342553774131,0.002252173187481832,0.05184631098093445,0.13046516635511352,0.04116339523600418
231,0.017174942861867493,0.022903805973155777,7.890222231843325e-05,0.020124943268668094,-0.01966658448224476,0.02342617734956202
232,-0.012902200939400865,-0.06712550911538628,-0.06294808724659195,0.05832351764295063,0.004757207631354676,0.05270813127760448
233,-0.012392146640388457,0.020283300661128267,-0.057636615430719074,0.0428704622995279,-0.013320701008395774,0.05462363795843703
234,0.009864318735736122,0.09824716299202219,-0.06703892980458231,0.05262398200309076,-0.18547104806355666,0.03226334674951377
235,-0.007775020753470807,0.029418467268222948,-0.18345627783847424,-0.01082673605139478,-0.03975790626274242,0.04718985575602382
236,0.008603571563210455,0.06644596921071788,-0.04023793398803255,-0.23391142953039792,0.17438802533346132,0.03343491272534829
237,0.020040054210926916,-0.010523451564435349,-0.01942917935520333,0.05198719479782382,0.11178686718171355,0.020402988355808522
238,0.006788202391514897,-0.004372350909187306,-0.19452534940667388,-0.053947775070486814,-0.033339796423447615,0.030689829851339893
239,0.005203139207516694,0.06140047094551837,-0.020049278280645677,0.013141303139960758,-0.15305025782293818,0.035703346166344276
240,-0.016557963350938287,0.03349635392459338,-0.02251176581954878,0.05404318130178776,0.06196122068849752,0.060076164186442294
241,-0.004726012917138922,0.01313123752591483,-0.04204960243990624,0.00906154534051301,0.0984936979574631,0.04744537805653035
242,0.00515190375608654,-0.10593464900841454,0.05861791229271929,0.021710408336377884,-0.10247319807622046,0.0331252731618577
243,-0.0018741973490792319,-0.006301087693978413,-0.06768169148667874,-0.10520438013949518,0.056850816670535764,0.04143216034637735
244,0.004187831637082029,0.017371351696443327,0.038834243330434504,0.05736943414128676,-0.0015198873188114193,0.03756950710412894
245,-0.0030381303698142625,-0.008578464229362703,0.09323761727374391,0.04511378522276377,0.13291716684402183,0.04702334982792654
246,0.008933807676544614,-0.07757264055983193,0.017589886544631117,-0.11532066702385224,-0.045050414029935176,0.028206821202260108
247,0.0022811032269298703,-0.0015569010225265911,0.006583063449739135,0.045634785767021846,0.08719734550941327,0.03981448881790402
248,-0.0027566835032005743,0.011066692119322097,0.06433516161426966,0.0782237452806378,-0.08066814348533297,0.045411316315678234
249,-0.011932683234901376,0.037472628924658524,-0.1685130618310946,0.07994375552723082,-0.04203225379071551,0.053430812078867164
250,-0.018995172572539687,-0.047817371639514605,-0.03100283918866409,-0.07886121830949605,0.039338198793306745,0.05872325315307462
251,-0.0018001122856136087,0.021232995849937986,-0.15336549176445163,-0.06069535011025362,0.16009595429675755,0.04230335760912912
252,0.00157637847348302,-0.013179749356096337,-0.07764949923309461,0.05350859484171233,0.047841209675478114,0.03902692131535023
253,0.014652174541722962,0.034308701005354214,-0.15622829133461402,-0.08971483861320201,-0.15774430095180353,0.022637592059845883
254,0.001603030197329991,-0.015402474399903276,-0.1936177953354215,-0.03593876694327969,-0.15496445483560412,0.03500736338471815
255,-0.004705291872421191,0.04750870106697225,-0.08827685186064232,-0.04993008212493044,-0.06063275050403846,0.0447764955365381
256,-0.002230964155663595,-0.009022068344327172,0.0382349028332537,0.06873450503832129,-0.003899980072538334,0.04412789953126685
257,-0.006742203007681358,0.05009465686620396,0.043537802044441576,0.1012859249072679,-0.11790259571683184,0.04995571343284628
258,-0.004990216542654746,-0.009569035993244102,-0.032524433885640025,-0.12552787967899962,-0.06179291704584944,0.043831974879672636
259,0.016192309934903726,0.002779126120019182,-0.012498839437377895,0.1593747345550972,0.058185732978048965,0.02614592378046036
260,0.004801506839316794,-0.010335248735725444,-0.024382496564096467,-0.3102620916719189,-0.2514288681759883,0.03194298111830212
261,0.004910453592155806,-0.0026624053897195132,0.07231883088605007,0.14696393504006666,0.06801201273534074,0.03868580651675602
262,0.003003131717370433,-0.050546953300025566,0.09926819657921626,-0.05889886419525192,-0.03400296733000685,0.03712954331379424
263,0.010025461083762455,0.03546055938794568,-0.06256014126845783,-0.05813350384686361,-0.14000466048654425,0.029528861581544878
264,-0.0016369166817342684,-0.00424295426453658,-0.042148905463169684,0.11157264909336212,-0.06809769146790207,0.04240857721284301
265,-0.011451501932026154,-0.004522186838521014,-0.17605438584905037,-0.02828840862281401,0.019912330777724474,0.05040589763204789
266,0.014857247781655536,-0.001011851783910056,-0.0030657532168431034,0.014098319997296827,0.022378463860493247,0.025670257526671413
267,0.009954459013918004,-0.009930901021385719,0.07955827540508165,-0.02855622072471453,-0.3202673007956695,0.029550409507483527
268,0.0008173488212954716,0.0400156211991296,-0.07771245891445183,-0.15323698561116267,0.06391026579102588,0.03928538084534666
269,-0.005831438621542562,-0.061391997140671895,-0.06635154886784217,-0.11931426039855386,0.025469107480422692,0.04341129000816672
270,0.018010727849479213,-0.0026491337772048817,-0.17699605577657057,-0.0050623954463732135,-0.23130404485978298,0.01808836797140302
271,0.008031824531103293,0.021393975633698492,0.057883157439740374,0.07332911528375874,0.07348745925199263,0.03539726781325335
272,0.0031906473923624112,0.024456162779686763,0.12494149243328634,-0.1891368010492549,-0.053562657432853295,0.038735508805835706
273,0.005580355056229447,-0.03667454415929827,-0.05528999499847831,0.033915428546040405,-0.10067366079753598,0.03338284684042119
274,-0.0017406523254542838,-0.043533887953128625,0.026937726903507153,-0.09456608306455982,0.08777571237092935,0.041846746035753134
275,0.0032839126868211554,0.029899081263320637,0.03301443479751531,0.0725637035474524,-0.14609209815693633,0.040004444903860716
276,0.008414988751606733,-0.0036846027455103014,0.09421730051137589,0.08032073949097568,-0.22184802177602647,0.0326341393381057
277,0.00046898843145148916,-0.09098367914122818,-0.05603597926068277,-0.07524250101225216,0.13129772516339677,0.038274378026678275
278,-0.015892202703865266,-0.08113891267230511,-0.040469211165519436,0.08670201951227263,-0.35530122951088955,0.05519458897453624
279,-0.01667564760351048,-0.0015494459617910739,-0.035005931808483104,0.07523687772340676,0.08624618748666013,0.06034876006032573
280,0.00886419829867835,0.0047797343588240615,-0.02750726652632185,0.06302469917820963,0.09998600947923691,0.03290155300180213
281,-0.010815429177192137,-0.015721325910390438,-0.02465599323216444,0.029659107165340093,0.10184766083997865,0.05286368069376767
282,-0.014334424748978503,0.04655073915435903,-0.0021553493662095913,0.04486450597800484,-0.03165609037502837,0.05807567326647459
283,9.058591446020614e-05,0.0424043670781169,0.037242864532560205,0.07878648062424931,-0.07082582765016585,0.04249164781269992
284,-0.009814270876261189,-0.08008521421660697,0.005995177621575087,-0.047356840033378256,0.006948828300405052,0.04880132517596412
285,0.0033137581729900667,0.02952320065865477,-0.09359497840175701,-0.2526245297771388,-0.14063734925780294,0.03414585197807228
286,0.0034960531038994436,0.030279931139860383,0.07285597188298376,0.10807932840295109,-0.08189736161232133,0.03977019051043444
287,0.004733121598647916,0.03584762025956212,0.0992460954765213,-0.04595364966732812,0.07989730727314148,0.0386681875853079
288,0.012119316427054994,0.02878347872067577,0.021496433037907603,0.06832736875406764,-0.33599190491833364,0.02938205382154738
289,0.0027596367444904235,-0.016539446807638192,-0.03233890834794573,0.10989531605609143,0.019146901096483593,0.03822493504578888
290,0.009996728436753033,0.02329251120002973,0.03102043738033511,0.01398272805790124,0.08526208944863756,0.0338090608370916
291,-0.014721505036643268,0.006163853385047768,0.04340160764511314,-0.07709256707605988,0.0032628208216863297,0.05752635690089846
292,-0.008326119041209723,-0.04482193332516615,0.057914718293735845,-0.12014674614755094,0.015728008445648256,0.04807804003798283
293,0.00451997260593795,0.011923278208815558,-0.034626785274861294,-0.10308813689491447,-0.067380841456775,0.03533096482923793
294,0.011373659618391097,-0.08085755547767315,-0.01094604648865799,0.011002802254987398,-0.04243187997574566,0.026282844734422908
295,0.008493592036759479,-0.006695504498924532,-0.040684575897047714,0.11362441504592374,0.051560103839403626,0.03253725368504402
296,0.002586905356535274,-0.15616848000170036,-0.15926457403668443,0.07165614851112434,0.04329089944948372,0.03383289196953483
297,-0.00569080641367381,-0.09447667030464824,-0.07297734930989197,0.04372529723946644,-0.07432080188415183,0.04388103532531131
298,0.010189330412933906,-0.07709479841558098,-0.11776324171428726,-0.10406530185696516,-0.08519363851342185,0.02532980959562119
299,-0.0015664676745436035,-0.017393674331588227,0.04841268514929564,-0.3179034812223689,-0.0637109433488002,0.04033882307407821
300,-0.0215993915975512,-0.06730228603581434,-0.14934648595426075,-0.0756476450440915,0.0010183438026006852,0.059748985402689685
301,0.011673496228133073,0.01816046659739501,-0.08453732599748848,-0.07141544940899508,-0.07162398825921604,0.027094861048886924
302,0.005843123325929289,0.06659452115340647,0.0022305450213038203,0.08195457924727229,-0.04416894446494188,0.03740650298271976
303,0.008039431744308656,0.023189215572134825,-0.049766243820682954,0.02703237638256828,0.10142859734834847,0.03324915066813101
304,0.018224384109361447,-0.035660515255302894,0.04038254716612344,-0.03156649391679195,0.07962778115744407,0.02178971353825218
305,0.005993021410864774,0.04478865835494539,-0.008787300599899961,0.05939321518861118,-0.12646247952533135,0.03531437761028683
306,0.009654752069272465,-0.02955363120037846,-0.14816535433761613,-0.17528760042644706,-0.07826234094204143,0.026132508223460173
307,-0.006346312000123144,0.0177345954971434,-0.07998593306036816,-0.12610990372157718,0.0714593916494421,0.04664395274604049
308,0.010821770320300184,0.006358697043062245,0.01019619917329484,0.03940851209583485,-0.11019528458674083,0.029558532035776627
309,0.009691816839479062,-0.08581848572685014,0.06130935425458095,-0.006994326496525705,-0.003092519332074023,0.029347249776746683
310,0.006930866916671441,-0.027153011339362654,0.0336031398262322,0.12284735655596951,-0.0839445757212556,0.03377709144263481
311,0.013285669064184491,0.005211848381305395,0.01872544622292427,-0.044810087417530675,0.05795701255800784,0.027075346860971693
312,-0.007998199121917016,0.011031155437504658,-0.21639952919699823,0.09516065422825404,-0.03947717919448768,0.048027462720410224
313,0.0006411070076586256,0.01746241124866732,0.034290434979373674,0.10075663164058068,0.1760664518276,0.04387521917988033
314,-0.008798441893180575,-0.026076210585405768,-0.012871915680579993,-0.031060632066704785,0.013359664939000926,0.04863262199993733
315,0.009883147832873584,-0.06599760709476155,-0.12138588000164319,-0.08559214221889244,-0.11627456790027815,0.026734608224758268
316,-0.00524068585002746,-0.029820755122698883,0.1738385547982908,0.006808569822119692,-0.0945965956345299,0.04793561465521889
317,0.005454923093705322,0.05584372245467428,-0.008778691580479281,-0.11248803545698927,0.07017388145145081,0.03621849517954779
318,-0.016575679867851578,0.032347919464816965,-0.10119039961130027,-0.13645417677798635,0.14119777751492724,0.057880781693276186
319,0.0026246541462282558,-0.035451559464409144,0.022677355257632925,-0.11574565031923412,-0.11901293109621491,0.03623711033418258
320,-0.010111091468991806,-0.06542983965713978,-0.023494329419070092,-0.04301242454845772,0.062151929551115426,0.04910765649603418
321,-0.013733262376787403,0.010223519370847645,0.08575223696817524,0.0590158655142326,0.006380853512684248,0.05908711669114709
322,0.009825505181546346,-0.07346450592809528,-0.0684318969293331,0.007112790139227554,-0.12013402043985799,0.02698429683773793
323,-0.003105941754611097,0.044935376854529196,0.09109691748609017,0.05210684748282918,0.08602963982769518,0.04802494296584864
324,-0.002981938822966601,-0.09077180069130997,0.0019528088578688596,0.04878835448905472,0.07408379189965536,0.04326199979437861
325,0.004241328398874034,0.022588111343800787,-0.08291357415431011,-0.04457103251753841,-0.20461794951681725,0.034552545165895024
326,0.012223808714836082,-0.03314126689267316,-0.07526979075998563,0.13086632609907844,-0.026801911252246596,0.02719596415824144
327,0.001435994905665039,0.031106605261794318,0.08311830971433465,0.04621814577815103,-0.271473516975411,0.04005786445265385
328,0.006770297087568489,-0.09570363840391916,-0.0703919289076394,-0.03782110425303303,-0.082635771415111,0.029679911973687377
329,0.005512655678460154,-0.09266509845590754,-0.03593413234927251,0.10228121873625468,0.04295608724645761,0.03371308972487914
330,-0.017731610917846474,-0.06660881201994007,-0.002512180021951138,0.02409198949976399,-0.11073807983409009,0.05746863395886685
331,0.011445284241711429,-0.024503870466957012,-0.12806344201569492,-0.026579841249697478,-0.08628488992940211,0.025655899114510793
332,0.006347080703024366,-0.019055929386507797,0.06365721410712522,0.1212753318311301,0.0875648372389351,0.03694247137120892
333,-0.004452750820814866,-0.022811202724929647,-0.05466236316949907,-0.028469378879261098,0.06005409760535996,0.04412629568731554
334,-0.007611408105039796,-0.02317701961518015,-0.06940221715425077,-0.1333938069202316,-0.07055681355757834,0.04557777237352584
335,0.027405824881439056,-0.09557105744014205,0.03449424400912182,0.01841268659807105,0.04555450349752321,0.010440112189815045
336,-0.005093052326254788,0.0021612800861512405,0.04252770699412878,0.010919199332182994,0.05882400352758427,0.047269903806832374
337,0.00909986785345418,0.010915106018948184,0.0913271847464655,-0.031021408408494544,0.00558324419431816,0.03294318743660024
338,-0.011942286509356803,0.05522559003712291,-0.04035371542170868,-0.11610258640497928,-0.0633852485739009,0.05367856784088763
339,-0.006753040011654776,0.006258720806904816,0.046474829295856446,-0.13928861734180747,0.022894258042991666,0.047769747032337
340,0.013085999124783365,-0.07735237885290003,-0.22198030167196336,0.07980729683550031,0.06263152829039226,0.02510596511550284
341,0.008058361043428386,0.013332429493085773,-0.040926185255015735,-0.04290813999668447,-0.03143422887895464,0.031401063298121513
342,-0.004185366299442106,-0.10165178966338151,-0.09479753280623049,-0.23004556009836866,0.10661396891063724,0.040474045940826
343,0.006897426529564488,0.0029449431692549766,0.014453573758659743,-0.08364676020383455,0.08396401163896161,0.03404789815113072
344,0.0029272371539998954,-0.06827636212647437,0.06029709740435951,-0.11246501341881698,-0.12392920183084877,0.03497091425417493
345,-0.026914637935482544,-0.0036946807348736677,-0.12969467897524134,0.027551596475546725,0.09241149348164934,0.06850764730828304
346,-0.005804874651469727,-0.0532804635437496,-0.060925022727942924,0.013961309424673662,0.05884310807083609,0.04556666038107196
347,-0.004934592959630835,-0.036922530880380666,0.05587691835933506,-0.15915673291092797,-0.04087520332566899,0.04454810620986336
348,-0.0008627299429667667,0.042361511668144614,0.010159445709039039,-0.10972517625832467,0.03719935553997322,0.04306415748604068
349,0.003353660286962157,0.0035651178212722234,0.020353739043230124,0.06861744495870031,0.20084969056987761,0.04018790271461621
350,-0.005403634234928956,-0.06831893383305998,0.16801524023663716,-0.03210891920328601,-0.2344401320410634,0.04662565164337029
351,-0.007044776247255635,0.024471487455947072,0.04729558947874024,-0.02287292238093297,0.023742630085005823,0.050118694699405754
352,-0.01666457386096787,-0.015471358114052536,-0.24784308908502506,0.06926786422738529,0.003900676807553738,0.05597528143343297
353,0.012721329866716147,0.020172851402476155,-0.047148787103290235,-0.024130284425394166,0.01368638710743142,0.027403395791129697
354,-0.008247348187080061,-0.03489346006690741,0.10966818916809773,0.03163476858508396,0.021535224458994806,0.050801135645941575
355,-0.003171067877011824,-0.03938669597062472,-0.036350861971869874,0.043134982311463954,-0.07620545401974038,0.042526582451229845
356,-0.008170788329190826,0.04299118199976759,0.017745805583178953,-0.06628939276292078,0.0799567075689131,0.05100441046444612
357,-0.019465159397395793,0.020835104316815456,-0.01608106437136736,-0.209504419222226,-0.006039650352106157,0.059895624888763266
358,-0.014702848939020519,0.008945050833772394,0.07934411266464902,0.0029427025797411077,-0.06579318991278779,0.058002039347123176
359,-0.01357636544162688,0.0197602197536636,-0.0011891715100202371,-0.23826136134067008,-0.005572335193657685,0.054312423606457196
360,-0.0002274489465653451,-0.021176719952557876,-0.07884190737537572,-0.028123688155227367,0.11884641309660643,0.040162744109167946
361,-0.0032540180956045495,-0.0008363070528933925,0.04896280373128403,-0.10922523024384251,0.09954542223215879,0.04471067357742504
362,-0.0031079209277929953,0.007334044462203981,-0.07922999000982256,-0.04802670120399466,-0.17187348261083707,0.042458207795197815
363,-0.013829329056958106,-0.029762729084745643,-0.08952582629916167,-0.05271072307695884,-0.024253867707042104,0.05254233286757826
364,0.006084971008721629,0.03039677416272457,-0.050126193755216264,-0.07250774519299952,-0.13672646097598135,0.0330871899848109
365,-0.002398451627253939,-0.1553713839727019,-0.06789749300212683,0.03415635822996099,-0.07541646915191469,0.03858947965828702
366,-0.005651321639880247,-0.0063977641306307564,-0.011216740268768566,-0.12238854770650837,-0.09871796305203026,0.04482175474853811
367,-0.004815382959777015,-0.051798796922310375,0.05093243195030206,0.07486884169590097,-0.03741221067278877,0.04604054022758646
368,0.003455577450792724,0.06068250523924468,0.011185004178215552,-0.10555924600441885,-0.04058968027478893,0.038127939363684346
369,0.00402519890407782,-0.0288744300539846,0.033291078432675536,-0.03341464464524685,-0.02959090181282692,0.036674627758393946
370,0.020674724242462528,-0.028310979186944585,-0.06567581335580625,-0.036971849000475066,0.12382393079896137,0.018063652794568223
371,0.013198217792147915,0.019070061125916915,0.009963963250803287,0.04845303204746332,-0.08844870688129997,0.027648243378881672
372,0.002940090524153449,-0.057609199357503305,-0.0639796560860576,0.06906366704685746,-0.15432146822211318,0.03519971249328664
373,-0.003411854899450617,-0.11796706343408747,0.09417553923020816,0.018668977917525753,-0.30335516368055876,0.04201452867417902
374,-0.002813933600545049,-0.04388610435958695,-0.11289131621120946,0.054494746515041714,0.004046518140450928,0.04159601788331475
375,-0.0057083722558261,0.005840438383295621,-0.05794850685872255,0.0019883834544544565,-0.015100308070857077,0.04611473783629226
376,0.026518888694490927,-0.05580038723923619,-0.025560956171356453,-0.044544927783871924,0.01866611773476118,0.010955603049112143
377,0.01659037990894907,-0.019362123973852396,0.10171403234781662,-0.0007123331873093441,-0.10390556019320019,0.023789854226187346
378,-0.0072379654101406565,0.013187961917889068,0.011390137522943822,-0.19324669526117277,0.13565175615200314,0.04964220531917126
379,-0.006948257625887466,-0.003431726754651643,-0.03749998810906413,0.022411903325105675,-0.14507664023140798,0.0478609887080227
380,0.009170834111642101,-0.03587609121189983,-0.08152532034874077,-0.18574053063906046,0.055052594897937346,0.027672970833328873
381,0.0019112763679898226,0.011497712694600204,-0.10153986027627315,-0.01308965503804943,-0.012828574715435803,0.037784842652592486
382,-0.003951855107272695,0.011572125685976764,0.03876500670102789,0.01337553773768746,0.07639047008218097,0.046551194191984356
383,-0.0030503464665165847,-0.004732640587950865,-0.0366346739060015,-0.16824116373227394,-0.14745163072867096,0.04120469574654689
384,-0.004919991825530823,-0.03872321057820416,-0.02199413116726512,0.0410319950408255,-0.1012181802759701,0.045702110103443556
385,0.010135027462861323,0.030246955048661817,0.06095345310761979,-0.1398001350451906,-0.22757910586150676,0.02982636970522235
386,0.0028345426530331785,-0.05548358500914674,-0.06314683699978918,-0.05656548048630272,0.07134413154694391,0.035673402493389586
387,0.00048089114983485004,0.005362039033367738,0.012645405824562195,0.002139073230322197,0.1735214575336954,0.04271119879956659
388,-0.01138436715311586,-0.036651672564761206,-0.024430356485153626,-0.06965604590070734,-0.04774456855371112,0.05120016640630874
389,0.00760863420115121,0.026481618009254637,0.025975642005963473,-0.17229625947897087,-0.03713012096874563,0.03207987979726167
390,-0.01571799813971253,-0.04930733656614239,-0.06113682559838263,0.010613369651338744,-0.19618940917692637,0.05409625742183016
391,-0.014530981598673054,-0.06380277774756327,-0.053980306307138404,0.10233651113498488,-0.16676856934385142,0.05390301009816885
392,-0.0009470953289582029,-0.07096770001822006,0.015209864537870765,0.011981459297319974,-0.17509030647074478,0.03917139021258645
393,0.006465798092470276,0.010397520344962885,0.02807391118001268,-0.0029407909531747323,-0.024139056843324347,0.03464875393879229
394,-0.004747816405351268,0.042042334343319054,0.011401030914587107,-0.07653727378545228,0.056833857694075895,0.04700977617737426
395,-0.005329314397023777,0.028882870241775715,0.055047600117483775,-0.0069074345949086124,0.04097256273209959,0.0487457622064112
396,0.003964577099525579,-0.019930570345006005,0.07650607524394404,-0.10248731021305313,-0.22771670440273972,0.035245986175729195
397,0.013370536228454188,-0.03113980048571874,-0.051090141123866395,-0.013957032369285971,0.14576796621648275,0.026487637190824354
398,-0.0005222426717711448,-0.029638198711331998,-0.1175463142633052,-0.002213239882943696,-0.2510079763691987,0.03806439141358369
399,0.0013704966869529933,-0.08567337537976749,0.0062169594694185815,-0.011731812345155579,0.08506875301649669,0.03783263986058973
400,0.002975974764620082,0.017501979748719587,-0.1347864787766625,-0.029783073918370206,0.08124813638361494,0.03642068577432401
401,-0.008832864268050744,-0.02072392532249223,-0.0064001233385165834,0.08555692555775901,-0.05855973492394942,0.05027302545075218
402,0.028251682476130746,-0.011521272255481718,0.00283323087457521,-0.05983708514191732,-0.0931052747851053,0.01079205162609669
403,0.01661630703793593,0.05455691177668742,0.07850910672712552,0.005799427466575413,0.1029259157175948,0.027215525664617234
404,0.010537869537328381,-0.06307728429451942,-0.059220550303118624,0.017455594310865907,0.09091213904591366,0.028392745931133324
405,0.0061837910680222485,-7.251498505422838e-05,0.04483198058528581,-0.08294468684782708,0.007602778166415025,0.0343025622199757
406,-0.006331887071098663,-0.0040041981870874155,0.09390690939824975,-0.05171893402488714,-0.01696353821938315,0.0486949183413024
407,-0.007969475488797229,0.04042778144511927,-0.0241197629942973,0.07557800851582636,0.08426159037610553,0.052005172529909216
408,0.013022306836516062,-0.12174320292631535,0.07268633576489969,-0.07924161751880382,-0.20013182340318808,0.02373312328482025
409,-0.0018911495864983863,-0.10574417964497362,0.06523034699062469,-0.09554085356536429,-0.21372186535261672,0.03889642070147256
410,0.009286039063692852,0.03585421326349747,-0.11705050736297395,0.07200715797586021,-0.13211041118025055,0.030247291096709705
411,-0.020131943005357034,0.009608157176453247,0.04284360249228969,-0.0453170714978926,-0.09103897602754232,0.06226392646598415
412,-0.0085218450654031,-0.05734356488552572,0.03850863883018263,0.048496343429801136,0.0966258000987833,0.050003045656681386
413,0.005108573359620783,-0.08501736242449776,0.0973910875622146,-0.10054102713088559,-0.07596659882441018,0.03307027907408355
414,0.015321397852732233,-0.03398062519262546,-0.05492601380502382,0.03793961758521086,-0.41644285641684176,0.021067553009286893
415,-0.006922001305702863,-0.02482484796581197,0.01148353374490052,-0.022986618413490534,0.009307687740929771,0.04798714872370674
416,0.0095937274662512,0.020323229884751104,0.011754413431871225,0.017093608340520594,-0.06617706629073011,0.030748460115318448
417,-0.0033247719241052964,-0.0037948789982247266,0.006268118990139571,-0.10828375713602689,-0.2059048879416042,0.04249407062175033
418,0.0046988426185206045,-0.010674223596602528,-0.053507654818986006,-0.06722957330821855,0.11618266335056449,0.03540942119518004
419,-0.02038274338858992,0.013222914815526399,-0.08361657181852128,-0.07334420768212802,-0.09850570234029582,0.060442872313318366
420,0.00015098920120681925,0.0011458368454864143,-0.08940068800764578,-0.006309957540794275,-0.2036523790539154,0.04022189834634828
421,-0.009069418305713506,-0.0646476741933455,0.015551022726493335,-0.22226985145502617,-0.12171228777959595,0.04610459169944188
422,0.006721651772764847,0.02576171329655008,0.025776910473088832,-0.12357667535484734,-0.03987387258866945,0.03295432984298259
423,0.011548145211332184,-0.007820578090907082,0.03450834171475348,-0.011841329796920541,0.16933816480289504,0.030210126336263965
424,0.0023182807981505515,-0.03678539239087797,-0.08998992219388763,-0.019262694773540423,0.13157279303912095,0.037252332624481826
425,-0.019921143851977963,-0.008390374332216899,-0.0021882586691384653,0.04031783255795218,0.03349361664614803,0.06244795776234841
426,-0.007361477662463534,-0.09657925876218054,0.010401511843665556,-0.008275659091725562,-0.06474058295506552,0.045889063214737326
427,-0.006348791540112142,-0.00858693854013004,-0.10818141650931296,0.038928802493195136,0.10388944581219384,0.04721797038228669
428,0.0020912484545829724,-0.02876813428833558,-0.24783105388629345,-0.06964316744402183,-0.008013316346868388,0.034654226552076214
429,-0.007458082437535429,-0.023012709379885976,0.0606415542353167,0.037332595533566604,-0.2821310414700274,0.04756223917129301
430,-0.002806873647841157,-0.020841622920573455,0.10472625151250214,-0.08670605421521244,0.007389275527200201,0.04393589981229125
431,0.004181299250743953,-0.06460748658635695,-0.059357672531743066,0.031189084464329886,0.014655047058152904,0.033927462610115984
432,-0.009093150123100524,0.004252116394076411,-0.1425501258088187,0.08802725597973732,0.14488707405291318,0.05146348910070101
433,0.006896635789468197,-0.03659226184944331,-0.02052329551969939,0.02855021325236412,0.011241956460868952,0.032476484610996524
434,7.934782443141941e-05,0.02557445353666632,0.0711498245252078,0.0966168820169912,-0.08639484127118319,0.04293518624075277
435,-0.011058290743532706,-0.008069048874160045,-0.03112654314050739,0.08498355088450843,-0.007031074096506912,0.0536384607568707
436,-0.0037101180946964574,-0.028929447668942454,-0.07247264736563108,0.03933964909754878,-0.18981279625224767,0.04223547609636498
437,0.00982970392657534,0.0152511237086711,-0.0007412637467426042,-0.028526181940464523,0.07702371839426436,0.031079807579940825
438,-0.01157286866141849,-0.059552687333352394,-0.006379466407150092,-0.03885322320186535,-0.04523793614382282,0.05062185830417038
439,0.0007795522392668452,0.017084381604589582,0.0069340952942812395,-0.010701256669634951,-0.015323598106423059,0.04016435042910652
440,-0.004360466038625055,-0.008503976289654713,0.013896995374851784,-0.0005019471750469795,-0.0474025483689057,0.04498800386904477
441,-0.01213454133349312,-0.04078232132830917,-0.059277407567147555,-0.026875916020815627,0.09672124231926232,0.052892345294607186
442,0.005013622163535514,-0.024849764151982257,0.08366851507107342,0.1330062092192814,-0.12842206437602036,0.03817391643806768
443,-0.016403759979471744,-0.07486837243909028,-0.046137366457297324,0.06471547659428262,-0.09700281782930911,0.055721005570922896
444,-0.00013120287385470775,0.06153014822240488,-0.033349347298986476,0.07207480847661091,0.07074304517147939,0.043321959190394776
445,-0.0008920562825748268,0.016840157263165567,0.05001212551836842,0.07984758469988257,-0.011485147416686575,0.04372715635636541
446,-0.007824509217116082,0.008357590317639496,0.0653671850505324,-0.004529170802642146,0.0406445281604117,0.05086884863025516
447,0.010690669604605851,0.05733199720981508,-0.00532936081365587,0.017311112530006556,-0.05861226025235197,0.030640195876362485
448,5.8605430040881146e-05,0.07987379818228924,0.0325045484290033,0.04729050049213557,-0.07648164342829195,0.04375316956138886
449,-0.0036725518330200657,0.036961144709410365,-0.044686811598547926,0.0896751286821319,0.20562570587440687,0.04775902101972042
450,0.012261335117577987,-0.021844601652764806,0.09452243508901248,-0.0006777152577692735,0.11965993975311778,0.02946665743512294
451,-0.006426507485150501,0.008517228423396417,-0.02451919611261094,-0.08943363440513519,-0.04935464263052483,0.04625141098780405
452,0.0033946992171491885,0.027597911796297447,0.08732708091008712,-0.027769331664448282,-0.08724847365390434,0.03840678403477614
453,0.0006972784162921908,-0.0433715132260295,-0.023155269801919454,-0.13578366752401594,0.028689269321636124,0.03768053848840718
454,-0.01060680462439545,0.028509286799138556,0.05974439007486576,0.02388838256587289,-0.03922032268171341,0.05401424746571829
455,0.0005654056374693184,-8.005542672895327e-05,-0.032993991529414846,-0.04204487983110755,-0.06460195466624283,0.03896168267248176
456,-0.005534036521387176,-0.043511139414422084,-0.03713823985154807,0.053727732843818876,-0.15015649849591167,0.04487182149822183
457,0.0006488688314405522,0.015310769213036202,0.02350808797021231,-0.018399934790140515,0.06768819276616717,0.04094637164169162
458,-0.02798164899119615,-0.10043151592814459,0.011602982695890551,-0.0638051653092091,0.10382245808219931,0.06874999910890765
459,0.0009930221088145785,-0.06892940861221719,-0.013269768610578103,0.006581849378550331,-0.1091739041074917,0.037562183564373665
460,0.01962629724328946,0.05664063069546388,-0.019841909485345754,-0.0049900327489538765,-0.026876345436685295,0.021264874065236836
461,0.0012979962700214731,0.03900307574821926,0.06123145421696252,0.03168460582320881,0.04522366562155872,0.041774839774210704
462,-0.004957655766593794,0.005798072378822794,-0.0070405919526581595,-0.14192067115898427,-0.00514157577170693,0.04519556849091368
463,0.008879447348109082,0.018260086182916524,0.0006710247078079989,-0.1649973678686193,-0.029218937454900035,0.030147883813464796
464,-0.007991066705648309,-0.010402429745614228,-0.12908318122097484,-0.17229091250752332,-0.14068029014824518,0.04519158954835202
465,0.00550090395608005,-0.025080305842227757,0.09632284004819736,0.05396694427132742,0.15338983305645676,0.03768066998257982
466,0.00041837500566832553,-0.015684368641791457,-0.12508900039976772,0.024098148581176815,-0.01753885778229186,0.03894853540083441
467,0.01669661327668792,0.017062625844185386,-0.10978419185469851,-0.01319151805754043,-0.02982625205640435,0.0221322491755338
468,-0.0038729140602404843,-0.018923212704306858,0.024617053052067184,-0.015415750859101907,0.04147005836782608,0.0448131576633461
469,-0.00510589445652232,-0.0012872415779943136,-0.09970352279977218,0.06327497663777781,-0.15718092886093787,0.044647476758488486
470,0.012582418942825413,-0.05466589845857606,0.06883465559022117,-0.034651592191235536,0.02643619071800818,0.02680990220382173
471,0.00517301000352921,-0.011842921275019958,-0.05833525561896047,0.06127995907983025,0.10990908362575685,0.035784289749651
472,0.0007058013846372724,0.052712492822103885,-0.12217934387893259,0.06887723530295009,-0.27696095116553066,0.03908569372963193
473,-0.006116018768487552,0.0103172222051795,-0.026581731053566093,-0.009217020775029394,-0.023361632553003164,0.046569642397501596
474,-0.009996629436935134,-0.028020458866867548,-0.08125535987285121,0.06728236569313595,0.04976009823165056,0.05074282807996624
475,0.01464190043937763,0.01615469509028522,-0.07011881049913454,-0.10601368737922562,0.1460802778163769,0.02564588724988771
476,0.010597110983144642,-0.040862999831526525,0.09732811858706247,-0.0507307481422562,0.01282692000598562,0.030066179701467445
477,0.004505222022282762,-0.02916015057842547,0.014473734237054559,0.09147522335852659,-0.11363318093010394,0.03575717310105556
478,-0.018929788350265486,-0.008904632677203095,0.0113015238240457,-0.05115799457164938,-0.1447667629120525,0.05935719055874652
479,-0.003931277990897097,0.046892495980883075,-0.10408925860624008,-0.12492311514513005,0.08607880742741686,0.045606868503583795
480,0.004533214052960144,-0.0007780662564642604,-0.08176175228406779,-0.01566797042192669,0.08427952092032082,0.03517175735720575
481,-0.002559099951307542,0.020251467796812528,-0.25429186520627767,0.010307084899845442,-0.24176604586588957,0.04019902521412041
482,0.031893742981506046,0.007947704299783642,0.022972867773253913,0.09454732331494853,0.019491643982983364,0.008463109105811419
483,-0.0007052855567626359,0.0056151767566609,-0.133994524261766,0.06699767642445736,0.03117438608683759,0.04161237596629526
484,-0.003695029670516936,-0.02450038519593245,-0.08563249619544178,0.07178822204656515,-0.034376833540220336,0.043441069796059675
485,0.015097056157951538,-0.013487209503379116,0.02595350625610604,0.10278329240966405,-0.06949949873404682,0.025381242698586173
486,0.004269182523282122,0.04910748395214959,0.07985329563720422,-0.12878318659073068,0.09080989426897407,0.03909022122239785
487,0.009380710424947258,-0.050761788991091294,-0.10548570758975456,-0.10504104256434504,-0.039770907061458055,0.027430340955056635
488,0.0033126995639500834,-0.04136096054849969,-0.09774144734611934,-0.042292314011080134,-0.16155519139309812,0.03441109339497598
489,-0.010173723938426527,-0.06963893619804251,-0.0006236928548287168,0.1649450659546119,-0.015879923205429164,0.05240692866438003
490,-0.007971387989563428,-0.040928764889739844,-0.04921926327600751,-0.2643851889083117,0.014417616388439969,0.0460155302067149
491,-0.004133161009749697,-0.008693072975157423,-0.08092042636413338,-0.09613686849376757,0.018520902643377635,0.0426237160232733
492,0.014671385721182206,0.08114577749717966,0.08989206623738522,-0.2604516583479064,0.05022412889197003,0.02690957234442576
493,-0.0040855704148621275,0.009384946875401257,-0.029100914115537224,0.051076324863741585,0.021318926932493043,0.045969075778027946
494,-0.003758101126171587,-2.16673935002909e-05,0.06999097018134404,0.04617246593703933,-0.04600884221252083,0.04611166444434093
495,0.0002961040237883239,-0.006035629698119105,-0.08888624250795563,-0.07780183422534098,0.10997185100745649,0.04021981767579673
496,-0.008568984934263058,0.01120814173072393,-0.05184359595454224,-0.03546997405564678,-0.041632148840418964,0.04897486475963233
497,-0.008786529269352084,-0.003867398205787631,-0.017563515799835727,0.12106244702298624,-0.01484751491489178,0.050757109518435026
498,0.004176276917722932,-0.026488245151897516,0.00040118809051192805,-0.06023531617064609,-0.14706416624837587,0.034383540690159316
499,0.014002376605908973,-0.0695776993127526,0.07788932485506361,0.07866098331278354,0.034171292432921996,0.026621604795759778
500,-0.019578073178677546,-0.07823615825368413,-0.10539310448008243,0.026212105452087853,0.09941378089149278,0.05937540818544785
501,0.006187369913277729,-0.01861482089356703,0.0021999243729828866,0.032521986480748,-0.16675071173549255,0.033033636051448954
502,-0.010921309483485575,0.0030390296514815063,-0.01581214651692403,-0.17655508948927218,-0.27599292626062516,0.04914541320600656
503,0.0017413743940415394,-0.007693018912342309,0.08032570368858982,-0.012071327704440249,-0.13168694875495013,0.040080444273114156
504,-0.004715825659562745,0.008649660316026098,-0.0845408594299214,0.0024522877191642256,0.03886442721848654,0.04548581913469116
505,0.015703406387101992,0.009347199047535448,0.0475880515737811,0.09318877438402795,-0.12451150403676822,0.025331847925060175
506,-0.0034224621011671452,-0.013718372954747982,0.061810917226094664,-0.04580734561489025,0.01318568067989584,0.04446719877842461
507,0.028372587705828733,0.053420777758481974,0.012436390586515578,0.01301061508824558,-0.03781042386935521,0.012898911072620468
508,-0.03416554793192039,0.006651476569317749,-0.10970108942451745,-0.1548932006512249,0.037084236038707086,0.07475577524601758
509,0.016487955963887968,-0.043531087036855265,-0.002750518480175268,-0.04913348957705388,-0.043109401610900544,0.021987973889308524
510,-0.0007589560645393512,-0.01785085579023138,-0.05930637220152302,-0.4110035277101862,-0.014239423377002847,0.036958189142648916
511,0.015520178694265807,-0.02210711122253639,0.004774161029202362,0.005297140670680711,0.0035607521363550942,0.024105437935798727
512,0.009678001654689794,-0.030323577368231103,0.004735725438895555,-0.08894996513969655,-0.06538247654425552,0.028251444647109564
513,0.008687190284490942,0.025550122748852155,0.01532071106658306,-0.02660067022681395,0.0015140112930384642,0.03264107439245745
514,-0.005925350025882681,-0.008524420377419073,-0.01742535265091988,0.13664285079537708,0.010163324103939386,0.04895512525243194
515,0.000607329615327501,-0.06593311625536658,-0.013702719550608311,0.035407807852462225,-0.05608117115604819,0.0383003203725526
516,0.019673883557038918,-0.012423900738634863,0.030535167235264282,0.07672982714325982,0.026157927871531483,0.021086923162892707
517,0.02880700808826231,0.05655468470216607,0.03789958372118918,0.07567667342846351,-0.03710097253608702,0.012901086840409698
518,0.0046273756681975975,0.04595110125700608,-0.10085753806959208,0.050855997156135646,-0.011384891394755736,0.03632349561411629
519,-0.002880737212198503,-0.027181329692094303,0.05117824924223269,0.0722310176389877,0.10069469552839583,0.04546021458225223
520,-0.008341596136275498,-0.0648192123431045,-0.0198791986260215,0.015420859585527802,0.09877895416511917,0.04916390719180345
521,0.012315015361803239,0.05104176089826895,-0.021601460918632354,-0.13018220994432847,0.1335221677708533,0.028732625292468037
522,0.0028150771326027613,-0.013121791069556799,-0.015221523054465558,-0.08101853706161943,0.030075375564072138,0.03690117586426877
523,0.005011050126300098,-0.07612531756909935,-0.053569948367451325,0.016271903581895064,0.11880555789266006,0.03408506229311915
524,0.015699839095947077,-0.005560063604747478,-0.12757623146193803,0.09467608847010184,-0.19409241753623774,0.02266563077047158
525,0.008888916453567708,0.06250169884295853,-0.045148380863004434,0.08375120159300276,-0.1574385664124345,0.0322823797185014
526,-0.007870198849634136,0.014791102966986935,-0.00789992797951633,-0.09438193202169826,-0.09701698460229727,0.047663475018764986
527,-0.0006773861257344249,0.0016563684310324511,0.0026667837083904633,-0.12245096813918965,-0.10890323812634617,0.04030790882241108
528,0.01726944696430155,-0.012644287026744916,-0.08914777912771205,0.10008844054447763,-0.23586719282252666,0.020595340800181293
529,0.0021803506277264795,0.01617638244005426,-0.02387040481034486,-0.014766584514139813,-0.12877682374023897,0.03765991976939567
530,-0.001874094039110763,-0.03629324101858933,0.03644934693573032,-0.10319266306123698,-0.051688590678292734,0.04147501072433952
531,0.002512307682861703,-0.06619628607363026,0.08400003605449902,0.004232636723515537,0.10674490170415407,0.038565453895090106
532,0.011952652438680822,-0.012535174404763816,-0.021057858077366265,0.0868764163870448,-0.05603302538270341,0.02751470540872251
533,-0.012543509999559,0.030004663113811114,-0.021237124552197284,0.092137971098957,-0.16527573320436886,0.05430948507534595
534,-0.00638201685878359,-0.09509386780398443,-0.04316210808390791,0.051496142965441194,0.03468299683171655,0.04584741537471164
535,0.019532273254238675,0.02718021443363594,0.0592046141764927,-0.04271848214760621,0.12433682059742007,0.02208472109414688
536,-0.009979424362352773,0.028990844417336903,-0.030332326825859623,0.030397268801944266,-0.0061748811008853766,0.05234334585455235
537,0.011744264817978411,-0.007535092502190199,-0.11521268674434965,0.011730344333584108,0.07296328912336725,0.028089404510136955
538,-0.00512227423546896,0.012694380312907372,0.10818702847228445,0.10056437655881545,0.09052085423755496,0.050315533153937574
539,0.009058681968969973,0.02194117828795683,-0.08329754663025352,0.018593237809186813,0.07630112690856156,0.032052950228049486
540,-0.010790532892920424,0.019346870639090352,-0.014958324942953016,-0.25814062722619163,-0.19277585783160098,0.04988646694889958
541,0.004504099833725572,-0.032895797451925946,0.030205634792055958,0.017339403955649924,-0.02125942617466539,0.03547202895008304
542,-0.004884826548519072,-0.004360108730965595,0.0023938061913338915,-0.08127187092192861,-0.08693021981607832,0.044631833456312595
543,-0.013589633951309521,0.03654123915461782,0.054781808042828395,-0.005717463824806368,0.1183911823315218,0.05832222209328702
544,0.013167021921187239,0.01583262373470995,-0.014357022984471002,-0.12008743526295002,-0.03379003531135932,0.025670375267664896
545,0.0029881316245827794,0.0408000309283193,-0.039828689185427424,0.017316006002920714,-0.06689897146713711,0.037104582579803536
546,0.0017248716385231955,0.02441109213831283,0.021519613872986176,-0.07799518038292119,-0.2611134870934775,0.03786876444051595
547,-0.014850391789027473,-0.1070346594064856,0.015806685665768705,0.11331812208131559,0.0551600837261641,0.056796953301439315
548,-0.00959953559549398,-0.04041971565198277,-0.013079581408288465,0.05171642754225442,-0.039339185609889055,0.05080760662843149
549,0.0022085134065823464,0.03331066732715959,0.012761113738794627,-0.10189859955305247,-0.048407658816225524,0.0385277130972956
550,-0.010567682110459886,-0.04852370892794955,-0.04307622981308046,0.14841842996920396,0.0957110547545213,0.05308966717244748
551,0.01597672449380405,-0.04238653344638099,0.07950253628897708,-0.16068005546143183,0.04941536972173155,0.022697778144456424
552,-0.006184151119319248,0.01709884638480541,0.09196450244967425,0.06675108358913645,-0.3095932280255431,0.04871793811413136
553,0.015576958299916566,-0.08365508739743865,0.01973743362797542,-0.08927808791520564,-0.16202756519865338,0.020525958792661548
554,0.0020932912518065727,0.02620423510846126,-0.08537091777936029,0.13765789113286908,-0.16617882423589114,0.038877171168893256
555,0.01775623506190649,-0.021512734037829717,0.04860775216725077,-0.0933839769973338,-0.010199465583267203,0.021436828010503266
556,0.003930067781938051,0.012977824178888264,-0.04205558070411414,-0.0042798519727978435,-0.004088553421778357,0.036296470096542
557,-0.014351047767733882,-0.025839069266065273,0.01278546118611068,-0.010432932618637036,0.10761342410360636,0.05615420140070655
558,-0.007623612383721778,0.030326978765024437,-0.07945726533869851,-0.12686072578592053,0.07988923734909603,0.048233889721197014
559,-0.02264341954566329,-0.06015128675118697,-0.039848460986575074,-0.23839200081146525,-0.22769904832049684,0.059382262665191955
560,-0.014433468530047788,-0.0006791016208665956,0.06871905015555413,0.03697067321110015,0.02420613409024175,0.05750011555275178
561,0.00907317047885492,-0.04199389810158671,-0.05155546358436586,-0.2649515999604144,-0.004691017905065209,0.026942034656382383
562,-0.011180796292395212,-0.022880394415113914,-0.041820063156022824,-0.11553970754564458,0.010083262543453875,0.0504205321084788
563,-0.010864684549465431,0.029890570429601415,-0.018637443713208524,0.1189000389170195,-0.023680192030017172,0.054008670958377664
564,0.021890606719445094,-0.004218856126848469,-0.03815794668312156,0.14323062855768665,-0.3182146573727973,0.017112621699971714
565,-0.013737409881912743,-0.013873613178117083,-0.08056283927650476,0.041233431903167084,-0.08693052071237109,0.053690486703736134
566,0.012005994479841187,-0.019066302805739843,0.06454565819018043,-0.03688591851862222,-0.14221779331200235,0.02705625185811277
567,0.013537633300779062,-0.09188030954364179,-0.0026633031513620953,0.04714880789648007,-0.002505626315298326,0.024714045443616852
568,-0.004797617828861123,0.015866294913839174,-0.06591803668816087,-0.12024261662136843,0.014005194238242702,0.04430906318274356
569,-0.03263505716602688,-0.023382322613321627,0.025660461952279556,-0.005605549605036009,-0.12754273858433923,0.07393318559817508
570,0.0036661492488492264,-0.03518319242513945,-0.1027502040491155,0.041061064809597536,0.03133296082262921,0.03520727350643992
571,0.021853075841456127,0.02234037503726216,-0.11768474650200517,0.02064075864092957,-0.28814485544313284,0.015903649105804833
572,-0.008742040152617592,0.008540121420588132,-0.09759205648916713,0.009448852872234348,0.056598890833821636,0.05021528212086341
573,-0.01835044519165485,0.023591755734417408,0.04426826075816426,0.060685374140297565,0.14016800673813812,0.06355237163594629
574,-0.026536151445526346,-0.0909222397030881,-0.07723177919301716,0.04395381025684714,0.008498570502568525,0.06577354752998363
575,-0.01143470511990663,-0.04220926977683159,0.016214944082732607,-0.07214671406484596,0.12981667731872187,0.05288331752212762
576,-0.0029675286845797233,-0.03635575061709928,0.003127063517826656,-0.2778078935661731,0.10338673838427337,0.04167770670846694
577,0.015966644298629706,-0.015225510420416755,-0.09102800920859683,-0.12152791226025145,-0.12072329627326076,0.020480234949388613
578,-0.003092687607025968,0.01722191728901379,0.04716295692715977,0.0355686435285793,0.043428757422148856,0.046548161335317854
579,-0.0013109772864613456,-0.016191443468569267,-0.10995197503353282,-0.012549188385069743,-0.19047549977913347,0.03905952354168257
580,-0.009738978571787738,-0.013202176509007013,-0.0019181362210279884,0.07616991707236759,0.11178050411236651,0.052709621776546006
581,-0.0028412203456895657,0.005071451397166582,-0.048012918990589626,-0.06308264134125574,-0.15049355138722528,0.041451964123822294
582,0.01327847682567751,-0.02937298006699074,-0.06428485535023126,0.08156356727275843,0.013346647791357358,0.026658927391851647
583,0.005277890957662068,0.02339248442904951,-0.01186680950192609,0.05214840325624037,0.0918313364684013,0.03706619823619221
584,-0.021509914984587875,0.026040849265630772,0.05822084536488592,-0.10999554070222334,-0.020714203433840894,0.06447346117781617
585,0.0138458236673773,-0.03077704386579594,-0.10296259096500798,0.13528401403284673,0.07205613433759933,0.02624268450255622
586,0.0006974365948422268,-0.044900047959637646,-0.035080652713639304,0.04094960505912665,0.005504944616601837,0.03892056928661259
587,-0.019795640815525428,0.013694579853404498,-0.03904871289921974,0.06795772382988818,0.12944797115058604,0.06337661298886815
588,-0.0005732929440293022,0.030113280063631342,0.006727831559466657,0.04254499847404403,-0.044818120157243624,0.042597878559721906
589,0.0020482215892640987,-0.008465357112117045,-0.03791729420655143,0.13608829611682371,-0.16538364998155652,0.03871753395451997
590,-0.004517894436039005,0.014217668560109753,-0.22193092523317481,-0.061497236466220184,0.03566906278406723,0.0430980015957035
591,0.006124283704170619,-0.003281711497007622,-0.15065397357691285,0.028483111882798784,-0.040344786579300795,0.032154099495441554
592,0.01749415439768165,-0.038084307470044765,-0.046482508625298735,-0.14584687498979843,-0.14111547101464694,0.018222036414596188
593,0.01606265078289426,-0.0024843430775551845,-0.02042959420448065,-0.005858975404251621,0.07401202425882053,0.02358034796499869
594,0.007858101609724999,-0.13010719011582517,-0.08011748723246714,-0.0008968268574182647,0.014084871134733445,0.028899709113148674
595,0.005199015679498098,0.0294429858589772,-0.009491905341102724,-0.019210984454294477,0.0009856939681887056,0.03582485302164132
596,-0.021011317005310337,-0.01231860438474508,0.04250499674992403,-0.0188895651894041,0.11275420674761727,0.06427052769220645
597,-0.0001433190194252143,-0.0007036913645651621,-0.06786850567561592,-0.11271477407050029,0.15723434499166422,0.04033340759905241
598,-9.660291485191763e-06,-0.03584569271736593,0.041596812352524104,-0.09274113764680186,-0.05732178627280071,0.03942383424709442
599,0.005423278493378092,-0.0070762288504729876,0.006635485414634323,-0.0416727959190108,0.09654269074210953,0.03532601901395301
600,0.0022374180898594442,-0.06008646155817632,-0.12054795099724075,0.05958052820120574,-0.011213342581909203,0.036207941482726894
601,0.009999309363919462,-0.04795616257911439,-0.037160825817527554,0.03393008406490983,-0.12289304124650008,0.028227156284451847
602,-0.012047462546298404,0.01223908930931561,-0.13241052440258755,-0.004837998367675234,-0.20477148423221778,0.05136767233005921
603,-0.0078040520191489104,-0.07372240649581752,-0.014325963607944914,0.08429325484379357,-0.036148357847495205,0.04738515732418036
604,-0.007307600025611483,-0.005957648113083525,-0.03014755544791764,0.16881310674678673,-0.335060329909971,0.0485094967397923
605,0.019450428404386377,-0.05509193416067304,-0.05289017316929512,-0.07803728416506911,0.0037025708386048684,0.0172350229402884
606,-0.005641600869202623,-0.032799522015210414,-0.03750514271602834,-0.014184774434228109,-0.20504137815121337,0.04440491186690251
607,0.0010078425657265022,0.014142447673346492,0.026154297815425,0.004979324143546848,0.07159847362008132,0.042785962608541374
608,0.012860118927758402,0.04583617269928375,-0.057302849875694783,-0.10977282582722792,0.1481197055904162,0.02788188897259515
609,0.004224929876300854,0.04589261954918045,-0.0487671048231646,-0.076390024982601,0.06556718067478201,0.03703489941736571
610,-0.008353506073247363,-0.16884090657808648,0.007577422682144008,-0.20852038463229647,-0.0358015805549132,0.0441371573809427
611,0.0016636430948697711,-0.012924394990804444,-0.0031059575218959634,0.09313443048190645,0.018249044236217538,0.04006152121893501
612,-0.007971635555853895,0.04250754934158585,0.026739477870781236,-0.01653015084052223,-0.0985064074740199,0.050482457820466155
613,0.005743230832943258,-0.038027849370548816,-0.1217659685758325,0.05500365067245716,-0.1467374226658103,0.03205918587262477
614,0.004886839287028488,0.06942256973219607,-0.07039586899322736,-0.018080400169077082,0.029685627827258698,0.03694239469653039
615,0.008980346631356495,0.012385774566179286,-0.02910992077380231,-0.08698678782571223,-0.01147897310238083,0.03023076262427803
616,0.005829657406173805,0.006447208871260823,-0.14667674145600518,-0.039101138245642764,0.09527261956251226,0.03372742539429855
617,-0.003496539368578633,0.0012631919557963833,-0.14695929247367656,0.05418340380474734,-0.04896542162106993,0.042753313818743116
618,-0.003105824956175396,0.012491160572236981,0.01104696917019321,0.0675559278690347,-0.06034292955864051,0.044966313525263285
619,-0.003364943547074395,0.05235756489171939,0.013896517729014235,0.04165975812818057,-0.09689495849494759,0.04605560823516917
620,-0.003038692018572431,-0.11053841285951238,0.021951774995661366,-0.1844361382907568,-0.12049851267159967,0.038932442590361827
621,-0.0025585859713723735,-0.09453675272192519,-0.02134242125350999,-0.0722529743596676,0.0015761913616004208,0.04048490133732939
622,-0.0017105905530799825,0.019463378448141944,0.025655658585274188,-0.015490933292899078,-0.016607315901833924,0.04443456355946128
623,-0.014237107040902863,-0.01475407680498153,0.007220394221505555,0.03020595951380145,0.10776863900964079,0.056763127900636756
624,0.004681912068096095,-0.013371457883407323,-0.09848479995348075,-0.06636689669404161,-0.03985546151793981,0.03329197350120485
625,0.001738803805656275,-0.11649710069976449,0.02791103050461119,-0.10710506347319848,-0.05838034988054017,0.03561542346246533
626,-0.005217212997552179,-0.12019880704041563,0.05499625042400447,0.07650483410698211,-0.13373405681154663,0.0445559340585718
627,0.016430650006805658,-0.0173284434561618,-0.016266195003263373,-0.05456685338314815,0.0681369076590595,0.02247242326379237
628,-0.00877804972558549,0.025694545485180798,0.06618559206420238,0.06774961263409734,0.02088315184817008,0.05290269026208334
629,0.007191335095293461,-0.0008887970005254653,-0.15935893871320084,0.0031537424458346064,0.07536353066718071,0.03215677393346232
630,-0.0028270209503551413,-0.010189801426252143,0.06543034302123918,-0.006044796001735131,-0.1154379410002889,0.04351429418152493
631,0.022907375318276246,0.034472474509904094,0.08368428229270486,0.1110593663546634,-0.10677618345775977,0.019698696277290945
632,0.006512589941840563,0.015779076603312348,-0.21202122403796286,0.0608240413330583,-0.06599197239891608,0.03238917012544061
633,0.023559546956209765,-0.0066457771105381536,0.07356892789211522,-0.21887447090423523,-0.23809344170911115,0.014153795228332273
634,-0.008378291840960284,-0.006321444214902883,-0.03249128933497275,-0.13020743137906876,0.004905972713889151,0.047774641008971414
635,-0.013276444150710054,0.005696225224697482,-0.07597885768996782,-0.02591573229870331,-0.06918932595596042,0.054067549202438205
636,0.02661275427708265,0.06567598692345322,0.05640916988603295,-0.08640790227070305,0.1299077881156973,0.016110152069726973
637,-0.00936246059916268,-0.05067440086927455,-0.08242912123117474,-0.04091570685091184,-0.10237908084755268,0.04715683670234466
638,0.021302077804077557,-0.012488501712775268,0.12106354861223123,0.13554781784189962,0.04773148608158995,0.021930405954939305
639,0.010331001569308773,-0.07867526884081455,0.008049486083536173,0.08900932788465449,-0.3043389095917554,0.028163602044681466
640,-0.0011395635132600557,0.007762012071357849,-0.032273982101447274,0.10743748513869128,-0.05573498766281951,0.04270506819732837
641,0.015315490457088687,0.0034873789419087586,-0.1458382299963502,-0.07310350682578359,-0.001652709114937534,0.022150323904067046
642,0.0018598432071266213,-0.08035938994194347,0.04584269529924778,0.0013447697118572632,-0.04378996955576664,0.03716341948215704
643,0.004309698880087254,-0.026467148170246202,-0.14146751332357183,0.07757840513507974,-0.19893360789331027,0.033358618519685294
644,-0.0195423928493349,-0.03514573109395869,-0.08129997418321144,-0.04358968974332522,-0.2306245491156033,0.0575338654921632
645,-0.008915223398437533,-0.03925043100216874,0.05965879125006446,-0.02460795345467298,0.04448305530421154,0.05031681955876374
646,-0.013691846398634966,-0.05487675082568888,-0.09710419825953309,0.05666148825966194,0.15583241859525854,0.05500324966375465
647,0.013050588801626128,-0.01749440508502642,-0.030571390393762943,-0.10646518443667558,-0.06754398310715021,0.025259365039384283
648,0.0021209549977319053,0.017816740029942046,-0.024202095102743293,-0.05143204025958731,-0.18092805886691898,0.037316617859666806
649,-0.0025273303823157844,-0.03161347096007694,-0.08026203653914993,0.07726484349247525,-0.030542040469443393,0.04208149036402974
650,0.001479838637423958,-0.04321215777369869,0.0218133214245253,0.0031289354077343456,-0.20596575251573673,0.03677016856861282
651,0.00041225836830882656,0.06358620456497799,0.06905845096328977,0.005663811765224236,-0.010943311929604682,0.04277651944801255
652,0.0004814304121198987,0.06348422423939504,0.03047729162701196,-0.05776096188361435,-0.0015248368294186465,0.0418244043493045
653,-0.01318932189340416,0.035510150186885525,0.0363754782541541,0.09208988931279816,0.09213643829189039,0.05799408614952117
654,0.023171765972231473,0.034555452325038205,-0.12497804929505635,-0.019869658764580966,-0.3587589149850687,0.013678542413623472
655,-0.005378281701498788,-0.06443896323892784,0.04729260963904447,-0.02138955194255404,0.036906096891319795,0.04589964065245513
656,-0.0006121991672357607,-0.09273534754281942,0.05103246739706646,-0.08894192468939033,0.08806606981117182,0.03972018185002526
657,-0.010050198069279093,0.029837262214346127,-0.01697464671992055,0.13297684151747657,-0.06339159934039959,0.05327130235087134
658,-0.013189149225782626,-0.04027521439093673,0.07369073883580934,0.10715292586555458,-0.15012668658338796,0.05597825259782494
659,-0.005016939090734973,-0.0468538869455305,-0.051471006944268594,-0.020987066646579455,-0.22457622585317208,0.04254377423698734
660,0.0037672266193231607,0.003084386514037085,0.04591301577171991,0.06850661597583002,-0.030382514232250996,0.03831499205177861
661,-0.011386321209460704,0.014340655403093483,0.09960261228487166,0.07307396369690622,-0.12525852157079162,0.055639318153548445
662,0.012604915974777198,-0.03230197836461168,0.08841951820328608,-0.13236521981915544,-0.04854592116140985,0.026145889413058104
663,0.010195593008621717,0.0004373059754739783,-0.11279556587022599,0.04901295410550216,-0.03315268086204373,0.02875239556900451
664,0.008015516074306284,0.03434536792519871,-0.001803091295424053,0.024741071673939963,-0.0244674717602813,0.03317693390976401
665,-0.0044136288247188515,-0.026946218839036584,-0.1772698952915815,0.09785304247481508,0.13739816572711738,0.04501655980785945
666,0.014384095371194006,0.006712081431880512,-0.05302691180587865,-0.14159959053605622,-0.010202497918230247,0.02404601888000052
667,0.020598470852886797,0.003719026862409547,0.020921081237028627,-0.020864759826619395,0.08894267404440304,0.019662028975416253
668,0.0028007743998141876,0.004681505278986031,0.07964974660648627,0.042374011047331184,0.017666208884631218,0.03968804030059182
669,0.014757483250565917,-0.0017399757663331128,-0.000816101511310674,-0.08357281385884835,-0.025558547035259754,0.02436882786493461
670,-0.006121369180748459,0.011341485214308333,-0.022398743213265293,-0.011910981969895706,-0.12456264585143792,0.04682701868821114
671,0.00239731997793724,0.017766241146244033,-0.11268598928136653,-0.07516499880067123,-0.018523873226756415,0.036569486876183874
672,-0.001493945139905306,0.003922860079309087,0.13425021054862296,0.09814227413096893,-0.0029744313004569922,0.04531663498075559
673,0.005865630533367527,-0.07444444766471403,0.020651725402869192,0.13006476286014357,0.03181084754575558,0.03451836765296903
674,-0.0014990941787819123,0.04108400949483093,-0.10062231810630601,-0.2345037321986497,0.22980966103419098,0.0430345166556057
675,0.008958666091372303,-0.0011792997754572765,-0.00846078372379988,-0.11125323213113608,0.06000772490326628,0.030422987886771443
676,0.010245597419603847,0.05635133989412744,0.08277697242689386,0.13439401782132554,0.1293126155698554,0.0354454593062419
677,0.017213049193566254,-0.007657296720073092,0.07652074936503417,-0.03361805710401078,-0.10187016184058734,0.023543078209505075
678,0.004584304673007411,0.006306310683324656,-0.006141706282743631,-0.019337207721532856,-0.14746437347979002,0.03454383121407282
679,0.0080643206976041,0.08295164180034575,0.018131881241380876,0.023663842658978473,0.09444146609086856,0.036096213563559465
680,-0.02315157777589083,0.000188757535955153,0.1121736662424414,0.08069868445459599,0.021520043596411798,0.06861261652408429
681,-0.015753052439730908,-0.07780467765177179,0.008303301613863279,-0.020831272130370282,-0.02012899882760874,0.05657559768724641
682,0.014898725056930573,-0.035023837849642026,-0.024722471305331395,0.0759669720450501,0.10329655684752448,0.02543048003197164
683,0.011118230677956475,-0.05998323599292377,-0.041980629632701105,0.11232850312346632,0.00859081059362582,0.02861582078111096
684,0.020741171039495798,-0.02892110788469371,-0.18649104476579864,-0.03448780065595641,0.009496687640437151,0.016391565320270456
685,-0.015222565031385638,-0.06665444616689431,-0.09815994382558685,-0.14009047507013966,-0.20232436843011323,0.0513868233918909
686,0.004571524152093387,0.02794733106843661,-0.09233999202375265,-0.06697261933455206,0.040199670572316715,0.03507976099224215
687,-0.0010078732463001394,-0.0759175245598459,0.11030194877349087,0.024041816592734466,-0.0959185365154124,0.041569658067625095
688,0.0032957152205630447,0.05172826186490098,0.12023315762889131,0.09921304619941085,0.10397265240643189,0.04295770242455401
689,0.0031161675690221102,0.002218780579702484,0.0012903989878753075,0.05702187985063528,-0.04349783825299111,0.0381104915403801
690,0.008657173783259031,-0.0061317415757120575,-0.05819611221240428,-0.11928536226120706,-0.08495926834855219,0.0291574250617281
691,-0.011214302032132695,0.03205310143764162,-0.04118509263898806,0.058918114475747296,0.1638010876344888,0.055205490654005006
692,-0.00444289298087408,0.007721120465961517,-0.03592120821073652,0.03743439818727151,-0.09802524211656902,0.04571865548128572
693,-0.007094975644936996,-0.10599455357419241,0.032423264799240736,0.08170733566725846,-0.08334706001029113,0.046670618639338135
694,-0.0048572602939011,-0.07845705807337555,0.058596912820858105,0.16094856965977888,-0.12893945597717682,0.04636971951525611
695,0.008048361175527985,0.025869383381432853,-0.04790996747855675,-0.18041851847144874,-0.3086787079038694,0.030192873644859175
696,0.02699190693503639,0.006774210937921743,0.07396221127245783,-0.012840036195944315,0.09431495622181879,0.014011230578119102
697,0.002204971660990429,-0.021613758502799674,-0.03319566576249777,-0.007838930685649614,0.05249642697994661,0.03772967365135828
698,0.0016352606958465188,0.005804464798482956,-0.15307636060938923,-0.04140197960942754,0.080858796206282,0.03828076624140758
699,0.016733552939213858,0.008388774925059517,0.013756245863317362,0.07649875978098886,-0.1552052560668985,0.023428029502659955
700,-0.0036903273554055316,-0.18654340570480632,-0.074212862102151,-0.057109542883193476,-0.04802649687619384,0.038499645282669005
701,-0.0034760992536078117,0.01811745718290958,-0.04510481545969469,0.030435747843191086,0.09456594042125127,0.04551919041320416
702,0.010176541486576207,0.02307071888124912,-0.09347660224849724,-0.03755913897694163,-0.03582833564547486,0.028776208692501314
703,-0.0029025255548026374,-0.05840062221165587,0.019383902000116526,-0.17559408360712744,-0.15298492208110848,0.040278318991128256
704,-0.014362503502157842,-0.029634733646455858,0.08267752207106727,0.010904457072688,0.112500247426914,0.05747150634560985
705,-0.009039248582247805,0.04444535210193057,-0.00702318920834305,-0.06328045456854275,-0.018960776517893824,0.050785426226911116
706,0.011311127522898756,-0.014749542191096032,-0.08253086247086155,0.03476067334485888,-0.18652819406890014,0.026843932226513607
707,0.002261823904785576,0.07268555649044761,0.06380916722734165,0.04415703464128723,-0.09851771802089312,0.04114764108295221
708,-0.00903284822867545,0.041702168680837426,-0.09821923091724294,-0.0031427420335507494,-0.010988506893988753,0.05014453680374445
709,0.001862175623876361,-0.042423431570707604,-0.12039308760133788,-0.048173809760151676,0.13094613905042396,0.03687327436977957
710,0.03752879003484266,-0.03453838571555523,0.0014991968957261959,-0.04288120479549479,0.061161781792603176,0.0005819982101946152
711,-0.007130206569700537,0.053129304476749906,-0.009734406710220744,0.08837837092659734,-0.0076960155163907085,0.050626367340743675
712,0.01582394141673027,-0.017689307317255265,-0.055827104465779376,-0.13594827791712394,-0.14709693146977154,0.021769630319633325
713,0.004699705446703284,0.06366482298962162,-0.04473006062011481,-0.017736678566933006,0.024725494062404763,0.03671856580241347
714,0.0012917386743600545,0.0054645968684854385,-0.042374326843044485,-0.08459374905770067,0.04404143542034822,0.03853836271266282
715,-0.0026433074678307023,0.04368712148294163,0.08371233131556832,-0.009842982409000556,0.09014360056550147,0.04670362366040845
716,-0.0009361842054166347,-0.12593095007327737,0.09065935333207098,0.018224926909681693,0.04979717523158411,0.041250415974707175
717,-0.0031336367854536418,0.054476375996869275,-0.049686039119030356,0.04277764597367234,0.04331299901090535,0.04565354526485826
718,-0.014533722034030028,-0.16350458380819155,0.0229778528416128,-0.2003155738087213,0.03560200689445714,0.05103510062905534
719,-0.005305360432557249,0.04180885242952814,0.051282522601926894,-0.09308190106727471,-0.1579360363752454,0.04656135815100224
720,0.0035365130026663305,0.071302327968083,0.03774505552509888,0.07212548220445125,0.10643116408197068,0.04067334081388581
721,-0.003631326191559703,0.0764159418049345,-0.023352665814076468,-0.15084801703506973,-0.017979521188544012,0.04535334007963556
722,-0.006703635059186475,-0.05916415029453259,-0.10556840805108053,0.05014421405455827,0.0550877151513498,0.046156663499479327
723,-0.021886214991015174,0.000846935122996384,0.06431302865464394,-0.00610596329237284,-0.025195616255128978,0.06479565317937395
724,-0.0032351115289368515,0.02094474372652544,0.09438829009232219,-0.0016912655455169068,0.12119579703792177,0.04730808425797822
725,0.00836944198227485,-0.039048449066415136,0.10272463241052365,0.018706322275247156,0.165242226352791,0.034719788760708435
726,-0.019887324415487573,0.015451870739435547,0.00857076352327224,-0.05645323998285834,0.07244808628806526,0.06226438100118121
727,-0.0008523368052328895,-0.04114471017517818,-0.038970083262458266,-0.05740202877268752,-0.04570699793892807,0.039703127775335634
728,0.009032486835244491,-0.06887206375062938,-0.09408782418004663,-0.000195406864439307,-0.023183676662390934,0.027938180573197677
729,-0.0016083260132266908,-0.06735845379031513,-0.005884729978380632,-0.11449840044537035,-0.09216270834149048,0.03925843988228662
730,0.0013344376940274127,-0.060274581387437354,0.09582528923383526,-0.1543710228675129,-0.19512520939430003,0.03727760601594619
731,-0.013020548392869036,0.03932886328277285,0.1055852813057393,-0.04989292527793787,0.014224840850640907,0.05698128457805942
732,0.004948220579698237,-0.02197395935249813,0.05981932928798117,0.06597682425836837,0.006403183210335339,0.03730401316011667
733,0.008876405356284867,0.04473757139060719,-0.3114392353252696,0.0523383064987209,0.07392578206883954,0.030976348068330117
734,0.006042844485190324,0.034538211160288435,0.012335028159852879,0.020191989199545457,0.003967001495796485,0.03570190067600452
735,0.010793706230489697,-0.08337886564408759,0.06622825226501317,-0.17702737003469637,0.04473908179215491,0.02730884119383736
736,0.012559784729902601,0.04165551998732342,-0.0036814542600491773,0.09270435912098735,-0.05115591259608385,0.029873572927538408
737,-0.003783121850096771,0.01949311393601072,-0.0012951225428068924,-0.1897785103533652,0.06207565316008712,0.043812660417171176
738,0.013513776381405496,0.00276808718139554,0.09289381534944618,-0.06492935179718129,-0.08441684748336686,0.026472840438851564
739,0.002883422311295014,0.0355556336091194,0.05992812627890276,0.07407815253522138,0.034822292656734255,0.04049032716825513
740,0.0074978411436203984,0.012660063381012443,0.04148911837046787,-0.17048829445045774,0.07005783138685412,0.03356589611540457
741,-0.008383722160173579,0.015927851876985533,0.02894175785374653,0.031896961389137446,0.0067564325950415505,0.051068573178979025
742,0.009934258836722165,-0.042287471634709806,-0.18218765887559618,-0.06089420647258342,0.07960386314514539,0.027167026084390273
743,0.01315084400538713,0.0009686707871702227,0.042788660191915406,-0.018396513638799683,-0.02986136743604864,0.027557421082818837
744,0.0033179210844647145,0.03695856018646759,-0.1658418776106334,-0.11349841854217874,0.018380779866532804,0.035791018948431154
745,-0.006574628030188823,-0.046197491292952586,0.03826262000224123,-0.0946363788095777,0.0017042602499511839,0.046635196762774465
746,0.0012702453751995968,-0.0651425798892925,-0.011899029346798762,0.03189388643882074,-0.06102189013774548,0.03760231488919326
747,-0.006017409885044622,0.052521991677386914,-0.13494412459699584,0.10262760802108828,-0.10859611221980617,0.04721537007201095
748,0.008264495987850173,-0.0541292457271737,0.06395338480806434,-0.019049354547389707,0.11316305792816733,0.03253543782209217
749,0.010746543391640717,0.009139503762431889,0.0068130453981077865,-0.12343526643925296,-0.3219720898814751,0.027411614937794548
750,0.001959804137528831,0.0108467447446422,-0.06537919409868398,-0.025734563243519526,0.007133180050935717,0.03834726935814269
751,0.01262071421004718,-0.012146287069794592,0.09697719728012533,-0.031746232709035704,0.06469310061739791,0.029181715442574203
752,-0.008223980429406752,-0.009913636686443184,-0.001476121846377021,-0.1446449856539219,-0.1807160866180347,0.046458081107239375
753,-0.0010794564197182943,-0.013554150903866136,-0.028403631622683667,0.07844614559272645,-0.13335716855406288,0.041476962845193886
754,0.013139745283246018,-0.10764505528613377,-0.05690555281603421,0.04783558978289221,-0.0051197390614549365,0.02409127424046783
755,-1.4513910570057575e-06,-0.04208539822702695,-0.208281885918207,-0.009856967849459108,-0.1925911331971421,0.03641657120081454
756,-0.010448329128840972,-0.015221563476131239,-0.0660539158919971,-0.1166229249780506,-0.1134602503224495,0.04896049438699647
757,-0.0015794263205971548,-0.1955384025838438,0.06281415378911359,8.849458120635534e-05,-0.10492987223381103,0.038819522693603
758,3.171058249873404e-05,0.00720771171971768,0.011929535976440642,0.0712434563402351,0.1287724083262653,0.043081689812259176
759,-0.002204779354522124,-0.04429629158613024,-0.17262671135448532,-0.21477127009579133,0.0920457594980148,0.03900345710775346
760,0.0020817109704613923,-0.023069804801984506,-0.060222136401328674,-0.005308199674658121,0.016786715552617182,0.037412257590418815
761,0.0006749352152664034,-0.06821202166138629,0.038397055216096265,0.012824311866229898,0.06254081351048402,0.03943343226374327
762,-0.0013299670887702009,-0.048869545202402165,0.005549203813394077,0.011083369236234042,0.04789981441062169,0.04180158686682425
763,-0.0028006881411610784,0.0032578170404946594,0.018771765936980933,-0.008949235166574199,-0.04933776779518109,0.04371982429998498
764,0.0021120282999149698,0.03435789710634396,-0.033906477067478624,-0.15013886182946715,-0.07408058209348714,0.0370906203599754
765,-9.63926129228243e-05,-0.1215109721971318,0.08024058856243821,-0.10721955303161623,0.01527739251977589,0.038345573556527776
766,-0.0026890225913108745,0.010524230485159602,0.04973762977808316,0.04717530614381377,-0.0508992742586771,0.04494539023147608
767,-0.004202364698454475,0.005053991864693574,-0.15964236591173725,0.0819835852734338,-0.08332485003901724,0.04407740724080759
768,-0.013164254318891566,0.03509742291783702,0.08960531620735657,-0.0009546387266865519,-0.013428525727161938,0.057264942425017035
769,-0.010925188883695314,0.025550142477734572,-0.4035508126273317,-0.1764747681230943,0.017122093263287008,0.048222433108362564
770,0.004563013468610322,-0.0038727144361300203,-0.008883406958076434,-0.019299469760344135,0.043932051309557296,0.03583233569061995
771,0.0044982171000753635,-0.00045109427123191104,-0.03728771560097588,-0.022937247181989417,-0.05371707358449776,0.0347441908152854
772,0.0036007761358529677,-0.015195064619406562,0.07715687318960507,0.04495454971144425,-0.1725255238744346,0.03694778827035807
773,-0.011451744389605722,0.03809559657745332,0.00032278224005799494,-0.02527818369314533,0.030744734812967522,0.054419066228163865
