,0,1,2,3,4,5
0,-0.018848051017747336,-0.2725056892351514,0.18521028289952746,0.013719235762198245,0.014438515382907247,0.02166938003463256
1,-0.0054366055365232535,-0.1382377417745485,0.14715990509003551,-0.4439040349424394,-0.10448458874965352,0.008381877692200577
2,-0.007564935510754767,0.17898932054306516,0.26756722295159363,-0.08127834766809156,-0.6672642257663997,0.01092669688820497
3,0.021531003181480823,-0.030990700303582086,-0.14516585568402718,0.3230636507381921,0.032879873603222476,-0.015411637011635866
4,-0.009339971129644686,0.10674994080480948,-0.2864945280866378,-0.06026079779099219,0.3745229225045803,0.012848390652550916
5,0.0005111739767467149,-0.06413497516748157,0.09762027166780629,0.11452406134018867,0.1433097560847716,0.02277138292703421
6,-0.001775902174162458,0.20203221687167527,0.2311846911946157,0.21180763558281301,-0.3607904761601919,0.005063427532263995
7,-0.5468561392455467,-0.0069706460274099324,0.029286388022733867,-0.14200842443692852,0.20931099664552216,0.27685816380073486
8,-0.01900907198698365,-0.4269350762111538,0.0063028390366857145,0.13172221496290082,0.15993630965954558,0.03785566109140327
9,0.010583672280670253,-0.1518071098069551,-0.0016201232558903378,-0.31778768589682116,0.19484631605083952,-0.004009130049299893
10,-0.015064591550082662,0.09322196456442411,-0.19084008235477867,0.06848701178343092,0.10510561029634913,0.018270248798679858
11,0.008217865676548586,-0.1463213364738738,0.22124705851558824,-0.5742111435928263,0.21475258683134463,-0.003263197277375002
12,-0.0058074603742926945,0.12376236885493785,0.17756424529585135,-0.10078367047916159,0.278065036226668,0.00821210013073487
13,0.0009046624243482793,0.12125307610424418,0.18132180258900232,0.32291138560837984,-0.09540681481123048,0.003219588447989008
14,-0.013733789167816979,-0.12330621122065588,-0.09519603727168136,0.09949057419000845,-0.16497997405506215,0.017029468256177644
15,-0.005292195046414538,-0.10024885070374279,0.27991792426541184,-0.041459837046076475,-0.17383515492924004,0.008321930705499653
16,0.014147762505164696,-0.026682154248472312,0.15923848882263358,-0.26222001620085944,-0.07498979354819188,-0.010974662767673908
17,0.001305367532563162,-0.3151656296389997,5.999909818366067e-05,0.07889409035355593,0.2628870261713676,0.001906598543373002
18,0.0018951920814083145,-0.16280572813308924,0.11607618552967225,0.24748817698054548,0.009166641564090361,0.0007222527528781939
19,0.009246954486845649,-0.022870244463020772,0.3555656834881752,0.16140598814024754,0.13426279942343872,-0.007497470120845173
20,-0.0047764842524593565,0.007648876271088234,-0.6053314306055034,0.10320923640267488,0.18940733532294357,0.009641505814832635
21,-0.38361107139615724,-0.010478537528940235,-0.10245295461742471,0.13012069689586425,-0.6281361945453068,0.2636838444855628
22,0.004344750730697733,0.1055955950941746,-0.28437903022821875,-0.14493817300257233,-0.517270391025852,-0.00015315641221477563
23,-0.009230037218529885,-0.17243893344307037,-0.20391019325647303,-0.07283481800280467,0.15624403827146788,0.012156121405676458
24,0.008109618587811562,-0.12471209750584156,0.3214540854309469,-0.7245353515650079,0.23143055552202174,-0.0037418705170850445
25,0.0004962517245228337,-0.23646204345137012,0.10749006914388659,0.07042328686872645,-0.2808844254913011,0.012084542892912213
26,-0.32161987695134675,0.0037721111902332405,0.13980726120028986,-0.20690528795862625,-0.16321018286109965,0.2484098492905774
27,0.0009117028604355149,0.14296830111582925,0.306611835337512,-0.20498508464817872,0.46035822453725783,0.00137700113589799
28,-0.4141787408505959,-0.014315089169999684,-0.06546724664084813,0.1272016370606538,-0.19857360591210887,0.2664862605027957
29,-0.01603972771111728,-0.5174704393099113,-0.28578601179509433,-0.04808391920930721,0.1463185590682839,0.019358763191599244
30,-0.0016431115677346675,0.23353635216884183,-0.08961108664274636,-0.34020034369157337,-0.3510400691268401,0.005177748251954472
31,-0.004707564426435273,-0.0020209438202005714,-0.4014599405278812,-0.21969234812137306,-0.14815296479455564,0.008011947873438294
32,0.0028382552167662833,-0.5440004732616153,0.045849530504274205,-0.17438007216868237,0.2277215240116835,0.0003388236702192444
33,-0.0018779343111371416,-0.017686183415211554,0.05313447823224016,-0.34227566321227143,0.012537865477570853,0.004814616036316875
34,0.0143729931314589,-0.17003146682730907,0.17415841372493068,-0.024109499852178973,0.28968851553249053,-0.011742561165291772
35,0.004233914202488753,-0.11577597238452397,-0.1893690333893221,0.2617444576985638,-0.13153805042387334,0.0021874343284360295
36,0.009912612202336302,-0.10101333695303305,0.08097843136098815,-0.022894152484547903,-0.09533024135810836,-0.006875936111534975
37,0.00966333348629056,-0.341651651736994,0.26648222377604935,0.200793711433653,-0.1737405956067566,-0.006174455483267775
38,-0.005355493668741551,-0.15097658237630585,0.10754821069229181,-0.3370809540926735,0.3755718235398571,0.007887514663100592
39,-0.0005132760866173314,-0.5295690692525248,-0.03842406714726654,0.15507718968947315,0.21904766662047753,0.0034251509559322583
40,0.013007219689689986,-0.045425785988477796,0.06477492503544435,0.1792813141333407,-0.1891666660589192,-0.010713593908909934
41,-0.00039086796771736765,-0.10894860042323817,-0.14954731255845222,0.16967910649744433,0.3693989710908685,0.0031476775265418836
42,0.009754344074782706,0.1069458225370058,-0.1636290470028236,0.039984272870308424,-0.0918084867428367,-0.007027314297217526
43,-0.4913819579947405,-0.005604491600611161,-0.13718429207292032,-0.4050393790492667,-0.13472979546610692,0.25809132827711445
44,-8.218870419485214e-05,-0.40880929598790466,-0.25124962800951123,0.09622249873739847,0.13920814203183235,0.0033352071242034073
45,0.004748628577841307,-0.08893819834424765,-0.5122384712368815,-0.37520600905523727,0.3440380238319727,-0.0011804587184655248
46,0.003669187560631837,0.0062884386219458355,-0.10605454230737793,-0.23701664268003195,0.13075079358050823,-0.00015062450609057122
47,-0.00295121965988987,-0.06944044166835328,-0.2170031715903485,0.07644447588917369,-0.18430805804276587,0.00687008768288797
48,0.00459123827471597,-0.08478927803444081,-0.1359271726081983,-0.2310792391433908,-0.18908066794278464,-0.001344515892344316
49,-0.004086834267391648,0.19925344806732082,-0.2771012456336951,-0.34901738059605913,0.12471057019209414,0.006984468964239204
50,0.010188281112374131,0.08121822528340528,-0.030867197891238596,-0.221960851050647,-0.5702741189345286,-0.0071229265786319955
51,-0.011920058832416647,-0.065382652074232,0.2362624750023078,-0.10968093816100216,-0.0002845082075533245,0.015963012068174794
52,-0.3633741254193581,-0.009086206814112985,0.035799619355888934,-0.02446081727299848,0.03958344288257326,0.26156189851969464
53,0.0017919099571077624,-0.06858296679493747,0.14806273343492737,-0.11291538370915793,0.24195496436289743,0.0004975217870498454
54,-0.018705620463910444,-0.530186330688263,0.16530017978222322,0.324986974785186,0.055083284382953956,0.021554611237745668
55,0.012733038165065436,-0.040836094911101184,-0.43322769985800186,0.3241248613899431,0.43897892549212847,-0.010343814585298787
56,-0.40134911758374325,0.0069186801858979186,-0.032535634696614246,0.3394194923525755,0.25119454684968945,0.2446678267979697
57,-0.012623623077762658,0.013965546584036481,0.09935710268990672,0.28426393973106034,0.2672152971862226,0.016118768219354023
58,-0.4369944036439515,0.0095445801597428,-0.6107950962115054,0.05635417842052215,0.12187171939522451,0.24291249124593095
59,-0.0005085424945804329,-0.45735425547902553,0.16626895906063066,0.23051962500959156,-0.049811131729794955,0.002741885127740716
60,-0.0007438665807052436,-0.19798239826741215,0.038244927001389484,0.00867971654848021,0.3591154249516636,0.004279831908713095
61,-0.3029280028263792,0.011239080810802049,0.10952894402817626,-0.14983477583232435,-0.27987193545364775,0.240972539786766
62,9.457184730443657e-05,-0.2301886583278081,-0.329791834871926,-0.5906532727488129,0.1475007431587294,0.004033808257519013
63,0.028838216203894707,0.09698913630180417,-0.11913374913311103,-0.14056057779908857,0.40043067636788343,-0.0259697406766516
64,0.004466214211570341,-0.4199021401545346,0.025685502242924207,-0.6367126951036095,-0.3963352629863435,0.006951773740179851
65,-0.2738061590433686,-0.0029951507705491265,0.08383358312442801,0.038039911726131526,0.034948217866725084,0.254287553994204
66,0.015191533995050355,-0.18979518275163254,-0.37535435987290844,0.008196511701439702,0.3234699609183115,-0.011562660186072753
67,-0.011954824452889867,0.13398966643510357,0.0493818112647183,-0.0002169820021614144,-0.255781045143142,0.014330017980598495
68,-0.016252301248062317,0.07782081265204444,0.10460617477488099,-0.04157315655663252,-0.7491393829085039,0.018974084436116027
69,-0.004466235266576302,-0.38276980325516563,-0.5660563830074579,0.05301806294716377,-0.0671261786880479,0.008520155792593504
70,-0.012832549289365613,-0.1544651643017778,-0.4226069068912135,-0.05738446330176494,-0.1691083064998949,0.015619156357481916
71,-0.3685444341238101,-0.011786967978735463,0.1381909161489111,0.07785066086300219,0.3388267641630036,0.26300024184377596
72,-0.009552715685125168,0.06651231458086337,-0.08418080867465039,0.03012709616536491,-0.40356983281249753,0.01365074459901316
73,-0.00765448416315917,0.1483502497549739,0.18503288694906506,-0.15428720193055612,-0.4995684784622846,0.010241062932206842
74,-0.03242344945201647,0.019210510141443815,0.07005131468250125,0.5109140681832273,-0.1855241463050405,0.053202251613707265
75,-0.006980270765196139,0.136308975636794,-1.0519205161387293,0.11576002750152259,-0.43112614572136,0.011750672986827885
76,-0.007871880480398441,-0.06869159800429014,-0.04123631708213504,-0.07802079507158988,0.19280027596418903,0.011369147798795894
77,-0.6578242467510942,-0.007023387666053815,0.07609519605580961,-0.12930475893776996,0.22693761772011933,0.25857729879446306
78,-0.01020056208066078,0.14018830570676655,0.07243029531084966,0.12020811155465722,0.005043921687370889,0.01253020757916147
79,-0.004565332204075734,0.09653923865486724,0.1733153474819037,-0.06181857080070441,-0.014905121404007127,0.007757320989397703
80,-0.011452103073209319,-0.07357028700784285,-0.28145441161646156,0.24075190485630305,-0.15205456699121342,0.021476450257582838
81,0.019038648311336726,-0.2783214199618789,-0.09714508845747744,0.04013500022968247,-0.09830025167747714,-0.014696434367026995
82,-0.011462712007789588,-0.25100993159650786,0.04148610042322054,-0.1086965278829764,0.15777956843491409,0.018845703968549423
83,0.01118757808093207,-0.030314682367196477,0.15304009570129384,-0.42896009653710504,-0.015534659239769905,-0.007699450564259132
84,0.014139187301004386,-0.31705484780923576,-0.3888032429974015,-0.10277133367136065,-0.09924893556903636,-0.009063780670594315
85,0.025478859297843437,0.22035854054528958,0.17043818623662843,0.3000247447483545,-0.08204057158934383,-0.023404817778997493
86,0.01156453163794846,-0.316439944618316,0.07319619350218265,-0.3368896341344474,0.10312753153236925,-0.008187632163608032
87,-0.00026339047393697523,0.0942631857046834,-0.5391419315454989,0.36139188812415446,0.10508910734207061,0.0025115043310453985
88,-0.005796893494485533,-0.15895894881604522,0.030712355956211135,-0.05202926807553521,0.3701101428680008,0.008473662896210772
89,0.01270194611707054,0.03218632505781727,0.09033163901624475,0.5211272048334189,-0.3578695940977363,-0.00999061243073229
90,0.01166231791008987,0.058555474184785905,-0.08823654500031963,-0.04613115515712912,0.24523383205975596,-0.00897083191319125
91,0.03059507203791889,-0.01813870714370036,0.20208976926721822,0.023732825185355355,0.15029323922885457,-0.02374900783777266
92,0.0006911625192718152,-0.48755088316005524,-0.1268113445459716,-0.6423051849574309,-0.0036035485019104974,0.0024334990019486214
93,0.0073443479923414046,0.029082940561034887,-0.29999582506223144,-0.22329390567013555,0.10849574784533417,-0.004781433417302833
94,0.00537195221996245,-0.08600327572542277,-0.24291050704062828,0.3107832034263691,0.1989558850373181,-0.0008883719164330614
95,-0.00027295784489622665,0.010885637953916838,-0.10563322623666721,0.24874224515986976,-0.3059457587248098,0.004086615688013626
96,-0.016204339425493375,-0.17359495906159828,-0.27904872526710056,-0.2605457957789322,0.006040289352861883,0.02025247228303815
97,-0.0016507786963372295,0.12003787839245428,-0.15305655788289296,0.25520155701027647,-0.23853186110078323,0.005066372086410047
98,-0.021847607245753187,0.008220622213560125,0.15629899767020272,-0.20509963998167455,-0.22732277149215818,0.0518895605310523
99,-0.2823495829602656,-0.0074728448736661734,-0.10939299857718904,-0.39751149110433354,-0.03699598095914647,0.25964809882381296
100,-0.022243397423206912,-0.0031445056650913905,0.07183895356847014,-0.40687924166714107,0.33632280628661415,0.02511953129092908
101,-0.014028528339338653,-0.04124155950254271,-0.005906164788336721,0.11150607775026078,0.35970677171583687,0.033514793852409276
102,-0.4388296661059329,-0.0041772226445231375,-0.06646636289496183,0.306273481055103,0.09088081852118457,0.25554869386325446
103,-0.0029595477290249583,-0.1921110843884506,-0.3592439156356526,0.12570430907565378,0.027413768464919164,0.006268281233728704
104,-0.00590145590798008,-0.26135036779378257,0.012258278006563206,-0.12244123301716098,0.10514603966487474,0.008269237367487586
105,-0.0022584733840984583,0.1050787216261806,0.150402907519254,0.19605755683999038,0.06836924298278196,0.006373261098871626
106,0.005425063261247365,0.07090430628396782,0.05761707449123654,-0.10240451138122408,0.2940717259809478,-0.0026220629001674754
107,0.008618611137117815,-0.1558718548617134,0.19508976406239043,0.2743751962002645,-0.47010597299698,-0.004449833975257752
108,-0.003535873499600717,0.07196031049303797,0.022050398353540057,-0.8457112819690684,-0.6476757905207675,0.007479471792226105
109,-3.982500865506999e-05,-0.06985624191470308,-0.29341575911179807,0.06915965962019133,0.17005793328956553,0.003445149312468857
110,0.027262832466999676,-0.0684130624737973,-0.18318211245680255,0.10013211839592406,-0.6822218580346397,-0.023727497442725145
111,-0.3609505893045163,0.0002839908127675317,0.24285526871499508,-0.2897895556762503,0.1803155436352583,0.25127154347270625
112,0.007094776311654671,0.00837666894069744,0.23205390042527285,0.30731319967761506,0.004449374742689083,-0.003638132704394957
113,-0.3117656596631567,0.0009403996624646194,0.24319796106535685,-0.26336896263915327,-0.07452202266622704,0.250494247232556
114,-0.00995730700448938,-0.0334435986253,0.005282919334742453,0.2913194503560963,0.020845785386116922,0.012333590580655255
115,0.010565154363654239,-0.2127144464051357,-0.05852373475714662,0.3896746837931657,0.12497676616509495,-0.0067336905450796625
116,0.004088365449971043,0.04578744496938614,0.1199188652882609,0.01868426961682562,-0.1460366428277405,-8.167011565910798e-05
117,-0.002690993567868949,-0.3218917127565402,-0.0009171744645857238,0.03213303193885797,-0.509038173906615,0.02192414024705995
118,-0.4314579252970282,0.0032261646506719366,-0.21795827600534862,-0.5039718156229086,0.2571922910187828,0.2489147558107391
119,-0.0022184679790459017,0.0728815540000275,-0.003023418425766755,-0.2078332168389693,-0.3354632878043638,0.005393515868476061
120,0.005520095470273656,0.12526338210388077,-0.10313383957321937,0.11658502925801367,-0.35405264291802635,-0.003019366774464288
121,0.007505843319924432,0.05481089603197287,0.007273774628266616,-0.409632237798703,-0.19025318223112397,-0.003417356613345328
122,0.011088523068165435,-0.05649332626388959,-0.07475064144508803,-0.09460931157749847,0.262279055959987,-0.008070665241393545
123,0.010433359961450561,-0.25799224188442277,0.2611627675179228,-0.11216172344489383,0.4829948112841912,-0.007234190128846785
124,-0.012026251084084949,-0.05403222121123252,0.16920843818478892,-0.17552830656748317,-0.4396747330782075,0.015179634394173809
125,-0.0019030869299061504,0.1730182016379762,0.04715840657646542,0.02134827753851659,-0.008874652235689617,0.004353245574298126
126,0.01756748015736065,-0.04006127535017945,0.182876387446263,0.06238456388762281,-0.17425048512555158,-0.014906063296813045
127,-0.41384777691026753,0.00854645346075511,0.16905349746361942,0.04047897608123224,0.13950012070426526,0.24298200589049038
128,0.00013765247600061592,0.21800194577644205,-0.2597804456438154,0.28742130719484826,-0.21498238904562422,0.002245932115265714
129,-0.46158677756752087,0.007378838361095874,-0.05748396793803534,0.07635587561255147,0.12759397460582284,0.252858432873357
130,-0.024040716920457506,-0.311463817211735,0.31390699800332833,-0.36952607412450783,-0.10882674948089252,0.02684968068313192
131,-0.013396801515930368,0.0005121705362454154,0.1454193524017111,-0.07733860438046375,0.008435844990440422,0.07551047054364808
132,0.014969026284801679,-0.0185234708707408,-0.5907917864650752,-0.037573435822520096,0.170285713041895,-0.009119531668670607
133,0.003032920995422961,-0.09760360708520188,-0.22886434725277577,-0.33031496614848804,0.11792679154142738,0.0017203464548998454
134,-0.0027124676433789574,-0.39367554180708286,-0.16344791518075086,-0.12564986560232747,-0.06265472805061861,0.0074311918859639265
135,-0.45634882166522994,0.01328918418613978,-0.07465664986435777,0.1000787353550221,-0.04603587195579026,0.240086695531488
136,-0.000498060223802832,-0.0037311149195727866,0.0448554686413517,-0.06515998018066621,0.2896459654764526,0.05836934947467671
137,0.003942693137848119,-0.4201609072108747,-0.37152210896307764,-0.03684283823929185,-0.26114998868087863,-6.615719907349557e-05
138,-0.4759217567009677,-0.0001186718295560496,-0.015280089224309956,-0.1120522403872477,-0.2049283232694361,0.2524039816755813
139,-0.00045009282235508596,-0.24646672326488372,0.39964822221561447,-0.18842922384903046,-0.14002624976964956,0.003438108506747085
140,0.012946646606834422,0.012186633978940042,-0.14586230915286685,0.049320268089010966,-0.17959842725224834,-0.0096827271630018
141,-0.01070711712967587,-0.005215875131616365,0.06941551136504376,0.2846657965965844,-0.2711789019787784,0.11492744480121928
142,-0.023392024599856787,-0.10782754172256981,0.13891590768874207,-0.00863456767354831,0.2547824461557273,0.025604735140270896
143,0.000165928464328724,-0.03707011939682492,-0.10985574614530519,-0.023643364191804572,-0.029223081738412343,0.002653342370852988
144,-0.0040566202935555795,0.09167033814557679,-0.005351138447561354,0.14675059250763922,0.39787937509043547,0.006238550420388492
145,0.015355269215111766,-0.516276913978909,-0.0717502069134765,0.03167440637310709,0.08332910595735804,-0.01075605003157416
146,-0.01083211385944427,-0.11513387830470734,-0.14109693324273026,0.04203781725516975,-0.02667085994942947,0.014007079543160762
147,0.013173487839444942,0.027584662513742697,0.15690939854464425,-0.048019575447897755,-0.3631121860120504,-0.010089232441683998
148,0.0014936194670427394,-0.08954095089487224,0.15600767798283732,0.21904267618375572,-0.3137762755361013,0.0030839868461642254
149,-0.019948698710813173,-0.013883958713340805,-0.04115158090030341,-0.06466954638923461,-0.10892692392136988,0.2197604419124582
150,-0.005743624004818981,0.174576844100523,-0.10899278383241512,0.21088178372320487,-0.2930318637231984,0.008435871880810191
151,0.007340848343731166,0.21970334004810044,-0.0024387256640622246,-0.16299472316723856,0.3093733279644614,-0.005042653865999091
152,-1.1303549095644205,-0.026645886665030316,-0.030378741869715564,0.013955190752595326,-0.16570850114927932,0.278604070640974
153,0.0041738480654536225,-0.06427699755838989,0.3231807879376899,-0.4826388432866003,-0.15238598020596167,-0.000991342695293133
154,-0.0019525779051313696,-0.1390443705310611,-0.15938039229310252,0.4897173234749912,-0.5403563045196115,0.00526315932775542
155,0.012993229925944982,-0.09935135336177159,0.20034326672481495,0.11490449640153994,0.15834274549495486,-0.010710141080610447
156,-0.0033229207119467308,0.10760072228808659,-0.1810092272694736,0.09852054308001779,0.2354205566096748,0.005678323498855935
157,-0.4471911757191198,0.0021339760463523483,0.03808461573620259,-0.09392796000626247,0.26658582206451553,0.2523799275521642
158,0.022615615222249863,0.06282590903782403,-0.26502818638861103,0.13216816355184946,-0.4053527767897577,-0.017772086389590006
159,0.0074856192898338225,0.13103510321972756,-0.3149470444782486,0.2548797047704273,0.23464703837237977,-0.005623646562951581
160,-0.0036271108140468744,0.15169983963790812,-0.39271607486611,-0.14883991244078554,-0.23423377800372888,0.006914688280730661
161,-0.008365476487148804,-0.2669571997955823,0.09794938321243107,0.3612505566243146,0.019306648405640614,0.011388896234879212
162,0.027335563367989923,0.21072932457475324,0.16027938248045326,0.3309971317684547,-0.5577944377394517,-0.023915853919041545
163,0.002545152181724797,-0.22698279919356656,0.041463757629437326,0.41180893777290284,0.11481112718935232,0.005623673338727349
164,0.00636557383924119,-0.24404695857321246,-0.026040625730441247,0.35553748163016774,-0.09862786328087125,-0.0031831543469659665
165,-0.012114709110663924,0.010981851496699835,-0.255083002994468,-0.14139301683531091,0.043761373003231574,0.015419980384733753
166,-0.02344291509541152,-0.0038287924227139447,-0.685719168090066,0.09269055582240437,0.07636864700389495,0.04013186686031076
167,0.008683925373489831,0.05435171013358331,0.01947031541181843,-0.19295032492808312,0.14526393680614458,-0.005758227282647931
168,-0.012028552848910357,0.2090454115874687,-0.3279836843637424,0.15552790525495763,0.25580669568702896,0.013689973313475639
169,0.004315851195482612,-0.01522295416764341,0.008178115202093217,0.0006019292950726896,-0.09752697873765037,-0.0002769539091250408
170,0.0020027267241338187,0.010089263559225903,0.2466845116128722,-0.07090436699911373,-0.018010283328547233,0.026070237006544084
171,0.005311467162132821,-0.32512397983406294,0.058443513558539384,-0.2783425644142487,-0.3475272065993946,-0.0009544222737600649
172,-0.004236706626561615,0.011726924687626705,0.08371847707317104,-0.42690515078508334,-0.012762956975956558,0.07551241562378218
173,-0.01900398773803169,-0.01622494296404442,0.10926835022505987,0.2686953869175147,-0.1809500569171316,0.02567107721072134
174,-0.007806770109622274,0.10777408168865044,-0.6193875965029387,-0.2789225681630281,-0.22245897659780198,0.012902198873700218
175,-0.0028780917319565225,-0.30809459587813676,0.027315855678650913,0.00787952245438811,-0.043446576079807286,0.04793573978390577
176,0.012944031707144088,-0.09411150710549221,-0.21715278346408134,0.1348659681017138,0.17378223963539446,-0.01029305550166955
177,-0.4076740358716946,-0.00328692809732134,-0.5910500561404676,-0.13104327800394344,-0.45257949909384065,0.25623540579616366
178,-0.03212696051507857,0.14851951843792233,0.44634129329102135,0.20942667431996553,0.3757925871723826,0.03319738475193681
179,0.006274326741596781,0.1335474169177766,-0.18668666790872196,-0.0022037925098207234,-0.21702854867370236,-0.0023861038119890507
180,-0.008416290723526343,-0.19546662348229715,0.021381451163676846,-0.1959747582123191,-0.4648334738380897,0.013155824706734166
181,0.010381852670712899,0.07462031899039956,0.17257753942793053,0.05473296814722062,0.006970567242002013,-0.007206968455766764
182,0.0032572435965745328,0.09696495529604898,-0.19611425018997009,0.4063126831348324,0.12238965677020036,-0.0011215061031156438
183,0.010421798098146917,-0.4728405305029974,-0.11669460394119557,-0.17162139639961316,0.18569647007894624,-0.007211925713807796
184,0.007323038712173435,-0.0535548414893654,-0.03449521759939628,0.18853204132879264,-0.08948594582570057,-0.0015005977087355858
185,-0.2773690492446149,0.002424143475978968,0.06515236943818381,-0.30456775519783574,0.17444826447902323,0.2494879093031942
186,-0.2806409389900332,-0.011519195097027035,-0.2612431723606138,-0.19968503072933197,0.10089202582274837,0.2630470241908488
187,0.00017461580519806397,0.1717411815859493,-0.40200366386576414,0.07337379833338109,-0.2235705334559922,0.0030833891796120953
188,0.001237181218044725,0.21888815379348847,-0.20187232706263547,0.4339087574245333,-0.062019310067330025,0.0011094258297724082
189,-0.014740881021855445,-0.032790666534709634,-0.12386290958422913,0.11292656776919913,0.1303684044894851,0.017142960096134086
190,-0.5715160968847954,0.0011966743721204542,-0.0352168217410323,-0.5056171332968726,-0.22951718334126692,0.25146931034718245
191,0.015370781013958057,0.030462432346733626,0.4158529280225217,0.3612109423708326,0.21296810104902647,-0.012901840650952727
192,0.007109677923484048,-0.05292404354801128,0.05690349724310362,0.23079788592554162,-0.17801635317534756,-0.004197976647777796
193,0.009446873921309829,0.11114885019546772,0.3117209190676018,-0.09237652042268019,-0.17876962970029478,-0.00530444970104345
194,0.003091661223327824,-0.059030178694086666,0.20435493252387382,-0.15114364969049152,0.21003559690480256,0.0006518667995207579
195,0.002511855387152817,-0.37809559861108494,-0.5863667056201374,0.4563830022759532,-0.02788716589320117,0.0001591585022440995
196,0.0009202568984125747,-0.14468303584036513,-0.07727534881333237,0.4613984612530817,0.11744230238435238,0.0011261015049032722
197,4.7499888086166564e-05,0.11074130668171234,0.4869847547912949,-0.2920789197997715,-0.2501513951004728,0.0018304618334257612
198,0.004348257876980899,-0.6876859199087252,0.16754275655221063,-0.15561572141686,0.4896728134263816,-0.0014598795357764175
199,-0.021456344994570165,0.14056658030411873,0.3229914058277287,0.2089193198353162,-0.2062953133262267,0.023053690554338754
200,-0.41553887085709873,-0.000895853305125871,-0.39188138884761303,-0.3769369044307037,-0.3670732713424994,0.2544435060967082
201,0.00010866164062783845,-0.013021430803984102,0.1794488732155879,0.2214266339591815,-0.5822341186815687,0.01418133728371322
202,0.0012998212927328723,-0.1155104340329316,-0.50355840589753,-0.414049704793126,-0.060353835805104145,0.002568584706106776
203,-0.00624579626920474,0.10763352954073502,-0.08050899492150104,-0.03722394293619974,0.2767283837787129,0.009519518497818171
204,0.004802808837949923,0.1191842348862987,-0.11719825712562087,0.08861671750841066,0.09416454769147631,-0.0021797696838497358
205,0.002324732121830708,-0.13534318911074683,0.1808165274918161,0.06109090740914097,-0.11775842478983442,0.00028201042761647843
206,-0.004082307345062097,-0.17953208755673322,-0.3425190113503812,0.021466975149411704,0.0021557756687284324,0.007817336067296492
207,0.013980989924781584,0.1283895009646342,-0.021300427252743115,-0.12747660744227565,0.342496534569928,-0.011708263528614588
208,-0.001695551186607247,-0.10878293935804884,-0.15264581555155227,-0.3013077700992059,0.29413067470364884,0.005615272784754962
209,-0.012605773042177915,-0.23141493331500618,-0.05259334954588629,0.0858512773101549,0.1759617166368414,0.015168780594299278
210,0.008082773348486283,-0.29135348798913185,0.25494393456803643,-0.20668236518799393,0.15009764755948818,-0.004102544507205858
211,0.002090655673759656,0.09520040158007326,-0.23767078481680648,-0.04163710992184322,0.42853758884884074,0.0019075074205431519
212,0.009632169614811836,-0.12097516314284351,-0.04425730086840468,-0.19009535268323577,-0.27695692101818553,-0.00655677485702272
213,-0.8894819332932544,0.005380287944660944,0.1430381603812243,0.19279750168693444,-0.2156536106458256,0.24690608871406258
214,0.0024863437815865197,-0.559194611303969,-0.23947210423101362,0.02211650679346172,-0.37676921487319937,0.0015337698217041179
215,0.009649237867178195,-0.5155247071988105,-0.021167014423905783,0.4781960824054826,0.7369378875530811,-0.007718536753105218
216,-0.007956112205402155,0.1748810420164678,-0.07698279940128999,-0.5401908553061164,-0.20634332487365176,0.011489247372798491
217,0.01051064728399731,0.015692119001010307,-0.3206932733166719,-0.4533444225142594,0.13792568225834922,-0.003735889387043426
218,-0.0015932403483495117,-0.4076309688924331,-0.16149903536780447,-0.17969392346102223,0.33986040744710366,0.005450229959525131
219,-0.004294437571751519,0.0018414865161390237,0.1373599611300147,-0.06043164487855873,-0.1622816350650798,0.009214639483138854
220,0.010303481777009349,-0.05666099581896655,0.17006164105324784,-0.21485415978956046,-0.3301133083385814,-0.0061926813604986815
221,-0.5142477119047656,-0.007551146601583292,0.0642574022483352,-0.21569149240295388,-0.23048093455661883,0.25966596603836517
222,-0.0037348921628787,-0.2631493606516162,0.17612438759488303,-0.20397706098934912,-0.4480300869818692,0.0059267507573220425
223,-0.32268489116740884,-0.01490136590611879,-0.11440134982459454,-0.3830297351109247,-0.12197521704240094,0.2673820354777003
224,0.004922326649513087,-0.6082393288968102,-0.1494134582057865,-0.4637661662057498,0.3109379117365859,-0.0015616392665262538
225,-0.01550996425130624,-0.27816821986772655,0.08787407566838557,0.21109907560763108,-0.07016329105864838,0.022458816500535432
226,-0.007225440581399956,-0.04164037530395326,-0.15157638320797379,-0.09747026313228391,0.22465669759791057,0.01012908429937197
227,-0.008302781572709361,0.0825251096368168,0.2946023989985006,-0.3062571097677823,0.524543858220176,0.019260946453844737
228,-0.023703618751141464,0.04588583890756093,-0.27061515474204945,-0.09516733156858997,0.19531389316726333,0.02552016558235973
229,0.00804602954074296,-0.4163515959202352,-0.0988613527485307,-0.051645239672301335,-0.22554984053845709,-0.003849160772337382
230,0.013757908387756146,-0.10953842203377306,-0.4592911342154103,-0.17820817480998258,-0.20268529380970618,-0.008279354106241227
231,-0.010667030345753559,0.059958630962913984,0.22256096023593042,0.18237995129834172,0.019474538445999057,0.01393445956893338
232,0.013815977606953744,-0.407035950921202,-0.011653762531265544,0.028617327161871764,-0.30353301767262447,0.2414326928041747
233,0.008161297097144526,0.02724826995806251,0.4152211448929959,-0.23097708399312367,-0.37487556782869125,-0.005257263830669944
234,-0.0014260890385568992,-0.0636342510622161,-0.016806445653833435,0.35957893108846184,-0.5681307853883729,0.004690449162428194
235,-0.009764233574560688,-0.07272420855270922,-0.4513918786990937,0.37615692596932115,-0.09276133864078975,0.012618821848306653
236,-0.005396430693136112,0.051633710219415874,0.2728550454497013,0.17072601747737093,-0.10297633422205635,0.007449841699099488
237,0.007930061567025248,0.04780260429456651,0.11346608807538905,0.10883307716143731,-0.08737243944013512,-0.0036615395199634804
238,0.011004281631528556,-0.2170888729960595,-0.029887364928827764,0.545822654672476,-0.4262645456273574,-0.007964826634844758
239,-0.01051877454820005,-0.19534613067624595,-0.11264784226442176,-0.06692649875430257,-0.23552249878108134,0.014863205505914448
240,-0.5804256356127153,-0.01827993988202381,-0.4754258436644698,-0.09732043830505793,-0.03637387648218504,0.27066965112346736
241,0.029406504969793357,-0.2053583495316681,0.014908752541062609,-0.1886189808905898,0.13383822779333748,-0.025590417866256758
242,0.005720544546955031,-0.3190081231413598,-0.0806782678529237,0.5314644016588113,-0.11381197843683899,-0.0028367078236691667
243,0.00890884922952151,-0.08833989386056573,0.06668824528477302,-0.015670168333692835,-0.017963966090517758,-0.005993426821319008
244,0.00408965276902995,0.08314813950228617,-0.7194090933713378,0.2945254711037898,0.12126310309530924,-0.0014916386792092453
245,0.006888238622106302,-0.00976268891024934,-0.010004322604942717,-0.15021451757128343,-0.4374726511752702,-0.0007316880585523905
246,-0.0055501264210789936,0.04705952570249794,0.22508746213455166,0.2889019265785746,-0.38319943898511877,0.00997751146451501
247,-0.00845591071709395,0.18399051114351472,-0.06155405715740464,0.1446369880703594,0.26188567614041847,0.010595049010288312
248,0.011709155397398918,-0.0009395387426005541,-0.09396539119154884,-0.38963350213953296,-0.33705842026741867,0.21420695816531587
249,-0.000518658856247467,-0.013443852047282379,-0.16522727698887457,0.15860050394568037,0.03343039082705068,0.1103605065190808
250,0.007150950285071733,-0.17819985370884095,-0.16413816105003876,0.14832602269573925,0.4313792646868343,-0.004017842928311802
251,0.013903032679642102,-0.3503730643294142,0.3414300827829695,0.0773109908211494,0.04092051877603947,-0.01112738459265729
252,-0.004005137203418774,0.09767855325919583,-0.2315328520550437,-0.0010361619492491592,0.06315107512390916,0.006777868588794081
253,-0.39044969080652847,-0.017217332776511385,0.153721088488172,0.32720545908962095,0.19854737228058966,0.2678562991817515
254,-0.44029970410161834,-0.012479366454853702,-0.05110832360385692,0.12514267008756252,0.2447573695586695,0.2652138945755988
255,0.007072838030311557,0.02744259870540733,-0.16337379389257295,-0.11008205905567159,-0.2934842928930948,0.013629378887693019
256,-0.007325643493909961,0.1096755150599632,0.37811996725597197,0.028918731786797935,0.026983330409990958,0.009046143247717372
257,0.004884282720791555,0.16966714618020784,0.19591192424858372,-0.4055618183004807,0.19413816997885558,-0.0025549380383688915
258,0.0033834933503638087,0.11042795581713738,0.1821053014350138,0.2568281876733056,-0.16524370405106947,0.0027834439538177323
259,-0.011702026913973596,-0.1822762852856573,-0.47719792898447605,-0.6534329356737263,0.26792045742055026,0.020324820976256344
260,-0.0010864156809253789,-0.09671237471648031,0.2706407311243775,0.025115554938997697,0.1970190676418358,0.0036181132666890333
261,-0.2642146231354231,0.023585413173597747,-0.2980211788998839,-0.3245458196238129,0.050464058830787695,0.23026126758148222
262,0.003448713852220786,-0.03614269498774059,-0.48921623811962683,-0.016473056436516365,-0.015823690884894215,-0.00021297320921548818
263,-0.003155641863520575,-0.18021036658356093,-0.8027204091333087,-0.13267641263326296,-0.061729661485298515,0.007474975903088307
264,0.006354318876253595,0.07465495335207673,-0.5887264839516824,-0.08605078287961077,-0.11426355316402884,-0.0031848654833380352
265,0.010197990306692217,-0.20344168775726446,-0.22898895077553078,0.1934272867121185,-0.054794078158392906,-0.006516186732622009
266,-0.3936713192529562,-0.008517037689240947,-0.1920217529312293,-0.25597529731949703,-0.23084537016177517,0.2608266878240875
267,0.008506680379065878,-0.14946615976683308,0.1521855391933774,-0.20122219900448912,0.5301128533057158,-0.006237350955586589
268,0.01488708173333353,-0.13877274441349963,-0.2996751024510446,0.23255388665666388,0.11290758700347348,-0.012032217892135122
269,0.006232183276710046,-0.15600098184993194,-0.1674423034045942,-0.11071577575757735,-0.11137658639722109,-0.0018108495027032404
270,0.008166757919228163,-0.43724018781367285,0.385344384784044,-0.7158677997438481,0.3959892322480404,-0.004845161154359084
271,-0.40876941796873645,0.014282228165421906,0.06991009631573875,0.0761258257700716,0.3265911521638559,0.23693335159351128
272,0.0017930838538027238,0.0879447413167046,-0.4590030863280081,0.02450838027635388,-0.03656768282634909,0.0017283221223644432
273,0.0005721685219497452,-0.035787554010573874,0.254463797589365,0.5316296317590412,-0.13449341109859742,0.0010998495625601208
274,-0.007446125749733357,0.05622537987400722,0.26080375150984914,-0.08568288792742823,0.2839394929139277,0.010015821228454114
275,-0.0020169594511963984,0.13924491185461885,0.3051247277605681,-0.12378647009139049,-0.17463818427956274,0.004112069054638596
276,-0.011606387334027302,0.026409032697592427,0.2451054650867287,-0.1219343749353547,0.01883228600492426,0.026409319408312877
277,-0.49919649112191034,0.012188359697388962,0.07563057110811666,0.20850775289368173,0.034621331417321766,0.23979918279669718
278,0.008358467778793788,0.014233912659098014,0.20879865854291113,0.32541777595168886,-0.29323994737203496,-0.005449264135357771
279,-0.0072195367778772335,-0.5759754761554596,-0.8932523291297896,-0.17114286617862487,-0.121594961604615,0.0119311173549635
280,-0.009023035759660347,-0.06367125691761444,0.13435908779510042,-0.4682711013455626,-0.4584284015521754,0.012142506704960943
281,-0.004468878106680063,0.09650022350641396,-0.07219110960612823,0.1368116494426439,0.0750186276239484,0.015002863395223175
282,-0.0009284465885424087,0.17066045950038933,0.38697723456061894,0.4157687908268184,0.17404866325984475,0.002223098359339565
283,-0.003915025346950873,-0.009028394494168368,-0.5686922837927817,-0.19164338247772927,-0.3686408641620997,0.007837350472112484
284,0.004707574368687961,-0.5199111157487186,-0.25858080591903976,-0.44346418197244064,-0.20326068443289133,-0.0007816225745855263
285,-0.28693912291025203,0.0010297656221658347,0.10368332153785886,0.04226291139879901,0.17636851841335416,0.25037996250289535
286,-0.013396261967317247,-0.11602833778196653,0.10220057426938245,-0.11633446837565986,-0.034116549292061704,0.018549233516064488
287,0.006355807876431641,0.09666434171195026,0.47463685773139164,-0.42137637245958237,0.025681743020691983,-0.004881227765264157
288,-0.00010422510669871876,-0.23276169485696474,-0.25248261476780187,-0.18932947628964633,-0.3387350252440457,0.0038696953995766307
289,0.023791526454732592,0.014823346863178988,-0.21120382026683615,0.09197077590320324,0.1694970256161495,0.20281960690906725
290,0.010828345442404297,-0.2498290390361867,0.23334695006030393,-0.43769944956098983,0.3082890180833552,-0.007786317824264006
291,0.0057504714177500915,0.12484416005251764,-0.33635455661937935,0.10468674372367409,0.04870263824316917,-0.002691403807984716
292,-0.005057668548163252,0.243765464447378,-0.005495672438213306,0.2815097271851442,0.007491301956365992,0.007547822895187164
293,-0.004005355152486567,-0.11025433583063404,-0.14997722460581397,0.0974553979114593,-0.36304131324518446,0.009204459117466104
294,-0.41072955250070353,-0.001678125956051768,-0.3123145478291893,0.040647510369092366,-0.02298963485246691,0.2540327636635506
295,-0.0036017807142004754,-0.23924082754571452,0.2666673703537624,-0.3462845563951816,0.02567930865459367,0.006726683770898853
296,0.010704402128265622,-0.495834529490791,0.08710450608666698,0.012439618001552466,-0.32978552287898866,-0.007231729884112065
297,-0.010574502466471625,-0.013275090648685373,-0.015423947413559513,0.28455803514686573,0.1433725259981184,0.012618588593654749
298,-0.013647393173421452,0.08510983689093987,-0.4030852898540033,-0.004347025087921119,0.11729323413122361,0.016150376811770183
299,-0.00010103685391016359,-0.22164261230237225,0.031806329612902196,0.0957315864388012,0.37516617374089545,0.007925988096334368
300,-0.009511369441505102,-0.32233470982854673,-0.08664804236586598,-0.11902457731494281,0.6471481071531374,0.011732246894592936
301,-0.005682289697018117,0.01580932416347991,-0.1171067009155844,0.1985741415320742,-0.009229967532956657,0.009031115803974898
302,0.015974201138081456,-0.2256674872834985,-0.3174565023530431,-0.20538363209289864,-0.22943309024009662,-0.012590220599045097
303,-0.0007654485251089582,-0.2867103483377609,0.1590391493387786,-0.30215274473454845,-0.4180715517311673,0.005097026401979201
304,-0.6049486277129801,-0.012151583400072719,0.08713670777923732,-0.4101591301498626,-0.06582715225572697,0.2647217852140969
305,-0.0025107158039062716,0.0057768903203313515,0.18431033272954755,-0.04045057326470214,-0.12531034041863243,0.007563405052546114
306,0.009145546481765132,-0.1727958222318533,-0.2349928785024536,0.030191285387737576,-0.2807939686061512,-0.0035885423151774377
307,-0.015014437611742704,-0.056534797984007845,0.061465948141515736,-0.017983107701335488,0.13820035248539392,0.02137415351285199
308,-0.010475931146502249,-0.1585678464158723,-0.07131262312492831,0.2798056561604406,0.4056830864209553,0.013029566656384122
309,0.006119141225042313,0.0468423586418506,0.17791823684167007,-0.04310926787083391,0.12020952656322548,-0.002488553037942074
310,-0.005548578431367135,0.1704624687630657,0.19406969147664743,-0.2687217814855207,-0.19680611513971213,0.00892131321476918
311,-0.00027337790833326103,-0.17783533835635612,-0.061356389399129296,0.29655080140046763,-0.21010211800634024,0.00310422184480085
312,-0.004617793391964664,-0.10776537395963326,0.08829376932761779,0.04605289844000304,-0.056227725557592284,0.011772070815096777
313,-0.0020086564370856985,-0.22679494271962808,0.25458333033909264,0.39923790995694,-0.21951683171032715,0.005261090146805509
314,-0.014998317372130865,0.07541014582190075,-0.07492699669639813,0.11773407003179215,0.29489284351726297,0.018138835530614416
315,-0.0004062681353439457,0.043506857610390526,-0.12961342179097246,0.04190485465747612,-0.0295999277674662,0.02118055586108858
316,-0.003385177404910178,-0.3464154960052816,0.1399969965110225,0.32529743766069874,0.2085926449998533,0.00538872647955468
317,-0.002309463566605885,-0.11872269258990509,-0.19141518684393327,0.16141210441556564,0.2024551158492423,0.010465110431473659
318,0.005139664584541848,-0.06664913033235553,-0.391882884693715,-0.5218922281934711,-0.3098072873879271,-0.001123211053004343
319,0.0027388715083547233,0.2103025928327379,0.11050943829196624,-0.08410455085010277,0.2851391538228617,-0.0007265129159282879
320,-0.004579889206757448,0.057554134677607505,-0.11206954598110541,-0.5544410407272122,-0.28521596523991377,0.008499784522945811
321,-0.020219415232117344,-0.08383385338769345,0.09260809840149498,-0.2380243525186948,-0.1448437027656268,0.026204540510569314
322,0.013010284662279048,-0.4245942548514115,0.16601678959731814,0.1742457315529542,0.5517374025607751,-0.010637922292783878
323,-0.0012314632063151754,-0.04337337416140763,0.18068054310132164,-0.09043235217297108,0.09742204901908663,0.00810270237913901
324,-0.30273938116697174,-0.008928939646323908,-0.12156265360865331,0.3302673686766836,-0.14569093622972284,0.2607712177940074
325,0.01607790910090734,-0.07696466693405912,-0.16739496401697612,0.13828198414275183,-0.258158106423977,-0.012213283758850047
326,0.0045212275579873396,-0.0105712862995897,0.07809756738597617,-0.3946678482007083,-0.3160044039924962,0.0005347360373052652
327,0.0031911448946340126,-0.005035759428296038,-0.08444055462709854,0.14136624181558455,0.12396872243333512,0.16923677239834323
328,-0.003992232815689389,-0.1486131096379486,0.47876447163802993,0.3047913783723074,0.39391998128557926,0.0058036562044619135
329,0.0014166517833691383,0.012242137236141315,0.17042651569015377,0.12818142044370395,-0.045042612028969226,0.13046797613351682
330,0.0033239836884875196,-0.14257261646805308,0.029417275320658742,0.2261789754789688,-0.1440185208532873,-0.0011151032071962618
331,0.005905342653447221,-0.067015418237509,-0.21389207468004068,-0.6521539639674394,-0.1037332065108208,-0.001850265664150902
332,0.007191030648065366,0.10044761398912572,-0.3095991181054674,0.06643262224869717,0.1524127616542817,-0.004893031207878812
333,-0.0065880672084932534,-0.5113327652483962,0.2743534309522988,-0.39577449465793574,-0.07904985515041607,0.009960608906817651
334,-0.01490469419240148,-0.5289615174714506,-0.16889593097950073,-0.02845659195732886,-0.1700683579195692,0.01883139258275514
335,0.0027521914222037314,0.15235950483376937,-0.061751593604201516,0.49114403092774184,0.06407337638362681,-0.0006558953275378371
336,0.011973566289468662,0.11000474206501909,-0.01576086059211873,0.25761507636757464,-0.051231687841211376,-0.009216092557298725
337,0.0023553638633129204,0.021189466253131672,0.009866852337211962,-0.07058934908335207,-0.08751621908950752,0.0007694807713216506
338,-0.005223161303857027,-0.015126520430855717,-0.6029238981822811,0.29670463911844047,-0.1570517393256049,0.009317053151629989
339,-0.0050858316210036225,-0.15353552417954963,-0.06194285249198922,0.4388095194669215,0.041038388551364324,0.008438193446164042
340,0.01191809768182095,0.02832543409304311,0.47832057316042,-0.29809089142251394,0.1706552568416857,-0.009661949934945187
341,0.009733307221336585,-0.35142193165765423,0.32320206331796897,-0.6918288807908329,0.48646710902401347,-0.0066065582626863035
342,-0.004221122020238388,0.14742881811508246,0.20110485852312954,0.030541170170501786,-0.7332183215607082,0.00767811960756444
343,-0.25775652529882653,0.01035837889901825,-0.198885432142828,-0.03816282685399769,0.13144754749412985,0.24104939092861905
344,-0.008255204563349161,0.22748888175317816,0.05685000118191452,-0.08427965328896192,-0.1417758081098181,0.010333815394353223
345,-0.0019077908613657213,0.05799475606447191,0.03854052069453329,0.19404180623134581,0.014693414004527117,0.007079430022433007
346,0.0008968157792574871,0.12287163164472092,-0.1652641518021502,0.2947059386945099,-0.20835461542356717,0.004227988423679381
347,-0.0023218733543010073,0.022495479013404318,0.08488615572401381,0.004719500380391317,0.21923637025646286,0.0048425166207562145
348,0.007215342249499823,-0.12570644728837288,0.05542155701675555,0.3712107718624855,-0.118164239749557,-0.005331780480543057
349,-0.0087789263533814,0.0994135215633406,-0.07975971267308757,-0.23029588511484095,0.1626250474954815,0.012057057172195164
350,-0.0020632767466194357,0.1386099790307177,-0.20460701430510386,0.26247354321693284,-0.12658765043275005,0.004611626111824262
351,0.013653700922911405,-0.09582364925930487,0.13614095274002702,0.26849388090620474,-0.6365372389212953,-0.01082192696902639
352,-0.6113388011370584,-0.0024477811158547524,-0.25394615560145917,0.12722057436348555,0.30553890784131976,0.2552427254578238
353,-0.0031826660743825563,-0.07272106589708927,-0.05174833017157071,-0.059158272008462576,-0.18261865707333502,0.006627741961070023
354,0.0009451931877129116,0.07486307718283847,-0.30480562021811564,-0.4647017245580765,-0.4641532875352431,0.002220875292094388
355,0.005307973647858066,0.07574282924859532,-0.15420870354030725,0.38034072017133624,-0.053566688345624835,-0.0023931380771367913
356,-0.005131584197641814,-0.052565208107679284,-0.0035542381257586686,-0.24303206924545553,-0.1924969907312283,0.011494788226107085
357,-0.0018769575764046031,-0.041230316450018845,-0.29541316781074123,0.28960302689143314,0.2268011535910463,0.007621830427869645
358,-0.010637963120927574,0.06348731005679997,-0.08136740583457708,-0.2187820307828377,-0.12590976583370778,0.014118064121073621
359,0.0006490647132288974,-0.031623515282107384,0.1794954221475087,0.4301622982787845,-0.6506043737821856,0.0017993456150104975
360,-0.016339848193783646,0.03540955934302803,-0.6210579137949369,0.21640273208877148,-0.15464357766091497,0.02067111926732232
361,0.014298156618825608,-0.27349501254819736,-0.02726477648686476,-0.022389719369803385,-0.10228910338571198,-0.011669625472726694
362,0.004258302266092029,0.01772578238563194,-0.145086185609828,-0.25879755029637236,0.07882125775135801,-0.0016315390752266467
363,0.011548198230939555,-0.3015988524305731,0.15822701995372424,0.08201962976715094,0.17825579162673028,-0.008991404363237598
364,-0.008256344354286682,-0.38100865769265924,-0.12545973715879288,-0.7130870855418876,-0.022971687096750626,0.011847824789092737
365,0.012208484420288546,0.04617028508984056,-0.40021172636393765,-0.07684933789941684,0.1198702308554151,-0.008368356850278178
366,-0.01168160429297127,-0.06557123763822337,0.1527476493829487,-0.2021974063555873,-0.1461591015345557,0.016142912023021563
367,-0.009154356502499184,0.10510100882035511,0.12782089752433634,0.2198757341080625,-0.3976367345321714,0.012000866837796456
368,-0.00843324957207292,-0.16442601874661245,-0.2871491966798351,0.06964726863224613,-0.0871500200752553,0.010737560043795929
369,-0.012080251825125954,-0.1174638455712268,0.18396408321364,-0.18587129452625759,-0.18786408072898816,0.015325153224672795
370,0.006085114127227342,0.20635253198012038,0.1598778298691711,-0.006195362012261951,-0.5368142239951825,-0.002942916733461607
371,0.012606955451038182,-0.22758261553582892,0.16047514850696143,-0.25846830611596183,0.5208851304433206,-0.009040379921996827
372,-0.01598937436834824,-0.012461020769787723,-0.4236093345335513,0.14635091150681978,-0.2733030634846969,0.018375680041815393
373,-0.25728681889726945,-0.0030908009464150066,-0.09705942577091742,0.0016117839237770326,-0.3199738130203983,0.25538077419225635
374,0.009643101728085579,-0.14496020556122013,0.14732978594908797,0.06951910287274315,0.06395230013103131,-0.006763817404427754
375,0.007959455167910745,-0.19292688273839287,0.11892143639281028,-0.13678327187755662,-0.37220685608588466,-0.001623904736644181
376,-0.008820464814728868,-0.2422848305917421,-0.20404059897512783,0.1815849036547219,0.43785035351834867,0.012103324353891184
377,0.011951665960206581,-0.011884641736806811,0.0603636574251063,-0.12983228012413334,-0.11453791106762606,0.005421732769539449
378,0.0036756712778251988,0.24334483334015122,-0.4040086847121218,-0.20544850480843754,-0.15822760574693506,-0.00047882010137891484
379,0.01618773296489895,0.008488408522676294,0.06571395395452351,0.12637884283501388,0.45844542706822455,-0.011377386093161477
380,0.0006470501225968039,0.028845327194582326,0.19571036811632103,0.3995449095060061,0.31105362768400047,0.000903114035789622
381,-0.005295215257695718,0.13000824080772588,0.13732802668275756,0.29877906536653975,0.16773330159758781,0.007512713690871533
382,-0.6138365845165707,0.00885956188321968,-0.650016805825409,-0.41140247029371346,-0.1498484205452565,0.24446035876587702
383,-0.005255726669503913,-0.05844975167361932,-0.18804568886552525,0.022305277431402704,-0.258265519180636,0.008359446000236312
384,-0.0038261789225305654,-0.44515992135126153,-0.28409347887453607,-0.2605546919954568,0.4043726182328258,0.008442081331922055
385,0.01748745230607307,0.26362628087332984,-0.23917871151105963,-0.6300235490079398,-0.7028958334160975,-0.01307888417424365
386,-0.0017862182364842827,-0.21589030506972984,-0.24620262867862436,-0.5917981392395959,-0.43264703037249386,0.006471929436023311
387,-0.4035970567963585,-0.020292746456003208,0.05780457591491939,-0.25966604414642125,-0.41995438600077806,0.27245773758286557
388,-0.3675909347975851,-0.009532569885074893,-0.22228575007993023,-0.28874436326425024,-0.09051640279947856,0.2621504785890207
389,-0.0124203319738585,-0.5133703014742805,0.009134449625016527,-0.33881754957468635,-0.20682875752411137,0.015933147884966456
390,-0.5581849692910474,0.0043458462389901475,0.16782547482759802,-0.093592350008816,-0.26241093778623237,0.24798403472159508
391,0.005965262250457126,0.12696005941940336,-0.07741281134819455,-0.0693108943839088,0.08582393540871819,0.00038717268329201035
392,0.0036876742071656476,0.13030119743060387,0.07776347245512283,0.13163195378262327,0.027892904533589058,-0.0009673882345054153
393,0.015931004753774625,0.03236302128153812,-0.026225429389472643,0.06300058742674314,0.21230800832977642,-0.013292821291156906
394,0.023223393787354718,-0.8154818450698228,0.24983409846632842,0.11648949072385323,-0.04289186564357836,-0.020242455721014813
395,0.0066221261407413134,-0.3372290480551352,0.010142149731201089,-0.053188716471854525,-0.07749214452902362,-0.002944890650025263
396,-0.008106385670230809,0.12065947841927904,-0.08235715406488242,-0.20673865004276737,0.5303619043236859,0.010195287738242223
397,0.027529605574784233,-0.2202114010997408,-0.4592739545900655,-0.1343526378523925,0.5557362172928859,-0.02351285849526721
398,-0.005457050675453434,-0.352711180005651,-0.11087144398103738,-0.080052296238174,0.01884015286139551,0.008610610553047446
399,-0.02364394693289651,0.20850086782869703,0.15828765061376993,-0.341248084084503,0.24369416081106948,0.025630917537189636
400,-0.41671295472773295,-0.00393693709797438,-0.0015707057910752664,-0.00224373878837969,-0.2901535934147287,0.35529362417959126
401,-0.26145763422505597,-0.009814450115775308,-0.1992377800708467,0.11072408976422199,-0.06636679098466755,0.26156933437778096
402,0.02207408774768216,0.0249949694785776,-0.37896081744442467,-0.08110732965072626,-0.5106356508455752,0.058440087026022956
403,-0.0007008699638720861,-0.2720686613889901,-0.22085604878461562,-0.0032637340218392152,-0.31501734477996285,0.005287882010982321
404,-0.2728817034165897,0.0014030611123070358,-0.22211715881312666,0.13344326094871573,-0.06418981832774437,0.2500750140503786
405,-0.014010219881896102,-0.05496941038941694,0.4308977244253799,0.3936900123419833,0.04808917049427203,0.015562547726044795
406,0.007660380734277217,0.08571074286915858,0.113168216379543,-0.19551347478597206,0.00017523278461700764,-0.005021215587227744
407,0.003960878114772637,-0.148387263549689,-0.18498390565025208,0.22480877060234117,0.3023719379290646,-0.0012801894464124417
408,-0.019369649304448733,-0.09145759860855207,-0.20050590124970397,-0.23915403186064924,0.4466253714887328,0.02189966508214293
409,0.007536026633831128,-0.12201766854406226,-0.15837792904733866,0.2810890191848825,-0.5743702395799197,-0.0029186145796273196
410,2.0891391955046856e-05,-0.027629913156526076,0.003785366619837194,0.01048107478149618,0.33664853992639343,0.0034355766709144517
411,0.002870942591753023,-0.3710964011898953,0.019607056545429158,0.19101780267092583,-0.024603876165993604,0.00032020421066645215
412,-0.0024637020399663756,-0.1401836459538689,0.06463311559147855,-0.769636396927558,-0.05131209534598977,0.008143620824019853
413,0.0031783592365890456,-0.34028523823644724,-0.3859264126362043,0.5005133682449086,0.1850664772384275,-0.0008389906582195181
414,-0.004930860723857844,-0.15298289653489194,0.258998312911799,-0.2424676042367236,-0.20423409558048336,0.008844401268729598
415,-0.27325001628497503,0.0010721330833889375,-0.2788628016073023,0.23233015308639482,-0.32559007534344897,0.251284658731741
416,0.016512364713979544,0.0006975910030465604,-0.0777418610673849,0.211862796521189,-0.06450115347921961,-0.011950807829617225
417,0.002282614931311322,0.04628803290966155,-0.1807524658987772,0.031599174131449304,-0.2700232544946019,0.00012217345482349627
418,0.009945513056409006,-0.10101477740692888,-0.38273139104367415,-0.11585004628797796,-0.2995895228531625,-0.00534956137168283
419,-0.2569465706042917,0.014738406848367358,-0.23058705208503766,0.05389521744467607,-0.016750763195427454,0.23761497590454964
420,-0.005790919714284359,-0.07486890943134761,0.04292056285416468,-0.3182157923481757,-0.12240309126683196,0.008139790709457338
421,0.0037723133217062443,0.18986883344011263,-0.13208558002198667,0.26627705036894433,-0.06666343592563831,-0.0005017601291605388
422,-0.006892023382838786,-0.0019698171584533464,-0.24645812715650622,0.3300836498393327,-0.3324802591192006,0.10857308357507373
423,-0.023389687316992758,-0.1029176863428678,-0.2422451457176789,-0.36198210488768956,0.5365779821637713,0.026084053196567036
424,0.003986361399371585,0.0954727468270743,-0.20165910203582216,-0.2671542590114039,-0.4484943776542329,0.000639333333380273
425,0.002939952543715263,0.21554570921312732,-0.09105183469221079,0.3363216735658776,-0.35891595894099904,-0.0010794165168914332
426,-0.545934615880193,0.012609194053310513,-0.3865015330048466,0.2702384908096843,0.054124807688180676,0.23907766653595
427,-0.3457314428166717,-0.011900582118331005,0.027965087223154828,0.10278616609631441,-0.11050738643997773,0.28328712055128347
428,-0.33009580171033126,0.0002008035475700165,-0.013702054657242002,-0.1341863756830381,-0.13641444334158154,0.2517708788552335
429,0.004180996412183946,-0.003126228345474158,0.24719908859163142,-0.27800791271259084,0.12193699791591645,-0.0009315876736665814
430,-0.3769979961586245,0.014537259263913693,0.05792925865352527,0.03503312411694576,0.40070670856683366,0.23664549996086826
431,-0.003158135338273249,0.06780612981805545,-0.019283577571704347,-0.2632029834377283,0.14024186937633415,0.005773255107522346
432,-0.0038504001813697286,-0.15801070971728515,0.23031530938974598,0.4046052637340104,0.19632631194910394,0.005928306754852929
433,-0.012353869306695908,0.148049594462906,-0.4161341781695357,-0.4959585363959047,0.08187407427434212,0.015120582528920385
434,-0.005403141473148132,-0.21440359375567708,-0.12577312105184207,0.004372209546472161,0.0031787292973256553,0.009165098331440823
435,-0.5010797779488472,-0.008677366584615487,0.008028661764135192,-0.24821311506207233,0.385872267404774,0.261045462624836
436,-0.0105368193926072,-0.3253297555607478,-0.041295713119247957,0.4592513911412952,0.1092459796360784,0.01310717082097508
437,-0.0021494323137906113,0.21896335070324546,-0.5093990393419805,-0.0959627488308119,-0.25683879093002415,0.00584057734507951
438,-0.00035487365789499403,-0.01710300037963608,-0.06053656022261383,0.4015959174707153,0.08951192005755443,0.011503119453237195
439,0.009766677079009023,-0.46809615898453727,0.05340912421259103,-0.19145444000689185,0.11529212255335824,0.00034971582286725606
440,0.007516405713463792,-0.05406366854960554,0.05463641850477585,-0.2385107599145366,0.28456489716361544,0.0011894640642143713
441,0.00305686827267726,0.0321419565325628,0.06885024364925629,0.11633080541129226,-0.6011382783661074,-0.00044822188200305393
442,-0.007807635243501809,0.0029494658033318855,0.20537426020977034,0.19691238048653703,0.06846336384641766,0.010222973426780663
443,-0.012039788504852655,-0.07991478501780103,-0.27957512187543854,0.22811675708318757,-0.3700768340365669,0.017043496931933622
444,-0.004204893787441599,0.15701346001627126,-0.45759971261634286,-0.18685403633855288,0.1809229798963612,0.0072866521961916075
445,-0.007341415553283381,0.18410860027790854,-0.37897570727118157,-0.14587171949540587,0.11272084046313985,0.009973786139871299
446,-0.004655814473499165,-0.49508126815714454,-0.028257373547085685,-0.09443575421634082,0.17719219867085184,0.007560163382726205
447,-0.0031646836903369557,-0.1746779114755418,0.07923252531591063,-0.09040549551139626,-0.12172792624764558,0.014898485974503455
448,0.009777112551208722,-0.14696479744622803,-0.1227172308353805,0.2641284998335739,0.27213431987460235,-0.007396155735336288
449,-0.2971153178154481,0.000824847318743549,-0.4600158605787398,-0.31859342935158,0.2745723653263802,0.25102254947612035
450,-0.0015045714065692328,0.17220634378147393,-0.04116594370506349,0.09030684167655839,0.21110136241152289,0.004823898220369483
451,-0.0018795839188433527,0.07410471407399055,-0.10463945142361031,0.14587869024039601,0.3966896933192252,0.005144573491993833
452,-0.0051513225543572405,0.02907585522713263,0.20036318516869422,0.28972135926415077,0.010509983369054121,0.0071250303097293
453,0.008033056607703148,0.1013374225614746,-0.2915536132023648,0.0018082280668290096,-0.039460262218322995,-0.004824270592139874
454,-0.0038576671846525246,-0.4733835475937133,-0.11112996764785149,-0.33029118638895816,0.21965263601906265,0.007170683891220506
455,-0.31173560987879867,0.009356647700109133,0.0968226357372729,-0.34492215961217704,-0.22700635228241606,0.24311861811514737
456,-0.005155376621049812,0.18960067272353753,0.06411363627827626,0.45621230239251587,0.1088858833919823,0.006703580214590693
457,-0.011896709880619305,0.046162516122841946,0.24776756980244985,0.060161368786772806,0.09708368736244649,0.014307220924742979
458,0.010425185005788373,0.04102985292924821,0.3276571609682305,0.2552609127227454,-0.0032196882369147917,-0.007874416758035295
459,0.013504145518397737,-0.009732095157081955,0.030939595155343835,0.23308021784967003,-0.39802163641716826,-0.010136172345626982
460,0.005396686886687041,-0.3515472401961108,0.021315573299918622,-0.11822097069323617,0.33430328210292004,-0.002574701058980281
461,-0.3403266396235488,-0.008534398903997764,0.16591228017055037,0.27641537768372537,-0.028685140223460026,0.26033307659003674
462,0.0013645564155422285,0.030076518893222604,0.20476981026751906,-0.23190022852989606,-0.1806776614324628,0.001658219110612663
463,0.019585770333728103,-0.13569648187880212,0.03609962727172633,0.23817799591650335,-0.2584341524165352,-0.01426212577822771
464,0.014116983609416156,-0.18542901566314896,0.04256763740713998,-0.05001351032470608,-0.05718667324591209,-0.007615394600601212
465,-0.004107135506296378,0.12507435237819997,0.1748984649326426,0.14911865727720364,-0.30473662859090056,0.006673848937203547
466,0.003915445899022263,-0.0922460700366341,0.11243502175361308,-0.011778970312152248,-0.15529180028223777,0.0014070439408858874
467,-0.5639658899072435,-0.45150118317335053,0.0010209935263418846,-0.08382812882300716,-0.24162581607926706,0.500127020835635
468,0.006550352009585536,-0.1520826844948483,-0.751481098140468,0.09620620897512672,0.15620730172998304,-0.00128116536065736
469,0.0012768996260084098,-0.5810368516772881,0.0337540162843597,-0.2543469044133712,0.13288367135545803,0.001460114718119621
470,-0.009737285049001065,-0.3900932404358901,0.270183051098293,-0.14952747585990783,0.09941055228966378,0.013304932555459163
471,-0.009510115646875872,-0.3824045458664829,-0.09676260175294998,0.37622040139200774,-0.32769449737981104,0.012027716427895758
472,-0.0048427467778250355,-0.2155770739752898,0.16293180513066552,0.22491770800538036,0.4301647464426651,0.006765396902617977
473,0.004788799176122627,-0.0954964743112453,0.021204944044749152,0.24130692199201076,0.23043373635850256,-0.002784035587778271
474,-0.01524913412406792,-0.26539549602207546,-0.702109072917739,-0.49937651833374047,0.0953859870526716,0.0189812062936262
475,-0.002952569927549664,-0.6522864476113072,-0.45991636068260255,-0.16881546377944,0.09418498216071669,0.005922590636731911
476,0.006241460023478362,-0.053199438942068356,-0.099520118460593,0.016925768169481603,-0.29285425529775233,-0.0032520329334605777
477,0.007311815443582059,0.08138433743698026,-0.4088396742615626,-0.5456276835074139,0.1673857652251613,-0.0007983445460738949
478,-0.004123706239827607,-0.025605293890982095,-0.16335432269468597,-0.1407619888674177,-0.0027278354550153705,0.020543344979608084
479,-0.0005743599477175954,-0.4440155658996214,0.02236483112067089,-0.4068225790694855,-0.32408694871323596,0.004574019455637608
480,-0.009810009367605566,0.02552878524250146,0.3916996111952812,-0.12540106109167853,-0.06664175568637407,0.013197496061817946
481,0.014389850588358621,-0.3159277429591677,0.3857548152065664,0.19237213203658277,-0.44169105368990685,-0.01209037566767238
482,-0.0018496561262723032,-0.0011119471112985835,-0.34050799424489575,-0.051949258751778415,-0.028570462811593922,0.004897345372369818
483,0.020360650618894915,-0.4412953944301562,-0.1625534088855548,-0.36914794218246283,0.0667124079911271,-0.01593166729841432
484,-0.6353303993628561,0.004269145042146261,-0.4226689454486239,0.06788508418386724,-0.3656743966559836,0.25445845866079436
485,0.008262422558575011,-0.025602562694997166,-0.0047847371902883795,-0.12614913577337278,0.018326045873743424,-0.00535127809221849
486,-0.2849802882812801,0.0038207831607276477,0.044620435736090536,-0.21211244346977598,0.2982218428783149,0.24866195107423963
487,-0.008807886178147761,-0.028706668100569988,-0.6585119631795331,0.28190622940601073,0.04438318968770666,0.011890683665008691
488,-0.032621604103609814,0.06111920577526053,0.10374871007358788,-0.3113835845835464,0.3204575079129586,0.040644930053724236
489,0.0006156018286500586,-0.06375121575447218,0.014004776604429225,0.1600057511734846,0.017280445348593132,0.004179394264688744
490,-0.012485248049779796,0.07764513829170838,0.027287659509746653,-0.6684301006883848,0.06959367955850004,0.016143805403970875
491,-0.017713434188039168,-0.34708371151786926,0.29759472445123425,0.14107148014168092,0.322688227018029,0.019968300114576596
492,0.004125259867178821,-0.02107120026172904,0.1671338944070162,-0.0779578011239705,0.15813875003755573,-0.0008969541684551586
493,0.004200223773147327,-0.08459182835015455,-0.20846829356970054,0.5377955320272771,-0.04802793544181691,-0.001751825142513917
494,0.00025524358850126383,0.1051077596252562,-0.300462579726244,0.07166334462990159,0.17637401667050723,0.0032120436251698264
495,-0.0024977137346668954,0.0029061622780235385,0.22141393832855527,-0.47471731006939843,-0.12781506732153702,0.006760649764203481
496,0.007796842430811468,-0.29830727264154544,-0.022624649563640797,-0.8761267987205176,-0.3269485665635151,-0.004061037362091883
497,-0.0008761329580845301,0.06174101511695529,0.32057026682046463,-0.15410766029774414,-0.6053758431170944,0.004424213517703174
498,-0.0018202521883036171,-0.6219200156256366,-0.1656548637287586,0.30542694376043855,0.1397631105530328,0.00452636638622007
499,0.008750546948428806,-0.0020457977853949316,0.2653576498243192,0.44623855436128057,0.030230664129197227,-0.006452113526332323
500,0.002790927295206913,0.035110445156026016,0.09059439508402012,0.23858409004382386,-0.18071123899671002,0.02109862066522892
501,-0.3339211947916617,-0.024826915067111432,0.07835328193088309,0.1910120478174393,0.008873043412733483,0.2762249821573432
502,-0.6024843151751899,0.008478186099790785,-0.14699790473687835,0.19037098839771804,0.017054056281661678,0.24386154428414747
503,0.0015728276040758438,0.02399676638247039,-0.44416901979194306,-0.3749295177879271,-0.1853554176859657,0.08960388765098633
504,0.010995667571368717,-0.4340728503926004,0.1807608359047942,0.051584435513546245,-0.19400661822160237,-0.007592028791846496
505,0.003557085477000399,-0.2570882148353641,-0.21416150517003607,0.21410381714520266,-0.0022819049912116696,-7.613047824161186e-05
506,-0.006274009063683916,0.06424932008538009,-0.03164145105255656,0.12770868297878168,-0.2454791387130351,0.009301231119225303
507,0.021828296833521943,-0.39211251466682384,-0.10064367145485242,-0.1924240758497424,0.26231265945905125,-0.018980549528428127
508,0.018369064649122357,-0.06578755806090952,0.19641319237325605,-0.5972237205296307,-0.22887360491876582,-0.014417261786453492
509,0.012154664169686802,-0.16011564416249824,-0.2880647777542785,-0.03869611132909695,-0.18260009048918843,-0.008553115780614644
510,-0.008015958561256809,0.09955603402438484,-0.06559275390431701,-0.5092396489202566,-0.1983788573525275,0.011997465600548275
511,-0.02002249370345477,-0.11841067254823134,-0.5205545089056174,-0.37959145904145986,0.15087531393428338,0.023552442143435836
512,-0.0005396447152237194,-0.2450733492368561,0.014701313775450586,0.1753411374568149,0.07822426210040895,0.17978572305517682
513,-0.01387567245946253,0.17749626319864897,0.15360554608944588,-0.0679172433521798,-0.4387091974252131,0.01732143474109853
514,-0.012927214973269652,0.0391916507693455,-0.27006221095881444,-0.12988801514801152,0.08680255423831912,0.015369963747500333
515,-0.008186650518317573,-0.33406787155526524,0.014383789721889473,0.09358861724370826,0.17232705664634745,0.08153790605756275
516,-0.022742262250519896,-0.8048100482554476,0.11629200522574468,0.1988441540875091,-0.13257030735317743,0.027949496530305623
517,0.0027066568885356634,0.1834534979460294,0.3801062703589002,-0.10857475114268172,-0.06887569754259973,-0.00025705265742726624
518,-0.0073450453590505616,-0.04546783819788347,0.23957531163860368,0.02043633040772569,0.2201321311251489,0.010228371823577253
519,0.013827237349359534,0.20797899293294253,-0.07375490605413276,-0.29493730390174483,-0.3652691429839132,-0.009974086477411584
520,-0.011394488460612195,0.014810740290560731,0.23199854391581565,0.04698206319749554,-0.0675328797137616,0.014791040792380408
521,-0.014311470286144212,-0.37836951857372364,0.12321372785062978,0.15174613930596081,0.3363341817633142,0.01706371466890814
522,0.0096249709751004,-0.006450720703106927,-0.188723631071481,-0.1826843752780521,-0.47429444454274183,-0.004702377854339465
523,0.0019275732794912237,-0.14115889311956897,-0.3977772707524755,0.19583998386983026,-0.337492216498952,0.010467587762196126
524,-0.01037099665736363,0.1809801958916687,-0.017557313791331908,-0.10934818014932124,0.11730972186895322,0.013178309619774155
525,0.015234512218045726,0.08958028296018672,0.0846287417558953,-0.11371318892913207,-0.07088410241715315,-0.011584369343155413
526,0.005535329682734069,-0.00809075555229688,-0.01593788540786356,-0.07358857986737594,0.11780191985676619,0.11691388246455736
527,-0.0025253586855331633,-0.20879180422817956,0.02915126763239151,-0.060869785057941106,0.10607179817796436,0.018692576752352398
528,0.017291014848262787,-0.286126984273975,-0.2261148095292413,0.18187392662679613,0.03752737557663055,-0.013928226549622195
529,-0.4008393916029799,0.0037974274902232708,-0.22101211693337836,0.025220137893054828,0.1157382216492665,0.24804792486276983
530,-0.011667005599573677,-0.0068015317400997866,0.08471552313723418,0.184812513437283,-0.16645026435818405,0.015151492131176928
531,-0.013042143059629363,0.17364112903412532,-0.07021821543032686,0.15474318878450277,-0.09792667048011086,0.015590561934266407
532,-0.0015969839223406446,-0.4100920292263041,0.17699976265320871,-0.13222247980397658,0.08428551413322138,0.004890069987322386
533,-0.0023880401099600768,-0.1314881807485513,-0.5081203691154288,-0.046055327097628884,0.22973691172125876,0.0049594149147606
534,-0.001910057870620152,0.22248961259791977,-0.22797897076622176,0.21094934085319694,-0.09618322271211346,0.004595732705970841
535,0.00664633772292178,0.09629746966055275,0.203588227931641,0.2169092313041271,-0.17785708131526193,-0.003027752811463688
536,-0.5676726709945445,0.005380207164219275,0.039217969623071114,0.05276448813667306,-0.08534199315108329,0.24640116176564789
537,-0.3758039106721155,-0.018761371596536236,0.1197654249508362,0.283685189297328,-0.05471013598796734,0.2703051823144556
538,0.0008782852639510619,0.20272357275269992,0.3486251434533034,0.011469599013331333,-0.3882713523756683,0.0017433524217818558
539,0.0007108427956450392,-0.08525780946097472,0.10767444868230158,-0.19788638548320425,-0.09259393101755473,0.0016850642528168465
540,-0.0005241051316856593,-0.44180737533624426,0.06277571044860841,0.17786209204648873,0.12990677079558177,0.003490311134962758
541,0.014322037183331249,0.01945701803652955,-0.21710831892972288,-0.30166108592314433,-0.30716994437834394,-0.01036821507869754
542,0.008696152749483321,0.04777856468215824,-0.055750721784939505,0.2034966213337298,-0.156446536333533,-0.0057060716343359675
543,-0.015325030719394395,0.16087399332232,0.1764289540626266,0.06651404815934675,-0.06782503646398788,0.01898802036114157
544,-0.3058125820990082,0.0034756851638854114,-0.05919864006463682,-0.005615757493727835,0.029196594124584363,0.2530285937221259
545,0.010946371527604581,-0.010734019242170434,-0.03278165070044381,-0.31843652200748535,-0.06341140347341717,0.11978019778655671
546,-0.009326354438582984,-0.23685575398288405,0.004019592934865757,0.10917753790624996,0.18648648606493035,0.012055099518919268
547,0.008382362652935127,0.11310181488579929,0.23129447827712435,-0.1476322802863397,-0.2742305588714043,-0.005947926884526351
548,0.006229638444483099,-0.40605977433844076,0.48585097426898705,0.26835465662665825,0.4289936766436382,-0.0044757114474952685
549,-0.018561724661088852,-0.053505664962290256,0.1193161057359785,-0.14232363519005267,0.013851656942794388,0.022478707561436204
550,0.008071061848071936,0.13021439181299455,-0.35735240186892214,-0.0864865693673369,-0.026847978083345908,-0.003174584164536827
551,0.002636814602741122,0.0003718970053313564,-0.005476329856744455,0.379806957160456,-0.5922369691381606,-2.319823741727305e-05
552,0.017096758831133263,-0.07068231842170836,-0.12481069783995419,0.03713855639907637,0.07787211003002265,-0.013685954753397709
553,-0.002942224420228068,-0.29032301340856836,0.20316188651418843,-0.09270723628895833,-0.046801831976270164,0.006606680535438318
554,-0.0016235621528973843,0.0688854138818965,-0.3216432553706564,0.17941285556466702,-0.11912317037903497,0.005107972116831297
555,0.008572431663886437,0.20011028434236244,-0.1992046451648808,-0.419093979433036,0.18413921749034634,-0.005039866711172544
556,0.008544621418276721,0.21962629314627158,-0.13321111563948895,0.38809210369833413,-0.2025320835199934,-0.005708736503281216
557,-0.013340090298686658,-0.0990069605546835,-0.06292178036579921,-0.05775684760734723,0.10034929008748766,0.01644102329785619
558,0.005979965707224366,-0.06363123392445946,-0.3050213538643196,0.3156122582169335,-0.4408414010871592,-0.00037695107576219013
559,-0.012226781225065042,-0.7750629605019822,0.1579884085822545,0.553299182876098,0.08619405034651106,0.014518801319260819
560,0.004211141045424194,0.022150232601371722,-0.11683123547210145,-0.47146617786098416,0.46026510904692675,-0.0009250872101447385
561,0.0007790488454613165,0.023869508162633224,0.1728858195343258,-0.1150365725838905,-0.28410315332086844,0.0030030497127918354
562,0.0053496584262342495,0.05043004506958981,0.2816230369720222,0.04076811026854443,0.2905816871461253,-0.0030098385384599168
563,-0.4550020929821579,0.0037464202583479267,-0.11002328250093779,0.05424781816021945,0.08829145543221356,0.2506735902058986
564,0.02400530325946737,0.0035632186485275996,0.07752565294051061,-0.7933531493698676,0.5756728319930295,0.024573192195404044
565,0.0005111400906159247,-0.20521293824784126,0.16910667579311778,-0.16063992818058206,-0.02714662774917423,0.00306083838533832
566,-0.0218643513805582,0.016596604850464325,0.006543259159330295,0.23642232987158873,-0.2604201694120557,0.027455630148295312
567,0.018345244997937993,-0.3955956470085902,-0.3122312113705074,-0.05672508359598455,0.11545805595060799,-0.01414403973177341
568,0.01297658319864503,-0.4437284870567195,0.1789680999514187,-0.7090294034250944,0.028311755996279442,-0.008773346531372045
569,0.007956504974932388,-0.11114623086624087,-0.17336554274177135,0.1464163030798179,0.1898975786862646,-0.004867518746554196
570,0.013176544691031244,-0.138054816755518,-0.0003427673941315823,-0.041128711179044875,0.39075180479159133,-0.01054930863319787
571,-0.010786806605176835,0.07010335549656266,0.09307313837965281,0.21872066169039783,-0.18738405506459796,0.013389532894314653
572,-0.004139225314333417,-0.09883968748022653,-0.16600751677163483,0.5328163081772475,0.08131200252211684,0.006196818018583144
573,0.0012282389322726406,0.096439567481864,-0.1065538219784039,-0.07684821467719893,0.1583621431572403,0.002065382318520278
574,-0.0050251333363257045,-0.14532562020284046,0.1448089258222528,-0.17642512909296704,0.06845655307110815,0.00812387196820564
575,0.004045481864720868,-0.4465966506113139,-0.11792497147413955,-0.3139883022518025,-0.2567481955836131,-0.00021483317560996512
576,-0.3059821949912075,-0.009006107894296123,0.1064169971704173,0.21623208612562772,0.13758760215320576,0.25988638473305237
577,-0.022544741618492514,0.07898997978457623,0.20729368247509372,-0.21107967819742846,0.5093377420387224,0.024326939472853155
578,-0.00040083933016765716,-0.08545568742093002,-0.06027448597653323,0.1326667868586937,-0.1383261743681213,0.0027651183832276727
579,-0.014942269063134228,0.1258304924185557,0.12092898279745212,-0.11775369116566975,-0.3054137129476946,0.020612153661263802
580,-0.3742317569435374,0.0027653594793555225,-0.02297930748089516,-0.23300802679522284,-0.5768280501184915,0.2505041530630142
581,-0.27607660392154687,0.010070761647160698,-0.14138099926221243,0.25419806785578114,0.2013562316737601,0.2409818619731309
582,0.020479638416929458,-0.0033074254395506486,-0.38679973456982525,0.26541244691276755,0.23432914066401023,-0.018016512515384237
583,-0.009293573469757566,0.1052387558518979,0.06678102977475209,-0.17786859087941403,0.3257371042789384,0.012027140883623543
584,0.01367497308515686,0.003567153828675673,0.02344014499396363,-0.46567280110572307,-0.6078285014774267,-0.009132290848689627
585,-0.005420502487503809,0.2262454389052142,0.19925007753618917,0.07938676599243599,0.02689171749238628,0.007912706051939495
586,-0.007517958967738214,-0.254680597667645,-0.6141603791318223,-0.08337584970714768,-0.06227761421585434,0.011168790128035289
587,-0.36836657319775523,-0.004980094307127092,-0.3145625129567825,-0.5775159224186134,-0.1181530419876434,0.2572810688702133
588,0.0104008458128646,-0.13363596172322667,0.0319609285438216,-0.4605451157388452,0.23589706020392964,-0.006355133850925085
589,0.00930800247962682,0.015798042607653273,-0.16277999099142393,-0.1325743371253448,-0.16649046291166425,0.006985006455315124
590,0.004107946465995216,-0.06985420057560354,-0.23510523430053182,0.032062546952389914,0.2553294698063304,-0.0010529513657171264
591,-0.4360647432853295,0.008433069033662477,0.24364283470618853,0.15501051705988922,0.13264278899635168,0.2449396553659184
592,-0.36838360333266273,-0.01966254368982756,-0.13831861895583736,-0.1536526864545977,0.011874240672370306,0.2717829431082309
593,-0.36650037967427684,0.002777219914812168,0.08433621290667803,-0.12947256782723038,-0.19980448429805225,0.24946971458163042
594,-0.004641273688139602,0.15386837518221375,-0.3419049651485625,0.34596305171847574,0.11525386494847917,0.008235629354731827
595,-0.6404296665907616,-0.417742747683975,0.02415886136768064,-0.18592791569746148,-0.13133740413445616,0.47785641998210887
596,0.008494917545282199,-0.3185693847949524,-0.007759785175039946,0.3426746254525277,-0.31866776029711186,-0.005402941245571856
597,0.009611041178100965,-0.37087192523979756,0.17829408281296055,-0.21217529455619652,-0.6792078059232969,-0.005533296422906824
598,-0.00019864450495821195,-0.2024482286542677,-0.07232170532081167,0.06680957872117255,0.3634628593010756,0.0029548285900644258
599,-0.0011053515138029768,-0.0861882514288993,0.2612364777600128,0.12358506396666452,0.15641081373224286,0.0035298564731503575
600,-0.0020005707272958695,0.16737044169288218,0.22915298766670134,-0.17315561174239627,-0.581507110257155,0.006365617345172541
601,-0.01728678922854676,-0.014286358960418744,0.2987609100126172,-0.1166233274668772,0.2837601170276538,0.019575822519057692
602,-0.7957652319714301,0.009324149139676718,-0.28975513747944115,-0.16109278848837646,-0.6150305184787914,0.24378269409870873
603,-0.018373484449566213,-0.06058135318574154,-0.13044236229242934,0.1476794461203833,-0.17993021374451929,0.021012065431001793
604,-0.023888121216488534,-0.2710838659555296,-0.48186987512507057,-0.11325583433974895,0.11883817886852505,0.027259015689467925
605,0.005263500148421363,-0.20364407887715152,0.09194129303971266,0.17680206144836652,0.14573031650630003,-0.003149815859559021
606,-0.33466796311470837,-0.014685235183180101,-0.286594006264762,-0.19804937383288632,0.09399145759398397,0.26690963312871446
607,0.013629740405798119,-0.07970810242905202,0.3160401914110432,0.264893879925967,-0.040837354651321406,-0.011647230698464045
608,-0.0013305248565858019,0.168481523944515,0.3515294823239363,0.15695646004657282,0.10970228527068726,0.00313283954618164
609,0.008813347928486204,0.07561564846156199,-0.08876621075428731,0.23236608489523414,-0.19515293549415302,-0.005822680802038303
610,0.01760990197975043,-0.41722090001559614,-0.2835850866193571,-0.07958757221322738,0.30549810926959353,-0.0144517110900244
611,0.004623452634568759,-0.11878661756038444,-0.16019943424405553,0.0996010488357747,-0.4698776950619913,0.0037895498223395408
612,0.010138835737057539,0.060522867729970065,-0.21853190045736887,0.11856893535415203,-0.3897085065870596,-0.006361764550927364
613,0.021592421169947196,-0.008914988091358822,0.1801106774688621,0.0677074632490684,-0.17851967340288707,-0.01864800095083974
614,-0.0019658674780536067,0.0916423049792634,0.34747782964575935,-0.15589123154966442,-0.08903758182021285,0.004289040911407028
615,0.007789553452332454,-0.03325579805580159,0.21764992860453358,0.1467231137491143,0.12880211493706778,-0.005414819055928274
616,-0.00031102705337537895,-0.2834277777608874,0.0137765961912385,-0.03050212459310997,0.5293201438206396,0.00230751902025022
617,-0.012587195685644148,0.014142280346872593,0.09148877955404211,-0.5761068506266911,-0.3087838679930617,0.015740729947481304
618,-0.0006993701457432833,-0.07435912922265253,0.3269050585605092,0.21187345383817102,0.3245595146410303,0.0020821993003803073
619,-0.00849113909663013,0.08489279145193929,0.3553125143733098,-0.15224281679723792,-0.34070579973132675,0.01244043565682332
620,-0.3327929210012991,-0.01049675380290771,-0.010992342418043699,-0.3013257534096655,-0.2194159588644682,0.2628733097475822
621,-0.0022038757163496125,-0.031622667814699024,-0.10808025080523354,-0.14523498312433827,0.28914654569161813,0.0642989441018728
622,-0.017661622562127888,0.08163761827833538,-0.005920176106971875,-0.04287422549484804,0.20727223263188282,0.020174990861440166
623,0.0033579682074225126,-0.7116256665743317,-0.0022205586366079166,-0.025421180612110628,-0.5053098048992412,0.00017209709229209694
624,0.01092513167561271,-0.25141541198583,0.021152973174713763,-0.3310720805126202,-0.3051545158236238,-0.007231670147026671
625,0.009825035448941088,0.018198449254703486,-0.033772773788126875,0.27830972681860566,-0.14219784616547082,-0.005445078652867778
626,0.019822507661803934,0.04932066447141348,0.08853474099147296,0.1491166744334559,-0.13537940390225395,-0.015818325480395832
627,-8.998295165774106e-05,-0.3276115164097725,0.4279752809002316,0.13520775454460332,-0.20467117181372418,0.0028608148151717614
628,-0.013612217497477208,0.11209679126664662,0.20341268891436703,-0.03916973596017148,0.1094742924290279,0.016644744265525514
629,0.006661866539901862,-0.3578468237031197,-0.16726362206142187,0.1667643469537936,0.26703233162865925,-0.003864845640441308
630,0.0012198671231542502,-0.03351505137129718,-0.14447329942571313,0.0547098582499827,0.05114974064963196,0.0008319472878441956
631,0.004217572039382889,-0.19866559435805053,-0.2713752627794823,-0.016956052041848524,-0.09435984053222088,0.0005993788875242899
632,-0.007158643818256927,-0.00010309954663412224,-0.23175778613083875,0.24731903764475327,-0.3020972355316296,0.010010509728839134
633,-0.026559479690279608,-0.021681979912663518,0.18397099241123105,0.4148164579525686,-0.37200004188362473,0.02964269599982108
634,-0.0029296663717287563,-0.31555916100906584,-0.1262164739915408,-0.32071098087814354,0.13374458467844402,0.0062200944105848975
635,-0.008760432258303918,-0.2908422542709885,-0.26499371349112005,0.04669091596816133,-0.39294486945623486,0.013248504546629375
636,0.0038084677290057822,0.08203786825049941,0.36043475207201325,0.1542915705208412,0.04691448428544054,-0.0014846688140905827
637,-0.002895457036883875,-0.06363248890602224,0.2588918604462024,-0.009115758416961661,0.23717765117163536,0.006230935973991109
638,0.0010939765174220462,-0.32886688379696777,-0.16735428540458835,0.31518700581632353,0.36152075092999914,0.0020242463922177196
639,-0.0004704427189939908,0.14463487459356128,0.036006425704699696,0.19595525671618863,0.059526114623906945,0.00291172631200825
640,-0.010735504265081408,0.1970604546515582,-0.23470104477875825,-0.031749871510162064,0.10331245000083472,0.013269884416732566
641,-0.004264621265882673,-0.24912482405238012,-0.18062893859666812,0.04307537252113869,-0.36226329288058856,0.008028055443489756
642,-0.004295991311481062,-0.0608529412102653,-0.07271898720897368,-0.011306422751890755,0.21245288497530512,0.007584674664436534
643,-0.25906291330348274,-0.0047793350553569924,0.19284222084889302,-0.057007243612084424,0.21201729885867227,0.2560384803600834
644,-0.002757315339419919,-0.1255731540520335,0.4410666903426379,-0.06713387951126687,0.06962038628397849,0.005630900452346396
645,0.012184581989688192,-0.15138177627709026,-0.2022385749052571,-0.2573518199365084,0.10788843886610416,-0.009799515113983762
646,0.00271173110820655,0.020614342944831,-0.12023415737494286,0.14479081670692606,0.4600370086117155,-0.000506396192934335
647,-0.31752101619973816,0.00048151955451924966,0.06934779935616264,0.05193312659941446,0.17214806216075845,0.2519603871196952
648,-0.011428379797660093,0.07498872211126728,-0.14784591357271087,0.2351110432708753,-0.4597130415817036,0.014536489824523961
649,-0.012355764753228637,0.06953954045142463,0.020928890248750553,-0.0533373258647698,0.4200728992459316,0.014704895490487433
650,-0.013364015762780457,0.18596464422753167,-0.1247774485033154,-0.4390159244449065,0.06674541960840591,0.015746643008841602
651,0.008254426340309484,-0.10778483207137224,-0.29845566785840527,-0.3681317113490072,0.22999765453965904,-0.004381647570347741
652,-0.010905403085275878,-0.12403268099238329,0.32137004443219996,0.23922564592747608,-0.2741307747553575,0.013921457579803974
653,0.011300494270084505,0.02506898184560058,0.4329212456688676,-0.1365314443690863,0.24930876004999403,-0.00791733632192063
654,0.007633007276645731,0.18389559646734666,0.1395087014685572,-0.009828742525092748,-0.27410628473096943,-0.0044589131390057445
655,0.004220738873841556,-0.2919097971672842,0.29108845459328925,0.15163201035937346,0.17404405058108186,-0.001803989111969895
656,0.014837803217501833,-0.19523134855902713,-0.22113296936656446,-0.13311569290233005,0.2850930356890504,-0.012269461037056863
657,-0.0034403087499652596,-0.2531306302829214,0.032530321656703,0.10654572016818797,0.3096552611210187,0.005930638270003692
658,0.011141925090295102,-0.030045819813828922,0.07799460210643427,0.04907929378051262,-0.11926307618450635,-0.008380622079808381
659,0.00039930601429172263,-0.14543376120860763,-0.19890294227788874,-0.19511555289514754,-0.21546058283517874,0.003386240374686531
660,-0.012848728579491597,0.02329062975369678,-0.33165633747228673,0.36239129295583106,-0.13372270389285834,0.019134695144822945
661,0.001785532181063365,-0.0214181429494541,-0.2407598923093865,0.2927363521787253,-0.13659129717039875,0.0024771527053733733
662,-0.0015410743990854625,-0.3572520312953332,0.3671928963594322,-0.3173909768275039,0.12031750708647326,0.003907613801855587
663,-0.00317132307115231,-0.14975029761395542,0.28964396885814414,0.04757643748413792,0.4192749900857571,0.006845066500776738
664,-0.40604315122002765,0.004598616394086652,-0.1237591588670453,0.04810362475843538,-0.142204374454665,0.24839669814142662
665,-0.00041672425682304226,-0.006730810900433926,0.10962890344441945,-0.2410134038161399,-0.1245179319323714,0.002914881679620521
666,-0.004740106107364195,0.011285211813726104,-0.1481641488844126,0.18049142393427786,0.12186742860752331,0.008598755614851144
667,-0.462607069028509,-0.007348642810566464,-0.37837072894418183,0.3245925516706464,0.16279030321573307,0.25875469715138205
668,-0.002485582803609443,-0.2628512306333067,0.12996931918372312,-0.18449713806604395,0.10037107623272801,0.004868685010461013
669,-0.013003161463173929,0.0035273437890785964,0.3607682358234897,0.3799457265891303,0.14830698894121286,0.014324991377553487
670,0.013235479976345665,-0.10750791922995961,0.011671538701149897,-0.13764932826607743,-0.15587251061548318,-0.008372581465350958
671,-0.01758913605976853,-0.06520150877697861,0.15934441203226601,-0.40583149002557983,0.36457920329537674,0.02082424724773664
672,-0.37871330210082366,0.0021824893169773985,-0.12546222736991725,-0.31683281785207096,-0.22140843449613992,0.2504795214970315
673,0.012022470661248397,-0.30293281732149574,-0.08640505259248499,-0.33231195436104205,-0.15796619739224693,-0.007997457456844314
674,0.005413548678913083,-0.31119585705660985,0.05765928134038856,-0.056129700317770426,0.3213209664338593,-0.0025366129559954063
675,0.0030820258296744285,0.1459815194135955,0.24990770987942923,-0.3105070844941434,-0.05912372420264725,-0.00044789192450334666
676,0.004678089795209006,-0.10768281062477991,-0.22238351939236245,-0.2811381899510886,-0.33770687428769186,-0.0007849966337576916
677,-0.014017451236864265,-0.06501609150590715,-0.5251482401506303,0.5491556803462283,0.2598127629657505,0.015713478146130184
678,0.002119484079817102,0.11391536253376411,-0.366525697731373,0.10775806967198409,-0.17294422201103604,0.0015712479681213153
679,-0.018820070799100752,0.20344051311644695,0.06481592942138381,-0.06930809398879645,0.19225194801873785,0.020644442161359983
680,0.004504988602168858,0.049764933421951096,0.06745134436973965,-0.07613947926430548,-0.2651781212174431,-0.00089012731657931
681,0.0026380039608799866,-0.03557911609758335,0.35164724697925787,-0.03618414367875672,-0.24467232071762032,-0.00021732657411812397
682,-0.5742708392740552,-0.007561779450628303,0.07041696634344008,-0.558674551898916,-0.043835638599531296,0.26062993917771593
683,-0.000489198503328736,-0.23004021736879976,0.0740682333170184,0.5289282553571004,-0.03815111641150096,0.0027255835233445398
684,-0.32718463326305924,-0.0006836908349454607,-0.10817392186795916,-0.030351398237994598,0.23605908461597236,0.25248722337434704
685,0.004967693757077285,-0.20027422262627803,0.052159025198713516,0.15030291692430975,0.09629720379893003,0.0027888712168938584
686,0.0030374783673097205,-0.12715403191923236,-0.11319229291610794,-0.16081154611522105,-0.5986321387744429,0.0021601525404063068
687,-0.0017603874372568162,0.05159885211838067,0.3399192174973774,-0.25945899487981394,0.35478582517334445,0.004977470412522598
688,-0.0022179692665715844,-0.1593010853118666,0.14962692223937446,-0.054339171788965246,-0.07984969575858716,0.005005482473290067
689,0.012227313205539492,-0.7456651220271325,-0.12886692359400098,-0.4205496297866577,-0.10391177400976442,-0.00760170347820549
690,0.010508447595944048,-0.001646319889010428,0.11168789968913206,-0.22966979047799627,0.20523998593985582,0.0798970924880461
691,-0.0001515835296285184,-0.3581405304289642,-0.05284585265503727,0.1946866594059069,0.09303875633621272,0.0029095679841864694
692,0.0009939278817043817,-0.020805821820535142,-0.24299684820028644,0.5576746421091432,-0.381956678969765,0.010192215358152498
693,0.004876852525753428,-0.13357101754718903,-0.0671337253452014,0.2699043689164763,0.04719350568653208,-0.0025710847841535723
694,0.009704264082640801,-0.11161183915213968,0.06294140481553279,-0.24359620150293984,0.07070099967483484,-0.006433628639588096
695,-0.30491321928224935,-0.00610195106263145,-0.13230982042506106,0.333116550021591,0.01847649209775243,0.257723322676824
696,0.004749051376421676,0.13095328433590248,-0.30250125938620154,-0.3750038117264841,0.14884022888063453,-0.001525687986482808
697,0.013762588207619775,-0.21651541636689864,-0.10073233701873857,-0.23863870891491676,-0.057606654088808246,-0.010362308244098676
698,0.04064125072434144,-0.45958364886053354,-0.022721961698128235,-0.2292230182158165,-0.04703810708616518,0.43630375510108804
699,0.013659386378317873,-0.33926818097921396,0.04859610095927336,-0.2567012607019531,0.08636552388243152,-0.010119748321981752
700,0.007323645519246469,-0.5875372878170813,-0.27925493840097204,-0.16085757234450337,0.47476362102710057,-0.003990542514377921
701,0.0018141627965153617,-0.4123394895645408,-0.3243844009984273,-0.421405139386764,-0.09685453138623545,0.0028431066315972205
702,-0.005536743838591707,0.13272381892801022,-0.31799075080084793,-0.5634568045608583,0.238668511881019,0.00836036343828182
703,-0.006762080625179023,0.039474881957171304,-0.2656075874354101,-0.05290088712044877,0.31123179913886123,0.010707388523743066
704,-0.0005287702597975841,-0.01599007421132137,0.1012889072201214,0.13619831621599487,0.034523461333629046,0.0030537347679564847
705,-0.35832610022744515,-0.001117886780948374,-0.4770674598745329,-0.06450045731899112,0.09093824629069375,0.2532273044497548
706,0.0022263115898719654,0.05915418357695901,0.2502450173068437,-0.2843520713897753,-0.2581922973825134,0.00024178068527326105
707,-0.003717721340237623,0.08620652018653374,0.10580135655045952,-0.2868482506748169,-0.18558029890447567,0.006880491732021801
708,-0.5704886171708264,0.0042335036647122015,-0.005685415831191254,-0.053784832349094425,-0.4734242211343852,0.2852065848204639
709,0.0053167099404987095,0.06241148035306954,-0.24765161435175648,0.34311769304114204,-0.16116423118730466,0.014448744970623557
710,-0.01149503998602952,-0.054832892470298655,-0.2640244701864597,-0.194755190177108,-0.15324377528256927,0.03461398039318301
711,-9.002814350123067e-05,0.05189526941291256,0.04266066507209931,0.3690809019057869,-0.048773471920447425,0.003292556696477186
712,0.017155952265706542,-0.08096898570487243,-0.183104079489261,0.1329639927227504,-0.051829282081177236,-0.014385976192802808
713,-0.7298628576957844,0.008674084058536646,-0.22999857867245538,-0.674017308919421,-0.20509819282370706,0.24427807931555517
714,0.0020093527547246914,-0.624034070207004,0.07657108105696753,0.05189360699233908,-0.07278991700403939,0.002623479182923802
715,-0.0020874088180257155,0.034074273155577206,-0.22686269672738418,-0.06775388037094249,0.49886640789904746,0.004427743440182531
716,0.016289232207613136,-0.2320163597064655,0.1476073314976719,-0.1215625286800544,0.13357843781499423,-0.013225358235788189
717,-0.008676699364493778,-0.41251017291753644,0.1753147751857279,-0.40568058727558937,-0.029525276105508563,0.011504777175504206
718,-0.0193180086825544,0.05135437173838264,0.09578799592331555,0.06289088930835152,-0.20267002447907626,0.021954126432665907
719,0.004878400807767136,0.239530209450169,-0.14314810633995273,-0.2889824164300546,-0.2533743093220079,-0.0009911336498222227
720,0.02511019051825203,-0.10395218418128105,-0.09934002948614784,-0.49391810785675705,-0.00820824099484252,-0.02096908122635341
721,-0.0018888804413522697,0.002179977216858142,-0.3265750630283679,-0.18115227857123226,0.3510561577662904,0.0043880096946886625
722,-0.2842164795367752,-0.006441356026261835,-0.38411348081046415,0.1619079956042968,0.0074358947833776945,0.25866656392100557
723,-0.007454680999042673,0.011700189044877018,0.0006254130522901358,0.2317949245709967,0.153252676514397,0.009224765575454512
724,-0.01730755431589026,-0.0033717549060791052,-0.021036342873532732,-0.3482801576480475,-0.04280393528752671,0.0474454249376995
725,-0.0006243986864324924,0.08713719661570307,-0.10477672568630098,0.3695944960877232,0.11723022818276119,0.0029622105125252348
726,-0.3186644294309481,0.002034146725349295,0.12522379129153816,0.039133185625990496,0.32462608909741264,0.24909060876052883
727,0.0028690871060679246,-0.13017159057553074,0.08760476667353012,-0.1271857980779744,-0.23080150364852045,0.0019359565996433957
728,-0.008648749639376452,-0.4945118303621308,-0.15684393402700525,0.2617341731630094,0.3506389529196754,0.010851723587197739
729,-0.8496285157745245,-0.27457346482254924,-0.0076027486590659055,0.08670777717838085,0.21338061535636893,0.5083537156760238
730,0.009131726468557533,0.0038878695678289388,0.1402098406230753,0.23006806749118403,-0.12911778924521727,-0.006577887301614282
731,0.010547754655868768,0.20360616476628157,-0.01796300870150136,-0.058930728055744896,-0.5864600293147524,-0.006736353345383032
732,0.001308310296016968,0.03852685099490216,0.10332323382396191,-0.1541810208240942,0.2129748550733575,0.002001815170937698
733,0.009260335800762132,-0.0006041537908880734,-0.4906190979155953,0.2391542971965891,-0.11431965426689691,-0.006274067253532667
734,0.022331146668931767,-0.39530322395728895,0.13960639334160618,-0.04581189430795196,-0.05734418650979736,-0.0176034326132567
735,-0.001019307404059977,-0.26359710709234246,0.05140621606393614,-0.5293840969290985,-0.4279794076112574,0.0047796049618829784
736,-0.0003977379485305965,-0.4102448489166802,0.06532652118417481,-0.050172857436541485,-0.4409293510966049,0.0042449964083434676
737,0.004195535192032862,-0.12189078934056663,-0.02449465449950189,-0.08068698837864763,-0.09026978175024822,-0.0003077741236946167
738,0.008611162495069102,-0.02608930851905389,0.35609219417198934,0.2185764995619902,-0.20833121590831977,-0.00639965667115921
739,-0.01109916798378674,0.030435679803567317,-0.00038554253119438275,-0.1843677624435454,-0.10301545495345635,0.013691744548016322
740,-0.015325051335331463,-0.1052008020423244,-0.2080729948223099,-0.17121650920205123,0.33673215348673013,0.01977744774463972
741,-0.01514938625932749,-0.22936170022449842,-0.0036041441592745693,0.0651761444031328,0.18903081550138107,0.017750914020778146
742,-0.5231902310014914,0.012509517739972775,-0.4390172236707025,-0.022977439124712895,-0.3546877321362661,0.24181948958534322
743,0.0055565429326283056,0.033272027698381335,0.08947245858086716,-0.19141813639869867,0.24928473744432816,-0.002913805239038993
744,-0.014316298929875848,-0.39803198600489326,-0.313853668408862,0.4182044265086813,-0.13734776886498865,0.016771883225184137
745,-0.009420839698461969,0.22735511266312336,0.06363483541502046,-0.3857043754683748,-0.13169857858277717,0.01243265545408649
746,0.0006517430100627664,-0.37212965743978155,-0.06163675673113217,-0.20997561221203906,0.013815020314550341,0.0023078606935872815
747,-0.0123679498437691,-0.22240035079577491,0.18303675740450276,-0.19201609946689396,-0.13336007018916962,0.014884680576811662
748,-0.0024647298116046157,0.08109523229720672,0.24073575897173027,0.08629389899440043,-0.23648997377077008,0.004892885300747912
749,-0.34495472073992306,3.057108266490971e-05,0.08390067684310654,-0.11354356258279291,-0.18371431791358037,0.2521195802304209
750,0.004401760691967294,-0.38855416684639477,0.1014024802676129,0.1200009974726276,0.07827867592547688,0.008776892622088599
751,-0.0011945160601521954,-0.4842853984304347,0.24780923752392603,-0.04201727276910888,0.2580020976143238,0.004240594979333582
752,-0.004557466889869244,-0.20316573905792212,-0.3604489113109159,-0.31377912338500547,-0.24569522694838236,0.008980155900263163
753,0.0031214840298612323,-0.22728613231154227,0.2723349362678671,-0.19905719919454723,0.3767796746722848,-0.0007277449185705337
754,-0.018518066065770444,-0.06056486523620974,-0.40990256873286446,0.4021032659930591,-0.27395417454829163,0.021508304489867805
755,-0.01614120225677429,0.07497158676812965,0.4509992012529791,0.3378534209210856,0.22091269841750283,0.017422753864067816
756,-0.0017289623760973205,-0.495474647664387,0.196339455030474,0.3351460762482241,-0.5328374939568382,0.005651328517354523
757,-0.3394622236516466,-0.007454325267435724,0.061083327146123634,0.141635821958346,-0.27191262420617296,0.2612366858223113
758,0.007827853643335159,-0.0750610378677099,-0.4032523800632431,0.11883365323048378,-0.10843488511182811,-0.003253123433821929
759,-0.00954211191609633,0.12208616897452462,-0.13477959928834043,0.1180393151882112,0.12373516425711867,0.014109066445224198
760,-0.45675925086608526,0.014152720929289875,0.0014971997378011581,-0.024824987518002384,0.24267202443616398,0.2387794811038738
761,0.005413566850652751,0.09766426094121772,-0.14927887130277856,-0.11477346513062847,0.38378059453735247,-0.002364103459247599
762,0.0045459956229862986,0.05596227405947407,0.15323435435335064,-0.10543631257940389,0.011333023459017821,-0.0019639407118867895
763,0.013198116212796762,0.15398432002742424,-0.05179887524143817,0.6369107968418708,-0.18195283665340983,-0.011242415961325969
764,0.008923893865602661,-0.14402861905774533,0.21881964763033024,0.06825200160142664,0.37837534026823916,-0.0059427308119222285
765,-0.0008938281542459903,0.11189758320602305,-0.25730862916531205,0.37782624138381105,0.24410215097675803,0.002792588568291103
766,0.0014514804845224827,0.2200752164062555,-0.7445423316855921,0.072350317834459,-0.3576428881890407,0.0025669524348422785
767,-0.3388299174035694,-0.0004429730373124441,-0.4010490566444338,-0.03939966319789934,0.15065123167352917,0.25205361843306184
768,-0.004245819051386435,0.09872822903478362,-0.17587629586220993,0.09093790390541556,0.007453337898069512,0.007255834699228763
769,0.0036015166532452625,-0.022945087924818197,-0.03405720758098091,-0.3203852914205969,0.21280818773442167,-0.001527929734020836
770,0.022626594193486227,-0.48414112141588767,-0.16387030036330624,-0.12936709391089418,0.1646248105929517,-0.018727830257226925
771,0.012601500521051356,-0.013054899067793557,0.26604953454827285,0.08525483481569968,0.4553677749270193,0.12871089172541778
772,-0.010629750348744471,-0.14679845870691044,-0.0033634656005959718,-0.2693160418849491,-0.38318279732247884,0.014862033169891584
773,-0.011375056226745617,-0.012892899403057267,-0.19510642560494013,-0.1378618270296596,-0.025162641086519083,0.06104698960966416
774,-0.018634603171914343,0.13476745762958808,-0.009957589577727965,0.0862626192098016,-0.3989305244510269,0.02098372516673826
775,-0.010274116267165456,0.18310468008933445,-0.2753087988131713,0.12357450774743661,-0.43481995377260974,0.013838974181400227
776,-0.010138619568174634,0.03684719010143389,0.30700487726132264,0.2948335826906616,0.2415000863302642,0.019603548973627222
777,-0.003620416446699082,-0.5396487062584799,-0.024752377968308037,-0.2577988923447784,-0.02057908248641932,0.0067044298651035205
778,0.0038835731759518932,-0.04109918124215117,0.10793579277871912,-0.016747084208854512,-0.00740573958875998,-0.0006031412992844708
779,0.007380747837411938,-0.1127121807372704,0.2618831664138003,-0.06070151369253085,0.3532924102580667,-0.0053254345064829975
780,0.005731654100418426,-0.5089815481431378,-0.22484926322321414,-0.14916780904513152,-0.013832717186631704,-0.0025368816175578104
