,0,1,2,3,4,5
0,0.017808219178082174,0.014285714285714346,-0.16666666666666669,-0.04999999999999999,0.2333333333333333,0.09
1,0.016666666666666607,0.027272727272727337,-0.16666666666666669,0.2,0.15,0.1
2,0.048717948717948656,0.033333333333333326,0.0714285714285714,-0.3,-0.1,0.16
3,0.025373134328358193,-0.14444444444444438,0.045454545454545414,-0.3,0.2333333333333333,0.14
4,-0.08000000000000007,0.0037037037037037646,0.0714285714285714,-0.3,-0.1,0.22
5,0.019540229885057436,-0.7,0.16666666666666663,0.2,-0.1,0.06
6,0.05833333333333335,-0.12857142857142856,-0.25,0.2833333333333334,-0.1,0.09
7,0.03827160493827153,-0.44999999999999996,-0.09999999999999998,0.3,-0.1,0.08
8,0.007692307692307665,-0.07499999999999996,0.0,-0.175,-0.1,0.16
9,0.03827160493827153,-0.44999999999999996,-0.3,-0.13333333333333333,0.15,0.1
10,0.03150684931506842,-0.012499999999999956,-0.16666666666666669,-0.3,-0.1,0.09
11,0.01025641025641022,-0.36666666666666664,-0.07142857142857145,-0.13333333333333333,0.2333333333333333,0.12
12,0.020000000000000018,0.06923076923076932,-0.16666666666666669,0.10000000000000003,0.15,0.07
13,0.007894736842105288,-0.07499999999999996,0.0,0.3,0.1,0.09
14,0.023076923076923106,-0.033333333333333326,-0.09999999999999998,-0.13333333333333333,-0.1,0.09
15,-0.026760563380281766,-0.19999999999999996,-0.3,0.10000000000000003,0.1,0.17
16,0.023076923076923106,0.16956521739130437,0.0,0.2,0.4,0.04
17,-0.1244897959183674,0.050000000000000044,0.0,-0.09999999999999998,0.024999999999999994,0.23
18,0.03421052631578947,-0.033333333333333326,-0.25,0.5,-0.1,0.06
19,-0.038461538461538436,-0.5333333333333333,0.09999999999999998,-0.07777777777777778,0.30000000000000004,0.2
20,-0.030952380952380953,-0.44999999999999996,0.0,-0.3,-0.1,0.14
21,-0.0016949152542372614,0.06923076923076932,-0.16666666666666669,-0.3,-0.1,0.15
22,-0.0012658227848101333,0.0,-0.3,-0.04999999999999999,-0.1,0.1
23,0.006666666666666599,-0.29999999999999993,0.16666666666666663,0.033333333333333326,-0.1,0.12
24,0.0625,0.014285714285714346,0.0,0.033333333333333326,-0.1,0.04
25,0.041860465116279055,0.050000000000000044,-0.5,-0.3,-0.1,0.03
26,-0.038461538461538436,0.014285714285714346,-0.33333333333333337,0.10000000000000003,0.2333333333333333,0.15
27,-0.027272727272727337,0.08260869565217399,-0.09999999999999998,0.14444444444444443,-0.1,0.16
28,0.021052631578947323,0.050000000000000044,0.0,-0.09999999999999998,-0.1,0.08
29,0.02063492063492056,0.17500000000000004,-0.09999999999999998,-0.04999999999999999,-0.1,0.08
30,-0.02857142857142858,-0.36666666666666664,0.05555555555555558,0.07500000000000001,0.15,0.17
31,0.017808219178082174,-0.033333333333333326,-0.09999999999999998,-0.07777777777777778,0.4,0.11
32,-0.020000000000000018,0.050000000000000044,0.05555555555555558,0.07500000000000001,-0.1,0.21
33,0.01025641025641022,0.050000000000000044,-0.3,0.033333333333333326,0.06666666666666665,0.1
34,-0.008108108108108136,-0.29999999999999993,0.13636363636363635,-0.3,-0.1,0.15
35,0.03749999999999998,-0.44999999999999996,0.16666666666666663,-0.3,-0.1,0.08
36,0.046666666666666634,0.0,-0.16666666666666669,-0.3,0.1,0.09
37,-0.04084507042253527,0.005882352941176561,0.0,-0.3,-0.1,0.14
38,0.0,-0.012499999999999956,-0.16666666666666669,0.2,-0.1,0.12
39,0.0482758620689655,0.1461538461538462,0.05555555555555558,0.2,-0.1,0.06
40,0.02857142857142858,0.07777777777777783,-0.09999999999999998,0.14444444444444443,0.042857142857142844,0.11
41,-0.021621621621621623,-0.36666666666666664,0.0714285714285714,0.033333333333333326,0.042857142857142844,0.16
42,0.0,-0.41428571428571426,-0.125,-0.3,-0.1,0.13
43,-0.09999999999999998,0.05675675675675684,0.0,-0.3,-0.1,0.21
44,0.02753623188405796,0.10000000000000009,0.19999999999999996,-0.3,-0.1,0.07
45,-0.013636363636363669,0.10555555555555562,0.2272727272727273,-0.04999999999999999,-0.1,0.13
46,0.01025641025641022,-0.2714285714285714,-0.16666666666666669,-0.13333333333333333,-0.1,0.13
47,0.0024390243902439046,-0.7,0.09999999999999998,0.3,0.06666666666666665,0.09
48,0.06874999999999998,0.06190476190476191,0.19999999999999996,-0.3,-0.1,0.05
49,-0.011111111111111183,0.08125000000000004,-0.3,-0.09999999999999998,-0.1,0.15
50,0.004109589041095818,0.050000000000000044,-0.09999999999999998,0.3,-0.1,0.1
51,0.009090909090909038,0.10000000000000009,0.16666666666666663,-0.3,-0.1,0.08
52,0.025373134328358193,-0.12857142857142856,0.1923076923076923,-0.13333333333333333,0.042857142857142844,0.13
53,-0.026984126984127,-0.033333333333333326,0.25,-0.01428571428571429,-0.1,0.17
54,0.02063492063492056,0.07272727272727275,0.16666666666666663,0.2,-0.1,0.09
55,0.020000000000000018,0.014285714285714346,0.09999999999999998,0.2,0.042857142857142844,0.09
56,0.055223880597014885,-0.033333333333333326,0.1875,-0.09999999999999998,-0.1,0.1
57,-0.050000000000000044,0.0,-0.5,-0.04999999999999999,-0.1,0.17
58,-0.009589041095890427,-0.05714285714285705,-0.3,-0.04999999999999999,-0.1,0.14
59,-0.03749999999999998,-0.16153846153846152,-0.5,-0.3,-0.1,0.14
60,-0.013924050632911467,0.050000000000000044,0.0,-0.3,0.15,0.1
61,-0.011111111111111183,-0.19999999999999996,-0.07142857142857145,-0.04999999999999999,-0.1,0.11
62,-0.002941176470588225,0.027272727272727337,0.0,-0.13333333333333333,0.042857142857142844,0.15
63,0.016666666666666607,0.014285714285714346,0.0,0.033333333333333326,0.30000000000000004,0.08
64,0.007692307692307665,0.12608695652173918,0.09999999999999998,-0.3,0.4,0.07
65,0.033333333333333326,0.0,0.0,0.10000000000000003,0.15,0.07
66,0.025373134328358193,0.050000000000000044,0.0714285714285714,-0.3,0.06666666666666665,0.11
67,-0.05909090909090908,0.06744186046511635,-0.5,-0.09999999999999998,-0.1,0.19
68,-0.08181818181818179,-0.033333333333333326,-0.09999999999999998,-0.3,0.06666666666666665,0.21
69,0.033333333333333326,-0.12857142857142856,0.125,-0.3,-0.1,0.11
70,0.07619047619047614,-0.19999999999999996,0.0,0.36666666666666664,-0.1,-0.0
71,0.010714285714285676,0.06190476190476191,0.11538461538461542,-0.3,-0.1,0.15
72,-0.00666666666666671,-0.12857142857142856,-0.05555555555555558,0.033333333333333326,-0.1,0.13
73,0.03103448275862064,0.11481481481481481,-0.16666666666666669,0.10000000000000003,-0.1,0.1
74,-0.06000000000000005,-0.19999999999999996,0.0,-0.01428571428571429,0.15,0.17
75,0.03506493506493502,-0.19999999999999996,0.2142857142857143,0.2,0.06666666666666665,0.07
76,-0.04285714285714293,0.06923076923076932,-0.07142857142857145,0.2,-0.1,0.14
77,0.04936708860759487,-0.19999999999999996,0.125,-0.3,-0.1,0.06
78,-0.009589041095890427,-0.05714285714285705,-0.16666666666666669,0.033333333333333326,0.042857142857142844,0.13
79,-0.016883116883116944,-0.0636363636363636,0.0,-0.3,0.1,0.11
80,-0.050000000000000044,0.07777777777777783,0.0,-0.04999999999999999,0.1,0.16
81,0.004109589041095818,-0.033333333333333326,-0.3,0.2714285714285714,0.06666666666666665,0.12
82,-0.051515151515151514,-0.1705882352941176,0.0,0.033333333333333326,-0.1,0.21
83,-0.003896103896103953,-0.32499999999999996,0.0,0.033333333333333326,-0.1,0.13
84,0.046666666666666634,0.13333333333333341,0.0,0.2,-0.1,0.05
85,0.045205479452054775,-0.0636363636363636,-0.16666666666666669,0.12857142857142856,0.2333333333333333,0.08
86,-0.012676056338028152,-0.14444444444444438,0.08333333333333337,-0.09999999999999998,-0.1,0.14
87,-0.051898734177215244,-0.36666666666666664,-0.3,-0.3,0.1,0.19
88,-0.025000000000000022,-0.29999999999999993,-0.33333333333333337,-0.3,-0.1,0.17
89,-0.025000000000000022,0.05757575757575761,-0.3,0.07500000000000001,0.06666666666666665,0.18
90,-0.051515151515151514,0.0,-0.09999999999999998,-0.04999999999999999,0.1,0.16
91,0.009090909090909038,0.050000000000000044,0.0714285714285714,-0.04999999999999999,-0.1,0.09
92,-0.028205128205128216,0.014285714285714346,-0.25,-0.3,0.042857142857142844,0.15
93,-0.009375000000000022,0.033333333333333326,0.08333333333333337,-0.3,-0.1,0.15
94,-0.0052631578947368585,-0.11666666666666659,-0.09999999999999998,-0.04999999999999999,-0.1,0.12
95,0.002777777777777768,0.07777777777777783,0.0,-0.3,0.06666666666666665,0.12
96,-0.06000000000000005,-0.09999999999999998,0.11904761904761907,0.033333333333333326,-0.1,0.21
97,-0.14242424242424245,0.050000000000000044,0.0,0.033333333333333326,-0.1,0.21
98,0.0,0.08571428571428574,0.0714285714285714,-0.3,0.042857142857142844,0.11
99,0.01025641025641022,-0.14444444444444438,-0.09999999999999998,-0.3,-0.1,0.12
100,0.048717948717948656,-0.033333333333333326,0.0,-0.3,0.06666666666666665,0.08
101,0.03589743589743588,0.050000000000000044,0.0714285714285714,-0.04999999999999999,-0.1,0.06
102,0.009090909090909038,-0.14444444444444438,0.11538461538461542,0.10000000000000003,0.042857142857142844,0.14
103,-0.0071428571428571175,-0.19999999999999996,-0.25,-0.09999999999999998,-0.1,0.11
104,0.00588235294117645,-0.44999999999999996,-0.25,-0.3,-0.1,0.11
105,-0.04492753623188406,0.06190476190476191,0.0,-0.04999999999999999,-0.1,0.12
106,-0.04516129032258065,0.0,-0.09999999999999998,0.07500000000000001,0.1,0.17
107,-0.012676056338028152,-0.32499999999999996,0.0,-0.09999999999999998,0.042857142857142844,0.19
108,0.033333333333333326,-0.07499999999999996,0.0,-0.15714285714285714,-0.1,0.12
109,-0.05094339622641508,0.13333333333333341,-0.16666666666666669,-0.3,0.042857142857142844,0.17
110,0.01025641025641022,-0.14444444444444438,-0.16666666666666669,0.10000000000000003,-0.1,0.11
111,-0.0016949152542372614,0.06000000000000005,-0.2142857142857143,-0.09999999999999998,-0.1,0.15
112,-0.09047619047619049,-0.015789473684210464,0.125,-0.04999999999999999,-0.1,0.2
113,-0.03513513513513511,-0.2714285714285714,-0.125,-0.13333333333333333,0.1,0.18
114,-0.04285714285714293,0.005882352941176561,-0.33333333333333337,-0.09999999999999998,-0.1,0.16
115,0.03589743589743588,-0.07499999999999996,-0.09999999999999998,0.2,0.1,0.07
116,0.023076923076923106,0.022222222222222254,-0.07142857142857145,0.033333333333333326,-0.1,0.13
117,0.023076923076923106,-0.29999999999999993,0.0,-0.01428571428571429,-0.1,0.12
118,0.03589743589743588,-0.14444444444444438,0.16666666666666663,-0.09999999999999998,-0.1,0.07
119,-0.014754098360655776,-0.033333333333333326,0.05555555555555558,0.2555555555555556,0.2333333333333333,0.14
120,-0.028205128205128216,-0.007692307692307665,-0.5,0.033333333333333326,-0.1,0.12
121,-0.01666666666666672,0.12758620689655176,-0.16666666666666669,-0.04999999999999999,0.15,0.1
122,0.00540540540540535,-0.2714285714285714,-0.125,0.2,0.1,0.13
123,0.027710843373493943,-0.7,-0.5,-0.13333333333333333,-0.1,0.12
124,0.07499999999999996,-0.19999999999999996,-0.5,0.2,-0.1,0.05
125,0.025000000000000022,-0.36666666666666664,-0.5,-0.15714285714285714,-0.1,0.13
126,0.009090909090909038,-0.29999999999999993,-0.16666666666666669,0.2555555555555556,-0.1,0.12
127,-0.002564102564102555,-0.12857142857142856,-0.09999999999999998,-0.15714285714285714,-0.1,0.13
128,-0.036363636363636376,0.10952380952380958,-0.16666666666666669,0.2,-0.1,0.12
129,0.074025974025974,0.11818181818181828,-0.16666666666666669,0.033333333333333326,-0.1,0.03
130,-0.027272727272727337,0.06000000000000005,-0.16666666666666669,-0.3,0.1,0.19
131,0.018918918918918948,-0.12857142857142856,-0.2777777777777778,-0.01428571428571429,-0.1,0.14
132,0.0180327868852459,0.07777777777777783,0.09999999999999998,0.14444444444444443,-0.1,0.1
133,0.038461538461538436,-0.033333333333333326,0.1923076923076923,-0.13333333333333333,0.042857142857142844,0.12
134,0.020000000000000018,-0.09999999999999998,0.33333333333333337,-0.04999999999999999,0.4,0.05
135,0.06629213483146068,-0.36666666666666664,0.0,0.033333333333333326,0.2333333333333333,-0.0
136,-0.04893617021276597,0.03529411764705892,0.0,-0.04999999999999999,-0.1,0.19
137,-0.06326530612244896,0.0741935483870968,-0.038461538461538436,-0.3,-0.1,0.19
138,0.03749999999999998,-0.29999999999999993,-0.09999999999999998,-0.3,0.1,0.1
139,0.02207792207792203,-0.19999999999999996,-0.25,0.2,-0.1,0.1
140,0.03421052631578947,-0.44999999999999996,0.125,0.10000000000000003,0.1857142857142857,0.09
141,-0.09354838709677427,0.08571428571428574,0.0714285714285714,-0.3,-0.1,0.17
142,0.007692307692307665,-0.007692307692307665,0.11538461538461542,-0.04999999999999999,-0.1,0.13
143,-0.07777777777777783,0.10000000000000009,0.0,0.2,-0.1,0.18
144,-0.03157894736842104,0.06470588235294117,-0.5,-0.13333333333333333,-0.1,0.17
145,0.010447761194029792,-0.0636363636363636,0.19999999999999996,-0.01428571428571429,0.1,0.12
146,0.015254237288135575,0.0037037037037037646,0.0714285714285714,-0.04999999999999999,-0.1,0.12
147,-0.033333333333333326,0.09545454545454546,-0.16666666666666669,-0.04999999999999999,0.15,0.13
148,-0.07307692307692315,0.050000000000000044,0.0,-0.3,0.15,0.2
149,0.03827160493827153,-0.29999999999999993,0.0,0.033333333333333326,-0.1,0.07
150,0.020000000000000018,-0.09999999999999998,0.2142857142857143,-0.3,-0.1,0.08
151,-0.056862745098039236,0.11818181818181828,0.16666666666666663,-0.3,-0.1,0.14
152,-0.13076923076923075,0.040000000000000036,-0.16666666666666669,0.2555555555555556,-0.1,0.25
153,0.03421052631578947,-0.44999999999999996,0.08333333333333337,0.2,-0.1,0.09
154,0.03150684931506842,-0.12857142857142856,-0.16666666666666669,0.033333333333333326,-0.1,0.13
155,0.012499999999999956,0.07777777777777783,-0.25,0.033333333333333326,-0.1,0.08
156,-0.07948717948717954,-0.44999999999999996,-0.07142857142857145,-0.09999999999999998,0.06666666666666665,0.2
157,0.033333333333333326,-0.19999999999999996,0.16666666666666663,-0.04999999999999999,-0.1,0.09
158,-0.012903225806451646,0.06470588235294117,0.2272727272727273,-0.04999999999999999,-0.1,0.13
159,-0.16315789473684217,0.007692307692307776,0.0,-0.3,0.1,0.25
160,0.0016393442622950616,-0.033333333333333326,-0.09999999999999998,0.033333333333333326,0.1,0.16
161,0.02682926829268295,-0.2714285714285714,0.0,0.2,0.2333333333333333,0.06
162,0.038461538461538436,0.005882352941176561,0.09999999999999998,-0.09999999999999998,-0.1,0.1
163,0.024528301886792447,0.10000000000000009,-0.16666666666666669,-0.09999999999999998,-0.1,0.13
164,-0.025000000000000022,-0.2714285714285714,0.25,0.14444444444444443,-0.1,0.16
165,0.015492957746478853,-0.12857142857142856,-0.16666666666666669,0.07500000000000001,0.1,0.14
166,-0.050000000000000044,-0.36666666666666664,0.05555555555555558,-0.04999999999999999,0.15,0.14
167,-0.0343283582089553,0.033333333333333326,0.0,0.2555555555555556,-0.1,0.14
168,0.027710843373493943,-0.19999999999999996,0.0,-0.3,0.2333333333333333,0.08
169,-0.02857142857142858,-0.033333333333333326,-0.33333333333333337,0.24545454545454543,-0.1,0.16
170,0.052380952380952306,-0.19999999999999996,-0.5,0.033333333333333326,0.042857142857142844,0.06
171,-0.009375000000000022,-0.033333333333333326,0.05555555555555558,-0.3,-0.1,0.16
172,-0.029032258064516148,0.050000000000000044,0.0,-0.09999999999999998,0.1857142857142857,0.16
173,0.004109589041095818,0.050000000000000044,-0.125,-0.3,-0.1,0.12
174,0.024242424242424176,0.08947368421052637,0.125,-0.04999999999999999,-0.1,0.08
175,0.018604651162790642,-0.36666666666666664,-0.5,0.10000000000000003,-0.1,0.08
176,0.0036144578313253017,-0.033333333333333326,0.0,-0.04999999999999999,-0.1,0.09
177,0.03589743589743588,-0.2714285714285714,-0.33333333333333337,0.3,-0.1,0.1
178,0.011392405063291089,-0.07499999999999996,-0.09999999999999998,-0.3,0.06666666666666665,0.1
179,-0.05277777777777781,-0.14444444444444438,0.09999999999999998,0.2,0.1,0.15
180,-0.025000000000000022,-0.019999999999999907,0.0,-0.3,-0.1,0.21
181,-0.2571428571428571,0.016981132075471694,0.0714285714285714,-0.3,0.15,0.29
182,-0.026984126984127,0.06923076923076932,-0.25,-0.3,-0.1,0.14
183,0.014893617021276562,0.12352941176470589,0.0714285714285714,0.325,-0.1,0.1
184,0.010714285714285676,-0.033333333333333326,-0.5,0.23333333333333334,0.06666666666666665,0.16
185,0.025925925925925908,0.050000000000000044,-0.5,0.45,-0.1,0.06
186,0.0012345679012345512,-0.033333333333333326,-0.16666666666666669,0.10000000000000003,-0.1,0.1
187,-0.04814814814814816,-0.29999999999999993,0.0,-0.3,0.06666666666666665,0.15
188,-0.04516129032258065,-0.018181818181818188,-0.05555555555555558,-0.3,-0.1,0.18
189,0.0,-0.09999999999999998,-0.25,-0.04999999999999999,0.3285714285714285,0.1
190,-0.05254237288135599,0.014285714285714346,-0.09999999999999998,-0.3,0.15,0.17
191,-0.011111111111111183,-0.12857142857142856,0.125,0.2,0.1857142857142857,0.12
192,0.007692307692307665,0.027272727272727337,0.0,0.33636363636363636,0.1,0.11
193,-0.026760563380281766,-0.19999999999999996,-0.05555555555555558,-0.3,-0.1,0.2
194,0.02753623188405796,0.06470588235294117,0.0,-0.3,0.06666666666666665,0.1
195,-0.008108108108108136,0.10000000000000009,-0.09999999999999998,-0.3,0.15,0.09
196,0.04202898550724632,0.11250000000000004,-0.09999999999999998,0.2,-0.1,0.08
197,0.03749999999999998,-0.2714285714285714,-0.3,-0.04999999999999999,0.15,0.09
198,0.021052631578947323,0.050000000000000044,0.25,0.3,-0.1,0.05
199,0.0117647058823529,-0.033333333333333326,-0.05555555555555558,-0.04999999999999999,0.15,0.12
200,0.007692307692307665,0.033333333333333326,-0.04545454545454547,-0.3,-0.1,0.15
201,0.007692307692307665,0.033333333333333326,-0.25,0.2714285714285714,-0.1,0.14
202,-0.06666666666666665,0.08000000000000007,-0.25,-0.3,-0.1,0.2
203,-0.023076923076923106,-0.015789473684210464,0.09999999999999998,-0.09999999999999998,0.06666666666666665,0.15
204,-0.008108108108108136,-0.7,0.11538461538461542,0.2714285714285714,-0.1,0.12
205,-0.029032258064516148,-0.004347826086956497,-0.5,0.033333333333333326,0.15,0.17
206,-0.01594202898550723,-0.24545454545454543,0.0,-0.3,0.15,0.19
207,0.025373134328358193,-0.0636363636363636,0.033333333333333326,-0.04999999999999999,-0.1,0.12
208,0.023076923076923106,0.10000000000000009,-0.3,-0.3,0.2333333333333333,0.08
209,-0.01594202898550723,-0.11666666666666659,-0.07142857142857145,0.2714285714285714,0.1,0.14
210,0.02207792207792203,-0.09999999999999998,-0.09999999999999998,-0.3,-0.1,0.11
211,-0.014285714285714346,-0.012499999999999956,0.0,-0.3,0.1,0.13
212,-0.045454545454545525,0.12608695652173918,0.09999999999999998,-0.04999999999999999,-0.1,0.14
213,0.047368421052631504,-0.033333333333333326,-0.16666666666666669,-0.13333333333333333,-0.1,0.08
214,0.020000000000000018,-0.44999999999999996,-0.07142857142857145,0.033333333333333326,-0.1,0.14
215,-0.012676056338028152,0.050000000000000044,-0.16666666666666669,0.10000000000000003,0.1,0.11
216,0.006666666666666599,0.014285714285714346,0.05555555555555558,0.10000000000000003,0.15,0.09
217,-0.015384615384615441,-0.7,0.0714285714285714,-0.01428571428571429,0.1857142857142857,0.13
218,-0.033333333333333326,0.00967741935483879,-0.5,0.033333333333333326,-0.1,0.15
219,0.07435897435897432,0.10000000000000009,-0.5,-0.3,-0.1,0.06
220,0.038775510204081653,0.11818181818181828,0.0,0.0,-0.1,0.12
221,-0.05909090909090908,0.056097560975609806,0.0,-0.3,-0.1,0.19
222,0.0620253164556962,0.0,0.0,0.10000000000000003,0.15,0.03
223,0.042857142857142816,0.050000000000000044,-0.25,-0.3,-0.1,0.11
224,-0.01764705882352946,-0.2714285714285714,0.2272727272727273,0.2,0.2333333333333333,0.13
225,-0.07073170731707323,0.022222222222222254,-0.33333333333333337,0.15454545454545454,-0.1,0.24
226,0.032432432432432434,0.18888888888888888,-0.5,-0.01428571428571429,-0.1,0.11
227,0.023076923076923106,-0.19999999999999996,-0.08333333333333331,-0.3,-0.1,0.1
228,-0.0014492753623188692,-0.14444444444444438,0.09999999999999998,0.033333333333333326,0.15,0.12
229,-0.029870129870129936,-0.033333333333333326,-0.09999999999999998,0.033333333333333326,-0.1,0.13
230,0.03589743589743588,0.014285714285714346,0.09999999999999998,-0.04999999999999999,0.06666666666666665,0.07
231,-0.08750000000000002,-0.09999999999999998,0.0,-0.09999999999999998,0.1,0.21
232,0.0444444444444444,-0.19999999999999996,-0.09999999999999998,0.033333333333333326,-0.1,0.13
233,0.007894736842105288,-0.08461538461538454,-0.5,0.2,0.1,0.1
234,0.004761904761904745,-0.1705882352941176,-0.09999999999999998,0.07500000000000001,0.1857142857142857,0.17
235,0.017808219178082174,-0.29999999999999993,-0.125,-0.13333333333333333,-0.1,0.15
236,-0.0060606060606061,0.08571428571428574,0.05555555555555558,-0.3,0.042857142857142844,0.14
237,-0.03580246913580254,-0.36666666666666664,0.0,0.07500000000000001,-0.1,0.14
238,0.033333333333333326,-0.12857142857142856,-0.2777777777777778,-0.09999999999999998,-0.1,0.13
239,-0.014285714285714346,-0.29999999999999993,0.19999999999999996,0.07500000000000001,0.3285714285714285,0.13
240,-0.029870129870129936,-0.033333333333333326,-0.09999999999999998,-0.01428571428571429,0.30000000000000004,0.13
241,-0.023076923076923106,-0.24545454545454543,-0.05555555555555558,0.24545454545454543,-0.1,0.18
242,-0.00666666666666671,-0.25555555555555554,-0.5,0.2,0.06666666666666665,0.15
243,0.033333333333333326,-0.007692307692307665,0.16666666666666663,-0.04999999999999999,-0.1,0.08
244,0.047368421052631504,-0.12857142857142856,-0.038461538461538436,0.10000000000000003,-0.1,0.18
245,-0.023456790123456805,0.050000000000000044,-0.09999999999999998,-0.04999999999999999,-0.1,0.1
246,0.06341463414634141,-0.033333333333333326,0.09999999999999998,0.033333333333333326,-0.1,0.03
247,0.042857142857142816,0.050000000000000044,0.0,0.10000000000000003,0.0111111111111111,0.11
248,-0.029032258064516148,-0.05294117647058816,0.16666666666666663,0.12857142857142856,-0.1,0.16
249,-0.025000000000000022,0.005882352941176561,-0.25,-0.04999999999999999,0.2333333333333333,0.12
250,0.016666666666666607,-0.44999999999999996,-0.5,-0.13333333333333333,-0.1,0.11
251,-0.08840579710144925,-0.44999999999999996,0.16666666666666663,0.10000000000000003,-0.1,0.19
252,-0.021212121212121238,-0.007692307692307665,0.033333333333333326,-0.04999999999999999,-0.1,0.14
253,0.007407407407407418,0.08571428571428574,0.09999999999999998,-0.04999999999999999,-0.1,0.12
254,0.048717948717948656,-0.44999999999999996,0.09999999999999998,-0.3,-0.1,0.09
255,-0.09999999999999998,-0.02499999999999991,0.0,-0.3,0.15,0.22
256,-0.02857142857142858,-0.32499999999999996,-0.09999999999999998,-0.15714285714285714,-0.1,0.21
257,0.032432432432432434,0.07777777777777783,0.0,0.2,-0.1,0.08
258,0.047368421052631504,0.07777777777777783,0.2142857142857143,-0.04999999999999999,-0.1,0.05
259,0.009090909090909038,0.050000000000000044,0.0,-0.3,-0.1,0.11
260,-0.05254237288135599,0.020000000000000018,0.13636363636363635,-0.3,-0.1,0.15
261,0.03975903614457832,-0.19999999999999996,-0.09999999999999998,-0.3,-0.1,0.08
262,0.018918918918918948,0.0,0.0,0.033333333333333326,-0.1,0.1
263,-0.1352941176470589,0.10392156862745106,0.0,0.12857142857142856,-0.1,0.18
264,-0.03888888888888886,-0.15454545454545454,0.0714285714285714,0.10000000000000003,-0.1,0.16
265,0.007894736842105288,-0.0636363636363636,-0.09999999999999998,-0.3,-0.1,0.12
266,0.045205479452054775,-0.12857142857142856,0.0,-0.01428571428571429,0.1,0.1
267,0.0180327868852459,-0.033333333333333326,0.23333333333333328,0.12857142857142856,-0.1,0.1
268,-0.01594202898550723,-0.05714285714285705,-0.2142857142857143,0.10000000000000003,0.30000000000000004,0.14
269,0.03506493506493502,-0.09999999999999998,-0.5,0.033333333333333326,0.024999999999999994,0.1
270,0.0482758620689655,0.17096774193548392,-0.5,-0.04999999999999999,0.4,0.05
271,-0.011111111111111183,0.06470588235294117,0.09999999999999998,0.10000000000000003,0.30000000000000004,0.11
272,-0.021621621621621623,-0.12857142857142856,0.09999999999999998,-0.01428571428571429,0.042857142857142844,0.15
273,0.0,0.07272727272727275,-0.125,0.033333333333333326,0.042857142857142844,0.14
274,-0.2333333333333334,0.014285714285714346,0.125,-0.3,-0.1,0.28
275,-0.020689655172413834,0.10000000000000009,-0.5,-0.3,0.06666666666666665,0.14
276,0.024050632911392422,-0.36666666666666664,-0.09999999999999998,0.3,-0.1,0.1
277,0.018918918918918948,-0.12857142857142856,0.0714285714285714,0.2,-0.1,0.11
278,-0.03725490196078429,0.08260869565217399,0.045454545454545414,-0.3,-0.1,0.22
279,-0.009589041095890427,-0.19999999999999996,-0.33333333333333337,-0.3,0.1,0.17
280,0.03421052631578947,0.027272727272727337,-0.16666666666666669,-0.01428571428571429,-0.1,0.08
281,0.052380952380952306,0.014285714285714346,0.16666666666666663,0.2,-0.1,0.09
282,0.07435897435897432,-0.033333333333333326,0.0,0.2714285714285714,-0.1,0.05
283,0.01304347826086949,-0.09999999999999998,0.0,0.3,-0.1,0.12
284,-0.15396825396825398,-0.13749999999999996,0.09999999999999998,-0.3,0.275,0.25
285,0.004109589041095818,-0.033333333333333326,-0.07142857142857145,-0.04999999999999999,0.2333333333333333,0.12
286,0.0,-0.7,0.1923076923076923,0.12857142857142856,-0.1,0.15
287,-0.01666666666666672,0.08571428571428574,0.09999999999999998,-0.04999999999999999,-0.1,0.11
288,0.015254237288135575,0.18888888888888888,-0.16666666666666669,-0.3,0.06666666666666665,0.09
289,-0.07307692307692315,0.07142857142857151,-0.25,-0.3,-0.1,0.19
290,-0.009375000000000022,0.10000000000000009,-0.16666666666666669,-0.3,0.1,0.11
291,-0.05254237288135599,-0.25555555555555554,0.16666666666666663,-0.13333333333333333,0.15,0.21
292,-0.051515151515151514,-0.36666666666666664,0.13157894736842102,-0.09999999999999998,-0.1,0.19
293,0.03589743589743588,-0.07499999999999996,-0.25,-0.3,-0.1,0.11
294,-0.004477611940298498,-0.19999999999999996,-0.07142857142857145,0.31538461538461543,0.042857142857142844,0.15
295,0.012499999999999956,0.050000000000000044,-0.3,-0.3,-0.1,0.1
296,0.0,0.11250000000000004,0.125,0.2714285714285714,-0.1,0.1
297,0.0,-0.033333333333333326,0.0,0.10000000000000003,-0.1,0.08
298,0.032432432432432434,-0.0636363636363636,-0.09999999999999998,0.2,-0.1,0.09
299,-0.02195121951219514,-0.36666666666666664,0.0,0.2,-0.1,0.11
300,-0.002564102564102555,0.13720930232558148,-0.125,-0.04999999999999999,0.2333333333333333,0.13
301,-0.07647058823529418,0.04285714285714293,0.023809523809523836,-0.15714285714285714,-0.1,0.24
302,-0.011111111111111183,-0.44999999999999996,-0.5,-0.3,-0.1,0.17
303,-0.0194029850746269,0.12352941176470589,-0.16666666666666669,0.2,-0.1,0.12
304,-0.023287671232876783,-0.033333333333333326,0.11538461538461542,-0.3,-0.1,0.14
305,0.014285714285714235,0.050000000000000044,-0.16666666666666669,-0.3,-0.1,0.1
306,-0.023287671232876783,-0.033333333333333326,-0.3,0.24545454545454543,0.1,0.14
307,-0.023456790123456805,-0.2714285714285714,0.0,-0.3,-0.1,0.14
308,-0.01764705882352946,0.12608695652173918,-0.5,0.2,-0.1,0.09
309,0.015492957746478853,-0.2714285714285714,0.045454545454545414,0.07500000000000001,0.2333333333333333,0.12
310,0.013580246913580174,-0.44999999999999996,-0.5,-0.13333333333333333,-0.1,0.14
311,-0.04583333333333339,0.13870967741935492,0.0,0.07500000000000001,0.1,0.15
312,0.014285714285714235,-0.033333333333333326,-0.25,-0.3,-0.1,0.15
313,-0.011111111111111183,-0.2714285714285714,0.0714285714285714,-0.3,-0.1,0.15
314,0.006666666666666599,-0.12857142857142856,0.2272727272727273,-0.04999999999999999,-0.1,0.09
315,-0.11568627450980395,0.10000000000000009,-0.5,-0.15714285714285714,-0.1,0.21
316,0.002777777777777768,-0.14444444444444438,0.05555555555555558,0.12857142857142856,-0.1,0.12
317,-0.003896103896103953,-0.19999999999999996,0.0714285714285714,-0.09999999999999998,-0.1,0.13
318,-0.037931034482758696,0.13333333333333341,-0.09999999999999998,-0.3,-0.1,0.13
319,-0.0020408163265306367,0.08787878787878789,0.0,0.07500000000000001,0.15,0.13
320,-0.011111111111111183,0.050000000000000044,-0.5,-0.01428571428571429,0.2333333333333333,0.11
321,-0.036363636363636376,-0.29999999999999993,0.1428571428571429,-0.01428571428571429,0.15,0.18
322,0.009090909090909038,0.014285714285714346,-0.5,0.10000000000000003,-0.1,0.08
323,-0.05384615384615388,0.014285714285714346,-0.33333333333333337,-0.3,-0.1,0.2
324,-0.029032258064516148,0.10000000000000009,-0.16666666666666669,-0.3,-0.1,0.18
325,-0.03580246913580254,-0.25555555555555554,-0.3,-0.3,-0.1,0.15
326,0.040298507462686595,0.08571428571428574,0.2272727272727273,-0.13333333333333333,-0.1,0.07
327,-0.09512195121951217,0.08048780487804885,-0.09999999999999998,0.07500000000000001,-0.1,0.2
328,0.0,-0.012499999999999956,0.0,0.23846153846153845,0.1,0.14
329,0.047368421052631504,-0.033333333333333326,-0.09999999999999998,-0.3,-0.1,0.1
330,-0.0014492753623188692,-0.09999999999999998,0.2142857142857143,0.033333333333333326,0.1,0.13
331,-0.007692307692307665,-0.44999999999999996,0.16666666666666663,-0.09999999999999998,0.1,0.15
332,-0.5,0.050000000000000044,0.20454545454545459,0.2714285714285714,-0.1,0.23
333,0.011392405063291089,0.014285714285714346,0.09999999999999998,-0.09999999999999998,-0.1,0.09
334,-0.011111111111111183,-0.19999999999999996,-0.16666666666666669,0.2,0.30000000000000004,0.1
335,0.02682926829268295,-0.19999999999999996,-0.07142857142857145,0.10000000000000003,-0.1,0.07
336,-0.012500000000000067,0.027272727272727337,-0.5,-0.3,-0.1,0.11
337,-0.07647058823529418,0.12352941176470589,-0.5,-0.3,-0.1,0.2
338,0.05945945945945941,0.033333333333333326,0.0,0.2,-0.1,0.04
339,-0.027272727272727337,0.09310344827586214,0.16666666666666663,-0.3,-0.1,0.13
340,0.047368421052631504,-0.44999999999999996,0.2272727272727273,0.2,0.1,0.06
341,-0.004477611940298498,0.16666666666666674,-0.2142857142857143,0.12857142857142856,-0.1,0.12
342,-0.07741935483870965,0.014285714285714346,-0.16666666666666669,0.2555555555555556,0.06666666666666665,0.2
343,-0.01764705882352946,0.027272727272727337,-0.25,-0.04999999999999999,-0.1,0.12
344,0.02682926829268295,-0.36666666666666664,-0.25,0.033333333333333326,-0.1,0.09
345,-0.035593220338983045,0.06190476190476191,0.1923076923076923,-0.04999999999999999,-0.1,0.13
346,-0.002941176470588225,-0.09999999999999998,-0.09999999999999998,-0.04999999999999999,-0.1,0.15
347,0.0014084507042253502,-0.09999999999999998,0.0,-0.13333333333333333,-0.1,0.16
348,0.05161290322580647,0.13333333333333341,0.0714285714285714,-0.09999999999999998,0.275,0.08
349,-0.0014492753623188692,-0.19999999999999996,0.0,-0.01428571428571429,-0.1,0.16
350,-0.06666666666666665,-0.14444444444444438,-0.125,-0.04999999999999999,-0.1,0.21
351,0.021052631578947323,0.050000000000000044,-0.5,0.033333333333333326,0.1,0.09
352,-0.00666666666666671,-0.0636363636363636,0.0,-0.3,0.042857142857142844,0.13
353,0.03902439024390236,-0.19999999999999996,-0.09999999999999998,-0.3,-0.1,0.08
354,-0.0194029850746269,0.10000000000000009,-0.05555555555555558,0.2,0.1,0.12
355,-0.031147540983606614,0.07777777777777783,-0.3,-0.3,-0.1,0.15
356,0.030555555555555558,0.027272727272727337,0.125,-0.3,-0.1,0.1
357,-0.002941176470588225,-0.033333333333333326,0.045454545454545414,-0.09999999999999998,0.1857142857142857,0.14
358,-0.0016949152542372614,0.050000000000000044,0.0714285714285714,-0.01428571428571429,-0.1,0.13
359,0.010447761194029792,0.07777777777777783,0.2142857142857143,0.2,-0.1,0.07
360,-0.016279069767441867,0.13333333333333341,0.08333333333333337,-0.3,-0.1,0.15
361,-0.021621621621621623,0.07777777777777783,-0.16666666666666669,0.033333333333333326,0.1,0.13
362,-0.06216216216216219,-0.11666666666666659,0.0,0.10000000000000003,-0.1,0.16
363,-0.013924050632911467,-0.7,0.0,-0.3,-0.1,0.16
364,-0.00666666666666671,0.06923076923076932,-0.25,-0.3,0.30000000000000004,0.1
365,0.02857142857142858,-0.11666666666666659,-0.09999999999999998,0.4142857142857143,0.4,0.08
366,0.006666666666666599,-0.11666666666666659,-0.07142857142857145,0.033333333333333326,0.2333333333333333,0.1
367,-0.011111111111111183,-0.19999999999999996,0.2142857142857143,-0.3,-0.1,0.13
368,0.0,0.050000000000000044,0.125,0.2,0.06666666666666665,0.1
369,-0.03157894736842104,-0.033333333333333326,0.0,0.2,-0.1,0.13
370,0.011392405063291089,-0.25555555555555554,-0.25,0.033333333333333326,0.1,0.11
371,0.00540540540540535,0.0,-0.2142857142857143,0.033333333333333326,-0.1,0.12
372,0.009090909090909038,-0.033333333333333326,-0.5,0.033333333333333326,0.042857142857142844,0.13
373,0.0,-0.07499999999999996,-0.25,-0.3,0.4,0.1
374,0.02753623188405796,-0.19999999999999996,0.0,0.12857142857142856,-0.1,0.15
375,-0.015384615384615441,-0.09999999999999998,0.0,-0.13333333333333333,0.2333333333333333,0.12
376,0.009090909090909038,-0.11666666666666659,-0.09999999999999998,-0.3,0.2333333333333333,0.1
377,-0.038461538461538436,0.022222222222222254,0.09999999999999998,-0.09999999999999998,-0.1,0.14
378,-0.040000000000000036,0.08125000000000004,-0.07142857142857145,0.12857142857142856,-0.1,0.16
379,-0.013924050632911467,-0.19999999999999996,0.125,-0.3,-0.1,0.13
380,-0.009589041095890427,-0.19999999999999996,-0.35714285714285715,-0.3,-0.1,0.18
381,-0.03698630136986303,-0.19999999999999996,0.09999999999999998,-0.09999999999999998,-0.1,0.17
382,-0.030952380952380953,-0.09999999999999998,-0.16666666666666669,-0.3,-0.1,0.12
383,0.021052631578947323,-0.7,0.1428571428571429,-0.3,-0.1,0.11
384,-0.04285714285714293,-0.033333333333333326,-0.25,-0.3,-0.1,0.15
385,-0.015384615384615441,-0.2714285714285714,0.0,0.36666666666666664,-0.1,0.11
386,-0.03888888888888886,-0.007692307692307665,0.0714285714285714,-0.04999999999999999,-0.1,0.14
387,-0.037931034482758696,0.0,-0.16666666666666669,0.033333333333333326,-0.1,0.2
388,0.02207792207792203,-0.09999999999999998,-0.09999999999999998,-0.01428571428571429,-0.1,0.09
389,-0.06666666666666665,-0.05714285714285705,-0.33333333333333337,-0.3,-0.1,0.2
390,-0.05714285714285716,-0.08461538461538454,0.05555555555555558,-0.3,0.1,0.17
391,-0.036363636363636376,-0.033333333333333326,0.1470588235294118,-0.3,0.1,0.15
392,-0.020000000000000018,-0.2714285714285714,0.0,0.12857142857142856,0.0111111111111111,0.16
393,-0.020000000000000018,-0.07499999999999996,0.0,0.2,-0.1,0.13
394,-0.002941176470588225,-0.05714285714285705,0.0,0.033333333333333326,-0.1,0.14
395,0.003225806451612856,0.06923076923076932,-0.07142857142857145,-0.3,-0.1,0.11
396,-0.05492957746478877,0.050000000000000044,-0.04545454545454547,0.2,0.06666666666666665,0.17
397,-0.09444444444444444,-0.14444444444444438,-0.2272727272727273,-0.09999999999999998,-0.1,0.23
398,-0.003896103896103953,-0.19999999999999996,-0.16666666666666669,-0.3,0.15,0.14
399,-0.037931034482758696,0.027272727272727337,0.045454545454545414,0.10000000000000003,0.15,0.15
400,0.050617283950617264,-0.36666666666666664,-0.25,-0.04999999999999999,-0.1,0.1
401,0.0016393442622950616,0.07777777777777783,0.09999999999999998,0.2714285714285714,-0.1,0.11
402,-0.004477611940298498,0.050000000000000044,0.0714285714285714,0.2,-0.1,0.13
403,-0.022448979591836782,0.03913043478260869,0.11111111111111116,-0.01428571428571429,-0.1,0.17
404,-0.09999999999999998,0.08571428571428574,-0.35714285714285715,0.07500000000000001,0.1,0.22
405,-0.01666666666666672,-0.11666666666666659,0.0,0.033333333333333326,0.15,0.19
406,0.007692307692307665,0.10952380952380958,0.0,-0.09999999999999998,-0.1,0.1
407,-0.02941176470588236,-0.19999999999999996,-0.25,-0.3,-0.1,0.13
408,-0.027272727272727337,-0.0888888888888888,0.16666666666666663,-0.01428571428571429,-0.1,0.19
409,0.007692307692307665,0.1461538461538462,0.19999999999999996,0.2,-0.1,0.1
410,-0.009756097560975618,-0.36666666666666664,-0.16666666666666669,0.2714285714285714,-0.1,0.11
411,-0.025000000000000022,-0.29999999999999993,0.125,0.10000000000000003,-0.1,0.16
412,0.01025641025641022,-0.09999999999999998,0.0,0.12857142857142856,-0.1,0.11
413,-0.013207547169811318,0.10000000000000009,-0.25,-0.04999999999999999,0.15,0.12
414,-0.0060606060606061,0.0,0.11538461538461542,-0.01428571428571429,0.15,0.13
415,-0.04035087719298247,0.07272727272727275,-0.125,0.14444444444444443,0.15,0.16
416,0.007894736842105288,-0.29999999999999993,0.0,0.2,0.042857142857142844,0.12
417,0.025925925925925908,0.07777777777777783,0.0,-0.04999999999999999,0.4,0.04
418,0.02941176470588236,-0.19999999999999996,0.0,-0.3,-0.1,0.07
419,0.016666666666666607,-0.36666666666666664,-0.125,-0.3,-0.1,0.09
420,-0.03953488372093028,0.05675675675675684,0.19999999999999996,0.033333333333333326,-0.1,0.16
421,0.009090909090909038,-0.09999999999999998,0.0,0.07500000000000001,0.06666666666666665,0.11
422,0.05402298850574705,-0.033333333333333326,-0.25,-0.3,-0.1,0.04
423,-0.05942028985507253,-0.19999999999999996,0.25,0.07500000000000001,-0.1,0.16
424,-0.06666666666666665,0.033333333333333326,0.16666666666666663,-0.3,-0.1,0.17
425,0.004761904761904745,-0.7,-0.09999999999999998,-0.04999999999999999,0.30000000000000004,0.09
426,0.06052631578947365,0.050000000000000044,-0.09999999999999998,-0.04999999999999999,-0.1,0.05
427,-0.031147540983606614,-0.007692307692307665,0.16666666666666663,0.2833333333333334,-0.1,0.15
428,0.052380952380952306,0.10000000000000009,0.19999999999999996,0.10000000000000003,0.4,0.04
429,0.016666666666666607,-0.05714285714285705,0.0,-0.09999999999999998,-0.1,0.12
430,0.05312499999999998,0.005882352941176561,-0.5,-0.01428571428571429,0.0111111111111111,0.14
431,0.010714285714285676,-0.004347826086956497,0.13636363636363635,-0.3,-0.1,0.16
432,0.01304347826086949,0.022222222222222254,-0.2142857142857143,-0.3,-0.1,0.12
433,-0.021212121212121238,0.0,0.19999999999999996,0.033333333333333326,-0.1,0.1
434,0.024242424242424176,-0.015789473684210464,0.0,-0.15714285714285714,-0.1,0.13
435,0.014285714285714235,-0.012499999999999956,-0.25,-0.04999999999999999,-0.1,0.12
436,0.023076923076923106,0.0,-0.25,0.10000000000000003,-0.1,0.08
437,0.0036144578313253017,-0.12857142857142856,-0.5,-0.3,-0.1,0.11
438,0.03103448275862064,-0.36666666666666664,-0.5,0.2,-0.1,0.06
439,0.009090909090909038,0.13333333333333341,0.0,-0.3,0.15,0.09
440,-0.021212121212121238,-0.033333333333333326,0.0714285714285714,-0.09999999999999998,0.1857142857142857,0.15
441,-0.029032258064516148,0.03913043478260869,0.2142857142857143,0.033333333333333326,-0.1,0.12
442,0.01025641025641022,-0.29999999999999993,0.25,0.2,-0.1,0.08
443,0.0014084507042253502,-0.29999999999999993,0.0714285714285714,-0.3,-0.1,0.16
444,-0.08000000000000007,0.05757575757575761,0.125,-0.04999999999999999,-0.1,0.18
445,0.036708860759493644,-0.07499999999999996,0.0,0.033333333333333326,0.15,0.06
446,-0.035593220338983045,-0.033333333333333326,-0.04545454545454547,0.10000000000000003,-0.1,0.2
447,0.024242424242424176,0.005882352941176561,-0.07142857142857145,-0.3,0.042857142857142844,0.13
448,-0.011111111111111183,-0.25555555555555554,0.05555555555555558,-0.3,0.1,0.19
449,0.07619047619047614,-0.49999999999999994,-0.25,-0.04999999999999999,-0.1,0.05
450,0.04117647058823526,0.050000000000000044,-0.3,0.033333333333333326,-0.1,0.09
451,-0.0194029850746269,0.050000000000000044,0.0,-0.3,0.042857142857142844,0.14
452,0.05294117647058816,0.014285714285714346,-0.5,-0.3,-0.1,0.04
453,0.013580246913580174,-0.19999999999999996,0.0,0.10000000000000003,0.15,0.08
454,-0.014754098360655776,-0.0636363636363636,-0.5,-0.07777777777777778,0.15,0.19
455,0.04936708860759487,-0.7,-0.07142857142857145,-0.3,-0.1,0.12
456,0.04117647058823526,0.08571428571428574,0.0,0.2714285714285714,-0.1,0.08
457,-0.05492957746478877,-0.14444444444444438,0.09999999999999998,0.10000000000000003,0.1,0.16
458,-0.05217391304347829,0.041935483870967794,0.045454545454545414,0.07500000000000001,-0.1,0.19
459,0.010714285714285676,-0.06842105263157894,-0.07142857142857145,0.0,0.275,0.18
460,0.009090909090909038,-0.2714285714285714,-0.07142857142857145,0.033333333333333326,-0.1,0.13
461,-0.02658227848101269,-0.19999999999999996,-0.5,0.033333333333333326,0.1,0.15
462,0.004109589041095818,0.027272727272727337,-0.16666666666666669,-0.3,0.042857142857142844,0.13
463,-0.021621621621621623,0.027272727272727337,0.05555555555555558,-0.3,0.15,0.11
464,0.05714285714285716,0.11818181818181828,0.05555555555555558,-0.04999999999999999,0.06666666666666665,0.07
465,0.007894736842105288,-0.14444444444444438,-0.16666666666666669,0.12857142857142856,-0.1,0.11
466,-0.009589041095890427,-0.36666666666666664,0.09999999999999998,0.2,-0.1,0.13
467,-0.0304347826086957,-0.05714285714285705,-0.07142857142857145,0.12857142857142856,-0.1,0.15
468,-0.009756097560975618,-0.36666666666666664,-0.125,0.2,0.2333333333333333,0.1
469,0.04999999999999993,0.15714285714285714,0.25,-0.04999999999999999,0.1,0.03
470,0.004109589041095818,-0.36666666666666664,0.0714285714285714,-0.13333333333333333,-0.1,0.17
471,-0.04285714285714293,-0.09999999999999998,0.25757575757575757,-0.09999999999999998,-0.1,0.16
472,-0.03580246913580254,-0.36666666666666664,-0.125,-0.04999999999999999,-0.1,0.15
473,0.007692307692307665,0.07272727272727275,-0.16666666666666669,-0.3,-0.1,0.12
474,-0.00638297872340432,0.13783783783783787,-0.33333333333333337,-0.09999999999999998,0.1,0.14
475,0.009090909090909038,0.027272727272727337,-0.25,-0.3,-0.1,0.11
476,0.002777777777777768,-0.033333333333333326,0.0,0.10000000000000003,0.024999999999999994,0.13
477,0.002777777777777768,0.07777777777777783,-0.09999999999999998,0.12857142857142856,0.1857142857142857,0.11
478,-0.08032786885245902,-0.05714285714285705,0.1875,0.3,0.15,0.16
479,0.05999999999999994,0.050000000000000044,0.0,0.36666666666666664,-0.1,0.06
480,0.025925925925925908,-0.19999999999999996,-0.5,-0.3,-0.1,0.11
481,0.016666666666666607,0.0,0.0,-0.04999999999999999,-0.1,0.12
482,-0.011111111111111183,0.0368421052631579,-0.07142857142857145,-0.01428571428571429,-0.1,0.15
483,-0.08181818181818179,0.03076923076923077,0.0714285714285714,0.0,-0.1,0.19
484,-0.04814814814814816,-0.19999999999999996,-0.5,-0.13333333333333333,-0.1,0.16
485,0.01025641025641022,-0.07499999999999996,-0.16666666666666669,-0.04999999999999999,-0.1,0.11
486,0.011392405063291089,-0.07499999999999996,-0.3,-0.3,0.30000000000000004,0.1
487,-0.023076923076923106,0.07272727272727275,0.09999999999999998,-0.3,-0.1,0.13
488,-0.020000000000000018,0.05675675675675684,0.125,-0.3,-0.1,0.13
489,0.08461538461538465,0.050000000000000044,-0.07142857142857145,-0.04999999999999999,-0.1,0.07
490,-0.03698630136986303,-0.14444444444444438,0.08333333333333337,-0.3,-0.1,0.15
491,-0.0343283582089553,-0.0636363636363636,-0.16666666666666669,0.06363636363636366,-0.1,0.19
492,-0.18571428571428572,0.014285714285714346,0.0,0.07500000000000001,0.275,0.27
493,0.047368421052631504,-0.033333333333333326,0.05555555555555558,-0.3,0.2333333333333333,0.06
494,0.030555555555555558,0.15714285714285714,-0.5,0.033333333333333326,-0.1,0.09
495,-0.15581395348837213,-0.08461538461538454,0.045454545454545414,-0.13333333333333333,-0.1,0.29
496,-0.012903225806451646,0.08947368421052637,0.05555555555555558,0.12857142857142856,-0.1,0.12
497,0.005660377358490565,0.11481481481481481,0.125,0.2,0.06666666666666665,0.11
498,-0.12580645161290327,0.017948717948717996,0.1842105263157895,-0.3,0.06666666666666665,0.24
499,0.02207792207792203,-0.2714285714285714,0.125,-0.3,-0.1,0.11
500,-0.05217391304347829,0.09310344827586214,0.13636363636363635,-0.04999999999999999,-0.1,0.2
501,0.04366197183098586,-0.033333333333333326,0.25,-0.13333333333333333,0.30000000000000004,0.07
502,0.013580246913580174,0.014285714285714346,-0.3,-0.3,0.1,0.09
503,-0.023456790123456805,-0.36666666666666664,0.16666666666666663,-0.04999999999999999,0.06666666666666665,0.12
504,-0.08181818181818179,-0.0636363636363636,0.1428571428571429,0.12857142857142856,-0.1,0.17
505,-0.0060606060606061,-0.11666666666666659,0.16666666666666663,-0.09999999999999998,0.1,0.14
506,0.08780487804878045,-0.09999999999999998,-0.25,-0.09999999999999998,-0.1,0.04
507,-0.00666666666666671,-0.19999999999999996,-0.07142857142857145,-0.3,0.2333333333333333,0.14
508,-0.029629629629629672,-0.07499999999999996,-0.16666666666666669,0.16666666666666669,-0.1,0.23
509,-0.04754098360655745,0.08571428571428574,0.045454545454545414,-0.3,-0.1,0.21
510,-0.031147540983606614,0.050000000000000044,-0.09999999999999998,-0.3,-0.1,0.17
511,-0.00666666666666671,0.050000000000000044,-0.16666666666666669,-0.175,-0.1,0.14
512,0.0714285714285714,0.10000000000000009,0.19999999999999996,0.2,-0.1,0.04
513,0.01379310344827589,0.1461538461538462,0.30000000000000004,-0.3,0.15,0.06
514,-0.012500000000000067,-0.19999999999999996,0.30000000000000004,-0.3,-0.1,0.12
515,0.009090909090909038,-0.2714285714285714,0.0,-0.3,0.15,0.12
516,-0.020000000000000018,-0.19999999999999996,-0.25,-0.175,0.042857142857142844,0.18
517,0.02063492063492056,0.03913043478260869,0.0,0.033333333333333326,-0.1,0.1
518,-0.08309859154929577,-0.033333333333333326,-0.16666666666666669,0.24545454545454543,0.2333333333333333,0.17
519,0.052380952380952306,-0.19999999999999996,0.0,-0.3,0.1,0.04
520,0.0024390243902439046,0.014285714285714346,-0.16666666666666669,0.10000000000000003,-0.1,0.08
521,0.030555555555555558,0.033333333333333326,-0.25,-0.04999999999999999,-0.1,0.1
522,0.012499999999999956,-0.19999999999999996,-0.09999999999999998,-0.3,-0.1,0.1
523,-0.0071428571428571175,0.12142857142857144,-0.09999999999999998,-0.13333333333333333,-0.1,0.14
524,0.023076923076923106,0.005882352941176561,-0.16666666666666669,0.033333333333333326,-0.1,0.13
525,0.05833333333333335,0.13333333333333341,0.09999999999999998,0.2,0.1,0.04
526,-0.023456790123456805,-0.033333333333333326,-0.5,-0.3,0.1857142857142857,0.13
527,-0.026760563380281766,-0.25555555555555554,-0.09999999999999998,-0.3,-0.1,0.2
528,-0.07777777777777783,0.050000000000000044,-0.07142857142857145,0.12857142857142856,0.1,0.19
529,-0.04062500000000002,0.014285714285714346,-0.2142857142857143,-0.04999999999999999,0.15,0.16
530,-0.05094339622641508,-0.44999999999999996,0.0,0.10000000000000003,-0.1,0.27
531,-0.0194029850746269,-0.033333333333333326,-0.07142857142857145,-0.09999999999999998,0.34444444444444444,0.15
532,-0.01764705882352946,-0.16153846153846152,0.1428571428571429,-0.3,-0.1,0.14
533,0.020000000000000018,0.11818181818181828,-0.5,0.2,0.1,0.08
534,-0.058730158730158744,0.09166666666666667,-0.16666666666666669,-0.04999999999999999,-0.1,0.15
535,0.045205479452054775,0.027272727272727337,-0.3,0.2,-0.1,0.09
536,0.012280701754385892,0.09310344827586214,-0.09999999999999998,-0.13333333333333333,-0.1,0.12
537,-0.2333333333333334,0.15714285714285714,-0.3,0.2,0.15,0.14
538,-0.01594202898550723,-0.07499999999999996,0.09999999999999998,-0.13333333333333333,-0.1,0.14
539,-0.0034482758620689724,0.05862068965517242,-0.3,0.033333333333333326,-0.1,0.14
540,-0.036363636363636376,0.10392156862745106,0.15000000000000002,-0.3,0.30000000000000004,0.15
541,-0.0060606060606061,-0.05294117647058816,-0.07142857142857145,-0.13333333333333333,-0.1,0.16
542,-0.15000000000000002,0.08000000000000007,-0.07142857142857145,-0.3,-0.1,0.24
543,-0.040000000000000036,0.040740740740740744,0.09999999999999998,-0.13333333333333333,-0.1,0.17
544,0.025373134328358193,0.050000000000000044,-0.09999999999999998,0.2,-0.1,0.09
545,-0.009756097560975618,-0.44999999999999996,-0.16666666666666669,0.10000000000000003,-0.1,0.13
546,-0.06666666666666665,0.03076923076923077,0.09999999999999998,0.10000000000000003,0.024999999999999994,0.24
547,-0.01764705882352946,0.0,-0.5,-0.3,-0.1,0.16
548,0.021052631578947323,-0.07499999999999996,-0.16666666666666669,-0.04999999999999999,0.06666666666666665,0.11
549,0.06428571428571428,-0.36666666666666664,-0.16666666666666669,-0.3,0.042857142857142844,0.06
550,0.039393939393939426,-0.033333333333333326,0.16666666666666663,0.2,0.1,0.09
551,-0.009589041095890427,0.014285714285714346,0.0714285714285714,0.2,-0.1,0.13
552,-0.06000000000000005,-0.012499999999999956,0.09999999999999998,-0.3,-0.1,0.2
553,0.04594594594594592,0.11250000000000004,-0.5,-0.04999999999999999,0.15,0.05
554,0.055882352941176494,0.06923076923076932,0.30000000000000004,-0.3,0.06666666666666665,0.06
555,-0.011111111111111183,-0.033333333333333326,0.0,0.033333333333333326,-0.1,0.15
556,-0.002564102564102555,-0.36666666666666664,0.0,-0.13333333333333333,-0.1,0.14
557,0.018918918918918948,-0.19999999999999996,-0.16666666666666669,0.2555555555555556,-0.1,0.11
558,0.045205479452054775,0.0,-0.07142857142857145,0.45,-0.1,0.08
559,-0.02857142857142858,-0.09999999999999998,0.0714285714285714,-0.3,-0.1,0.16
560,-0.07647058823529418,0.033333333333333326,-0.5,0.2,-0.1,0.19
561,0.007894736842105288,-0.033333333333333326,0.05555555555555558,-0.04999999999999999,-0.1,0.11
562,0.010447761194029792,0.07777777777777783,0.09999999999999998,-0.13333333333333333,-0.1,0.11
563,-0.026984126984127,0.008333333333333415,-0.5,-0.3,-0.1,0.18
564,-0.26363636363636367,0.06190476190476191,-0.25,0.22941176470588237,-0.1,0.25
565,0.045205479452054775,-0.29999999999999993,0.0,0.10000000000000003,-0.1,0.1
566,0.024242424242424176,-0.12857142857142856,0.045454545454545414,0.033333333333333326,-0.1,0.13
567,-0.03157894736842104,-0.09999999999999998,0.0,-0.3,-0.1,0.15
568,-0.012903225806451646,0.06923076923076932,0.20588235294117652,0.2,-0.1,0.1
569,-0.044736842105263186,-0.19999999999999996,0.038461538461538436,-0.3,-0.1,0.15
570,0.006666666666666599,-0.12857142857142856,-0.07142857142857145,0.033333333333333326,-0.1,0.13
571,0.017808219178082174,-0.007692307692307665,0.0,-0.3,-0.1,0.12
572,-0.015384615384615441,-0.25555555555555554,-0.25,-0.04999999999999999,-0.1,0.15
573,-0.03580246913580254,-0.033333333333333326,-0.16666666666666669,0.3,-0.1,0.14
574,0.07333333333333336,0.17500000000000004,0.0,-0.04999999999999999,-0.1,-0.0
575,-0.032530120481927716,-0.19999999999999996,-0.5,-0.04999999999999999,0.1,0.14
576,0.021874999999999978,0.08571428571428574,0.2692307692307693,-0.13333333333333333,-0.1,0.09
577,-0.10370370370370374,-0.13478260869565217,0.045454545454545414,-0.15714285714285714,-0.1,0.27
578,0.002777777777777768,0.027272727272727337,-0.25,-0.04999999999999999,0.1,0.13
579,-0.04754098360655745,-0.033333333333333326,0.05555555555555558,0.10000000000000003,-0.1,0.17
580,-0.0052631578947368585,-0.033333333333333326,0.08333333333333337,-0.09999999999999998,-0.1,0.15
581,0.03150684931506842,0.13333333333333341,0.0714285714285714,-0.09999999999999998,-0.1,0.07
582,0.015492957746478853,-0.19999999999999996,-0.07142857142857145,0.06363636363636366,-0.1,0.15
583,0.04202898550724632,0.0,0.08333333333333337,-0.3,0.06666666666666665,0.1
584,0.03902439024390236,-0.12857142857142856,-0.16666666666666669,0.2,-0.1,0.06
585,-0.021621621621621623,-0.09999999999999998,0.0,-0.04999999999999999,0.15,0.13
586,-0.07948717948717954,-0.5571428571428572,-0.5,-0.3,-0.1,0.25
587,0.023076923076923106,-0.07499999999999996,-0.16666666666666669,0.2,0.15,0.08
588,-0.03698630136986303,-0.19999999999999996,-0.2142857142857143,-0.09999999999999998,0.30000000000000004,0.17
589,0.030555555555555558,-0.07499999999999996,-0.5,0.3,0.042857142857142844,0.11
590,0.025000000000000022,-0.7,-0.2142857142857143,-0.3,0.06666666666666665,0.13
591,-0.04814814814814816,0.11818181818181828,0.16666666666666663,-0.3,0.06666666666666665,0.15
592,0.033333333333333326,0.0,-0.3,-0.04999999999999999,-0.1,0.11
593,0.004109589041095818,-0.25555555555555554,-0.09999999999999998,0.12857142857142856,0.4,0.12
594,-0.06393442622950818,-0.09999999999999998,-0.3,0.14444444444444443,-0.1,0.22
595,-0.011111111111111183,0.13333333333333341,-0.5,0.12857142857142856,-0.1,0.11
596,0.05161290322580647,0.12608695652173918,0.16666666666666663,0.2,-0.1,0.06
597,-0.003896103896103953,-0.09999999999999998,-0.125,0.033333333333333326,-0.1,0.13
598,-0.0052631578947368585,-0.11666666666666659,-0.5,-0.04999999999999999,-0.1,0.14
599,-0.05384615384615388,0.027272727272727337,-0.09999999999999998,0.033333333333333326,0.1,0.15
600,0.007692307692307665,0.0,0.25,-0.3,0.042857142857142844,0.11
601,-0.00638297872340432,0.07777777777777783,0.1923076923076923,-0.3,0.275,0.15
602,0.006666666666666599,-0.19999999999999996,-0.16666666666666669,0.2,0.042857142857142844,0.13
603,0.015492957746478853,0.07777777777777783,0.09999999999999998,-0.04999999999999999,-0.1,0.07
604,0.030555555555555558,-0.033333333333333326,0.16666666666666663,0.07500000000000001,-0.1,0.1
605,0.02941176470588236,-0.7,-0.16666666666666669,0.10000000000000003,-0.1,0.08
606,0.011392405063291089,-0.033333333333333326,-0.5,-0.3,-0.1,0.1
607,0.025925925925925908,-0.7,0.2777777777777778,-0.09999999999999998,-0.1,0.07
608,-0.07910447761194028,-0.05294117647058816,-0.09999999999999998,-0.01428571428571429,0.15,0.19
609,0.016666666666666607,-0.07499999999999996,0.0,-0.3,0.2333333333333333,0.13
610,0.027710843373493943,-0.36666666666666664,0.0,-0.04999999999999999,0.06666666666666665,0.08
611,-0.008108108108108136,-0.05714285714285705,-0.5,-0.04999999999999999,-0.1,0.14
612,0.025925925925925908,-0.29999999999999993,-0.07142857142857145,-0.3,0.2333333333333333,0.09
613,-0.014285714285714346,-0.012499999999999956,-0.07142857142857145,-0.04999999999999999,-0.1,0.13
614,0.007692307692307665,-0.09999999999999998,0.0,-0.09999999999999998,0.06666666666666665,0.16
615,-0.14,0.0017543859649122862,0.0,-0.13333333333333333,-0.1,0.27
616,-0.026984126984127,0.005882352941176561,-0.07142857142857145,0.12857142857142856,-0.1,0.17
617,-0.0052631578947368585,-0.19999999999999996,-0.07142857142857145,-0.09999999999999998,0.06666666666666665,0.14
618,-0.0016949152542372614,-0.012499999999999956,0.05555555555555558,0.24545454545454543,-0.1,0.15
619,-0.015384615384615441,-0.19999999999999996,0.16666666666666663,-0.04999999999999999,-0.1,0.12
620,0.03220338983050841,0.03076923076923077,-0.09999999999999998,-0.3,-0.1,0.14
621,-0.002564102564102555,-0.033333333333333326,-0.2142857142857143,-0.01428571428571429,-0.1,0.12
622,0.015662650602409567,-0.36666666666666664,-0.3,0.033333333333333326,-0.1,0.1
623,0.002777777777777768,0.014285714285714346,0.09999999999999998,-0.3,0.4,0.1
624,-0.04285714285714293,0.022222222222222254,-0.2142857142857143,0.033333333333333326,0.2333333333333333,0.17
625,0.040298507462686595,-0.25555555555555554,0.0,0.033333333333333326,0.4,0.12
626,0.04805194805194801,-0.49999999999999994,-0.25,0.12857142857142856,-0.1,0.11
627,0.006666666666666599,0.014285714285714346,0.13636363636363635,-0.3,-0.1,0.1
628,-0.0071428571428571175,0.08431372549019611,0.045454545454545414,-0.09999999999999998,0.1,0.17
629,0.017808219178082174,0.027272727272727337,-0.5,0.07500000000000001,-0.1,0.12
630,0.0,0.014285714285714346,-0.5,0.2,-0.1,0.09
631,0.048717948717948656,-0.19999999999999996,-0.125,-0.13333333333333333,0.4,0.08
632,0.016666666666666607,0.06000000000000005,-0.07142857142857145,-0.09999999999999998,-0.1,0.12
633,0.05945945945945941,-0.36666666666666664,0.045454545454545414,-0.01428571428571429,0.30000000000000004,0.08
634,0.05999999999999994,-0.033333333333333326,0.0,-0.3,0.06666666666666665,0.07
635,0.029577464788732355,-0.25555555555555554,-0.25,0.4142857142857143,0.4,0.08
636,0.03442622950819674,0.06000000000000005,-0.16666666666666669,-0.3,-0.1,0.12
637,0.048717948717948656,-0.07499999999999996,0.125,0.2,0.4,0.03
638,0.009090909090909038,-0.033333333333333326,0.09999999999999998,-0.3,0.06666666666666665,0.1
639,-0.06417910447761199,-0.36666666666666664,0.08823529411764708,-0.01428571428571429,-0.1,0.2
640,-0.05116279069767449,-0.7,0.0714285714285714,0.2,0.4,0.1
641,0.03103448275862064,0.07272727272727275,-0.09999999999999998,0.0,0.30000000000000004,0.12
642,-0.02658227848101269,-0.09999999999999998,0.125,-0.3,-0.1,0.1
643,-0.09999999999999998,0.022222222222222254,0.1333333333333333,-0.09999999999999998,-0.1,0.24
644,-0.038461538461538436,-0.29999999999999993,0.2142857142857143,-0.027272727272727282,-0.1,0.19
645,-0.025000000000000022,-0.11666666666666659,0.0,0.31538461538461543,-0.1,0.15
646,-0.004477611940298498,0.022222222222222254,0.19999999999999996,0.033333333333333326,-0.1,0.09
647,0.015662650602409567,-0.7,-0.09999999999999998,0.10000000000000003,0.1,0.09
648,0.036708860759493644,0.014285714285714346,-0.16666666666666669,-0.04999999999999999,-0.1,0.08
649,0.017808219178082174,-0.0636363636363636,0.0,-0.04999999999999999,-0.1,0.12
650,-0.01764705882352946,-0.08461538461538454,-0.3,0.3,0.0111111111111111,0.17
651,-0.00909090909090915,0.050000000000000044,0.05555555555555558,0.033333333333333326,-0.1,0.16
652,-0.050684931506849384,-0.07499999999999996,0.13636363636363635,-0.3,0.1,0.15
653,-0.029032258064516148,-0.09999999999999998,0.033333333333333326,-0.3,-0.1,0.19
654,0.048717948717948656,0.014285714285714346,-0.25,-0.15714285714285714,-0.1,0.09
655,0.03421052631578947,-0.14444444444444438,0.09999999999999998,0.2,-0.1,0.08
656,-0.05094339622641508,0.05757575757575761,-0.09999999999999998,-0.3,0.06666666666666665,0.17
657,-0.04864864864864871,-0.09999999999999998,-0.09999999999999998,-0.3,-0.1,0.19
658,-0.014285714285714346,-0.0636363636363636,0.0,0.12857142857142856,-0.1,0.13
659,0.025000000000000022,0.014285714285714346,-0.25,0.10000000000000003,-0.1,0.08
660,-0.05789473684210533,-0.07499999999999996,-0.09999999999999998,-0.01428571428571429,-0.1,0.17
661,-0.06666666666666665,-0.24545454545454543,-0.25,-0.3,0.15,0.18
662,0.010447761194029792,0.07777777777777783,0.16666666666666663,-0.3,-0.1,0.11
663,0.051807228915662584,0.10000000000000009,-0.3,0.10000000000000003,-0.1,0.04
664,0.014285714285714235,0.033333333333333326,0.0,-0.04999999999999999,-0.1,0.11
665,0.032432432432432434,-0.12857142857142856,0.0,0.10000000000000003,-0.1,0.12
666,0.0,0.07777777777777783,-0.16666666666666669,-0.3,-0.1,0.09
667,0.02207792207792203,-0.25555555555555554,0.0714285714285714,-0.09999999999999998,-0.1,0.1
668,0.03589743589743588,-0.0636363636363636,-0.16666666666666669,-0.04999999999999999,-0.1,0.08
669,-0.0052631578947368585,0.03913043478260869,0.05555555555555558,0.033333333333333326,0.275,0.13
670,-0.014285714285714346,0.07777777777777783,-0.09999999999999998,-0.04999999999999999,-0.1,0.11
671,0.014285714285714235,-0.09999999999999998,0.2857142857142857,-0.3,0.15,0.08
672,0.01379310344827589,0.018750000000000044,0.0,-0.04999999999999999,-0.1,0.11
673,-0.05625000000000002,0.16274509803921577,-0.09999999999999998,0.10000000000000003,0.1857142857142857,0.13
674,-0.09402985074626868,-0.11666666666666659,-0.25,0.10000000000000003,-0.1,0.24
675,-0.025000000000000022,0.17500000000000004,-0.5,-0.04999999999999999,-0.1,0.12
676,0.0620253164556962,-0.7,0.16666666666666663,0.07500000000000001,-0.1,0.07
677,0.002777777777777768,-0.09999999999999998,0.125,-0.175,-0.1,0.13
678,-0.0346153846153846,0.13870967741935492,0.125,-0.13333333333333333,0.2333333333333333,0.12
679,-0.06666666666666665,-0.29999999999999993,0.0,-0.01428571428571429,-0.1,0.2
680,-0.002941176470588225,-0.07499999999999996,-0.3,-0.04999999999999999,-0.1,0.16
681,0.0117647058823529,-0.05294117647058816,-0.09999999999999998,-0.175,-0.1,0.14
682,-0.04583333333333339,0.09411764705882353,0.0714285714285714,-0.13333333333333333,0.1,0.16
683,-0.036363636363636376,-0.12857142857142856,-0.25,-0.3,-0.1,0.23
684,-0.004477611940298498,-0.05714285714285705,0.0,0.033333333333333326,0.024999999999999994,0.15
685,-0.04754098360655745,-0.015789473684210464,0.0714285714285714,-0.01428571428571429,0.2333333333333333,0.17
686,-0.004166666666666652,0.12352941176470589,0.1923076923076923,-0.3,-0.1,0.15
687,-0.04285714285714293,0.050000000000000044,-0.09999999999999998,-0.3,-0.1,0.13
688,-0.020689655172413834,-0.12857142857142856,-0.125,0.07500000000000001,-0.1,0.21
689,-0.05789473684210533,-0.44999999999999996,0.0714285714285714,0.2,-0.1,0.17
690,-0.0060606060606061,0.07777777777777783,0.2142857142857143,-0.3,-0.1,0.14
691,0.021052631578947323,0.014285714285714346,-0.125,0.10000000000000003,-0.1,0.1
692,-0.03749999999999998,-0.25555555555555554,-0.5,-0.3,-0.1,0.17
693,-0.002941176470588225,0.050000000000000044,-0.09999999999999998,0.31538461538461543,-0.1,0.1
694,0.041860465116279055,0.050000000000000044,0.09999999999999998,-0.3,-0.1,0.03
695,0.07826086956521738,0.19130434782608696,0.0,0.033333333333333326,-0.1,0.02
696,0.05945945945945941,-0.44999999999999996,0.2272727272727273,-0.13333333333333333,0.1,0.08
697,-0.08461538461538465,0.014285714285714346,-0.09999999999999998,-0.04999999999999999,-0.1,0.19
698,-0.0020408163265306367,0.040740740740740744,0.125,-0.3,-0.1,0.16
699,-0.0304347826086957,-0.033333333333333326,0.045454545454545414,-0.13333333333333333,-0.1,0.17
700,0.024050632911392422,-0.36666666666666664,-0.33333333333333337,-0.04999999999999999,-0.1,0.12
701,0.014634146341463428,-0.12857142857142856,-0.09999999999999998,0.033333333333333326,-0.1,0.08
702,0.02207792207792203,0.07777777777777783,-0.5,-0.3,-0.1,0.12
703,0.002777777777777768,0.10000000000000009,-0.5,-0.3,0.06666666666666665,0.12
704,-0.020000000000000018,-0.0636363636363636,-0.16666666666666669,-0.3,-0.1,0.15
705,-0.0060606060606061,-0.012499999999999956,-0.16666666666666669,0.07500000000000001,-0.1,0.15
706,-0.0911764705882353,-0.2714285714285714,-0.125,-0.09999999999999998,-0.1,0.25
707,0.029577464788732355,0.10000000000000009,0.0,0.10000000000000003,-0.1,0.07
708,-0.0060606060606061,0.022222222222222254,0.125,-0.3,0.1,0.12
709,0.012499999999999956,-0.033333333333333326,0.125,0.033333333333333326,-0.1,0.07
710,0.006249999999999978,0.050000000000000044,-0.16666666666666669,0.033333333333333326,0.2333333333333333,0.1
711,0.04936708860759487,0.050000000000000044,-0.07142857142857145,-0.13333333333333333,-0.1,0.08
712,0.004761904761904745,-0.24545454545454543,0.08823529411764708,-0.09999999999999998,-0.1,0.17
713,0.026470588235294135,0.06190476190476191,-0.5,0.2,0.2333333333333333,0.07
714,-0.040000000000000036,0.014285714285714346,-0.16666666666666669,-0.09999999999999998,-0.1,0.19
715,-0.033333333333333326,-0.24545454545454543,0.0,0.2,-0.1,0.15
716,0.0,-0.05294117647058816,-0.25,0.033333333333333326,0.06666666666666665,0.13
717,0.0,-0.25555555555555554,-0.5,-0.13333333333333333,-0.1,0.13
718,-0.036363636363636376,-0.033333333333333326,-0.05555555555555558,0.2,-0.1,0.15
719,0.0,-0.44999999999999996,-0.16666666666666669,0.14444444444444443,-0.1,0.12
720,-0.021212121212121238,0.050000000000000044,-0.5,-0.04999999999999999,-0.1,0.16
721,0.01304347826086949,-0.19999999999999996,-0.05555555555555558,-0.3,-0.1,0.17
722,0.046666666666666634,0.07777777777777783,0.0,-0.3,0.1,0.08
723,0.009090909090909038,-0.2714285714285714,0.125,0.10000000000000003,0.2333333333333333,0.15
724,-0.05492957746478877,-0.05714285714285705,0.0,-0.04999999999999999,-0.1,0.16
725,-0.0060606060606061,-0.06842105263157894,0.05555555555555558,0.2,0.15,0.12
726,0.021052631578947323,-0.09999999999999998,0.2142857142857143,0.2,-0.1,0.1
727,0.021874999999999978,0.033333333333333326,-0.16666666666666669,0.3,-0.1,0.13
728,-0.01764705882352946,0.022222222222222254,-0.09999999999999998,0.12857142857142856,-0.1,0.12
729,0.011392405063291089,-0.033333333333333326,0.0,-0.09999999999999998,0.042857142857142844,0.11
730,0.03023255813953485,-0.36666666666666664,-0.5,-0.3,-0.1,0.09
731,-0.02857142857142858,0.15000000000000002,0.0,0.033333333333333326,-0.1,0.09
732,-0.02658227848101269,-0.44999999999999996,-0.16666666666666669,-0.19999999999999998,0.15,0.17
733,0.0,0.10000000000000009,0.0,-0.04999999999999999,-0.1,0.08
734,0.0,-0.033333333333333326,0.125,-0.3,-0.1,0.09
735,0.0,-0.033333333333333326,-0.16666666666666669,0.2,0.06666666666666665,0.16
736,-0.018421052631579005,-0.2714285714285714,0.045454545454545414,-0.04999999999999999,-0.1,0.13
737,-0.008108108108108136,-0.0636363636363636,-0.5,-0.04999999999999999,0.024999999999999994,0.15
738,-0.05789473684210533,0.014285714285714346,0.0,-0.15714285714285714,-0.1,0.18
739,-0.03888888888888886,-0.25555555555555554,0.0,0.033333333333333326,-0.1,0.18
740,-0.02658227848101269,-0.19999999999999996,-0.25,-0.3,0.1857142857142857,0.14
741,0.02857142857142858,-0.033333333333333326,0.0,0.033333333333333326,-0.1,0.12
742,-0.05714285714285716,-0.25555555555555554,-0.07142857142857145,0.2,-0.1,0.18
743,-0.0020408163265306367,-0.05483870967741933,0.05555555555555558,0.07500000000000001,-0.1,0.18
744,-0.035593220338983045,-0.05714285714285705,-0.5,-0.13333333333333333,-0.1,0.2
745,0.017808219178082174,-0.0636363636363636,0.0,0.2,-0.1,0.11
746,-0.051898734177215244,-0.19999999999999996,-0.16666666666666669,-0.3,-0.1,0.17
747,0.010714285714285676,0.018750000000000044,0.0,-0.04999999999999999,-0.1,0.12
748,-0.029032258064516148,-0.11176470588235288,0.08333333333333337,0.033333333333333326,-0.1,0.18
749,-0.002564102564102555,-0.09999999999999998,0.09999999999999998,-0.3,-0.1,0.11
750,-0.0060606060606061,0.005882352941176561,-0.16666666666666669,-0.01428571428571429,-0.1,0.15
751,0.0444444444444444,-0.07499999999999996,-0.16666666666666669,0.07500000000000001,-0.1,0.12
752,0.03150684931506842,0.13333333333333341,0.25,-0.3,-0.1,0.06
753,0.006666666666666599,-0.09999999999999998,-0.07142857142857145,0.2,-0.1,0.12
754,0.024050632911392422,-0.033333333333333326,-0.25,0.2714285714285714,-0.1,0.08
755,0.04936708860759487,0.0,0.0,0.033333333333333326,-0.1,0.05
756,-0.029032258064516148,-0.033333333333333326,-0.16666666666666669,-0.3,-0.1,0.19
757,0.04999999999999993,-0.09999999999999998,0.125,-0.04999999999999999,0.2333333333333333,0.04
758,0.0,0.050000000000000044,0.05555555555555558,-0.09999999999999998,-0.1,0.15
759,-0.018421052631579005,-0.09999999999999998,0.0714285714285714,-0.09999999999999998,0.042857142857142844,0.14
760,-0.3285714285714286,0.07777777777777783,0.0,0.12857142857142856,0.06666666666666665,0.22
761,0.021874999999999978,0.1461538461538462,-0.5,0.2,0.15,0.06
762,0.012280701754385892,0.08947368421052637,0.19999999999999996,-0.01428571428571429,-0.1,0.14
763,-0.025000000000000022,0.033333333333333326,-0.35714285714285715,0.0,-0.1,0.19
764,0.01304347826086949,0.07777777777777783,0.25,0.14444444444444443,0.34444444444444444,0.09
765,-0.002941176470588225,0.050000000000000044,-0.05555555555555558,0.12857142857142856,0.15,0.14
766,0.09999999999999998,0.050000000000000044,-0.16666666666666669,-0.3,-0.1,0.02
767,-0.04634146341463419,0.002702702702702786,-0.16666666666666669,0.07500000000000001,0.1,0.22
768,-0.02280701754385972,0.08571428571428574,-0.25,0.10000000000000003,-0.1,0.15
769,0.02682926829268295,-0.12857142857142856,-0.09999999999999998,0.2,-0.1,0.07
770,0.011392405063291089,-0.2714285714285714,0.09999999999999998,-0.13333333333333333,-0.1,0.11
771,0.03506493506493502,0.027272727272727337,-0.16666666666666669,-0.09999999999999998,-0.1,0.08
772,0.023076923076923106,0.10000000000000009,-0.16666666666666669,-0.3,-0.1,0.09
773,0.013580246913580174,-0.12857142857142856,0.0,-0.3,-0.1,0.09
774,0.033333333333333326,-0.07499999999999996,-0.3,0.12857142857142856,0.30000000000000004,0.09
775,0.021874999999999978,0.03913043478260869,-0.5,-0.04999999999999999,0.15,0.12
776,0.009090909090909038,0.17272727272727273,-0.3,0.033333333333333326,-0.1,0.09
777,-0.003896103896103953,-0.033333333333333326,0.2142857142857143,-0.3,-0.1,0.1
778,0.0014084507042253502,-0.08461538461538454,-0.33333333333333337,0.10000000000000003,0.1,0.14
779,0.015492957746478853,-0.033333333333333326,0.1428571428571429,0.033333333333333326,-0.1,0.1
780,-0.014285714285714346,0.040740740740740744,0.12962962962962965,-0.175,-0.1,0.21
781,0.06153846153846154,0.050000000000000044,-0.07142857142857145,-0.09999999999999998,0.4,0.05
782,-0.03513513513513511,-0.033333333333333326,0.0,0.033333333333333326,0.2333333333333333,0.13
783,-0.032352941176470584,0.08260869565217399,-0.09999999999999998,-0.3,-0.1,0.11
784,0.048717948717948656,-0.29999999999999993,0.0,0.10000000000000003,-0.1,0.07
785,-0.009589041095890427,0.0,0.0,-0.3,0.30000000000000004,0.13
786,-0.032352941176470584,0.06190476190476191,-0.25,0.10000000000000003,-0.1,0.12
787,-0.01764705882352946,0.022222222222222254,-0.3,-0.04999999999999999,0.1,0.14
788,-0.04516129032258065,-0.033333333333333326,-0.16666666666666669,0.10000000000000003,-0.1,0.17
789,0.024528301886792447,0.10000000000000009,-0.16666666666666669,0.3,-0.1,0.08
790,0.06511627906976747,-0.7,-0.16666666666666669,0.2,-0.1,0.03
791,0.009090909090909038,0.17804878048780493,-0.09999999999999998,0.3,-0.1,0.09
792,-0.04705882352941182,-0.12857142857142856,-0.05555555555555558,-0.13333333333333333,-0.1,0.19
793,0.004109589041095818,-0.49999999999999994,0.0,-0.01428571428571429,0.1857142857142857,0.15
794,-0.051515151515151514,-0.7,0.0625,0.033333333333333326,-0.1,0.22
795,0.0117647058823529,-0.007692307692307665,0.09999999999999998,-0.09999999999999998,-0.1,0.12
796,0.020000000000000018,0.0,-0.07142857142857145,-0.3,-0.1,0.11
797,-0.0014492753623188692,0.033333333333333326,0.09999999999999998,-0.04999999999999999,-0.1,0.13
798,0.02753623188405796,0.06470588235294117,0.0,-0.09999999999999998,-0.1,0.1
799,-0.0014492753623188692,-0.033333333333333326,-0.3,0.2,-0.1,0.13
800,0.046666666666666634,0.15714285714285714,-0.3,0.2,-0.1,0.04
801,-0.13913043478260867,0.017948717948717996,-0.05555555555555558,-0.04999999999999999,-0.1,0.22
802,0.016666666666666607,0.11250000000000004,0.09999999999999998,-0.09999999999999998,-0.1,0.07
803,0.011392405063291089,-0.36666666666666664,0.16666666666666663,-0.3,0.1,0.1
804,0.004109589041095818,0.06923076923076932,-0.07142857142857145,-0.3,0.1,0.1
805,0.047368421052631504,0.050000000000000044,0.0,0.10000000000000003,-0.1,0.11
806,0.021052631578947323,0.050000000000000044,-0.16666666666666669,-0.04999999999999999,-0.1,0.08
807,0.045205479452054775,0.1461538461538462,0.09999999999999998,-0.3,-0.1,0.07
808,0.07499999999999996,-0.05714285714285705,0.0,-0.3,-0.1,0.02
809,-0.01764705882352946,-0.007692307692307665,0.0714285714285714,-0.01428571428571429,-0.1,0.15
810,-0.09444444444444444,-0.033333333333333326,-0.09999999999999998,0.07500000000000001,0.042857142857142844,0.27
811,-0.0034482758620689724,0.16206896551724137,-0.25,0.2,0.1,0.09
812,0.0038461538461538325,0.14375000000000004,-0.16666666666666669,-0.01428571428571429,0.06666666666666665,0.12
813,0.007894736842105288,-0.12857142857142856,-0.07142857142857145,-0.3,0.06666666666666665,0.13
814,-0.0016949152542372614,0.06923076923076932,0.16666666666666663,-0.3,-0.1,0.11
815,-0.011111111111111183,-0.033333333333333326,0.045454545454545414,-0.3,-0.1,0.14
816,0.026470588235294135,-0.0888888888888888,-0.33333333333333337,-0.3,0.2333333333333333,0.14
817,0.024528301886792447,0.15294117647058825,0.0,-0.3,-0.1,0.09
818,0.04999999999999993,-0.09999999999999998,0.16666666666666663,-0.09999999999999998,0.15,0.05
819,0.04202898550724632,0.0,0.045454545454545414,-0.01428571428571429,-0.1,0.1
820,-0.0194029850746269,0.033333333333333326,0.125,-0.13333333333333333,-0.1,0.14
821,-0.008108108108108136,-0.36666666666666664,-0.05555555555555558,0.2,-0.1,0.15
822,0.006249999999999978,0.16666666666666674,0.09999999999999998,-0.3,-0.1,0.13
823,-0.004477611940298498,0.14210526315789473,-0.09999999999999998,0.2,-0.1,0.09
824,0.045454545454545414,0.16206896551724137,-0.05555555555555558,-0.04999999999999999,0.2333333333333333,0.07
825,-0.01594202898550723,-0.05714285714285705,0.0,-0.09999999999999998,-0.1,0.15
826,0.027710843373493943,-0.09999999999999998,0.16666666666666663,0.033333333333333326,0.2333333333333333,0.04
827,-0.061764705882352944,-0.2714285714285714,-0.09999999999999998,0.033333333333333326,-0.1,0.23
828,-0.05625000000000002,0.11818181818181828,0.16666666666666663,0.07500000000000001,-0.1,0.18
829,-0.04492753623188406,0.11250000000000004,-0.09999999999999998,-0.3,-0.1,0.16
830,0.03421052631578947,-0.07499999999999996,0.0,-0.3,0.06666666666666665,0.11
831,-0.002941176470588225,-0.033333333333333326,-0.25,0.2714285714285714,-0.1,0.12
832,0.04936708860759487,-0.29999999999999993,-0.25,-0.01428571428571429,0.30000000000000004,0.08
833,0.021052631578947323,-0.19999999999999996,-0.16666666666666669,-0.3,0.06666666666666665,0.13
834,0.03150684931506842,0.10000000000000009,0.05555555555555558,-0.3,0.15,0.08
835,-0.03698630136986303,-0.0636363636363636,-0.05555555555555558,-0.3,-0.1,0.16
836,0.04366197183098586,-0.19999999999999996,0.09999999999999998,0.2,-0.1,0.1
837,0.0014084507042253502,-0.033333333333333326,-0.09999999999999998,-0.01428571428571429,-0.1,0.14
838,0.025000000000000022,-0.19999999999999996,-0.25,-0.13333333333333333,-0.1,0.12
839,-0.04285714285714293,-0.07499999999999996,0.16666666666666663,-0.04999999999999999,-0.1,0.17
840,-0.020000000000000018,0.050000000000000044,-0.5,-0.3,-0.1,0.12
841,0.016666666666666607,0.027272727272727337,0.125,-0.3,-0.1,0.11
842,-0.020000000000000018,0.0,-0.5,-0.01428571428571429,-0.1,0.15
843,0.03506493506493502,-0.033333333333333326,0.0714285714285714,-0.09999999999999998,-0.1,0.07
844,0.025000000000000022,-0.29999999999999993,0.2777777777777778,-0.3,-0.1,0.07
845,-0.08181818181818179,0.020000000000000018,-0.25,-0.04999999999999999,0.1,0.23
846,0.03150684931506842,0.13333333333333341,-0.09999999999999998,-0.3,0.1857142857142857,0.08
847,-0.008108108108108136,0.014285714285714346,0.16666666666666663,0.12857142857142856,-0.1,0.1
848,-0.012500000000000067,-0.36666666666666664,-0.07142857142857145,-0.04999999999999999,-0.1,0.13
849,-0.014754098360655776,0.07777777777777783,-0.5,-0.3,-0.1,0.15
850,-0.0052631578947368585,-0.033333333333333326,-0.5,-0.3,0.042857142857142844,0.15
851,-0.003896103896103953,-0.12857142857142856,0.0,-0.15714285714285714,-0.1,0.13
852,-0.016883116883116944,-0.15454545454545454,-0.5,-0.04999999999999999,0.4,0.12
853,0.07183098591549297,0.0,0.16666666666666663,0.12857142857142856,-0.1,0.05
854,0.020000000000000018,-0.033333333333333326,-0.5,0.10000000000000003,0.06666666666666665,0.1
855,-0.004477611940298498,0.0368421052631579,-0.5,0.2555555555555556,-0.1,0.11
856,0.061038961038961004,0.027272727272727337,-0.5,0.10000000000000003,-0.1,0.06
857,0.0012345679012345512,-0.033333333333333326,-0.5,0.033333333333333326,-0.1,0.11
858,-0.045454545454545525,-0.015789473684210464,0.0,0.14444444444444443,0.3285714285714285,0.18
859,0.006666666666666599,-0.007692307692307665,-0.5,0.2714285714285714,-0.1,0.09
860,0.05999999999999994,-0.007692307692307665,-0.25,-0.3,-0.1,0.08
861,0.03827160493827153,-0.19999999999999996,0.0714285714285714,0.2,0.15,0.05
862,0.007894736842105288,-0.12857142857142856,-0.2142857142857143,-0.3,0.042857142857142844,0.14
863,-0.029629629629629672,0.08787878787878789,-0.5,0.10000000000000003,-0.1,0.15
864,0.025000000000000022,-0.07499999999999996,0.0,0.033333333333333326,0.1,0.07
865,-0.00638297872340432,0.06666666666666676,0.045454545454545414,0.10000000000000003,0.042857142857142844,0.16
866,-0.014285714285714346,-0.012499999999999956,-0.375,-0.3,0.15,0.15
867,-0.00666666666666671,-0.19999999999999996,0.09999999999999998,0.033333333333333326,-0.1,0.12
868,-0.12222222222222223,0.13582089552238807,0.0,-0.04999999999999999,-0.1,0.16
869,0.04047619047619044,-0.7,0.0,0.033333333333333326,0.2333333333333333,0.06
870,-0.07948717948717954,0.050000000000000044,0.1842105263157895,0.12857142857142856,-0.1,0.21
871,-0.0052631578947368585,-0.033333333333333326,0.09999999999999998,0.16153846153846158,-0.1,0.17
872,-0.04925373134328359,-0.015789473684210464,-0.16666666666666669,-0.09999999999999998,-0.1,0.17
873,-0.003896103896103953,-0.19999999999999996,-0.2142857142857143,-0.13333333333333333,0.15,0.14
874,-0.02857142857142858,0.050000000000000044,0.16666666666666663,-0.3,-0.1,0.13
875,0.017808219178082174,-0.15454545454545454,0.0,-0.01428571428571429,-0.1,0.12
876,0.02063492063492056,0.014285714285714346,0.25,-0.3,-0.1,0.13
877,0.08666666666666667,0.0,0.0,0.033333333333333326,0.024999999999999994,0.05
878,-0.0692307692307692,-0.0636363636363636,0.0714285714285714,-0.04999999999999999,0.06666666666666665,0.19
879,-0.037931034482758696,-0.0888888888888888,0.045454545454545414,-0.3,0.275,0.2
880,0.0,0.1636363636363637,-0.16666666666666669,0.0,-0.1,0.12
881,0.03506493506493502,-0.07499999999999996,-0.16666666666666669,0.2,-0.1,0.09
882,0.0012345679012345512,-0.19999999999999996,-0.5,-0.09999999999999998,-0.1,0.12
883,-0.05492957746478877,0.0,0.05555555555555558,0.36666666666666664,-0.1,0.14
884,0.040298507462686595,0.06470588235294117,0.0,-0.01428571428571429,0.1,0.09
885,0.006249999999999978,0.10000000000000009,-0.07142857142857145,0.10000000000000003,0.15,0.1
886,-0.032352941176470584,0.0,-0.5,-0.3,0.06666666666666665,0.16
887,0.050617283950617264,0.050000000000000044,-0.16666666666666669,0.2714285714285714,0.1,0.04
888,-0.011111111111111183,-0.010344827586206806,-0.25,0.14444444444444443,-0.1,0.17
889,-0.05942028985507253,-0.19999999999999996,0.1470588235294118,-0.3,-0.1,0.17
890,-0.00588235294117645,-0.033333333333333326,0.0,0.10000000000000003,-0.1,0.08
891,0.042857142857142816,0.027272727272727337,0.25,-0.09999999999999998,-0.1,0.09
892,-0.012903225806451646,0.0368421052631579,0.0,0.2,0.2333333333333333,0.12
893,0.007692307692307665,-0.19999999999999996,0.05555555555555558,0.2714285714285714,-0.1,0.15
894,0.012280701754385892,0.15000000000000002,0.16666666666666663,0.2,0.15,0.09
895,0.019354838709677358,0.10000000000000009,0.16666666666666663,0.4142857142857143,0.042857142857142844,0.09
896,-0.034146341463414664,-0.36666666666666664,-0.07142857142857145,-0.04999999999999999,-0.1,0.14
897,0.026470588235294135,-0.19999999999999996,0.16666666666666663,-0.175,0.15,0.13
898,0.01304347826086949,0.10000000000000009,0.0714285714285714,0.10000000000000003,-0.1,0.09
899,-0.025000000000000022,-0.2714285714285714,0.0,0.2,0.1,0.15
900,-0.014285714285714346,-0.32499999999999996,0.25,-0.3,-0.1,0.13
901,-0.008108108108108136,-0.0636363636363636,-0.09999999999999998,0.07500000000000001,-0.1,0.12
902,0.020000000000000018,-0.09999999999999998,0.0,0.12857142857142856,-0.1,0.09
903,-0.07307692307692315,-0.09999999999999998,0.04166666666666663,-0.3,-0.1,0.25
904,-0.009375000000000022,0.022222222222222254,-0.05555555555555558,0.2,-0.1,0.13
905,-0.009589041095890427,-0.29999999999999993,0.11538461538461542,-0.09999999999999998,0.15,0.13
906,0.025373134328358193,0.15714285714285714,0.25,-0.04999999999999999,-0.1,0.06
907,-0.0052631578947368585,0.06666666666666676,-0.5,0.2,0.4,0.12
908,0.04047619047619044,-0.09999999999999998,-0.25,-0.3,0.06666666666666665,0.06
909,-0.04285714285714293,0.005882352941176561,-0.25,-0.04999999999999999,0.1,0.15
910,0.017808219178082174,-0.2714285714285714,-0.25,0.12857142857142856,-0.1,0.16
911,-0.04084507042253527,-0.012499999999999956,-0.5,0.033333333333333326,-0.1,0.16
912,0.027710843373493943,-0.09999999999999998,0.0,-0.04999999999999999,-0.1,0.07
913,-0.00638297872340432,0.06470588235294117,-0.35714285714285715,0.07500000000000001,0.15,0.17
914,-0.002564102564102555,-0.36666666666666664,0.0,0.12857142857142856,0.15,0.11
915,-0.04285714285714293,0.08125000000000004,0.0,-0.04999999999999999,0.042857142857142844,0.17
916,0.021052631578947323,-0.033333333333333326,-0.16666666666666669,0.12857142857142856,-0.1,0.1
917,-0.035593220338983045,0.050000000000000044,0.1428571428571429,0.033333333333333326,0.15,0.13
918,-0.06216216216216219,-0.16153846153846152,-0.3,-0.3,-0.1,0.2
919,-0.009375000000000022,0.06923076923076932,-0.16666666666666669,-0.09999999999999998,-0.1,0.11
920,0.014634146341463428,-0.19999999999999996,-0.16666666666666669,-0.09999999999999998,-0.1,0.1
921,0.025000000000000022,-0.49999999999999994,-0.5,-0.07777777777777778,-0.1,0.13
922,-0.0014492753623188692,0.033333333333333326,0.0714285714285714,0.033333333333333326,-0.1,0.12
923,-0.0836734693877551,0.10000000000000009,0.0,-0.3,-0.1,0.16
924,0.036708860759493644,0.10000000000000009,-0.16666666666666669,-0.09999999999999998,0.2333333333333333,0.05
925,-0.023287671232876783,0.005882352941176561,-0.5,-0.09999999999999998,-0.1,0.13
926,0.02207792207792203,-0.19999999999999996,-0.16666666666666669,-0.3,0.1857142857142857,0.12
927,0.009090909090909038,0.06923076923076932,0.25,-0.3,0.1,0.1
928,0.033333333333333326,0.07272727272727275,-0.09999999999999998,-0.01428571428571429,0.06666666666666665,0.12
929,0.07560975609756093,0.014285714285714346,-0.16666666666666669,-0.09999999999999998,0.2333333333333333,0.02
930,0.08750000000000002,0.050000000000000044,0.0,0.3,0.2333333333333333,-0.01
931,-0.03888888888888886,0.0,0.045454545454545414,-0.04999999999999999,-0.1,0.14
932,-0.018421052631579005,-0.09999999999999998,0.16666666666666663,-0.04999999999999999,-0.1,0.12
933,-0.015384615384615441,0.11481481481481481,-0.2142857142857143,0.4272727272727273,-0.1,0.12
934,0.042857142857142816,0.1823529411764706,0.0,-0.3,-0.1,0.07
935,-0.023287671232876783,0.005882352941176561,-0.5,0.2,-0.1,0.11
936,0.025925925925925908,-0.44999999999999996,0.0714285714285714,0.10000000000000003,-0.1,0.08
937,0.006249999999999978,0.07272727272727275,-0.09999999999999998,0.2714285714285714,-0.1,0.09
938,-0.026984126984127,-0.015789473684210464,0.16666666666666663,-0.3,-0.1,0.16
939,-0.03924050632911391,-0.12857142857142856,-0.07142857142857145,-0.04999999999999999,-0.1,0.14
940,-0.00666666666666671,-0.19999999999999996,-0.16666666666666669,-0.04999999999999999,0.2333333333333333,0.14
941,0.023076923076923106,0.050000000000000044,0.0,-0.09999999999999998,0.1,0.08
942,0.04339622641509433,0.17500000000000004,0.16666666666666663,0.033333333333333326,0.024999999999999994,0.1
943,0.029577464788732355,0.022222222222222254,-0.25,-0.04999999999999999,-0.1,0.09
944,-0.0304347826086957,-0.007692307692307665,-0.5,-0.13333333333333333,0.024999999999999994,0.19
945,-0.04035087719298247,-0.04999999999999993,0.0,0.10000000000000003,0.06666666666666665,0.19
946,0.01025641025641022,-0.07499999999999996,0.09999999999999998,-0.04999999999999999,-0.1,0.1
947,-0.023287671232876783,-0.09999999999999998,-0.3,-0.13333333333333333,0.06666666666666665,0.17
948,-0.05789473684210533,0.12608695652173918,0.1923076923076923,-0.3,0.15,0.13
949,-0.06129032258064515,0.014285714285714346,0.0714285714285714,-0.3,-0.1,0.19
950,-0.02280701754385972,-0.018181818181818188,0.0,0.2555555555555556,0.15,0.15
951,0.0444444444444444,-0.14444444444444438,0.16666666666666663,0.2,0.15,0.07
952,-0.018421052631579005,0.0,0.0,-0.3,-0.1,0.13
953,0.011392405063291089,-0.7,0.0,0.10000000000000003,-0.1,0.11
954,-0.01594202898550723,0.050000000000000044,-0.5,-0.09999999999999998,0.15,0.12
955,0.014285714285714235,0.12352941176470589,-0.09999999999999998,0.033333333333333326,-0.1,0.09
956,-0.02280701754385972,0.07777777777777783,0.20588235294117652,-0.3,0.15,0.13
957,0.004109589041095818,-0.09999999999999998,0.0,0.07500000000000001,0.15,0.12
958,0.05348837209302326,-0.36666666666666664,0.0,0.033333333333333326,-0.1,0.04
959,0.023076923076923106,-0.033333333333333326,-0.16666666666666669,0.033333333333333326,-0.1,0.08
960,0.045205479452054775,-0.12857142857142856,0.16666666666666663,0.10000000000000003,-0.1,0.09
961,0.0620253164556962,-0.44999999999999996,0.05555555555555558,-0.3,0.06666666666666665,0.07
962,-0.10408163265306125,0.03529411764705892,0.0,-0.15714285714285714,0.06666666666666665,0.22
963,-0.01594202898550723,-0.09999999999999998,0.25,0.12857142857142856,-0.1,0.14
964,-0.002941176470588225,0.1823529411764706,-0.07142857142857145,0.10000000000000003,-0.1,0.09
965,-0.012676056338028152,0.022222222222222254,0.0,-0.04999999999999999,-0.1,0.11
966,-0.01764705882352946,-0.033333333333333326,0.125,-0.09999999999999998,0.15,0.13
967,0.04936708860759487,-0.19999999999999996,-0.25,0.15454545454545454,-0.1,0.08
968,-0.002564102564102555,-0.36666666666666664,-0.09999999999999998,0.12857142857142856,0.15,0.12
969,0.015492957746478853,0.13333333333333341,-0.16666666666666669,-0.09999999999999998,-0.1,0.08
970,0.0016393442622950616,-0.0636363636363636,-0.16666666666666669,-0.04999999999999999,0.15,0.16
971,0.027710843373493943,-0.29999999999999993,-0.16666666666666669,-0.3,-0.1,0.09
972,-0.029870129870129936,-0.36666666666666664,0.13636363636363635,-0.3,-0.1,0.14
973,-0.00638297872340432,0.10000000000000009,0.20588235294117652,0.033333333333333326,0.15,0.13
974,0.0625,-0.09999999999999998,-0.09999999999999998,0.3,0.1,0.04
975,-0.011111111111111183,-0.09999999999999998,0.05555555555555558,-0.3,-0.1,0.12
976,0.03150684931506842,0.16666666666666674,-0.09999999999999998,-0.09999999999999998,-0.1,0.06
977,0.00540540540540535,-0.29999999999999993,0.16666666666666663,0.10000000000000003,-0.1,0.11
978,0.0014084507042253502,-0.19999999999999996,0.13636363636363635,-0.3,-0.1,0.14
979,0.01764705882352935,-0.033333333333333326,0.0,-0.3,0.15,0.06
980,-0.00666666666666671,-0.19999999999999996,0.0714285714285714,-0.175,-0.1,0.16
981,-0.020689655172413834,-0.09999999999999998,0.09999999999999998,-0.13333333333333333,0.06666666666666665,0.19
982,0.03827160493827153,-0.2714285714285714,0.0714285714285714,-0.3,-0.1,0.07
983,0.04594594594594592,-0.09999999999999998,0.0,0.2,-0.1,0.08
984,0.050617283950617264,-0.29999999999999993,-0.25,0.033333333333333326,0.15,0.07
985,0.05833333333333335,0.10000000000000009,0.09999999999999998,-0.04999999999999999,-0.1,0.05
986,0.025000000000000022,-0.12857142857142856,0.0,-0.04999999999999999,-0.1,0.08
987,-0.020000000000000018,-0.14444444444444438,-0.16666666666666669,-0.01428571428571429,-0.1,0.15
988,-0.08181818181818179,0.0,-0.09999999999999998,-0.3,-0.1,0.18
989,-0.02857142857142858,0.050000000000000044,0.16666666666666663,-0.3,0.042857142857142844,0.13
990,-0.009756097560975618,-0.7,-0.05555555555555558,-0.3,0.15,0.12
991,-0.012500000000000067,-0.7,-0.16666666666666669,-0.09999999999999998,-0.1,0.15
992,0.05384615384615388,0.10000000000000009,-0.09999999999999998,0.3875,-0.1,0.07
993,-0.025000000000000022,0.06923076923076932,0.0,0.3428571428571429,0.30000000000000004,0.14
994,0.03442622950819674,0.07777777777777783,0.0,0.10000000000000003,0.024999999999999994,0.12
995,-0.026760563380281766,-0.12857142857142856,0.0,0.10000000000000003,0.15,0.15
996,0.04999999999999993,-0.12857142857142856,0.09999999999999998,0.033333333333333326,-0.1,0.06
997,0.033333333333333326,0.050000000000000044,-0.16666666666666669,0.3,-0.1,0.11
998,0.0444444444444444,0.08571428571428574,0.09999999999999998,-0.09999999999999998,-0.1,0.07
999,-0.06666666666666665,-0.19999999999999996,0.11538461538461542,-0.04999999999999999,-0.1,0.17
