,0,1,2
0,-0.0009200920092009568,-0.2,0.001
1,0.00018001800180011962,-0.2,-0.0001
2,0.009880988098809884,-0.2,-0.0098
3,-0.004220422042204297,-0.2,0.0043
4,0.0025605121024204758,-0.2,-0.0024
5,0.0068613722744548244,-0.2,-0.0067
6,-0.00012001200120015376,-0.2,0.0002
7,0.00028002800280024776,-0.2,-0.0002
8,-0.0061206120612061765,-0.2,0.0062
9,0.002740822246673935,0.1333333333333333,-0.0026
10,-0.0032813125250100716,0.3,0.0034
11,-6.0018005401674124e-05,0.1333333333333333,0.0002
12,0.0017801780178017257,-0.2,-0.0017
13,0.005261052210442041,-0.2,-0.0051
14,-0.0015201520152016146,-0.2,0.0016
15,-0.0010991247710157026,-0.004597701149425287,0.0116
16,0.002880288028802802,-0.2,-0.0028
17,0.0070807080708070735,-0.2,-0.007
18,0.0024604920984195866,-0.2,-0.0023
19,-0.0016201620162016317,-0.2,0.0017
20,-0.0021202120212021613,-0.2,0.0022
21,-0.0028202820282028362,-0.2,0.0029
22,-0.004220422042204297,-0.2,0.0043
23,0.008480848084808423,-0.2,-0.0084
24,0.0010801080108010508,-0.2,-0.001
25,0.0022802280228022553,-0.2,-0.0022
26,-0.0013201320132013583,-0.2,0.0014
27,-0.001020102010201085,-0.2,0.0011
28,0.0028605721144228102,-0.2,-0.0027
29,0.004560912182436483,-0.2,-0.0044
30,0.0017405221566469953,0.1333333333333333,-0.0016
31,0.0039803980398039895,-0.2,-0.0039
32,0.006880688068806817,-0.2,-0.0068
33,-0.0006601980594178603,0.1333333333333333,0.0008
34,-0.0030203020302030925,-0.2,0.0031
35,0.000760152030406025,-0.2,-0.0006
36,0.002880288028802802,-0.2,-0.0028
37,-0.006561968590577227,0.1333333333333333,0.0067
38,0.00018001800180011962,-0.2,-0.0001
39,-0.0016201620162016317,-0.2,0.0017
40,-0.006220622062206305,-0.2,0.0063
41,0.004460892178435594,-0.2,-0.0043
42,-0.006061818545563757,0.1333333333333333,0.0062
43,-0.001120112011201213,-0.2,0.0012
44,-0.002710904309124018,0.019298245614035064,0.0093
45,0.0004600920184036905,0.3,-0.0004
46,0.002780278027802785,-0.2,-0.0027
47,-0.002801400700350176,0.39999999999999997,0.0029
48,0.002009336310127785,-0.0013698630136986523,0.0068
49,0.00018001800180011962,-0.2,-0.0001
50,0.0032803280328032036,-0.2,-0.0032
51,-0.001740348069613984,-0.2,0.0019
52,-0.0014402880576115384,-0.2,0.0016
53,-0.003520352035203511,-0.2,0.0036
54,-0.005420542054205502,-0.2,0.0055
55,0.0013801380138013242,-0.2,-0.0013
56,-0.005441088217643553,-0.2,0.0056
57,0.0018405521656496004,0.1333333333333333,-0.0017
58,0.003860772154430814,-0.2,-0.0037
59,0.0009800980098009227,-0.2,-0.0009
60,-0.005420542054205502,-0.2,0.0055
61,-0.005841168233646776,-0.2,0.006
62,-0.001740348069613984,-0.2,0.0019
63,-0.0028202820282028362,-0.2,0.0029
64,0.00016003200640124504,-0.2,-0.0
65,0.004641392417725321,0.1333333333333333,-0.0045
66,-0.001820182018201888,-0.2,0.0019
67,-0.002340468093618764,-0.2,0.0025
68,0.002060412082416474,-0.2,-0.0019
69,-0.004161248374512372,0.1333333333333333,0.0043
70,-0.0021202120212021613,-0.2,0.0022
71,0.004380438043804391,-0.2,-0.0043
72,0.005841752525757693,0.1333333333333333,-0.0057
73,0.005941782534760409,0.1333333333333333,-0.0058
74,-0.005620562056205647,-0.2,0.0057
75,-0.003920392039203913,-0.2,0.004
76,0.005061012202440485,-0.2,-0.0049
77,0.007880788078807877,-0.2,-0.0078
78,0.002880288028802802,-0.2,-0.0028
79,-0.00032003200320041003,-0.2,0.0004
80,0.003960792158431592,-0.2,-0.0038
81,-0.001120112011201213,-0.2,0.0012
82,-0.0037203720372037674,-0.2,0.0038
83,-0.0006200620062006834,-0.2,0.0007
84,0.005061012202440485,-0.2,-0.0049
85,-0.002340468093618764,-0.2,0.0025
86,-0.008341668333666785,-0.2,0.0085
87,-0.004340868173634771,-0.2,0.0045
88,-0.0028202820282028362,-0.2,0.0029
89,0.0017405221566469953,0.1333333333333333,-0.0016
90,0.0013205282112844774,0.3,-0.0012
91,-0.002720272027202819,-0.2,0.0028
92,0.0009800980098009227,-0.2,-0.0009
93,0.003960792158431592,-0.2,-0.0038
94,0.0007709474538445393,0.03239436619718308,0.0073
95,-0.006020602060206048,-0.2,0.0061
96,0.005180518051805083,-0.2,-0.0051
97,-0.0015201520152016146,-0.2,0.0016
98,-0.00042004200420042714,-0.2,0.0005
99,0.007880788078807877,-0.2,-0.0078
100,-0.00624124824965,-0.2,0.0064
101,0.0009800980098009227,-0.2,-0.0009
102,-0.0021202120212021613,-0.2,0.0022
103,-0.005122908489981426,0.03899371069182389,0.0228
104,0.005622248899559756,0.3,-0.0055
105,0.0030803080308030584,-0.2,-0.003
106,0.004160832166433259,-0.2,-0.004
107,0.0009402820846253768,0.1333333333333333,-0.0008
108,-0.0023202320232024176,-0.2,0.0024
109,-0.0031203120312031096,-0.2,0.0032
110,0.0030208979929650104,0.003592814371257469,0.017
111,-0.00012001200120015376,-0.2,0.0002
112,0.004021608643457353,0.3,-0.0039
113,0.0010602120424084704,-0.2,-0.0009
114,-0.002720272027202819,-0.2,0.0028
115,0.0029605921184235884,-0.2,-0.0028
116,-0.0059411882376475544,-0.2,0.0061
117,0.0024407322196658976,0.1333333333333333,-0.0023
118,-0.0012603781134340464,0.1333333333333333,0.0014
119,0.005080508050805066,-0.2,-0.005
120,0.0031606321264252557,-0.2,-0.003
121,-0.0024214528717231287,0.3,0.0026
122,-0.0021202120212021613,-0.2,0.0022
123,0.0022604520904180303,0.3,-0.0022
124,-0.007741548309662005,-0.2,0.0079
125,-0.0008401680336067585,-0.2,0.001
126,0.007380738073807347,-0.2,-0.0073
127,0.0062806280628062705,-0.2,-0.0062
128,-0.0007401480296059804,-0.2,0.0009
129,0.006080608060806014,-0.2,-0.006
130,0.005061012202440485,-0.2,-0.0049
131,-0.0002200220022002819,-0.2,0.0003
132,-0.00032003200320041003,-0.2,0.0004
133,0.000540162048614512,0.1333333333333333,-0.0004
134,0.0032803280328032036,-0.2,-0.0032
135,0.0030803080308030584,-0.2,-0.003
136,0.0005800580058005211,-0.2,-0.0005
137,0.000480048004800393,-0.2,-0.0004
138,0.0046804680468046644,-0.2,-0.0046
139,-0.006941388277655558,-0.2,0.0071
140,0.0018603720744148067,-0.2,-0.0017
141,-0.001120112011201213,-0.2,0.0012
142,0.0015603120624124722,-0.2,-0.0014
143,0.0035428342674138635,0.425,-0.0034
144,-0.00588832487309654,0.053333333333333344,0.014
145,-0.0009200920092009568,-0.2,0.001
146,0.0022802280228022553,-0.2,-0.0022
147,0.004589421691706064,-0.0120567375886525,0.0128
148,0.002160432086417252,-0.2,-0.002
149,-0.0036203620362036393,-0.2,0.0037
150,-0.0017605281584476273,0.1333333333333333,0.0019
151,-0.0002200220022002819,-0.2,0.0003
152,0.0014404321296388467,0.1333333333333333,-0.0013
153,0.0008402520756226606,0.1333333333333333,-0.0007
154,0.0016801680168015976,-0.2,-0.0016
155,0.0003800380038003759,-0.2,-0.0003
156,0.0007800780078007774,-0.2,-0.0007
157,-0.0050205020502051,-0.2,0.0051
158,-0.003320332033203366,-0.2,0.0034
159,-0.0009200920092009568,-0.2,0.001
160,-0.0023809523809523725,0.3,0.0025
161,2.000800320123286e-05,0.3,0.0001
162,0.001180118011801179,-0.2,-0.0011
163,0.001180118011801179,-0.2,-0.0011
164,0.0010602120424084704,-0.2,-0.0009
165,0.0022802280228022553,-0.2,-0.0022
166,-0.002440488097619542,-0.2,0.0026
167,-0.003520352035203511,-0.2,0.0036
168,-0.0009401880376075367,-0.2,0.0011
169,0.0037607521504300356,-0.2,-0.0036
170,-0.005141028205641218,-0.2,0.0053
171,0.003580358035803588,-0.2,-0.0035
172,-0.0024202420242024347,-0.2,0.0025
173,-0.0005200520052005553,-0.2,0.0006
174,-0.005961788536561041,0.1333333333333333,0.0061
175,0.005080508050805066,-0.2,-0.005
176,-0.0040408081616323255,-0.2,0.0042
177,0.0030803080308030584,-0.2,-0.003
178,-0.002440488097619542,-0.2,0.0026
179,-0.0020404080816163184,-0.2,0.0022
180,0.005902951475737828,0.39999999999999997,-0.0058
181,-2.0002000200025627e-05,-0.2,0.0001
182,-0.004761428428528558,0.1333333333333333,0.0049
183,0.0005800580058005211,-0.2,-0.0005
184,0.00034010203060919064,0.1333333333333333,-0.0002
185,-0.0016201620162016317,-0.2,0.0017
186,-0.004183765388850014,0.1333333333333333,0.0046
187,-0.006520652065206578,-0.2,0.0066
188,0.009280928092809226,-0.2,-0.0092
189,0.010381038103810303,-0.2,-0.0103
190,0.0025605121024204758,-0.2,-0.0024
191,-0.004920492049204972,-0.2,0.005
192,0.005580558055805485,-0.2,-0.0055
193,-0.004840968193638773,-0.2,0.005
194,0.0006535947712418277,-0.03173076923076923,0.0125
195,-0.0013201320132013583,-0.2,0.0014
196,-0.0022404480896179857,-0.2,0.0024
197,8.000800079999149e-05,-0.2,-0.0
198,0.004860972194438817,-0.2,-0.0047
199,-0.0015403080616123166,-0.2,0.0017
200,0.006780678067806689,-0.2,-0.0067
201,-0.0007602280684205764,0.1333333333333333,0.0009
202,-0.006061818545563757,0.1333333333333333,0.0062
203,8.000800079999149e-05,-0.2,-0.0
204,-0.004820482048204844,-0.2,0.0049
205,0.004180418041804135,-0.2,-0.0041
206,0.0029408822646793675,0.1333333333333333,-0.0028
207,-0.0022202220222022895,-0.2,0.0023
208,-0.006520652065206578,-0.2,0.0066
209,0.004980498049804938,-0.2,-0.0049
210,-0.0013201320132013583,-0.2,0.0014
211,0.0037214885954380827,0.3,-0.0036
212,0.001220488195278091,0.3,-0.0011
213,-0.004220422042204297,-0.2,0.0043
214,0.0024802480248024006,-0.2,-0.0024
215,0.009380938093809355,-0.2,-0.0093
216,0.0006601320264052468,-0.2,-0.0005
217,-0.0015201520152016146,-0.2,0.0016
218,0.0014801480148014523,-0.2,-0.0014
219,-0.0028405681136227656,-0.2,0.003
220,-0.004661398419525953,0.1333333333333333,0.0048
221,0.0011602320464092486,-0.2,-0.001
222,0.004080408040804007,-0.2,-0.004
223,0.002040612183655033,0.1333333333333333,-0.0019
224,0.004280428042804263,-0.2,-0.0042
225,0.001180118011801179,-0.2,-0.0011
226,-0.0026405281056212093,-0.2,0.0028
227,-0.0005601680504151441,0.1333333333333333,0.0007
228,-0.008520852085208586,-0.2,0.0086
229,-0.0007200720072008115,-0.2,0.0008
230,0.005980598059805886,-0.2,-0.0059
231,0.006080608060806014,-0.2,-0.006
232,0.001460292058411583,-0.2,-0.0013
233,-0.0008200820082008287,-0.2,0.0009
234,-0.005741148229645998,-0.2,0.0059
235,-0.0018627252480259981,-0.06885245901639345,0.01
236,0.006361272254450823,-0.2,-0.0062
237,0.005661132226445265,0.3,-0.0056
238,-0.010421042104210465,-0.2,0.0105
239,-0.005130901061928372,-0.007770961145194294,0.0346
240,0.007180718071807091,-0.2,-0.0071
241,0.0029620734514159697,0.3714285714285714,-0.0028
242,0.001307325171197249,0.018232044198895014,0.0198
243,0.0001200480192076192,0.3,-0.0
244,-0.0019605881764529487,0.1333333333333333,0.0021
245,0.0018603720744148067,-0.2,-0.0017
246,0.006322529011604572,0.3,-0.0062
247,-0.0028405681136227656,-0.2,0.003
248,0.002680268026802657,-0.2,-0.0026
249,-0.0015403080616123166,-0.2,0.0017
250,0.0013801380138013242,-0.2,-0.0013
251,0.0014801480148014523,-0.2,-0.0014
252,0.00994298289486839,0.1333333333333333,-0.0098
253,-0.007941588317663562,-0.2,0.0081
254,-0.0002200220022002819,-0.2,0.0003
255,-0.00042004200420042714,-0.2,0.0005
256,-0.00924184836967401,-0.2,0.0094
257,0.0006800680068006493,-0.2,-0.0006
258,-8.003201280515349e-05,0.3,0.0002
259,0.0005800580058005211,-0.2,-0.0005
260,0.004941482444733358,0.1333333333333333,-0.0048
261,-0.00012001200120015376,-0.2,0.0002
262,-0.0013201320132013583,-0.2,0.0014
263,-0.0008200820082008287,-0.2,0.0009
264,0.0008601720344068031,-0.2,-0.0007
265,-0.00032003200320041003,-0.2,0.0004
266,-0.0022202220222022895,-0.2,0.0023
267,0.0008402520756226606,0.1333333333333333,-0.0007
268,0.0031803180318031865,-0.2,-0.0031
269,0.0075615123024604936,-0.2,-0.0074
270,0.004580458045804536,-0.2,-0.0045
271,-0.0018217173267833786,0.03580786026200872,0.0147
272,-0.0014201420142014864,-0.2,0.0015
273,-0.0010402080416083148,-0.2,0.0012
274,0.005641692507752261,0.1333333333333333,-0.0055
275,0.0012403721116334143,0.1333333333333333,-0.0011
276,-0.005041008201640329,-0.2,0.0052
277,-0.004540908181636327,-0.2,0.0047
278,0.0006003001500749505,0.39999999999999997,-0.0005
279,0.004703476482617597,0.004545454545454547,0.0085
280,-0.0014402880576115384,-0.2,0.0016
281,-0.002660798239471851,0.1333333333333333,0.0028
282,0.0009800980098009227,-0.2,-0.0009
283,0.0025802580258025287,-0.2,-0.0025
284,0.000480048004800393,-0.2,-0.0004
285,0.000480048004800393,-0.2,-0.0004
286,-0.0010402080416083148,-0.2,0.0012
287,0.002040612183655033,0.1333333333333333,-0.0019
288,0.0013404021206361305,0.1333333333333333,-0.0012
289,-0.005841168233646776,-0.2,0.006
290,0.0016801680168015976,-0.2,-0.0016
291,0.0033803380338033318,-0.2,-0.0033
292,0.004380438043804391,-0.2,-0.0043
293,0.005380538053805339,-0.2,-0.0053
294,-0.0006200620062006834,-0.2,0.0007
295,-0.0012201220122012302,-0.2,0.0013
296,0.00488048804880481,-0.2,-0.0048
297,-2.0002000200025627e-05,-0.2,0.0001
298,-0.0014201420142014864,-0.2,0.0015
299,-0.0030203020302030925,-0.2,0.0031
300,0.003580358035803588,-0.2,-0.0035
301,-0.004220422042204297,-0.2,0.0043
302,-0.003320332033203366,-0.2,0.0034
303,-0.004465334900117579,-0.005837249567153119,0.2476
304,0.008161632326465273,-0.2,-0.008
305,0.001960392078415585,-0.2,-0.0018
306,-0.0006200620062006834,-0.2,0.0007
307,0.00036007201440280134,-0.2,-0.0002
308,0.0068613722744548244,-0.2,-0.0067
309,-2.0002000200025627e-05,-0.2,0.0001
310,-0.0016403280656132058,-0.2,0.0018
311,-0.008883553421368595,0.3,0.009
312,-0.0018605581674502325,0.1333333333333333,0.002
313,-0.00024004800960197858,-0.2,0.0004
314,-0.0014402880576115384,-0.2,0.0016
315,0.00028002800280024776,-0.2,-0.0002
316,0.000540162048614512,0.1333333333333333,-0.0004
317,0.003741122336700986,0.1333333333333333,-0.0036
318,-6.0018005401674124e-05,0.1333333333333333,0.0002
319,-0.005720572057205775,-0.2,0.0058
320,-0.005420542054205502,-0.2,0.0055
321,0.0009601920384076923,-0.2,-0.0008
322,-0.0024202420242024347,-0.2,0.0025
323,0.0009800980098009227,-0.2,-0.0009
324,-0.001120112011201213,-0.2,0.0012
325,0.002660532106421254,0.3,-0.0026
326,-0.00032003200320041003,-0.2,0.0004
327,-0.00034006801360275674,-0.2,0.0005
328,0.0030606121224244776,-0.2,-0.0029
329,0.0009805883530117354,0.1333333333333333,-0.0007
330,0.004260852170434037,-0.2,-0.0041
331,0.004380438043804391,-0.2,-0.0043
332,-0.00042004200420042714,-0.2,0.0005
333,0.008780878087808697,-0.2,-0.0087
334,-0.014342868573714807,-0.2,0.0145
335,0.00488048804880481,-0.2,-0.0048
336,-0.0066619985995799436,0.1333333333333333,0.0068
337,0.0023407022106631814,0.1333333333333333,-0.0022
338,-0.0019317838816782507,-0.05245901639344264,0.0059
339,0.001980198019801982,-0.2,-0.0019
340,0.008161632326465273,-0.2,-0.008
341,0.006341902570771163,0.1333333333333333,-0.0062
342,0.0029408822646793675,0.1333333333333333,-0.0028
343,0.005380538053805339,-0.2,-0.0053
344,0.001640492147644279,0.1333333333333333,-0.0015
345,-0.0023202320232024176,-0.2,0.0024
346,0.002140642192657749,0.1333333333333333,-0.002
347,0.0018801880188018538,-0.2,-0.0018
348,-0.0022202220222022895,-0.2,0.0023
349,0.0008601720344068031,-0.2,-0.0007
350,-0.0021202120212021613,-0.2,0.0022
351,-0.004740948189637995,-0.2,0.0049
352,0.002160432086417252,-0.2,-0.002
353,0.0007800780078007774,-0.2,-0.0007
354,0.004080408040804007,-0.2,-0.004
355,0.0009800980098009227,-0.2,-0.0009
356,0.0036607321464292575,-0.2,-0.0035
357,0.003741122336700986,0.1333333333333333,-0.0036
358,0.0015801580158015804,-0.2,-0.0015
359,-0.006441288257651556,-0.2,0.0066
360,-0.00012001200120015376,-0.2,0.0002
361,0.001980198019801982,-0.2,-0.0019
362,0.00016003200640124504,0.3,-0.0001
363,0.001180118011801179,-0.2,-0.0011
364,-0.0014402880576115384,-0.2,0.0016
365,0.006480648064806416,-0.2,-0.0064
366,0.004980498049804938,-0.2,-0.0049
367,-0.0008602580774232926,0.1333333333333333,0.001
368,-0.002520252025202563,-0.2,0.0026
369,0.0022802280228022553,-0.2,-0.0022
370,-0.001380552220888398,0.3,0.0015
371,0.002780278027802785,-0.2,-0.0027
372,0.0023604720944188085,-0.2,-0.0022
373,-0.0002600780234071065,0.1333333333333333,0.0004
374,0.0007605323726608271,0.3714285714285714,-0.0006
375,0.00022008803521400555,0.3,-0.0001
376,-0.006461938581574511,0.1333333333333333,0.0066
377,0.005461092218443597,-0.2,-0.0053
378,0.000480048004800393,-0.2,-0.0004
379,0.0008601720344068031,-0.2,-0.0007
380,0.0039803980398039895,-0.2,-0.0039
381,-0.0016201620162016317,-0.2,0.0017
382,0.0011403421026306981,0.1333333333333333,-0.001
383,0.002780278027802785,-0.2,-0.0027
384,-0.001560468140442195,0.1333333333333333,0.0017
385,-0.0020404080816163184,-0.2,0.0022
386,-2.0002000200025627e-05,-0.2,0.0001
387,0.005980598059805886,-0.2,-0.0059
388,-0.0053205320532053735,-0.2,0.0054
389,-0.007220722072207253,-0.2,0.0073
390,-0.008241648329666007,-0.2,0.0084
391,0.0008402520756226606,0.1333333333333333,-0.0007
392,-0.004740948189637995,-0.2,0.0049
393,-0.001020102010201085,-0.2,0.0011
394,0.0005800580058005211,-0.2,-0.0005
395,-0.0032203220322032378,-0.2,0.0033
396,-0.00032003200320041003,-0.2,0.0004
397,0.00348034803480346,-0.2,-0.0034
398,-0.0008401680336067585,-0.2,0.001
399,0.0010801080108010508,-0.2,-0.001
400,0.0018801880188018538,-0.2,-0.0018
401,-0.001920192019202016,-0.2,0.002
402,-0.0019403880776155402,-0.2,0.0021
403,-0.0004527680592715244,0.023404255319148914,0.0167
404,0.0015801580158015804,-0.2,-0.0015
405,-0.00020345879959315916,-0.0058823529411764774,0.0105
406,0.0010801080108010508,-0.2,-0.001
407,-0.007520752075207526,-0.2,0.0076
408,-0.0009803921568627416,0.3,0.0011
409,0.006780678067806689,-0.2,-0.0067
410,0.003741122336700986,0.1333333333333333,-0.0036
411,-0.0012402480496099821,-0.2,0.0014
412,0.0023604720944188085,-0.2,-0.0022
413,-0.0059411882376475544,-0.2,0.0061
414,0.006961392278455603,-0.2,-0.0068
415,-0.006220622062206305,-0.2,0.0063
416,0.0029802980298029302,-0.2,-0.0029
417,-0.004561368410523237,0.1333333333333333,0.0047
418,0.00018001800180011962,-0.2,-0.0001
419,0.008080808080808022,-0.2,-0.008
420,-0.004840968193638773,0.3,0.0049
421,0.0049609921984395955,-0.2,-0.0048
422,0.004860972194438817,-0.2,-0.0047
423,-0.005961788536561041,0.1333333333333333,0.0061
424,-0.007320732073207381,-0.2,0.0074
425,-0.0009602880864260088,0.1333333333333333,0.0011
426,0.005241572471741507,0.1333333333333333,-0.0051
427,0.002880288028802802,-0.2,-0.0028
428,-0.0066413282656532235,-0.2,0.0068
429,0.005680568056805613,-0.2,-0.0056
430,0.002180218021802127,-0.2,-0.0021
431,-0.002620262026202691,-0.2,0.0027
432,0.00018001800180011962,-0.2,-0.0001
433,-0.002020202020202033,-0.2,0.0021
434,0.0031803180318031865,-0.2,-0.0031
435,-0.00016004801440439032,-0.2,0.0004
436,0.001280128012801196,-0.2,-0.0012
437,-0.001020102010201085,-0.2,0.0011
438,0.002180218021802127,-0.2,-0.0021
439,0.0004600920184036905,-0.2,-0.0003
440,0.0002600520104020232,-0.2,-0.0001
441,0.002660532106421254,-0.2,-0.0025
442,-0.003420342034203494,-0.2,0.0035
443,-0.0023545985107668033,-0.022580645161290325,0.0062
444,-0.005220522052205245,-0.2,0.0053
445,0.0036162732295328404,-0.022222222222222227,-0.0008
446,0.004741422426727926,0.1333333333333333,-0.0046
447,0.005980598059805886,-0.2,-0.0059
448,0.006061212242448488,0.3,-0.006
449,0.003680368036803605,-0.2,-0.0036
450,0.002080208020801999,-0.2,-0.002
451,0.005761152230446043,-0.2,-0.0056
452,-0.0024202420242024347,-0.2,0.0025
453,-0.0005200520052005553,-0.2,0.0006
454,0.006661332266453268,-0.2,-0.0065
455,0.002180218021802127,-0.2,-0.0021
456,-0.007862358707612316,0.1333333333333333,0.008
457,-0.0023202320232024176,-0.2,0.0024
458,-0.007520752075207526,-0.2,0.0076
459,0.006790799561883887,0.0038638454461821514,0.3209
460,-0.00014002800560120043,-0.2,0.0003
461,0.0047804780478046816,-0.2,-0.0047
462,0.0015603120624124722,-0.2,-0.0014
463,0.0066419925977793115,0.1333333333333333,-0.0065
464,0.002780278027802785,-0.2,-0.0027
465,-0.002520252025202563,-0.2,0.0026
466,-0.0009200920092009568,-0.2,0.001
467,0.0018433179723501558,0.004255319148936149,0.0122
468,-0.0020404080816163184,-0.2,0.0022
469,-0.002660798239471851,0.1333333333333333,0.0028
470,0.006380638063806288,-0.2,-0.0063
471,-0.0033610083024907533,0.1333333333333333,0.0035
472,0.001180118011801179,-0.2,-0.0011
473,-0.004720472047204716,-0.2,0.0048
474,-0.005761728518555609,0.1333333333333333,0.0059
475,-0.001060318095428725,0.1333333333333333,0.0012
476,0.001960392078415585,-0.2,-0.0018
477,-0.0008803521408563553,0.3,0.001
478,-0.0016201620162016317,-0.2,0.0017
479,-0.003920392039203913,-0.2,0.004
480,0.001180118011801179,-0.2,-0.0011
481,0.009180918091809098,-0.2,-0.0091
482,0.007580758075807492,-0.2,-0.0075
483,-0.005120512051205117,-0.2,0.0052
484,0.006122448979591799,0.3,-0.006
485,-0.0022815237319210313,0.008791208791208788,0.013
486,-0.0016201620162016317,-0.2,0.0017
487,0.002760552110422032,-0.2,-0.0026
488,-0.01164232846569313,-0.2,0.0118
489,0.008280828082808278,-0.2,-0.0082
490,-0.00012001200120015376,-0.2,0.0002
491,0.001180118011801179,-0.2,-0.0011
492,-0.0016201620162016317,-0.2,0.0017
493,-0.002660798239471851,0.1333333333333333,0.0028
494,-0.001020102010201085,-0.2,0.0011
495,0.00488048804880481,-0.2,-0.0048
496,0.0003800380038003759,-0.2,-0.0003
497,-0.0045204520452045704,-0.2,0.0046
498,-0.001560468140442195,0.1333333333333333,0.0017
499,0.000480048004800393,-0.2,-0.0004
500,-0.005720572057205775,-0.2,0.0058
501,-0.0012201220122012302,-0.2,0.0013
502,0.009461892378475611,-0.2,-0.0093
503,0.0015603120624124722,-0.2,-0.0014
504,0.009342802840852205,0.1333333333333333,-0.0092
505,-0.003940788157631547,-0.2,0.0041
506,0.0030212084833932673,0.3,-0.0029
507,-0.004120412041204169,-0.2,0.0042
508,-0.0030203020302030925,-0.2,0.0031
509,0.002660532106421254,-0.2,-0.0025
510,-0.00972097209720979,-0.2,0.0098
511,0.006061212242448488,-0.2,-0.0059
512,-0.009020902090209115,-0.2,0.0091
513,-0.005541108221644331,-0.2,0.0057
514,-0.0028608582574772834,0.1333333333333333,0.003
515,0.005805805805805808,-0.1,-0.0051
516,0.0015259409969480275,0.017647058823529405,0.0084
517,-0.004340868173634771,-0.2,0.0045
518,0.006461292258451601,-0.2,-0.0063
519,0.0035607121424284793,-0.2,-0.0034
520,-0.003661098329498902,0.1333333333333333,0.0038
521,-0.0032203220322032378,-0.2,0.0033
522,-0.004320432043204314,-0.2,0.0044
523,-0.00564112822564522,-0.2,0.0058
524,-0.00042004200420042714,-0.2,0.0005
525,-0.0037203720372037674,-0.2,0.0038
526,0.0029605921184235884,-0.2,-0.0028
527,-0.00012001200120015376,-0.2,0.0002
528,0.0014404321296388467,0.1333333333333333,-0.0013
529,-0.001820182018201888,-0.2,0.0019
530,-0.0005601680504151441,0.1333333333333333,0.0007
531,8.000800079999149e-05,-0.2,-0.0
532,-0.0029202920292029644,-0.2,0.003
533,-0.000540108021604313,-0.2,0.0007
534,0.001980198019801982,-0.2,-0.0019
535,-0.007120712071207125,-0.2,0.0072
536,0.004480448044804408,-0.2,-0.0044
537,0.002060412082416474,-0.2,-0.0019
538,0.0024802480248024006,-0.2,-0.0024
539,0.002080208020801999,-0.2,-0.002
540,0.007661532306461272,-0.2,-0.0075
541,0.0050415124537360745,0.1333333333333333,-0.0049
542,-0.007220722072207253,-0.2,0.0073
543,0.0015603120624124722,-0.2,-0.0014
544,-0.0031203120312031096,-0.2,0.0032
545,0.0011204481792717047,0.3,-0.001
546,0.002780278027802785,-0.2,-0.0027
547,-0.0007200720072008115,-0.2,0.0008
548,-0.002160648194458381,0.1333333333333333,0.0023
549,-0.0012201220122012302,-0.2,0.0013
550,0.0008800880088007945,-0.2,-0.0008
551,-0.002060618185455665,0.1333333333333333,0.0022
552,0.0024802480248024006,-0.2,-0.0024
553,-0.00624124824965,-0.2,0.0064
554,0.002180218021802127,-0.2,-0.0021
555,-0.0028811524609844152,0.3,0.003
556,-0.008920892089208987,-0.2,0.009
557,-0.0021202120212021613,-0.2,0.0022
558,0.0016801680168015976,-0.2,-0.0016
559,-0.0014402880576115384,0.3,0.0015
560,0.003701850925462713,0.39999999999999997,-0.0036
561,0.015281528152815249,-0.2,-0.0152
562,0.004280428042804263,-0.2,-0.0042
563,0.002640792237671219,0.1333333333333333,-0.0025
564,0.003960792158431592,-0.2,-0.0038
565,0.0029605921184235884,-0.2,-0.0028
566,-0.002760828248474567,0.1333333333333333,0.0029
567,0.0014404321296388467,0.1333333333333333,-0.0013
568,-0.0002600780234071065,0.1333333333333333,0.0004
569,0.001980198019801982,-0.2,-0.0019
570,-0.0014402880576115384,-0.2,0.0016
571,0.0068613722744548244,-0.2,-0.0067
572,-0.0012201220122012302,-0.2,0.0013
573,-0.0016201620162016317,-0.2,0.0017
574,-0.0061206120612061765,-0.2,0.0062
575,-0.004020402040204041,-0.2,0.0041
576,0.0037803780378037333,-0.2,-0.0037
577,0.0029605921184235884,-0.2,-0.0028
578,0.0018801880188018538,-0.2,-0.0018
579,-0.0021202120212021613,-0.2,0.0022
580,0.0018603720744148067,-0.2,-0.0017
581,0.003860772154430814,-0.2,-0.0037
582,0.0006800680068006493,-0.2,-0.0006
583,-0.004781912765106089,0.3,0.0049
584,0.0015603120624124722,-0.2,-0.0014
585,-0.003940788157631547,-0.2,0.0041
586,0.000540162048614512,0.1333333333333333,-0.0004
587,0.0025802580258025287,-0.2,-0.0025
588,-0.0009401880376075367,-0.2,0.0011
589,0.0015801580158015804,-0.2,-0.0015
590,0.0023802380238023835,-0.2,-0.0023
591,0.004682809685811473,0.3,-0.0045
592,-0.002020202020202033,-0.2,0.0021
593,-0.005161548464539423,0.1333333333333333,0.0053
594,0.00488048804880481,-0.2,-0.0048
595,-0.005632949727437997,-0.05106382978723406,0.0117
596,0.005061012202440485,-0.2,-0.0049
597,-0.0022404480896179857,-0.2,0.0024
598,-0.005741148229645998,-0.2,0.0059
599,-0.0016201620162016317,-0.2,0.0017
600,0.0024802480248024006,-0.2,-0.0024
601,0.0008601720344068031,-0.2,-0.0007
602,0.004180418041804135,-0.2,-0.0041
603,0.0015801580158015804,-0.2,-0.0015
604,0.005180518051805083,-0.2,-0.0051
605,-0.002020202020202033,-0.2,0.0021
606,0.002080208020801999,-0.2,-0.002
607,-0.0006401280256052022,-0.2,0.0008
608,-0.00922092209220926,-0.2,0.0093
609,0.0033803380338033318,-0.2,-0.0033
610,0.0025513033832500476,0.006091370558375636,0.0562
611,0.005061012202440485,-0.2,-0.0049
612,0.001460292058411583,-0.2,-0.0013
613,0.0039803980398039895,-0.2,-0.0039
614,0.004760952190438039,-0.2,-0.0046
615,6.001200240046689e-05,-0.2,0.0001
616,0.005802901450725373,0.39999999999999997,-0.0057
617,-0.00032003200320041003,-0.2,0.0004
618,0.004560912182436483,-0.2,-0.0044
619,0.005780578057805741,-0.2,-0.0057
620,0.002880288028802802,-0.2,-0.0028
621,0.002240672201660465,0.1333333333333333,-0.0021
622,0.0024407322196658976,0.1333333333333333,-0.0023
623,-0.0007401480296059804,-0.2,0.0009
624,0.00028002800280024776,-0.2,-0.0002
625,0.002240672201660465,0.1333333333333333,-0.0021
626,0.002680268026802657,-0.2,-0.0026
627,0.011381138113811362,-0.2,-0.0113
628,0.0034410323096928375,0.1333333333333333,-0.0033
629,-0.009420942094209517,-0.2,0.0095
630,0.0033803380338033318,-0.2,-0.0033
631,-0.003420342034203494,-0.2,0.0035
632,0.0016801680168015976,-0.2,-0.0016
633,-0.0032203220322032378,-0.2,0.0033
634,-0.001020102010201085,-0.2,0.0011
635,0.001460292058411583,-0.2,-0.0013
636,-0.0021202120212021613,-0.2,0.0022
637,-0.0053205320532053735,-0.2,0.0054
638,0.0028605721144228102,-0.2,-0.0027
639,-0.0005802320928371962,0.3,0.0007
640,0.0016105417276719436,0.005479452054794498,0.0245
641,-0.0007200720072008115,-0.2,0.0008
642,-0.0023197286355181035,-0.017653890824622542,0.0553
643,0.0010801080108010508,-0.2,-0.001
644,0.0030409122736820837,0.1333333333333333,-0.0029
645,-0.0026810724289716426,0.3,0.0028
646,-0.004940988197639551,-0.2,0.0051
647,-2.0002000200025627e-05,-0.2,0.0001
648,-2.0002000200025627e-05,-0.2,0.0001
649,0.0012602520504100267,-0.2,-0.0011
650,0.007242172651795498,0.1333333333333333,-0.0071
651,-0.00420210105052532,0.2,0.0044
652,-0.004420442044204442,-0.2,0.0045
653,0.007180718071807091,-0.2,-0.0071
654,0.0007409632522278331,0.26153846153846155,-0.0003
655,0.005361072214442819,-0.2,-0.0052
656,-0.005541108221644331,-0.2,0.0057
657,0.002880288028802802,-0.2,-0.0028
658,0.00016003200640124504,-0.2,-0.0
659,0.001280128012801196,-0.2,-0.0012
660,0.0029802980298029302,-0.2,-0.0029
661,-0.004620462046204699,-0.2,0.0047
662,0.0009601920384076923,-0.2,-0.0008
663,0.0016801680168015976,-0.2,-0.0016
664,0.0036607321464292575,-0.2,-0.0035
665,0.00024007202160647445,0.1333333333333333,-0.0001
666,0.0025605121024204758,-0.2,-0.0024
667,-0.0007803121248499689,0.3,0.0009
668,0.003360672134426812,-0.2,-0.0032
669,-0.002340468093618764,-0.2,0.0025
670,-0.0014402880576115384,-0.2,0.0016
671,-0.0023202320232024176,-0.2,0.0024
672,0.002760552110422032,-0.2,-0.0026
673,-0.0012603781134340464,0.1333333333333333,0.0014
674,-0.001236767634419933,-0.030065359477124187,0.0301
675,-0.0029405881176235438,-0.2,0.0031
676,0.00020010005002502051,0.39999999999999997,-0.0001
677,-0.0016403280656132058,-0.2,0.0018
678,0.004080408040804007,-0.2,-0.004
679,0.0010602120424084704,-0.2,-0.0009
680,0.0016801680168015976,-0.2,-0.0016
681,0.006180618061806142,-0.2,-0.0061
682,-0.0020404080816163184,-0.2,0.0022
683,-0.004120412041204169,-0.2,0.0042
684,0.0003800380038003759,-0.2,-0.0003
685,0.00488048804880481,-0.2,-0.0048
686,-0.008120812081208184,-0.2,0.0082
687,-0.008222540396809253,0.03423423423423422,0.0206
688,0.0030606121224244776,-0.2,-0.0029
689,-0.00032003200320041003,-0.2,0.0004
690,0.004460892178435594,-0.2,-0.0043
691,0.008161632326465273,-0.2,-0.008
692,-0.0045204520452045704,-0.2,0.0046
693,0.004980498049804938,-0.2,-0.0049
694,0.0017603520704140285,-0.2,-0.0016
695,-0.0006401280256052022,-0.2,0.0008
696,0.0014205682272908637,0.3,-0.0013
697,-0.001980792316926827,0.3,0.0021
698,0.0004600920184036905,-0.2,-0.0003
699,-0.004820482048204844,-0.2,0.0049
700,0.0005800580058005211,-0.2,-0.0005
701,-0.0024607382214665297,0.1333333333333333,0.0026
702,-0.003520352035203511,-0.2,0.0036
703,0.002880288028802802,-0.2,-0.0028
704,-0.006041208241648333,-0.2,0.0062
705,0.0023604720944188085,-0.2,-0.0022
706,-0.001140228045609204,-0.2,0.0013
707,0.00036007201440280134,-0.2,-0.0002
708,-0.005682272909163677,0.3,0.0058
709,0.002880288028802802,-0.2,-0.0028
710,0.0025605121024204758,0.3,-0.0025
711,0.004480448044804408,-0.2,-0.0044
712,-0.007520752075207526,-0.2,0.0076
713,-0.0036203620362036393,-0.2,0.0037
714,-0.0017419485517521371,0.014285714285714263,0.0091
715,0.0046804680468046644,-0.2,-0.0046
716,-0.002560768230469135,0.1333333333333333,0.0027
717,-0.0016520392359319347,0.019047619047619035,0.0199
718,0.005722288915566143,0.3,-0.0056
719,-4.000800160031126e-05,-0.2,0.0002
720,-0.0008401680336067585,-0.2,0.001
721,0.004480448044804408,-0.2,-0.0044
722,-2.0002000200025627e-05,-0.2,0.0001
723,0.003580358035803588,-0.2,-0.0035
724,-0.001020102010201085,-0.2,0.0011
725,-0.0016201620162016317,-0.2,0.0017
726,-0.0040408081616323255,-0.2,0.0042
727,4.001200360104207e-05,0.1333333333333333,0.0001
728,0.0006800680068006493,-0.2,-0.0006
729,0.0001200480192076192,0.3,-0.0
730,-0.0019403880776155402,-0.2,0.0021
731,-0.003840768153630769,-0.2,0.004
732,0.0010602120424084704,-0.2,-0.0009
733,-0.005620562056205647,-0.2,0.0057
734,0.004441332399719888,0.1333333333333333,-0.0043
735,0.001280128012801196,-0.2,-0.0012
736,-0.0008200820082008287,-0.2,0.0009
737,-0.009820982098209918,-0.2,0.0099
738,-0.0010402080416083148,-0.2,0.0012
739,-0.001120112011201213,-0.2,0.0012
740,-0.004940988197639551,-0.2,0.0051
741,-0.0039611883565070505,-0.2,0.0042
742,-0.0037203720372037674,-0.2,0.0038
743,0.0009800980098009227,-0.2,-0.0009
744,-0.0053205320532053735,-0.2,0.0054
745,0.0028408522556766513,0.1333333333333333,-0.0027
746,-0.003420342034203494,-0.2,0.0035
747,0.002160432086417252,-0.2,-0.002
748,-0.0032203220322032378,-0.2,0.0033
749,-0.004020402040204041,-0.2,0.0041
750,-0.006020602060206048,-0.2,0.0061
751,-0.006441288257651556,-0.2,0.0066
752,0.000760152030406025,-0.2,-0.0006
753,-0.0021202120212021613,-0.2,0.0022
754,0.002180218021802127,-0.2,-0.0021
755,0.001980198019801982,-0.2,-0.0019
756,0.0050415124537360745,0.1333333333333333,-0.0049
757,-0.006782713085234149,0.3,0.0069
758,0.0014404321296388467,0.1333333333333333,-0.0013
759,0.0016633329824191634,-0.02634730538922156,0.0298
760,-0.005961788536561041,0.1333333333333333,0.0061
761,0.002680268026802657,-0.2,-0.0026
762,-0.001020102010201085,-0.2,0.0011
763,-0.0076207620762076544,-0.2,0.0077
764,-0.0053205320532053735,-0.2,0.0054
765,0.0017801780178017257,-0.2,-0.0017
766,0.0039803980398039895,-0.2,-0.0039
767,0.0007800780078007774,-0.2,-0.0007
768,0.0037607521504300356,-0.2,-0.0036
769,0.0005800580058005211,-0.2,-0.0005
770,-0.0038203820382038955,-0.2,0.0039
771,-0.004920492049204972,-0.2,0.005
772,-0.0008200820082008287,-0.2,0.0009
773,-0.0016201620162016317,-0.2,0.0017
774,-0.0035814325730292307,0.3,0.0037
775,-0.0034610383114934695,0.1333333333333333,0.0036
776,-0.005841168233646776,-0.2,0.006
777,-0.002520252025202563,-0.2,0.0026
778,0.005580558055805485,-0.2,-0.0055
779,-0.002520252025202563,-0.2,0.0026
780,0.00488048804880481,-0.2,-0.0048
781,-0.006820682068206851,-0.2,0.0069
782,0.0002600520104020232,0.3,-0.0002
783,-0.0007262457131329558,0.020930232558139528,0.0057
784,0.006980698069806945,-0.2,-0.0069
785,-0.004820482048204844,-0.2,0.0049
786,-0.0027405481096219875,-0.2,0.0029
787,-0.0003601080324098227,0.1333333333333333,0.0005
788,0.001220488195278091,0.3,-0.0011
789,0.009661932386477279,-0.2,-0.0095
790,-0.00032003200320041003,-0.2,0.0004
791,0.0003800380038003759,-0.2,-0.0003
792,-0.004640928185637216,-0.2,0.0048
793,-0.0002801120448179262,0.3,0.0004
794,0.0006601320264052468,-0.2,-0.0005
795,-0.0042607983144095085,0.012079615648593,0.0893
796,-0.005861758527558325,0.1333333333333333,0.006
797,0.00346069213842759,-0.2,-0.0033
798,0.0011403421026306981,0.1333333333333333,-0.001
799,-0.0029202920292029644,-0.2,0.003
800,-0.0013201320132013583,-0.2,0.0014
801,0.00348034803480346,-0.2,-0.0034
802,-0.002720272027202819,-0.2,0.0028
803,-0.004420442044204442,-0.2,0.0045
804,-0.0002200220022002819,-0.2,0.0003
805,0.0016801680168015976,-0.2,-0.0016
806,0.0029605921184235884,-0.2,-0.0028
807,-0.00036429872495447047,0.028813559322033888,0.0071
808,0.002680268026802657,-0.2,-0.0026
809,0.008380838083808295,-0.2,-0.0083
810,0.0027210884353741083,0.3,-0.0026
811,-0.001120112011201213,-0.2,0.0012
812,-0.001120112011201213,-0.2,0.0012
813,-0.006941388277655558,-0.2,0.0071
814,-0.006741348269654002,-0.2,0.0069
815,-0.0005601680504151441,0.1333333333333333,0.0007
816,0.006580658065806544,-0.2,-0.0065
817,0.00024007202160647445,0.1333333333333333,-0.0001
818,-0.006520652065206578,-0.2,0.0066
819,-0.0035407081416283237,-0.2,0.0037
820,0.001280128012801196,-0.2,-0.0012
821,-0.00032003200320041003,-0.2,0.0004
822,-0.001140228045609204,-0.2,0.0013
823,0.004380438043804391,-0.2,-0.0043
824,-0.0007401480296059804,-0.2,0.0009
825,0.002680268026802657,-0.2,-0.0026
826,-0.001120112011201213,-0.2,0.0012
827,-0.004320432043204314,-0.2,0.0044
828,-0.004661398419525953,0.1333333333333333,0.0048
829,-0.001920192019202016,-0.2,0.002
830,0.0022802280228022553,-0.2,-0.0022
831,0.005141542462738791,0.1333333333333333,-0.005
832,-0.0035407081416283237,-0.2,0.0037
833,0.00018001800180011962,-0.2,-0.0001
834,-0.004261278383515088,0.1333333333333333,0.0044
835,-0.00038015206082442354,0.3,0.0005
836,0.003680368036803605,-0.2,-0.0036
837,0.004580458045804536,-0.2,-0.0045
838,-0.0031203120312031096,-0.2,0.0032
839,-0.0009200920092009568,-0.2,0.001
840,0.0007800780078007774,-0.2,-0.0007
841,0.0038411523457037022,0.1333333333333333,-0.0037
842,0.003260652130426034,-0.2,-0.0031
843,0.005241572471741507,0.1333333333333333,-0.0051
844,0.00014004201260375826,0.1333333333333333,-0.0
845,-0.0004801920768308099,0.3,0.0006
846,-0.003420342034203494,-0.2,0.0035
847,0.0018801880188018538,-0.2,-0.0018
848,-0.006720672067206723,-0.2,0.0068
849,0.0013801380138013242,-0.2,-0.0013
850,-0.0071621486445934135,0.1333333333333333,0.0073
851,-0.003940788157631547,-0.2,0.0041
852,0.00016003200640124504,0.3,-0.0001
853,-0.005161548464539423,0.1333333333333333,0.0053
854,-0.0061206120612061765,-0.2,0.0062
855,-0.004540908181636327,-0.2,0.0047
856,0.0029605921184235884,-0.2,-0.0028
857,0.005213174378662311,0.00588235294117645,0.0009
858,-0.0007401480296059804,-0.2,0.0009
859,-0.004620462046204699,-0.2,0.0047
860,0.005052631578947309,0.0,0.0252
861,-0.005420542054205502,-0.2,0.0055
862,-0.007341468293658782,-0.2,0.0075
863,-0.007520752075207526,-0.2,0.0076
864,0.008880888088808825,-0.2,-0.0088
865,-0.0007602280684205764,0.1333333333333333,0.0009
866,0.007642292687806251,0.1333333333333333,-0.0075
867,0.0012403721116334143,0.1333333333333333,-0.0011
868,-0.0038203820382038955,-0.2,0.0039
869,0.008342502750825154,0.1333333333333333,-0.0082
870,-0.001206030150753823,-0.04000000000000001,0.0044
871,0.0009800980098009227,-0.2,-0.0009
872,-0.005620562056205647,-0.2,0.0057
873,-0.0009411293552262778,-0.11666666666666668,0.0018
874,-0.005741148229645998,-0.2,0.0059
875,0.003941182354706418,0.1333333333333333,-0.0038
876,0.0025802580258025287,-0.2,-0.0025
877,-0.0059411882376475544,-0.2,0.0061
878,0.002760552110422032,-0.2,-0.0026
879,0.003360672134426812,-0.2,-0.0032
880,0.0008800880088007945,-0.2,-0.0008
881,-0.000603015075376967,-0.04000000000000001,0.0038
882,0.005580558055805485,-0.2,-0.0055
883,0.003680368036803605,-0.2,-0.0036
884,0.004402201100550229,0.2,-0.0042
885,-0.004200819672131151,0.033333333333333326,0.0177
886,-0.007062118635590697,0.1333333333333333,0.0072
887,-0.00032147880249155936,-0.06956521739130436,0.0034
888,-0.004394141145139807,0.006477732793522262,0.0626
889,-0.0031203120312031096,-0.2,0.0032
890,-0.008104052026013053,0.39999999999999997,0.0082
891,0.009180918091809098,-0.2,-0.0091
892,0.0049609921984395955,-0.2,-0.0048
893,0.0035607121424284793,-0.2,-0.0034
894,-0.0038611583475043343,0.1333333333333333,0.004
895,-0.005420542054205502,-0.2,0.0055
896,-0.0005802320928371962,0.3,0.0007
897,-0.0007671343494499716,0.04731182795698924,0.0059
898,0.0013801380138013242,-0.2,-0.0013
899,-0.00922092209220926,-0.2,0.0093
900,0.000540162048614512,0.1333333333333333,-0.0004
901,-8.003201280515349e-05,0.3,0.0002
902,-0.0005200520052005553,-0.2,0.0006
903,0.0004600920184036905,-0.2,-0.0003
904,-0.002760828248474567,0.1333333333333333,0.0029
905,-0.0006401280256052022,-0.2,0.0008
906,0.003360672134426812,-0.2,-0.0032
907,0.0018603720744148067,-0.2,-0.0017
908,0.0006800680068006493,-0.2,-0.0006
909,-0.004220422042204297,-0.2,0.0043
910,-2.0002000200025627e-05,-0.2,0.0001
911,-0.001020102010201085,-0.2,0.0011
912,0.002180218021802127,-0.2,-0.0021
913,0.0047804780478046816,-0.2,-0.0047
914,0.00844253275982787,0.1333333333333333,-0.0083
915,-0.002620262026202691,-0.2,0.0027
916,-0.0015201520152016146,-0.2,0.0016
917,0.0031606321264252557,-0.2,-0.003
918,-0.0008200820082008287,-0.2,0.0009
919,0.0039803980398039895,-0.2,-0.0039
920,-0.0031203120312031096,-0.2,0.0032
921,-0.00546163849154746,0.1333333333333333,0.0056
922,0.00028002800280024776,-0.2,-0.0002
923,-0.003940788157631547,-0.2,0.0041
924,0.0014801480148014523,-0.2,-0.0014
925,-0.0017558389928773455,0.007670956346202351,0.2358
926,0.0014007003501750326,0.39999999999999997,-0.0013
927,-0.0004400880176035349,-0.2,0.0006
928,-0.004620462046204699,-0.2,0.0047
929,0.006980698069806945,-0.2,-0.0069
930,0.006080608060806014,-0.2,-0.006
931,-0.0010402080416083148,-0.2,0.0012
932,-0.0005200520052005553,-0.2,0.0006
933,0.00028002800280024776,-0.2,-0.0002
934,0.007261452290458048,-0.2,-0.0071
935,0.002660532106421254,0.3,-0.0026
936,0.003580358035803588,-0.2,-0.0035
937,0.00028002800280024776,-0.2,-0.0002
938,-0.0016201620162016317,-0.2,0.0017
939,0.004480448044804408,-0.2,-0.0044
940,0.003941182354706418,0.1333333333333333,-0.0038
941,-0.003140628125625211,-0.2,0.0033
942,0.00014004201260375826,-0.2,0.0001
943,-0.0019403880776155402,-0.2,0.0021
944,0.004421768707482898,0.3,-0.0043
945,-0.0031203120312031096,-0.2,0.0032
946,0.006080608060806014,-0.2,-0.006
947,-0.0004400880176035349,0.3,0.0005
948,-0.004680155323932178,0.005607476635514003,0.0173
949,0.0039803980398039895,-0.2,-0.0039
950,0.007261452290458048,-0.2,-0.0071
951,0.002780278027802785,-0.2,-0.0027
952,0.008980898089808953,-0.2,-0.0089
953,-0.006341268253650778,-0.2,0.0065
954,-0.01146445209641489,0.0222222222222222,0.0186
955,-0.005620562056205647,-0.2,0.0057
956,0.0003201280512203919,0.3,-0.0002
957,-0.0030203020302030925,-0.2,0.0031
958,0.006461292258451601,-0.2,-0.0063
959,-0.003920392039203913,-0.2,0.004
960,-0.0011603481044313302,0.1333333333333333,0.0013
961,-0.0024202420242024347,-0.2,0.0025
962,-0.00032003200320041003,-0.2,0.0004
963,0.0016801680168015976,-0.2,-0.0016
964,0.004560912182436483,-0.2,-0.0044
965,0.0022802280228022553,-0.2,-0.0022
966,0.010581058105810559,-0.2,-0.0105
967,0.005061012202440485,-0.2,-0.0049
968,0.004080408040804007,-0.2,-0.004
969,0.003314344899016053,0.011594202898550704,0.0171
970,0.0046804680468046644,-0.2,-0.0046
971,-0.0024607382214665297,0.1333333333333333,0.0026
972,0.0038803880388038614,-0.2,-0.0038
973,0.004460892178435594,-0.2,-0.0043
974,0.004080408040804007,-0.2,-0.004
975,-0.0036587831008693117,-0.03018867924528304,0.0103
976,0.0013801380138013242,-0.2,-0.0013
977,0.004080408040804007,-0.2,-0.004
978,-0.0009200920092009568,-0.2,0.001
979,-0.0019403880776155402,-0.2,0.0021
980,0.0010801080108010508,-0.2,-0.001
981,-0.0016403280656132058,-0.2,0.0018
982,0.0010801080108010508,-0.2,-0.001
983,-0.005841168233646776,-0.2,0.006
984,0.0022802280228022553,-0.2,-0.0022
985,-0.004420442044204442,-0.2,0.0045
986,-0.0034406881376275456,-0.2,0.0036
987,-0.0059411882376475544,-0.2,0.0061
988,-0.005441088217643553,0.3,0.0055
989,-0.00592059205920592,-0.2,0.006
990,-0.00014002800560120043,-0.2,0.0003
991,0.005241572471741507,0.1333333333333333,-0.0051
992,-0.002720272027202819,-0.2,0.0028
993,0.0019028542814221172,0.1333333333333333,-0.0012
994,0.005761152230446043,-0.2,-0.0056
995,-0.008020802080208056,-0.2,0.0081
996,0.007778608825729227,0.016380182002022237,0.1092
997,0.005061012202440485,-0.2,-0.0049
998,0.0013801380138013242,-0.2,-0.0013
999,-0.0016403280656132058,-0.2,0.0018
