,0,1,2
0,0.01007486397425228,-0.10794303490187979,-0.009086035336050555
1,-0.028248472625573617,-0.08576457412948263,0.030255530590987654
2,0.004025079281523958,0.397103324437319,-0.0038005435963510536
3,0.001564599501923336,-0.3835161583934146,0.00020556201386716567
4,0.0067460313325835575,-0.010557346815202151,-0.005711424576287936
5,0.015417743845048237,-0.19234984115732962,-0.01414376219204405
6,-0.0035551535808410195,-0.02683606852278403,0.015956911264964947
7,0.00903136084869094,0.004375274355174152,-0.008476239153547976
8,-0.006025462441799689,0.024603926566158063,0.006964203663783882
9,-0.00344702014101983,0.2856921443728412,0.0037422253107004507
10,0.008227016507053264,-0.30559728160180316,-0.006355220621402986
11,0.00010453909095731184,0.1275790087092037,0.000491501757653532
12,0.015186917430607405,-0.039947087544941806,-0.014354216423144136
13,0.01544100757909872,-0.14162798601337218,-0.014126869591913782
14,-0.005594963893722826,0.19975174815820695,0.006243201127208522
15,-0.011008546097847849,0.22559452567062221,0.011693378111249876
16,-0.0016901888636284834,-0.11559337707282541,0.0034705081094351044
17,0.011246653305962084,0.06525557197970488,-0.009774882737585358
18,-0.002716236072517253,-0.07451646679310775,0.004488816787751057
19,-0.006159356117513504,-0.18468906334488278,0.012198270511837108
20,0.006288446549989946,0.05941190766576543,-0.005662819395551924
21,-0.006437866434363393,-0.07539241407678282,0.0074619846201198015
22,0.0075617619686843,0.04188234915942579,-0.006630403143065814
23,0.0007528918191765932,-0.346968294107613,0.0010273226712697579
24,-0.00659189955541184,-0.21054510534771737,0.008422177890471902
25,0.002912710683760533,-0.09850025974753418,-0.0017098847428978843
26,0.00028054463643090166,0.08764414598918335,0.00037967360140464735
27,-0.005180135018025389,0.08423889460411371,0.0060423550558189165
28,0.014035649315322196,0.1631629037009169,-0.013368991098654805
29,0.018881097733323582,-0.07827738014425095,-0.01756734908199287
30,-0.0108220089061275,-0.08871074545872032,0.012151153000198428
31,-0.0019765860008043035,0.15023081426001472,0.0025678334203608757
32,-0.006405748392944166,-0.1582563390914002,0.007970189810620467
33,-0.007553655734129805,-0.24587073246139957,0.009399448425947957
34,0.010500001727279384,0.024641199355632804,-0.007147575990914993
35,0.009003195155594446,-0.0018720687455226481,-0.007674919469451561
36,0.010267041398977828,0.06804670897790754,-0.00924993463440951
37,-0.005594685021882206,-0.1745152701741774,0.007400770601793374
38,0.007026853732191585,-0.2686479503627409,-0.0055530716044111614
39,0.009252266910820595,0.0661829294806845,-0.007612910362329058
40,0.023849755091608582,-0.10554812454930945,-0.022087441028614013
41,-0.014863337349236061,0.08400034063623041,0.016307428108488422
42,0.01287111853431866,-0.010497902203103093,-0.011719706688696352
43,0.013275411584457109,0.18353175462211968,-0.012484026807747432
44,-0.010102610888783059,0.03628316290542055,0.011145923609056262
45,-0.005455304751240564,-0.17391814970744135,0.006925923010144288
46,-0.0071402139690638355,0.08435711115655209,0.011633743392682118
47,-0.01525213670291714,0.20700716760372662,0.015974262511719826
48,0.005818552895828333,-0.11484574174932605,-0.005011689312789531
49,-0.009128158735988934,0.03548513056592639,0.010585396210222826
50,0.001150482033267064,0.3142335397186623,-0.0008514149255635857
51,0.005277514059856436,-0.13495742129924865,-0.003676926721458585
52,-0.01701719869545626,0.21192632532103794,0.017803262475808334
53,0.014689197462008696,-0.28597454654061544,-0.01284767085080257
54,0.01273777943489307,-0.08961944997368204,-0.011894479313721057
55,0.016957516470246015,0.17539951370428697,-0.01627440046471402
56,-0.009812217599519446,0.008799752595914367,0.010919410068069919
57,-0.0015376141091968387,0.0196169916577269,0.0035487647649757492
58,0.00195401097533332,-0.10434947088957991,-0.00043825227067100056
59,0.0034193005361065065,0.07879516162435207,-0.002570052258283067
60,-0.001472115673651353,0.018486674804872538,0.002240181608885723
61,-0.005090048620839394,0.28840675055595655,0.0058128098237206355
62,0.00715581056978376,-0.0608418991290417,-0.006133414692325823
63,0.00022517648189745998,-0.01840108187485434,0.0010195265381587888
64,0.004610279060827338,-0.12766140484807603,-0.0037883258717458373
65,-0.014472645019946162,-0.31386332235083125,0.01663099984873952
66,0.022358391161246827,-0.08119662750083495,-0.003225697069658963
67,-0.003926268621530005,-0.22451460787250332,0.0052233276321816445
68,-0.0025078267187916836,-0.16310161039152654,0.0037629549077699267
69,-0.002164334491404074,-0.6619502743336213,0.004135970589135831
70,0.004274885068007661,0.04845641140053436,-0.003591157357506381
71,0.007320666144002175,0.2972048154162127,-0.006606272251527662
72,-0.014807563713010174,0.15561749220081944,0.015532628589999695
73,0.00782813770904145,0.055536453843134104,-0.006787866836149988
74,-0.00845201032405507,-0.26525556946864365,0.010495379933745426
75,0.019337318026204864,-0.09104801212742619,-0.018055508832882334
76,-0.001449321238871093,-0.2758591520129673,0.002843258934264486
77,-0.006514436193799988,0.08769946545075691,0.012438913229789432
78,-0.01905173496804069,0.055405563408936875,0.021562436907616576
79,0.011285788423643028,0.10593888161783138,-0.010515629300712134
80,-3.7111177739190815e-05,-0.07117596350825434,0.0015220721937985217
81,0.02417266451641642,0.0813329308797126,-0.012215991708225375
82,-0.008267746889178418,-0.12943865885804007,0.010069142533888043
83,0.005971887218806149,-0.038005243678906064,-0.005101523809369792
84,-0.005297745619944116,0.19837277510866158,0.006068202266049775
85,-0.020527191252027954,-0.0715586819027631,0.02223538887304512
86,-0.005967652326473893,-0.2788192964109214,0.007513355614642751
87,-0.0010157914285965353,-0.08311868341800949,0.0020053663449785745
88,-0.014933631525842817,-0.14663023592526925,0.01613385507420171
89,-0.016314456420188916,-0.10814454859689665,0.017912397669066014
90,-0.008126213660703097,0.061040958612528784,0.0092894622955655
91,0.00228633029721248,-0.06594553031901546,-0.0013203361341647905
92,0.012707579546032965,0.2092379182679277,-0.011766823596070935
93,-0.0017838007223378582,0.0071144738273069,0.0029133346908736713
94,0.0026040828433451235,-0.21423885195634695,-0.001313765560705724
95,-0.0040038032169650295,-0.14779541952820546,0.006128315550792103
96,0.0018334476993653315,0.246813853516212,-0.0012724045921624566
97,0.006516819366432225,0.31058635508883525,-0.006242516716443606
98,0.019860082756401054,0.3033518758562217,-0.019405415521910798
99,-0.004682058923264565,-0.09556429445315712,0.005804735170771346
100,0.010063875482701823,-0.31981065223505944,-0.008238151521722649
101,0.009795406266956963,0.23786225708181374,-0.00938750654317937
102,0.007070100603171259,-0.024791999215908744,-0.00590000398356915
103,-0.01441387168251873,-0.6309986717707827,0.016647041282695316
104,0.012065832823546119,-0.11900544669621682,-0.010109511857034886
105,0.013480931264863827,-0.23205950265799052,-0.01154252613666431
106,-0.0295209291969043,-0.06936982121998769,0.030708596759354986
107,-0.0025674662412263904,-0.0013150330177073566,0.0037644604014900325
108,-0.009735127629393436,-0.14078137423789022,0.01112342937193207
109,-0.0017399600849538066,-0.03307263989068027,0.003015158516487645
110,-0.021253868711002877,-0.2498902342529319,0.02256541416897835
111,0.00960676312923403,0.021700335621883893,-0.0083382064177149
112,0.011995518218180568,-0.3634997673683461,-0.010944923875476707
113,0.014335918932318004,-0.07140631460452901,-0.013164434465244268
114,0.013719900870579949,-0.026250276634544045,-0.006754285580763826
115,0.0012649046254922247,-0.0146921003471559,0.0019340288053383118
116,0.003821603158261855,0.15007871185966726,-0.0025835030387168444
117,0.00828868387388182,0.1508877626272105,-0.007824062676261019
118,0.006623087511987924,0.22837586069484062,-0.0058996447222632925
119,0.00018151590938986217,0.33212778599400616,0.00038986677232242075
120,-0.010752550093708568,0.28934235677876385,0.011112379261338174
121,-0.0004928379572152197,0.2696450629794964,0.0008606173157164449
122,0.013890113948057392,-0.3172223650201307,-0.012477222733811504
123,-0.019322584732765935,0.1721255120118843,0.020433371584485212
124,0.006597861999591448,0.015692771850888354,-0.005419689783234571
125,0.001605774292017692,-0.15449184875216632,3.446976559262112e-05
126,0.0031258808066407795,0.40941858377934226,-0.00291972475318089
127,-0.011681748684786553,-0.4281064089269999,0.01287310074310135
128,0.00023084317658428333,0.2644906670028939,0.00016991512291097025
129,0.007840546361885137,0.009497175761880472,-0.006943528294805037
130,-0.004301854700072383,-0.14207830494954005,0.007682069886394492
131,-0.009045834248197937,0.20522961448550836,0.009674428260983768
132,-0.004654277260323525,0.2729888708899719,0.004987812538098115
133,0.018810390667916455,-0.025201318212701163,0.06154013873375079
134,-0.00531929028507927,0.11189001685473055,0.006123150740085657
135,-0.014560379113518818,-0.08186910423278076,0.015751727436269174
136,-0.0033898118546344946,0.05878074924061172,0.004002773069101204
137,0.0025044359082768697,0.18909057131301665,-0.0010000493582196213
138,0.0020094681580737905,-0.43060297923035495,0.00032206296039730657
139,-0.019626006202237645,-0.09137330963823254,0.021627121764263575
140,0.005509244775255606,-0.08975277357659389,-0.004378246940386998
141,-0.014746627067878992,-0.011018581745914635,0.01573917097723497
142,-0.0041995847112259455,0.07964416465028867,0.00648844408973764
143,0.0011559797311988529,-0.5733370259681867,0.0013153541819096062
144,0.010220838101233198,0.0971354030127336,-0.008031485295264247
145,0.007733358760480646,0.04523359016748629,-0.004357110449751781
146,0.027060080432943945,0.059522437563213404,-0.025984743854343652
147,-0.007166216829260441,-0.10764640551850391,0.008126985131163202
148,0.013747027612596163,-0.10338192071318558,-0.012512769715944524
149,-0.011499060219996582,0.36386830682497096,0.01166108264283812
150,0.010314770088847958,-0.1555773487180921,-0.0093825211225183
151,-0.02267198895121636,0.07022271975032401,0.023608331121202718
152,-0.0013161429790343737,0.025236482097720003,0.0029732087912656426
153,0.015498366103744443,0.21015882981817957,-0.014918220984801701
154,0.0011852609146074666,-0.011463818618416555,-0.0005188171112145937
155,0.011845830621270537,0.1206544501710024,-0.011102566998415022
156,-0.0033475733668514307,0.1085675529343536,0.004084934626879112
157,-0.02077189970874249,-0.2857444340368017,0.022301844777398584
158,-0.00334111917426827,-0.02613253729262216,0.004700376861376026
159,0.0009838301838114294,-0.08302445328259389,0.0007097938382410575
160,-0.008315140963183643,-0.13077075246552905,0.014290714833606217
161,0.012770245742560915,-0.2543993209638946,-0.011235906609147969
162,-0.0012439457552819722,0.04486173868088961,0.0024694604073043592
163,-0.000465815947694459,-0.23915277517201333,0.00186932117022061
164,-0.0003168904810253448,0.08169021566017709,0.001027478400585278
165,0.009429982406090387,-0.023107752093727785,-0.008311653163640766
166,-0.007985618780304238,-0.2393004152700487,0.009155722454687747
167,-0.001540545888914835,0.06383527022521607,0.003713666808344169
168,-0.010883933402797696,-0.5364854681578711,0.012524895858405763
169,-0.00847753605509205,-0.033449769510968175,0.009474983298658117
170,-0.01027517115072285,-0.44338201202522065,0.012421316884734187
171,0.011613889008123213,-0.13839174909691138,-0.010053875476671055
172,-0.0030824851611045423,-0.19261047975800288,0.004530493949758056
173,0.009919761372867653,-0.04447860810415577,-0.008755524796965801
174,0.007011544570056483,-0.33446463966202583,-0.005328592201592255
175,-0.007213945712099212,0.23258857173832814,0.007890459166728215
176,-0.0037047466564069653,0.35647254221550595,0.004180143874242458
177,0.008003989460457106,-0.10041584623567562,-0.006543781854786357
178,0.007813665512905077,0.11358853262027913,-0.006985792733830567
179,0.03534058646071814,-0.012841327782355472,-0.03462794997220226
180,0.003430421541072093,-0.5296702333238585,-0.0020873906897475535
181,6.819771663324481e-05,-0.25562117286777,0.0010653363392433676
182,0.0025091358909841155,-0.32771559411290874,-0.000765663957975994
183,-0.0011382035801452695,-0.10760051475606941,0.0022904819713794496
184,0.008740126915413704,-0.30241218343672316,-0.007361167987815134
185,0.013335854364719069,-0.21923490049114863,-0.012163741156949619
186,0.000348347560231721,-0.16654749028056243,0.001185512866801946
187,-0.008361550112789162,0.18420414125207507,0.009099392453513428
188,-0.003360139587033184,0.043569890266211164,0.004583428506429482
189,0.01153392547164378,0.02985232216252265,-0.010185216982378188
190,0.00887240194597494,-0.33853617606730835,-0.00624543535413377
191,-0.007716692523265789,-0.3185692435134804,0.009743823900741336
192,-0.0003010040164204142,-0.2465313347567128,0.0013457264794567892
193,-0.01831494422302382,-0.12306047108549978,0.019826808040180003
194,-0.0022014843592191857,-0.006147719524987272,0.003360560700100359
195,-0.003941411705006503,-0.25661698006702116,0.005296227728058147
196,0.009396383362282323,0.15967295136397486,-0.008661964155085843
197,0.01226574363377586,0.16134614497143307,-0.01159899639631749
198,-0.0016501510224108396,-0.1971003763705067,0.003180141518176606
199,-0.0038723514764625877,0.03397947205450036,0.0048428626470475135
200,-0.7492369883700918,0.006524661802634668,0.49396128533269346
201,0.0068639198693276615,0.33365539114363285,-0.006552144517621491
202,-0.0184036593582394,-0.2667854763263672,0.019900422992175662
203,0.0038280149734875035,-0.5227854549004024,-0.001466803992777568
204,0.014176723020634663,-0.22636437601246712,-0.01284374904237502
205,0.00046314452352547164,-0.3414991557493068,0.0018101536872112774
206,-0.01009160335920034,0.02523484061003123,0.010788613693246407
207,0.014207266239507188,0.0008772974479307472,0.01982651069137428
208,0.00949348174022191,-0.05026485086576571,-0.008262013408488747
209,-0.001865034395781895,-0.22056709138127523,0.0033743087154514797
210,-0.004465012968522197,0.10736386237388984,0.005202538105371604
211,-0.0015620593679002148,0.025822402517499676,0.0026963366593752655
212,0.02161790897385396,0.3204372834017183,-0.02117531159759528
213,0.0040099324040749895,-0.05475960838585403,-0.0020542390113103466
214,0.011411034430786948,-0.4963571257834913,-0.009496274926379738
215,0.006086267508679466,0.19965066693547473,-0.005504039867590291
216,0.0026531231617203943,-0.18778041858233507,-0.0012722560782323852
217,-0.012789631209159213,0.15221820653300966,0.013426116317449123
218,0.008855526080991272,-0.1793213261401222,-0.0072727193208826065
219,-0.012361717306937137,-0.22700449185000665,0.013933931410931837
220,0.003446312991792322,-0.19381454504419038,-0.002121517361523911
221,0.005834315069286777,-0.24539499377067608,-0.003881118866303041
222,0.001320035424883459,0.04785365164712063,-5.0329550305832525e-05
223,0.005114100421170553,0.23961778323760896,-0.00450345889164837
224,-0.0036960085846211577,-0.005370819732108345,0.004849860650260416
225,0.014444991744692937,-0.10640387356069941,-0.013327463787143097
226,0.01090707433255722,-0.050494940522126885,-0.009784270302847835
227,0.004548949837474003,-0.19077673702299963,-0.002602037914264656
228,0.006210356911609871,0.06102974042177445,-0.005230959555332265
229,-0.014845081993566267,0.18419482208298787,0.015447002185413112
230,0.0002620764533523001,0.281150218242164,0.00017614726307001546
231,-0.008989647972721948,0.09345653436259826,0.010102798662182976
232,-0.016092435993583898,0.293049810774646,0.01656958037666336
233,0.012015470576101306,-0.029141094020055047,-0.010446116538772367
234,-0.013429063182047951,0.26045053678342733,0.014175260502161837
235,-0.0016490828765398646,-0.21068311678707996,0.0031380543477520406
236,-0.0040451613930136965,0.07550968058799967,0.00497014074065537
237,-0.006070392668612534,0.22451270187942018,0.006959468456604009
238,0.009053227377172401,-0.13021069148659203,-0.007966478715103949
239,-0.0012058757825192945,-0.07761167362094734,0.002762171436683093
240,-0.0011981091615085315,0.05005076905751893,0.002723862975563861
241,-0.012605752605393206,-0.0055071584255170225,0.013788715979361404
242,0.009478674141656374,0.1654027749971615,-0.008962560292939452
243,0.006195390184375205,0.04426307513464789,-0.005040559396750905
244,2.7487778115453665e-05,0.0956825284358932,0.0011046781080427536
245,-0.01739407005533211,0.020641452062765797,0.02187512549078656
246,0.005089658153157872,-0.2079523511602146,-0.0033783573308057385
247,0.003511440420990608,-0.08888954477375194,-0.0024451186476400835
248,0.0031545674412685187,0.1244422221172159,-0.0021699153434259644
249,0.0013146082390045333,0.09269009320248378,-0.0004156343059241408
250,0.00460936950282953,0.15027958590504242,-0.003936142913993899
251,0.008176443370696784,0.07535329913081279,-0.0031989772119381085
252,-0.010315278706579334,0.06879343232391755,0.011451685186797112
253,0.0011863252517676504,0.22189880412329588,0.00026596985810028854
254,-0.0021782524798451552,-0.5130247217614423,0.004098860771480213
255,-0.011934463285163566,-0.10862422199946037,0.013068173826720703
256,0.0029585017645206158,0.17709051970651646,-0.002306765800404537
257,0.005185784202209609,-0.06955825901264312,-0.0040937705201014975
258,-0.005304046027924558,-0.30239647751628385,0.0068185216477524594
259,0.0006396665154906334,-0.27368663753201405,0.0007541208317947166
260,-0.008905984143341206,-0.0194281266091324,0.009927028428272752
261,-0.002678621434867412,0.09733855742695297,0.003598581923485108
262,0.004061299743700175,0.2984586501183528,-0.003691214974374452
263,0.012582791018368678,-0.360250549600758,-0.011186257673377987
264,0.00018725558554555377,-0.1568494108107168,0.0011268177472469687
265,0.009640897857064568,-0.11521476226374622,-0.008203729838786785
266,0.005466714022442254,-0.23008332442655421,-0.0032600639070953547
267,-0.01175810490626994,0.2716443358710534,0.012516196363549352
268,-0.008006495223819798,-0.6077313954287304,0.010425890004270695
269,-0.00406079858640529,0.10944991584427533,0.004872426086100859
270,-0.026705972678963574,-0.45424195380432253,0.028468291043101817
271,0.0010289906918823366,-0.41238341510186816,0.000889175360284571
272,-0.0038775666434989198,-0.2878457986137988,0.005210312637848437
273,0.0035358322295231392,-0.02599696470702667,-0.002264953516875539
274,0.0002535285012728039,0.045265961613607186,0.0009294391726351023
275,-0.020278249191047815,-0.13242971881473736,0.024196018596639442
276,-0.010658080130073744,-0.030658943857817367,0.025270104400823404
277,0.018980410180353458,-0.12839312114610352,-0.017620925764567984
278,0.006370021836614059,-0.19033581470683597,-0.004697927828909815
279,-0.00630169110852119,0.1695829380879459,0.006787864164726489
280,-0.012844723493886101,-0.21085050965716834,0.014310535644828997
281,-0.01239813801787526,-0.14347847871547043,0.014165162971828613
282,0.008148988760448894,-0.12821601754475698,-0.007194441250991076
283,-0.022652599233525583,-0.28900137752762234,0.02403202703445495
284,0.0043138321245608235,0.15067961779553352,-0.0034651100101711564
285,-0.004267088098787508,0.2531295920281439,0.004922117062444886
286,0.004965747863648895,-0.301721224226106,-0.0026263556445886935
287,-0.012966711406128706,-0.08644074814245045,0.014515091305316856
288,0.0019284103817800435,-0.061093925356988266,-0.0009149701774504137
289,-0.009949553486165219,0.04161896021225342,0.010801573310138155
290,0.0018303488603552687,-0.06330006763465734,-0.0004740358607672533
291,0.002222732156504037,0.18367921067350568,0.001281246579808976
292,0.012129363312841646,-0.03280399643967574,-0.010440069897608737
293,-0.003946872234119714,0.026802455235219846,0.005073073848193235
294,0.009249815856103405,-0.47204797118266906,-0.007679739396841433
295,-0.006277635104384172,0.16626075614850022,0.006965304482753163
296,-0.01420593316113461,0.2810043603981822,0.01467694948594817
297,1.4128671894653166e-06,-0.1264631983554021,0.0007503446662776695
298,-0.0036214796628758483,-0.22219292860345058,0.0047711939811808405
299,0.000153110304315085,-0.08241412343326532,0.001128537609907653
300,0.007101240220540372,-0.11537599982324537,-0.005856285740452768
301,0.0009842553545162946,-0.03926298945326506,0.0002583133085416193
302,-0.012397806064147643,0.04127602567334765,0.013379723634325274
303,0.007323881378309194,-0.190760200445728,-0.0057880963982963295
304,0.004471062624375799,0.00813290238674269,-0.003577653935948001
305,0.0070597853315210735,-0.1410744316454673,-0.006282024271148839
306,-0.011136912113501984,-0.17566951909185136,0.012532430588156604
307,-0.004170934931784331,0.13110692922648715,0.00497332363063615
308,0.003865501706930008,-0.21424056241903222,-0.002429289578678072
309,0.009489707414439774,0.07753660377247762,-0.008798582448612615
310,0.005930008592369473,0.1545729682565633,-0.005297565919764929
311,-0.006066605872555808,-0.2363444703497855,0.007673217174405727
312,0.0005833944917195133,-0.2409937991226322,0.0006772867374249472
313,0.015141867781398144,0.0025229905114108053,-0.013655273037315237
314,-0.0027972218472801513,-0.030126949571141315,0.005117472649265255
315,-0.02750150518798833,0.019365449278998303,0.02831714466994781
316,-0.011397248462250209,0.18898990387498227,0.012086358011874654
317,0.010426187557495581,0.2536621933919455,-0.010066717965663701
318,-0.0017430628655693559,0.11650909458515979,0.002850131608962147
319,-0.009417594012973818,0.2448339869855043,0.009810791483376125
320,-0.01159906115798015,-0.22807248210308623,0.012602123947303335
321,-0.010926102755564049,-0.04492677901049108,0.012367904581452422
322,-0.008507103920040726,0.04971902596095823,0.010185844626492871
323,-0.009849877588299805,0.22797371298468883,0.010295577484325804
324,0.03588498122771422,0.14397663054217313,-0.034983592021137516
325,0.013712440061025344,-0.04012622264397908,-0.012660146601885754
326,-0.0004454821092829686,0.05121599390461906,0.0017456638288427713
327,-0.008940101277221113,0.01041301049665444,0.016293998667080815
328,0.009654432482137487,0.15234572932390256,-0.0041876093238164686
329,0.010192828145073163,0.3487798326676116,-0.009886143453666046
330,-0.00015861587351750916,0.04472875844094881,0.0008412848120457056
331,0.016419499190809983,-0.2756790737497793,-0.01451846261575247
332,-0.006083318895486189,-0.06777304188883221,0.007319036286071605
333,0.005262909940446203,-0.02507962351122134,-0.004096156366852665
334,0.009609440308509187,-0.18717803097579605,-0.008424901607325955
335,-0.011194799330822347,-0.06118978137226133,0.014494769223070943
336,0.01990932601876727,-0.14768954156271097,-0.01877440794387894
337,-0.0053408897546627365,-0.09598098051818632,0.006581233945266104
338,-0.002503796770423561,-0.058135174777153464,0.003948438353241181
339,0.011315106182558932,0.16782067122180133,-0.010662466756133472
340,-0.0030535604726569243,-0.08967799793034015,0.005224070891250267
341,0.00674632260240271,-0.0707270747051571,-0.00553362846805685
342,-0.008225642771436004,0.06148615778281097,0.009086219170327422
343,-0.00434276184611726,-0.16056623412073162,0.005523964096211603
344,0.010280320458308845,0.16774284698226039,-0.009389723027271066
345,0.002091562523884427,-0.039446874857356595,-0.0013334087115506918
346,0.0007350900414428985,-0.3163037107581598,0.0008172836800762525
347,-0.013129285765379861,-0.2777302598010365,0.014658487713451178
348,0.0037776900263881696,0.061736972241778765,-0.0028494045190403995
349,0.012808279780565313,-0.18740641761309806,-0.0115478933252567
350,-0.006736592373789541,0.218335121427353,0.007561377232386076
351,0.0012349581407387067,0.050836801558092226,0.011871628215816417
352,0.0060145321354156955,0.14027876557949293,-0.005027045565714798
353,-0.0032407304922201785,-0.047104334806228554,0.004491616782142409
354,-0.004579715257158612,-0.011119615163565744,0.005592795056971409
355,0.0036719263080571274,0.17811334028231363,-0.0031835884290185275
356,0.0025427017283010667,-0.04540463690455748,-0.0010632439139924828
357,-0.024623116830403968,-0.4957091611575891,0.025885528688029263
358,0.013897288065718216,-0.23685511594730807,-0.012395783257692165
359,-0.003647636732078574,0.07541954722943434,0.004615782208967176
360,-0.00014538764630611656,0.047894088853948746,0.002811954734954634
361,-0.0065789593457171724,0.09155552936789724,0.007382690368289878
362,0.005083633734434434,-0.0842021832720452,-0.003669347773618756
363,-0.004273088828961824,-0.37003553883887075,0.006524071198987622
364,0.007981766560126724,0.2590067341106689,-0.00738422648224805
365,-0.017986016132837124,-0.4328171296090842,0.01963271213709431
366,-0.0050521453547698325,0.14494315009247272,0.005997158057062188
367,-0.021206220698730016,-0.19518870385526677,0.022688982161674358
368,-0.00287651927274879,-0.13918578132867265,0.004149137796860668
369,-0.0021841396898920618,-0.08171734233303324,0.0034011594154426347
370,-0.0005951240428231364,0.019304863709008524,0.0016513440697690385
371,0.005199292217784812,-0.01688185635243178,-0.0039462974612164544
372,-0.00830733350511259,-0.2345303378514434,0.009905024114674598
373,-0.0034749380814881325,0.15000834220422754,0.004202623192888132
374,0.014829735612321038,0.055275306826418236,-0.013680849540356393
375,-0.007361944589918679,-0.020701590928348168,0.007721282342355517
376,0.0035482825436206067,0.3526800471210828,-0.003291806543402345
377,-0.006094439358255266,-0.1205304526067375,0.007630529391376512
378,0.01274284530315306,-0.18871020262915983,-0.011339939207288444
379,0.009216329673669144,0.19138479873034198,-0.008453533999405226
380,0.0034805472158176975,-0.201286367635011,-0.002000536694630864
381,-0.01478829966934847,0.23014151376747494,0.015476989173068978
382,-0.009953051500467658,-0.01643133636310895,0.012890625552671009
383,0.006663604495195319,0.3583391810396007,-0.006277960994210662
384,0.011827079503158755,-0.23461882473632373,-0.00988632015213625
385,0.001892674767006497,0.0018505120898720806,-0.0005425609277781404
386,0.028020091755467602,-0.20031033139497034,-0.02656343090916689
387,0.0012732329602029857,0.12852009501286987,-0.0004904513705136196
388,-0.0016787804634018633,-0.05269572870318584,0.002835916054705376
389,0.0008344426276241101,0.3370582805615686,-0.00034311414142594
390,-0.0060568878571974905,-0.32017945135622383,0.007603720727845757
391,0.002245347475882342,-0.07000256055924348,-0.00115807645061559
392,0.005350778940757861,-0.34774557682774176,-0.003047418780182852
393,0.0041580621699179865,0.10916812796804187,-0.003447080288354664
394,-0.013037447901693477,-0.2419934629949746,0.014276673127351933
395,-0.006019456759860153,-0.2360790002818124,0.009012700888300243
396,-0.011612482243878786,-0.33595628021234286,0.013508472979206272
397,0.0060246290921432966,-0.3069185392456987,-0.004236154121800064
398,0.012047737692190363,0.015544832473323056,-0.011005081591230738
399,-0.01884208023725009,0.10219393303919522,0.01960000821069716
400,-0.002140063362841227,-0.2253181595151963,0.003297148316684979
401,-7.548535639745335e-05,-0.24619919929225004,0.001866182269843557
402,-0.006449568736070055,-0.032103860923722416,0.010076583352164926
403,-0.007878489018487977,0.05553706646667289,0.008577024129711754
404,0.006477507440424635,-0.23883115046526954,-0.004912359258822653
405,-0.0018606820696673854,-0.15096355454380583,0.0031588878146156275
406,0.004284608221428732,0.07632489307849843,-0.003257504905085625
407,0.0044473280747667765,-0.35145197906859255,-0.002735529460480029
408,-0.007578448728123854,-0.03546289149950488,0.008739794502220866
409,0.0017657585252601748,0.06151281602669212,-0.0007972020517634519
410,-0.0043514783191204165,-0.10173906357443341,0.005307298455528871
411,-0.016884062535576505,-0.30219353750749334,0.018376150538023103
412,-0.011967909401871868,0.15753555863729063,0.012661952118989576
413,0.01629012187973422,-0.0743645184098577,-0.014990681671097081
414,-0.0027213014077815956,-0.5683176432062832,0.004852494091378685
415,-0.007390364792324466,-0.13380023532597424,0.008580543546338413
416,-0.0062621673324816385,0.11140800666265749,0.007179758914893319
417,0.000551126288933057,-0.10147295323327399,0.0007131242780636967
418,-0.0002468026674424806,0.1732763084723361,0.0012915287117952175
419,0.007909582208523558,-0.23264565150515137,-0.00672469383458174
420,0.0022716272098735057,-0.2036273141222682,-0.0007892394330759998
421,0.005495507289515755,0.04672558848609121,-0.004440336476267839
422,-0.0088520321923935,-0.7019525265091271,0.011476853279890384
423,0.004582034889373032,0.033729908550973464,0.004317070298422732
424,0.00304293062951988,-0.36684857180037733,-0.0011291693241741085
425,0.0009016371383629984,-0.039219708735632075,0.00017860555338502308
426,-0.005401716238769283,0.016158587808997815,0.006837035326626028
427,0.010042462331226076,-0.32125462360085794,-0.007797960199209411
428,0.008854343786272478,-0.2276442816312248,-0.007381346535437479
429,-0.002574995816489345,0.06720264011317512,0.003822640672293346
430,0.0022648509256124605,0.02204776373992834,-0.0005360694117440289
431,0.0012877585159223326,-0.11661766909168392,0.0001334239675752542
432,0.014552272700626867,0.08758034634194245,-0.013698328847909396
433,-0.009540477352864118,-0.01190185044188069,0.015870230653785802
434,0.007378855309328358,0.04148279141475464,-0.006540242394318011
435,-0.008506129210643532,0.006672381811253403,0.009766665081986503
436,-0.000628372400441668,-0.13159689798984192,0.0018903094516204873
437,0.0005485215615992356,-0.24663057515832892,0.0022160410962645985
438,-0.0015878461099090302,0.14855465672549495,0.0023925183533876405
439,0.0064398280741111424,-0.4694196055726753,-0.004780867036911695
440,-0.010225313090501342,0.13489741400670996,0.011396408091080593
441,0.0016481398225483002,0.058153865610671374,-0.0005837535644397576
442,0.016603789505770017,0.10658459429259515,-0.015373731920130376
443,0.005862825936821636,-0.44922189120531175,-0.0033796056722520005
444,-0.015725896282046903,0.20061603335526856,0.01632157822980862
445,0.011406994237555867,-0.1510411760054452,-0.00955213936087548
446,-0.010538309650438227,0.09411155963987716,0.011724360042567241
447,0.008781596401087999,-0.3221859568240001,-0.007036564539315441
448,0.00853170138977788,0.28269281595259166,-0.0077864330678352415
449,-0.0006571740699991002,-0.2952406356359728,0.0019285076085046966
450,0.0022821165832120904,0.014731519173608931,0.008492751619540105
451,0.004809735751445832,-0.3461180329946314,-0.0025973235527060753
452,-0.014912677080128556,0.13396341516836707,0.01610649836648372
453,-0.005202978673905956,-0.013312629443626545,0.006168387010368497
454,-0.003907734801433582,0.013992978219063978,0.005354032662372083
455,-0.010574263239367498,-0.3169282208842224,0.011622523384305895
456,0.0016257069247842537,-0.021751139394400487,-0.00021258943972243287
457,-0.013514836762056226,0.2240691674155454,0.014275843149941283
458,0.01049056456798736,0.0765395564986463,-0.00897173603974461
459,-0.003844682476202954,0.2441844380479442,0.004525003850787835
460,-0.0032592903615081825,0.24211103410678958,0.003615771907252565
461,-0.002488635785133697,0.07570719617615762,0.0035853266220343357
462,-0.00038239768942838204,-0.29143709263100553,0.0016480852013348339
463,0.0025738917563074004,-0.4460021938383659,-0.0007715971936775531
464,-0.00021795983703987165,0.02578795118896504,0.0011185486060905532
465,-0.010523919140136173,-0.12224427581807357,0.011869703924827626
466,0.015463935553371222,-0.28513901050336615,-0.013782669366652227
467,0.014097501273744761,0.09386159432148844,-0.012794769962192731
468,-0.01454805323902919,0.3060221598591245,0.014996627706283834
469,0.015110875490857989,-0.10026154389613817,-0.013695518926267868
470,0.0017059719447896082,0.045317759099016364,-0.0004737237701061531
471,0.0012409546318286058,0.06991777311172698,-0.0002489113143323266
472,0.0017865002219601411,0.20276934264952273,-0.0012482693383297373
473,-0.0007770081592574085,0.12984946276771558,0.0017743166877546173
474,-0.014084221881630499,0.23452023272337497,0.014612152526960017
475,0.02056941782124455,-0.23284649257712425,-0.019288610773567232
476,-0.01303008098625924,0.03960981203325842,0.013835329178824213
477,-0.0077279366860557586,-0.024627961035180723,0.00855497672501442
478,0.007130097799921353,-0.15046528280319194,-0.005486109348413629
479,-6.548668372352573e-05,0.21619781406947314,0.00105856513108738
480,0.002710099860188775,-0.0805023315328765,-0.0013103900248454012
481,0.01474752932675405,0.11162188939564088,-0.013820340354912515
482,0.020003914979451087,-0.40099589481353337,-0.017977715397906466
483,0.006433064500926955,-0.07860973383406833,-0.00444391898658796
484,-0.003532410619091375,-0.011263980879326008,0.0054110174290543
485,0.002921872337756648,0.1727826012023711,-0.002360635576826462
486,0.016283359708485712,-0.3423228087022011,-0.014480286754823282
487,-0.01605401987145194,-0.40368134525884913,0.017474223592071757
488,0.002921037772444901,-0.10952807683103111,-0.0016348946317777519
489,-0.009114141958064592,0.03279376031739001,0.010671655090328021
490,-0.00413687248668182,0.13917559080478759,0.004885916313769667
491,-0.01818182761508702,0.10291662147358571,0.019053301182182986
492,-0.0194324855930067,0.07387194899825278,0.02040855494998759
493,-0.027512318212739473,0.04916694799200738,0.02916326907454095
494,-0.007891817365584974,-0.3477247032990588,0.009067583405891855
495,-9.349797642554947e-06,-0.30584839318085844,0.001298692267055776
496,-0.006019611728521168,-0.26269083631372553,0.007381619932774447
497,0.003087222442549553,0.03465577308464374,-0.0021972026887695393
498,-0.0019237482835052777,-0.130663210984457,0.002929731423826888
499,-0.002313457342537739,0.4639635205494619,0.0023943925955969463
500,-0.01024605778819343,0.16619166841982824,0.01108731970005265
501,0.008972444307359773,-0.24246313396616986,-0.0077701473821220135
502,-0.003319138281414724,-0.03148111654135993,0.008812022855318173
503,-0.7323640820753142,0.003084606269001422,0.49736274623885274
504,0.003047967681309549,-0.3386460414690345,-0.0008595632575186755
505,0.004033419392757587,-0.12395376658368845,-0.002965841176597496
506,0.01960448704446005,0.042486419157217625,-0.018697962715474206
507,-0.005318236687477884,-0.24124426607811883,0.006348533128624695
508,-0.0033205583780927528,0.19242644434177747,0.004142041470749064
509,-0.004611056152937554,0.07257034197071555,0.005203002195564477
510,0.009598061160222437,-0.11696964333474119,-0.008156955439883859
511,-0.004619954837527751,0.21192360744377592,0.005300250288052666
512,0.005718713199058589,-0.016364017702262812,-0.004778964283436107
513,-0.012711161626729361,-0.34418537499949986,0.014789847160161297
514,0.003869004880518556,0.013028506416666197,0.015273774559571757
515,0.0005922400547910822,0.05727063174380709,0.0033976544200077113
516,0.004162543301386767,-0.28378116235837203,-0.002429067148935246
517,0.010076792855497896,-0.14629561986181433,-0.008895322512606618
518,0.023161911212065567,-0.4699720326665645,-0.021970150479411314
519,0.0075606006391100156,0.0314144270819916,-0.00689399599613007
520,-0.007556588145923748,-0.20022630172500966,0.009011194544439787
521,-0.015017644047398582,-0.004365494745095455,0.016094209318933645
522,0.0008696637150724662,-0.4078394328423638,0.0004933999297636547
523,-0.025854928058010818,0.2349080396820894,0.02630947841930465
524,0.0072927047146000845,-0.1668940114245427,-0.0057420752674799585
525,0.015435589427442942,0.16242123145164677,-0.014800163583086397
526,-0.01588030919154304,-0.11614437103646541,0.017020810909048487
527,0.01651367953827565,-0.21605618616236372,-0.014682254874023965
528,0.0016084881913673854,0.1260177635831411,-0.000894865814611876
529,-0.005655800005174183,-0.1254988324446497,0.007019454676540954
530,0.001363126767784717,-0.4286407319922213,0.0004038805638592748
531,-0.003985214814163807,0.21949632488087711,0.0046212072728652855
532,0.005557163193949277,0.38522184335981047,-0.005196157234446764
533,0.0011666783498989197,-0.1896536527410999,0.0003531263785012925
534,0.0019173835342809475,-0.19985044067227725,-0.0007243782331297552
535,-0.0016244097912915256,-0.06351494984337175,0.0026920018173905193
536,0.0001208962464080976,0.0702786122215614,0.000824756778446499
537,-0.0035938328640670036,0.04119902345473636,0.004640809294533756
538,-0.004154880295245689,-0.2712379326310364,0.006302712841785797
539,0.007664636772668043,-0.18203613612273395,-0.006285235226877193
540,0.013416638571757344,-0.1726060992115283,-0.012113195369969253
541,-0.0059988484030111255,0.20141813308879342,0.00708140557149145
542,-0.0005113981589141003,0.17363601604405654,0.0011631033305082384
543,-0.012588882992959682,-0.20027549562926367,0.013757950234441341
544,-0.010495109853112528,-0.38494507316162185,0.012681234761383893
545,-0.01767984022246727,-0.055999636429288346,0.01902563971298423
546,0.004079048418644149,0.1433526561270274,-0.0036101041086651093
547,0.009182839296531409,0.03265246925477816,-0.008420390704464625
548,-0.004618376860672679,0.32120734728037836,0.004931890557218685
549,0.0003875516682372293,-0.22631356614410292,0.0008478402320439272
550,-0.0009615065682347934,0.29989437449125866,0.0013199659823276307
551,-0.013081415934994123,0.05809299295801107,0.07406041499040876
552,-0.012484371890850388,-0.15922266019516146,0.013713174638628516
553,0.01105130976982438,-0.24794749775464392,-0.009381512393270532
554,0.007439392634641884,-0.2625686401533383,-0.006207379782181124
555,0.008798762711010655,0.07959891685826725,-0.008069122973060984
556,0.017358968076063075,0.031087086287649224,0.007927169776934351
557,-0.004379005262730162,0.007535105721678148,0.005550411396367599
558,-0.010214611370880533,-0.1842135453126008,0.011495209345369767
559,-0.010271935243536645,-0.22106560173168205,0.011764601943161687
560,-0.005778052765075925,-0.06991000944927894,0.006906316678444273
561,-0.008838885661152984,-0.2514697204051655,0.01002709499674329
562,-0.006233483423875086,0.21384456310323874,0.006849311721515369
563,0.0029093676813645164,-0.3745017935840741,-0.0015932509394662702
564,-0.00790636052742233,-0.0381775048992285,0.009338092617226176
565,-0.006452490013875822,-0.07199402268469951,0.007357356466149213
566,-0.011951353126014475,-0.21188262808610747,0.0130012500384546
567,0.002511361117973676,-0.028407545634342557,-0.0008655125070414215
568,0.010961102810508772,0.014923356117827913,-0.009869819767784793
569,-0.02721442873035873,-0.23045489475159525,0.02911317798861601
570,0.016740095309107916,0.13560031390275873,-0.01593970176815474
571,0.009123386684426471,0.037174421605395525,-0.007943514271728782
572,0.004296149065901034,0.14475806856707807,-0.0035411190968536177
573,-0.004805210314959174,0.25986040361564156,0.005299412525704793
574,0.003818684908813319,-0.5246772274475657,-0.0016588434928647984
575,0.0020509929436267615,0.40893398169003337,-0.0017995770132421967
576,0.003029292074512746,-0.03762918206591376,0.01875924443334643
577,-0.004834215523589869,0.2512564921596747,0.005346425037454901
578,0.015081142679627346,-0.03069257002379061,-0.01388044051167999
579,0.014237909921293923,0.1228557453283734,-0.012163584448951405
580,0.011234928981827652,-0.33232639195575875,-0.009463450207858841
581,-0.014140682542406191,0.01234815987417448,0.01788142068731522
582,0.013401865157716575,-0.04754776416639822,-0.012279965899068337
583,-0.002391179722876502,-0.21135335798385785,0.003667311643746325
584,-0.010975307498728104,-0.28254345858752916,0.012132659725361372
585,-0.011369813871039303,-0.1097932129237526,0.013045399388386976
586,0.003357161777648887,-0.5537436368401908,-0.0010315400206896811
587,-0.01515849267592806,-0.12164971220752036,0.01661407160280378
588,0.0004188186163411878,0.08889171254602102,0.00019847204276429693
589,0.015415557081410292,0.09101164823008867,-0.014609189654592774
590,0.005634566072088898,-0.06539621332349332,-0.004835122980935012
591,-0.0005556321429085465,-0.4796540097926802,0.0022200993849131917
592,0.01990426960320013,-0.02750294062393921,-0.01787886292535968
593,-0.011768148948984924,-0.25514883985594417,0.01377527681443371
594,0.012676259093137965,-0.038418416527198185,-0.011463850806773371
595,0.0004487549119183143,0.15450771157000975,0.0001393448617629474
596,-0.0035164538059344608,-0.1389052221024486,0.004723692465697787
597,-0.0023715236949617413,0.05869903115634745,0.0032054896407442356
598,-0.009261855796356633,-0.15045338980322243,0.010351881404168307
599,0.0026136350035264044,-0.19855594988262293,-0.001421646709219931
600,0.010737816061305416,-0.1198613908812669,-0.009350497806031853
601,-0.017347474226354964,0.0645844980624618,0.018141803479006194
602,-0.003211314611939464,-0.03656610057338344,0.004491366098246908
603,0.009424215111830447,0.16247335094270154,-0.008487447778573914
604,0.012198361421414505,0.009870373191922854,-0.010038351072027763
605,-0.015293214466356675,-0.2337961349296106,0.01673022030728316
606,0.0015354347177618521,0.0403604967547978,-0.00019802739766928425
607,-0.0007732814153136314,-0.2568610650350707,0.0025122833176390484
608,0.003715314626001165,-0.17670200002344322,-0.002490563459632358
609,0.00909966898722181,-0.11482592146207754,-0.0082885657196377
610,0.00559383416014092,-0.1692634469858335,-0.004311605325963501
611,0.009094528047983719,-0.12731131816908114,-0.007758075770927826
612,-0.010839055302306333,-0.038908941713077794,0.013109755813872652
613,-0.009242944732099634,-0.1844282823556893,0.010795871008633912
614,0.0014400763750122003,0.034881361661430965,-0.0005536148170564048
615,0.009018274024458428,0.14631972090323853,-0.007168511403540106
616,-0.007498559103000901,-0.021285482395537902,0.008474754257256792
617,-0.02242194768238992,-0.16597726933184692,0.023451636197029075
618,-0.010987554371136299,-0.13675761297345929,0.012239094488340924
619,-0.0030792128987833234,0.15936915468923818,0.003990602306295659
620,0.012872215099322348,-0.31423070962802524,-0.010887168079976618
621,0.007271167287704383,0.08807736350221751,-0.006265102158619265
622,-0.006970028392792149,-0.19506911244189007,0.008896705828129597
623,0.005650002288962952,-0.0853794882348477,-0.0042906344607583375
624,-0.0027128646458380867,0.1341547505677142,0.003548069130846852
625,-0.0027257372235555133,-0.24226110598355832,0.004500622108579592
626,0.008663052613589128,0.18304981234992124,-0.007881580836956345
627,0.0007023419573466416,0.003235317343143862,9.360528203596915e-05
628,-0.005492372411532331,0.016544665257324676,0.0061137242625627555
629,0.010375860140101834,-0.09223667407755859,-0.008989851311401254
630,0.00356952741424732,-0.008449803803193545,-0.001675055888742827
631,0.025026778109185743,0.2696993191137147,-0.024260795732199403
632,-0.0066619649509018775,-0.05512157580259769,0.007868576094775563
633,-0.0019329164630959017,0.011947915166154566,0.00343988588504526
634,-0.013999631148708613,0.11912880368002887,0.0157606146615306
635,0.0007280014520203437,-0.015443456490204233,0.0002527243180698861
636,0.014072469821524214,0.12355913072739577,-0.01321334047551718
637,-0.006215087486311388,0.09401301067342471,0.007174540050727956
638,0.006990742217310109,0.04495314203766254,-0.006436297097094575
639,0.012428522449932311,0.05493010291360079,-0.010232530036157731
640,0.0014924376503751002,0.0643266577046765,0.0005185249373751503
641,0.006277968949668367,0.05973443685548285,-0.005250918825851659
642,-0.01589582736958306,-0.14269848675797103,0.017149432688359775
643,-0.01389286974436632,-0.6575882137335641,0.016065890897945793
644,0.003458427516897178,-0.06731372608558372,-0.002488114855772983
645,-0.004956576039522043,-0.02839810543142207,0.040655288344049585
646,0.002042499990889235,-0.5462386483633395,-0.000574906383193229
647,0.009755520405807072,0.058241120642868904,-0.007452796967016002
648,0.0010773830023786957,-0.2032492383087482,0.0007538662130302327
649,0.0059930985436777995,0.005401721607676047,-0.004941856652112074
650,-0.0019156729438514208,-0.23319721716238345,0.0033051078778666126
651,0.019146919546309427,-0.2803632623301263,-0.018187507328057656
652,0.030534350487593453,-0.44635309657295863,-0.02818982061464794
653,-0.012687516873994609,-0.08739188125159947,0.013836925602749944
654,0.0025037753950554187,-0.0158313849058504,-0.0017262726546041448
655,0.00687533367006532,-0.17195964434729671,-0.005381896718427015
656,0.007958832834606966,-0.2765675400588463,-0.0059975169023733545
657,-0.0075773157331674446,-0.41577114255691333,0.009938619682909303
658,0.011274537760831427,-0.10752375266771036,-0.009913181521888692
659,0.013697076069159042,0.2220848845980533,-0.013201335343658138
660,0.0046821687328053585,-0.5969674744520728,-0.003029694268028106
661,-0.004073368867590799,0.004996038181015794,0.004907950875608185
662,-0.00216768094373887,-0.1086954329259161,0.003502041998099594
663,-0.008129259354340834,0.0842172693242037,0.009352219768305076
664,-0.006994183481082494,-0.26184162044187154,0.00835290886761195
665,0.012217873497013754,-0.06762418412923438,-0.011000205175998598
666,-0.004480375196551756,0.25166396759606446,0.004968086510966532
667,-0.006819703421930612,0.1679155592456978,0.007893077055127469
668,0.023300431865667104,-0.07781713863209949,-0.022338643752870667
669,0.015921501193035592,0.21416197574819718,-0.015287806189601542
670,-0.00018458631076334608,-0.4787373823446873,0.0020438366232277986
671,-0.00712506958429604,-0.13889730863485883,0.00851496851020729
672,0.01134268409680117,-0.376676830732974,-0.009833050921590621
673,0.015344406740241734,-0.37367430245051064,-0.014099780547374575
674,0.002228005489383289,-0.11501578596785744,-0.0009317935273231341
675,-0.001923591075472908,0.05146594468405219,0.009917918385377379
676,0.007632838158103006,0.034365502104301004,-0.006544323285179235
677,0.0040605019246608975,-0.14207887474449932,-0.002380539545320971
678,-0.011603942586088656,0.04429562858091407,0.01324711417277067
679,0.013077817028210204,-0.34545087957164433,-0.011103201026030548
680,0.004483962419856047,-0.27311225143039397,-0.0027732507493854427
681,-0.0021997812252917415,0.3460380075946037,0.002442600763179871
682,0.008073872498796986,-0.34164583875396815,-0.006289461105166265
683,0.009696669697017102,0.32258892984887755,-0.009154057251457562
684,0.0023338706804840736,-0.11118353825665972,-0.0011681876035034293
685,-0.009133940755849168,-0.47016616375421855,0.010575489090346673
686,0.009706728272121712,0.20636214919495832,-0.009100039113967432
687,-0.013621943167899442,0.17342761849334642,0.014216549000742998
688,-0.003575093455210454,-0.037704425489968774,0.004429700386466175
689,5.7688264024857716e-05,0.15156490332058115,0.0009877900908055381
690,0.01302652902636292,-0.08460131237689611,-0.01171174777527558
691,0.02619052568063296,0.09710763716555959,-0.02503200188164228
692,-0.0020825220942305434,-0.029825119264904776,0.003296330067723102
693,0.0007841814249940349,0.1101817738731472,0.0015594330203170103
694,-0.002981227342115811,0.3070504721776559,0.0034561480933163694
695,0.00801826349153778,-0.2112619579407144,-0.005428854694381698
696,-0.004487632404936548,0.014985072926634646,0.005544792453207083
697,0.016438122872773242,-0.2668710603837742,-0.014714842669608697
698,0.0038793914137311702,-0.47866805025435794,-0.0016195322978945115
699,-0.010614234857175942,0.3332732589411449,0.010957682370819748
700,-0.015218104557381595,0.03521666129709855,0.03423471396173718
701,-0.008299935269092007,-0.08981080061072111,0.009521108086309323
702,0.014868126798927017,0.0967303908694166,-0.007467088872974636
703,0.0027259287056822235,0.10952889205660699,-0.001782255817724399
704,-0.009469213459190606,0.15794507453234186,0.010034609169605028
705,-0.020888404011350392,0.11183117136984932,0.021696420945511635
706,-0.003949879953593749,0.25640693438905793,0.004692773829131511
707,-0.010409123687282418,0.16723637936965707,0.011053832681168569
708,-0.007060346830357611,0.23414117513410604,0.007526184090821516
709,0.013767235358485452,0.06894525148919683,-0.0129665557875207
710,-0.00771476845424568,-0.033898473563964415,0.00913546445804186
711,0.0074562148458938715,0.009666880327601324,-0.006311299376501847
712,-0.6949859316631037,-0.000377856936211729,0.5007086906632474
713,-0.007944260297390038,0.17420157852132367,0.00848461237139818
714,0.003660710437182857,-0.6694349236127861,-0.0019010669861077986
715,0.01140196306806307,0.007906844312323247,-0.009941827223671316
716,-0.017279278024577183,0.19300653013422087,0.02006053426625276
717,-0.012436306817966924,-0.21760489427613844,0.013776127134137459
718,0.0029528186036789084,-0.18020148766362493,-0.0019280871442779244
719,-0.014066712753300847,-0.15893032314857108,0.015356439974091517
720,-0.009876062302188626,-0.022396189414536027,0.010849850543702086
721,0.016375680875772458,0.15822746518016162,-0.012973272826664106
722,-0.0037276670847117277,-0.4087402054324979,0.005085185892233312
723,-0.021268397254177174,0.40950603315579837,0.021365313051603153
724,0.0006235330199078071,-0.00248061045464526,0.0005839169244311051
725,0.0007791977854507692,-0.19670111433503235,0.0009645029948504089
726,0.0049100605925402885,-0.009813658212532606,-0.0036232512955275526
727,-0.0030311603356472094,-0.016693598994259762,0.004263950188427771
728,0.001943081162315785,0.07142093027498253,-0.0009098280001860985
729,0.0030512128425126406,0.000558217310691278,-0.002046226851448955
730,0.0030999515430909508,-0.07636765256337724,0.016659893756939527
731,0.003500943651753463,0.08367349408353197,-0.0024093922828760696
732,-0.01769634424989952,-0.00775246527699508,0.018872478940364635
733,-0.0013263157885812227,-0.23251502052939932,0.0025693365866407475
734,0.00371091352716868,-0.0618527585613079,-0.002919124386244766
735,-0.02044654170549809,0.03707886681407058,0.021375738347606966
736,-0.006760235831169803,-0.02210382993884963,0.007636319941152761
737,-0.003959280989737746,-0.3627178215268796,0.005848549778919369
738,0.00515816918372769,-0.06501964794617526,-0.003561671295763881
739,0.0031533242272940853,-0.12279704801652902,-0.0019640185200307313
740,0.006512466160100372,-0.43334069515415385,-0.005384642366523258
741,0.0032511849684979666,-0.07176607502585192,-0.0019861469965104335
742,-0.004103428968496359,-0.11930329533041667,0.00527230871458396
743,-0.008132649069995002,-0.5653468566096239,0.009507027539796582
744,0.0012054428127987737,-0.3848882951553658,0.00047813528934075294
745,-0.002220781543799566,-0.36683105187902154,0.004036463111503508
746,-0.003408546074028629,0.2702059980197854,0.004019786804975411
747,-0.0032033707628327246,0.040539556747501315,0.003979007786065267
748,0.017055892452682464,-0.1577948089997377,-0.015368765699051438
749,0.018810106732048082,0.0030158930343187063,-0.01674692987725721
750,-0.007571605628305722,-0.06744010092732627,0.008971276866553307
751,0.007711178129944596,-0.054584496952737316,-0.006192979807221309
752,0.003942183347676487,0.2688150547993843,-0.00342490366487018
753,0.010339262573503927,-0.09150984284161578,-0.008654085078341632
754,-0.01386124618626583,-0.10860947135419702,0.015467066394219181
755,0.0016493960057955004,-0.3014994824142292,0.0005994208537804297
756,-0.008147927512457076,-0.2053857270047667,0.009960745791137197
757,0.0005603215042226939,0.17281775561962975,-3.1591422188284922e-06
758,0.009393762472846179,0.097417819919285,-0.008569810587738903
759,0.014698790541248785,0.2280004082633238,-0.012892590732897951
760,0.0036013960559693192,-0.15452591035008678,-0.0022851414431572267
761,-0.016639513751310786,-0.2109717805930792,0.018097611511678408
762,-0.0011261431364775198,0.24957775700380536,0.0017493833861268286
763,0.009586169419182777,0.12911558714837634,-0.008825228254641297
764,-0.006591635108703087,-0.2254559293792504,0.007669931550108777
765,-0.0025640160100613985,0.029857009593898476,0.003686205548611906
766,-0.003534231529432774,-0.23919190847395833,0.005226244186405165
767,0.002097194019032411,-0.11531469255473215,6.374758397560072e-05
768,-0.001033112083890897,0.12974082982557,0.0026577067394893674
769,0.015509070087911914,0.32285496689702897,-0.014988904009296493
770,-0.007842754791265172,-0.08170878142096594,0.009449579665828423
771,-0.017277775550577412,-0.011411384722498308,0.018463696212590003
772,0.002824299065250724,0.10570495082751208,-0.0018712126294800327
773,-0.0023108544014595056,-0.6497956977547196,0.003917333182154107
774,0.010415370277110148,0.32184562748047185,-0.010057087765796677
775,0.009230323172530142,-0.12935004425503455,-0.007761588327446771
776,0.009807998719731703,0.3480629637182988,-0.009533032160229413
777,-0.002517571310764022,-0.26966659136276827,0.004358728958888787
778,0.007393664106650544,-0.08256447768778974,-0.005859772937984962
779,0.0192257858012308,0.1770906790603426,-0.01813095345966012
780,0.0014686090419275821,-0.5473492663900085,0.0005241449213932355
781,0.0025504511843414956,-0.07229189843607575,-0.000940892605404224
782,-0.03045107110955092,0.009592898659576021,0.33471198510727346
783,-0.007733520571439723,0.11738535262584227,0.00855825905040565
784,-0.005449762819883519,0.05006589769018388,0.007272148611792181
785,0.009470458682232286,-0.0512477937818005,-0.007956519400579419
786,0.002560629275822457,-0.13679886082915288,-0.0015376540916546219
787,0.0027195513669844296,-0.04319378442279076,-0.0016823160289837688
788,-0.0028812268971722954,0.022689862209803846,0.004399399412029925
789,0.0016337879035652758,0.016136473390170436,-0.0004685943487331315
790,-0.018126918383106316,0.038076779044539544,0.01914764987902272
791,-0.6994472375209633,-0.006791210887977406,0.507022398119937
792,0.0057464693521169785,0.12403511353088015,-0.004524993013489075
793,-0.002767925883388145,-0.09423985458436013,0.00395086974079004
794,-0.01074317077620901,-0.08128759872551661,0.011713096303722886
795,0.0025600803609324707,-0.01517466498068254,-0.0006444618031684513
796,0.005954649826803493,-0.44861033328554856,-0.004236432857201362
797,0.004356598634029707,0.3153307606886685,-0.004167572796084278
798,-0.004061713690091895,0.09227589830550131,0.004909404704901135
799,0.009124746700097663,-0.04949436442676031,-0.007951646566731325
800,-0.008545885532006858,-0.03518245106527962,0.010073131572053353
801,0.007769582339659298,0.13694096426451097,-0.006990842241701648
802,-0.007502769182111568,-0.15363129518190033,0.008859639086711104
803,0.0028186234084102146,-0.1308962700979423,-0.0013610791533455995
804,-0.013893590289331459,0.01881975216128895,0.014874892270185047
805,-0.008380562301466887,0.22939275497631384,0.008826347662094667
806,-0.005757614251313381,-0.26218702424727486,0.007648687776303268
807,0.018891696088155108,-0.11357689789398384,-0.017626758900190727
808,-0.0048241000465578665,0.07721033884142992,0.005367455276003602
809,0.0038677512221645394,-0.07965993300180363,-0.0026423430852943056
810,0.013408933344596807,-0.2580159888333651,-0.011711798515805458
811,-0.0013931162281112242,0.2375120388444295,0.0018630869489807082
812,-0.013101167032046335,-0.04343762304175308,0.0144270081720706
813,-0.000631409550414852,0.0027241704563802926,0.0019723494843965454
814,0.006059084705998252,-0.1616982566050678,-0.0049906729599006215
815,-0.003838311351626267,0.13795735134527798,0.0045188995925022025
816,-0.010403322875257692,-0.04235343230571764,0.011307638061289435
817,-0.01650022902392223,-0.017066167755581285,0.01740124771363935
818,0.010624471049817785,-0.18372212435076352,-0.009027473880396429
819,0.0019838899767443685,0.11428958875285622,-0.0011697319441742367
820,0.010827156526295179,-0.0707654235998012,-0.009780289882068246
821,-3.367696995493219e-05,-0.15063302191421823,0.0012047557908545059
822,0.006447310586425337,-0.1940067953211284,-0.0044860390898840705
823,0.004892671338117882,-0.04961148746137062,-0.0035064109411192474
824,0.0050870575553416675,-0.13629257642550108,-0.0038042982873799703
825,0.0011234165771234483,-0.035248432286677345,0.0048303109452646825
826,0.018500406522206525,0.24771013649848006,-0.016090373118995378
827,-0.02302985962382731,-0.3627636900345306,0.02487727405073092
828,0.004018951931315851,-0.09033126546145098,-0.002473641366094489
829,-0.0055835128395888,0.06957815718239291,0.006603124831536115
830,-0.0074215683168639135,-0.07992439050067529,0.00839482311457632
831,-0.009495831363669716,0.23799616623049913,0.01002609816872191
832,0.005381027215909162,0.3872695663458854,-0.004920392518516019
833,-0.006425139284106152,0.11652750803985612,0.00812185237114827
834,-0.003933795922867578,-0.033355033171441895,0.004939696273639857
835,0.005069137241981547,0.11066609192992194,-0.004083129628701317
836,-0.004864347869605434,0.1448793438264807,0.005634911747874139
837,-0.0026136487501048355,0.002357346141987793,0.006623383691478921
838,-0.022772689127594226,-0.37240702400200676,0.024217067496880736
839,-0.0006632492128177958,0.10415082003031872,0.0015721768535586307
840,-0.013686818397902867,-0.01620650365527787,0.014742109736943348
841,-0.009635312839308185,0.380387698273128,0.010097216192636005
842,0.00717223595985339,-0.14716044390513983,-0.005994437136096531
843,0.011538937462450383,-0.21556300953712887,-0.010012023373751254
844,-0.0034825761833027213,0.16463418485371029,0.004179530985124984
845,0.020718304697919798,-0.14444626887102768,-0.01958752492285257
846,0.015624500592294144,-0.33308104567286145,-0.007646668457401575
847,-0.01918043779760359,-0.1388005708359749,0.02097733618341481
848,-0.000958949405857723,-0.11339928892206752,0.003041246560212858
849,0.0020281790382812304,-0.11187212081198789,-0.0008003784385808104
850,-0.001546709420616077,-0.017102211275718704,0.002680931524697371
851,0.006731821510928437,0.24346640661732222,-0.006257943764119955
852,0.003140345927415744,-0.12393466497719374,-0.0016980734023351034
853,0.013256929118481198,-0.37704174915566646,-0.01129827202627821
854,0.0062327539550361966,0.0913358581669832,-0.00527849109472354
855,0.024625237505113917,0.1998923136421762,-0.02339125239443474
856,-0.004226256619637714,-0.3717014630620335,0.005440721908656997
857,-0.007818836028470555,0.2665441913507911,0.008450619551808631
858,-0.0008446139988548262,-0.04516335035667285,0.002205410839749311
859,0.004811281588685823,0.10346357244221738,-0.001761038999172706
860,-0.01677339252033727,-0.1548631792549059,0.01849623494452062
861,0.003897084372749049,-0.2816830656343571,-0.0027972721627391364
862,-0.005295966436662192,-0.1494568530336548,0.006133375589238313
863,-0.0036672022717874064,-0.4660799675193809,0.005207062696183493
864,0.011359191144099556,0.44931030137844374,-0.01115442980787302
865,0.007660820382736633,0.06210205378904421,-0.0028933415801840967
866,0.0015004031079339786,-0.13566763359288797,-9.863342719218053e-05
867,0.0004249596320025084,0.08830635641051898,0.0006465487363731882
868,-0.010428772125862129,-0.20090305825386168,0.011809720698118144
869,-0.003999419158554507,-0.5941539408526327,0.005416620036756831
870,-0.002861509517422256,-0.1207574998979572,0.004220880696259519
871,0.016627134380165165,-0.19898219873739342,-0.015124354780618342
872,0.004451086068072874,-0.2879417105520955,-0.0024701040765225117
873,-0.005174185230983452,0.01880181527998359,0.03811504599562449
874,0.011788270495167952,-0.07927165662914859,-0.010251514684644645
875,0.00017153141423609242,0.11417199877772388,0.0020286659217921624
876,-0.008858782835430956,-0.07857169106699474,0.00977032348860139
877,0.008553091611696928,0.12008127835196092,-0.007659606441199503
878,0.01717550202959095,-0.2416765582367757,-0.014974831054818423
879,-0.0017850204669980219,0.2001754256638516,0.002857962860927
880,-0.0031600896883091645,-0.2495584928678825,0.004503606814032355
881,-0.002462057332185741,-0.08780085115912456,0.0035156671610742703
882,-0.027697432467392757,-0.11856826844172796,0.030592699563666975
883,0.01656541845286652,0.024967539883389622,-0.015287263968586012
884,0.0167829002550981,0.06930634361179011,-0.013650564358594965
885,-0.007178180710578963,-0.022064169215655793,0.00815646408873854
886,-0.006989321853165031,0.015194369960112364,0.007944954469538424
887,-0.007038940671532656,-0.5789739622548683,0.008539649701749294
888,-0.0012134991329129097,0.3261319198332441,0.0017314628760144843
889,0.0057126112205958535,0.05327028554841118,-0.0016406302895462432
890,-0.006028355666979013,0.08170334255149381,0.007512521553392435
891,0.003364670947405557,0.008791995657785545,-0.0020293247241235804
892,-0.004928049478975516,-0.20904481930751911,0.006054636310701244
893,-0.004889363890521303,-0.069520375723224,0.006075089015370031
894,0.00400788687338971,0.15286983569884527,-0.003235383160805759
895,-0.005849405043513833,0.07461116749543784,0.018729265466567994
896,-0.0023401976229261434,0.1633728076143819,0.0031424864103566505
897,0.0005198604861968992,-0.27657543381378874,0.0008012015141130178
898,0.006116608521615774,-0.1282921385989379,-0.004403704904390361
899,0.010752226177986657,-0.11081505724706442,-0.0095090916111365
900,-0.0011153902429824614,-0.09453384144366489,0.0033703803575450366
901,0.007543549714466913,0.21734737801975634,-0.00678903966806065
902,0.003477479912966208,-0.01577539259213706,0.004051686738357603
903,0.012505869811851644,0.0034314807958190086,-0.006498792021462396
904,-0.008088447363951201,-0.31953146713762015,0.01019819921536273
905,0.0009249348012745351,-0.0391847208612105,0.0005333612690141308
906,-0.01167336380848405,-0.405129929430635,0.014264387848788283
907,0.013977627133244352,0.28612390423580103,-0.013271280592262338
908,-0.011192113213219779,0.019031224508870292,0.012507487867597956
909,-0.0064225898338767795,-0.1609185059756974,0.007469783299703704
910,-0.009151407800851108,0.21184562347606684,0.009681513441424977
911,-0.003748933843154334,0.2556351832474557,0.004157980844100348
912,-0.002443825397993926,0.20359406017066095,0.0028553723581979285
913,0.005409752692020708,0.1450660068909697,-0.0046890652004187355
914,-0.005502358607211044,0.010345365303482734,0.007777874304830766
915,-0.01928760850364386,-0.34896165368182325,0.02094695659400022
916,0.00843722335790753,0.1495757222651115,-0.007432411154847796
917,-0.011539807376516165,-0.3019603157534125,0.013199690444107728
918,-0.001443705511988913,0.01592617101953564,0.00506343143800259
919,0.02286506746100425,0.057923561404688906,-0.012357389424131542
920,-0.001414284088669171,0.067655920870488,0.0024485155967671744
921,-0.018573264583985005,0.17552371890369045,0.01930743182361457
922,-0.0035466211690380334,0.1715326092302878,0.004261446862159573
923,0.007213594470967033,0.013638717993425087,-0.006473232156250742
924,0.012701301948591315,-0.02474055252200602,-0.011895139166885383
925,-0.004867755017065045,0.2079380482996156,0.005499582249768355
926,0.0013429859111502296,-0.3509138964110605,0.001043333359351891
927,0.011097799354726767,0.15546503001039902,-0.010244280708300357
928,-0.003008613334148813,0.24068544361765465,0.003623747597464535
929,-0.012623290475055615,0.037709291345807916,0.013657525536867615
930,-0.000313606059923921,-0.03630402269519034,0.0011175916848767883
931,0.00915872395228412,0.2264928339391138,-0.008593392172257882
932,0.010831396912335256,-0.10983052609528104,-0.00934180829711695
933,-0.0011152530508303782,-0.33887651545552033,0.002958327828120673
934,-0.005851090349621391,0.15403291268699282,0.0068374267408151355
935,0.011356757770204506,0.06541207431043916,-0.010420273934938995
936,-0.002545378967016454,-0.20354646690726125,0.004227781578072972
937,0.0184145554074151,-0.18751317666186673,-0.01728507103610409
938,0.012253879043966798,-0.2501740218851131,-0.010881508822294382
939,-0.008806527670068731,-0.18656453714629573,0.009958716286178242
940,0.0008202122809704004,0.2618371016339952,-0.00027055112648231443
941,0.004216485557440697,0.10693256542501273,-0.0033027325411359924
942,-0.007098223344482957,-0.08535664973225654,0.007965610984064734
943,-0.006195418151691667,-0.36497132290946377,0.007655337189779857
944,0.001107009827499894,-0.431275797744038,0.00047804094537168566
945,0.0002799072161403515,-0.08624356570255642,0.0008344873824051319
946,-0.0093803980829259,0.07535583817925251,0.010210925610401501
947,0.013301911037385539,0.15873590182654762,-0.012486409216200627
948,-0.005714484981546919,0.1593073171870083,0.006484934836559114
949,-0.0034447116649255483,0.046760291200794835,0.004209363160053908
950,-0.01065797499239829,-0.029557682594486268,0.012007114232163803
951,0.011187809094571621,0.04996436093723433,-0.010680463301598683
952,-0.005069056900644298,0.14347516235423963,0.005525949415612922
953,0.0014105404783109066,0.10468194427630273,-0.0005774104262867695
954,-0.012204090936306478,-0.21507385750662916,0.013539543492790108
955,0.028900999866080523,-0.059031364142624276,-0.027254789246856127
956,-0.02239207160949952,0.38845533901927753,0.022695190413361706
957,0.0057238803634063196,-0.22313405099902517,-0.0019338191203216411
958,0.026459317185592246,0.023001961644358193,-0.025704131152280388
959,0.0011855812127787857,0.026560513436479916,-0.00014140606367091095
960,0.0007933129721999777,-0.08679513691103447,0.0003818639275665191
961,0.0025198599452860293,0.03680528743802858,-0.0006570016552570451
962,0.002084999079902783,0.044739839807809045,-0.0009873706976497487
963,0.00020034822256431717,-0.4582329772720534,0.001141458433128173
964,0.01978768879855264,-0.13656987422494282,-0.01847497367250562
965,2.205657888643131e-05,-0.0012369082965839051,0.0006295800754516676
966,-0.02487358209548285,0.2679595242157322,0.025536516155287063
967,0.010527613503642064,-0.14251883699769607,-0.009482739182839942
968,-0.007118968326045971,-0.04508721896762541,0.009163247678484004
969,-0.011023915472245682,-0.22764592588662075,0.012528821694115868
970,-0.003480531547463972,0.18384383464990317,0.004137150378449587
971,-0.005738532406065255,0.06463397034346607,0.006511861901116026
972,0.003535899629912853,-0.17973764121948765,-0.001417751653279629
973,0.016705159371591893,0.4491673156644137,-0.016583591252918996
974,0.0018101991525569794,-0.21648922983057423,-0.0003017703516925394
975,0.003938505927537417,-0.15053448890259002,-0.002825901836326193
976,-0.013470012194169545,-0.1936906394898693,0.015510674076056602
977,-0.0012738730948193,-0.06949112838841914,0.002751237958582533
978,-0.0017596484486092079,0.00250593146121858,0.0023545297527174627
979,-0.005953473947570065,-0.286488264425194,0.007358436570429876
980,-0.011149468285304831,-0.0736363386222953,0.012274442025978896
981,0.005813395199963267,-0.26834822039614525,-0.004187655807211377
982,0.011999299350017534,0.04627885465126991,-0.010788426193800842
983,-0.010261382277228615,0.29417227525889555,0.010984977744344905
984,-0.012013399753814769,0.024534056004487104,0.013542793149812314
985,0.020123522521768855,0.21240006172435744,-0.018769539294260357
986,0.010064675669927858,0.2725490956776976,-0.009637147625941906
987,0.010315383905836528,0.22486875478803658,-0.009459044018483109
988,-0.02014250516017424,-0.14707495413276578,0.022148688996886632
989,-0.012260612864749887,0.2139726069894604,0.012945029815114322
990,0.01832000762493391,0.13376798880415008,-0.017627813991056427
991,-0.012299991337305749,-0.14462137255801955,0.013944026928479616
992,0.008243381537865302,-0.05952363066478178,-0.0068239640073587
993,-0.0021706746083768325,0.06027565529241874,0.0028270051135255926
994,-0.0031443300019409204,-0.33563628835839626,0.005475307485338999
995,0.006403752465885981,0.16316995429933423,-0.005751608249369565
996,-0.005163771331191391,0.044514998443602294,0.006064413791641709
997,0.007330965588345784,-0.07464908289388711,-0.006225203496229551
998,-1.3806830110318913e-06,0.0020755285855433847,0.0012461884098396694
999,-0.005593168959345918,-0.20652780589541958,0.006854851305830925
