,0,1,2
0,0.003024033635417922,-0.23451345570550347,0.00449884875585958
1,0.009582397902698991,-0.06784986950816851,-0.00034348162412516103
2,-0.0025201216357946254,-0.08790048436151654,0.01141790314922564
3,-0.004180678024526152,-0.005611758985394899,0.014209299643743543
4,-0.0175490343780087,0.07687032915575598,0.029310872835529515
5,0.010491659535359243,-0.00811175068008041,-0.0002751723541152387
6,0.006305130579794094,0.0625073037732965,0.004745435307687694
7,0.004197492851628626,-0.049275264544802744,0.005266891299850431
8,0.002947490583710133,0.12746269969578716,0.0093684105574137
9,-0.015829909430024047,-0.01823090572670688,0.02592816945558734
10,-0.013095907031419385,0.08389849251283821,0.024863670564727
11,-0.005114716026739186,0.04631461313935925,0.01597012626091964
12,0.00517632459626749,-0.01645942692038871,0.004682591107397275
13,-0.00176208106981246,0.03855015460607025,0.012426837202131901
14,-0.0017017449958360853,-0.011556733116630802,0.011694902763003666
15,-0.00931824888861199,-0.1238663275820352,0.01798337679818924
16,0.001631007170760368,0.06602199064130787,0.009346340045781835
17,0.0017399171575880334,0.003591824364404528,0.008223044698275589
18,-0.010040119181041418,-0.26281630702393177,0.01749260344068607
19,-0.010158867295860352,0.03285940322547698,0.02103503245745251
20,-0.011356054696749163,0.05955436952604809,0.022641110539689542
21,0.014433730450357896,-0.0035942829924711095,-0.004539395393599989
22,-0.0026875777670790635,-0.0931561874273894,0.011721747494881857
23,0.010165189375224148,0.08215334461310231,0.0010487209575434462
24,0.021131099066388437,-0.006387132055339473,-0.011424763613748655
25,-0.009065111806898285,4.309950458680767e-05,0.01932475019048834
26,-0.009439921561474218,0.025277626684128474,0.020141417951825315
27,-0.0014379452518120672,0.04599348313913487,0.012163820398946519
28,-0.017908167579528955,-0.0026955959670822427,0.028185661061345128
29,-0.021177352205226208,0.010306169394311282,0.03171897296923671
30,0.0034895332846414107,-0.08309987357339715,0.005367966758914918
31,0.01188362915786434,0.0038293984524997438,-0.0019257662360390895
32,0.003186568468775519,0.048503839939391113,0.007771285288782747
33,0.004770752268882683,0.06754033524228709,0.006334900323592774
34,-0.003909933778605934,0.012815184322735207,0.01430034373942708
35,-0.007138423546911965,-0.0029618540899639667,0.017352386216098786
36,0.009010936649129775,0.037162367922900286,0.0016056561472105387
37,-0.004813543553694677,0.02890161482665876,0.015304952490136747
38,0.00759097552270438,0.013000528043204285,0.0028448829191131154
39,0.014185756624607082,-0.06616520901650336,-0.004900141174349301
40,-0.01330537323267833,0.03238791976921651,0.024163303529933
41,-0.009666546396469022,-0.028736206008636855,0.01973649779294501
42,0.006296945510983809,-0.21441183000388875,0.0015587801421281255
43,-0.0024586508027756304,-0.0993146802452391,0.011530862450301174
44,-0.005257372023679818,-0.040961628909504555,0.014953619073313166
45,0.009642558060064532,-0.0662288325854214,-0.0005437900878660002
46,0.004930392926499438,-0.030262421349423252,0.004863635574749969
47,-0.004045260686028174,-0.021186161845514473,0.013974365988290265
48,0.004910686970263312,0.056980309212600444,0.006197986398126704
49,0.005521473964787527,0.020123979144304638,0.004963111923334873
50,0.007042531341215463,0.05185504713236211,0.003927487028217911
51,-0.012215110551373476,0.007174983643897681,0.03167981173646495
52,0.007556150654900229,-0.06725977500453967,0.0015834225630849688
53,-0.018468918705100923,-0.16907778226435227,0.02686177304501525
54,0.030419267734540956,-0.11032501782068421,-0.022089592022323086
55,0.008133112377602947,-0.3016346715852043,-0.001007155878730373
56,-0.011279958346805397,-0.05054487512869221,0.02087887386552302
57,0.009652807749433778,0.019226761495829026,0.0005970966172666522
58,-0.005059962956063702,0.026139101055365876,0.015842384483800924
59,0.013712730574464427,0.002975232653965487,-0.003753349365014583
60,0.01174326225604827,0.08891131449725098,-0.00015766688745716238
61,0.0015007228732895062,-0.07723098992531702,0.007816857702768175
62,-0.019596027409221728,0.0010025471012454767,0.03014285876999147
63,-0.004955912550373309,-0.03484690399413026,0.014917863189515993
64,0.008451955939216438,-0.07736655531376946,0.0008039765385809006
65,0.006720619972524933,0.05383019807691536,0.004194039195159167
66,0.002654226317296171,-0.016046545513091592,0.007097348193115067
67,-0.016798302971159806,0.031372813336967176,0.02755183040302636
68,-0.004799059012076667,0.027871336772637534,0.015407441027763707
69,0.009868232918988307,-0.11780662924372554,-0.0012690873073592228
70,0.018451508192087074,-0.009754986832901325,-0.008732508683627384
71,0.015258135731246014,-0.04344712620724733,-0.00581601680448548
72,0.013531704118927568,0.03853877325235355,-0.0029868610536897904
73,-0.002351929348764381,0.0022513521972119532,0.012656181092607948
74,-0.001645883370018586,0.03131278344072386,0.012201017500095805
75,0.007620326430271218,-0.0731539881623095,0.001439752877372848
76,-0.0006353827423756231,-0.05299136429246554,0.010191141223192243
77,0.000257744887721012,0.0007132966889790149,0.009783098521073771
78,0.011541305583376404,-0.02210555068189618,-0.0017755681137219654
79,-0.0047861907721772345,-0.11909949460969388,0.013509439686669976
80,0.008842507189050774,-0.2084217745332831,-0.001024326518277303
81,-0.00644172642823948,-0.1176382514847984,0.015059597431537076
82,-0.0006900912896193878,-0.0826212780553709,0.009710024684488599
83,0.00996692488482731,-0.047212901864975676,-0.0006620217781055544
84,-0.029931198061345365,-0.02899257319713544,0.03991242556406123
85,0.009372811920876689,0.02244482529418368,0.0009987541942718962
86,-0.01970866265979543,-0.1664230432345259,0.02818062104532437
87,0.01326704654578248,0.013743544609070124,-0.003176671806661034
88,-0.016176812858796796,-0.03884710138569164,0.02600301428310231
89,0.008968105710392082,0.02921486794438155,0.001394564225353679
90,-0.00656727316441752,-0.16216198921222247,0.014827766586619873
91,-0.0039761583437856185,-0.15665217753039684,0.012134608583618318
92,-0.00021746604275463266,-0.03648952158960611,0.009816735837043233
93,0.003151952058531693,0.050695176674703024,0.007661764873141874
94,0.000207425310236653,0.09377541536396139,0.011619746179199865
95,0.014933689081497725,0.05656458857946023,-0.003978667579499051
96,-0.014620577299818804,0.011380668282115147,0.025143349647899958
97,0.012986977879644979,-0.010501149267400645,-0.002988354651136251
98,-0.0114650075323246,-0.0309730600129286,0.02149151294520034
99,-0.009978109663003498,-0.03402046644289369,0.019725297499109364
100,-0.008248306038475706,0.030307884692610365,0.019092235556295235
101,-0.0029441194307811003,-0.07600302485042337,0.01211306191749536
102,0.007861122421598754,0.011152496336458984,0.0025200878635805567
103,-0.01167201551287178,0.06996574371296782,0.023009632237851473
104,-0.010008062491671188,-0.1195120108501056,0.0187849193480326
105,0.01052498760733589,-0.15382254249117816,-0.0022206434811045256
106,0.0025543502882190428,0.05343602351034071,0.00858378421587222
107,-0.005048739454024065,-0.07157236649590798,0.01445303166291942
108,-0.01059551252911528,0.02087034495681983,0.021184384149933247
109,-0.007453521963356691,0.08794328710656474,0.01922747481942206
110,0.005124867699737079,0.03255854330415742,0.005413361334284309
111,-0.012438218400081968,0.0717392141556521,0.023956503518288083
112,0.0018052386071845117,-0.06831561594507757,0.0074877313220173165
113,0.0023072335641105557,0.012788142224143817,0.008168474990564573
114,0.008776311717716423,0.00631410914754027,0.0012729323336870947
115,-0.02075865756133577,0.039441967966173386,0.0317536419231481
116,-0.0033633288570935616,0.05453691610092726,0.014371612757638833
117,-0.005803460050802012,-0.04112368575552089,0.015546288158627795
118,0.00959422863552617,-0.18836301278269257,-0.0017771075316422866
119,-0.0007373163753103817,0.024167870142328796,0.011236911753270578
120,0.015117916408582621,-0.006000331074625775,-0.005425117005395077
121,0.013626716728705413,-0.09412918865306086,-0.004996582872284307
122,0.009731122438716655,-0.09916977033660257,-0.0010238396720296805
123,-0.006258864202086101,0.0811645408049051,0.017811008861890333
124,0.0070992688610354016,-0.011606921212997667,0.0027042781313637533
125,-0.005315070170641811,-0.15057502262264233,0.01383250154300822
126,0.003443225374428538,-0.0438773472200103,0.006353812875011863
127,-0.0025968052227769434,0.09021390361066717,0.014364575737490486
128,-0.00719443911513562,0.016257975727369645,0.017773795505632007
129,-0.0034119637001119862,-0.034590678503433225,0.01318565205249306
130,0.012495086222535257,0.10533195809161944,-0.0007687881323648981
131,0.005406291504593375,-0.06423898231011504,0.0037649974038235084
132,-0.014481780362945784,-0.0009281084026599995,0.024843087150191786
133,0.010613338364061642,0.0495830427766939,0.00017477055268282128
134,-0.006558225880238133,-0.03238686764093773,0.016548970073691452
135,-0.002093430072500513,-0.04935893908945693,0.011561123378493902
136,0.007913211994110991,0.001327714188563256,0.002218497961999856
137,0.0059970456590003884,-0.01255435890788864,0.0038554310277704646
138,0.013313747097043915,-0.07371022950387113,-0.004156173062069684
139,0.005871816667477381,-0.10014460904145633,0.0028548198627313466
140,-0.005246250326479629,0.07640819227540063,0.016876256822147478
141,-0.027280689087720966,-0.23800226234136868,0.03495648207886043
142,0.009431751629240148,-0.05647318241317606,-0.00015091071094448124
143,0.009203682155073833,-0.05761775701725946,9.218944735239347e-05
144,-0.003982943266417793,-0.14330057874780755,0.01254979958186832
145,0.00146041684681264,-0.02956595869303219,0.00836357110067438
146,0.013952921613968217,-0.10608613918526216,-0.004962355232379378
147,0.01753632829024343,0.011658331237261454,-0.007519943948594301
148,-0.004118593966721207,0.04128415836850674,0.015074387635442145
149,0.0069001536446076095,0.03898137459262907,0.003674810761967092
150,0.008370663288546076,0.04620885953191389,0.0024439229193591017
151,-0.01954095368328468,-0.03944591150938365,0.029315166890415276
152,-0.013015131162304794,-0.053829673113385434,0.022533467100643793
153,0.0025253895292867146,0.05921521823993714,0.008912012889978541
154,-0.0026564543999898493,-0.022336712093171285,0.012582347321929591
155,-0.012973832970521348,0.08315866736654509,0.02464560371078005
156,-0.005363012856372085,-0.04597824743787621,0.014823779461548475
157,0.014220957274525547,0.055055394177864314,-0.0034305665417539784
158,-0.004906885134268069,0.0604881044032034,0.016032773402108798
159,0.0016174629327325718,0.04244077581767147,0.009035436208336797
160,-0.002535047730515272,-0.03858240639745042,0.012076690714786674
161,-0.010501120494612937,-0.23869598055443098,0.018219986011247056
162,0.0091472558979111,-0.023920443958535598,0.00044796269950493297
163,0.015877496527017865,0.036744683232441844,-0.005480314478525543
164,-0.012898764238480354,0.12238358771667168,0.025372107801614037
165,0.006710644107473129,-0.05381382324820738,0.0025380096038956253
166,-0.0009149738121391193,0.05831308351785813,0.011978349573156265
167,0.0008007338710613876,-0.08371684303785182,0.00825928857102681
168,-0.0004720352680280815,0.08538232739674234,0.01206811311341462
169,-0.01036670174992571,-0.03606714330513022,0.02014472996285258
170,0.013708590604357918,0.04303925265346631,-0.003118530500462839
171,0.005146454365879016,-0.014429754103928716,0.00467353597420024
172,-0.005069566529240843,-0.0008227232265955453,0.015282081557206402
173,-0.015211220725757313,-0.11551044278970718,0.02391555944568463
174,-0.0076595215014917395,0.0015341142965530352,0.017917374513312642
175,0.002595618736479066,-0.0685009744092685,0.006427707435223784
176,-0.004615546810650462,0.05547407325265252,0.015657297347061647
177,0.005115404692434877,-0.20627451720842854,0.0025676064640945697
178,-0.005690760301675368,-0.0018349953315942025,0.015911331543291635
179,0.00018180526999844737,-0.03343595657185994,0.009476676219339243
180,-0.010497721087344924,0.03739955214684498,0.021348186529724263
181,0.006590105578948124,0.006028813579885717,0.0035712886486327987
182,0.0016117584259998097,-0.15180381808788806,0.006555936280423885
183,-0.0036212007881887276,-0.07411218430505495,0.012806105622810355
184,0.010392733676580557,0.003551113572042741,-0.00030658543650024514
185,0.005564170727203832,-0.030453783386843958,0.004030550651437625
186,-0.010962003823920763,-0.007248455714157942,0.021284762023237636
187,0.005561110178251116,0.014895206299202157,0.004791940393596815
188,0.017537327190796592,-0.08925926352557106,-0.00886013594355245
189,-0.006885387214898064,-0.03392547995239603,0.016846444967636855
190,0.018036146552927956,0.019962634509268606,-0.007875446907237165
191,0.013225731724570089,0.05873185506430789,-0.0025451256230539002
192,-0.0052105636531926125,-0.028717398974334896,0.015052492157230153
193,-0.022830012935501687,0.03410697856141576,0.03372936294467745
194,0.009222002705157717,-0.09531749535035872,-9.345628451956146e-05
195,-0.01119974110547084,0.014670559064608124,0.021630594501729137
196,-0.012960635697965128,0.05338304039472508,0.024452528281508786
197,-0.009500769172518408,-0.07729743921070314,0.01864229556013324
198,-0.0014981339630455448,0.1008377621892993,0.013507589899244703
199,0.007451436905240083,0.01883407643917767,0.0028583894005938418
200,0.0011896492460556907,-0.03767915285514861,0.00867164983239636
201,0.005155317822527872,-0.024191595288359125,0.00453173068740125
202,-0.02049618230577921,-0.1202241023688494,0.029492101106725205
203,0.0005822984155814392,0.001377685248884375,0.009651396154335816
204,-0.006633954443055035,-0.0912962761996497,0.015579287965930963
205,0.012780772272227514,-0.07716849931960934,-0.0039315331983500075
206,-0.002478584825457042,0.07356843121058887,0.01371333890050173
207,0.0005010343953031349,-0.11223542992141522,0.00819982339799426
208,0.026702420666640414,-0.20585459208371332,-0.01908382773403664
209,-0.01258614960128357,0.031335588036219164,0.023349596593038403
210,0.009289711114050636,-0.016196287240246743,0.000536877055174773
211,0.0011613315697736049,0.08195343975889013,0.010324964665844528
212,-0.009414887820703433,-0.07933243342996144,0.018704543814134375
213,0.010523680763717014,-0.0017198242255072604,-0.0005861567669258875
214,0.0014235930679953324,0.024139138812667382,0.009028936480196353
215,0.013823722205429156,0.0880869265090709,-0.00241397608076677
216,-0.006848989827847207,0.07814632018474676,0.018676623492488217
217,0.002177679269944166,0.0672006940343276,0.009044726949134566
218,-0.010927067025903292,0.023688320783820882,0.021630913106279695
219,-0.014741060881954815,0.003315839366059614,0.02529561476652325
220,0.011913650489846273,-0.054442428093591066,-0.002682046408936185
221,0.008813150018649907,-0.15254190791092898,-0.0006784828061161533
222,-0.011910876115591607,0.003884841325621169,0.022418109047117288
223,0.0007982589087389691,0.07160634072086736,0.010747003690514794
224,-0.0009003481898318677,0.025230247855508092,0.011420248957625336
225,-0.015463892200957785,-0.01804381802367827,0.02556574870999448
226,0.02227518994015476,0.03279349444100221,-0.011800281656472907
227,-0.021574118462126646,-0.04766966489202917,0.03141210518036587
228,-0.0076566620480689185,-0.04843143808616496,0.01712022062873566
229,0.011040478385816677,0.15327869506049951,0.001588512565566998
230,0.012221685430531926,-0.009176258394534731,-0.002523683675385655
231,-0.013739176808544973,-0.2191239510024255,0.021498409324677597
232,0.009092075078877215,-0.02101251252056613,0.0006618493329526245
233,-0.0014622462405599057,0.061900109210462295,0.012683833705468533
234,-0.011331933898188429,0.07438213521626358,0.023056225742249446
235,-0.012235668630229513,0.01670323759939829,0.022787437130685793
236,-0.0016865009503161943,0.012879051633694072,0.011977711235535208
237,-0.0037890022426376735,-0.035104189471228564,0.013405807131475194
238,-0.0038085783787571437,-0.040626670736181925,0.013524985850426493
239,0.004673702069232677,0.026077439525675428,0.0056639772017082575
240,0.003938166415292876,-0.0057761617384936015,0.006001262983705783
241,0.005923792274981521,0.013828262753580955,0.0043610042920157865
242,-0.0010803644486243602,0.02084288420343494,0.011502437628009466
243,0.015419716674689443,0.048509002872987095,-0.004774152400010644
244,-0.017714999434763512,0.10667300737325724,0.029959950412822036
245,-0.007274970390892088,-0.002487797711012263,0.017476354633686606
246,0.0015918004954904585,-0.15840776834202924,0.006592194158094935
247,-0.007223383628165436,-0.1130739258972634,0.01612938659952124
248,-0.008356336206588377,0.01681259292772397,0.018850102872720164
249,0.016992754581081293,0.007036597820004653,-0.007099605139916457
250,-0.0005919484173699807,0.12141125632835481,0.012839044583608484
251,0.005912285874424494,-0.19113820724809982,0.001964384697860078
252,0.012186714222206518,0.026173734316867314,-0.001834637750222828
253,-0.014933180712885075,0.02048236993396313,0.025618623048007612
254,0.004832569024837197,-0.0102253860245905,0.005314072689636486
255,-0.005060775304181142,0.064555087702035,0.016336839693418186
256,0.003241339862893433,0.08840298908153643,0.008374133958984384
257,0.0226941951152817,-0.015516732360968954,-0.013167861698952038
258,-0.010644130673694518,-0.011827130715210521,0.020617672374520772
259,-0.014198302931899609,0.07276205828727778,0.025763412817762583
260,-0.0043054360602574615,0.030357344141271447,0.014822057227702863
261,0.010033012275969755,-0.016165926295971245,-0.00024571201853159437
262,-0.012194157820815565,0.03216405998136962,0.022856175524244463
263,-0.01570675690265433,-0.28298790718663647,0.02299592783035223
264,-0.012255360108411106,0.03550045111490441,0.023109220639051454
265,0.008997143542708752,-0.1666079743587801,-0.000957442639681176
266,-0.0027331326511396137,0.09494981065994046,0.014440559000787289
267,-0.0002464988171708704,-0.2954916196494841,0.0074832294167448705
268,-0.009328479515566479,-0.11778111741623898,0.018029352237546117
269,0.01373788558182265,0.033061442403694574,-0.003259139120539476
270,0.0046058561917670104,0.07053677136831016,0.006636533105160561
271,0.003126607381886304,-0.0002743217182027968,0.007092431478845538
272,0.00918639776709651,-0.03514204930545872,0.00028491721196587604
273,-0.0019057052615384373,-0.12620500438457005,0.010583465519348648
274,-0.004334243223031442,0.03861301190597832,0.015120688001986855
275,-0.002580128160057371,-0.033543988131660984,0.012190574025543357
276,-0.007386122972771858,-0.04219002105979952,0.01706607352814699
277,0.006322559434253083,0.07030074409231835,0.004839599038500273
278,-0.004749685931570102,0.0363445118988579,0.015533972282555078
279,0.0028089075917347994,0.04795927893640661,0.008107483495993073
280,-0.01579104961094513,0.022096352010352982,0.026512061893330975
281,-0.001438854641864662,0.035168123533855566,0.012328590654735308
282,0.002345017272900929,0.01459234541854404,0.00809288990478235
283,0.006529992741900914,0.0161608093354223,0.0038658339463165247
284,0.0005161444352288491,-0.028031119171488428,0.009261979941495338
285,-0.010142084414015318,0.07103467205361225,0.02165972361115546
286,-0.003551091215326596,-0.06286436226000469,0.012779760187563806
287,0.004877859706481802,0.022772438179053944,0.005583827940663286
288,0.019061078033337786,0.12235097174084852,-0.00727878787645077
289,-0.009665700871004712,0.08646751011822085,0.02125667771561384
290,0.008502279282972758,-0.007314940087761956,0.0014014113289453234
291,5.942881490916818e-05,-0.004324430522590739,0.00997780998590697
292,-0.017493228855064547,0.08149902383757879,0.029242755851170112
293,-0.0021097257251114776,0.03250260883751488,0.01267402573053987
294,0.0001846705538943727,-0.014978710400708029,0.00986101537472041
295,-0.008411800783242662,0.008663216657630923,0.018891272904775724
296,-0.005757168825221148,-0.091204243227545,0.01471450906357677
297,0.0010557587535724444,-0.09046224563319866,0.007935314913106594
298,0.002566631336535119,0.06931774820797121,0.008524540071556112
299,0.010229232498657703,0.038638309745810506,0.00028724507873084806
300,-0.004827129397165342,-0.1259852990559584,0.013647575406320174
301,0.00676069400949042,0.07514667032140254,0.00463391621587507
302,0.010907636638376905,0.007396225841144188,-0.0009381107045917815
303,-0.01027963906718532,-0.06428780148967433,0.019697777828367544
304,0.011814891886626544,-0.01670509753993893,-0.0020372720822351767
305,-0.005901217747245391,0.044915725671186624,0.0168163660221775
306,-0.00886553150693381,-0.11522213192330466,0.01759706655292957
307,-0.004149544772356628,0.04658259307246437,0.015111680608943062
308,0.010958017693220246,0.012098600696548445,-0.0008810574698874916
309,-0.005394395688025022,-0.08814787176271222,0.014368799219575158
310,-0.010314276909333175,-0.06661270110302325,0.01971572027820657
311,-0.013875809801961903,-0.2319065048277288,0.021415132099732365
312,0.0004814142550373379,0.006436264091590038,0.00969591583832971
313,-0.007073023230505404,-0.21506987261949706,0.014719389203906575
314,0.010056346420228346,-0.22410641730085124,-0.002567886230273325
315,-0.0009404156998962243,0.04945507681696182,0.011865805231736522
316,-0.002553260599719942,0.004641961728223398,0.012902160930833089
317,0.013117810280918851,0.008883244749483321,-0.002831425144077548
318,-0.009288663115428974,0.08028000061712803,0.020944913065424408
319,-0.006813912718454107,0.016851850317536,0.01734089935535867
320,0.003629657325249225,-0.0051976952115606045,0.006343358784472185
321,0.006756648501518692,-0.076064009949527,0.0022770717044724733
322,-0.012611158387343946,0.05189122014877745,0.023672797972526496
323,-0.013133147382601962,-0.0023601702315297346,0.023406914862429403
324,-0.006282307715849367,-0.02903026017489513,0.016109969222079416
325,-0.013534002202154616,0.060176248006239,0.02487330954661138
326,-0.014822489446676745,-0.039026640619851005,0.024520266243380502
327,0.0033503146636708614,0.0010517345782223853,0.00674588679604658
328,0.002821589024110782,0.06228695283022723,0.008412044198833245
329,0.00038044625453048653,0.0033165751007924182,0.009759656717005783
330,0.022414610974345717,-0.13634980123875312,-0.014311808704124632
331,0.008526422803930789,-0.0031107016961152145,0.0013993374113701067
332,-0.005862640457689139,-0.031136786894078228,0.015527684752118694
333,-0.005941405330830651,0.07347719723728552,0.017297103061491542
334,0.017828703147862557,0.10343948939660919,-0.0062672440842025025
335,0.006114997684568246,-0.11640934180023554,0.0025380906342705204
336,0.012239772738895427,-0.11024421639854487,-0.0035249968909711244
337,0.010201451037558984,0.013473968696199878,-1.853764956122177e-05
338,-0.0014268038659840387,-0.06382888541862086,0.010931399044223508
339,0.003153350230160834,0.03760385040149561,0.007507733315915721
340,0.01621598192266749,0.054176109607589784,-0.005404248910494789
341,0.01645369214974557,0.005962058797396974,-0.006499105299374787
342,0.002205916276865727,0.01016978021662085,0.008176046194005358
343,0.013704689753824661,0.08300194038504971,-0.0025064182702364633
344,-0.01780297654624563,-0.0006255041538745232,0.02813537863704896
345,0.014737310563014638,-0.10307469663524588,-0.0059643800607993396
346,0.010346618656003281,-0.03041359279038186,-0.000504782807679112
347,0.0066263893697591225,0.07745174776441832,0.0044892338478191955
348,0.0086996621159523,-0.1441280067644236,-0.00040875072117141825
349,0.005488267073229691,-0.02766483063767511,0.00410848868556659
350,-0.006364081549078082,0.00403979756270012,0.01664560008773078
351,0.0065020145557301845,0.09065521719751612,0.0051001110905639505
352,0.009706213138216624,-0.06099394054768692,-0.00040380063313641586
353,0.003422229758134998,-0.054298050627101246,0.00600324298037558
354,0.009856668805131363,-0.12243682437427428,-0.0013839359965273615
355,-0.010337153886194494,-0.0981780666304729,0.019272335759907583
356,0.00403781961698213,0.032724313339229316,0.00661386562489497
357,0.010955140266307062,-0.09958632062891759,-0.002163343229415659
358,-0.0006191678381862742,0.10419009374436339,0.012712004433760193
359,0.0032385387297750867,-0.013961784072088201,0.006795147532581177
360,-0.005172190558156431,0.0017670543707175579,0.015329242112621613
361,0.0024710095792941367,-0.12699828848766537,0.006089772874416485
362,0.013424671316458081,0.009777101199521021,-0.0031502608860724647
363,0.0074800068718019475,-0.11665830476126604,0.0011955156598978647
364,0.00020489581677574087,-0.09932968710029177,0.008608262552105042
365,0.017526443334769493,-0.05867390439706499,-0.008249617736286928
366,-0.0014235975644721899,0.08149347535376417,0.01301850293734533
367,-0.006161529260527154,-0.061200851789596944,0.015430685946762605
368,0.008551458879833884,-0.002630917687787726,0.0016210704138618895
369,-0.013707046239713527,-0.07557093047598051,0.022921613941188298
370,-0.0055505888910080126,0.05613103637197836,0.016727707446801833
371,0.013827830983770273,-0.16421149565768045,-0.0056235551314086476
372,-0.017034169400281685,0.02794117981561628,0.027909258554021835
373,-0.014836393539118586,0.049616921910746625,0.025986388663601975
374,0.02343329068184863,0.02093623584037585,-0.013383349585019095
375,-0.012711605210441124,-0.005005394147138853,0.02314823353589909
376,0.013509021330819104,0.05297487051435246,-0.0026404153715504433
377,0.008741515726588434,0.03351878340992909,0.0018084289308413644
378,0.0034758834745023393,0.04064595777570712,0.013556257791213285
379,0.0005174114043400291,0.009971630861693725,0.009980268299272756
380,-0.007035653995166591,-0.028869026198072578,0.016950488067021798
381,-0.004462593193155451,0.05743397789575866,0.015634230630388084
382,0.00438049292749243,0.02385133212092272,0.006095042778090829
383,0.010267069472152501,-0.0651431074206762,-0.0009454246064886319
384,-0.0030894512002592744,0.06830815548733082,0.014233113426381897
385,0.025964900628811405,-0.026398314048303062,-0.01640901701489729
386,0.008756333980043607,0.04185051698408293,0.0017957374840651028
387,-0.009703698924480975,-0.1421659733782697,0.01811544717471643
388,0.00636158660418884,-0.11116044615135645,0.0022219696511132495
389,-0.009210219660325536,0.05562951020990148,0.020393838602660797
390,-0.005605981742220267,-0.22385748631225805,0.013219447690662673
391,0.0026014910210594433,-0.064591071983088,0.006757186268509031
392,0.003261615216939795,-0.03598560843004395,0.0062830606416117004
393,0.001300253665110107,0.09184004152526404,0.010205578296019667
394,-0.0039492319429730305,-0.05810514067406236,0.013259051209655263
395,0.002325934546929309,-0.06006794099245838,0.0070098037870246115
396,-0.00216458460267388,0.08629099213107383,0.013934755108088757
397,-0.009188927301477134,-0.00831349985248192,0.019570718410538028
398,-0.018549662428677505,-0.029068885987562243,0.028555839210431623
399,0.009245871822856522,-0.09493371500198772,-0.0005456857725788723
400,0.0006702049210165484,0.032145505925417095,0.009824748336484845
401,0.0005074984440924801,-0.01449389558241676,0.009483528600021782
402,-0.009556720126672302,-0.03728493660964227,0.01931969213160719
403,0.0022451651813883977,0.05310520560187382,0.00866893583639394
404,-0.007765117231448793,0.08290250174707614,0.019594823042969438
405,-0.00956241102689892,0.01689187278523896,0.02007512592626954
406,0.01659958992047006,-0.07255055325602827,-0.007644507744187286
407,0.013300659349637645,-0.16588955456606674,-0.00535413384682397
408,0.002670169359929364,-0.09361509445759059,0.006154852544569985
409,0.018862511149150274,-0.09670140102863156,-0.01024461637866134
410,0.011810558081027489,-0.033472053006367575,-0.0023226406481067895
411,-0.00365182500791994,0.08128364585400705,0.015107606012130782
412,-0.00021855616828991842,0.0423377582903266,0.011105715884174788
413,-0.01337595993737739,0.0659393617918217,0.024734446250688963
414,-0.004305379067915394,0.09261363675218848,0.01607534380596844
415,-6.252827888253432e-05,-0.06091174466581484,0.00937262527090552
416,-0.00406283215236003,0.06885792547014591,0.015337724151125803
417,-0.015282571631834219,-0.08040700140276075,0.024720149609008694
418,0.005936130986665011,-0.1587295091810194,0.002106323259363853
419,0.012260370366276474,-0.17104302540172478,-0.004197390296213962
420,-0.0005977794227793876,0.04142423431421138,0.011406059898586318
421,-0.0010743891081791412,0.027662833175211232,0.011536422773487902
422,-0.015320640941958619,0.04462832526115679,0.026409926993640146
423,0.015675629528021373,0.06932840252102646,-0.004516948852846326
424,0.0028133312616192008,-0.29380770307005816,0.0041969338404995145
425,0.014722637671054084,-0.049597331722699145,-0.005354926179117683
426,-0.026973394576427334,0.09839304559878326,0.039298838694662844
427,-0.00024252908500033143,-0.01161934129754677,0.010418927648029966
428,-0.015461786459948113,0.04640604553920136,0.026590343527169717
429,-0.008354796671430242,0.014424865789303798,0.018710477996032204
430,0.0009444431672505083,-0.05656571976374447,0.008421727569990071
431,-0.0033505710260199884,-0.08316575921422287,0.012337706442937088
432,-0.003580795101751355,0.07497235615396969,0.01495986001784695
433,0.0012224263135240943,0.04095134713104798,0.009547916939345851
434,-0.002076197487865139,-0.02669683544533663,0.01183414135387411
435,0.0029421492770143054,-0.0683484312228197,0.0062556290690330574
436,-0.004392662321117569,-0.01303487245821111,0.014362049639804536
437,0.0037136297552220476,-0.025349628550599912,0.005968227871774616
438,-0.014456553718147358,0.022345720823621074,0.02520274094877841
439,-0.03007519124309932,-0.07282149469504212,0.03962752618385348
440,0.01504677238724672,-0.06257179821510855,-0.005804875257609092
441,0.005844401770109142,0.08985044491311167,0.005637031439144085
442,-0.0017633612163243662,0.06691481146078948,0.013063993092183954
443,0.0005745961710752479,-0.09196585462963236,0.00843201868109536
444,0.004736736562930721,-0.0641685284205814,0.004365747676805404
445,-0.008068637152818803,-0.06338494867152072,0.017342419555181187
446,0.0018472597054526307,-0.13171448966592658,0.006515755386249657
447,-0.008507080356610852,-0.05684629188333373,0.017883680873717823
448,0.0021058973028176275,-0.33959525690474124,0.004796052161684383
449,0.010067184770300885,-0.12725380398816077,-0.001654547718689173
450,-0.00035174853402641926,0.041111638294981434,0.01135662725013026
451,0.008613787740735956,0.06380355028570628,0.002284063076912389
452,-0.005448323676566558,0.061327123904541425,0.016625517128974025
453,0.004981455374902577,-0.029888209881981098,0.004646198599721356
454,0.0099890865942589,-0.1364958325013812,-0.0017140796298346687
455,0.00988794126224768,0.10013475456437992,0.0017080739213020933
456,-0.009687390174583532,-0.012027276968014311,0.019683953921772808
457,-0.003062212690340904,-0.11389119681948956,0.011980315858626455
458,0.007926683369029908,0.011035206164361266,0.002358970209106701
459,0.001600943958169454,-0.051973079855746174,0.008086601458573933
460,0.0028178333565873626,-0.04068925447031335,0.0067478913891662155
461,-0.01062891458909887,0.03263500063736713,0.021636254232141074
462,0.0037095375501745576,0.08876817628599198,0.007991808837475401
463,0.006240225376551223,0.028056585311776572,0.004136359612854358
464,0.0007888375215143739,-0.022527675793712565,0.008892517974817384
465,0.01183616141560595,-0.05592074853356854,-0.002581723783434245
466,-0.004548493611259863,-0.00629766945373611,0.014583477128109371
467,-0.010457687940678362,-0.18644890452185248,0.018501983417994416
468,0.016690968734629275,-0.10525827101166124,-0.00804587430215579
469,0.004337355433528645,-0.04888127203243481,0.005067361233392694
470,0.0032976256281909144,-0.007781516234999952,0.006617309723955077
471,-0.002815588424873283,0.01864361663681624,0.013295631834022242
472,-0.014415451677424307,0.030593737774554985,0.025198733887412346
473,-0.006230196958427303,-0.04064833474191293,0.015849723438530056
474,0.017475540941375378,-0.16465390414538944,-0.00942641348935158
475,0.008078644348846309,-0.07735864332988601,0.0008785461526382278
476,-0.006212536714866546,-0.08940713078303719,0.015310372382330024
477,-0.008651818390836397,0.09685189121099302,0.020762854506060285
478,-0.002393579733863116,0.029412751588844155,0.012927937279102297
479,-0.0034731142297936834,-0.1122328494195991,0.012361006363564957
480,0.01623632754795379,-0.04521500579077237,-0.006860090281197153
481,0.0023339024634105865,-0.21734714800918542,0.005222748566551672
482,0.004081707461232709,0.07491730034065713,0.007205316446038524
483,0.017196861354207504,0.04712056933363851,-0.006714160042148797
484,0.007692298784983231,-0.09899285812608838,0.001165304505918357
485,-0.0033745706205001724,-0.008937357137653201,0.013384713793539777
486,0.007472141387485864,0.07771361439640612,0.0038734837250785858
487,0.00852818520210663,0.009915424374455695,0.0015936538426945845
488,0.00038538018966405296,-0.022456172051321943,0.00939175683724243
489,-0.00737829380107613,0.047017687334734326,0.018473833870794442
490,-0.004769296947766066,-0.09313843785519554,0.01383018171774038
491,-0.014968677921761153,-0.09579485504802371,0.02420381413806863
492,-0.011955104561353735,-0.03394422321932322,0.021768499992123543
493,-0.004227720530539325,0.04666793253421353,0.015185866595759398
494,0.0007240164694548579,0.028987418665441744,0.009748536001794128
495,-0.015205566726389064,0.019963596842310083,0.025850192880665965
496,0.0014098962489521583,-0.007151288074796369,0.008507046845361037
497,0.00831399975451097,0.023726049712802122,0.0019592647863732053
498,-0.014239143221870476,-0.05622453365793634,0.023723887554501742
499,0.014747703363960474,-0.019879213406973406,-0.005017493478729375
500,-0.006698678747482978,-0.035911937698408225,0.01664788801576051
501,-0.003761056146210917,-0.1275638177529413,0.012431914532544578
502,0.003955600630090483,-0.0502957462560068,0.005522097401661813
503,-0.01609047287522203,-0.03503690135010046,0.02584666573054983
504,-0.00322806263929154,0.044478065816998535,0.013992656782031918
505,0.0067135924182744056,-0.002685990073837241,0.003270639398570893
506,-0.012136742740484596,-0.01356057004484823,0.022165219286571846
507,0.0069471560131180166,0.043099963709796185,0.0037677141290887446
508,-0.0022392262064128143,0.07885088711251798,0.014052485010818964
509,0.0299504273256892,-0.07424160526701018,-0.02118964285309503
510,0.0033689616548053802,-0.05131092748911853,0.006005128471727039
511,-0.008876224373484565,0.047265257786184844,0.019972687319492796
512,0.0036737122558954116,0.037837100111498434,0.006900778839782288
513,-0.010009468321550474,-0.10966144693027258,0.018944282802820452
514,-0.00024413368175224548,0.049270686604855674,0.01119092354878776
515,-0.013046873269031534,-0.03859213110923876,0.022769460539075408
516,-0.011656599953752678,0.04381757180378543,0.02250303016286871
517,-0.00448038977551779,-0.026700934843724322,0.014402580131813739
518,-0.007807279879093909,-0.0005340409152490011,0.018253087213060463
519,-0.006222489451549795,0.05133149275485671,0.017327884498168897
520,0.0028166153047330944,-0.0416403869907524,0.0066569365352082965
521,0.009920198565923188,-0.043973290663205544,-0.0005593985979508943
522,0.0071627051199179,-0.045618347866465736,0.0024556852020452425
523,-0.0059473857125939,-0.002415700987593694,0.016124986175731465
524,0.012251740498963493,-0.10246834476408895,-0.0032768272541228724
525,-0.00663947019822464,-0.043178399433512815,0.016297170924459713
526,-0.008772924865451226,-0.07308206470944628,0.018140456586861545
527,-0.008392964558126437,-0.0034731741368718705,0.018740140938322294
528,0.00675988263036853,-0.03411641172228108,0.0028677154091086778
529,0.0006469251884972937,0.05861295785443399,0.010359720598120839
530,0.011604084797815828,-0.09935921142087462,-0.0028673096618886122
531,-0.00010393362027072417,-0.027919840327105983,0.009815746303676497
532,0.00036433474926789167,0.09338302617135574,0.011397425068633674
533,-0.007164485623762706,-0.02385634832721123,0.016981631015128187
534,-0.00807981437667038,0.003499074394585633,0.018532026156965548
535,0.006742457057559603,-0.008358982490519473,0.003095980437808794
536,0.00428012632900554,0.025849155039590954,0.0061018257479749085
537,0.0018978132387745816,0.07098755334101425,0.00943512659653643
538,-0.007755787111279555,0.07361652258411266,0.019268048594656285
539,-0.0028307989804218225,-0.026811482112866103,0.012576839686685161
540,-0.0034933017433748104,-0.010312381144877758,0.013477637607584438
541,0.010685067076926735,0.04585973249885922,-8.704944854671339e-05
542,-0.007944705077749359,-0.1813032749657324,0.01595767205941629
543,-0.00927422565464564,0.09980945427923804,0.021275356680675397
544,0.02596437401871543,0.009803231834945803,-0.01605408008878694
545,0.0030169775284414335,-0.08700748051772922,0.00583338934225103
546,0.01665582855339287,0.02028094152317661,-0.006480143369273356
547,-0.002315486346815998,0.01846451691423434,0.012858326275072978
548,-0.005877881173049659,-0.009578018443339775,0.01600225393218243
549,0.0012037305425953715,-0.056315527535378385,0.008051089141499141
550,0.011489731460037733,0.1318028874896432,0.0007361849158089172
551,0.018157874263155183,-0.06069393602686224,-0.009185671203659877
552,-0.0015477584102767672,-0.05578854627068963,0.010914427725117639
553,0.016511593982270867,-0.11659446168822402,-0.008027972836286063
554,-0.0007286762148882575,0.034845901307749894,0.011364018389619741
555,0.016484191223312905,-0.11057200984080978,-0.007642698788308735
556,0.01006058011646771,-0.0441344259356784,-0.0005838455129760405
557,0.011565173924679373,0.03487998504036682,-0.0010780997692245364
558,-0.012309986434807851,-0.17774858337811283,0.02042833731751616
559,0.0035668008083793445,0.13042546067285377,0.008746863416093037
560,0.00956437229627749,-0.030138783709809436,-6.559675057033019e-05
561,0.015171718338393259,-0.0602725105326235,-0.006079699522231204
562,-0.013972362221439383,-0.03475454491337471,0.023763067256047724
563,0.008056017915679226,-0.04064024351595397,0.0014364274070881946
564,0.008367685745479969,0.060573161324654734,0.002558500650388123
565,-0.0049141106252053035,-0.0448141215515383,0.014416350817508828
566,-0.015719224927824293,0.07934953546158652,0.027664696496336728
567,0.009418294825682683,-0.0031876983876844567,0.000526261442656687
568,-0.010094699710776367,-0.031955992009958356,0.019905692006000935
569,0.0041257326195272,0.015978573038101462,0.00617417244764074
570,0.007257301451858433,0.03979610318526572,0.0033540677487933863
571,0.01626045619188865,-0.11696078396030218,-0.00764864732581882
572,-0.0036055837909300115,-0.09959338575746929,0.012366604479838134
573,0.0076635217155218704,0.028298515824700665,0.0027866354128978856
574,-0.0013297025419327646,0.0702088032647068,0.012683932138056844
575,0.015227921937680522,-0.10355896211019278,-0.006503026872605551
576,0.0018776364375370225,0.017611727885774364,0.008727786959746664
577,0.0013200518284481877,-0.028880803153686352,0.008276583646728432
578,0.004416395154690944,-0.0442269084137773,0.005129998327400244
579,-0.007270770621964129,0.026516698498998514,0.017947037579094105
580,-0.0041910426983892135,-0.013332587325591228,0.01427204528200782
581,-0.015464521690499278,-0.017837797941583522,0.02566269919839633
582,-0.002579793490649518,0.04146351423460726,0.01329477575910605
583,-0.018142298038260063,-0.039680934693378855,0.02810368599837275
584,-0.004621813280251241,-0.018531284203133824,0.014745829857431999
585,0.01044405256538794,0.033851065629691646,-6.66615149621066e-06
586,0.001945648819704049,0.002891362586516011,0.008185153190829624
587,0.01844465747020796,-0.0220278023289327,-0.008932342177743158
588,0.004068532830279414,0.021963016339029084,0.0063449463259315966
589,-0.0069517717861301564,-0.02448593242351116,0.016784920838240396
590,0.0012764015886197466,0.08591316421506412,0.010602987000263965
591,0.02029963667519752,-0.11835098887443696,-0.011805583355387535
592,-0.002683244435784937,-0.0278772052551014,0.012609410295270027
593,0.00020873360842332822,0.10441666300509089,0.01186292454497834
594,-0.017612229146642067,0.05079513277805625,0.02887679700040735
595,-0.005516670928740863,-0.12412198252314216,0.014115284759903078
596,0.002817642372947793,-0.01989039026906958,0.007061539443986294
597,0.0004668098897810946,-0.11909888385907796,0.012915809095194346
598,0.01834878546894525,0.1000846675589151,-0.0068465222264192565
599,0.011695789472815799,-0.017494017266379724,-0.0020645349901624284
600,-0.012424482791671299,-0.14770329231905943,0.02087369095838567
601,0.010812178357356483,-0.04566762214987846,-0.0015189656888856917
602,-0.005281649617625117,0.011472925001840717,0.01557477717823058
603,-0.0036999594091370325,-0.013855849542641463,0.013647999266740408
604,-0.0010729582019067818,0.035092155296772676,0.011880311057387552
605,-0.00034713411508624503,-0.0007433442595207729,0.010455137560003823
606,-0.0026167153807747923,0.0038019916320158886,0.012932564404207552
607,-0.005160670618046037,-0.08611811082663912,0.014165510941279172
608,0.014377580343903018,-0.018495485280157653,-0.0046792905495451126
609,0.011671504998289839,0.054672309382527984,-0.0007035243035115854
610,-0.019808555299737574,-0.13293540185383068,0.02845364383615033
611,0.008710834464604078,-0.07498388800280043,0.00021969478914706997
612,0.0026495519620048924,0.1055191604843786,0.00922464674317598
613,-0.016611307884784043,0.017404228257777432,0.027515344339047988
614,-0.0016617662653803933,0.010945896157695256,0.012043223055768977
615,-0.0029522691304739723,0.03611444705933031,0.01364592131487061
616,-0.006900066728795506,-0.04269543876015608,0.016544383425359955
617,0.0011867527150619672,-0.004530875938870582,0.008775884569420668
618,-0.003469894768192705,-0.0748680824008432,0.012726545407841695
619,-0.010567868699509209,-0.07354939969461721,0.020082256573326594
620,-0.001708766019383523,-0.030458666952503266,0.011437764196552963
621,-0.006403028685251111,0.09584760022501337,0.018255959943725246
622,0.004114934887537114,0.04152449282187631,0.006478386235766447
623,-0.005962373040557911,0.04045025207060282,0.01693918751286783
624,-0.006500915938974616,-0.045139166633499705,0.016034812976267677
625,-0.022045476099060046,-0.004893292558065032,0.03261984327951213
626,0.012964731325566525,-0.049471596449935595,-0.0035158010189381456
627,0.012885623683550618,0.04460589366724743,-0.0023493297581837396
628,-0.004407061948791702,0.067020120557301,0.015764241612380284
629,0.008426976676196851,-0.014905125670862274,0.0013593336376930892
630,0.005596816779604774,0.02722428698879842,0.004927378875793147
631,0.008585952649320827,-0.025331241081051725,0.0012381237153180336
632,0.010808825761988938,0.022455542853743515,-0.0003580655077523261
633,-0.0019051853132341368,-0.08572315605621389,0.010954363859750266
634,0.004822153088346326,-0.308506361463159,0.002091139285341342
635,0.007933916859474532,-0.008050670031629348,0.001972987208834638
636,-0.007114891787759481,0.011430179829822529,0.0176587547193345
637,-0.010565923414465717,-0.009295401776805157,0.020640258877384986
638,0.01617207091353645,-0.051457428154824236,-0.00697647302862897
639,0.008733613428556275,0.03681504511744926,0.0019317462152746885
640,-0.0018567351683963507,-0.00012768188740203135,0.01197163538679215
641,-0.0012261120386088953,-0.041235334902183673,0.010892277127866874
642,-0.011177135971131458,-0.047671198888375343,0.02088767850993354
643,-0.009154299633776342,-0.13058275894095295,0.017730012372215425
644,-0.0017838507259506642,0.015825784503944895,0.012348199714415932
645,0.007995979920636609,0.04641687007949624,0.0026203396057097052
646,0.005599771522219799,0.01818701457545413,0.004830861476440987
647,0.02268592301033312,-0.04699190630722344,-0.01340017439245712
648,0.0201132958425998,-0.02916911389262372,-0.01050085367223346
649,-0.0005100629683019164,0.09258013829025058,0.01206630125255906
650,0.0055547811143474846,-0.04035023602761939,0.003998556685636868
651,-0.021592064259520205,-0.008278887648455302,0.031909824915365606
652,-0.008790018508239794,-0.04755734928315952,0.0183262002629559
653,-0.0003677707502243166,0.0004262611554266549,0.010451731305730209
654,0.0027956856824564724,0.005666964995213686,0.007395453091632044
655,9.806780609000754e-05,-0.08785503344374224,0.008838819332907406
656,-0.01737673518476912,0.05269819267692033,0.02859777956757898
657,0.0025060566394898842,0.056115005959006425,0.008519802312318097
658,0.0011980341069106615,-0.043908568685022575,0.008341331441948204
659,-0.018377771661305164,-0.062485376253128444,0.028062887023039548
660,0.0016152278129391018,-0.016788650085240775,0.008338126642705902
661,0.0005578632153293572,0.014428110512122672,0.009893926467789606
662,0.0037076562033069305,0.04548986677869493,0.007243748963941289
663,0.005154835727875229,-0.03970362050212711,0.004434673101772932
664,0.01463047195794176,0.05709861623032886,-0.003832720162770238
665,-0.0026040674234037997,-0.26904916516280863,0.00980865134215419
666,0.003302099783123902,0.043798886868506415,0.007725977326826978
667,-0.003370218319216356,-0.0598783381891973,0.012775205545018981
668,-0.00017545584877598497,0.005158011700094778,0.010316119764024188
669,0.020825840783996963,-0.10873818344422415,-0.012326726456916003
670,-0.014166740036377523,0.0733141807003157,0.02575852616367647
671,0.007417846510704873,-0.03198936108964068,0.002129661063821186
672,0.01217641393908031,-0.08020839855774786,-0.003053687826629175
673,-0.001624890149211855,0.04046655158888535,0.012294159556714293
674,0.001166895639024057,-0.0014005922540026305,0.009236251360361712
675,-0.007995699547372781,-0.047164157870984935,0.017646814951365376
676,-0.012592596726764382,-0.14520627115613832,0.02106961996411792
677,0.0005830568203932796,-0.12016548210674699,0.007921198162908514
678,-0.010840136109835696,-0.14565606143693532,0.019346669509218917
679,0.003706126452461378,-0.03983794183979844,0.005860249149482297
680,-0.004227545740663641,0.016542842241832112,0.014578905360241697
681,-0.0015944053098874145,-0.022998664293662374,0.011657507508274285
682,0.016005048959421453,0.030291031334577,-0.0057564831875371964
683,0.015865221428778886,-0.10942343389143855,-0.007423824581955887
684,-0.003564145133717278,-0.10018096979007768,0.012513397503562737
685,-0.008552232002763449,-0.017687799970209472,0.018684029805315732
686,-0.0028874910975800194,0.011993568601548876,0.01331754831404869
687,0.0026055579265855666,0.048757644981251236,0.008150637610219018
688,-0.0064612927631473305,-0.005203314661895053,0.01653588160550207
689,-0.0004844966559068853,-0.06570456796831325,0.009697583818299063
690,-0.022232385921860276,-0.07252198947392935,0.03186245398402152
691,-0.005115340565004178,0.05417762615075927,0.016309299210423706
692,0.00209695781256225,0.039314163954002224,0.008870994401885582
693,-0.00029688952064887975,-0.06487857900403687,0.009556029228176522
694,-0.002125604961347616,-0.1432249894735163,0.010524006898457082
695,-0.0056263547814777715,-0.09955014942029916,0.014713388839451728
696,0.010872146059915488,-0.02198370967121649,-0.0012807406567550061
697,-0.0012475453052910312,-0.04981655003844726,0.010628075286227976
698,-0.007923773950994972,-0.019055599564565207,0.018044184098143706
699,-0.0018523403197725496,-0.018214982701505567,0.011663230525025391
700,0.004395135650218096,-0.05026600353520827,0.004923171488096886
701,-0.00235826628988578,0.09451660258303118,0.014008582579458561
702,-0.015262445796720425,-0.2111477291044525,0.023334715083090124
703,-0.00860287116060332,0.013730194317447264,0.01911154372008623
704,-0.006536989289843809,0.050240167741192776,0.01775052721695847
705,0.01088224023561124,0.023177600106014995,-0.0006892132569028035
706,-0.0045157056351793345,-0.014944140206645806,0.01446906010932289
707,0.009039702171546704,-0.03354026772838953,0.00040118930471217025
708,0.0037809258843384264,-0.003259203728607496,0.0061570606560753735
709,0.01830544592345551,-0.10875205556007028,-0.0099028754035764
710,0.011744474039476538,-0.036123586069382096,-0.002321143405604198
711,0.007702963614509617,0.09421559461016182,0.0038333339807115406
712,-0.0030754629741861494,-0.08879340589359025,0.011978375706561201
713,-0.01134814339036827,0.08345815835446146,0.023058241269942666
714,-0.017466146122345427,0.1119710549734807,0.02980588732585438
715,-0.004142183457795046,0.011171676767020022,0.014417529621028916
716,-0.018653934960683016,0.03230025135271686,0.029610652814635978
717,0.020487246057250497,0.01447784705724875,-0.010569461836850496
718,-0.011108089044310154,-0.08737161227277984,0.020097800006674334
719,-0.0036203337378689637,-0.027704855381663007,0.013315897388279154
720,0.0053808506452566185,0.05667652236808718,0.005567534964706465
721,-0.011550417662518297,-0.00927590834307207,0.021753790221469716
722,-0.0005795027714782242,-0.12021792114855917,0.009378368312432758
723,0.0016279799880905,-0.022174076777326523,0.008167118473422852
724,-0.005697041760217902,-0.08057597341455391,0.014837616773521767
725,-0.003952871982357831,0.00488415233564421,0.01411994557897524
726,-0.01638615222302442,-0.0671002153483426,0.025748291296154822
727,0.009285716614978456,-0.07075968618881495,-0.0002950128715196115
728,0.010146868407830967,-0.024524348902213444,-0.00041585225278813594
729,0.01482105395483524,0.09428981067494135,-0.0033405510132941347
730,-0.0018431957662902176,-0.10121361958978103,0.010833752123642626
731,-0.013945210668654728,-0.003934274204379085,0.02413698319019786
732,-0.0025569461603975885,0.12119930186585348,0.014897741225136452
733,-0.00024431777802325083,0.06294245982292068,0.01142673627143904
734,0.0028188034927718597,-0.06137620695997559,0.006321155676562739
735,-0.010414265040549098,0.04643670449099957,0.021404360996166723
736,-0.0016113849797688706,-0.08526562402747262,0.01077475653281781
737,0.009076340863619192,0.031801667663093,0.001471429414112572
738,-0.00080945980875613,-0.0063916823855723615,0.010819987815777131
739,-0.012594262354848396,-0.01108044814433512,0.022763380544953908
740,-0.005829106899044589,-0.22053368488169084,0.013476445883458837
741,0.004431503773146828,-0.08835813327200631,0.00446034078253033
742,-0.009561620362105172,-0.05547781178346822,0.01911515371197911
743,0.0073273941892144645,0.08285308473122666,0.004090964735205489
744,0.0012111148469220456,0.009883976186178423,0.009106755064953722
745,-0.0033973878611601727,-0.22513619216118042,0.011192166947600344
746,0.004432600368639905,-0.09098153642097456,0.004439070269525291
747,-0.011015604073456364,-0.03470478644995473,0.020913329620372133
748,0.006359122843140552,0.022293439215368527,0.003903069649768258
749,0.00045661420567677524,-0.11058121959441725,0.008220123034284552
750,-0.0014520700985497514,-0.02400566185888986,0.011537354419524309
751,-0.006797412630950794,0.025690116957480247,0.01736319446225225
752,0.0028738546979842905,0.09600397676710082,0.008884684774218294
753,-0.016760772370062682,0.0012467678137367821,0.02722000874807418
754,0.012507819564534062,-0.07267537031502846,-0.003320443483424788
755,-0.009054340910764291,0.05979335251063722,0.020264300881807865
756,0.008770839191959867,-0.02974798957190028,0.0009224997257895666
757,0.0034169295976707037,0.03136493453575606,0.0073458558897407785
758,-0.004438539349472248,0.0916900204146609,0.016150811116312433
759,-0.006623261165984551,-0.07144562533744225,0.015886347938396467
760,-0.0016418220309117881,-0.07852995067212232,0.010641276837714759
761,3.099999360789418e-05,-0.11488091210923407,0.00863925796704225
762,-0.018254038615184598,0.04929278732309805,0.029627557093007635
763,-0.008147275740893689,-0.014740025836877335,0.018481767842851694
764,-0.0020455608663283442,0.08925417627645182,0.013734388384044905
765,0.009191973157998579,-0.09583626519997746,-0.00047956652564371324
766,-0.003594022818288689,-0.0722377841454998,0.012806051751789527
767,-0.0030759570322321794,0.0909226616613732,0.014768796813856353
768,-0.0009910307874664293,-0.034163610728982385,0.010801406258390307
769,-0.0016796650180941342,-0.0003932810328839964,0.011853422784795838
770,0.004495679985772494,0.07676318739966115,0.006839231067759283
771,-0.007784566624881806,0.026607659361079672,0.01835386309500045
772,0.002011248009495814,0.007333170592389582,0.008030716962071529
773,0.008567698575719485,0.08381099531670422,0.002773305401296238
774,-0.0024188394727238105,0.016311018883211625,0.013006782588893293
775,0.008020781848285363,0.09576884381931272,0.0036459479979344908
776,-0.0041818162244774415,0.04037793918034749,0.014975750021383101
777,0.006242732100479209,-0.020901221343176235,0.003404002247539756
778,-0.009159730732495208,-0.12687592220186056,0.01780775741306625
779,-0.0006147161223025721,-0.07098769111119263,0.009797721019623715
780,0.02079579565749512,-0.16408636142485628,-0.012919650851048027
781,0.001332279711271589,-0.10877408677250688,0.0072702200561498105
782,-0.011501471256307738,-0.005001707986335147,0.021667576132946304
783,0.0007091581355980203,-0.050158378974387074,0.008655589995271657
784,-0.003988918158669641,-0.011759194262870809,0.014144323680753587
785,0.009311720501957499,-0.008656671448131703,0.00037428842750923647
786,-0.0038501489605464734,-0.061201121121123636,0.013269380390060178
787,-0.007241810211773281,0.10372361976959021,0.019301881882350973
788,0.011860174126165024,0.006713471574961494,-0.0019087840859063363
789,0.014301988701031831,0.12407723831050566,-0.002283066389003579
790,0.00398011758022121,0.04948000994937518,0.007109685045971309
791,-4.235353727732871e-06,0.008740105590340441,0.010271478627996839
792,-0.0028642570101732323,0.07921636936383725,0.014440623659613084
793,-0.0024072854011505385,-0.061141878062886235,0.01179402655786762
794,0.0016053624976724024,0.0020143552135102327,0.008636253151652819
795,0.00774542749078555,-0.024406415713669416,0.00193973605553565
796,0.007663169215421428,-0.01643710398677478,0.0020850958661394543
797,-0.00561618022939292,-0.07351226431675079,0.014759307183199417
798,-0.011786897166828902,-0.174480251459122,0.020136833430911792
799,-0.02170355220885245,0.00802535588788622,0.03261384154100815
800,0.015313913721395123,0.07737301015826836,-0.004321597041960558
801,0.003052926541894596,-0.05845233494444296,0.006211910272629939
802,0.0028993101829428714,-0.0695084187348417,0.006201972706850029
803,0.020770112043506206,0.007217788706493367,-0.010909907435435526
804,-0.00956571318503252,0.0487834693615079,0.020606983621369
805,-0.010406534213376895,-0.0469527309990716,0.019903401896483774
806,0.0007994529717179066,0.07719615181147244,0.010637836159608742
807,0.007491099807885426,0.008235203963544269,0.0026437948777547717
808,0.010819822920418387,-0.058823830353705975,-0.001591595737377611
809,-0.004883187092545871,0.036381220749690635,0.015617599949037504
810,-0.013660536788521638,0.05918420265292079,0.024937435667267527
811,-0.0004042892110608376,-0.08056275065395169,0.009512777055714287
812,-0.006306327620107743,-0.04702105655664446,0.015985121268071816
813,0.01264264094329981,-0.06517137256185707,-0.0036287423326193677
814,0.006720341914407957,0.051858650260652395,0.00415085251611672
815,-0.0056816131314088025,-0.02851710363951032,0.015510920352961147
816,0.0068146759600438145,-0.06404309957803483,0.0025473915587806914
817,-0.003691410556759811,0.020242651657194632,0.014117254594274346
818,-0.0005268359132581946,0.10509686890996595,0.012397562398079208
819,0.013632474563424868,-0.31557276605628437,-0.006915912114405182
820,-0.0030462772777282154,-0.06572064485258805,0.012274136905955857
821,0.008369336681267603,0.0835387052473483,0.0029311581148745974
822,-0.008570748137859519,0.015023026111014803,0.019242247594684705
823,0.002632460464531139,-0.13134809368579292,0.005989675071913189
824,-0.019019027814404676,0.07375508037718848,0.030950746444391008
825,0.004044188452635433,0.04110739855650758,0.006742238751944205
826,0.010001274550647254,0.06757609507880247,0.0013690525617792446
827,0.006083770764174767,0.009534656850590073,0.004194795893836454
828,0.004803089132364047,0.10815183821893382,0.0071757786452215444
829,-0.004882865054772201,-0.06870827136708141,0.01407321917766276
830,-0.005221405928153566,-0.07915036846815443,0.014461662225047621
831,0.00407200331405666,-0.0733604022953862,0.005109171935133418
832,0.007469470941955381,-0.11189437426163495,0.0012635592754151731
833,0.009784465471178061,0.08831186638311073,0.0015952947041998414
834,-0.0047104783632295755,-0.00921743555950727,0.014800617507155039
835,0.009618013193587238,-0.02586093592631933,-8.648789925300661e-05
836,-0.005182099095509041,-0.005223548010870438,0.015582961232948583
837,3.121739211464636e-05,-0.06769562780377181,0.009109184815539084
838,0.0024536725702204443,-0.049454513716070014,0.006983957415275108
839,0.0050168780580768235,0.03228529070326758,0.005430490022464437
840,-0.009606164678474638,0.04393453531068647,0.020589063458741293
841,-0.011329836889096834,-0.05158476917248367,0.021054425670197816
842,0.012762413486946178,-0.008149488109312208,-0.0029692697369366216
843,-0.011294400022390683,-0.13772904436858213,0.02000184157880267
844,0.011198460063156057,0.11211954168321436,0.0008138153800802683
845,0.0017765954242765503,-0.12627670788466105,0.00682773483105575
846,0.008962784279128222,-0.21789493509566432,-0.0013307782256928476
847,-0.016288987106882424,0.052765164205184956,0.027665957512243766
848,-0.0014250786305636254,0.0430833387143027,0.012356876614286739
849,0.004703309436263181,-0.1421259663016317,0.0037054711483293433
850,-0.008188290409621768,0.030169702905560203,0.019083041767383475
851,-0.00717472836136035,-0.10823175751656627,0.016130478095772924
852,-0.002401173693340697,-0.060731868492917285,0.01200446164389341
853,-0.010070794614376766,-0.26704683000935436,0.017337764554168463
854,0.0038634695127544028,0.010005388768205226,0.006408778566732326
855,0.004986069053426911,-0.1131288114584102,0.004038408202045866
856,0.005086140232711367,0.049877560997165116,0.00570230309517101
857,0.016060842431063316,0.043618918686469166,-0.0054781433391843165
858,-0.005808860292037088,0.031502844453047185,0.016543228741951133
859,0.007384978052038749,0.116042958462796,0.0045900877473919535
860,-0.004980250494900917,0.08373243018971044,0.01661968163152651
861,-0.0045868738514904805,-0.03459936028503491,0.014180099855937624
862,-0.008570701200672715,-0.08068036610595952,0.017724455839157237
863,-0.007640096422157572,-0.10626479435489927,0.016499741951562102
864,-0.006620577689972262,0.10688146411951038,0.018679313985516272
865,0.002542406472414882,-0.1348012404380456,0.005806795302112187
866,-0.02184107121668888,-0.07509833560989193,0.03124644471137344
867,0.010665817936064581,-0.030693228668328798,-0.0011920346204877205
868,0.005163196568118922,0.030294782132062936,0.005331395390917896
869,0.01927978741463532,-0.05124844467732659,-0.010208388524373186
870,0.0064091335600691135,-0.042615854738083436,0.0029791937398293156
871,0.0032894740563924607,-0.04544101331639039,0.010648280322876236
872,0.0039957258287424136,-0.039057147405406556,0.005507699452855377
873,-0.008096486325435581,0.023591607774404943,0.018773997779959244
874,0.009079478668832852,-0.22346075006426275,-0.001314552244261904
875,-0.0005358481144374094,-0.037557561461090405,0.01014853678334257
876,-0.007102894775812274,0.08438891349725486,0.01866367660168453
877,0.001643603708600061,-0.03181601986851035,0.008012015478145803
878,-0.018507372563589808,-0.05156948271719386,0.0281024905463546
879,0.008201032067357561,0.04504988765656004,0.0024977593685318426
880,-0.006081814608961511,0.08083765482683358,0.017648069464759282
881,0.002467757284529748,-0.01937220211755858,0.00744720194411002
882,-0.008638001981769894,0.023749375808398976,0.019299569768154105
883,-0.0033939653354628785,0.016766185189971528,0.013710522099165973
884,0.017286900124000137,0.055417409589521904,-0.006294406249279564
885,0.011394890391929424,-0.06118024441134018,-0.0021764307215968075
886,-0.006035603519593424,-0.11487338357061172,0.014863751330333252
887,-0.006118813374461629,0.04391166579329897,0.017278057491101208
888,-0.007114238275426121,-0.09002662749651846,0.016324254025119445
889,0.008952076120405605,0.03367903202825928,0.001456403545212379
890,-0.019036188975316448,-0.0022090564427563186,0.02942440562586653
891,-0.002497627080961129,-0.04320671425071687,0.012068177923865733
892,0.005279869312419416,-0.02610941465356481,0.004603971369347892
893,-0.003734567755567797,0.06022471260839013,0.014853606106286861
894,-0.0024376789086406614,-0.05876249644909143,0.011950833288582362
895,0.0017628960753577338,0.042308239112793355,0.009080233828958808
896,0.00892802998525255,-0.0990761172374065,-0.000294371094690905
897,0.008131149837407703,-0.028138982602260387,0.0015753395597503186
898,-0.007561161029321584,-0.014007838926067662,0.01758880525167715
899,0.006241521166399311,0.018248505611723864,0.004201529366470822
900,-0.011737577803352273,0.03219579230369107,0.02268317692078326
901,-0.00443220573627201,0.03339136968027301,0.015293351713983248
902,0.014106124821247068,0.10103933007754518,-0.002251107812102964
903,0.003548597237239548,0.030652814334309775,0.007186137034656895
904,0.025117521424745437,-0.09996009107749487,-0.016491450372214604
905,-0.0063667760635849335,0.08372099303227087,0.018172248313624188
906,0.009329580521484804,0.09083831385957641,0.0022626275650500247
907,0.0027768226104103455,-0.01588873795108775,0.007129689596314347
908,-0.01230187249251491,-0.014635215556519865,0.022750406028246288
909,0.0006508207929498688,-0.021783629090646184,0.009014216529896658
910,0.00827019519085459,0.008346623982237178,0.0018782533046804019
911,-0.003577564191058258,-0.0014803443909818803,0.013734780907136701
912,0.002372361748621321,0.05287618108080705,0.008550395441606452
913,0.022627890537829654,0.10936544065365172,-0.010932563206107443
914,0.001492285815356098,-0.08425892031503479,0.0076454330002779895
915,0.0012718160463180972,-0.08123252700121442,0.007931752573833
916,-0.01086833890253236,0.07967761102182302,0.022414943114665586
917,-0.011022584760624565,-0.09358915684542318,0.020052366627938863
918,0.0038059601155064904,-0.046873246359940224,0.005720790156518706
919,0.010640272846998533,0.06967300758341266,0.0003398120580646719
920,0.0006106506855767524,-0.08084311523816079,0.008518173439425845
921,0.010092881891931693,-0.0761067865446251,-0.0008309271306341543
922,-0.0022926554860420723,-0.05311903791336092,0.011766869263791887
923,-0.010174086148168393,0.02034353215659601,0.020784387974480706
924,0.009902346640004778,-0.10822817319810818,-0.001248519362271145
925,-0.0006682736743391926,0.13512342592806492,0.013306301698135757
926,-0.010998094486506571,-0.09300888009830538,0.020310267056295378
927,-0.011057471753183057,-0.15819074333515015,0.01934077762943234
928,0.018185262106036548,0.001328326030292315,-0.008468351707812507
929,0.01734954369343633,0.036080291060826664,-0.0070503816870985244
930,-0.0034302455486728833,-0.08175128228844919,0.012567717929161335
931,-0.009990531512187872,0.01230179824236144,0.0203567879565142
932,-0.0067955374759759435,-0.0351482772151831,0.016464392613203562
933,-0.018108226201365984,-0.10436446368347035,0.02701932101109396
934,0.011706443238575392,-0.07563743634546544,-0.0027788162688981172
935,-0.01912753420746971,0.09079874848917824,0.031180812072143273
936,-0.007444543710370177,-0.021168991295446637,0.01730805310400374
937,0.003947329782508113,-0.38247900753450337,0.002523582479905963
938,-0.005330837112633491,0.03862861819203933,0.016367018294260377
939,-0.008999182743429812,0.0708325806330532,0.020595826074238904
940,0.005271209643516572,-0.02262708429708854,0.00444211896499055
941,-0.014577468695628926,0.07127762653000869,0.026214940519788434
942,-0.024094836871193626,0.04839409856005672,0.035338377869351824
943,0.0026274496540623637,0.04828823387947223,0.008276691524527632
944,0.006661392412411926,0.009389149747984993,0.00353268856220875
945,0.014447777082555957,0.13965343159028454,-0.002154522550409456
946,0.00653588981936104,0.03675611814609958,0.004269044929123993
947,-0.0004720950372352206,0.018261870949985437,0.010963694578713875
948,0.015788139309300453,-0.0012287064988804053,-0.005809714185202574
949,0.005098014230322967,0.008463048196343692,0.004983675580166892
950,-0.027862432608684262,-0.005167990679385004,0.038410885442046856
951,-0.014284407746718908,-0.0015491554330330781,0.02466314687243739
952,0.012721985625575583,-0.0026836357910575703,-0.002877738256517841
953,0.01081447460162721,0.049488432317938424,-0.00011171042064561334
954,0.002241404389442092,-0.021454424298338548,0.006399576783906196
955,-0.001276749412434608,-0.0016075251997584306,0.011433464160917175
956,0.0031178750518556786,-0.16673680326576756,0.004920381087955866
957,0.01827557698279403,0.08803685958920271,-0.0070033225870820386
958,-0.013589538545142998,-0.12208185701263069,0.022351827931074878
959,0.008560134157260979,-0.13841394448908378,-0.0002141685427230186
960,0.012275545237790508,-0.03137337004643914,-0.002870419003373354
961,-0.027034636121386346,0.020785815971954835,0.037886945271146215
962,-0.009760881389173526,-0.1011392205785358,0.018749832144851826
963,-1.502756179794229e-05,0.014222503520137542,0.010264615655969101
964,0.005172142823644421,0.014337050210015745,0.005086310611980298
965,-0.0026136239055779553,0.0074687934280924795,0.012999876658104223
966,0.005657129503997549,0.02562926180255054,0.004663469651583546
967,0.0005785914517082436,-0.1395156419863663,0.007870652429674193
968,-0.0011021349455273555,-0.029397068539948168,0.010717102736945709
969,-0.014200408254314456,0.01615875947929868,0.02495518331321473
970,0.0008840501359770325,0.04817728588657455,0.010161994911708461
971,-0.008060631561933373,-0.11801147614007207,0.016721933554942916
972,-0.011194905078971806,-0.1634430745247319,0.01941323201398827
973,-0.003845510445556477,-0.002461542066715894,0.013917554284303878
974,0.01157630866049364,-0.07361631414906034,-0.0025058230069455022
975,0.007101797042315727,0.04236415978031516,0.003447747323531621
976,0.0025076090190840894,0.053694313610982314,0.008353672729792015
977,-0.007797847615941822,-0.02928464490389948,0.017601799404955456
978,-0.005780842213142456,0.04497339968538627,0.016652589559197985
979,-0.006257023562568964,-0.09814164877096826,0.018390658379341222
980,-0.002406189289078098,0.016857475935707633,0.011924768717627376
981,0.006156228334147196,-0.1593254393577404,0.0018960998449247199
982,-0.0006488915352944602,-0.04631917728932167,0.010307255593140871
983,-0.005159836971445508,-0.020660009073128205,0.015108990293007992
984,0.0037621002668961623,0.10988430769729252,0.008133009068705723
985,-0.005555059349313551,-0.008820984031544854,0.015721031027894607
986,0.015174865684603134,-0.14138735954147813,-0.006902181646754616
987,0.008205844583829114,-0.19093854003207467,-0.0003754274761309716
988,-0.01581052374574554,-0.049364016689563195,0.02536113126943983
989,-0.0006253885874691889,-0.0423850918663809,0.010052007424522162
990,0.0014483536567364563,-0.07595675051676143,0.0076746469892048485
991,-0.013358825733344237,-0.07853988705686427,0.022571277032917714
992,-0.007323350870617418,-0.026967517125132734,0.017144625612827803
993,0.000503836075844033,0.059398232900697345,0.010744356805122151
994,0.013277362266190362,-0.005378897120596249,-0.003215430834086692
995,-0.005702727754725467,-0.14160013151949175,0.014160163224796815
996,-0.0093126781787366,0.08275180806735638,0.020979633872098384
997,-0.025578362177861802,-0.008119070066111955,0.03590473332667043
998,-0.014824116979621937,-0.09721885134213687,0.02379299588880458
999,0.009303771635225777,0.04905527657617925,0.0016041176976736096
